0 -1.1831947097729e+03 2.6967137859371e+04 -5.9261120153993e+00 1.5243883810799e-03
1 -8.8302112051564e+02 2.7041530336050e+04 1.5681450465143e+00 1.0675396721262e-03
2 -2.8415866468437e+03 2.7148203975699e+04 -1.0327052213377e+01 2.6790119326642e-03
3 -1.5113630039210e+03 2.6579114831634e+04 -3.3802785390582e+00 7.8388518620301e-04
4 -8.4676228925312e+02 2.5930656606758e+04 5.3282633283880e-01 8.7806947643213e-04
5 -1.6890542749890e+03 2.5915708476323e+04 -5.5735202062865e-01 2.1410620095625e-03
6 -1.3907535208402e+03 2.5766267715788e+04 1.7417921375883e+02 2.1021643758437e-03
7 -8.6687869393587e+02 3.0562125466363e+04 -2.1787485714210e+01 2.1874669444115e-03
8 -1.8122719595513e+03 3.0764927594850e+04 -1.7821851890629e+02 2.6253226135714e-03
9 -1.1519129719418e+03 3.0754264111420e+04 -4.0545887755314e+01 2.9857564989361e-03
10 8.6980928541177e+02 3.0192277989376e+04 1.9716712626463e+01 1.9938802173036e-03
11 1.9852063542521e+03 3.1321989361143e+04 -6.3572952606031e-01 3.1406516655303e-03
12 1.3129413681507e+03 3.1292402669991e+04 -3.8024084808754e+00 3.1410092537347e-03
13 2.3223017146011e+03 3.1189446222261e+04 -3.7051273697798e-01 3.1053717328193e-03
14 1.3132625226159e+03 3.1201841745265e+04 1.7875310471876e+02 2.7560013918011e-03
15 1.6849896176671e+03 3.1384857691387e+04 -1.6452567141356e+00 3.0723350735584e-03
16 8.0495031612059e+02 3.1421856695553e+04 1.7450669941242e+02 2.9694204191187e-03
17 -8.5737890092346e+02 2.5576358098987e+04 5.3712666023948e+00 1.2501334322520e-03
18 -1.1599924907413e+03 2.5460279438963e+04 1.7073564097425e+02 1.7416493944646e-03
19 4.2458575514080e+02 2.6076202724009e+04 -4.9425935276052e+00 3.4435719622497e-04
20 8.1532507177948e+02 2.6624378817621e+04 -4.3490612292112e-01 2.9712295791490e-04
21 8.8670947070032e+01 2.9572922779111e+04 -1.7175886105451e+00 8.7558733852602e-04
22 -1.5797881607913e+03 2.2309091251051e+04 -9.1728897097724e+00 6.2431795835467e-04
23 -1.8415249782034e+03 2.2679296928064e+04 7.5806721205173e+01 2.6771831363025e-03
24 -1.1892568748400e+03 2.2678143161627e+04 1.2052698130707e-01 2.0487971722791e-03
25 -1.3192272085474e+03 2.2613430485737e+04 1.6327918804078e+01 2.1429441146617e-03
26 -7.2182754876083e+02 2.3735543289446e+04 -1.6707550623922e+02 1.2573126129673e-03
27 -6.7043154825567e+02 2.5057452329414e+04 4.7592659024105e-01 1.0632437830445e-03
28 -1.6723993802359e+03 2.6102498918193e+04 4.6140022502779e-01 2.5192620613601e-03
29 -2.1650278587345e+03 2.6026621445178e+04 -9.5916942814025e+01 2.8572537581372e-03
30 -6.9633492149768e+02 2.5679294559899e+04 -1.3062932589956e+01 1.0163135742264e-03
31 -2.2781111623426e+03 2.6780090526766e+04 -1.7693749914815e+02 1.8093970455499e-03
32 -1.1187803444932e+03 2.6939021289974e+04 4.3849652803799e+00 1.2668166008887e-03
33 8.2475004995639e+02 2.5771688772748e+04 -9.1614985840368e-01 3.0589073967306e-04
34 -1.2288206024668e+03 2.0865893017685e+04 1.4649596359265e+01 1.2125914465820e-03
35 8.1213652362058e+02 2.0856930306595e+04 9.0658266213024e-01 3.5169514307393e-04
36 -1.8278909349401e+03 2.3586430756458e+04 -1.5468543427374e+02 1.1677854109688e-03
37 1.7501913465996e+02 2.6494837356123e+04 -5.5499856738396e+00 3.3704629401053e-04
38 -2.6869179905814e+02 2.9906178826942e+04 -3.6259229897571e+00 1.5383888185021e-03
39 -8.8528581763217e+02 3.1314686617541e+04 -3.5311307614117e-01 3.1430370420265e-03
40 -1.0506066853696e+03 3.1310802072596e+04 -1.0453254046982e+00 3.1163807629476e-03
41 -2.7815467501663e+02 3.1001250140996e+04 1.8230630553776e+00 2.3864798608136e-03
42 -1.1008604944240e+03 3.0954634502490e+04 -4.8493157104369e+01 1.8164485706929e-03
43 6.5040275620841e+01 3.0713303201028e+04 4.5442828665822e+00 2.9038663920133e-03
44 -4.1295203368931e+02 3.0870824117011e+04 -4.0530644212884e+01 2.7777597575843e-03
45 4.8336715098676e+01 3.0903666171427e+04 -1.3241315835794e+00 2.4472697258532e-03
46 -8.4572180198211e+02 3.1447244394930e+04 6.7654118905522e-01 2.2179770391577e-03
47 1.5280459076999e+02 3.1866939712547e+04 -4.9368389339310e+00 2.6239877698220e-03
48 -6.9249486995902e+02 3.1930643478826e+04 1.7623095404117e+02 1.4521256701682e-03
49 -3.8825615529216e+02 3.0664338473532e+04 -7.0685124177952e+00 1.7971664328852e-03
50 -1.8529550485845e+03 3.1973810463129e+04 -1.7747986646691e+02 9.0330438797333e-04
51 -5.9556208800707e+02 3.2166913792672e+04 -1.7041178278257e+02 2.0989705381130e-03
52 1.9704651373469e+03 3.1818273006920e+04 1.7444097531571e+02 1.4211353467687e-03
53 -8.3622822952699e+01 3.1350099207788e+04 -2.8108636438308e+00 2.7788157730400e-03
54 4.3802749356346e+01 3.2876659267472e+04 -1.7865785054611e+02 1.1240349601761e-03
55 -2.4225070433745e+02 3.2267787730694e+04 1.7279007641694e+02 1.9888625098179e-03
56 1.5749706049115e+03 3.1255020865631e+04 1.6667436588156e+00 1.2538596082997e-03
57 -1.0305862615810e+03 3.0067613401358e+04 1.5070570594196e-01 1.7993733176538e-03
58 -7.3850418913824e+02 3.0055134750423e+04 -1.2310734880031e+00 1.9266066783293e-03
59 1.9133132663235e+03 3.2345555896498e+04 2.9958153038127e+00 2.2186479450858e-03
60 -7.2185865200129e+02 2.6746689781048e+04 -3.4210930225740e+00 7.6981486189495e-04
61 -2.7572782743577e+02 3.2699571611421e+04 -1.6068125354861e+02 1.4041217911292e-03
62 -1.0622983029150e+03 3.0453960759296e+04 -1.2889370022649e+00 2.3572434705027e-03
63 8.3535404128833e+02 3.0231698773150e+04 -3.1452625869544e+00 1.5826397987910e-03
64 -2.4287145509852e+03 3.2002001033439e+04 -1.6445126760436e+02 2.3551647662118e-03
65 -1.1943091760166e+03 3.2035027689974e+04 -1.4859287386094e+00 2.2858402473771e-03
66 1.8518005380630e+02 3.1538353848658e+04 1.7754812375198e+02 2.4830265188741e-03
67 2.5260364977973e+02 3.1372377902993e+04 -1.2509982540892e+00 2.6190968217823e-03
68 -4.1029523900185e+01 3.1633543031525e+04 -2.2454188425984e+00 2.9813323474861e-03
69 3.3170547477984e+02 3.1676237438296e+04 4.4350864213946e+00 2.9693022332321e-03
70 -2.0316470724018e+03 3.1561034151755e+04 1.7429576128991e+02 1.9096123113779e-03
71 -1.3471882453988e+03 3.1568682027975e+04 5.5288554701990e+00 2.8070648424805e-03
72 4.3991797861067e+02 3.1789295607063e+04 -7.5125222551772e+00 2.0415936685310e-03
73 5.5078751039736e+02 3.1713374063433e+04 4.5769117892062e+00 2.9645332614271e-03
74 1.2311736535508e+03 3.1460455021712e+04 4.8739074452099e+00 2.9356273250396e-03
75 1.9505114275195e+03 3.1460043282707e+04 1.0857772540091e+00 2.7551278723995e-03
76 3.7909412020599e+02 3.2111685394789e+04 3.2257754714099e+00 1.8556376253290e-03
77 3.8649939038640e+02 3.0244097507093e+04 1.7447619694341e+02 1.1650579056541e-03
78 -1.0041366727669e+03 3.1159895099855e+04 2.1975507372523e+01 2.3484857536935e-03
79 -1.3785335117684e+03 3.1097082472907e+04 -1.7149239823014e+02 2.1332978201581e-03
80 1.5602331638069e+02 2.9993905200392e+04 -3.4150578197673e+01 1.7352024486953e-03
81 -5.2032678134869e+02 3.2268609078964e+04 -3.3167079069543e-01 2.0895169197236e-03
82 5.0028507071265e+02 3.1279763822751e+04 3.3040341127901e-01 2.9727126343096e-03
83 1.9761593100562e+02 3.1376447968503e+04 -7.4680155100419e+00 7.0238777289735e-04
84 5.0538651281235e+02 2.9895208576650e+04 -2.6866744671469e+00 1.5332817177159e-03
85 -2.3546953051297e+03 2.8019261334498e+04 -2.3796540323806e+00 1.3703684364502e-03
86 -2.4135383928912e+03 2.6427894343388e+04 -4.7540901562900e-02 1.2532768121381e-03
87 -1.0705593933396e+03 3.0971189507870e+04 -2.8893261675575e+01 2.1357004671512e-03
88 -7.0015638800519e+02 3.0697064285647e+04 -1.5420330777318e+01 2.5035587069013e-03
89 -5.0420937591414e+02 3.0749310943657e+04 1.7089171026001e+00 2.7385259561249e-03
90 -2.0086122994772e+03 2.8399190079227e+04 -2.5883094265008e+00 9.7529892336179e-04
91 -9.7418292383892e+02 2.8267433195903e+04 1.1378126182977e+00 8.0100094174877e-04
92 -6.5412808159359e+02 2.7468867804572e+04 6.4987693291168e+00 7.1723035004321e-04
93 -6.3775948938690e+02 2.9030513209239e+04 -4.6456950415630e-01 6.3473312472640e-04
94 -1.2361922827964e+03 2.7361646148664e+04 -1.7317750160818e+02 1.4624110166153e-03
95 -2.0559211810704e+03 3.0193441271084e+04 1.5666767052238e+02 1.2349764656263e-03
96 -4.3596825024563e+02 3.0058795807393e+04 -7.7220258305556e-03 1.9335948805177e-03
97 -4.5409004894712e+02 3.0065574544039e+04 6.1230680032106e-01 1.9288532093866e-03
98 -2.1555777172929e+03 2.6900674930197e+04 -1.3834853723967e+02 1.5678763437627e-03
99 -5.4168992651584e+02 2.9828032569051e+04 2.7749133815635e+00 1.3916023996049e-03
100 -8.9569620134784e+02 2.4759457462043e+04 -6.1262720469703e+00 1.4282084887725e-03
101 -1.1404778396894e+03 2.4856428882501e+04 1.5958699157544e+01 1.8081204246649e-03
102 1.4905833630159e+02 2.5151582094556e+04 -1.7942310008055e+00 3.1913734745927e-04
103 -1.4465625605286e+03 2.8038643348822e+04 -2.0686101625286e+01 1.3006564734960e-03
104 2.6344888821197e+02 2.9042375726355e+04 3.6369948130648e+00 5.4956947729000e-04
105 -1.9996684952806e+03 2.6982345556101e+04 1.7520649111021e+02 1.6311853130058e-03
106 -1.9735524834104e+03 2.6768809384139e+04 -1.4843387814556e+02 2.1609561205965e-03
107 -1.5682466169003e+03 2.6786959984256e+04 -9.5685503660225e-01 1.8300830085540e-03
108 -1.2252283870832e+03 2.6314288696752e+04 -7.7916408900758e+00 1.6990207884710e-03
109 -1.1119382793672e+03 2.6273814928696e+04 -1.1623977692766e+01 1.3861724316176e-03
110 -1.6724879028656e+03 2.6448755840221e+04 8.7350719255788e-02 2.4559557546813e-03
111 -8.6345821710325e+02 2.6708864120958e+04 5.1054194526253e+00 9.0565736232478e-04
112 -1.5590447831844e+03 2.6888282212127e+04 -1.5740071675652e+02 1.2065940140846e-03
113 -1.2794629095648e+03 2.6833819871772e+04 -1.5836995581283e+00 6.5696231798116e-04
114 -1.0693310655676e+03 3.0878139729580e+04 -1.0417834558409e+00 3.0908268970429e-03
115 -7.6483705645149e+02 3.0891787311558e+04 2.3185044155646e-01 3.0979336814285e-03
116 -1.7253225598537e+03 3.0875141224197e+04 1.7739015753888e+02 2.8557553919575e-03
117 -6.2970507234833e+02 3.0827569063014e+04 -2.0430393597190e+00 3.0325678635334e-03
118 -1.2807342503802e+03 3.1127599864508e+04 8.2571072463205e+00 2.1184968579239e-03
119 -2.4014329710275e+02 3.0276463359217e+04 4.5883509287759e+00 2.2064318388455e-03
120 -2.4316796331222e+02 3.0232203237065e+04 -1.2730780859822e+01 2.2172217965042e-03
121 2.0902126313947e+03 3.0718996094873e+04 8.1107711458269e-02 2.1379087588845e-03
122 -9.4490212104465e+01 3.0729630199036e+04 -1.0993168700533e+01 1.7891606751344e-03
123 -2.4401263072138e+03 3.0121117125603e+04 1.7967108360421e+02 4.9198753488691e-04
124 -3.2173980566844e+02 3.0076567269024e+04 9.3547550030810e+00 1.8574990688494e-03
125 -5.6028853814634e+02 3.0350699540420e+04 8.3345330331962e+00 2.3856832633484e-03
126 -4.9469395342308e+01 3.0704255622365e+04 2.4756607518052e+00 2.1181208994383e-03
127 7.9866729453147e+01 3.0674232597242e+04 4.7360240083167e-01 2.5600361833284e-03
128 -1.1205635402037e+03 3.0618481261441e+04 -5.9640291696837e+00 2.8657523209368e-03
129 -6.9436291500516e+02 3.1662088300023e+04 -2.3689902003712e-01 2.9734540335522e-03
130 9.7833554613230e+01 3.1657899407094e+04 -2.7933733870264e-01 2.9854844961466e-03
131 -6.8610693037188e+02 3.1268496187020e+04 7.7020456000124e+00 3.1037378531331e-03
132 -1.1236861539875e+03 3.1268514285638e+04 1.7728837509957e+02 1.9070195886087e-03
133 -5.4764241188401e+02 3.1255869928212e+04 -1.2898246806934e-01 2.0708359298626e-03
134 -5.6104433584908e+02 3.1114332262462e+04 1.7693014001431e+02 2.9824561335289e-03
135 2.7878704501185e+01 3.0653272560683e+04 -3.6716058868846e+00 1.9474746520327e-03
136 -2.5343765192753e+02 3.0658025628937e+04 -5.9076814122455e+00 1.5328044791329e-03
137 -9.2637396267485e+02 3.0755924530468e+04 -1.4787891450911e-01 1.4933528806919e-03
138 6.8844714272913e+02 3.1821379477378e+04 2.7460860321271e-01 2.8311211011458e-03
139 -9.9081290799806e+02 3.2927773699384e+04 -7.1687900367714e+00 5.9773228873652e-04
140 2.9981417751924e+02 3.2248102013176e+04 -1.6992046408390e+02 1.5372148974102e-03
141 -4.0484909846861e+02 2.9276765073114e+04 1.4649994203393e+01 8.1338180740887e-04
142 3.0398182307293e+02 2.9483111777167e+04 -2.2342948347951e+00 9.7607631330553e-04
143 -8.8949155620141e+00 2.9528111266346e+04 1.4522941935262e+00 9.4987420087348e-04
144 -1.0918645717686e+03 3.1507724252790e+04 -3.5921509484487e+00 9.8573760567436e-04
145 -1.5741169459897e+03 3.1373736393781e+04 -2.8603887563707e+01 3.1328765099809e-03
146 -1.6446843456167e+03 3.1416204285443e+04 6.3323647349908e+01 3.0740706208087e-03
147 -7.8766015833033e+02 3.1228875241122e+04 -1.2415054365794e+00 3.1574671557211e-03
148 -8.9190368304005e+02 3.1221993474012e+04 -2.2346742503763e+00 3.1574215205443e-03
149 -2.2915343828322e+02 3.1769646839595e+04 -6.8332743957020e+00 2.7409177492992e-03
150 -6.7482572799252e+02 3.1850905723423e+04 -3.1049898778926e+00 2.7460805699934e-03
151 -5.3003559513134e+01 3.1730351376187e+04 4.9848454695527e+00 2.8914195940795e-03
152 8.0417041704349e+02 3.1883094103978e+04 6.1332186983246e-01 2.0006374527737e-03
153 7.9226510295188e+02 3.1878168439670e+04 -3.4549414718977e-03 2.8346495491132e-03
154 6.9427480690797e+02 3.1677239151443e+04 -2.3133210034757e+00 2.6272355451853e-03
155 -1.5223817171650e+02 3.1677350998052e+04 -1.2651900858169e+02 2.7611165644312e-03
156 -1.2039327748271e+03 3.1546927755943e+04 1.7767077069525e+02 1.0779756985175e-03
157 -1.0711448419694e+02 3.0435929278924e+04 1.7574740883120e+02 1.3200225397140e-03
158 9.0345993214071e+02 3.0435054792338e+04 4.2826486610055e+00 1.6684461110117e-03
159 1.8010007604199e+03 3.0333891083905e+04 8.9507065039826e+00 1.9055345076467e-03
160 -1.3963510783364e+03 3.0583411063143e+04 -8.0227010225022e-01 1.5331341314814e-03
161 -1.5909400598356e+03 3.0571471454792e+04 -6.0071148993091e+00 2.3224945248622e-03
162 -3.3119327444396e+03 3.0633759082151e+04 -1.7947995880665e+02 7.2187722811168e-04
163 -7.9394921858170e+02 3.1079621194507e+04 2.1221130738555e+00 2.4231249218730e-03
164 -1.0755650186955e+03 3.1580781172073e+04 -1.4867360654788e+02 1.0225453630363e-03
165 7.1610140121843e+02 3.0506132764957e+04 1.5583393320329e+01 2.5488510568735e-03
166 1.2099814561796e+03 3.0453562899480e+04 -6.6362488108183e-01 2.0462068866849e-03
167 6.1444545581489e+02 3.0542705287863e+04 2.1288218954779e+00 2.5853283138193e-03
168 -1.2935395652335e+03 3.0244337440933e+04 -1.4729496926602e+01 2.3305023035984e-03
169 -8.9128789424131e+02 3.0282410159946e+04 3.0676183525841e+00 2.2763212078221e-03
170 -1.1761447952308e+03 3.0289150591582e+04 7.0647816495424e-01 2.0239289050577e-03
171 -9.5768526533356e+02 3.0411445778053e+04 -1.9477911137206e+00 1.1564037865441e-03
172 -1.0821374047078e+03 2.7243489447811e+04 8.3160816882026e+00 1.2685746476910e-03
173 -5.4426534986585e+02 2.7123533055883e+04 -4.4464926179304e+00 7.2517775739859e-04
174 -1.7306780549420e+03 2.8409747450883e+04 -1.1481323627167e+02 1.8159832090457e-03
175 -8.2057145547749e+02 3.0027304585515e+04 1.4730140092824e+02 1.7035652205445e-03
176 6.9044005133856e+01 2.9923215107817e+04 1.4718034131486e+00 1.1625223059751e-03
177 -1.2093445215167e+03 3.1555835321403e+04 -1.6533234912557e+02 2.1470963895991e-03
178 -1.2269156203767e+03 3.1632971108700e+04 1.6736703857633e+02 2.6608850514859e-03
179 8.0535755691072e+02 3.1402723779582e+04 8.0942243410098e+00 2.1341505216037e-03
180 -1.6627262503015e+03 3.0626905818511e+04 1.7144710030611e+02 2.2100298491524e-03
181 -4.8764338288790e+02 3.0553276941645e+04 -1.6497018796197e+00 2.0362182737620e-03
182 -1.1302548122181e+03 3.1969085956784e+04 -5.9959384864765e+00 2.3274767368649e-03
183 -1.1479351510238e+03 3.1899805405198e+04 -1.6620237614253e+02 2.6390557276402e-03
184 -2.2564024363034e+02 3.1881454986383e+04 -6.0095223350488e+00 2.4723802916902e-03
185 7.4911492595206e+02 3.0787571744941e+04 1.6802301482181e+02 2.8440506745990e-03
186 1.1505093398939e+03 3.0690518085447e+04 -3.7151205648391e+00 1.3878650823669e-03
187 -1.7255828797040e+03 3.1045111789402e+04 1.7612392580582e+02 8.6932712956147e-04
188 6.0699899342944e+02 3.0670608196829e+04 -1.2563750144918e+00 2.4556088483887e-03
189 6.1394227990976e+02 3.0895698033797e+04 -1.4969243647947e+00 3.0368717985399e-03
190 -1.6604300569603e+03 3.1560936384755e+04 1.7839161000084e+02 1.2307320222238e-03
191 -1.6469488133547e+03 3.1569983314252e+04 1.6308794745363e+02 1.9849151577498e-03
192 -2.0990800629161e+03 3.1490105961217e+04 -4.1624190935813e+00 2.5044832734563e-03
193 -2.1184461148315e+03 3.1324858365535e+04 -2.3951888283394e+01 3.0737154763621e-03
194 -1.7723163229574e+03 3.1337833019638e+04 -1.2966663189565e+00 3.0146138241264e-03
195 1.1236865811665e+03 3.0481629645236e+04 1.3013290715280e+00 2.2900593360249e-03
196 -7.5727493961051e+01 3.0171424113457e+04 -1.7544757123710e+02 1.6974829229107e-03
197 1.7380490066094e+03 3.1786985532028e+04 -1.7661609029670e+02 1.3855658634841e-03
198 -5.5628386386048e+02 3.2352288952761e+04 -3.4562819142852e+01 1.8747996771628e-03
199 2.2622554981476e+02 3.2176509012810e+04 -1.0567988461843e+00 2.1571021938862e-03
200 -5.3922792840724e+02 2.7779419961112e+04 6.8485110991066e-01 6.6965226262849e-04
201 -3.6768128163248e+01 3.0079681503671e+04 2.2698181836336e+00 1.8994839897764e-03
202 -1.4746460591255e+03 3.0046238307108e+04 1.0663003436056e+01 1.5783970207224e-03
203 -1.6053806227019e+03 3.0771841648964e+04 1.7915069182273e+02 1.9268859400933e-03
204 -2.6308852470937e+02 3.2536311426914e+04 -1.5280505869619e+00 1.5688176336656e-03
205 6.4807593603273e+01 3.0041615850738e+04 -2.4407807292728e+00 1.6622650743999e-03
206 -8.2021447904036e+02 3.0115602592417e+04 3.1556317302721e+00 2.0596398674130e-03
207 -1.2922082438581e+03 3.0131752625963e+04 1.7505531909853e+02 2.0954023521852e-03
208 -5.9928504987212e+02 3.1091990307068e+04 -1.5209495018979e+02 2.4667023109951e-03
209 -1.0856504434045e+03 3.1637247854261e+04 -1.5806583262869e+02 2.9269629518445e-03
210 -1.4467274879668e+03 3.1694884889507e+04 1.7524923477983e+02 2.6316023111622e-03
211 -2.7843021608762e+01 3.0535812548840e+04 -1.7873653095914e+02 1.5212600928626e-03
212 8.2425147276962e+02 3.0538953560513e+04 -6.4501838761813e-01 2.2680894499896e-03
213 1.6894275436192e+03 3.0329234687270e+04 6.6197666111315e+01 2.0815348136462e-03
214 -1.3379418742995e+03 3.0968085169834e+04 -4.4191514607867e+00 2.3806557831295e-03
215 -1.5382597606660e+02 3.0701061283198e+04 -1.7626738584672e+02 2.6988448601420e-03
216 1.2476181335006e+03 3.0700179041688e+04 -1.6876712788636e+00 2.7121365127165e-03
217 9.1326162384346e+02 3.0668915682606e+04 5.4633930702826e+00 2.7381813031679e-03
218 -1.2276801442368e+03 3.0550167299694e+04 4.6505145501194e+00 1.7568191560973e-03
219 -1.5304280344450e+03 2.9623716219125e+04 1.0690828901327e+00 1.0827258133970e-03
220 -2.0428264940596e+02 3.2617315482500e+04 -1.5857923565605e-01 1.4338838082977e-03
221 -3.3726050082011e+02 3.2162408107525e+04 -4.0352228726735e+00 1.9732660223990e-03
222 2.7252138777790e+02 3.2218272012891e+04 -1.7245119488710e+01 1.8176226697336e-03
223 2.6805791239011e+03 3.0947243296515e+04 3.2685702016536e+00 2.4679363126748e-03
224 1.3486739737308e+03 3.1079589567273e+04 -2.4428404941194e+00 2.8331959535490e-03
225 8.3024915636971e+02 3.1065667944530e+04 -1.2849006344500e+01 3.1339823005403e-03
226 -1.4362585287584e+03 3.1054244019749e+04 1.7824038199438e+02 2.6474591026378e-03
227 -9.0928493996921e+02 3.1091827077138e+04 1.3482538465352e+01 2.7904088249618e-03
228 -8.3993502650169e+02 3.0986618141407e+04 1.1583372687524e+00 1.3887856286112e-03
229 8.3026714149892e+02 3.2571494371194e+04 3.7189745708360e-01 1.6539840504097e-03
230 -6.0789313984910e+02 3.1113999080767e+04 -1.8940429465885e+01 3.0099608261871e-03
231 -2.1658291981584e+02 3.1211230013855e+04 2.9694764148238e+00 3.0643767327006e-03
232 -4.4310801786015e+02 3.0615992928334e+04 -9.8627959572805e+01 2.4066954694211e-03
233 6.3881521735494e+02 3.0781116066619e+04 6.1910957389614e+00 2.9231664650364e-03
234 1.3922256573765e+03 3.0691152553036e+04 -4.5977578566180e+00 2.6366515357348e-03
235 -1.7855927017460e+03 3.1180619878867e+04 2.2366220470396e+00 1.8910694321446e-03
236 -1.5277492444060e+03 3.1188759684439e+04 2.0790980314510e+00 2.7957615401761e-03
237 6.0443764851102e+02 3.0843121070502e+04 -1.5024638118393e+00 1.9455112405390e-03
238 4.6398206932276e+02 3.0532459190404e+04 -1.4226451829518e+01 8.3263320637578e-04
239 -1.0066549434259e+03 3.0711666945512e+04 -1.0756177296963e+01 1.7141903248727e-03
240 -1.8471322678324e+03 3.0504850800764e+04 -1.6254462604534e+02 7.5875553411584e-04
241 -1.0287459507554e+03 3.2189766691794e+04 -4.9955329319215e+00 1.6811138233584e-03
242 8.9293215096449e+02 3.1212358531920e+04 -2.0745722885388e+00 3.1452242252558e-03
243 2.3786476035246e+02 3.1167372795064e+04 -1.6245633919854e+02 2.6843035085461e-03
244 1.4545060421518e+03 3.1481206668850e+04 9.0076255292655e+00 3.1512641578062e-03
245 8.1622725173887e+02 3.1358028021830e+04 -1.6532153560655e+02 2.8699691147740e-03
246 -2.1898524565529e+02 3.1806557920500e+04 -7.3054246143246e+00 1.0330397655340e-03
247 1.8101735762402e+03 3.2246886766011e+04 8.6903515257112e+00 1.9915920494794e-03
248 1.2899873759292e+02 3.1483216491720e+04 9.2043769088296e+00 2.7844840493492e-03
249 7.4074183680283e+02 3.1413077678236e+04 -3.8410775735859e+00 2.3361703963729e-03
250 -4.9925299032556e+02 3.1938997868338e+04 -1.7699201271235e+02 1.4287097692434e-03
251 1.6791196498468e+03 3.1736556732676e+04 1.3496388486016e+00 1.2897567260693e-03
252 -1.2472334618492e+03 3.1816363240529e+04 -1.7986562231003e+02 9.8029630450059e-04
253 -1.4091428691755e+03 3.0963494084939e+04 -1.7537767620898e+02 1.8698084115230e-03
254 -2.8503526683713e+02 3.0948765656965e+04 -5.9332533342894e+00 2.7493447017140e-03
255 -1.1053775607081e+02 3.1013610190305e+04 -1.7026905726844e+00 2.6272659147775e-03
256 2.0105547131086e+03 3.1483172457713e+04 -1.2330552208879e+00 8.8121416948397e-04
257 2.6397908693417e+02 3.1387637554463e+04 -1.5820238573900e+02 3.0270063307259e-03
258 1.0003096722232e+03 3.0836562362032e+04 -8.2518194419542e+00 2.7110897854565e-03
259 9.3850384229432e+02 3.0879748185955e+04 -3.3177774345621e+00 2.4571719930041e-03
260 1.9603115000296e+03 3.0832266958460e+04 4.3182194230537e+00 2.4300147774309e-03
261 1.3048090992544e+03 3.0823987304245e+04 1.5660908216468e+01 2.9115666029864e-03
262 -4.2782597516193e+02 3.1439122002519e+04 8.5567311750828e-01 3.1305672361765e-03
263 -4.3081245140521e+02 3.1422201523169e+04 -4.0468925939919e-01 3.0930350532359e-03
264 -5.8862640934470e+02 3.1230071401588e+04 1.7134031686710e+00 2.4800893220807e-03
265 -9.5957555696337e+02 3.1189307129151e+04 -6.7060086771228e-01 3.1175750198832e-03
266 3.8079212575102e+01 3.1650396747341e+04 -2.9928664715540e+00 2.7827991075958e-03
267 6.9977444207953e+02 3.1642768593542e+04 -1.4678568665152e+00 2.9446604067133e-03
268 -1.4007850374563e+03 3.1502794137873e+04 -8.9948773349537e+00 1.7198684104184e-03
269 -7.5704092676060e+01 3.1228730981646e+04 -1.7867292303852e+02 3.1557626608927e-03
270 -3.0141765898293e+01 3.1296171946723e+04 1.6984507245645e+02 3.1566673441439e-03
271 -9.0670151764655e+02 3.1262445210265e+04 2.4505594729255e+00 2.2107245280810e-03
272 -1.1053672753480e+03 3.0350902305649e+04 5.8377803166062e+01 8.0249616009697e-04
273 -4.7574782942186e+02 3.2132622280457e+04 5.7982839775185e+00 5.9654643620142e-04
274 -6.0643301083161e+02 3.1936756572075e+04 1.7611365053678e+02 2.0422932622102e-03
275 -2.2279569831594e+03 2.9879762141753e+04 1.2709952044510e+00 2.5743354282136e-03
276 -2.6923283862300e+03 2.9936071195255e+04 1.7291109094506e+01 3.1151064219107e-03
277 -8.6086298012630e+02 3.0120545070625e+04 1.7201158007196e+02 1.2939669875043e-03
278 -9.4636962465198e+02 2.7810106679488e+04 -2.3283459353042e+00 7.1579251187228e-04
279 -2.6848491597688e+01 2.9493492884507e+04 2.2561067972938e+00 9.2811180529987e-04
280 -2.2835759957013e+03 2.9014074412116e+04 -1.3770955000036e+01 2.3370147841766e-03
281 -2.6838682332616e+03 2.9133018217263e+04 1.5314582938619e+02 2.3728273013274e-03
282 -1.7096957667709e+03 2.9090223296678e+04 -2.1393793790915e+00 1.3873643869149e-03
283 -5.2882751226870e+02 2.6072868991904e+04 -5.5486370557642e+00 5.6085766968358e-04
284 -2.9267056801067e+02 3.1298401385616e+04 -3.5079511645209e+00 2.7793393330516e-03
285 -1.1024845996038e+03 3.1550943939964e+04 4.5770235632763e+01 2.8777555741331e-03
286 -4.3163966703811e+02 3.1487907092390e+04 -1.7278980300163e+00 3.0516532662632e-03
287 8.2057133138905e+02 3.0885831190347e+04 -2.8895497774439e+00 2.8019284913154e-03
288 3.0096097444826e+02 3.0896487075365e+04 -8.9423078052575e+00 2.9912938825654e-03
289 5.1444165756291e+02 3.1368797814200e+04 1.4857724884022e+00 2.2544871749108e-03
290 -1.4314763701093e+02 3.1367945044297e+04 1.6933430018994e+02 2.6322307746451e-03
291 -1.1157381729423e+03 3.0681020602751e+04 -5.1939261867923e+01 2.8795312337012e-03
292 -2.0398024594966e+03 3.0611648040828e+04 1.3062743369812e+02 2.3727171522104e-03
293 -1.0448134862804e+03 3.0581226603586e+04 -4.8997251162215e-01 2.7509877007221e-03
294 -9.6045523683303e+02 3.0653545479134e+04 -7.8217724140208e+00 2.6141293309778e-03
295 -6.4595853902356e+02 3.0705712022762e+04 -9.1823136719756e-01 1.9551719083595e-03
296 -1.3299217082448e+02 3.0491990584229e+04 -4.3883608882391e+00 2.0402904264014e-03
297 1.7035837652325e+03 3.1517825531061e+04 -9.7318680649819e-01 1.8033133763745e-03
298 1.1812259218473e+03 3.1515970328632e+04 -1.9173143837737e+00 2.2362971467324e-03
299 1.6222099574172e+03 3.1446326390444e+04 -5.1473824691798e+00 3.0473006188634e-03
300 -4.9847386400535e+02 3.0937151274360e+04 6.4208082771702e+00 1.7252115472614e-03
301 -2.6789518546108e+03 3.0868268173077e+04 -1.7658641780417e+02 3.0020959165199e-03
302 -1.9112441315712e+03 3.0886368524023e+04 -2.7854135005215e+00 3.1108066076185e-03
303 -1.2544895192019e+03 2.4384855591382e+04 -1.3422724463845e+02 2.0293927795476e-03
304 -1.6580611333615e+03 2.5111810289084e+04 1.4537349855436e+02 2.0888454614296e-03
305 -1.5420183545813e+03 2.5088158443162e+04 -4.3234232840141e+00 2.3712514090533e-03
306 8.6238219445889e+02 3.0557359167701e+04 -1.0010086760311e+01 2.6338203048658e-03
307 4.8504239478507e+02 3.0667885825449e+04 1.3252864006210e+02 2.6336764515028e-03
308 -3.9728007080527e+02 3.0400452761343e+04 -3.6097671086062e+00 2.5014366957063e-03
309 -2.9595532371399e+03 3.1430271342441e+04 1.7580952651488e+02 2.2799208615108e-03
310 8.2774310922922e+02 2.5736727778335e+04 4.0763034238781e-01 3.0602381610763e-04
311 -7.5942062902984e+02 2.8355572535158e+04 3.5001723152376e-01 7.6888569933481e-04
312 -1.5516203852220e+03 2.8190392548834e+04 -3.2776481768645e+00 1.2411363939475e-03
313 -2.2212993981335e+03 2.8193393949465e+04 -1.6944615582263e+02 2.1390814069810e-03
314 -1.3557102169263e+03 3.0074103386123e+04 5.0504443294022e-01 2.0163674935436e-03
315 -2.7723382814422e+02 3.1367231212417e+04 1.7987037005359e+02 9.8767958852235e-04
316 5.9337458178360e+02 3.1366964425618e+04 -1.9616855762042e+01 2.9813340411632e-03
317 7.4376471233617e+02 3.1421839645182e+04 1.0120538757464e+01 2.1382348512632e-03
318 -1.5578825664034e+03 3.1979799506067e+04 -1.7968990585885e+02 1.6568878167217e-03
319 -1.3734815594881e+03 3.1988654129714e+04 1.7726253850040e+02 1.5557169413162e-03
320 5.0873648645279e+02 3.2267021452685e+04 4.7682310638288e+00 1.0917553549100e-03
321 2.3388894896488e+02 3.2408224363760e+04 1.4479843089204e+00 1.5165002607865e-03
322 1.1365885556999e+03 3.1032886147117e+04 4.0310488120843e+00 2.0371239385088e-03
323 9.1781235566449e+01 3.1334654852765e+04 -1.7765511721961e+02 2.5218765482275e-03
324 -1.1241453099655e+03 3.0471732132275e+04 -1.2729373371740e+01 2.0551190666761e-03
325 8.3165651195642e+02 3.1172005841444e+04 -1.7762575768893e+02 2.2467629930224e-03
326 1.6235792805541e+03 3.1186867605931e+04 8.1228293736292e-01 3.1365196406412e-03
327 1.8019073270819e+03 3.1237450363965e+04 -1.6587998133119e+02 3.1570514191250e-03
328 1.7983931461627e+03 3.1292570438567e+04 -1.7899492282053e+02 2.9056537203152e-03
329 9.5147970382103e+02 3.1615103958163e+04 1.7427294463480e+01 3.0751960103301e-03
330 1.0435705593508e+03 3.1684953656729e+04 1.4197947521726e-01 2.8779321190263e-03
331 1.8885363991782e+03 3.1702350152238e+04 7.3624835546214e-01 1.9422698102354e-03
332 2.8652054970509e+02 2.9491927865141e+04 -3.1751368965564e-01 9.4148778390756e-04
333 7.5871193890990e+02 3.1376640865951e+04 -3.7310175433433e+00 2.1100630265668e-03
334 2.6711974665064e+01 3.1493397466666e+04 2.3440180282680e+01 2.4102187203183e-03
335 -7.6080056852097e+01 3.0184679325931e+04 1.7590888525978e+02 1.5670888223911e-03
336 1.9636958172640e+03 3.0214052920608e+04 -1.6918958529138e+02 1.6855585359877e-03
337 3.2052859580064e+03 3.1037753905344e+04 -5.5209717738984e-01 9.8726767595223e-04
338 1.0539521700581e+03 3.1440085457606e+04 1.1156076264785e+00 3.0747954557958e-03
339 4.2052887166833e+02 3.1375522489119e+04 -1.6687886554232e+01 3.1555770113178e-03
340 4.6932027703585e+02 3.1051131573989e+04 -3.9263385817687e+00 1.1656188570444e-03
341 7.3253088009233e+02 3.1940757917999e+04 1.2376194568342e-01 2.7022545805293e-03
342 5.0515604087505e+02 3.1754169659735e+04 6.6468460392953e+00 2.8789934120123e-03
343 5.0891610498324e+02 3.1668269902105e+04 -1.2224361621379e+01 2.9194250187419e-03
344 1.9738500710119e+03 3.1778560247630e+04 -2.2257708265687e+00 2.9710836697693e-03
345 1.2668819203753e+03 3.1808229131087e+04 1.7728294804562e+02 2.9472428711911e-03
346 6.2959107119122e+02 3.2009183870900e+04 2.2569821269300e+00 2.2787055656379e-03
347 -5.5302597039128e+02 2.6986270047723e+04 -5.6158285126776e+00 5.1886226640918e-04
348 1.1631034166021e+03 2.5504296638774e+04 -8.2054355399202e+01 2.9337121681003e-04
349 1.4576923994854e+03 3.0081484395196e+04 -1.1311975413556e+01 1.7479333872441e-03
350 -5.4340558541040e+02 2.7385351785223e+04 -1.5853108006769e+00 6.9082186683625e-04
351 -1.3291722481597e+03 2.5636419710070e+04 -6.2783313442217e+00 1.6536438096495e-03
352 -7.0878507907854e+02 2.7808024925097e+04 -2.5409054407557e+00 6.1448867014532e-04
353 1.6972999779714e+03 2.2388482628279e+04 1.3020301568764e+00 2.8981678820701e-04
354 -1.2895157851277e+03 2.2474261009716e+04 1.7489637745481e+02 1.4430376778721e-03
355 -5.4757984343679e+02 2.3627231088287e+04 1.1294765782986e+01 7.7378483803866e-04
356 -2.6576726582085e+02 2.1841673929140e+04 -7.5853828690805e+00 5.0221046023985e-04
357 -1.7385860112023e+03 2.5613979930730e+04 -1.7413872639377e+02 1.9801385203460e-03
358 -1.4157435373815e+03 2.5568080171498e+04 -1.7875477572694e+01 2.0070873393263e-03
359 -3.7674969479071e+02 2.5164395385030e+04 3.9577849435379e+00 5.8729394348177e-04
360 4.2972293701482e+02 2.4413335941053e+04 -1.1900048945416e+00 3.5856630414538e-04
361 -3.7981704318121e+02 2.5526388993711e+04 4.3777795433789e+00 7.2033826716249e-04
362 -1.0562766978844e+03 2.5324445961691e+04 -2.6298915992315e+00 1.5205606067590e-03
363 -1.9308454794736e+03 2.7198675051316e+04 2.3083552542370e+00 1.5264440515278e-03
364 -7.3299252667815e+02 2.5703979887537e+04 1.8804444759849e+00 1.0672760934485e-03
365 -2.3306585900669e+03 2.6126644200448e+04 1.1601319332912e+00 2.6986555735905e-03
366 -1.7229223385243e+03 2.6127536838916e+04 4.3163746058836e-01 2.5437255119053e-03
367 -1.0427272930795e+03 2.5854011488476e+04 -1.7438764579408e+01 1.2834877038452e-03
368 -2.0754731894690e+02 2.4796802959175e+04 -1.7793804632076e+00 6.3692842595053e-04
369 -1.2181803644963e+03 2.3270537684678e+04 6.7132051488351e+00 1.9589995281878e-03
370 -1.1361393057811e+03 2.3331707910449e+04 -1.8130889501134e+00 1.7123709422049e-03
371 -2.1333259108748e+03 2.9811057056073e+04 6.6152879739045e+00 1.5091012358677e-03
372 -2.1254099465312e+03 2.9663523247743e+04 -6.4058452301248e-01 1.4635934768317e-03
373 -8.4516458343176e+02 3.0115707940908e+04 -5.9472967722185e+00 1.8476490181269e-03
374 -1.1431678245657e+03 3.1670602905195e+04 1.7395045599563e+02 2.6617660855626e-03
375 -5.6198213413665e+02 3.1604832283597e+04 -7.0573711445973e+00 2.4059118978311e-03
376 -1.0988099437926e+03 2.8220743015973e+04 8.2706240436492e-01 1.2437065056116e-03
377 -1.3810721279575e+03 2.8102007825935e+04 -1.0605674818611e+02 1.3917973013797e-03
378 -1.0864936034274e+03 2.8263921224847e+04 1.3251481996976e+01 1.1704326065928e-03
379 -3.2447570901280e+03 3.0779920747128e+04 -1.7110656988151e+02 2.9702669525058e-03
380 -9.6727918906358e+02 3.0991263295417e+04 1.2211023225226e+00 1.3281781172574e-03
381 -9.9847236807856e+02 2.6108818491736e+04 4.9308874256134e+00 9.5030183068969e-04
382 -1.8441813965532e+03 2.6114440980230e+04 -1.0491028588112e+02 1.5304889102605e-03
383 -2.3967686132755e+03 2.6544746613746e+04 -3.4430278352601e+00 2.4594708667277e-03
384 -2.8662926464699e+03 2.7049413782771e+04 -1.7807401875021e+02 2.8087543546441e-03
385 -1.9622500754186e+03 2.7082127237015e+04 2.2676745679626e+00 1.7713876359342e-03
386 -5.7224498448762e+02 3.0349631024657e+04 4.5032390878243e-01 1.5477618106554e-03
387 -1.0898820246133e+02 3.0812507586888e+04 -1.6351027284319e+02 2.8752493377747e-03
388 5.5546386986956e+02 3.0862132310216e+04 1.6257694326031e+00 2.3499146204948e-03
389 4.3668694621331e+02 3.0917421367225e+04 9.2771432631031e+00 2.5964117162910e-03
390 -8.3200073500749e+01 2.7991410713580e+04 3.7589464204677e+00 4.2068895011338e-04
391 -8.8785235994603e+02 2.9953720856637e+04 1.3895035352857e+00 1.7466906345331e-03
392 -2.0975935361243e+03 3.0122139881358e+04 3.1078685791800e+00 2.1190720094389e-03
393 -2.5383798053059e+03 3.0068895758123e+04 -4.7886630024842e+00 2.9438010814377e-03
394 -1.0927282158786e+03 3.0012966670532e+04 1.7001263764458e+02 1.6355952598261e-03
395 8.3310505397247e+02 2.7127933403915e+04 -4.4762293970054e+00 2.8954757380302e-04
396 -1.3837045621162e+03 2.6755646237637e+04 8.8971685285344e+00 1.5527863253767e-03
397 -3.1209780419974e+03 2.7939288176309e+04 1.7084928547501e+02 1.8174074252481e-03
398 -1.8120356396711e+03 2.7852992348657e+04 -1.7336447626521e+00 2.2159431426375e-03
399 -5.3523817337726e+02 3.1345197157049e+04 3.6695393362781e+00 3.1514204894702e-03
400 -1.9618535435978e+02 3.1407703290355e+04 -3.8686009639055e-01 2.9172775474562e-03
401 -6.1680960315536e+02 3.1406021532695e+04 -1.1156913752158e+00 3.1397502429987e-03
402 -5.2358506573248e+02 3.0020041978687e+04 1.1949983657177e+02 1.6874135841304e-03
403 9.0576937894165e+02 3.0588297831153e+04 -1.0468607490201e+01 1.9005851706606e-03
404 -2.1929460517271e+02 3.2020029752681e+04 2.5937212515012e+00 9.2279874580663e-04
405 -9.2697652002148e+02 2.7828395734165e+04 -1.5996880959687e+00 8.1482964870952e-04
406 -3.1773800372646e+03 2.4019019400983e+04 -1.7820975849812e+02 3.4701256504739e-04
407 -1.3240799663228e+03 2.4144266992153e+04 1.6940046801039e+02 2.0966326370004e-03
408 -9.5241969120975e+02 2.4921922013411e+04 1.6204351596694e+00 1.2422325453360e-03
409 -8.2159932694882e+02 2.4807392031901e+04 8.7873818740980e+00 1.0924258631021e-03
410 -3.9766447114276e+02 2.4808356419016e+04 -6.7715133937348e-01 6.6253199662333e-04
411 -1.2090788776738e+03 2.4817017636973e+04 -8.0389612689706e-01 1.7732408321745e-03
412 -1.0365995490559e+03 2.5695347905813e+04 1.3380530312035e+00 9.8191026776975e-04
413 -2.0293183976475e+03 2.6699562450078e+04 1.6972046832166e+02 2.0994938921295e-03
414 -9.6805716204036e+02 2.6607002425361e+04 -2.3418564094584e+00 1.2663127479002e-03
415 -2.8538584332841e+03 2.5966870704244e+04 -8.1228503798248e+00 1.4678303953207e-03
416 -1.4508403999383e+03 2.5929893184749e+04 5.8047360517384e+00 1.5526981872630e-03
417 -1.4371909696245e+03 2.5917039268188e+04 2.6867680811196e+00 1.9896710538538e-03
418 -1.1220431792330e+02 3.1394476411184e+04 3.3984896376115e+01 2.5578033194603e-03
419 -1.9961968367546e+03 3.1752417998979e+04 1.7605627114387e+02 2.7031735747588e-03
420 -1.6491914779241e+03 3.1681790249949e+04 -1.7483721034615e+02 2.8093906276376e-03
421 -2.9613855781406e+03 2.6094773036639e+04 -4.5673014149989e+01 2.8980820270756e-03
422 -2.8723664163028e+03 2.6066919074292e+04 -2.7241891802670e+01 3.0037611848964e-03
423 -3.2584488439481e+03 2.6021371418227e+04 2.8372751744268e+00 1.7974805604677e-03
424 -4.9978142800507e+02 2.4909836304556e+04 -1.0741344654681e+01 7.5217215045881e-04
425 -2.2696690499935e+03 2.4892661620118e+04 -1.7968208910771e+02 2.3792831659741e-03
426 -1.7294112889095e+03 2.6020249441299e+04 1.7451320542759e+02 2.5961526740911e-03
427 -1.0173637600070e+03 2.8218396782644e+04 4.6525255101064e+00 4.5942512230230e-04
428 -1.9741424484423e+03 2.8500112584304e+04 6.3929323918000e+00 8.5735490729801e-04
429 -2.9789295610660e+03 2.8762756282335e+04 -1.6958933307289e+00 2.2290546739403e-03
430 -1.2734106344331e+03 2.7879742573722e+04 -3.4898609396245e+01 1.2933432130036e-03
431 -6.8618640942530e+02 2.6367612004915e+04 -1.7283847029321e+02 9.1927203586359e-04
432 -4.4149902788108e+02 2.6369864757251e+04 1.4252172190545e+00 7.0360639531836e-04
433 -5.2277415805616e+02 2.9356954486985e+04 -3.3211714082881e+00 9.0412681912891e-04
434 -1.5202192425729e+03 2.6536942045075e+04 -1.7815090374938e+02 1.7198325960440e-03
435 -7.6410362050871e+02 2.7058030590998e+04 8.5505855081042e+00 8.5351289948278e-04
436 -1.9886544939200e+03 2.7315696533904e+04 1.3781642215746e+00 2.7305994176207e-03
437 -2.1753254311070e+03 2.7282380420292e+04 -1.6837728317762e+02 2.4992905124896e-03
438 -8.3462401616994e+02 3.2262803761380e+04 4.0710286039184e+00 2.0247046910638e-03
439 -3.6242481118684e+02 3.2242674884701e+04 -3.5152325572894e-01 2.0190583951111e-03
440 -5.3474796574917e+02 3.0936211507090e+04 -9.3637308372843e+01 2.9850868209302e-03
441 7.8457686807962e+01 3.1020218847941e+04 2.6240173505618e+00 3.1107431856383e-03
442 8.3091550625308e+02 3.1072182257798e+04 1.2031943343482e+01 3.0877568832847e-03
443 9.2389394067302e+02 3.1007838075067e+04 -1.0371923270617e+01 3.0719714478177e-03
444 -1.1167043907289e+03 3.1099762126301e+04 1.7597550485111e+02 2.4732790807743e-03
445 -3.7536213809738e+02 3.1084585128532e+04 -7.2339423855031e-01 3.0285436210941e-03
446 5.7109802132153e+01 3.0810720853077e+04 -5.8621390019725e+00 2.9375316324985e-03
447 -3.3080079415681e+02 3.0799411841482e+04 -7.6113334694945e+01 2.9020848903227e-03
448 7.1764224347468e+01 3.0600324045231e+04 4.1759380366880e+00 2.7517677525873e-03
449 -2.4345009257899e+02 3.0653161542393e+04 4.0479290545817e+01 2.8525421609446e-03
450 -1.1370341681260e+03 3.0411111731148e+04 -1.7900856599016e+00 1.0099884479800e-03
451 -5.7387241064356e+02 2.7641464121549e+04 -1.9736247135531e-01 7.1467946922116e-04
452 -2.4728808381016e+03 2.7689831793745e+04 1.6859825996433e+02 2.0756852774094e-03
453 -9.5501032868039e+02 3.0690193781972e+04 2.8423385769053e+00 2.6368674779978e-03
454 -1.0093760194630e+03 3.0685149749953e+04 2.6238865626217e+00 2.1210045034490e-03
455 -7.7858829164301e+02 3.0970823783049e+04 -3.3114480439880e-01 2.7742076513830e-03
456 1.0134778206951e+03 3.0838005928580e+04 -7.4065972179212e+00 7.0065672424265e-04
457 -2.7144681385570e+03 2.9351819317491e+04 1.7602194769147e+02 9.2026008632127e-04
458 3.7614453278398e+02 2.9994771608516e+04 -2.3951375230986e+01 1.0546296750966e-03
459 -3.9694400834847e+03 2.8016032014259e+04 -1.7722442858742e+02 1.0067901357465e-03
460 1.7316613433530e+02 3.1065289059550e+04 -1.7122899816332e+02 1.2624714637638e-03
461 -1.1025355428688e+03 3.1662293976097e+04 -1.7249278878444e+02 2.8982395261922e-03
462 -7.8647063212545e+02 3.1714657360635e+04 -1.7607449762712e+02 2.4877457968945e-03
463 -5.7314554448482e+02 3.1586763103519e+04 -4.1900159520987e+01 2.8002294761646e-03
464 -1.2018061474536e+03 3.1048680703065e+04 -1.3505097904031e+02 2.1213085489769e-03
465 -1.1124326144550e+03 3.1071109116996e+04 -5.7735879487420e+01 3.0500607728573e-03
466 -1.3541350980668e+03 3.1419026575057e+04 1.7319073560876e+02 2.1568401414229e-03
467 -7.6063566471457e+02 3.1386094793538e+04 1.0887268084147e+00 2.9777199980170e-03
468 8.1164560130615e+02 3.2240102474254e+04 1.7241690242993e+01 2.2268936496256e-03
469 -2.1289431651470e+01 3.2288413460932e+04 -1.8483744043704e+00 2.1085273376755e-03
470 1.4182010970848e+03 3.0928266507319e+04 -2.4607664841349e+00 2.5261180023185e-03
471 2.2354155448855e+03 3.0957903354706e+04 7.3523660222846e-01 1.7185627428655e-03
472 -1.7408361968143e+02 3.1039517594427e+04 8.1717429651534e+00 2.5243895875880e-03
473 2.0326231920864e+03 3.1376126454248e+04 -1.4599015728949e+00 2.9947903757819e-03
474 6.8936323351104e+02 3.1434066914648e+04 1.7569108409795e+02 3.0892078742378e-03
475 2.0041581260410e+03 3.1304425909728e+04 1.6364595093173e+02 3.1574671557211e-03
476 2.5360971345679e+03 3.1231196556133e+04 -6.1285637328952e+00 2.9872585112655e-03
477 -1.6400208419087e+03 2.9423703518568e+04 -2.4978186238324e+00 1.6091066782114e-03
478 -1.5089117455818e+03 2.9116211160543e+04 -3.7485844675262e+00 1.2840328107893e-03
479 5.3324278476902e+01 3.2286984451078e+04 -3.2140644022677e+00 1.9140517911112e-03
480 -1.7988358860862e+03 3.2366069652202e+04 1.7948621954722e+02 1.4109192993076e-03
481 -2.0681568951545e+03 3.0148211289516e+04 -1.7490391203482e+02 2.3301233258470e-03
482 -1.4848655553981e+02 3.0238528283637e+04 -4.1709341654626e+00 2.2176112928685e-03
483 -3.2437973664981e+02 3.0322651089376e+04 6.1954113058949e+00 2.3241097022763e-03
484 -1.1453563065187e+03 2.9465240530796e+04 -1.7903125028743e+02 5.3135769248033e-04
485 -1.8611040258744e+03 2.9158811115548e+04 -1.7580105928431e+02 2.3112273180013e-03
486 -2.1522853439667e+03 2.9270734026772e+04 1.7477604956655e+02 2.6870045409930e-03
487 -1.1658688768607e+03 2.9858190456722e+04 -1.8292452172374e+00 1.1351257850214e-03
488 -3.3007129448418e+02 2.7287449879563e+04 -2.8785782764241e-01 5.6707743436442e-04
489 -1.6807133082818e+03 2.7360864705925e+04 1.7944338857720e+02 2.2790181004736e-03
490 -1.4802338084445e+03 2.7033243459092e+04 1.2342315940431e+02 8.3201708265084e-04
491 -1.3770406610704e+02 3.1454928179860e+04 2.8193083705603e+00 2.7650976294132e-03
492 -2.6062701366783e+03 3.1751100111244e+04 2.2661455914910e+01 2.5176601887931e-03
493 -1.9766831688658e+03 3.1665829189498e+04 -2.5066899491993e+00 2.8843816469506e-03
494 -1.7644568186677e+03 3.1952725493154e+04 8.6657586258664e+00 2.4685444932126e-03
495 3.5093748696762e+02 3.1000172276150e+04 -2.0177635637141e+00 3.1073236350483e-03
496 -2.0105906450162e+02 3.1028308397201e+04 -7.9573162604547e-01 3.1434402853185e-03
497 -4.8172686172921e+02 3.1091158575126e+04 -9.7062517175165e+01 2.8259272125169e-03
498 -1.9355430977294e+02 3.1226426468842e+04 -1.2417336699558e-01 3.1570211432086e-03
499 1.1015756804341e+03 2.5449329936689e+04 -1.0133209814346e+01 2.9565461179124e-04
