0 -1.4555027680717e+03 2.7226497517689e+04 1.3639512334475e+02 2.1482796053014e-03
1 6.5477117915353e+02 2.6949394016874e+04 -3.4287588638071e+00 3.3478402724677e-04
2 -1.8401335021129e+03 2.7060425053704e+04 -5.0092617752790e+00 1.9390887172306e-03
3 -1.7385562210441e+03 2.6670613139534e+04 1.5806370489704e+02 7.5754779804936e-04
4 4.0112655165665e+02 2.5812489602594e+04 -5.4094098329752e+00 3.6933586755901e-04
5 -2.1412640341961e+03 2.5928335843745e+04 1.7840050576384e+02 1.8268393223761e-03
6 -1.0017596229679e+03 2.5564800408705e+04 -2.7380494656036e+01 1.5635796319601e-03
7 -1.6340299372397e+02 3.0392489019840e+04 -1.3557501442885e+01 1.6416855594646e-03
8 -1.0150275634271e+03 3.0778388448161e+04 9.6730288862254e-01 3.1105411776497e-03
9 -1.1454703888804e+03 3.0644932624211e+04 -8.6627627985034e+01 3.0928598994413e-03
10 1.2553439268324e+03 3.0418989444933e+04 3.0457415031890e+01 2.6063045766183e-03
11 2.5452311292891e+03 3.1024144148109e+04 -2.8005962384127e+01 3.0703483049109e-03
12 2.1716227629639e+03 3.1166754406972e+04 -8.3248383945216e+00 3.4033345235751e-03
13 2.7130569889210e+03 3.1042350573996e+04 -2.0628310595932e+01 3.0558372446765e-03
14 2.1454612990351e+03 3.1182352550552e+04 -1.3415599271855e+00 2.4009978524837e-03
15 2.1803773125251e+03 3.1335529443764e+04 -5.6864845650249e+00 3.4634790590323e-03
16 9.5831686212128e+02 3.1355364797458e+04 -2.3439090696197e+01 3.1206260389530e-03
17 -3.9737076993252e+02 2.5562228569015e+04 -1.7593340775275e+00 7.9864163002341e-04
18 -6.0679772720026e+02 2.5492376709882e+04 3.3206724336059e+00 1.0058797346201e-03
19 7.4031321024370e+02 2.6049541337458e+04 -4.8268510348103e+00 3.3433571479820e-04
20 5.6533402661391e+02 2.6496534539116e+04 -1.5291500503344e+02 3.3077664407566e-04
21 3.7048560824011e+02 2.9555450727022e+04 -3.5477045322880e+00 8.3578139952395e-04
22 -1.1186947040000e+03 2.2369049181954e+04 7.4088405517787e+00 6.8883217117851e-04
23 -1.4722357391286e+03 2.2400644184157e+04 -3.7036927439266e+01 2.4640680673338e-03
24 -7.2465760777011e+02 2.2546440570122e+04 -1.5826743260051e+01 1.5714328937358e-03
25 -4.9835561070068e+02 2.2554563543873e+04 -4.1018147971404e+00 1.2400778353510e-03
26 1.1442546612312e+02 2.3872165307476e+04 9.2786688796116e+00 5.5078597444076e-04
27 -4.0579044517632e+02 2.4957660660756e+04 -2.0660608017019e+01 8.5508549844736e-04
28 -1.4271627209016e+03 2.5884205289009e+04 -4.1673384825436e+01 2.2456918563348e-03
29 -1.5097474413737e+03 2.6012424215683e+04 -1.2411695296054e+00 2.3289716135285e-03
30 -6.0512362699527e+02 2.5741567174918e+04 3.4322494957829e+01 1.0023904337668e-03
31 -1.8046861354536e+03 2.6808006724861e+04 3.3746216976039e+00 1.3774704904937e-03
32 -1.3325888813191e+03 2.6966604136509e+04 1.7264903130807e+02 9.9699423753226e-04
33 1.6805887054889e+03 2.5650800472634e+04 -8.0399128133954e+00 3.1585358787434e-04
34 -5.5202456431644e+02 2.0844408665742e+04 -1.8181983850352e+00 6.5784369114000e-04
35 1.0474478321573e+03 2.0821629880740e+04 -8.5316537363786e+00 3.5321279771569e-04
36 -1.7199895890152e+03 2.3656921004801e+04 3.3155952310942e+01 9.0462861513224e-04
37 5.9115158007372e+02 2.6425950753594e+04 -9.3995072207072e+00 3.4404341911605e-04
38 6.0257488504105e+02 2.9937973824280e+04 2.0899583996934e+00 1.5557565059804e-03
39 -2.6241256591317e+02 3.1239322676608e+04 -6.8989116656717e+00 3.4524223082680e-03
40 2.9864133318921e+02 3.1403411242034e+04 3.9264874725741e+00 3.4456632661034e-03
41 -2.2660286503571e+02 3.1066938716935e+04 5.1875492543898e+01 2.3110956257689e-03
42 -3.1847871258497e+02 3.0888356655962e+04 -4.8421321289002e+00 2.5397894099122e-03
43 2.6121731841037e+02 3.0811840221648e+04 2.6669746836878e+01 2.9920918503410e-03
44 -8.5074600984010e+01 3.0887097104297e+04 2.8413332741505e+00 2.8023468699707e-03
45 -1.9843563868844e+02 3.1031517855329e+04 1.5261152244495e+02 1.9865550140199e-03
46 -7.0551471659029e+02 3.1503352961207e+04 2.1810473963575e+01 2.5442029968250e-03
47 -1.9931069727170e+02 3.1646621071050e+04 -1.4796577247506e+02 2.4531188356374e-03
48 -6.3911104814568e+02 3.1838222891909e+04 -5.9988483787109e+01 8.0020006637252e-04
49 -4.7806448646426e+02 3.0598346230394e+04 -1.4369110620153e+02 2.5253005183735e-03
50 -1.0594645945310e+03 3.1814448042229e+04 -1.1356049521864e+01 1.9196004852492e-03
51 -1.0094061761426e+02 3.2142505785323e+04 -2.8250741200920e+00 2.5321474791095e-03
52 2.3423694005832e+03 3.1728586914806e+04 -1.3558219356095e+01 1.9481718685443e-03
53 -1.8226309808415e+02 3.1488965176045e+04 1.2538721416856e+02 2.8300180732844e-03
54 1.3954447762163e+02 3.2894505175472e+04 1.0558555784750e+01 1.2693779569465e-03
55 4.9572149469290e+02 3.2334440310974e+04 5.1608690650454e+00 2.0641377116395e-03
56 2.2972558445692e+03 3.1267668002068e+04 1.0031403918513e+00 1.7116744037055e-03
57 -1.0979757040952e+03 3.0142389632211e+04 1.3202564247821e+02 1.7261323494807e-03
58 1.4291439575285e+02 2.9997927446458e+04 -3.7134980515393e+00 1.8871181518345e-03
59 1.9529204428243e+03 3.2355579537114e+04 1.4202017832537e+01 2.3456337240320e-03
60 3.4559660300934e+02 2.6868994127792e+04 6.5361973853756e+00 3.7329196217161e-04
61 -6.1334716058859e+02 3.2864179994579e+04 1.5400816695208e+02 1.2177806557513e-03
62 -7.9365347502574e+02 3.0309125472960e+04 -2.8330571026914e+01 1.7807705608488e-03
63 1.5187331788431e+03 3.0067274597041e+04 -1.3528484116704e+01 1.0938733599884e-03
64 -1.3683766987842e+03 3.1969252619322e+04 -1.7690113121854e+00 2.6723386434757e-03
65 -1.3547928225896e+02 3.1991122158103e+04 -2.3744714503706e+00 2.8145491704168e-03
66 -1.0763021231756e+01 3.1509899766361e+04 -1.7173748845918e+02 3.3380330370877e-03
67 7.2643107175605e+02 3.1489343522831e+04 1.3866403369484e+01 2.8803394132286e-03
68 8.7237133995475e+02 3.1660360861564e+04 1.6817448361271e+00 3.2977416555662e-03
69 8.8591043844161e+00 3.1437579677373e+04 -1.4352707215939e+02 3.3404129557253e-03
70 -1.2009309135705e+03 3.1532387396719e+04 -1.9750284067978e+00 2.8637054854920e-03
71 -1.2804481267084e+03 3.1542597094330e+04 -2.1347714333957e+01 1.9359462758000e-03
72 1.4722980826582e+03 3.1740633950363e+04 -2.6986625055912e+00 2.0142698903704e-03
73 2.0231805970171e+02 3.1637353338360e+04 -1.6769339254249e+02 2.5209831434168e-03
74 2.4202860755521e+03 3.1340226174974e+04 -5.7734446317419e+00 3.4634790590323e-03
75 1.5571369072994e+03 3.1433905569685e+04 -1.7619857798083e+02 2.5674007987408e-03
76 8.1463694052301e+02 3.1823142543031e+04 -3.3524083168697e+01 2.1420722347094e-03
77 1.0489163964645e+02 3.0297583290632e+04 1.6924589932081e+02 1.2731338141982e-03
78 -4.9429353363682e+02 3.1027298508054e+04 -1.4578150414207e+01 1.7344690370981e-03
79 -1.5395916365512e+03 3.1280642630300e+04 1.3126414509535e+02 1.2104815094453e-03
80 2.9234993320950e+02 3.0029407912797e+04 1.4596964893874e+01 1.9592026224994e-03
81 -6.8371290867388e+02 3.2344395731699e+04 1.5511577280994e+02 2.0753413284233e-03
82 1.0252680808771e+03 3.1226931860938e+04 -5.7466455065218e+00 3.3769004740646e-03
83 -4.5634980881501e+02 3.1301357148124e+04 -1.7344976849010e+02 4.5612081896259e-04
84 5.8939021022352e+02 2.9626098436467e+04 -7.2664058953067e+01 1.0473851726260e-03
85 -1.2474921343027e+03 2.7965089866023e+04 -2.8010427815122e+00 9.2812209319134e-04
86 -1.9315791813641e+03 2.6206275620592e+04 -2.4694333461240e+01 1.3017479424271e-03
87 3.1151485224194e+01 3.0969279182538e+04 -9.9348632615610e-02 3.0664851788885e-03
88 -4.5047912779785e+02 3.0742602814831e+04 1.0336534024707e+01 2.3118848562164e-03
89 -1.0551139844532e+03 3.0825434467223e+04 1.7213273731546e+02 2.5662937886831e-03
90 -1.8440698417919e+03 2.8366306016604e+04 -1.1301752952911e+01 5.6033042156214e-04
91 -4.7328790557383e+02 2.8374154343982e+04 1.2027645017510e+01 5.2866043424462e-04
92 -5.1550005638647e+02 2.7459927680528e+04 -3.6898962166244e+00 6.6543849052024e-04
93 -4.9304084039767e+02 2.9058995028891e+04 1.1133983157919e+01 6.6537809170589e-04
94 -6.2571541624099e+02 2.7289914288179e+04 -6.7016025591729e+00 8.6745328912706e-04
95 -1.1863742491299e+03 3.0208732794125e+04 1.0074780331374e+00 1.3460818087299e-03
96 -8.6221564015354e+02 3.0158175862745e+04 1.6687587922098e+02 2.0515569990053e-03
97 -4.5510048423267e+02 3.0051439277926e+04 -9.4088735830279e+01 2.1029808298451e-03
98 -1.7409936002247e+03 2.6832203555908e+04 -9.3781291582246e+00 2.0114347517589e-03
99 -8.7963922671911e+02 2.9725201786594e+04 -1.6307611052173e+02 1.5462504511274e-03
100 -2.0784649317769e+02 2.4645942687455e+04 -9.3709722288082e+00 7.0713791161033e-04
101 -8.5821270125231e+02 2.4829755772064e+04 -5.3982293562934e+00 1.4462127339268e-03
102 6.5127899282967e+01 2.5182744886081e+04 1.5963038639026e+02 3.8274203312432e-04
103 -9.2779821071988e+02 2.7889727290367e+04 -1.6016610663254e+01 6.3497961739809e-04
104 1.1152323076216e+03 2.9037000686373e+04 -3.6155084844457e-01 5.8105852867761e-04
105 -1.7932759259560e+03 2.6827244721926e+04 -3.6924297531775e+01 1.1679237597974e-03
106 -1.7599428813971e+03 2.6587795123590e+04 -4.0278172989655e+01 2.4746366423013e-03
107 -8.2219828662075e+02 2.6680801149903e+04 -8.0985271367873e+00 1.0361073517601e-03
108 -9.6706152407192e+01 2.6271634756982e+04 -2.1645368631733e+00 5.3950861363140e-04
109 -1.1786432127882e+02 2.6101265558334e+04 -9.8471729302270e+00 4.8977774212255e-04
110 -2.0068877167093e+03 2.6358948844676e+04 -1.6496725968974e+02 3.2211773370959e-03
111 1.6404880509586e+02 2.6655780918674e+04 -2.9573928613762e+00 4.2383686585657e-04
112 -1.7334306542101e+03 2.7093624676860e+04 1.3033938266318e+02 1.5198145034735e-03
113 -5.1341356673926e+02 2.6663481663682e+04 -1.2536292758641e+01 4.3446462680357e-04
114 -1.5012496540429e+03 3.0905629262513e+04 1.7635831208523e+02 2.8383056503957e-03
115 -4.2646132179272e+02 3.1067387715787e+04 2.7427097915946e+01 3.4537762714959e-03
116 -1.5239414734994e+03 3.0920472508825e+04 1.2685945753052e+01 2.5718536504408e-03
117 -1.1069635633624e+03 3.0936904753039e+04 1.6709670303402e+02 3.2875586611683e-03
118 -1.1493239240188e+03 3.1100078877734e+04 -1.1828380290405e+01 1.9167059376397e-03
119 1.1854675239056e+02 3.0259703348265e+04 -2.6752343838084e+00 2.2956344035871e-03
120 1.2572182454358e+02 3.0246279842150e+04 2.1853110504914e+00 2.2756464092742e-03
121 3.0601375897093e+03 3.0610280781489e+04 -6.3953794260859e+00 2.6674386769164e-03
122 8.0285636443003e+02 3.0724126690681e+04 -3.5139583292597e-01 2.1356549806776e-03
123 -2.2956797908631e+03 3.0203539896186e+04 2.9709555982289e+01 4.9253640641134e-04
124 -5.0654349384046e+02 2.9903152500224e+04 -1.3682100411171e+02 1.8330738513120e-03
125 1.2094582260281e+02 3.0368500849165e+04 1.4968531642206e+00 2.5852318630301e-03
126 -6.9814644936085e+02 3.0868603118186e+04 1.6578282056458e+02 1.3008359191902e-03
127 6.0183180600670e+02 3.0601549624928e+04 -7.9273887192802e+00 2.1490797607917e-03
128 -6.9137982721208e+02 3.0644890006673e+04 3.5211128832447e+00 3.1211668070131e-03
129 -7.9336806936623e+02 3.1719916315672e+04 1.4971118559829e+02 2.9146706184655e-03
130 4.0585942789189e+02 3.1660193173258e+04 4.2665471508346e-01 3.2479344630796e-03
131 -3.3070197929313e+02 3.1295530263569e+04 4.3498590625851e+00 3.4041616963257e-03
132 -5.5839119346807e+02 3.1176918946355e+04 -9.2037070213827e+00 1.3533444612106e-03
133 -1.3202396178744e+03 3.1102491081753e+04 -1.6877142370604e+02 1.4927717504147e-03
134 -4.2640345241594e+02 3.1121090148479e+04 2.8733745701029e+00 3.3658339651720e-03
135 -2.7630936773675e+02 3.0725770338549e+04 1.6659466055833e+02 2.0838683842104e-03
136 3.8320428908799e+01 3.0530887743546e+04 -2.3545874583788e+01 2.1169510702039e-03
137 -7.3739707287700e+02 3.0884194862320e+04 3.4167170294508e+01 1.2115006514260e-03
138 6.6641257735391e+02 3.1985728567256e+04 9.7636206876909e+01 2.9116339767136e-03
139 -5.3818525901820e+02 3.3033504294699e+04 1.3148124496313e+01 6.4320164951402e-04
140 1.1573871406998e+03 3.2322184499051e+04 4.9373084226953e+00 1.2369323594792e-03
141 3.0111863192150e+02 2.9324515648417e+04 3.8695049491295e+00 9.0111882007583e-04
142 8.3520363610110e+02 2.9277747064076e+04 -2.1135972626569e+01 7.9189287333762e-04
143 9.9291871699798e+01 2.9673778309708e+04 5.3398759438825e+01 1.2854337130276e-03
144 -1.2241791591839e+03 3.1638110253656e+04 1.3542062290495e+02 6.9203559617125e-04
145 -1.0814155034102e+03 3.1241242964449e+04 -1.5051467805814e+01 3.4634790590323e-03
146 -9.2796226109669e+02 3.1569681933049e+04 1.2086681338724e+01 3.2469747556958e-03
147 -1.1787303359279e+03 3.1413462216866e+04 1.5473246760901e+02 3.4270323138131e-03
148 -2.4861635133805e+02 3.1128902672030e+04 -8.2341733246833e+00 3.4315509216111e-03
149 1.3454354363472e+02 3.1713153024936e+04 -8.8293133581324e+00 3.2580890906870e-03
150 -1.7151761012804e+02 3.1704700719304e+04 -1.6197950675168e+01 3.0226831423364e-03
151 4.9919521846922e+02 3.1849202157464e+04 1.2146578326829e+01 3.1014599465721e-03
152 1.9355796392284e+03 3.1743424660222e+04 -7.0374066821640e+00 2.1289770454340e-03
153 2.5341202337991e+02 3.1974944507421e+04 1.6981842727053e+02 2.3841117399363e-03
154 1.0645616580298e+03 3.1486590377577e+04 -2.7242480109956e+01 3.1560697622603e-03
155 3.7693805500498e+02 3.1579520807574e+04 -1.0474160643324e+01 3.3460844501871e-03
156 -6.4786389011893e+02 3.1665511150298e+04 1.2038176263715e+01 1.5965273096268e-03
157 1.1888478039417e+03 3.0355800895084e+04 -3.5380515073676e+00 1.6560336781852e-03
158 1.0225592725557e+03 3.0482404698410e+04 2.1681110293205e+01 1.4787688299564e-03
159 2.3353752529642e+03 3.0197835299217e+04 -1.4284437437751e+01 1.7085694474027e-03
160 -1.3282726789961e+03 3.0625888155109e+04 3.1961843619430e+01 1.1014065958521e-03
161 -4.8637895416703e+02 3.0703310735133e+04 6.8065639663327e+00 3.0879052013645e-03
162 -2.9241697324220e+03 3.0580866125416e+04 -7.7675134577461e+00 5.1522561320665e-04
163 -3.5718633093336e+02 3.1025739242861e+04 -7.0328506680194e+00 2.9906469773710e-03
164 -6.0738662632685e+02 3.1562927593741e+04 -2.1838668373853e+00 1.0464021407595e-03
165 6.4341177822517e+02 3.0512720397025e+04 1.7482160976504e+02 2.8063657975995e-03
166 1.5897321473236e+03 3.0494559652990e+04 6.1616183334716e+00 1.5420104743427e-03
167 6.9462444219119e+02 3.0161476970665e+04 -7.8122798971314e+01 2.1260986030051e-03
168 -1.1200840900485e+03 3.0141668527459e+04 -3.0621440962923e+01 2.2223486278757e-03
169 -4.9801962688100e+02 3.0319851858123e+04 5.4385384398751e+00 2.3421644311310e-03
170 -1.4233962178855e+03 3.0309487420634e+04 1.7529791420531e+02 2.2621536764859e-03
171 -1.1857549322474e+03 3.0355944213858e+04 -1.6632272570018e+02 1.5701917611981e-03
172 -4.4237318571196e+02 2.7329692832477e+04 7.6739536730864e+00 6.9310936685139e-04
173 1.8413826699898e+02 2.7078640455475e+04 -3.5267633899057e+00 3.9924904393131e-04
174 -1.2363134219105e+03 2.8356417051655e+04 -6.1570662560541e+00 1.4168667313712e-03
175 -5.6604034731362e+02 2.9994251499549e+04 -7.3989522206547e+00 1.8489941505705e-03
176 1.0967743086856e+03 2.9815231725779e+04 -5.9980466024208e+00 1.0760345412811e-03
177 -5.0512520217361e+02 3.1551986275862e+04 -3.1315793614029e-01 2.7525164590304e-03
178 -1.2099199742206e+03 3.1642100577119e+04 2.8243141400072e+01 2.7574702990912e-03
179 1.8643526710277e+03 3.1420204623894e+04 9.4569619102777e-01 1.8368465598170e-03
180 -4.1070349325204e+02 3.0489233411492e+04 -6.2750333542765e+00 2.5354303909263e-03
181 -1.1733860042876e+02 3.0412204728996e+04 -2.0854961226822e+01 1.7134788880417e-03
182 -6.0654654915037e+02 3.1764080550634e+04 -2.1377840676138e+01 2.7965814398998e-03
183 -1.3365820665306e+03 3.1899787685864e+04 -1.7999461828962e+02 2.8445789803729e-03
184 8.7248851664312e+02 3.1777826802108e+04 -5.3909217345438e+00 1.7738993523060e-03
185 1.5801930568549e+03 3.0674644153039e+04 -7.7380068823346e+00 2.9293154551441e-03
186 1.5918996694526e+03 3.0682586443192e+04 -1.0294759299364e+00 1.7383057018756e-03
187 -7.9594826466998e+02 3.0937772021911e+04 -6.5864597944950e+00 9.0551357597414e-04
188 8.0831091634035e+02 3.0707244410400e+04 1.0314225947657e+01 2.8715957057386e-03
189 7.1659715716568e+02 3.0695610293689e+04 -6.2839939739617e+01 2.9706217240271e-03
190 -2.2836035156050e+03 3.1582887852275e+04 1.7798257353887e+02 8.8794836747933e-04
191 -2.1528903291261e+03 3.1469170955473e+04 -1.6873101004476e+02 1.4045021297259e-03
192 -1.8250935279885e+03 3.1555965094063e+04 1.3515972061557e+01 2.2683793177117e-03
193 -1.6965630002841e+03 3.1121227397495e+04 -2.5765280650237e+01 3.4352484197821e-03
194 -9.0267168406152e+02 3.1194216723695e+04 -9.3773977021353e+00 3.4634790590323e-03
195 1.6249260369671e+03 3.0468406968976e+04 -1.5111098473655e+00 2.5111146066845e-03
196 4.1252219679784e+02 2.9985121328541e+04 -2.0885492298352e+01 1.5888225846660e-03
197 2.3585937938356e+03 3.1748184856224e+04 -3.5778635568041e+00 1.4828620287323e-03
198 1.7826685320044e+02 3.2194410756660e+04 -1.2130136864403e+01 2.4262637112410e-03
199 1.4067909125057e+03 3.2064728705095e+04 -5.4088519363846e+00 2.7375495144138e-03
200 -1.0569235444220e+03 2.7704382587261e+04 -1.7175270103777e+02 1.3779585050440e-03
201 -6.0016539589015e+02 2.9964250951154e+04 -1.6842130423311e+02 1.7931690828598e-03
202 -3.7432701404839e+02 3.0045921746577e+04 -1.6483929782754e-02 1.5506243965866e-03
203 -1.2727228068834e+03 3.0668220681485e+04 -1.7301506573720e+01 2.4994702720221e-03
204 -9.3749843236245e+02 3.2366033872293e+04 -1.6582989672770e+02 1.9883941891554e-03
205 -7.4210188423702e+02 3.0014234623942e+04 -1.7805650195709e+02 2.0756452046742e-03
206 -5.9439084623908e+02 3.0107110538212e+04 -2.1535819903829e+00 2.0400650010894e-03
207 -9.8718678639960e+02 3.0257901602679e+04 2.2468720335015e+01 2.5623205329093e-03
208 -8.3836885159988e+02 3.1148037074851e+04 1.6680677647945e+02 2.4993551602307e-03
209 -3.8623704978136e+02 3.1607350988210e+04 -2.4476541345020e+00 3.3322270083173e-03
210 -2.1440533726795e+03 3.1918697539281e+04 1.6220552698079e+02 1.6852174187035e-03
211 4.8385075738171e+01 3.0565391610339e+04 2.1207925347397e+01 5.8979372389969e-04
212 9.6610403669538e+02 3.0574086532674e+04 1.3910660779348e+01 1.7358444025382e-03
213 2.3535039838982e+03 3.0359986271695e+04 2.6513185836884e+00 2.3430641201620e-03
214 -2.4276871851108e+02 3.0985315820081e+04 9.0137535326549e-01 3.3057057856801e-03
215 8.3799001365591e+02 3.0507647098484e+04 -1.1034769238941e+01 2.7915804081573e-03
216 1.8468050392397e+03 3.0797057188054e+04 9.1842562784918e+00 2.6424060281207e-03
217 1.8418733670993e+03 3.0777006553398e+04 6.6393791178292e+00 3.0065533400448e-03
218 -7.6903826071508e+02 3.0523591389979e+04 -3.3162839060128e+00 2.3838509277254e-03
219 -1.4606055145272e+03 2.9742473835400e+04 5.9546966548896e+01 8.9830588460675e-04
220 -3.2243387766953e+02 3.2630041092666e+04 1.7385259212488e+02 1.5042989250175e-03
221 -6.4452741995818e+02 3.2116170061711e+04 -1.7144224470519e+02 2.0551411206746e-03
222 8.1324237872673e+02 3.2254535466484e+04 3.8367961006777e+00 1.5955051911556e-03
223 3.5689652581405e+03 3.0965778540307e+04 1.1952428615771e+00 2.3196895215085e-03
224 1.6115476966945e+03 3.1091978899835e+04 2.6983738190133e+00 3.0521257264199e-03
225 1.4301171703889e+03 3.1138911899048e+04 6.9613634809924e+00 3.3143774928385e-03
226 -1.9988608660881e+03 3.0860133487120e+04 -1.6096440745807e+02 1.9774025878836e-03
227 -7.9500593059315e+02 3.0935937116593e+04 -5.3755794248736e+01 2.8256743929184e-03
228 -3.2913478693410e+02 3.0949939995772e+04 -4.1070894942123e+00 2.0602330419503e-03
229 1.1716711715006e+03 3.2538626160848e+04 -5.4991255612071e+00 1.9346002477701e-03
230 -1.0843843221007e+03 3.1225074225827e+04 1.6687808107984e+02 2.4758404156651e-03
231 1.1620579557048e+03 3.1193830082562e+04 -7.2309599608908e-01 3.1117692332968e-03
232 -6.7990389300870e+02 3.0758415809062e+04 1.4897483947328e+02 2.5720203168566e-03
233 4.9259032209782e+02 3.0751460587338e+04 -1.6853549015174e+02 2.9448318384483e-03
234 1.8720170966006e+03 3.0554130574195e+04 -1.5938628979402e+01 2.5296906902535e-03
235 -1.3655395913209e+03 3.1203153506221e+04 3.0706721942288e+00 2.2155716647998e-03
236 -8.2669888183706e+02 3.1103643332575e+04 -6.9225474861739e+00 3.3005886895125e-03
237 1.0692596869901e+03 3.0825980763407e+04 -2.1118243346212e+00 1.8443974474259e-03
238 1.1805989162012e+03 3.0703620694169e+04 1.3433231657622e+01 1.9110062668596e-03
239 -5.9134387732365e+02 3.0694862390088e+04 -2.3170708454628e+00 1.6547232352101e-03
240 -1.5944126013220e+03 3.0357704604039e+04 -3.0210132648747e+01 8.6805677369249e-04
241 -1.0474550376385e+03 3.2066613414879e+04 -9.8638159145242e+01 1.6339185483613e-03
242 5.6846164462572e+02 3.1170847720661e+04 -1.7270952402544e+02 3.0248781832571e-03
243 2.4414022294133e+02 3.1072909651929e+04 -8.6199258714666e+01 3.4363077600269e-03
244 1.8742649730583e+03 3.1657459613348e+04 2.2777090629273e+01 3.3759782681310e-03
245 7.5536416125481e+02 3.1340394042538e+04 -1.6384201096768e+02 2.8827139515416e-03
246 2.3584981945865e+01 3.1770486887656e+04 -8.4581003824343e+00 1.0625026107024e-03
247 1.8469050263158e+03 3.2331805005230e+04 6.6609066916299e+01 2.1820603490260e-03
248 4.5099878781760e+02 3.1345081404282e+04 -2.3218891379703e+01 3.4633346894207e-03
249 1.0690002066757e+03 3.1487985195922e+04 1.2854602347788e+01 2.7897483192557e-03
250 -5.0609402643772e+02 3.1997729490633e+04 9.6643850845420e+01 1.8978642816973e-03
251 1.1561758108943e+03 3.1795578489832e+04 1.7356059489224e+02 2.3102276488410e-03
252 -8.9270303311029e+02 3.1837751407437e+04 3.4523644871567e+00 9.0090463095893e-04
253 -9.5562915437316e+02 3.0888955635652e+04 -9.3335529994658e+00 2.2146727600772e-03
254 -2.3549859457621e+02 3.0932399804679e+04 -1.8282445308113e+01 3.2264930429914e-03
255 5.6652698009426e+02 3.0895838991103e+04 -9.8675162803738e+00 3.1445428304341e-03
256 2.0924131831240e+03 3.1535137171246e+04 3.2407857616247e+01 6.2255407195836e-04
257 5.2436528230082e+02 3.1437895144902e+04 1.0924421842775e+01 2.8810065403057e-03
258 1.8282966503817e+03 3.0877420590883e+04 2.8250524856342e+00 3.0872872889561e-03
259 8.4244807852273e+02 3.0875555816744e+04 -1.7750090255465e+02 1.7240386274694e-03
260 1.6873057909869e+03 3.0830012197514e+04 -1.7952680348991e+02 3.1430001510498e-03
261 2.3086815545829e+03 3.0682711112900e+04 -8.0106964843853e+00 2.8816333685436e-03
262 9.4279976826643e+02 3.1087806819444e+04 -1.4376400688743e+01 3.4270607127713e-03
263 -3.5308979344459e+02 3.1273527763533e+04 -6.2400637183674e+01 2.9046889490253e-03
264 -1.7480543101504e+03 3.1131277919434e+04 -1.7512965866560e+02 3.4633825823089e-03
265 -1.5850190234190e+03 3.1318198452896e+04 1.6835550835910e+02 3.4245600074146e-03
266 2.8709362953471e+02 3.1617017605214e+04 -7.6347039290144e+00 2.1339725322582e-03
267 1.1903865838376e+03 3.1687129199340e+04 5.1665715123847e+00 3.3474689525233e-03
268 -9.4412635026891e+02 3.1606287661588e+04 1.2769359579474e+01 1.0630988413523e-03
269 -3.6653868652205e+01 3.1276322160275e+04 5.0629925972470e+01 3.4510903657264e-03
270 6.4960113295688e+02 3.1253957440151e+04 -3.5537122839124e+00 3.4634790590323e-03
271 2.2826367666350e+02 3.1319118721950e+04 2.8586411631058e+00 2.9510867000017e-03
272 -2.3064950475653e+02 3.0199097227936e+04 -9.8454761723762e+00 7.9601186090466e-04
273 2.2956848174842e+02 3.2042430547854e+04 -7.2871024633592e+00 6.6533616542667e-04
274 7.1873361848859e+02 3.1968621034185e+04 1.3774474912526e+00 2.5081137107148e-03
275 -1.9323151868233e+03 2.9931150822605e+04 9.8606744726225e+00 2.4376624983203e-03
276 -2.9167537468545e+03 2.9976649918879e+04 1.6975098703283e+02 3.1496143813733e-03
277 -6.0779924037339e+02 3.0042807509915e+04 -1.7076208835193e+01 1.5736802232660e-03
278 -1.7669141991161e+03 2.7848461528896e+04 1.7732376198670e+02 1.2104259242264e-03
279 5.2326621074895e+02 2.9427854325133e+04 -6.8042465516185e+00 7.8814919185256e-04
280 -1.3373185242840e+03 2.8786971856698e+04 -1.3495776922880e+01 1.5748403837983e-03
281 -2.7143088493248e+03 2.9090064938491e+04 -1.2532486961491e+02 1.7573210153900e-03
282 -1.7002385366993e+03 2.9147520365149e+04 8.0627486404209e+01 8.1583234813044e-04
283 2.9019887497318e+02 2.5999149904910e+04 -5.1432303390763e+00 3.6299141208379e-04
284 1.1577426326771e+03 3.1140301225557e+04 -6.2208814927449e+00 2.7627206927447e-03
285 -4.3883083030427e+02 3.1631827367632e+04 6.9487074972596e+00 2.4431496674059e-03
286 -3.0769416017835e+02 3.1345577803677e+04 -4.8949469952828e+01 3.0202739549728e-03
287 6.5536568527350e+02 3.0832133222170e+04 -1.6199391454263e+02 3.0998824578867e-03
288 -8.6461374358161e+01 3.0895676889200e+04 -1.7988018197620e+02 2.5341370418180e-03
289 4.8945638017271e+02 3.1592723246563e+04 9.6366646640332e+01 1.6306021528570e-03
290 6.7695930708133e+01 3.1324063942783e+04 -1.1756661870788e+01 2.5041203893566e-03
291 1.4985720868077e+02 3.0434490378067e+04 -1.1022830928932e+01 2.1034608634031e-03
292 -1.3092885886089e+03 3.0611822521955e+04 1.3684931143588e-02 2.3795222557534e-03
293 -2.3686488096287e+03 3.0675133769542e+04 1.7594248114214e+02 2.5430381203293e-03
294 -5.0202488312387e+02 3.0558825374520e+04 -1.1674080623444e+01 2.0426890184090e-03
295 3.6563582718208e+02 3.0778753932010e+04 4.1298598312245e+00 2.3653517739044e-03
296 6.0480537684440e+02 3.0336207143590e+04 -1.1922684907312e+01 1.8653283629336e-03
297 1.7674687994737e+03 3.1502684274007e+04 -1.3333525071074e+01 2.8739519242355e-03
298 2.0960295391666e+03 3.1525426538764e+04 5.9223818581431e-01 2.1471427628649e-03
299 2.2097785808968e+03 3.1316020287145e+04 -1.2504208076278e+01 2.4774641832591e-03
300 2.7764894161333e+02 3.0777340962119e+04 -1.1635073279040e+01 2.3138557662889e-03
301 -1.8989942812145e+03 3.0784714292216e+04 -6.1145592759168e+00 3.0780562196097e-03
302 -2.1750456952906e+03 3.0945432174381e+04 1.6737993338732e+02 3.1026220880368e-03
303 -5.7244008407952e+02 2.4348295152634e+04 -3.0683347050272e+00 1.1283578599259e-03
304 -2.4558688528914e+02 2.5230426643954e+04 4.8003052567047e+00 5.6357846229681e-04
305 -1.3567599053954e+03 2.4981320539899e+04 -2.9971899318878e+01 2.1490650711466e-03
306 1.6941776741660e+03 3.0451932812386e+04 -7.2234677198502e+00 2.5514517060633e-03
307 1.8771357622685e+02 3.0657297635530e+04 -1.7796049925813e+02 2.8328452263744e-03
308 -9.2128088420183e+02 3.0342628020530e+04 -1.7370275334050e+02 2.3910441962890e-03
309 -2.3988735363980e+03 3.1340332537198e+04 -9.1131977381820e+00 2.0895924702434e-03
310 5.2752300701601e+02 2.5827180779258e+04 1.6323302597909e+02 3.6567883302000e-04
311 2.0673489351087e+02 2.8390120077446e+04 2.0478953160308e+00 3.7000109861001e-04
312 -8.5287611222265e+02 2.8170991459553e+04 -1.5904459655085e+00 8.8392189688358e-04
313 -2.3091520586880e+03 2.8362525805873e+04 1.1744885179026e+02 2.6135960560065e-03
314 -7.8281207844483e+02 3.0055181725627e+04 -1.8916754407581e+00 2.0925453045229e-03
315 7.1204393823607e+02 3.1304975810839e+04 -3.6008837907895e+00 1.9734839969604e-03
316 6.0424662649032e+02 3.1284475078028e+04 -8.2491727905483e+01 3.2008568091150e-03
317 7.0590603950638e+02 3.1547958373786e+04 1.0670885251439e+02 2.3758641096557e-03
318 -1.0677627249722e+03 3.1879157739765e+04 -1.1603882484151e+01 2.1286778398581e-03
319 -4.9300206367917e+02 3.1857188388238e+04 -8.4921833603467e+00 1.6574860489388e-03
320 8.9873112498561e+02 3.2192757215493e+04 -1.0781397798377e+01 1.9378485764694e-03
321 -2.3043245907778e+02 3.2280825818846e+04 -1.6465700506177e+02 1.1919167629222e-03
322 1.7358864544561e+03 3.1099557884373e+04 6.3480377861271e+00 1.8610468021466e-03
323 4.9750246105429e+01 3.1441575988272e+04 1.1145992471263e+02 3.4366380196375e-03
324 -1.1222440519597e+03 3.0576107596922e+04 8.8956440444064e+01 2.6278163863853e-03
325 9.9368916533723e+02 3.1166225185447e+04 -2.0432102735496e+00 2.3171045966612e-03
326 2.2166647539196e+03 3.1044203010128e+04 -1.3525332836201e+01 3.3536330119985e-03
327 2.3126841912650e+03 3.1379262815956e+04 1.5516819978703e+01 3.4634790590323e-03
328 2.4637662378651e+03 3.1240441632115e+04 -4.4797004234430e+00 3.3099843197709e-03
329 8.3582574982482e+02 3.1603537605664e+04 -1.7428893740393e+02 2.4068671416819e-03
330 1.1568285965216e+03 3.1636683002320e+04 -2.3083736699386e+01 3.3831011707361e-03
331 1.7356297641128e+03 3.1706079156729e+04 1.7860297836699e+02 2.3317384575399e-03
332 4.5991701226492e+02 2.9499308498227e+04 2.4373277761172e+00 1.0489609325603e-03
333 5.0327732384623e+02 3.1289000891624e+04 -1.6106283363246e+02 3.2914947209172e-03
334 5.5483445658560e+02 3.1389035716320e+04 -1.1178146368195e+01 3.0314970784092e-03
335 -1.4069427472744e+00 3.0185214817213e+04 4.1086895666964e-01 1.8123935826121e-03
336 2.5339506092079e+03 3.0238210483859e+04 2.4257565948162e+00 1.8184241352153e-03
337 4.5920888110466e+03 3.0872539667604e+04 -6.7938084572549e+00 7.7133703533453e-04
338 1.1159286486675e+03 3.1361505069349e+04 -5.1737098651354e+01 2.7462736593611e-03
339 3.6832109403300e+02 3.1388642181251e+04 1.6589380126913e+02 3.4607953681668e-03
340 6.7335819048959e+02 3.1039573978270e+04 -3.2420179292414e+00 1.1843167140998e-03
341 1.2453290072956e+03 3.1934134226182e+04 -7.4003484360087e-01 2.6967020767351e-03
342 6.5363605596484e+02 3.1824926814628e+04 2.5479820997036e+01 3.1408120659736e-03
343 4.8289047602662e+02 3.1623531587444e+04 -1.2018785691743e+02 3.3629418706736e-03
344 1.9105996577960e+03 3.1746003838843e+04 -1.5276410204839e+02 3.3249172135739e-03
345 1.5462149132696e+03 3.1835246215855e+04 5.5244634155828e+00 3.1307067957164e-03
346 3.4189492477295e+02 3.2085542967952e+04 1.6513551596310e+02 1.6127227841659e-03
347 -6.4981477689130e+02 2.7088780943955e+04 1.3335543381786e+02 4.6084520493095e-04
348 1.5007904117571e+03 2.5638336467641e+04 2.1649866463050e+01 3.1692252126709e-04
349 2.7198564757718e+03 2.9993432707057e+04 -3.9906298208238e+00 1.3947284956985e-03
350 4.5501885041556e+02 2.7260805145993e+04 -7.1105275756776e+00 3.5186611017289e-04
351 -5.3890650025001e+02 2.5416653623702e+04 -1.5540790212994e+01 9.1927921289763e-04
352 -8.3427605990694e+02 2.7663766733489e+04 -1.3102018401411e+02 5.0426624538936e-04
353 1.7854014092061e+03 2.2347268852821e+04 -2.5070153505127e+01 3.1711887336420e-04
354 -6.7589135974771e+02 2.2462858185783e+04 -1.0645901168723e+00 1.0038564714940e-03
355 -7.8365466952316e+02 2.3725758064184e+04 1.5734654563366e+02 8.0294054749629e-04
356 5.3340460106688e+02 2.1794815063535e+04 -3.3556546409519e+00 3.5953572061417e-04
357 -1.3576668977589e+03 2.5667937357750e+04 8.0623446148799e+00 1.7808855708717e-03
358 -1.6810782559278e+03 2.5485722855459e+04 -1.6275616549254e+02 2.6262779255333e-03
359 -2.9884512426651e+02 2.5246771216508e+04 4.6597936828842e+01 6.3726426865866e-04
360 5.3376643953629e+02 2.4499018934704e+04 3.9472495688457e+01 3.7692942067527e-04
361 -2.3463287106340e+02 2.5397960336329e+04 -4.1495694606508e+01 6.7338912579499e-04
362 5.4728683754565e+02 2.5169400613084e+04 -5.5226473173439e+00 3.7141028989206e-04
363 -1.3202731263071e+03 2.7230054865515e+04 2.9420762667582e+00 7.8944123097934e-04
364 -8.5191578938225e+02 2.5728841509263e+04 1.6819203336381e+02 1.2424099145595e-03
365 -2.1459460877304e+03 2.6319252453779e+04 4.6198786935843e+01 2.9002761337707e-03
366 -1.4011136438590e+03 2.6155281123630e+04 4.9274909523293e+00 2.2339090701472e-03
367 -1.5092033685849e+03 2.5863069540174e+04 1.7888756799118e+02 1.8653356342360e-03
368 -4.6621134967084e+01 2.4639196272636e+04 -4.4402930352249e+01 6.0182681932494e-04
369 -3.1972146869556e+02 2.3307358642863e+04 2.3468024977517e+00 8.0515321023521e-04
370 -1.2162710486367e+03 2.3365654399242e+04 1.5704085804833e+02 2.0587396360891e-03
371 -1.3101448496907e+03 2.9798689593253e+04 -8.6074637534252e-01 1.1288214058341e-03
372 -1.9464616609306e+03 2.9651310461983e+04 -3.9042436307038e+00 1.2318114005319e-03
373 -5.3414838802787e+02 3.0200208510265e+04 1.5199886650473e+01 2.2839469158493e-03
374 -8.2024338897852e+02 3.1608002441810e+04 -1.0970985886031e+01 2.9151987162370e-03
375 -1.5118917862732e+03 3.1584187172447e+04 -1.7875494312546e+02 1.9056445448338e-03
376 -8.4213024925359e+02 2.8197560480446e+04 -5.1607798891851e+00 1.0092880642656e-03
377 -5.6597659328096e+02 2.7958032345160e+04 -1.0017188833381e+01 7.0816230660167e-04
378 -8.6658482604693e+02 2.8317031531580e+04 1.3577543831776e+01 9.1474483342816e-04
379 -3.8250217022657e+03 3.0827832898594e+04 1.7527982437943e+02 2.6247796251614e-03
380 -1.3803492833412e+03 3.0888438851643e+04 -1.6602161425847e+02 2.9662076208421e-03
381 -9.6253131980306e+02 2.5974133217298e+04 -7.5058664115431e+01 1.2846760304432e-03
382 -1.6036171221361e+03 2.5959429229336e+04 -3.2796407949980e+01 6.8295068005967e-04
383 -2.6567319418515e+03 2.6626921950380e+04 1.6245806854361e+02 2.7218520339061e-03
384 -1.9290502556851e+03 2.7015416147439e+04 -2.0774426610802e+00 2.8823357498406e-03
385 -1.4589152439332e+03 2.7024969739135e+04 -6.4786186337890e+00 1.6959791945002e-03
386 -1.9517491643848e+02 3.0497014647787e+04 2.1348806118586e+01 1.4736363640879e-03
387 2.8890790868782e+01 3.0831819608951e+04 7.9732633471671e+00 2.7392566878674e-03
388 1.3738865261218e+03 3.0753139120876e+04 -7.5857127590623e+00 2.7210646757083e-03
389 2.2289871361412e+02 3.0922583811138e+04 1.7861672097800e+02 3.3809328249057e-03
390 -2.6524801057713e+02 2.8152935664238e+04 1.3841844470236e+02 5.3280005848398e-04
391 1.7983219302186e+02 2.9920771527222e+04 -1.7676180994977e+00 1.7888011388025e-03
392 -2.5664741950149e+03 3.0127665484932e+04 1.7932481943274e+02 1.0495384395441e-03
393 -2.6285550503590e+03 3.0035366243636e+04 -1.5960354930203e+02 2.5782581903640e-03
394 -1.2734025022224e+03 3.0008526715413e+04 -1.7859227616484e+02 2.1218815634539e-03
395 1.9948871560271e+03 2.7138746188425e+04 5.3324029430820e-01 3.1492393814704e-04
396 -1.5550404182077e+03 2.6784889335840e+04 1.7031425649046e+02 1.4262877531775e-03
397 -1.8742737135668e+03 2.7818598560439e+04 -5.5293982765991e+00 2.4377043545062e-03
398 -1.1653194527744e+03 2.7931268161218e+04 6.9012708596464e+00 1.3815289416549e-03
399 8.3385271322088e+02 3.1314438543001e+04 -1.2870163457862e+00 3.2850166019468e-03
400 -8.3253282814129e+01 3.1487604814253e+04 3.5280111114616e+01 3.4058753554423e-03
401 3.0513291487506e+02 3.1378174969565e+04 -1.7300488796642e+00 3.3121887767886e-03
402 8.8680918672227e+01 3.0176487261805e+04 1.4333442185363e+01 2.0880568608964e-03
403 1.7092663888222e+03 3.0458826054842e+04 -9.1536929996994e+00 2.0282158180218e-03
404 -7.7091071245957e+02 3.1987718077776e+04 -1.7664765130946e+02 6.2809090038714e-04
405 -5.7140644401218e+02 2.7821963097461e+04 -1.0364278619677e+00 5.7342671921516e-04
406 -1.9940269831496e+03 2.4039293277828e+04 9.8152782043856e-01 4.8124673705252e-04
407 -6.0948730765595e+02 2.4112975755027e+04 -2.5073182640782e+00 1.1151822665861e-03
408 -1.1377270573222e+02 2.4898900084452e+04 -1.5724472901121e+00 6.2775502210465e-04
409 -1.1076574328369e+03 2.4856604479935e+04 1.7023858506938e+02 1.7451701812017e-03
410 3.3311004897956e+02 2.4669748730332e+04 -1.0739844717551e+01 3.9964687988620e-04
411 -8.6270609871163e+02 2.4698641357846e+04 -1.8868363904384e+01 1.5211295638818e-03
412 -6.4614667322191e+02 2.5708442741003e+04 1.9208404637440e+00 7.2680303258845e-04
413 -1.8054975369583e+03 2.6890495678636e+04 4.0466257907756e+01 2.3337731569604e-03
414 -6.7568320553561e+02 2.6568341122822e+04 -7.5326560023677e+00 9.8537169826701e-04
415 -1.2294700199215e+03 2.5810978725400e+04 -5.4818670898390e+00 1.2510533936427e-03
416 -9.4144991501645e+02 2.5756654408766e+04 -1.8782672112211e+01 1.3074726327760e-03
417 -1.4273529535148e+03 2.6028344634388e+04 8.4948888994216e+01 1.5392394306899e-03
418 2.9821837398683e+02 3.1348709043380e+04 -6.3629229764300e+00 2.6612180276792e-03
419 -1.7102004277762e+03 3.1907245009268e+04 2.8429341132595e+01 2.7999315506241e-03
420 -1.6677201076186e+03 3.1696749129739e+04 1.4108471990248e+02 3.0800921276438e-03
421 -2.9772918715415e+03 2.6159245965684e+04 1.0385884022939e+02 2.5317374223873e-03
422 -3.1282712635389e+03 2.5771182400737e+04 -1.3087006854725e+02 2.3134882484098e-03
423 -3.3238983816270e+03 2.5888978684035e+04 -1.1630590310948e+02 1.5382045096351e-03
424 -2.3358057045511e+02 2.5042840332100e+04 2.6548449626675e+01 6.3712910913315e-04
425 -2.2332392504431e+03 2.4602777611478e+04 -8.2837174364331e+01 2.5690467032790e-03
426 -6.6256542272843e+02 2.5969297908814e+04 -2.7343136637548e+00 1.0532309114975e-03
427 -1.0428853157108e+03 2.8184945609172e+04 -1.2734180234363e+02 4.7656776543774e-04
428 -1.6038253508638e+03 2.8579082660211e+04 1.2038001575545e+01 9.7324447631091e-04
429 -2.9175998424124e+03 2.8692141326404e+04 -4.9025394000724e+01 1.9227556525471e-03
430 -1.6198236118037e+03 2.7842361474443e+04 -1.7384109792614e+02 2.0854382482316e-03
431 -8.6210390674221e+02 2.6265248937225e+04 -1.4980568365947e+02 9.8194314959133e-04
432 -7.7633614386093e+02 2.6494596531447e+04 1.5956889408819e+02 9.3953835556435e-04
433 -7.1690322085806e+02 2.9402706139324e+04 1.6673872388177e+02 8.7391981071494e-04
434 -8.0943517198662e+02 2.6479347582694e+04 -4.6325261000272e+00 7.6608139845375e-04
435 -8.8206999112118e+02 2.6945063569041e+04 -1.3624017077051e+02 1.1711455832084e-03
436 -1.3812130453748e+03 2.7324709807329e+04 8.5009778798489e-01 1.9936285928170e-03
437 -1.8880422902758e+03 2.7240851723284e+04 -8.2255083348014e+00 1.5911535333944e-03
438 -8.1790368244260e+02 3.2367768203631e+04 8.0949100476829e+01 2.0511487341867e-03
439 -5.4844390792560e+02 3.2082451516341e+04 -1.3926077401350e+02 2.0314199511260e-03
440 4.7422391109702e+02 3.0780579653430e+04 -8.7686504020892e+00 3.0814972530925e-03
441 1.6385032381124e+03 3.1000103633642e+04 -7.3873036476348e-01 2.3006130851234e-03
442 1.8788009779559e+03 3.0964523612232e+04 -5.8659267363386e+00 1.9863888210893e-03
443 1.6183635318411e+03 3.0771970087419e+04 -1.8759418949563e+01 3.1306154134682e-03
444 -1.1097796226941e+03 3.1124885252035e+04 7.4590024228872e+01 2.3319684115558e-03
445 -1.5332153766068e+01 3.1215335213136e+04 1.9959221109813e+01 3.4307553568154e-03
446 3.3044877735013e+02 3.0800284366578e+04 -2.1865754993329e+00 3.2650633109948e-03
447 -3.0632324702643e+02 3.0785790752975e+04 -2.9094746611202e+01 3.1636789875855e-03
448 6.5179388263375e+02 3.0662873677112e+04 6.1549158162570e+00 3.0657414608714e-03
449 9.0318143259414e+01 3.0576561760702e+04 -1.2925548349370e+01 2.9170399087770e-03
450 -5.5259503321752e+01 3.0375445006261e+04 -1.8883903155579e+00 1.4603270539299e-03
451 -5.8356747237949e+02 2.7772734913318e+04 9.4223935996359e+01 8.0779332793350e-04
452 -2.9462375362464e+03 2.7743829649912e+04 1.7349215285727e+02 1.5867374901003e-03
453 -1.9830149899087e+02 3.0657448733164e+04 -2.4778134902751e+00 2.4366333959297e-03
454 -7.0706529829046e+02 3.0680133232892e+04 -9.5067378718213e-01 2.8057079336551e-03
455 6.8766763858718e+02 3.0907672442390e+04 -2.4661932308482e+00 2.4994824852702e-03
456 1.9840683684731e+03 3.0830389573472e+04 -4.4959849151028e-01 7.9356140316520e-04
457 -1.5113132949859e+03 2.9299793990996e+04 -2.4759705012128e+00 1.0171440608899e-03
458 1.2909357341927e+03 2.9989203411017e+04 -3.4874655086001e-01 1.0918071665184e-03
459 -2.9623965752554e+03 2.8216036701504e+04 1.1233102830653e+01 3.0134181256999e-03
460 2.3941930516265e+02 3.1074099306616e+04 7.5746669267702e+00 1.5841424560065e-03
461 -7.6564646318097e+02 3.1737933044718e+04 1.2654322619263e+01 3.0487310350714e-03
462 9.0077237678568e+02 3.1592292609544e+04 -4.1480276510033e+00 2.1810347322901e-03
463 -2.0136905698758e+02 3.1725141870152e+04 2.0415748156406e+01 3.1415087864260e-03
464 -5.4048707491961e+02 3.1053233513394e+04 3.9444302541083e-01 1.7493230149919e-03
465 -1.0760548468690e+03 3.1019780679041e+04 -5.4673830896489e+01 3.1425710685812e-03
466 -1.1363139122671e+03 3.1374283656765e+04 -1.1607736040503e+01 2.2130141893184e-03
467 -5.3351880141134e+02 3.1421319108759e+04 8.8159560011300e+00 2.9775025968210e-03
468 2.0147813167852e+03 3.2063869020503e+04 -8.3333343232539e+00 2.8888814881319e-03
469 7.2521338726822e+02 3.2052127513620e+04 -1.7563821520616e+01 2.7341356592942e-03
470 1.5088252643266e+03 3.1083764528506e+04 5.9766389560785e+01 2.7448200786636e-03
471 2.2751252253129e+03 3.1037958136443e+04 6.3617147550780e+01 1.5409692099036e-03
472 4.3556339664214e+02 3.1111814921334e+04 6.7630538906851e+00 3.3015055835188e-03
473 2.1492954116817e+03 3.1381548209605e+04 2.6606194894765e+00 3.3838427229150e-03
474 7.5349705969017e+02 3.1344853297649e+04 -5.4288422525099e+01 3.2685808531135e-03
475 2.8185966349193e+03 3.1360623968316e+04 3.9472787217578e+00 3.4198762038357e-03
476 3.7580685867041e+03 3.1165809466362e+04 -3.0629477881704e+00 1.9905094048634e-03
477 -1.3632562477359e+03 2.9385870868701e+04 -7.7838680773246e+00 1.5282135814522e-03
478 -1.7553707001881e+03 2.9341514861704e+04 1.3756759459018e+02 1.0359994441003e-03
479 -3.2797995790998e+02 3.2414970910119e+04 1.6144544410369e+02 2.0225464118513e-03
480 -1.5793913995226e+03 3.2212860398472e+04 -3.4921536432350e+01 1.7807532922386e-03
481 -2.3624771205195e+02 3.0037200162197e+04 -3.4678032214881e+00 1.6945280141749e-03
482 6.0394686811741e+02 3.0219539259738e+04 -1.4456561885545e+00 2.2697690839306e-03
483 -6.3550517361357e+02 3.0348176834896e+04 1.7530977202693e+02 2.6691601483689e-03
484 -5.2783778546258e+02 2.9318135912840e+04 -1.3399205844545e+01 4.2767101869051e-04
485 -8.5254824741700e+02 2.9032005774936e+04 -7.1661739783079e+00 9.2273215306422e-04
486 -1.1682801229152e+03 2.9260264317473e+04 -6.0959790426043e-01 9.3713815160152e-04
487 -3.8010276534412e+02 2.9786122135733e+04 -5.2403511344171e+00 7.9461617794265e-04
488 -2.3881846355904e+02 2.7379710030339e+04 4.5314498712206e+01 5.6105698857309e-04
489 -7.4263266765869e+02 2.7435162173705e+04 4.5284631329372e+00 9.8220835143855e-04
490 -8.5722596138915e+02 2.6963131215510e+04 -6.4209536858882e+00 7.9819711826063e-04
491 3.7841633047250e+02 3.1471478291131e+04 1.8366387357108e+00 3.3905987440797e-03
492 -2.1068142898937e+03 3.1846933197942e+04 1.0861617408150e+01 2.7483736584678e-03
493 -2.0795725833594e+03 3.1701215139628e+04 1.6102077079075e+02 2.8933870275818e-03
494 -1.2227922014430e+03 3.1992124137839e+04 4.1601530705640e+00 2.2674866351309e-03
495 1.0795610867074e+02 3.0694887908511e+04 -1.2851691973838e+02 2.8109982278899e-03
496 -6.9559860880165e+01 3.0924067608972e+04 -3.8404228889189e+01 3.3933125071479e-03
497 -1.6808843110085e+02 3.1123277884564e+04 5.8472032163579e+00 2.9873386563799e-03
498 -2.3255961992418e+01 3.1049975214866e+04 -4.6016579575670e+01 3.0977580599630e-03
499 1.9015270021243e+03 2.5578224054681e+04 9.1532516097986e+00 3.1529488538829e-04
