0 -1.7805792184012e+03 2.6093958415430e+04 -1.7469447317573e+02 2.5766046131175e-03
1 -1.5346750052940e+03 2.7003167539290e+04 8.2555636092542e-01 1.3744097558453e-03
2 -1.6107441619376e+03 2.5777949631411e+04 1.6414347172523e+02 2.1357013943041e-03
3 -1.3144312701617e+03 2.5689371002143e+04 -3.3225502129515e+00 1.9373294107445e-03
4 -1.8166059885993e+03 2.7438204912175e+04 -1.7574756046165e+02 1.9477202776416e-03
5 -1.8271701091292e+03 2.8359211727748e+04 2.2356377946833e+00 7.5303243451474e-04
6 -1.8922186438910e+03 2.7097113150779e+04 -1.6752544877087e+02 2.5716626828373e-03
7 -2.2276194632642e+03 2.6433443982093e+04 1.6524679377828e+02 1.9860350399369e-03
8 -2.1284975018846e+03 2.6676827883940e+04 5.6490856619582e+00 2.0088931500719e-03
9 -2.3794708277188e+03 2.6740614264720e+04 1.6958753519549e+02 2.5059257058077e-03
10 -1.6916607583243e+03 2.6403470966044e+04 -6.8565447819868e-01 2.5063625376151e-03
11 -7.5130261487437e+02 3.1386848572965e+04 1.7156882352918e+01 1.5619208577648e-03
12 -1.7256822386004e+03 3.0703299138032e+04 -1.7766712507359e+02 2.9850744037400e-03
13 -1.2414350430999e+03 3.0545673057321e+04 -3.7110317310591e-01 2.3988137908620e-03
14 -1.1855775756093e+03 3.1870678929418e+04 1.2166733569449e+00 2.4773269427512e-03
15 -1.9745367067080e+03 2.5372338141619e+04 9.3753533540879e+01 3.1436973356194e-03
16 -1.7686048760247e+03 2.5466917022264e+04 1.0386526063198e+00 2.7764200433066e-03
17 -1.3825346579954e+03 2.6471968142427e+04 1.1117902337561e+00 1.3668304489099e-03
18 -1.5987974874186e+03 2.6616454855636e+04 -6.6223242941272e+00 2.1973389822759e-03
19 -1.2380024824282e+03 2.7545346224034e+04 1.2587369869042e+00 1.5529334805970e-03
20 -1.7907682173298e+03 2.7918203695528e+04 1.7666139019685e+02 2.1217356030223e-03
21 -1.7204237715738e+03 2.7316950139835e+04 1.7476060762466e+02 2.4335647040942e-03
22 -1.6918461152671e+03 2.7147781923875e+04 -2.8420463906071e+01 2.4176751976045e-03
23 -1.8587989112977e+03 3.0096975725399e+04 1.7552043523099e+02 1.0023747879608e-03
24 -1.4660192437978e+03 2.9958046080329e+04 2.2792328575566e+00 1.1490963084927e-03
25 -1.3034605956449e+03 2.9128217610330e+04 -6.6961103997068e+00 1.1327154919584e-03
26 -1.5323326395556e+03 2.8983142733526e+04 8.8167376480134e+00 1.7304175733479e-03
27 -1.3663680926146e+03 2.7882313361705e+04 -1.4806043327351e+02 1.1033933378676e-03
28 -1.0149610487519e+03 2.4112136984403e+04 1.3256320408023e+02 9.4403810584387e-04
29 -1.6737433013604e+03 2.2673547894958e+04 1.7733193476173e+02 2.9301610250487e-03
30 -1.1240789964322e+03 2.2401713547549e+04 8.5487144172404e-01 2.1576105326853e-03
31 -1.1863194419811e+03 2.2743585319070e+04 8.0678757312381e-01 1.4280995676914e-03
32 -1.4617031789409e+03 2.3321295548136e+04 -1.7856666774419e+02 2.6327807034168e-03
33 -1.0509588786851e+03 2.3246398249349e+04 1.4124274183835e+00 1.8328484811764e-03
34 -7.6576170497266e+02 2.2694389985299e+04 8.6960717309479e+00 1.5557776406399e-03
35 -1.2609208087315e+03 2.3283882520569e+04 -1.1271091712692e+00 1.8471459596127e-03
36 -1.4104285074745e+03 2.5851721642181e+04 1.2245675795768e+01 1.2940910795825e-03
37 -1.0476190005893e+03 2.6467168973276e+04 2.2347018289742e+00 1.4325714409747e-03
38 -1.3059534958905e+03 2.5305855413786e+04 9.7930238059558e-01 2.0480376854775e-03
39 -1.4072113566137e+03 2.5595847412511e+04 1.6599467746989e+02 1.4089589115922e-03
40 -1.7068676150282e+03 2.5859912502110e+04 1.7661640316154e+02 1.6897137026570e-03
41 -1.2090278444332e+03 2.4639221834988e+04 -1.9066205127150e+00 1.9555855144735e-03
42 -1.8950879717535e+03 2.6840688847155e+04 -1.7695105911619e+02 2.1081327242360e-03
43 -1.6267442587083e+03 2.6238861091037e+04 1.6215556734196e+00 2.0511543394023e-03
44 -1.7308667425387e+03 2.4941899858231e+04 -1.6745068276881e+01 1.8133963868218e-03
45 -1.4271810980484e+03 2.5372009117709e+04 -7.6100914781164e+01 1.4292070066255e-03
46 -8.9031762190123e+02 2.2073735221186e+04 3.2239269482700e+01 1.3376829790478e-03
47 -9.8208038755438e+02 2.1191369101371e+04 1.6949953643322e+02 1.9379312847381e-03
48 -9.0206355717847e+02 2.0808628911630e+04 -1.7243054197846e+02 1.8873602165913e-03
49 -9.4617998865209e+02 2.6129387600172e+04 2.3389905136878e+00 1.1313164774173e-03
50 -1.0514993643758e+03 2.6008563673687e+04 -2.1144228274514e+00 1.1523473885995e-03
51 -1.5380896021626e+03 2.6046533832191e+04 -1.7841180204352e+02 1.1885074412643e-03
52 -1.6373441507666e+03 2.4519747999238e+04 -1.6459608804102e+02 2.7132130133794e-03
53 -1.5011726778722e+03 2.4297791753924e+04 1.7850737888696e+02 2.4150345346511e-03
54 -1.8437569728840e+02 2.1642466735484e+04 1.7537458653058e+02 8.8303166355033e-04
55 -9.8315390863239e+02 2.9470345635633e+04 4.0327828926075e+00 8.3375224829551e-04
56 -8.6511258553413e+02 2.6759182592430e+04 1.5417078872100e+02 7.6054624997150e-04
57 -1.5347653836696e+03 3.0254440483766e+04 1.0995859540852e+02 2.3176734874165e-03
58 -2.3368654599500e+03 3.4351374896784e+04 1.7904180316552e+02 2.9620241326912e-04
59 -1.7234444331380e+03 3.2094599192147e+04 1.7940747025824e+02 1.2827994610581e-03
60 -2.1088733853305e+03 3.3451613717767e+04 1.7948287561315e+02 4.7125527306670e-04
61 -1.9222726965339e+03 3.1916240295130e+04 -1.7822015705674e+02 2.5691312831211e-03
62 -1.5775421669943e+03 3.1630866149148e+04 -1.8836672932527e+00 2.9084545689261e-03
63 -1.2678575739353e+03 3.4434942641133e+04 -6.1500473334199e+00 3.0759112266908e-04
64 -1.1065112979419e+03 3.1672201481025e+04 7.5300299926159e+00 1.5499152150655e-03
65 -1.2961914972465e+03 3.2468384274843e+04 2.3761461219134e+00 1.4356820527093e-03
66 -1.4943714953152e+03 3.0564899587978e+04 -1.6711519175112e+01 2.7447553752794e-03
67 -2.2457156050374e+03 3.2092355519541e+04 -1.7792992067526e+02 2.2261739689707e-03
68 -1.7586590938085e+03 3.1943063093728e+04 3.9048103287261e+00 2.3013442486923e-03
69 -1.8831503741911e+03 3.1943095396522e+04 3.8582410080486e+01 2.5123142662688e-03
70 -1.4885925009703e+03 3.1775083741537e+04 2.8335010935806e+00 2.2492730997307e-03
71 -1.4138548824493e+03 3.1533375528455e+04 4.8008939162776e+00 2.4715964499640e-03
72 -1.7373554556989e+03 3.3252861619825e+04 1.6591005933292e+02 6.6960337109712e-04
73 -1.2125062460003e+03 3.3261717941802e+04 -2.7202641339461e+00 6.6707262673696e-04
74 -1.5278658538400e+03 3.2871247133731e+04 -2.1722125931773e+00 1.0693659865599e-03
75 -1.7715490999969e+03 3.2354077704800e+04 2.9563939952880e+01 1.7518859934362e-03
76 -1.4649974401155e+03 3.1532272165975e+04 -6.7178564252205e+00 2.7572335898186e-03
77 -1.5365777619197e+03 3.0327665515809e+04 -3.4891987784903e+00 2.5343496145950e-03
78 -1.8508417568406e+03 3.3166603311828e+04 1.7204144866546e+02 5.7749255928389e-04
79 -1.2939651986444e+03 3.3866937928012e+04 -4.2219234574608e+00 3.8062623506872e-04
80 -1.0673556388562e+03 3.3466294275580e+04 -1.6692364153206e+00 5.1350117625819e-04
81 -1.5626867861090e+03 2.7256139131630e+04 1.2459104902543e+02 2.1360793956310e-03
82 -1.1947233194897e+03 2.6993446301924e+04 3.6484398762233e+00 1.5870248320854e-03
83 -4.6208112256113e+02 3.3194736289092e+04 1.4843273357570e+02 6.2294814873784e-04
84 -1.4230411607435e+02 3.3390764680122e+04 5.4191614521970e+00 5.1664195829145e-04
85 -1.7228701258647e+03 3.0734993638166e+04 1.0669930077599e+00 2.7266616041957e-03
86 -1.7036160127178e+03 3.2192179114959e+04 -8.6245840190994e+00 1.5127703285699e-03
87 -1.6954548780206e+03 3.2719769458021e+04 -1.7785453321893e+02 1.1328622561651e-03
88 -1.5644398458922e+03 3.2209382051387e+04 1.4787082745395e+00 4.8798044012342e-04
89 -1.7516287942332e+03 3.1970006884613e+04 1.7208739535235e+02 2.2543413602680e-03
90 -1.4933215306022e+03 3.1770725254322e+04 -5.5360064173987e+00 2.5417943095880e-03
91 -8.2546544724444e+02 2.7800273070813e+04 -3.6978967292426e-01 9.0087307958080e-04
92 -1.2909990773821e+03 3.2040114361080e+04 1.2530922229594e+00 2.4091648716644e-03
93 -1.2011925757134e+03 3.1946510592310e+04 2.6607213718144e+00 2.4815144119807e-03
94 -1.2912616107663e+03 3.1205457721334e+04 4.0929618582084e+00 2.6629438574427e-03
95 -1.4085932793755e+03 3.2895724613857e+04 3.6410275132961e+00 4.8328490496534e-04
96 -1.3909053106091e+03 3.1805766657876e+04 -1.4520004156649e+02 2.3059153978482e-03
97 -1.2774684448922e+03 2.7041711230306e+04 9.8737628639307e+00 1.2483871636021e-03
98 -1.4412188639592e+03 3.1012719245152e+04 1.3827124964836e+01 1.7329428516678e-03
99 -1.2956815753591e+03 3.0326787846232e+04 1.5072192414781e+02 2.4876370406249e-03
100 -1.2877517813716e+03 3.2633324467454e+04 1.8206515842639e+00 1.1762222371861e-03
101 -1.3114100430141e+03 2.8401796937921e+04 3.3724278469036e+00 8.8727695111214e-04
102 -1.3751046845631e+03 3.2227469595524e+04 -1.2217527965628e+00 2.0657152480361e-03
103 -1.4713885467585e+03 3.1938909292426e+04 -8.4273703360409e-01 2.5815606832757e-03
104 -2.3374543882717e+03 3.0745391555285e+04 1.6911540465514e+02 3.0925095083194e-03
105 -1.7046597344866e+03 2.8457694365081e+04 -2.1752545650185e+00 2.1743479817570e-03
106 -2.0975343278980e+03 2.7709453259915e+04 1.6798391288529e+02 2.8907417305303e-03
107 -2.5454469593344e+03 2.6524208745335e+04 1.7275088643454e+02 2.8026565003197e-03
108 -2.4789703414796e+03 2.6344161128547e+04 -1.7458608759802e+02 2.4284892722315e-03
109 -1.4339817948097e+03 2.8222996056370e+04 -1.5964202360558e+02 1.3637818350474e-03
110 -1.9330119878639e+03 3.1117664399188e+04 1.4856824959408e+01 1.5565710476445e-03
111 -8.6303652621602e+02 2.8481139717603e+04 -2.5011120199397e+00 7.7840454965899e-04
112 -6.4627459811218e+02 2.8309429659366e+04 3.1250904147839e+00 6.1497491615992e-04
113 -9.1510925007890e+02 2.7187910427091e+04 1.0234883718495e-01 7.0484055290183e-04
114 -1.9668241067270e+03 2.8188095705752e+04 6.1829654047931e+00 2.3771577352923e-03
115 -2.2784239543395e+03 2.8860185504979e+04 1.9656673125769e+01 2.8390726545761e-03
116 -2.1810261347005e+03 2.8221700475975e+04 1.7430132567447e+02 2.9034401755694e-03
117 -1.6359752830808e+03 2.7281553750961e+04 4.8642279957055e+00 1.8794350983721e-03
118 -1.9825710244057e+03 2.7643924598251e+04 1.7723209560645e+02 2.1047027649690e-03
119 -1.9428252300955e+03 2.7052951203098e+04 -4.3670137819855e+00 2.7834798819850e-03
120 -2.0777970407806e+03 2.7157518602165e+04 -1.7732634372428e+02 2.9576523786550e-03
121 -1.7475733376593e+03 2.9382242905638e+04 -5.3639552443109e+00 1.7554523270300e-03
122 -2.1467434124633e+03 2.7735924243357e+04 1.7799656542725e+02 2.4809472859822e-03
123 -2.1317959199090e+03 2.8079187295896e+04 1.4919067823584e+02 2.4699440155485e-03
124 -2.0155482587769e+03 2.8928632521706e+04 -6.9807025612431e+00 2.3101659867855e-03
125 -2.0995165147203e+03 3.0091898124803e+04 -1.6028166747037e+02 2.2080300889433e-03
126 -1.7957900910365e+03 2.9896654282311e+04 1.5058676433071e+00 2.0284562216033e-03
127 -2.0395134424730e+03 2.9680029981416e+04 1.7318811617883e+02 2.4639125133898e-03
128 -1.8679721522603e+03 2.7087399655941e+04 1.1043464602435e+00 2.6428919048671e-03
129 -2.2711912390749e+03 2.7245543951347e+04 -1.2095647489712e+02 2.9061442957801e-03
130 -2.0152557068993e+03 2.9934961232945e+04 1.7934157620739e+02 2.3461791708757e-03
131 -1.3748883861040e+03 2.9143030672347e+04 1.0744600098974e-02 1.2367112517292e-03
132 -4.5937762396656e+02 3.2032229874450e+04 8.7097829970849e-01 1.6484456529231e-03
133 -2.2863252613528e+03 2.5218176739523e+04 -1.7075939003393e+02 1.6603119938510e-03
134 -2.2483242553637e+03 2.6069173814091e+04 6.8387948355262e+00 1.5797089912245e-03
135 -2.4819615155377e+03 2.9041303449615e+04 5.3011349672062e+00 2.8574751750225e-03
136 -2.2806745663259e+03 2.8622402257734e+04 2.1859879755764e+00 2.8764182915336e-03
137 -2.5183105255891e+03 2.9325341380256e+04 1.7389881127544e+02 1.5436152304436e-03
138 -2.2366944819124e+03 2.9359387065747e+04 -3.2277442844768e+00 2.4901406627622e-03
139 -1.8926370233673e+03 2.7692045666093e+04 -5.4415450091880e+00 1.3646240972531e-03
140 -2.3906477663806e+03 2.7650129491720e+04 1.7984571374609e+02 1.3825909905478e-03
141 -2.3769209215370e+03 2.7925411542423e+04 1.7125914709773e+02 1.6828912713976e-03
142 -2.0023663386789e+03 2.6587060695360e+04 4.1608854091048e+00 2.2198453724380e-03
143 -2.0170914170837e+03 2.6793839352122e+04 -2.4831966625151e+00 2.8941743207305e-03
144 -2.1227289129575e+03 2.6679706284866e+04 1.6791419862408e+00 2.6622554186952e-03
145 -1.8880251934427e+03 2.8439627397551e+04 1.7740801394482e+00 1.2791888403988e-03
146 -2.0368359737008e+03 2.6285670006986e+04 -1.0092547861864e+01 2.3485663487173e-03
147 -2.3685899650067e+03 2.6825456547786e+04 -8.4039944726466e+00 3.0272357291743e-03
148 -2.1173384715860e+03 2.6795912458177e+04 1.0424128990653e-01 2.9798590419611e-03
149 -1.7292901778733e+03 2.8091447145367e+04 -3.1055840227477e-01 2.3285228332810e-03
150 -1.3053730672707e+03 3.0904639981818e+04 3.0612639056079e+00 3.0629388123908e-03
151 -1.2438209429760e+03 3.1009025396534e+04 1.0465226739285e+01 3.0538909258982e-03
152 -1.5625228280251e+03 3.0679957117190e+04 1.7331096714644e+02 2.0349206581311e-03
153 -1.4544495260344e+03 2.9381522642117e+04 -1.0725180151785e+00 1.2966441942623e-03
154 -2.5929058265679e+03 3.0806017436368e+04 1.6989275420528e+02 2.9403040219565e-03
155 -2.1892064576243e+03 3.0878170454430e+04 2.7003145274521e+01 3.1694481484121e-03
156 -2.5840300645347e+03 3.0578857765360e+04 1.7689772229634e+02 2.9157314339791e-03
157 -2.1816312342862e+03 3.0229229003870e+04 1.7558479896424e+02 2.0953236373470e-03
158 -1.8866014707557e+03 3.1597326180240e+04 1.6180304558173e+02 2.9477449814023e-03
159 -1.8405886063833e+03 3.1652172881453e+04 1.7993973595011e+02 2.8564983561547e-03
160 -1.8252422592964e+03 3.0237347365384e+04 -1.7799893212846e+02 2.1697513239655e-03
161 -1.7511383473530e+03 3.0557579768512e+04 1.6558044278665e+02 2.8120881484174e-03
162 -1.9228548709376e+03 3.1690851338603e+04 -1.7802398011916e+02 2.7700199379116e-03
163 -1.6893511848853e+03 3.2704582212415e+04 2.5491708227399e+00 1.2733370254155e-03
164 -1.0285172334209e+03 3.2320188078549e+04 3.9200765636814e+00 1.7501540314695e-03
165 -1.4583712540742e+03 3.2569380371279e+04 -1.5950998056163e+02 1.3807517010828e-03
166 -1.3693441969735e+03 2.9594384189410e+04 3.8289262363047e-01 7.2949767110702e-04
167 -1.8494481645452e+03 2.9869058387405e+04 6.3871017365680e+00 1.9397462608985e-03
168 -1.5892260384724e+03 2.9502452326095e+04 3.8552081117374e+00 1.7481726035703e-03
169 -1.4148608057356e+03 2.9146204059675e+04 -4.3728448623550e+00 1.6129043814182e-03
170 -2.1692270334237e+03 3.2271648591882e+04 1.7401156223502e+02 1.5112222372422e-03
171 -2.4200271136956e+03 3.2170200347496e+04 -1.7586181518229e+02 8.9979839019398e-04
172 -2.0336115924845e+03 3.1825717643854e+04 -1.7990240643414e+02 2.6940677734115e-03
173 -1.6942657558419e+03 3.1797675804804e+04 5.1302106831452e+00 2.6550705110696e-03
174 -1.6673619575042e+03 3.2135780917713e+04 1.6846503442573e+00 2.0705016746202e-03
175 -2.0279259975618e+03 3.1410403637980e+04 1.7766262461685e+02 2.0689698517750e-03
176 -1.7058093615530e+03 3.1485596122408e+04 -1.3111744657891e+00 2.5670472119050e-03
177 -1.9118651158882e+03 3.2297646867325e+04 2.9390757297243e+01 1.8464504956859e-03
178 -1.9264329862873e+03 3.1204250216079e+04 6.3758957002648e+00 3.0448249275565e-03
179 -1.8460504343043e+03 3.1045620594836e+04 1.7354321986135e+02 3.0471097049458e-03
180 -2.1005153795139e+03 3.3921600656169e+04 -2.2157390170980e+00 3.2686776789957e-04
181 -2.3888234393579e+03 3.0843276887636e+04 -1.7877204323116e+02 3.1605608762824e-03
182 -1.9594137311472e+03 3.3582951833029e+04 1.7518341044384e+02 3.6467514499589e-04
183 -2.0376990728631e+03 3.0904717955368e+04 -1.7904265648775e+02 2.9874479621744e-03
184 -2.2009573266913e+03 3.1739128158113e+04 -1.7493708821581e+02 2.6241428023885e-03
185 -1.7171730116017e+03 3.1518766900115e+04 4.5384188788394e+00 3.0694641011277e-03
186 -2.2231572911739e+03 3.3412894900620e+04 -2.6525187819403e+00 4.1433123537450e-04
187 -1.5677725026345e+03 3.2950562162787e+04 -1.7625010354801e+02 5.2547206311483e-04
188 -1.6342464014405e+03 3.2732497411269e+04 -6.4433320679301e+00 5.5589638496626e-04
189 -1.7366113491362e+03 3.0818774098596e+04 3.0373124420683e-01 2.5031103223392e-03
190 -2.0486338574597e+03 3.0118928283657e+04 -2.0908238819005e+00 2.1159922349443e-03
191 -2.3294705890148e+03 3.0292725460666e+04 3.8871532381721e+01 2.4547067765889e-03
192 -1.9833117124270e+03 2.8114803321861e+04 9.2069563313880e-01 2.6982184057360e-03
193 -2.0211241007305e+03 2.7978267935235e+04 -3.0232775188656e+01 2.8002021449432e-03
194 -2.5010231692392e+03 2.8625620760737e+04 1.7709436812772e+02 3.1651334847391e-03
195 -2.3486753651567e+03 2.9350502517087e+04 1.6639499983070e+02 2.7959558217691e-03
196 -2.1359855293757e+03 2.9515695757177e+04 1.3870767539717e+00 2.6897944065051e-03
197 -2.3598366869439e+03 2.9258600418053e+04 1.6965265475381e+02 2.9830410051821e-03
198 -2.3275585099180e+03 3.0202957847481e+04 -1.3450294376850e+01 2.7114435601372e-03
199 -2.4997542117733e+03 3.1376059276950e+04 1.7380193953058e+02 3.1186616361939e-03
200 -2.5363872296298e+03 3.1221483435424e+04 -1.6873068134454e+02 3.1697481317332e-03
201 -1.5432901058455e+03 3.1803847527858e+04 2.0008902895450e+00 2.5361991259586e-03
202 -1.5963737447821e+03 3.1125497713649e+04 1.1695925617523e+00 3.1663071081949e-03
203 -1.8697148438462e+03 3.1307128710728e+04 3.2979402250267e-01 3.1299296533447e-03
204 -1.8602300696927e+03 3.1091133329436e+04 9.9625041782476e+00 3.1461384964868e-03
205 -1.6170883429304e+03 3.1441811112199e+04 -1.7521924557590e+02 3.0677723860544e-03
206 -1.8960969053616e+03 3.1456866395941e+04 -1.7851263160005e+02 2.9274943810744e-03
207 -1.5282722257164e+03 3.4986886889104e+04 3.9841323248032e-01 2.9258432516906e-04
208 -1.7226762654800e+03 3.1090532837123e+04 2.5602306035757e-01 2.2574397268148e-03
209 -1.4972557729998e+03 3.2304994433546e+04 8.2654598439372e+00 1.5704282108732e-03
210 -1.4446223354641e+03 3.2517960294703e+04 1.0203827035299e+01 1.4461877975600e-03
211 -1.5043447854613e+03 2.7772000185037e+04 -1.0211844258454e-01 1.9751556176724e-03
212 -1.7054968724891e+03 2.7900751846348e+04 1.5760483111204e+02 2.3127825147533e-03
213 -1.4643212365102e+03 2.8385426055722e+04 6.8820236968898e+00 1.3857294106880e-03
214 -1.9138413556583e+03 3.0014042307252e+04 -4.1568612981307e+00 2.3058752335503e-03
215 -1.6550418164901e+03 3.0183822682522e+04 -4.5496289552088e-01 2.0123630000352e-03
216 -1.5079273064581e+03 2.7956320882991e+04 -1.6008743132228e+01 1.8841629577038e-03
217 -1.8800486383669e+03 3.2488496412716e+04 1.9490041218327e+00 1.0828639241883e-03
218 -1.3772518576022e+03 3.4339368630583e+04 1.7532114136627e+02 3.0824739726567e-04
219 -7.6191637344322e+02 3.4436236808539e+04 -1.3561843450050e+00 3.1085869782223e-04
220 -4.5187287739619e+02 3.3800164637537e+04 3.6409529151588e+01 4.2333029551446e-04
221 -9.8111783168135e+02 3.0137293556914e+04 -2.6884565853564e+00 2.1036272877787e-03
222 -1.6663137173831e+03 3.4258644307334e+04 -1.7747838200879e+02 3.0703964012047e-04
223 -1.6436941552673e+03 3.4206832420273e+04 1.5266534035787e+02 3.0176289447641e-04
224 -1.5496820749366e+03 3.1431335909073e+04 1.6193620077034e+02 3.0751832688734e-03
225 -9.7340878773636e+02 3.0695951311475e+04 -6.6134554628724e-01 2.9874500827577e-03
226 -1.1727806619674e+03 3.0747866685444e+04 1.5808588464272e+00 3.0296240792906e-03
227 -1.4705742265375e+03 3.0639861432512e+04 -1.7998128853909e+02 2.7545120385259e-03
228 -1.1572825212241e+03 3.2877575747033e+04 -4.3021435387149e+00 9.1819588745798e-04
229 -1.4124305987665e+03 3.4059426881122e+04 8.7783925294974e+01 3.4732627264835e-04
230 -1.3815916408123e+03 3.0085561236445e+04 1.7917737889804e+02 2.0695731599981e-03
231 -1.6823328989906e+03 3.2757870184630e+04 -3.0521932730330e+00 1.0476927900364e-03
232 -1.8335665560061e+03 3.2881393859754e+04 -2.5816923223821e-01 9.9438709932627e-04
233 -1.6877379327805e+03 3.2401301863364e+04 -7.4873674328755e+00 1.6151286136009e-03
234 -1.0663996542748e+03 3.4021227259036e+04 -1.3705113741321e+00 3.1376509135628e-04
235 -1.1473894412354e+03 3.1213790851196e+04 -2.9979905253797e-01 3.1631108909043e-03
236 -1.1471187925438e+03 3.0949325689783e+04 -2.7050419817328e+00 3.1421199023695e-03
237 -1.3543587691523e+03 3.1913137695329e+04 1.6355627489978e+00 1.6636715669836e-03
238 -1.7275939899830e+03 2.8353475239887e+04 -1.1839567858702e+01 2.1252554268336e-03
239 -9.9785674889749e+02 3.4669594572485e+04 5.6463149972097e+00 2.9970816405181e-04
240 -1.3427340247607e+03 3.2797786854918e+04 -4.7368640207157e+01 1.1522388994455e-03
241 -1.3823302651763e+03 3.2899808759836e+04 -1.7580595519443e+02 1.0440296887044e-03
242 -1.1993942844280e+03 3.1311246801265e+04 3.5656943436171e-01 2.7552491247281e-03
243 -1.5538059499080e+03 3.3716344132145e+04 1.7841192489648e+02 4.2598226466181e-04
244 -1.2235919909213e+03 3.4282729091370e+04 1.0711061938260e+01 3.2116540665494e-04
245 -1.8352237256156e+03 3.0891055132144e+04 1.7959972130363e+00 3.0725278061536e-03
246 -1.6592549946294e+03 3.0955142342195e+04 -5.4807513327124e-01 3.1070069664679e-03
247 -1.4912907747228e+03 3.0708556738204e+04 1.7668151692915e+02 1.9934270449832e-03
248 -1.2185985124761e+03 3.2059465729356e+04 9.1988602242407e+00 2.3815854660143e-03
249 -1.1671538103121e+03 3.2241566264682e+04 5.9504253935340e+01 2.0623994907423e-03
250 -2.0295074898372e+03 3.4519039157080e+04 1.7818965461342e+02 2.9687492062574e-04
251 -1.6973158640155e+03 3.1544689323186e+04 -8.6660203565145e-01 3.0573649156792e-03
252 -2.0135550289333e+03 3.2435948132983e+04 1.0256584809116e+01 1.4330610442320e-03
253 -1.3536234050291e+03 3.2494093037679e+04 -7.5890333754059e+01 1.3825667118610e-03
254 -9.2460535010300e+02 3.2679140816105e+04 1.6777168719614e+00 1.2913280919576e-03
255 -1.8351717808474e+03 3.1785661498174e+04 -3.1378421205003e+01 2.5910732189001e-03
256 -2.0830023820992e+03 3.2721353939495e+04 1.7757861279963e+02 1.2207607252506e-03
257 -1.4843665141081e+03 3.2368879525383e+04 -8.3728678341880e-01 1.7877056083155e-03
258 -1.8300403423038e+03 3.1133515273919e+04 1.7992244133669e+02 3.1935010238290e-03
259 -1.3838563884558e+03 3.1040919701497e+04 3.7590522981861e+01 3.1928517963439e-03
260 -1.3687069805230e+03 3.1049960479189e+04 2.3880563595345e+01 3.1871539139365e-03
261 -2.0219215812890e+03 3.1481831036275e+04 1.7788483347682e+02 2.7064289526915e-03
262 -1.6225821892513e+03 3.1679701716313e+04 2.6380156218336e+00 2.6841738514835e-03
263 -1.5567938882010e+03 3.1886867015506e+04 -1.6573978455269e+00 2.5312128760595e-03
264 -2.0917631940975e+03 3.1595504253456e+04 1.7677036107048e+02 2.8216990805022e-03
265 -1.6900675814721e+03 3.0268550400712e+04 7.5658116743699e+00 2.0648264132504e-03
266 -2.0364360563721e+03 3.0301982284164e+04 -1.7501141865654e+02 1.8418415597601e-03
267 -2.4250522209644e+03 3.2097519612717e+04 4.1523737221343e+00 2.2020122424109e-03
268 -2.9873573738410e+03 3.2986055589051e+04 1.7951696902087e+02 5.0594820320826e-04
269 -2.3857134386808e+03 3.2457870541968e+04 -2.3227311497735e+00 1.5957160758344e-03
270 -2.4450984770260e+03 2.9334504261237e+04 1.7397954895072e+02 3.1068435286261e-03
271 -2.1693982657311e+03 2.9665184223233e+04 4.8911455261411e+00 2.7459797496692e-03
272 -1.8776895413842e+03 2.8911515987137e+04 -1.7830006020211e+00 2.4173561791792e-03
273 -2.2670565687978e+03 2.9062118120638e+04 -1.7615754871716e+02 2.9300821239465e-03
274 -2.1982756276812e+03 2.8727711988663e+04 4.0109936894072e+00 2.2124146147404e-03
275 -2.6276476276296e+03 2.9726996744398e+04 1.7815237809612e+02 3.1516334269536e-03
276 -2.4976416576103e+03 2.9499465118059e+04 1.7067538445796e+02 3.0365817248778e-03
277 -1.7031507346403e+03 2.6768305925065e+04 -1.7836131947036e+02 2.3078655677898e-03
278 -1.3567800869552e+03 3.0065391123593e+04 -1.7583657740819e+02 1.6192869722904e-03
279 -2.0569612005307e+03 3.1700906498626e+04 1.5084057943198e+01 2.3510646228391e-03
280 -1.7242065380479e+03 3.2082462795512e+04 -4.2376640688513e+00 2.1650954801556e-03
281 -2.1514197794267e+03 3.0817571223330e+04 -1.7812665915688e+02 3.0788952014462e-03
282 -2.0868333864253e+03 3.0290753111972e+04 1.6773908278337e+02 2.5257939977071e-03
283 -9.4278710967360e+02 3.2041386366214e+04 -4.5196999767754e+00 1.6889624779228e-03
284 -1.0539827676753e+03 3.0790791911276e+04 -1.0800815741783e+00 2.3694191045279e-03
285 -1.1492393495354e+03 2.8646968740849e+04 1.6240320353218e+02 1.1749088454338e-03
286 -1.6842064604385e+03 3.1136141493504e+04 1.7726846793212e+02 1.5304752663874e-03
287 -1.5907701685783e+03 2.4949705585497e+04 -1.7945271792533e+02 2.5352308856835e-03
288 -1.3619842282700e+03 2.5991104067129e+04 1.7816508819488e+02 1.6340128536654e-03
289 -1.1489323014421e+03 2.5580883369768e+04 3.5705335195321e+00 1.3442385117682e-03
290 -1.6392446738635e+03 2.5049870021589e+04 1.7816074585511e+02 2.0534255435882e-03
291 -1.4251692303907e+03 3.1119331766935e+04 -3.4948353000374e+00 2.1580153408668e-03
292 -2.4306217200140e+03 3.1952011377631e+04 1.7767515643361e+02 7.1501163173985e-04
293 -7.0544878927273e+02 2.5993670746798e+04 9.7344964543700e-01 5.2134576677399e-04
294 -1.8523291436467e+03 2.8139956387621e+04 -8.6688060452409e+01 8.7754171152160e-04
295 -1.3961301923377e+03 3.0668222043276e+04 -1.4111989962083e+01 1.4418029500481e-03
296 -9.9508855471321e+02 2.5928506425545e+04 8.2167431591052e-01 8.1694573373913e-04
297 -9.2623072992898e+02 3.1390065214860e+04 -5.7498901472943e-01 3.0026086473024e-03
298 -8.7096749060554e+02 3.1313278727149e+04 7.8169938076591e+00 3.0951641184608e-03
299 -1.3978041113376e+03 3.1781528211289e+04 1.7169670820489e+02 2.8079894737672e-03
300 -9.1962879817534e+02 3.3294911724559e+04 -2.4965663851786e+00 6.2790562893060e-04
301 -1.6849007169281e+03 3.1591896290393e+04 2.0325800286586e-01 2.9651544237456e-03
302 -1.6478953393527e+03 3.1516534301900e+04 -1.6621989578376e+02 3.0833077433844e-03
303 -1.2863194283464e+03 3.1672880584346e+04 -5.2932497968396e+00 2.9010758263535e-03
304 -1.3510504230184e+03 3.1638870204084e+04 2.2977281872831e+01 2.9394116886617e-03
305 -2.0026852127478e+03 2.9818252206079e+04 -1.6539966640866e+02 2.1835354541336e-03
306 -2.1161241277475e+03 2.5849699355160e+04 1.7811232474957e+02 2.6849662609139e-03
307 -1.0923054950760e+03 2.5821903021385e+04 -4.4501484737977e+00 1.5630343953817e-03
308 -9.5969658490351e+02 2.6706736044848e+04 -3.5248060530674e+00 6.9056270996307e-04
309 -8.9201195221708e+02 2.6432890673385e+04 -1.3183693306615e-01 6.4153881198001e-04
310 -8.0913642479884e+02 3.1233014961749e+04 3.5127263439898e+00 1.4342423140326e-03
311 -8.8898841676803e+02 3.0902106902667e+04 -1.7804811159089e+02 2.7250348753090e-03
312 -1.2301660206380e+03 2.3882413835871e+04 1.7895923080302e+02 1.8170984116710e-03
313 -9.7155486498471e+02 2.3049091381036e+04 1.7504757902790e+02 1.6267936333366e-03
314 -1.3894021671903e+03 3.1930507799346e+04 1.7757917966544e+02 1.8816045571998e-03
315 -8.7052742638099e+02 3.1269266823819e+04 -1.7979051580448e+02 2.7590599285370e-03
316 -1.3937592359211e+03 3.2359586340363e+04 4.3732330041416e+00 1.1995277707295e-03
317 -1.3836910063703e+03 3.4845602274183e+04 -7.0589691601768e-01 2.9503669831049e-04
318 -1.5141124570162e+03 3.4938355313827e+04 -3.4186633783522e+00 2.9358375129108e-04
319 -1.7197795371470e+03 3.2694853590340e+04 1.5454469672514e+02 1.1613321724813e-03
320 -1.2219816788895e+03 2.7852405688081e+04 4.2715578540036e+00 1.3812542444338e-03
321 -1.5140586335132e+03 2.7508731116029e+04 1.7619425201087e+02 2.0502836184992e-03
322 -1.7245955802790e+03 2.7109040041235e+04 1.7547654200662e+02 2.3817226490164e-03
323 -1.8908064146217e+03 2.6279442790402e+04 -1.7882317452521e+02 2.4605002346185e-03
324 -9.4851787356794e+02 2.4938635629401e+04 -1.2446049929428e-01 1.4651019582645e-03
325 -1.1876440010384e+03 2.6842700490300e+04 -2.7772774209549e+01 1.5675963583966e-03
326 -1.8518811466311e+03 2.8436568939028e+04 1.7002028822975e+02 1.9739806403474e-03
327 -1.4681122551522e+03 3.0194978463210e+04 -2.2116974121559e+00 1.9944888377458e-03
328 -2.0742885065329e+03 2.7388145094974e+04 1.7774604563290e+02 2.6484614750250e-03
329 -1.4507496993292e+03 2.7088523282943e+04 2.9915433608906e+00 1.9968563303183e-03
330 -1.8646841869702e+03 2.6357527106394e+04 1.6502386550859e+02 2.7973401115418e-03
331 -1.1042836635410e+03 2.6592341164552e+04 5.0756883402709e+00 5.2920986673941e-04
332 -1.5237141473825e+03 2.6241673245942e+04 4.4556841407801e+00 2.2775079620951e-03
333 -1.6247791184910e+03 2.7150054308349e+04 1.7505908266216e+02 1.5500864232086e-03
334 -1.6738519756486e+03 2.4487673740536e+04 -1.5208939757178e+01 2.7406826456256e-03
335 -1.6482216689409e+03 2.4608554914293e+04 1.2244115375582e+02 2.7254727037458e-03
336 -1.4423924086535e+03 2.5033613718500e+04 -2.2655242106093e+00 2.3363557624039e-03
337 -1.7251335400672e+03 2.4803229559109e+04 -1.6446226915035e+00 2.7649194868137e-03
338 -1.7985484552582e+03 2.4506385731436e+04 1.7146801201364e+02 2.8932372551977e-03
339 -9.7176329517092e+02 2.3147385628296e+04 -1.1284989514484e+00 1.6980708510684e-03
340 -1.0300415061756e+03 2.6498600423542e+04 -4.6879583932466e+00 1.2318426898711e-03
341 -7.7308125704862e+02 2.3310389127830e+04 9.1540400318298e-01 1.3732338084018e-03
342 -1.6897067276148e+03 2.9709764557564e+04 1.0325009040880e+02 5.0642448884902e-04
343 -2.0613768521716e+03 2.2777997091324e+04 1.5366823417867e+00 3.0353769367921e-03
344 -1.5957806591015e+03 2.3528876475795e+04 3.7413611900034e-01 5.4578141842053e-04
345 -2.3722532841205e+03 2.3249938866448e+04 1.7779725448099e+02 3.0284086623555e-03
346 -2.1362517107525e+03 2.2442410302193e+04 4.1226311436005e-01 3.1935010238290e-03
347 -2.2588348659657e+03 2.3259307107138e+04 -1.7004828919433e+02 1.9057705748888e-03
348 -2.2310285523322e+03 2.1942717569274e+04 1.7887382508584e+02 2.8360558743859e-03
349 -1.4415447459461e+03 2.7188521637211e+04 1.5842752593533e+00 1.1172510543340e-03
350 -1.2795579574258e+03 2.7404026778161e+04 4.6588981122972e+00 1.4770390758213e-03
351 -1.6958586752481e+03 2.6115758649868e+04 -1.7920601702766e+02 2.0964456721627e-03
352 -1.0965827479146e+03 2.5502459707885e+04 1.1494051613497e+00 8.0879160523257e-04
353 -1.9838186401270e+03 2.5006975255923e+04 -1.0820728223122e+01 2.8472969000631e-03
354 -1.7596275984737e+03 2.4589026853143e+04 -1.9601587076381e+00 2.7595852259892e-03
355 -2.1610183293044e+03 2.5350076772747e+04 -1.7448497005026e+02 2.9749763688478e-03
356 -2.3609487987460e+03 2.8065339830888e+04 -1.5021521344832e+00 3.1167608760025e-03
357 -1.9633797578503e+03 2.7439691994066e+04 -2.7274086919344e+00 1.6796881742596e-03
358 -2.5464255069150e+03 2.7278438519691e+04 1.9662293389318e+01 3.1179185580969e-03
359 -2.4461216083936e+03 2.7272962253315e+04 1.6456330976327e+02 3.0039608575399e-03
360 -2.1821865852962e+03 2.5537899605595e+04 -1.7788079037010e+00 2.9471171966261e-03
361 -2.4348304870963e+03 2.5795806403419e+04 2.2136540057345e+01 2.8048810574735e-03
362 -2.5673607882487e+03 2.7529443969239e+04 -1.7394476635507e+02 3.0055148635473e-03
363 -2.1566077149583e+03 2.4724245995291e+04 -2.8358601613051e+00 2.4853529822468e-03
364 -1.4373892619810e+03 2.3175468205897e+04 1.7908586504907e+02 2.2847798817252e-03
365 -1.3404175929064e+03 2.3671240179171e+04 1.7357012176829e+02 2.1438832625122e-03
366 -1.0232365776969e+03 2.2189400966071e+04 1.5884456369419e+01 1.1294088493923e-03
367 -2.1495013312920e+03 3.0187929661885e+04 6.9548066296673e-01 2.4324508435368e-03
368 -1.9170927841881e+03 3.0233479104575e+04 -3.1028261067085e-01 1.5939638456902e-03
369 -1.6890221219130e+03 3.1357888510665e+04 3.9054676977714e+00 2.8064681331379e-03
370 -2.1527995733660e+03 2.8585487557348e+04 1.7686087157870e+02 2.7445829780692e-03
371 -1.8333447597342e+03 2.8885538813436e+04 -3.8336151542845e-01 1.4434339982349e-03
372 -1.0595481405036e+03 2.7757816257011e+04 1.4032897038901e+00 1.1233437145928e-03
373 -1.6876961904263e+03 3.0835843292689e+04 -1.3697817925152e+02 6.9796119428880e-04
374 -1.6307206898648e+03 2.7080657792150e+04 1.6774740531233e+02 2.2293714395903e-03
375 -1.8614207336525e+03 2.7277717698444e+04 -1.6924344294764e+00 2.3367424492175e-03
376 -1.5280461878081e+03 2.2488262514353e+04 -1.4717379599363e+01 1.5836773931342e-03
377 -2.0407748011738e+03 2.6896936792415e+04 1.6014570412389e+02 1.8335953091139e-03
378 -2.3490160591150e+03 2.6812493052152e+04 1.7933334299599e+02 3.0585239622032e-03
379 -2.0600330523551e+03 2.7618138913659e+04 1.7329478663751e+02 1.0012349951584e-03
380 -2.1489659383312e+03 2.7952874928122e+04 -1.7881395961097e+02 2.8629992907758e-03
381 -1.7274936645599e+03 3.0205049136766e+04 -5.3627744812955e+00 2.1205118443010e-03
382 -1.7927261643927e+03 3.0526268675972e+04 -2.2264426339926e+01 2.7787586257826e-03
383 -2.3419539911930e+03 2.9869229346473e+04 1.7858713623031e+02 1.0012851325054e-03
384 -1.9503549231651e+03 2.9806780140092e+04 -2.3972015474000e+01 1.1595122328911e-03
385 -1.7491848371418e+03 2.8493699703421e+04 2.6730467549066e+00 2.2954518602152e-03
386 -1.8599217638304e+03 2.8960537878566e+04 -2.5656175305451e+00 2.3167580845203e-03
387 -2.0640604461558e+03 3.0060518520003e+04 -5.8603760685265e-01 1.7434792660171e-03
388 -2.0031015670802e+03 3.0149703170572e+04 9.5165431470159e-01 1.6261055688465e-03
389 -5.8632522926500e+02 2.9609264274276e+04 -4.5625689027340e+00 1.1607068335701e-03
390 -1.3425002251038e+03 3.4786432723984e+04 1.7614392368579e+02 2.9298243916607e-04
391 -1.9439412397495e+03 2.7018556835942e+04 -1.7772598479243e+02 2.5178968241366e-03
392 -1.8571915823277e+03 2.7151167870168e+04 -1.7706952342247e+02 2.1926900062173e-03
393 -1.9715473891462e+03 2.7407766386274e+04 1.7686499098639e+02 2.5011322717530e-03
394 -1.8733405273234e+03 3.2361942562577e+04 -3.0367366151842e+00 9.8884057681198e-04
395 -1.8866216143947e+03 3.2189629899713e+04 -2.3741112649938e+00 8.9853449912746e-04
396 -1.0454314630642e+03 3.0051336146557e+04 -4.5465394206446e+00 1.2673142040959e-03
397 -1.6666882426497e+03 3.0901627155178e+04 1.7787647502112e+02 3.1301833057448e-03
398 -1.0920188405982e+03 2.9114346643397e+04 -1.4275666035141e+01 1.0407879632277e-03
399 -1.1237047807182e+03 3.2475217008716e+04 2.0390637912635e+00 8.2985588554316e-04
400 -1.6909872849142e+03 2.6981572441474e+04 1.2559117686548e+01 2.4309819619866e-03
401 -1.4921628337766e+03 2.7157524461757e+04 2.2825279821121e+00 2.0712018425124e-03
402 -1.5933285291773e+03 2.7613502247606e+04 1.8453437810158e+01 2.1489140620365e-03
403 -1.9753167278224e+03 2.6407827869735e+04 9.9891027264491e+00 6.4818926119418e-04
404 -1.9621003160255e+03 2.6758061187890e+04 1.3478644951166e+00 2.1283638859358e-03
405 -1.6935958466533e+03 2.4225588524840e+04 -1.6367538312956e+00 2.8106767976091e-03
406 -2.0878201607916e+03 2.4510960150858e+04 -8.8552858120281e-01 2.4456540682798e-03
407 -1.8741800423341e+03 2.4837721320515e+04 1.6743925398727e-01 2.9209424247596e-03
408 -2.1279333063894e+03 2.4619299561220e+04 8.5320718307032e-01 3.0154811855511e-03
409 -2.1948397555552e+03 2.4731999455321e+04 3.4626339505947e+00 2.9742808533483e-03
410 -2.2950991670335e+03 2.5021685954816e+04 9.1413387411694e+00 2.2605758301172e-03
411 -2.4647356294770e+03 2.6483398858773e+04 -1.7885109025232e+02 3.1870310914157e-03
412 -2.2644753990698e+03 2.6673751845799e+04 6.4857743016679e-02 3.1428294733368e-03
413 -2.3352831901959e+03 2.6677943696723e+04 -1.7801558780289e+02 2.9306802287874e-03
414 -1.3169300056482e+03 3.1690429083092e+04 2.0356240929272e+01 1.7710362086855e-03
415 -1.0209863017524e+03 2.9952085524815e+04 5.8572894267788e+00 1.8276977188707e-03
416 -9.9117449575629e+02 2.5924568095502e+04 1.8009726150652e+01 1.2964368835461e-03
417 -2.5431316393229e+03 2.9556354022133e+04 -1.7962472305225e+02 1.2489259902326e-03
418 -1.5878953018120e+03 2.7012373823805e+04 -4.2380564635142e-01 1.1717256844801e-03
419 -1.2857472804371e+03 2.7094176021729e+04 -2.1706463469946e-01 1.7197937480011e-03
420 -2.0914045381511e+03 2.6180272785299e+04 1.7689601017589e+02 2.1688444754770e-03
421 -1.5701370001746e+03 2.7162425136167e+04 -5.9483465134956e-01 2.1661661387342e-03
422 -1.7263660536421e+03 2.8242427566846e+04 1.7663183088871e+02 2.2991530681235e-03
423 -1.1047910891730e+03 2.4915658329009e+04 -6.1816844222654e-01 1.7691763161638e-03
424 -1.3707875873674e+03 2.5275968307454e+04 9.2328029788081e-01 2.1706316678345e-03
425 -1.2914882589813e+03 2.6045340554996e+04 -1.9098580144458e-01 1.3846969782362e-03
426 -2.7526399821972e+03 2.8730573703775e+04 1.7589725770392e+02 2.4639031146850e-03
427 -2.3799773728815e+03 2.8954273119753e+04 1.7242967470512e+00 2.7424514553760e-03
428 -1.8839694536465e+03 2.8406243540683e+04 1.3220041701567e-01 1.6096946441136e-03
429 -2.4891499973017e+03 2.8689741185439e+04 -3.2825472754109e+00 3.1592305747732e-03
430 -1.6090298429262e+03 2.6626350662557e+04 1.2189274963553e+01 1.3532123137198e-03
431 -2.2410560520188e+03 2.6569658820863e+04 -1.7733180784211e+02 2.9414578602046e-03
432 -1.6376283988575e+03 2.7958589639994e+04 4.3764842543169e-01 2.1156144008399e-03
433 -1.6710712608316e+03 2.7902007201955e+04 1.1877548820400e+00 2.1925719344640e-03
434 -1.7863816762890e+03 2.7947165966063e+04 -1.9470958476263e+00 2.0401583751746e-03
435 -2.1473219653030e+03 2.6250625993823e+04 1.7859376321725e+02 2.7710087256761e-03
436 -1.6828747420250e+03 2.5793108570703e+04 -1.2737165764393e+00 2.5290883124252e-03
437 -1.4531296817923e+03 2.6178395726242e+04 6.8973128506420e+00 2.1623546345520e-03
438 -1.5470654339092e+03 2.7259347872378e+04 7.3279808074831e+00 2.0642933556498e-03
439 -1.9882121843775e+03 2.7552032951054e+04 -1.7968765076118e+02 2.7085713761156e-03
440 -1.7182765595800e+03 2.9210337933235e+04 6.5039269303554e-01 1.5773538248750e-03
441 -1.9570977640772e+03 2.8653295715931e+04 1.5834517614368e+02 2.1522996970959e-03
442 -1.7578402050536e+03 2.8703733682169e+04 1.8503357723276e+00 2.1346922313731e-03
443 -1.8933632109207e+03 2.6803614046394e+04 1.7501478832921e+02 2.7724051009454e-03
444 -1.9205353401982e+03 2.6812787176615e+04 1.7492097878558e+02 2.7445196752155e-03
445 -1.8760626132662e+03 2.6795605689184e+04 1.8085568260140e+01 2.6121456956354e-03
446 -2.2459003059226e+03 3.2642701644799e+04 1.6769726885374e+02 1.2337434515110e-03
447 -1.8645141454284e+03 3.2268179320766e+04 -7.2990064631519e+00 1.9586868483435e-03
448 -1.4400740846216e+03 3.0803588758885e+04 -4.4622615154802e-01 2.1236198088636e-03
449 -1.3648999874937e+03 3.1637467802584e+04 1.6830382919589e+02 2.7046905974615e-03
450 -1.4593631187976e+03 3.1610867756538e+04 -1.7771391698244e+02 2.5070525065373e-03
451 -1.5827744180827e+03 3.2095590685221e+04 1.7641161939115e+02 1.8941770538035e-03
452 -2.6833981286576e+03 3.0678237371183e+04 -1.7520540717127e+02 2.7963123494953e-03
453 -2.3166295816382e+03 3.0542265053317e+04 -3.0581851534343e-01 2.8489831750501e-03
454 -2.6049241722600e+03 3.0875394307797e+04 8.6378338949591e+00 3.1378111822499e-03
455 -2.2294366394499e+03 3.0272741382836e+04 2.1608741033673e+00 2.4702524743993e-03
456 -2.0743430151469e+03 2.9023582933795e+04 3.3014576193957e-01 2.1368298416030e-03
457 -2.2879898832228e+03 2.8132735785928e+04 1.5901465675884e+02 3.0751565076130e-03
458 -2.1950759882957e+03 2.7875699106346e+04 1.5762482269325e+01 3.0057794266374e-03
459 -1.8174903929885e+03 3.0555920299696e+04 3.3365540374992e+00 1.5886254613504e-03
460 -2.2728941151159e+03 3.0962476975942e+04 1.7689975060889e+02 2.0358954247494e-03
461 -1.9977040349892e+03 3.0001598188068e+04 3.5418377585616e+00 2.1600060853710e-03
462 -2.4982969057034e+03 3.0014923976491e+04 1.7530970147870e+02 3.0721613516181e-03
463 -1.8731894623397e+03 2.9809562129469e+04 -1.2261969100710e+00 1.3356969585902e-03
464 -2.7714531466642e+03 2.8142055006186e+04 1.7803211103193e+02 3.1648670054202e-03
465 -2.5019301504644e+03 2.8157505588792e+04 -1.1772254717918e+00 3.0988318456757e-03
466 -1.5213971643503e+03 3.1520968414759e+04 2.0781823130044e+00 1.4299207285623e-03
467 -1.6873919572052e+03 3.2474931255028e+04 -8.9798739101095e-01 1.2933933472731e-03
468 -2.1343114279168e+03 3.2152868496655e+04 -8.4520548040440e-01 1.2808669966027e-03
469 -2.1500493972790e+03 3.2005134497829e+04 -3.2669197424443e+00 2.2434359768417e-03
470 -1.0958822858289e+03 3.2564198597710e+04 -2.2038261918392e+00 1.3764241123008e-03
471 -1.0668768704973e+03 3.2662973701170e+04 -1.1042590395140e+00 8.8263927263235e-04
472 -1.2058043984628e+03 3.1699268852146e+04 1.7828370628981e+02 2.8985581393462e-03
473 -1.2188292010160e+03 3.1915126711222e+04 1.1901621047044e+02 2.6256279929613e-03
474 -1.8469907380990e+03 2.9263208929343e+04 1.7446915690431e+02 2.2220273368979e-03
475 -1.4422156493813e+03 2.8425537761320e+04 2.8005941668921e+00 1.7732871864420e-03
476 -2.1134591203220e+03 2.8349303380244e+04 1.7885277583282e+02 1.8167113860242e-03
477 -1.7969530009737e+03 3.2003244391011e+04 -1.2261785228249e-01 2.1091050976245e-03
478 -1.9613544624681e+03 3.0600645380857e+04 1.7728654315939e+02 1.6521986946501e-03
479 -1.4670190664012e+03 3.1585857234603e+04 -1.6107948506824e+00 9.2375227788436e-04
480 -1.6430240547539e+03 3.0272251759073e+04 2.8841682072328e+00 2.3779800727839e-03
481 -1.8219999169446e+03 2.8948977339060e+04 -2.1255909985045e+00 2.3354303340051e-03
482 -2.1312390152164e+03 2.9230090198972e+04 2.6512179609818e+01 2.7698029735431e-03
483 -1.8329566970914e+03 2.9722919951130e+04 -2.7795819883251e+00 2.2401349387022e-03
484 -2.1227737737501e+03 2.9598374653707e+04 1.4759809148883e+00 2.1711470794174e-03
485 -2.7420678467557e+03 3.0563559317299e+04 -1.7941073724502e+02 3.1381622706374e-03
486 -2.8018274696913e+03 2.8324830480197e+04 1.3628257940289e+00 2.2054813891170e-03
487 -1.7932943460547e+03 2.7522328345922e+04 1.2261637557344e+00 2.5115626082492e-03
488 -1.6623574138745e+03 2.7571491346495e+04 -3.1299078902484e+00 2.2729935359973e-03
489 -1.5796282872211e+03 3.1794736022087e+04 -7.3114291264990e-01 1.7948804066923e-03
490 -1.7296737602513e+03 3.4139744070189e+04 -8.7094601535954e-01 3.3356614684106e-04
491 -1.8587583682029e+03 3.2094931255477e+04 1.7580061016110e+02 1.5137322839683e-03
492 -1.7658809408202e+03 3.2202578071768e+04 -1.4554333480560e+02 2.0192139543025e-03
493 -1.2665256580896e+03 3.1786698323589e+04 -2.3740884255991e+01 1.7857396685155e-03
494 -1.4623119490735e+03 2.7173569611193e+04 1.5406618914348e+02 2.0153433891458e-03
495 -6.2269406442868e+02 2.5699534716069e+04 1.7960515926057e+00 7.3288033297642e-04
496 -1.2534134343736e+03 2.5667933795128e+04 1.7692088412108e+02 1.5160948642660e-03
497 -5.3903271069336e+02 2.2942190463034e+04 -5.1599306121576e-01 8.0468026733148e-04
498 -1.1092390361859e+03 2.5272296759282e+04 8.3811684602023e+00 1.6538201080976e-03
499 -1.0689955110605e+03 2.3855420602086e+04 1.1402420127136e+01 1.7876605049080e-03
