0 -1.9077186349603e+02 1.3804258697039e+04 7.5524690350387e+01 4.6586119960452e-04
1 4.8705934395782e+02 8.1968545250688e+03 -9.1599180383459e+01 1.7067546197038e-03
2 3.6232070327466e+02 1.3639810264579e+04 9.1824150494078e+01 9.8393525948941e-04
3 4.2832883947860e+01 1.5126229429130e+04 1.0991202515832e+02 8.5463835758874e-04
4 -7.4618700317013e+02 2.1987903050460e+04 8.7724783624482e+01 2.1819141239904e-03
5 -7.0772749118121e+02 2.3843524546509e+04 9.2288295077167e+01 1.6811094832919e-03
6 -7.0002460560254e+02 2.3107278187673e+04 8.5698141635581e+01 4.2315309430123e-04
7 -2.1753075480764e+02 2.4809199578221e+04 9.1959361938454e+01 1.6798937085895e-03
8 -2.6759412097367e+02 2.3828541939256e+04 8.5804553390343e+01 6.2256728739064e-04
9 -7.7165384905211e+02 2.3345468734330e+04 9.0866425868922e+01 4.1249499107265e-03
10 -7.4745371320686e+02 2.1829313262664e+04 9.0617310554123e+01 1.1799042351300e-03
11 -7.0884925460892e+02 1.9196513034527e+04 9.3678430556679e+01 1.5437320173186e-03
12 -6.0486736325822e+02 1.7379547742928e+04 8.7516477662332e+01 2.3851196913321e-03
13 -6.9108612179085e+02 1.6905128013052e+04 -9.5709542389581e+01 2.1145431333800e-03
14 -5.7264284656141e+02 2.3220856025834e+04 9.0383381777605e+01 1.5897703758649e-03
15 -5.5429208016726e+02 1.9522861525724e+04 9.2059483121317e+01 2.5378645092801e-03
16 -8.1307788610820e+02 2.0313390216007e+04 8.9925173923189e+01 3.1778698228098e-03
17 -3.0192718957066e+02 2.0131524904786e+04 1.1155739767059e+02 6.5511985664387e-04
18 -3.4531936283893e+02 2.4267870314370e+04 8.8811048934822e+01 3.5935365051006e-03
19 -1.0036792427318e+03 2.1536502602292e+04 8.4852818893211e+01 2.0773560324575e-03
20 -1.1386823890134e+03 1.9749902127252e+04 6.8716460573781e+01 2.4956574421616e-03
21 -1.2337015307669e+03 2.0593003738935e+04 9.0540973507024e+01 4.9760167184726e-03
22 -1.2581245466388e+03 2.0063779904783e+04 9.3703887025489e+01 2.6355249119487e-03
23 -5.8442376430106e+02 1.8477004032426e+04 -8.7009375615782e+01 1.3245184286382e-03
24 -1.1925744017143e+03 1.9470984852378e+04 9.6416809249634e+01 2.5739091119640e-03
25 -1.1018657845396e+03 2.0822118970776e+04 8.8876642606065e+01 1.9375786897873e-03
26 -1.1837919856902e+03 2.0129333708883e+04 8.7964456666647e+01 2.8553743195696e-03
27 -5.6155283779440e+02 2.3285962616056e+04 8.6191607469011e+01 1.1255951486575e-03
28 -6.8672922764178e+02 2.3604601098419e+04 8.6860771714214e+01 1.1534389625404e-03
29 -4.9870559608115e+02 2.3078252470791e+04 8.5502519596937e+01 8.1250112568497e-04
30 -1.4473084747261e+02 1.4506561544842e+04 8.8330596761270e+01 2.9341224174579e-03
31 -1.8842103809773e+01 1.9329750386215e+04 -1.7278674333659e+02 7.2295399718029e-04
32 4.1217487122681e+02 1.4899261604014e+04 -3.0589204240375e+01 7.0220951914045e-04
33 5.1486201593316e+02 1.3504534622199e+04 -1.7680977483308e+01 9.4876512355120e-04
34 -8.9165565097947e+01 1.9632730857562e+04 9.2110588039744e+01 9.5265662517808e-04
35 -3.9396427093479e+02 2.1414293462638e+04 9.0288518783647e+01 2.9223733476511e-03
36 -8.8406621264158e+02 2.1966557606457e+04 9.0042641637481e+01 2.4175295346033e-03
37 -4.9878907012917e+02 2.1309663454728e+04 8.6051610136096e+01 9.4286680003463e-04
38 -3.3771808588251e+02 1.9580420786191e+04 9.4859494804268e+01 9.9195553875421e-04
39 -4.6219089479439e+02 2.1008070983954e+04 9.1593721045280e+01 2.7638474688296e-03
40 -9.2727367327616e+02 2.6088964510090e+04 8.9216794515422e+01 3.7246761729760e-03
41 -7.0276840476617e+02 2.2796411780817e+04 -8.9768750435395e+01 1.3048999774680e-03
42 -9.4572534129900e+02 2.5648826666278e+04 9.0310356841856e+01 1.4739379511939e-03
43 -9.0543907606994e+02 2.1843882327897e+04 9.3133584553076e+01 1.3398899492345e-03
44 -5.0266091930266e+02 2.2764696799922e+04 5.1120747210822e+01 9.6607983513345e-04
45 -5.8639920778429e+02 2.2573849946416e+04 -6.3339831603498e+01 1.2239996383440e-03
46 -9.4982754089900e+02 2.6256943235606e+04 -9.9013892511664e+01 1.1387691741068e-03
47 -7.6961559444983e+02 2.7802131713557e+04 8.8802354422945e+01 7.9303751665339e-04
48 -7.9581559210651e+02 2.8120111654390e+04 9.0549479302493e+01 9.1482442449779e-04
49 -7.7075204329758e+02 2.7676040377961e+04 8.8666690387851e+01 7.0473676396470e-04
50 -7.3575652541387e+02 2.3098481589966e+04 9.0933813638759e+01 1.3735317928373e-03
51 -4.9137529914164e+02 2.2174440578786e+04 7.3485131241707e+01 1.1578961780928e-03
52 -5.0698803434455e+02 2.2545494459205e+04 9.4326191894915e+01 1.0348483567314e-03
53 -4.9767515906557e+02 2.2943750986975e+04 9.0511151470907e+01 3.5117078083062e-03
54 -4.9748808064200e+02 2.0839702410521e+04 8.3730371469199e+01 1.1527482219206e-03
55 -6.8757904956531e+02 2.1442627066259e+04 9.3155829759872e+01 1.5950575511094e-03
56 -1.0847950625854e+03 1.9794227366752e+04 9.3423441402576e+01 2.4403405415598e-03
57 -9.7816251847236e+02 1.8318212544208e+04 8.8479361997392e+01 2.5323767568422e-03
58 -1.0599857103984e+03 1.6662014799229e+04 -9.1198810587529e+01 2.8292065509985e-03
59 -5.2386598580581e+02 1.9103936443627e+04 9.0586764050582e+01 4.2092887189806e-03
60 -9.6173515429233e+02 2.1166503950926e+04 9.7642294996048e+01 1.1752954510534e-03
61 -9.2761787437688e+02 2.2027310422353e+04 9.0955229889901e+01 4.5436230022379e-03
62 -3.6876772317494e+02 1.8622225691756e+04 9.6888014455053e+01 1.3973920353724e-03
63 -3.3084436165505e+02 2.1286495713239e+04 9.2587954767603e+01 1.0098235466067e-03
64 4.4684360388466e+01 1.7955446260251e+04 9.0955464866461e+01 9.6111418408272e-04
65 -8.8141252239076e+02 1.6947968851034e+04 9.1551669647838e+01 4.2928508993577e-03
66 5.2751605034367e+01 1.7230688969474e+04 -7.6636213806592e+01 1.0756113754655e-03
67 -3.1756794188678e+02 1.3748049006141e+04 9.1138526849883e+01 5.1889392338039e-03
68 -3.9003133972600e+02 1.3716800160495e+04 9.5306811694962e+01 1.6390287817833e-03
69 -3.3641499294077e+01 1.4228675558485e+04 8.8749035445336e+01 1.6384578892197e-03
70 -2.8249536718744e+01 1.2821807675931e+04 6.2514945752725e+01 1.8294781302842e-03
71 -5.1817520422713e+02 1.4173534940817e+04 8.2078121678372e+01 2.3764686086454e-03
72 -4.7686641536376e+02 1.4700641305352e+04 8.3985294598066e+01 2.1995342674389e-03
73 -4.8230128749771e+02 1.4022806647390e+04 9.3512480149807e+01 2.2901072501110e-03
74 -7.2153678241100e+01 1.6038326452273e+04 8.8790997978786e+01 4.0893588960983e-03
75 -1.5033912404684e+02 1.5172213208765e+04 -1.7809324568304e+02 1.4477857805597e-03
76 -3.0250503017898e+02 1.6537739369436e+04 8.7025444582286e+01 1.4518361770948e-03
77 -4.9200941769814e+02 1.6592283550501e+04 8.9123059385362e+01 1.9335474306843e-03
78 -3.3695317834341e+02 1.8694250008223e+04 1.0142713591552e+02 1.2251014539367e-03
79 -5.1056832685959e+01 1.7155804276150e+04 -8.9530429173249e+01 9.1995076765946e-04
80 -3.6363365561235e+01 1.8264480950579e+04 8.8965200825043e+01 3.8468334989743e-03
81 -3.3872184252985e+02 1.7621685718030e+04 9.0363026281083e+01 3.6434258298181e-03
82 -3.1365710113959e+02 1.8134768040190e+04 8.9584681797461e+01 3.5978222109041e-03
83 -4.5768835225554e+02 1.6766952482789e+04 8.9150347191829e+01 2.0144083192694e-03
84 -9.2270582853673e+02 2.2431892069509e+04 9.0434236734956e+01 9.0736148529954e-04
85 6.5284524907297e+02 1.3351005484365e+04 -9.4186854729828e+01 7.1711786339164e-04
86 6.4185337416432e+02 1.4279170902723e+04 1.3059964195245e+02 6.9830976905037e-04
87 1.4213443244101e+02 1.7276301215322e+04 -6.0087413249938e+01 9.5786098096222e-04
88 -3.9253365325010e+02 1.9249991928130e+04 8.8251225907298e+01 3.1166781316886e-03
89 -2.0146542821009e+02 2.1210716891099e+04 8.9214834341089e+01 8.8495803584562e-04
90 -6.4154741177292e+02 1.7897722692076e+04 7.8903142108194e+01 1.8450423704433e-03
91 -7.1130670346594e+02 1.7833879226751e+04 8.9099199096655e+01 2.0221716190462e-03
92 -6.1758004135635e+02 2.0789093238418e+04 8.7233784635604e+01 1.6344531707853e-03
93 -4.3422344125549e+02 2.1365471490927e+04 9.1701380401976e+01 3.0470833588653e-03
94 -5.8655888953346e+02 2.2271770998144e+04 9.1495960042157e+01 1.0852219956597e-03
95 -7.6864652120268e+02 1.9850345614409e+04 9.0353771370968e+01 3.9750298636890e-03
96 1.6416841386494e+01 2.2234459627536e+04 8.8705010682057e+01 3.3705346694176e-03
97 -9.2053944889606e+02 2.2880676190563e+04 -8.4858361330436e+01 1.5389663046561e-03
98 -1.3889122314035e+03 2.2023181250888e+04 9.1796693962881e+01 2.5736390199928e-03
99 -9.1789955737517e+02 2.2624539321336e+04 8.9275053457886e+01 1.8617880953550e-03
100 -9.4666312663637e+02 2.2070506628177e+04 9.1222596755434e+01 1.9081965252235e-03
101 -9.5173149481717e+02 2.2398651568009e+04 9.1949535027680e+01 2.1370123626918e-03
102 -8.4768640110061e+02 2.1991246595917e+04 9.0219419745269e+01 2.3543927622799e-03
103 -9.7489729878660e+02 2.2591900860697e+04 8.2839010995810e+01 1.4123424105163e-03
104 -9.9666310282118e+02 2.0949623944550e+04 8.8636730242748e+01 4.8421230897105e-03
105 -1.0486863684385e+03 1.9635736027311e+04 9.3873615491634e+01 2.3812438295423e-03
106 -7.1525387578545e+02 2.0588568173276e+04 9.5872876525284e+01 1.6324194198983e-03
107 -6.3285045884651e+02 1.9449869908483e+04 7.2026278599127e+00 1.7510239054286e-03
108 -8.7791956614317e+02 1.6782726741622e+04 8.9678296207084e+01 4.3531910906390e-03
109 -7.1272962978987e+02 1.9333081778538e+04 8.8534776178934e+01 1.5649663021164e-03
110 -6.1662581073292e+02 1.7107787546112e+04 9.3252566836509e+01 1.6496216333032e-03
111 -5.2965231036079e+02 1.6555689498752e+04 8.7423996137485e+01 1.8423521419844e-03
112 -5.6392753791302e+02 1.4926533902767e+04 -8.9679651331184e+01 2.3869120025602e-03
113 -8.6726073638137e+02 1.7493258289494e+04 9.0002834809642e+01 3.1653626676499e-03
114 -3.3483786097474e+02 1.4174108174337e+04 8.6754315857991e+01 1.6529685155663e-03
115 -4.4712449717940e+02 1.6725048964499e+04 8.7693271913671e+01 1.4758101273697e-03
116 -4.3432085694468e+02 1.4788532276381e+04 8.7879223593110e+01 2.5876598072388e-03
117 -4.1879285949026e+02 1.4928902554358e+04 8.7409833846952e+01 1.4553278302559e-03
118 -3.5338005151589e+02 1.6316904418851e+04 9.3038558432418e+01 1.6943812182491e-03
119 -8.3570150095673e+01 1.9472652344493e+04 7.9941597182759e+01 6.9925308532412e-04
120 -2.0755570818018e+02 1.9974988504383e+04 8.9596331744047e+01 2.9111599213473e-03
121 2.3641252755342e+02 1.6089889749179e+04 8.2906490136745e+01 5.2375880129452e-04
122 -1.9510430893111e+02 1.4975468497076e+04 8.6320210063832e+01 1.3745107424459e-03
123 -1.0040539480698e+03 2.2894541280495e+04 -8.8776905457777e+01 1.7086779086059e-03
124 -9.0225181299148e+02 2.2847682105846e+04 -8.1535530200203e+01 1.5887866997146e-03
125 -1.1000303355856e+03 2.2108701027547e+04 -8.2235495941340e+01 2.0838408062561e-03
126 -1.0854476969135e+03 2.2047313846318e+04 -8.1243398850999e+01 2.0565024687361e-03
127 -1.0428308363710e+03 2.3891725830610e+04 8.6292848248081e+01 1.6363933864959e-03
128 -6.6710512436556e+02 2.0561605566664e+04 9.1546259349960e+01 1.1572591236323e-03
129 -9.6523540664347e+02 2.1180703371777e+04 9.0234259217216e+01 3.3474129756711e-03
130 -1.6828742371480e+03 2.5568816346164e+04 8.7814143654618e+01 3.2851078107452e-03
131 -1.5765949900970e+03 2.3513967011336e+04 9.6387840504346e+01 1.9455383755809e-03
132 -1.5185915205739e+03 2.3642604065880e+04 8.9150528258383e+01 4.2567821615812e-03
133 -1.3224728972604e+03 2.3003071122955e+04 -5.6598053749773e+01 2.2191578388447e-03
134 -1.2281903274214e+03 2.4317247471599e+04 8.5780618089716e+01 1.4708298310445e-03
135 -1.2529246624705e+03 2.2939396519568e+04 9.0379106274177e+01 4.3396024061715e-03
136 -1.1686834786421e+03 2.2904062368065e+04 8.6574443464936e+01 1.9597319228454e-03
137 -1.1654052839036e+03 2.4811776665285e+04 8.9035694026224e+01 1.8747046738901e-03
138 -1.6016414333917e+03 2.2595588455221e+04 9.1607619857356e+01 2.7459433387059e-03
139 -1.1287308601840e+03 2.3089410588590e+04 -8.8772619775462e+01 1.3855837080325e-03
140 -1.3485917027569e+03 2.4072125765394e+04 8.8341149672572e+01 3.3785859664272e-03
141 -1.2742080878361e+03 2.4578065556491e+04 8.5246357422817e+01 2.0386753457640e-03
142 -1.2636379478646e+03 2.4485720610323e+04 9.4672179362274e+01 7.4658648503051e-04
143 -1.3192170674107e+03 2.5452535947970e+04 8.8568570732346e+01 1.9139661883575e-03
144 -1.1322598226371e+03 2.3036035870849e+04 9.0067198207253e+01 2.8856168465176e-03
145 -1.0685846779227e+03 2.0188585281933e+04 -8.6054381732036e+01 2.3660878345931e-03
146 -1.0953248321842e+03 2.2218393252021e+04 8.4606397934411e+01 1.9524302070199e-03
147 -9.7308055784440e+02 1.6764463990741e+04 9.8338623044647e+00 2.3464632619748e-03
148 -8.2343545487174e+02 1.9248562323968e+04 8.3794858609844e+01 1.9789100663553e-03
149 -9.0503076346720e+02 1.9509815078469e+04 8.2440258890639e+01 1.1524330718986e-03
150 -6.1673025501302e+02 2.4354919621314e+04 9.3388208948044e+01 1.0244628885013e-03
151 -1.8748589521798e+02 2.5961044231764e+04 8.5754970058536e+01 5.0487154688615e-04
152 -1.9922954891739e+02 1.8799639192624e+04 8.6068516121072e+01 1.0408964643960e-03
153 -3.0836739615472e+02 1.7551518835603e+04 -8.6171704192045e+01 1.4338805186947e-03
154 -3.6165654968803e+02 1.7719372362318e+04 9.1167386938980e+01 1.5587683178985e-03
155 -2.3982263123952e+01 2.0419281344975e+04 9.5854204575040e+01 7.5414673170506e-04
156 -2.9921576947402e+02 2.5689121988293e+04 8.8570033278732e+01 3.0955122007901e-03
157 -1.0812260886835e+03 2.2031143689088e+04 8.6171114554408e+01 9.3431609884116e-04
158 -1.0302649668736e+03 2.2767243133807e+04 1.0441920079676e+02 1.7977494002289e-03
159 -9.7351741577011e+02 2.2939374127611e+04 9.5150623402664e+01 1.7862204386881e-03
160 -4.7377714485817e+02 2.3573884297126e+04 9.0559208539382e+01 1.1539380275552e-03
161 -5.6750641134481e+01 1.9501893470179e+04 7.9348381898870e+01 4.3828932883888e-04
162 -1.3098516989084e+03 2.8233448556004e+04 9.1071632374684e+01 1.4363214037405e-03
163 -1.0056103424228e+03 2.5966675379238e+04 9.2140598301157e+01 2.2093757083408e-03
164 -1.2182028430439e+03 2.4986667126976e+04 -8.1835839186760e+01 1.5833999495011e-03
165 1.2393543122621e+02 1.7683537905796e+04 1.0363129522690e+02 8.3382164370634e-04
166 -9.9287057253991e+01 1.5834706991462e+04 -8.7042658188925e+01 1.4456430486125e-03
167 -6.6801640842719e+01 1.6872230391263e+04 8.5753285764107e+01 1.0586271613247e-03
168 -1.4011725819325e+02 1.4331601717744e+04 -8.8880693434512e+01 1.6401684133138e-03
169 -5.1272015263741e+02 1.6253466755410e+04 9.1742804153756e+01 3.2941452189719e-03
170 -2.7974610048323e+02 1.5751620982465e+04 8.8069339880678e+01 2.4239800698928e-03
171 -9.7386042437308e+01 1.7967167643447e+04 9.8428326685421e+01 8.3582383847757e-04
172 -1.0289935923019e+02 1.8418037654683e+04 9.2551431306320e+01 8.0169265606454e-04
173 -1.2961498854109e+02 2.1215986714420e+04 8.7642918952756e+01 7.8778253165883e-04
174 -7.4952632417295e+01 1.7165424304606e+04 8.5424659321224e+01 7.2333828014618e-04
175 -9.7100784822191e+01 1.4420227373100e+04 9.5047166418951e+01 1.5446541320652e-03
176 2.7294991089121e-01 1.3552342509921e+04 1.7431701367432e+02 8.6979167595981e-04
177 -6.8073138946262e+02 2.2733576767548e+04 8.6678187616239e+01 7.0304931029712e-04
178 -4.4842793961909e+02 2.0308946770959e+04 8.8447520008310e+01 3.3443564782548e-03
179 -8.1424683640018e+02 1.8845926921319e+04 6.8277842893290e+01 1.9602384028197e-03
180 -5.5395103104825e+02 2.1446593698058e+04 8.8082777628862e+01 2.5695239968879e-03
181 -5.0501421373218e+02 2.1561436384223e+04 9.1280429543747e+01 4.1203771424590e-03
182 -3.5553711980751e+02 2.1122636665771e+04 8.3696779816098e+01 1.0934190195490e-03
183 -1.2633495932996e+03 1.9147854702419e+04 8.7814023624483e+01 2.2235075117179e-03
184 -4.3283254168534e+02 2.0625544694054e+04 8.9919830744191e+01 2.2542585563654e-03
185 -2.2973456327506e+02 1.6923021581254e+04 -7.4437996849806e+01 9.9382936587697e-04
186 -5.8968107576337e+02 1.9257266685270e+04 8.6886997564977e+01 8.7755703630923e-04
187 -5.4412532982410e+02 1.8890798610698e+04 -2.0141885122815e+01 6.9584195927187e-04
188 -7.8538601523888e+01 1.8797920376977e+04 8.8191820946181e+01 2.6444894776238e-03
189 9.3915589997515e+01 2.2817106236798e+04 7.3438761431478e+01 4.7867480180297e-04
190 -7.8967388075107e+02 2.3048522138840e+04 -1.6065973991189e+02 1.4707190197160e-03
191 -4.5387136483418e+02 2.0793204082514e+04 8.6334416434202e+01 1.1184073434692e-03
192 -7.2616272550653e+02 2.2341543350259e+04 -8.7431911070023e+01 1.4540882295827e-03
193 -5.9689579364896e+02 2.6478346097452e+04 9.2250367885425e+01 1.4197320150129e-03
194 -1.0444068901735e+03 2.3868587906966e+04 -1.2476489466684e+02 1.7144023342252e-03
195 -8.1816086581360e+02 2.6529793430655e+04 9.2650369034382e+01 9.8422305902622e-04
196 -1.1638743039365e+03 2.4729324580259e+04 8.8852888773405e+01 4.7810495941410e-03
197 -7.4983843592136e+02 2.2051530766007e+04 9.3492515549847e+01 1.2641754135929e-03
198 -1.1092389988696e+03 2.3383900427749e+04 7.5854311410501e+01 1.7569030236909e-03
199 -1.2244028596186e+03 2.3818457174615e+04 9.0144572888270e+01 2.7373452946728e-03
200 -1.4671643866031e+03 2.4195755597333e+04 8.5325000961381e+01 1.7777452333197e-03
201 -1.0996694877329e+03 2.5257511617122e+04 8.9441137441790e+01 1.5499774562807e-03
202 -1.3594306813913e+03 2.4770645387250e+04 -8.1239776106576e+01 2.0727574063603e-03
203 -1.0886209453864e+03 2.5337267149521e+04 9.4069879027264e+01 1.6138733942786e-03
204 -1.3885200730318e+03 2.5361555716618e+04 9.1615247003511e+01 2.1039286466246e-03
205 -1.3331390952137e+03 2.5381363782840e+04 8.7766165506805e+01 1.9512934268185e-03
206 -9.8804980978953e+02 2.0425462320566e+04 -8.5203784458985e+01 1.9641197697424e-03
207 -8.5647973257455e+02 2.4718548313135e+04 9.3960682715451e+01 6.3361875548913e-04
208 -1.3994141465509e+03 2.4970742437496e+04 -9.5010052790363e+01 1.4210067322107e-03
209 -6.4180184017359e+02 2.5101818845558e+04 9.3169454615491e+01 1.0372974899138e-03
210 -1.2835016327593e+03 2.2228339628215e+04 -6.8019739955151e+01 2.2258592700209e-03
211 -2.1280084310661e+02 2.3128976177119e+04 8.6386941782276e+01 6.3232514289567e-04
212 -5.4679837757043e+02 2.4251331836198e+04 8.9954593011919e+01 1.6397372500692e-03
213 -5.3183172947577e+02 2.3162814147980e+04 8.7912817461310e+01 7.6540167063236e-04
214 -5.1325959711924e+02 1.9704143008737e+04 7.8589701975028e+01 1.4951952242863e-03
215 -8.2210741273006e+02 2.0326408080235e+04 -7.7227153678799e+01 1.1517059282038e-03
216 -1.0144894329205e+03 2.3140483836737e+04 9.4464082618343e+01 1.5120818997159e-03
217 -1.0257716774281e+03 2.4554773297636e+04 8.7611724907077e+01 1.1976802790809e-03
218 -1.0145919375774e+03 2.3781106358893e+04 4.9497098406532e+01 1.5451608198022e-03
219 -1.1646821968321e+03 1.8163809711438e+04 -9.2994135069343e+01 2.6443523616222e-03
220 -1.1862968481193e+03 1.9880175570415e+04 9.0951213200787e+01 2.4343183771015e-03
221 -6.0368370017039e+02 1.8559727669728e+04 -1.9758624271050e+00 1.2180987377918e-03
222 -8.9666774861408e+02 2.2614574307019e+04 8.7452581998381e+01 1.2368645518017e-03
223 -2.6841244522989e+02 1.5072453515668e+04 9.9635748479123e+01 4.5356020967550e-04
224 -7.7920643530030e+02 2.2627115739419e+04 -8.7652635845534e+01 1.4401492374743e-03
225 -4.9653850304762e+02 2.2677012496902e+04 9.0932391125618e+01 4.1709721325059e-03
226 -5.0476426697492e+02 2.4035622571614e+04 9.1771302844331e+01 9.1871331129035e-04
227 -7.2500721524248e+02 2.1052779911591e+04 8.3546979551850e+01 3.8263254154595e-04
228 -6.6144905825243e+02 2.0864515644631e+04 8.4760215267226e+01 1.3627557139416e-03
229 -7.9168386380923e+02 1.9837375358714e+04 8.8600768471185e+01 9.6313192621421e-04
230 -7.2042271470064e+02 1.9094615388003e+04 8.6469118740843e+01 1.3485673789802e-03
231 -1.3870771145184e+03 2.1486176691063e+04 7.6265158208484e+01 2.5382666178039e-03
232 -1.3998499707450e+03 2.1809703113781e+04 8.2744359893802e+01 2.5997740631546e-03
233 -1.5205634484624e+03 2.1213347206518e+04 9.6329836191846e+01 2.7425153198234e-03
234 -1.5728682026738e+03 1.9854260423964e+04 9.1122847966165e+01 2.7279627528562e-03
235 -1.3214215043567e+03 2.0772134985225e+04 -8.0839473507465e+01 2.5468896952406e-03
236 -1.4538614188628e+03 2.1658342802547e+04 -6.5841203920449e+01 2.5187356376094e-03
237 -1.3559150831961e+03 2.0918902119066e+04 8.5171692957858e+01 2.7071064829182e-03
238 -1.6521110286592e+03 2.1474489527359e+04 9.1120907146891e+01 2.9936413784403e-03
239 -1.6198044155547e+03 2.0409189702528e+04 8.6260206892645e+01 2.3451627156789e-03
240 -1.0746052634944e+03 1.8654220343370e+04 9.2775879448254e+01 2.1444121595838e-03
241 -1.0040878237822e+03 1.9000491136136e+04 8.8487929855495e+01 2.4602094481985e-03
242 -1.2107793278834e+03 2.1993772015452e+04 9.6453138494990e+01 1.8797005636319e-03
243 -1.2365341323851e+03 1.8668743659328e+04 8.5221900856971e+01 2.0834468136325e-03
244 -1.1152151217026e+03 1.9415486420617e+04 -7.4220469382741e+01 1.8797125346422e-03
245 -1.0862015395115e+03 1.7051020550451e+04 -8.6799908210687e+01 1.7892875605178e-03
246 -1.2301350631480e+03 1.8491201843657e+04 9.3106951249064e+01 2.6757816614197e-03
247 -9.3352551495056e+02 2.0907464294030e+04 9.0556926347492e+01 4.5138490755013e-03
248 -8.1490874859560e+02 1.9058842610564e+04 -1.0737608044171e+01 1.8326454431874e-03
249 -6.8159359780184e+02 1.5951856253143e+04 7.8656258977261e+01 1.6833144669764e-03
250 -7.9112365636282e+02 2.0567804163986e+04 8.4375745457344e+01 1.8371375771081e-03
251 -4.4151189362809e+02 1.8951168024033e+04 8.2540489442791e+01 1.5411823852620e-03
252 -4.9521955039136e+02 1.9079053725813e+04 9.3204528371906e+01 1.6161351661906e-03
253 -8.9141873917385e+02 2.1090464024399e+04 9.1780401985583e+01 3.5245558796128e-03
254 -4.9875197236469e+02 2.4287206264150e+04 8.6223638837406e+01 9.3460424852479e-04
255 -8.1740567775858e+02 2.4658833290233e+04 -1.1850709309484e+02 1.2612155714934e-03
256 -1.1696719160297e+03 2.3644796642166e+04 9.1823121279685e+01 2.0187188348067e-03
257 -1.4040785495420e+03 2.3877735615700e+04 1.0070725374345e+02 2.3623067280167e-03
258 -1.7866918000029e+03 2.0017798422095e+04 -9.7075951612167e+01 2.7582056706900e-03
259 -1.7043842796623e+03 2.0119728252810e+04 -9.0297300016417e+01 2.1739851911986e-03
260 -1.7796788602353e+03 2.2596943714855e+04 -9.4933304327368e+01 2.8980343202976e-03
261 -1.8318369504273e+03 2.4182146451311e+04 9.4340269568227e+01 2.7860415094746e-03
262 -1.7377658872351e+03 2.3451210432477e+04 8.9254721806497e+01 5.7615298570739e-03
263 -1.7191066430782e+03 2.4609645493453e+04 8.9125589335447e+01 2.6078755719707e-03
264 -1.8530328593374e+03 2.5726798257563e+04 9.5783941285799e+01 2.5095259364157e-03
265 -1.9174714757993e+03 2.3937637903101e+04 8.4556894380412e+01 2.9879128937483e-03
266 -2.0465607547628e+03 2.3970081752847e+04 9.8839042815660e+01 3.0542605942518e-03
267 -1.7083601049381e+03 2.4542130737331e+04 9.0684941149021e+01 5.4544881093649e-03
268 -1.7465295988740e+03 2.4143469757969e+04 9.6793487396421e+01 2.4919548341864e-03
269 -1.6882828718020e+03 2.6196296969013e+04 8.2582490093298e+01 2.0022992763863e-03
270 -1.6384265743087e+03 2.3476916147259e+04 8.9446452062177e+01 4.3852242741077e-03
271 -1.4089416158677e+03 2.1814121271835e+04 6.3749924235464e+01 8.5153017132576e-04
272 -1.4629930390239e+03 2.2854596381599e+04 9.7217495507970e+01 2.4110209326446e-03
273 -1.3457086126409e+03 2.3590848361061e+04 -9.6676295874179e+01 2.2164684224088e-03
274 -1.1748420620072e+03 2.3764569287566e+04 -1.2162921190407e+01 2.0064560822141e-03
275 -1.6943557059573e+03 2.5275941252567e+04 9.2925248133735e+01 2.3014318331747e-03
276 -1.8031940235355e+03 2.4844675686604e+04 1.0098134591464e+02 2.0297032476733e-03
277 -1.7392890239328e+03 2.6708715906577e+04 9.4997840896199e+01 2.3056417043237e-03
278 -1.6225791190166e+03 2.6646504672544e+04 9.1496788660142e+01 2.1651101634123e-03
279 -1.5527238276892e+03 2.4984139133654e+04 -8.3672042339575e+01 2.4341975099770e-03
280 -1.5835383259847e+03 2.5346224193468e+04 8.5750091651788e+01 2.2837145286692e-03
281 -1.5904941793661e+03 2.5448580813576e+04 9.1203167303991e+01 5.3852515936903e-03
282 -1.5009619438509e+03 2.6889459937994e+04 8.8986983992100e+01 4.8852954078628e-03
283 -1.3595285260186e+03 2.7876178069802e+04 8.7883204821397e+01 1.6275205665471e-03
284 -1.6700071783880e+03 2.7108234047385e+04 8.4564878675578e+01 2.2650402877057e-03
285 -1.6873240602147e+03 2.6278875419210e+04 6.1124954976866e+01 2.4215118343887e-03
286 -1.5134593861574e+03 2.5310549275304e+04 9.0508920957653e+01 2.6227878969005e-03
287 -1.8225761211460e+03 2.4994536994583e+04 9.3688292694867e+01 2.7465843476013e-03
288 -1.8063559983336e+03 2.5920043533413e+04 1.0100225349052e+02 2.6753738613968e-03
289 -1.6501276504848e+03 2.5227713119242e+04 -6.1485531528394e+01 2.5138377496380e-03
290 -1.6140031656979e+03 2.3356516092081e+04 8.5143285191179e+01 2.5807960332845e-03
291 -1.6056608252334e+03 2.4018637424860e+04 8.7702213257248e+01 2.6458139139232e-03
292 -1.5342507665453e+03 2.5785166677820e+04 9.0773844360828e+01 2.4024874664552e-03
293 -1.8214978340001e+03 2.6248812058386e+04 -1.4365803771921e+02 2.6517904281147e-03
294 -1.7060307014615e+03 2.2403392177743e+04 9.2222175292953e+01 2.8759288576255e-03
295 -1.6882927292654e+03 2.2392502091299e+04 9.1146258646897e+01 5.9104561948019e-03
296 -1.3640147960089e+03 2.0820569619150e+04 8.6984792995084e+01 2.6892469036876e-03
297 -1.3720906051820e+03 2.0399358824830e+04 8.2162098051847e+01 2.7833023438230e-03
298 -1.3009881738394e+03 2.4053429307158e+04 9.0532883362168e+01 2.1520738391464e-03
299 -1.6926794164379e+03 2.2142424825148e+04 9.5901047857250e+01 2.8902251778092e-03
300 -1.6360251932948e+03 2.1843378149208e+04 9.2007694790873e+01 2.1596723894498e-03
301 -1.5892207919994e+03 2.3537433179959e+04 7.2860309354227e+01 2.5320528259520e-03
302 -5.2287728383522e+02 2.0604927178260e+04 8.9678736520937e+01 3.0289427055726e-03
303 -1.0024967420300e+03 2.4784747044486e+04 8.9633462066500e+01 1.9617038545481e-03
304 -5.7536273010555e+02 2.4723556489349e+04 9.0042652031519e+01 1.9487188718846e-03
305 -1.1387645908915e+02 2.2919758547144e+04 8.8584876102228e+01 5.8849235358857e-04
306 2.7924999656188e+02 1.7468110824026e+04 9.4530807969969e+01 7.7309472459856e-04
307 -3.6888938149314e+02 1.9674355241518e+04 -7.2673129436844e+01 1.2455216436514e-03
308 -3.8970380646665e+02 2.1609021574936e+04 8.7531555593376e+01 1.4543945480710e-03
309 -4.1716153538671e+02 1.9871144910889e+04 8.7263176824242e+01 9.1568442695887e-04
310 -6.1140774516168e+02 2.5791297476275e+04 9.0934485173523e+01 9.4523585684316e-04
311 -7.4527774514806e+01 1.9157102806391e+04 1.0273138423830e+02 9.1679624630897e-04
312 -8.4081108126745e+02 2.8078359724560e+04 9.1126289513352e+01 9.4712382270522e-04
313 -1.0922419365355e+03 2.5267749837908e+04 9.1270520880008e+01 4.4953095252640e-03
314 -1.0315977043512e+03 2.1304033688486e+04 -8.8571147970258e+01 1.4614799904913e-03
315 -8.5344935606208e+02 1.8951000507935e+04 2.2970673759247e+01 2.2169870428888e-03
316 -1.1582844173105e+03 1.9735787091126e+04 9.2724976517562e+01 1.3420806120341e-03
317 -5.3324291625199e+02 2.1202065133443e+04 9.2229281836325e+01 1.9511561892286e-03
318 -4.4787742729367e+02 2.0983941748979e+04 8.1663228808154e+01 1.1725515866863e-03
319 -5.6791240698756e+02 1.5548949477391e+04 8.3668165761369e+01 2.1810605270883e-03
320 -5.7521720323820e+02 1.4136020065307e+04 -8.9845774781044e+01 2.4000855376099e-03
321 -6.5404708642181e+02 1.8623529017904e+04 7.9765964487777e+01 1.5230927094227e-03
322 -1.1482293649357e+03 2.3631360475409e+04 8.8020245350854e+01 3.0024290326724e-03
323 -1.4070432579725e+03 2.0691551421656e+04 6.8960994111583e+01 2.7998926173595e-03
324 -1.4676082276112e+03 2.0613067424805e+04 8.2072856485396e+01 2.8078631523347e-03
325 -1.3775542456401e+03 2.3377137359876e+04 7.6779530864331e+01 2.4032777434093e-03
326 -1.1926171323996e+03 2.3791040531447e+04 9.2978899092507e+01 2.0098122495241e-03
327 -1.1712948690089e+03 2.1759624832704e+04 9.1842034154864e+01 3.7686619362861e-03
328 -9.8371013168875e+02 2.1379744371482e+04 8.1355603223411e+01 1.9075316486672e-03
329 -1.2070861360634e+03 1.9482551382122e+04 -9.0419360903870e+01 2.6729637211599e-03
330 -8.0978522949869e+02 2.2101781475484e+04 8.0591776539049e+01 1.4156418975262e-03
331 -7.4526126879244e+02 2.1796004151632e+04 8.8928057172420e+01 1.6014975375663e-03
332 -7.4496515999380e+02 2.0424990660927e+04 9.8595511474436e+01 1.8006992886336e-03
333 -8.8565705678592e+02 2.1059136356760e+04 8.7083010988260e+01 1.8626744944347e-03
334 -6.6707137987905e+02 1.9311829073504e+04 8.2164130504699e+01 1.7831634335476e-03
335 -7.2090844044032e+02 2.1502627560486e+04 -8.3471842192377e+01 1.4809953402844e-03
336 -1.0174215907546e+03 2.2744756393246e+04 -8.0012936293132e+01 1.5887642755708e-03
337 -7.6497023740043e+02 2.4617180960066e+04 8.1521729237222e+01 1.1901614241265e-03
338 -7.1635549131423e+01 1.7938920105505e+04 9.2494838767080e+01 9.7029015170611e-04
339 -2.3757008928223e+02 1.7814908505992e+04 9.2020757860272e+01 2.4033297702524e-03
340 -7.2240757923491e+02 2.2553278116043e+04 9.3620967883552e+01 1.4505322103617e-03
341 -1.0800881788368e+03 2.1355602473680e+04 -7.9533982205875e+01 2.0375280405428e-03
342 -1.1327474791449e+03 2.3463401014454e+04 9.0620229142606e+01 1.3240403721962e-03
343 -1.2415510929872e+03 2.2632180347916e+04 8.9915277552187e+01 2.9238765638638e-03
344 -1.0437587551918e+03 2.1836665072607e+04 -1.1890298365477e+02 2.0938813728186e-03
345 -7.2002675230931e+02 2.3897297549955e+04 7.1403711271538e+01 9.0819731951882e-04
346 -6.2671861566756e+02 2.7433281250808e+04 9.5069104422442e+01 7.3722488215104e-04
347 -9.0617987767592e+02 2.3349077912492e+04 9.3312176238666e+01 1.3231146097728e-03
348 -2.2324117902525e+02 1.7507520894774e+04 7.5665005957715e+01 1.0829640956548e-03
349 -2.3362786737306e+02 2.2952873775044e+04 8.8564612311523e+01 7.4990621322450e-04
350 -2.1925173419847e+02 2.0017152247954e+04 9.0759506865954e+01 1.2126185329957e-03
351 -6.4762432684399e+02 2.1240488185554e+04 8.9521500392181e+01 1.2657646751600e-03
352 -5.8274975852138e+02 1.9934531792989e+04 8.5617173524104e+01 8.8809939033582e-04
353 -5.0780261973470e+02 1.9741486788349e+04 -8.0187567917406e+01 1.1914360460441e-03
354 -3.3864830764002e+02 2.1556386265948e+04 8.9238961182793e+01 3.5241265438602e-03
355 -5.2994444890612e+02 1.9501232536468e+04 8.7078728520826e+01 8.5838540232054e-04
356 -5.3723756110551e+02 2.1063036886763e+04 -7.8034558538528e+01 1.3890114702077e-03
357 -9.1920717809682e+02 2.1825107112660e+04 8.7407420354527e+01 1.1684978650835e-03
358 -9.4988826540949e+02 2.1562508494434e+04 8.9934354335438e+01 3.1602006793081e-03
359 3.1342621627467e+02 1.4260023148836e+04 8.2219736071228e+01 1.0300702427574e-03
360 7.3112472191263e+01 2.5675528877517e+04 9.1438330673224e+01 4.3512412058158e-04
361 -8.8896288539471e+02 2.7258381464303e+04 8.8641522824293e+01 5.2137747082965e-04
362 -6.2857757064396e+02 2.1335119696347e+04 -8.3190571468669e+01 1.4840662551932e-03
363 -9.8895910741113e+02 2.2264066939496e+04 9.6010554642510e+01 1.9358254749612e-03
364 -9.0824998712419e+02 2.4220523541444e+04 9.2123926240288e+01 1.4836720881145e-03
365 -3.2842657862556e+02 2.0163989553977e+04 8.8432631220348e+01 9.4310790882846e-04
366 -3.2302012235253e+02 2.0760754096055e+04 1.0032051861291e+02 1.0819452931557e-03
367 -3.9414674694820e+02 1.8998328988595e+04 9.4093419041238e+01 1.4686811697566e-03
368 -9.3480094991744e+02 2.2330604107257e+04 -9.1076063359776e+01 1.6361814490658e-03
369 -9.7904281584013e+02 2.5364275567950e+04 8.8709623494898e+01 7.5558331431619e-04
370 -1.1282040708168e+03 2.4330963993214e+04 9.4659116404177e+01 1.7907093625107e-03
371 -8.9665469927383e+02 2.3432425226313e+04 9.1724663823538e+01 3.0471978746100e-03
372 -1.3271778019676e+03 1.8806109443940e+04 1.6056953206120e+02 2.8920426159214e-03
373 -1.1206989174849e+03 1.9272266096261e+04 8.1393133803642e+01 2.6038369352317e-03
374 -1.1247062883770e+03 1.8950220879514e+04 6.8829750510789e+01 2.6102076824970e-03
375 -1.1433042386950e+03 1.9488811339181e+04 8.9473871908810e+01 2.9039502019536e-03
376 -1.2018519491633e+03 1.8489380085673e+04 9.6051637442274e+01 2.3942305077892e-03
377 -8.7972879767687e+02 1.9061318726439e+04 8.9859786313912e+01 3.1035563578236e-03
378 -7.6515317812323e+02 2.0976999980285e+04 9.2809178799247e+01 1.4185140653748e-03
379 -7.2488096499762e+02 1.9927222634241e+04 9.4223542855279e+01 1.1051666827547e-03
380 -8.7710866616701e+02 2.0162575500740e+04 -8.4780844114538e+01 2.0802444730773e-03
381 -8.8896226549833e+02 2.2046913403101e+04 8.8011956925219e+01 1.7884972123730e-03
382 -5.0935016749349e+02 1.7951277643949e+04 4.6313823645953e+01 1.6720397619984e-03
383 -2.1937810510682e+02 1.8308646129414e+04 8.7985623666683e+01 1.2164865517766e-03
384 -3.7582560791884e+02 1.8887286923641e+04 8.4087102424397e+01 1.4491765461137e-03
385 -5.5256890686909e+02 1.5646876466574e+04 9.4816331663938e+01 2.2602750362644e-03
386 -2.0132691057504e+02 1.8166001938531e+04 8.9972749836815e+01 2.2374402996957e-03
387 3.3576182620667e+02 1.3310769860960e+04 9.2444504290937e+01 1.3168674378940e-03
388 -3.4186069842172e+02 2.3282961453231e+04 7.8456146329599e+01 8.6232540133949e-04
389 -6.4577435400736e+02 2.0427618033075e+04 6.6629840146912e+01 1.6509584520095e-03
390 -1.2115239878432e+03 2.2680476307670e+04 9.7669898473959e+01 1.3227278326897e-03
391 -5.0545292126224e+02 1.7425763005647e+04 1.6606995952013e+01 1.1708350191298e-03
392 2.3720634565030e+01 1.5106428979952e+04 -8.4925695736011e+01 4.5564021002918e-04
393 -4.5076651774384e+02 2.1397802834702e+04 8.8006949145659e+01 8.9873958336324e-04
394 -4.6942229855994e+02 2.0414402395895e+04 7.2757963168679e+01 1.2352889172344e-03
395 -4.9938954293947e+02 2.1658551763791e+04 9.0547795345632e+01 3.7370597477512e-03
396 -7.2256501065334e+02 1.9289665047526e+04 9.0914512961353e+01 1.8540427825786e-03
397 -5.5324642177110e+02 1.6324220780552e+04 -9.4163566160947e+01 2.0206825459263e-03
398 -1.0431487587427e+03 2.4055910501329e+04 9.0203127557429e+01 2.2324871227584e-03
399 -7.7547974239012e+02 2.0414996194866e+04 -9.1458853295139e+01 1.8687697659788e-03
400 -7.1212046601726e+02 2.1680320829426e+04 -8.7178397024965e+01 1.5655017710664e-03
401 -4.3533922751725e+02 1.8232058429145e+04 9.3923841057384e+01 1.2554102861764e-03
402 -8.2928477967132e+02 2.2230006926649e+04 9.0620242456485e+01 1.6395553746664e-03
403 -1.4017291704213e+03 3.1549690173725e+04 8.8439475117911e+01 1.9943411200308e-03
404 -1.9498846274661e+03 2.7339771758113e+04 8.8891768200318e+01 5.7208037775936e-03
405 -1.8673558992154e+03 2.6394075771669e+04 8.2465279497662e+01 2.6959526844043e-03
406 -1.9144835260781e+03 2.7977232716404e+04 8.4692241822951e+01 1.7297588521374e-03
407 -1.9847531731142e+03 2.8646981438062e+04 8.3999622908648e+01 2.0816515096384e-03
408 -1.4690608080301e+03 3.1777652229509e+04 8.9985362648699e+01 3.1987661583539e-03
409 -1.4486866057705e+03 3.0175639959723e+04 8.7125224031363e+01 1.8256099212703e-03
410 -1.8763645158429e+03 2.8151723790280e+04 9.2923503644228e+01 1.9796336826655e-03
411 -1.7628857028686e+03 2.8606631989273e+04 8.7350054337886e+01 9.4294935261291e-04
412 -1.8073044139217e+03 2.8442765276044e+04 8.5002887573773e+01 6.6868041895973e-04
413 -1.9897305863121e+03 2.8432005600227e+04 9.3845780845418e+01 1.3420407565460e-03
414 -1.1846067730806e+03 2.4626895611606e+04 -9.2553325414235e+01 5.6979415994983e-04
415 -9.2200148418104e+02 2.5231173441602e+04 8.9094741182382e+01 1.2706564248391e-03
416 2.0804533185257e+02 1.9779510364870e+04 8.7158805721749e+01 7.5724565595857e-04
417 -2.9911931322065e+02 2.1087094220182e+04 8.8316522824369e+01 1.0266388882698e-03
418 -5.2078434572787e+01 1.9916994663366e+04 5.8672925036062e+01 8.9521317916536e-04
419 -3.1291155758352e+02 1.9238828198166e+04 7.0045695987901e+01 1.3006218822957e-03
420 -3.2502211779694e+02 2.0833547187064e+04 8.9800871357679e+01 2.3286126946551e-03
421 -2.7481373011988e+02 2.1355576034260e+04 8.6742865597445e+01 6.2897908082804e-04
422 -7.3125411210327e+02 1.9767555937178e+04 9.0084591415396e+01 2.3758394550903e-03
423 -9.7234318083271e+02 1.8758349546214e+04 -9.1589257115243e+01 2.4557886887066e-03
424 -8.8852853453390e+02 1.8662163970672e+04 -8.2420019217369e+01 1.8930117670465e-03
425 -8.0468406349965e+02 1.9161562524388e+04 8.9372809507787e+01 2.3116846765299e-03
426 -7.9720512243425e+02 1.9309329255282e+04 8.8131016364427e+01 3.5281512555395e-03
427 -8.0755378181118e+02 2.1605945387687e+04 8.3560739348633e+01 8.4226934722268e-04
428 -9.3095346731763e+02 2.1269511894608e+04 7.7220273543398e+01 1.5729076740312e-03
429 -9.4536733943134e+02 1.9765718233616e+04 9.3990665271835e+01 1.8316651507703e-03
430 -1.0829523073737e+03 2.0798050317242e+04 8.5645591323811e+01 2.2551522201368e-03
431 -1.1207097607774e+03 1.9558641541008e+04 9.0567353431775e+01 4.2204845060174e-03
432 -5.9537059672686e+02 1.8410611824220e+04 8.3147089075177e+01 1.4550689542802e-03
433 -6.2555046880354e+02 1.8515840258478e+04 9.3104161756682e+01 9.4021595250008e-04
434 1.8301170209768e+01 1.4239832046809e+04 8.1570876734698e+01 6.5530232377388e-04
435 2.5415506289259e+02 2.0447254046949e+04 8.9821317716931e+01 1.1526890970679e-03
436 9.8514136818489e+01 1.4765157405255e+04 5.3045261735787e+01 1.2856885888480e-03
437 -2.6252480368958e+02 1.6288197134639e+04 -8.7441830184148e+00 1.6481878378120e-03
438 -6.7090292776152e+02 2.7087900208273e+04 8.8488354285093e+01 3.2047126281984e-03
439 -1.0672292165095e+03 2.4077642995068e+04 8.2830757613598e+01 1.0516376868042e-03
440 -4.0953842002251e+02 2.5206090449687e+04 8.9619819183165e+01 2.8403774195488e-03
441 -3.6977041121191e+02 2.4717525496433e+04 8.5358263008429e+01 7.5090115530256e-04
442 -3.0108544483582e+02 2.1967604647601e+04 8.8917610524205e+01 3.7995529197518e-03
443 -8.2585737776406e+02 2.2319590633176e+04 -9.7043813305614e+01 1.1349778976246e-03
444 -7.0061234636533e+02 2.2994236070669e+04 7.6974324413971e+01 9.4615990575457e-04
445 -7.2047069381993e+02 2.3212012554015e+04 8.3410939422970e+01 9.8572721275443e-04
446 -7.1317492540074e+02 2.4700797527437e+04 8.2015698888368e+01 7.1281706500738e-04
447 -1.0639995671981e+03 2.5750857517977e+04 8.8217827936988e+01 1.0661128108233e-03
448 -7.5300095515345e+02 2.2216062030867e+04 -8.9490040627341e+01 1.3652579295821e-03
449 -1.1569039842794e+03 2.4749984755579e+04 8.6702739575651e+01 1.3444164231867e-03
450 -7.5517389772119e+02 2.1974562611646e+04 8.4046286553624e+01 1.5299947345573e-03
451 -1.2573871289723e+03 1.8358679082718e+04 8.3935630136454e+01 2.2897598673359e-03
452 -1.3766405975563e+03 1.8275656291141e+04 9.1412885416426e+01 2.9752082855416e-03
453 -1.0385878116988e+03 2.0303283672028e+04 8.7777612139792e+01 1.8538240326674e-03
454 -1.4224039337094e+03 2.0132579487095e+04 9.9810816124219e+01 9.2660015611546e-04
455 -1.0547618150408e+03 1.7236161013539e+04 8.5350845228613e+01 2.3834183710912e-03
456 -9.7531032584511e+02 1.5952540155329e+04 -7.8494670297958e+01 2.4361504893817e-03
457 -1.5098998595597e+03 1.9410533403525e+04 9.1421021171026e+01 3.9391243746020e-03
458 -1.5316090798149e+03 1.9838683824060e+04 8.5791936671548e+01 2.4479976597506e-03
459 -1.5744092431943e+03 2.0012643870697e+04 9.0147575053996e+01 4.1234651446993e-03
460 -1.6526899808050e+03 1.9204696574546e+04 -1.3584194513535e+02 2.3742342422646e-03
461 -1.6661990247814e+03 1.9332805767023e+04 6.6123620431272e+01 3.0601088625977e-03
462 -1.7700635978022e+03 1.9697829240498e+04 8.8938225739267e+01 5.9922277314172e-03
463 -1.8403239377864e+03 1.9930700687159e+04 9.3907789709666e+01 2.8916645445255e-03
464 -1.6136961901369e+03 2.0930117893293e+04 9.2350846704985e+01 2.0975196486123e-03
465 -1.6463308703542e+03 2.1032769523317e+04 9.4003284769570e+01 2.3788274024981e-03
466 -1.8580021767023e+03 2.3718212646857e+04 8.5402530081145e+01 1.5602166734375e-03
467 -1.7188306225948e+03 2.3575237321674e+04 8.1302346636562e+01 1.7928001672415e-03
468 -7.2186099877161e+02 2.2465273129532e+04 9.2425352672436e+01 9.7180678657735e-04
469 -1.2756603637072e+03 2.2280549759347e+04 9.2750576214678e+01 2.3725882883875e-03
470 -8.5520418232107e+02 2.0839325222997e+04 9.1244906021764e+01 1.3310045839421e-03
471 -1.3050983575453e+03 2.5686258947580e+04 9.3356926686108e+01 1.8061122174921e-03
472 -1.1660105131421e+03 2.3912720380588e+04 6.7835923866430e+01 1.5381005280785e-03
473 -1.2811335403811e+03 2.3701668137839e+04 8.9734614077874e+01 2.4831507699436e-03
474 -1.2299731608411e+03 2.4909948591023e+04 1.0289145158302e+02 1.3773407741015e-03
475 -1.1539547213940e+03 2.8136462374339e+04 8.5984505855338e+01 1.0927823412441e-03
476 -1.5060193892036e+03 2.6313345771411e+04 9.2866278978362e+01 1.7978368394343e-03
477 -1.3820731636265e+03 2.5281228027597e+04 1.0343040956387e+02 2.0880495536306e-03
478 -1.5172705317272e+03 2.6663465263849e+04 9.0045407197717e+01 2.2467583746599e-03
479 -1.6884159149487e+03 1.9987524305675e+04 9.0585703413828e+01 5.1018937630044e-03
480 -1.5839977163595e+03 1.9237933785914e+04 5.0621809890565e+01 3.0365649280758e-03
481 -1.5032093321815e+03 1.9351230041844e+04 8.8896134165848e+01 2.2398411909214e-03
482 -1.4998388118250e+03 1.9204846483837e+04 8.8637899497917e+01 5.7100570335297e-03
483 -1.4029204234587e+03 1.9566424730083e+04 8.6826686050588e+01 2.6394865853345e-03
484 -1.5252549165202e+03 1.7754188228087e+04 8.7591819569619e+01 2.9725840935163e-03
485 -1.9832912824200e+03 2.1458826144886e+04 9.1061284077104e+01 6.1512724148660e-03
486 -1.9136614747258e+03 2.1451000012468e+04 8.6482692236498e+01 3.0853088431640e-03
487 -2.1323070344737e+03 2.1003166795286e+04 9.6196231874265e+01 3.0497071644407e-03
488 -2.1125761990692e+03 2.1241765635692e+04 9.2307444995651e+01 2.4509905543435e-03
489 -1.9953736143923e+03 2.1724458880936e+04 8.5516053611562e+01 2.6058719825782e-03
490 -1.3811828866843e+03 1.9843253547049e+04 1.0898633937080e+02 8.8542599195412e-04
491 -6.2844954440498e+02 1.8722611286075e+04 9.2429738398468e+01 1.0298305489333e-03
492 -5.6215298130776e+02 1.8468369599114e+04 8.9400171384065e+01 4.1226765644542e-03
493 -6.3056227116259e+02 1.7267142179004e+04 8.9781919557567e+01 1.6681478069258e-03
494 -1.0036740315426e+03 1.9044448773932e+04 8.7948609326518e+01 2.8909928702502e-03
495 -7.1069558925357e+02 1.7759510198468e+04 9.1332937102172e+01 4.8874226216206e-03
496 -6.5869479254827e+02 1.9934780430802e+04 9.2887837583646e+01 1.7531211733295e-03
497 -6.4268423492374e+02 2.1812627946803e+04 8.8265956539841e+01 9.3528709926074e-04
498 -5.8019609831969e+02 1.9190999224916e+04 8.9649094959095e+01 3.4107082421452e-03
499 -1.2084762386219e+02 2.0512872580145e+04 8.7502013945690e+01 5.8370166181861e-04
