0 -2.4567006987508e+02 1.4307081414782e+04 8.5492228364098e+01 8.4077664661224e-04
1 4.2575475160372e+02 7.7706190366395e+03 8.2591487565870e+01 1.7684329986542e-03
2 2.8147405240687e+01 1.1068385281579e+04 9.2997984644988e+01 1.8108689622872e-03
3 1.6710364139717e+02 1.0946476134497e+04 8.5271623584330e+01 1.7475923778362e-03
4 -2.6017622173499e+02 1.3910421015507e+04 8.8568519286421e+01 4.0761666211192e-03
5 2.4817488100756e+02 2.0720871982353e+04 9.0556070434400e+01 1.0256502107313e-03
6 -6.0069977373116e+02 2.1357553945050e+04 -8.7395997152781e+01 1.5523222708175e-03
7 -5.7291545945803e+02 2.1513097497287e+04 8.5731703117446e+01 1.4563805102473e-03
8 -6.0614763640839e+02 2.2047746096859e+04 8.8291075724388e+01 3.9116281516682e-03
9 -3.0271336087531e+02 2.2506554716091e+04 6.6223611182701e+01 6.9619167151687e-04
10 -5.3453237006851e+02 2.2476639932279e+04 1.0283759579650e+02 6.1806574844505e-04
11 -2.1569920527570e+02 2.0409013058501e+04 7.6734195143077e+01 1.1088035629871e-03
12 -1.8118914173393e+02 2.2367838769743e+04 8.5767368528386e+01 6.5883606762630e-04
13 -1.8373618346743e+02 2.2421081963076e+04 -1.3752004506052e+02 6.9159215740491e-04
14 -7.5312472498132e+02 2.1178730455641e+04 9.3417738838477e+01 1.5063889271421e-03
15 -1.7432825263454e+01 2.0396341760380e+04 7.9225753759643e+01 6.4146904243538e-04
16 -7.3942211572985e+02 1.7726639306266e+04 7.2748364537783e+01 1.9756973057882e-03
17 -4.6827610640856e+02 1.5632847748282e+04 6.8955963747061e+01 2.2864002690008e-03
18 -5.6330762213039e+02 1.5997937294469e+04 9.0701338022717e+01 2.3336190563844e-03
19 -7.3208933318725e+02 2.0729842555511e+04 9.0080622754115e+01 1.8728414441030e-03
20 -4.2733138119370e+02 1.6868460169712e+04 -5.5856511460805e+01 1.9085607320012e-03
21 -6.9106853575051e+02 1.8063539203292e+04 9.1800702747931e+01 5.4301121829343e-03
22 -3.1615687147810e+02 1.7942057189682e+04 7.0594141605172e+01 1.3192631974643e-03
23 -4.9464710096365e+02 2.2236913539286e+04 7.8799016003158e+01 1.2258200322200e-03
24 -1.0652293582911e+03 1.9546812092478e+04 8.3723210072090e+01 2.6646653742925e-03
25 -1.1771726515434e+03 1.8435262673912e+04 7.7540136752835e+01 2.9809497361281e-03
26 -6.9262352082470e+02 1.8262395963956e+04 -4.2483617128013e+01 2.0478862466849e-03
27 -1.1564466413686e+03 1.8796786344079e+04 9.3078040420407e+01 3.9521560138758e-03
28 -1.2031609373260e+03 1.7942449974950e+04 1.0232068103187e+02 3.0733579096706e-03
29 -5.9139385026722e+02 2.2384242185779e+04 8.0421451473079e+01 1.3527194402325e-03
30 -8.7162244538460e+02 2.1800829834901e+04 9.2003181084196e+01 1.6421750462144e-03
31 -5.4744805556643e+02 2.1803914471323e+04 8.7482905527708e+01 7.3792641531676e-04
32 -5.9725364709570e+02 2.2533584497784e+04 9.0655617100216e+01 1.1017446835071e-03
33 -6.1885081466712e+02 2.1893321912413e+04 9.8049887655822e+01 1.2752417510767e-03
34 -1.1711642411469e+02 1.3469378957051e+04 -8.8691577844988e+01 1.6497298957155e-03
35 4.2134481151121e+01 1.8467264303563e+04 1.0172445354278e+02 7.9630647589770e-04
36 2.2350777811896e+02 1.9129555624200e+04 7.9367387082880e+01 6.4833878663173e-04
37 7.5118241714727e+01 1.5160573422815e+04 9.0183981462408e+01 1.5030974565028e-03
38 3.0115653032131e+02 1.4361452706523e+04 9.3471409854316e+01 1.0659380335581e-03
39 3.5197373504406e+02 1.3353867510449e+04 9.6546412488362e+01 1.2256213292033e-03
40 -6.0816614294998e+02 2.1007314720735e+04 8.4244118736593e+01 1.1642928288620e-03
41 -1.4381896168816e+02 1.8263833961317e+04 8.8075699591648e+01 1.2028208327782e-03
42 -3.9554593646279e+02 1.9498186234625e+04 1.0009284260174e+02 1.4920699031910e-03
43 1.5581191426968e+02 1.8483910567117e+04 8.7498285943967e+01 8.6080898396262e-04
44 -1.0040127448886e+03 2.0612829985264e+04 9.8841856224766e+01 1.7268787295267e-03
45 -5.2907653416876e+02 1.9710833319007e+04 9.0798007555798e+01 2.1740919141885e-03
46 -6.0197785744611e+02 1.9883017470175e+04 9.3581962260836e+01 1.2969919345199e-03
47 -3.3638460614288e+02 1.7826410676292e+04 9.0510619244502e+01 1.6192606328220e-03
48 1.4075269561843e+02 1.9354409064945e+04 7.0086221280968e+01 8.2266992738131e-04
49 -2.8784389084399e+02 1.9578544373630e+04 8.1126784593935e+01 8.9789082684954e-04
50 1.1777898988540e+02 1.7187525445731e+04 -6.1906278885221e+01 9.2480093099431e-04
51 -8.9325149117947e+02 2.4558535999648e+04 9.1960305235211e+01 4.2642675891379e-03
52 -6.3929738605447e+02 2.4184932069659e+04 -2.8454527401979e+01 1.2026737736136e-03
53 -5.2923662115290e+02 2.4307080287984e+04 3.3541255913933e+01 1.0377166916682e-03
54 -1.0967200400928e+03 2.3758601078008e+04 -1.1094649419127e+02 1.8621814534031e-03
55 -5.1729439581690e+02 2.5998895257927e+04 8.6514791327952e+01 8.4620399469723e-04
56 -1.0465146175624e+03 2.0792340960801e+04 8.1072480829448e+01 1.6637616814607e-03
57 -5.3644626106413e+02 2.0828016965773e+04 8.5913115321620e+01 1.4591988947866e-03
58 -8.5513783355703e+02 2.5531809945256e+04 -9.5217020760537e+01 1.2183035480522e-03
59 -8.3645588654084e+02 2.6917492822746e+04 9.2244821283179e+01 4.1234018774520e-03
60 -8.1013441806145e+02 2.6365567950438e+04 9.1267246534361e+01 1.0615724048532e-03
61 -6.3782939670784e+02 2.0632994856144e+04 9.4099408934126e+01 1.6725316206896e-03
62 -7.5299982511821e+02 2.1475726973682e+04 9.7327013063643e+01 1.6807104691870e-03
63 -6.5266094503904e+02 2.1275404602393e+04 9.1759339287999e+01 4.6586766077986e-03
64 -5.2583287021274e+02 2.1760619166335e+04 8.9952060188707e+01 1.4097718427164e-03
65 -4.7394357334161e+02 2.0540573346572e+04 8.0041782637827e+01 1.4345142997652e-03
66 -5.3026320999151e+02 2.1027859114259e+04 8.4290046587860e+01 1.4643527124076e-03
67 -5.4507397148218e+02 1.8569805370396e+04 7.2900636984640e+01 1.8009826336190e-03
68 -9.5793913772416e+02 1.8378924509360e+04 8.9849104119138e+01 2.7679121390795e-03
69 -1.0682454277107e+03 1.8233416764230e+04 9.8514757311087e+01 2.8582193432838e-03
70 -6.6677219079468e+02 1.8139046204971e+04 8.4613437863195e+01 2.2059314890726e-03
71 -8.9020111577333e+02 1.9258221271024e+04 8.8889133104884e+01 1.8676181166055e-03
72 -4.2329172394686e+02 2.0910107416698e+04 8.4943861585759e+01 6.4516377113596e-04
73 -3.9227914899129e+02 1.7844782516118e+04 1.0195490689200e+02 1.7502030936155e-03
74 4.3806553474600e+02 1.8174805637268e+04 -9.1990981212635e+01 6.1777976485098e-04
75 -2.8728011495999e+02 1.9041840246811e+04 9.7125124713825e+01 1.3584344456754e-03
76 1.0755790586356e+01 1.6965356915428e+04 -3.2723547583405e+01 1.2262927026712e-03
77 -6.6374565921360e+02 1.5923913374183e+04 -6.2985074181599e+00 1.9927767763504e-03
78 4.1449067327020e+02 1.7938981753959e+04 8.2878798403543e+01 6.5600171084096e-04
79 -5.2524295098841e+01 1.7704834051321e+04 6.8626894851169e+00 1.2337227267054e-03
80 -3.7798606110481e+02 1.1198690647803e+04 1.0853090664309e+02 2.7092694038072e-03
81 -5.0094642558961e+01 1.2155736267923e+04 -6.6988124941589e+01 2.1067026597093e-03
82 -4.3166629161173e+02 1.3369571388479e+04 9.1570209879218e+01 2.5178396491343e-03
83 -5.4796368374402e+02 1.2503069293602e+04 1.0003186986787e+02 2.9049308646630e-03
84 -1.1920759418358e+02 1.3961955993877e+04 -3.6489891899754e+01 1.6296447240682e-03
85 -5.0638643191806e+02 1.5138041515760e+04 1.0586561280288e+02 1.5293074989292e-03
86 -4.8624430736841e+02 1.5082998716888e+04 -8.1920611424434e+01 2.3071256545326e-03
87 -4.7427848019453e+01 1.7202079610860e+04 9.1442588882235e+01 3.7158169927821e-03
88 -8.4925299974393e+01 1.6265807238496e+04 4.8570076968801e+01 1.2398699836816e-03
89 -1.3246485053547e+02 1.5250358395593e+04 -8.6536754070866e+01 1.6658286128752e-03
90 -4.2885769079493e+02 1.6786737812781e+04 9.7748504173825e+01 1.9017420689617e-03
91 -3.3952492812943e+02 2.0754956007950e+04 1.0684776845728e+02 1.1599568613349e-03
92 -4.3218196278176e+02 1.6235465531088e+04 9.5127220500343e+01 2.1035068581976e-03
93 -9.3081144878619e+02 2.0838679243424e+04 1.4534799104130e+02 1.0558976993632e-03
94 6.9579698027041e+02 1.3744025936530e+04 9.1168898334987e+01 7.8610756845552e-04
95 8.0356762185670e+02 1.2735640803083e+04 7.4892721264195e+01 7.4828908847843e-04
96 -9.4187057008827e+01 1.6920779902130e+04 8.5196322359941e+01 1.3666157467138e-03
97 -2.9865730874576e+02 1.9860048291852e+04 8.6329986839737e+01 1.2164633249929e-03
98 -3.7694366221528e+02 1.8749575124332e+04 -7.0368206622129e+01 1.4279827974901e-03
99 -2.3541939951199e+02 1.9378129253812e+04 1.0001185370451e+02 1.2592757814510e-03
100 -7.1449646533215e+02 1.5736891208224e+04 -1.0086967707710e+02 1.4599293531247e-03
101 -6.8280945110811e+02 1.6829462890996e+04 9.4509598478389e+01 1.3482446563643e-03
102 -8.9516577586746e+02 1.8488521484598e+04 -1.1010510067197e+02 2.5098627243112e-03
103 -5.7474046918552e+02 1.9011419001616e+04 9.6298520896229e+01 1.4825550902025e-03
104 -5.3601612178601e+02 1.9530371148873e+04 8.9768596189555e+01 1.7556398895876e-03
105 -8.4761970132124e+02 1.9601973352795e+04 8.8362052059850e+01 2.1076915167162e-03
106 -1.0057687571327e+03 1.6864350693211e+04 -1.0794736336840e+02 1.9541153192490e-03
107 -3.4351215125183e+02 2.0150836561188e+04 8.1164040702818e+01 1.3091123042033e-03
108 -1.3243129465359e+02 2.0087213077315e+04 1.0173125093829e+02 6.0219103782378e-04
109 -8.9071010330695e+00 2.1476546578222e+04 8.0111545166334e+01 4.2986358032925e-04
110 -1.0485244565988e+03 2.2608109524566e+04 8.4998949005713e+01 1.3819648368564e-03
111 -1.2728483959522e+03 2.0454796669349e+04 9.6116817438990e+01 1.8354925317483e-03
112 -9.4858623433807e+02 2.0589436455230e+04 1.0964009875058e+02 2.1857583966265e-03
113 -9.4376465061678e+02 2.0622212559886e+04 1.0648507816519e+02 1.8021122741287e-03
114 -8.8842238729257e+02 2.0032480490159e+04 9.4791994195290e+01 2.0613564782570e-03
115 -1.1172410816964e+03 2.0918103214741e+04 9.2972690051410e+01 2.9323533118178e-03
116 -1.1015323764376e+03 1.8557249787050e+04 8.6563980532021e+01 3.2966820615276e-03
117 -7.7910015672525e+02 1.9343859251263e+04 8.8245942092001e+01 2.1642882609643e-03
118 -7.1685551266570e+02 1.8551498317396e+04 8.2993877148323e+01 2.1266165371578e-03
119 -8.7969469126283e+02 1.6116593801024e+04 8.7216806775466e+01 2.8330442875583e-03
120 -5.9754648524801e+02 1.7871426191739e+04 8.8939313987746e+01 3.2429794308170e-03
121 -6.4080468037407e+02 1.5832809795737e+04 8.7554411624206e+01 2.0593533717962e-03
122 -6.0910013216601e+02 1.4995495906607e+04 8.0183301824227e+01 1.8613590123834e-03
123 -7.1031228537555e+02 1.5184188983348e+04 9.0943727537175e+01 3.5564388252109e-03
124 -5.0084292491795e+02 1.2760213757879e+04 -8.5356703791667e+01 2.5833518755084e-03
125 -4.3311008561798e+02 1.4754370378820e+04 8.8739454617790e+01 2.1248889982121e-03
126 -4.7246968733096e+02 1.3466358011729e+04 8.9403757892983e+01 2.7840466557570e-03
127 -1.9560462393455e+02 1.4414869426338e+04 9.0490253989635e+01 2.3095705663548e-03
128 -2.5778839160766e+02 1.5048033820731e+04 7.9490587506233e+01 1.9807623966704e-03
129 -1.6701416012159e+02 1.6902449057132e+04 7.9146368466061e+01 1.3665216704535e-03
130 1.9310834458684e+01 1.4491776637139e+04 8.8075427194267e+01 4.6944615396484e-03
131 -1.4475409114796e+02 1.4275250621376e+04 9.1522867513822e+01 3.8345274388858e-03
132 -1.0081857349252e+03 2.3065553534920e+04 8.7124980743235e+01 3.3814954197403e-03
133 -9.9269075408306e+02 2.1211690079643e+04 4.7181738553411e+01 1.8418349573017e-03
134 -1.0085857937047e+03 2.2511722181909e+04 8.8441994282891e+01 4.5630385427964e-03
135 -1.1027994467209e+03 2.1426918872889e+04 9.4473852693709e+01 2.3880055199993e-03
136 -6.8734345324514e+02 1.8767605767461e+04 -8.7445503264306e+01 1.8600625713892e-03
137 -9.0614487653523e+02 1.9700777227471e+04 -9.3045723509532e+01 2.0978259808359e-03
138 -1.4170003901401e+03 2.3186797038418e+04 9.3195372512199e+01 2.5468483796120e-03
139 -1.4665848566702e+03 2.3078199421008e+04 1.0562932773039e+02 2.4627426270186e-03
140 -1.5675582420673e+03 2.3196674418935e+04 1.1491903038650e+02 2.1309549565311e-03
141 -7.8669479346216e+02 2.6546839437895e+04 8.7136313252984e+01 5.3681722008564e-04
142 -1.2041399178428e+03 2.2831034579613e+04 6.0444708500087e+01 2.0343350412072e-03
143 -1.2767092933979e+03 2.1151279934774e+04 -6.1692344406629e+01 2.5978609382244e-03
144 -1.1751419734917e+03 2.2172235928231e+04 8.2269599330130e+01 2.4397166849902e-03
145 -1.4988908195080e+03 2.1274147399546e+04 1.2065754788103e+02 2.8094122878368e-03
146 -1.2118721353653e+03 2.2942925017716e+04 8.7707844179133e+01 4.7265202169334e-03
147 -1.4800510800032e+03 2.2690840782210e+04 -9.0694832009438e+01 2.0278319033039e-03
148 -1.3630820670072e+03 2.3873186956582e+04 8.0130748991923e+01 1.8711262278361e-03
149 -1.1924473026184e+03 2.3646509761199e+04 8.9425221138105e+01 1.1578754538692e-03
150 -1.1947471542614e+03 2.3745155796462e+04 8.1267910992121e+01 2.1984485740736e-03
151 -1.0805749921080e+03 2.1966095422736e+04 8.4130163923652e+01 2.1376395906506e-03
152 -1.1563737654192e+03 2.0973840426176e+04 -9.3421996767017e+01 2.5986610421392e-03
153 -1.2447855289072e+03 1.7083717355822e+04 -9.5282254367878e+01 2.4024868698471e-03
154 -9.3373005048673e+02 1.8423762143464e+04 7.4779294783787e+01 1.8635073659083e-03
155 -1.0205797629973e+03 1.8677851994938e+04 8.2728371582994e+01 2.1056798509531e-03
156 -5.6985843690824e+02 2.1592141796224e+04 7.7606749654011e+01 1.4263886099564e-03
157 -2.5925977211959e+02 2.3791323693956e+04 8.7118585570506e+01 7.4369971804488e-04
158 1.5009847270881e+02 1.7824560182104e+04 -7.2336270718768e+01 9.6087909631157e-04
159 -3.3080491251746e+02 1.6509859707278e+04 5.5729447534658e+01 1.4658652828291e-03
160 -3.8503891338708e+02 1.8186548907286e+04 8.9963432102905e+01 1.5222564676264e-03
161 -3.3716802500970e+02 1.7239496393091e+04 5.7499750308298e+01 1.3664992850064e-03
162 -3.4003800156846e+02 1.6091017796247e+04 -5.5047889141509e+01 1.6499860553644e-03
163 -6.3392836120406e+00 1.8897380975262e+04 9.1977906245594e+01 4.3535326305525e-03
164 -2.8398406383119e+02 1.9627609281221e+04 1.0781652051255e+02 1.0640933560192e-03
165 -3.6543667523380e+02 2.3617030636786e+04 9.1831676835067e+01 3.9539735733529e-03
166 -1.3118080850779e+03 2.2203398458498e+04 9.4542140895161e+01 9.4156356251318e-04
167 -1.1162261136134e+03 2.1542341688890e+04 8.1363113426532e+01 1.4963525258529e-03
168 -9.3450027301519e+02 2.1703565401247e+04 8.2995216387320e+01 1.9534447383725e-03
169 -3.4624908353822e+02 2.1895295406567e+04 9.0923139749159e+01 1.8397233231985e-03
170 -6.4930050740073e+02 2.3741256754710e+04 -9.0967028862185e+01 9.5811087737488e-04
171 -4.3711707423077e+02 2.6361684092901e+04 8.8535647594339e+01 6.8642636814231e-04
172 8.9517383261774e+01 1.7845684701708e+04 2.9944627814050e+01 5.2708131060984e-04
173 1.2113201410726e+02 1.3891371192722e+04 1.2337748266876e+02 1.1277125355533e-03
174 -1.2120147014920e+03 2.5511597529477e+04 9.1013562648301e+01 1.3597774929818e-03
175 -1.0362418478360e+03 2.5135923794506e+04 6.7649127660784e+01 1.6838478218558e-03
176 -1.2643938030999e+03 2.4834293191719e+04 8.9137571296987e+01 2.8470242922640e-03
177 1.3963936852850e+02 1.7042661104259e+04 9.0752742778572e+01 1.6091264731657e-03
178 -1.3916639291352e+02 1.5242514300389e+04 5.4530322737644e+01 1.6727730017685e-03
179 -1.6010453704882e+02 1.3601789171651e+04 -9.1156381883586e+01 2.0738432850039e-03
180 -7.4051730446806e+02 1.4590159275411e+04 9.6033747509349e+01 2.4474532216912e-03
181 -4.0724806218664e+02 1.5143455421113e+04 8.4546236143864e+01 1.5097836019331e-03
182 -1.4120672543892e+02 1.6019717055722e+04 9.2571001256534e+01 1.5577510865727e-03
183 -2.4442169513549e+02 2.0426280399063e+04 9.0896968345702e+01 2.0310162550225e-03
184 -2.8142765589017e+02 1.6812289755291e+04 8.9729152182953e+01 1.6922010775163e-03
185 -2.2012377087870e+02 1.6198323059649e+04 8.5815134187634e+01 1.5973509784619e-03
186 1.0449992137391e+02 1.3762088427324e+04 7.7415951570124e+01 1.4225398863991e-03
187 4.8586997087213e+01 1.1710135971137e+04 8.4865972113316e+01 1.7220263905891e-03
188 -8.7974988853162e+01 1.2425080897996e+04 9.5940696151820e+01 9.9224253682111e-04
189 -3.6906904660247e+02 1.9787888792591e+04 6.0845004446654e+01 6.9558011474908e-04
190 -7.6931675434290e+02 2.1153218328245e+04 9.5541476876354e+01 8.6574838837102e-04
191 -5.5481615251579e+02 1.9279476543623e+04 9.1554456428575e+01 4.2359450498781e-03
192 -9.6523798957341e+02 1.8383379414812e+04 1.0958105261472e+02 2.5585797307813e-03
193 -5.5991322243811e+02 1.9626992064517e+04 8.6897213512206e+01 1.7327453556768e-03
194 -4.8938821658709e+02 1.9705165404859e+04 8.3976548139703e+01 1.5929123817375e-03
195 -1.1748455469906e+03 1.7623461421628e+04 9.4230177970254e+01 2.4923532512474e-03
196 -6.4342680553115e+02 2.0241668482870e+04 9.0542643144647e+01 1.5267440856475e-03
197 7.2352170337470e+01 1.8784517433261e+04 9.4478293867870e+01 9.5303406392390e-04
198 -4.8766452477252e+02 1.6599178649390e+04 -8.1436060424538e+01 1.2660231264111e-03
199 -6.0052278807121e+02 1.8591587499831e+04 8.3259368739334e+01 9.9802916190869e-04
200 -4.8069337330831e+02 1.8579187856135e+04 5.9621538352628e+01 1.5518865674705e-03
201 -7.5518872034652e+01 1.6784962255348e+04 -1.2558658185807e+02 1.4012945754000e-03
202 -9.0639077354002e+01 2.2217887576595e+04 8.8500426732123e+01 3.3557904898361e-03
203 1.3915615790508e+02 2.1590788684333e+04 6.1849421253114e+01 6.3886199087417e-04
204 -7.1101686189123e+02 2.2483514205550e+04 8.9809302533267e+01 1.6613199346315e-03
205 -6.0671126425765e+02 1.9847730652307e+04 8.3045245755583e+01 1.4638257860468e-03
206 -1.0045755777356e+03 2.0701245607332e+04 9.6854325020496e+01 2.0866540707008e-03
207 -8.2015369979499e+02 2.1525777045363e+04 9.6107519093765e+01 1.7858649691645e-03
208 -7.4620557845525e+02 2.5259065225451e+04 9.4582529271192e+01 1.1786177733236e-03
209 -7.1318205937304e+02 2.5852133554723e+04 9.1365534868310e+01 3.3071964175915e-03
210 -8.9115386647699e+02 2.3572175304532e+04 1.0007128802482e+02 1.6675627028563e-03
211 -8.9066075571719e+02 2.3520157145602e+04 8.8817335514963e+01 1.3535558625279e-03
212 -4.8477088833466e+02 2.1176044632828e+04 -6.1704457627144e+01 1.3010229975719e-03
213 -1.0524977468728e+03 2.1891479471908e+04 1.0257059414451e+02 2.2512873012213e-03
214 -8.8638972025427e+02 2.1247406183301e+04 9.8752829858183e+01 1.9048567063709e-03
215 -1.0822085037232e+03 2.2177234420330e+04 1.0108401065666e+02 2.1539461269172e-03
216 -1.5474761240164e+03 2.2539325339127e+04 9.0317876295472e+01 2.3540568259237e-03
217 -1.2138211239693e+03 2.2852724428021e+04 -8.7992102273430e+01 2.1896200629074e-03
218 -1.3448401291640e+03 2.4221286132953e+04 9.5820433406753e+01 2.3561474612982e-03
219 -1.1584848060132e+03 2.3852436916100e+04 8.6081440075186e+01 1.9795267102565e-03
220 -2.5124744496778e+02 2.1944072500834e+04 -7.2617692541087e+01 9.7760182024043e-04
221 -1.2499289819541e+03 2.3645082429388e+04 9.1505096501782e+01 4.8995006228056e-03
222 -1.0572845621443e+03 2.0976106538687e+04 5.1513320594956e+01 2.0199261634673e-03
223 -1.0396527331193e+03 2.3588142708186e+04 9.2789885316548e+01 3.3035069685395e-03
224 -9.9972415444704e+02 2.2578461287272e+04 7.5163208949904e+01 7.0993447553876e-04
225 -1.3511177342247e+03 2.5499795993934e+04 8.7804160680177e+01 1.7048727670242e-03
226 -7.3072236718489e+02 2.3528303969353e+04 8.1347023132106e+01 1.4160732225152e-03
227 -5.2596597875623e+02 2.4354007136883e+04 7.7850741708865e+01 1.0321406379215e-03
228 -1.2625357755614e+03 2.1709781772536e+04 9.8774484285526e+01 2.3656449815612e-03
229 -2.6595578377228e+02 2.1381050617169e+04 8.4561216658463e+01 8.2443004844329e-04
230 -5.2133643831842e+02 2.0930263728227e+04 9.3653905932512e+01 1.4766157997326e-03
231 -5.0569515047276e+02 2.1485177114081e+04 7.6523182174604e+01 8.1079398287408e-04
232 -4.4660126998642e+02 1.8798978576115e+04 9.3423757580416e+01 1.7068687999336e-03
233 -9.6708980039305e+02 2.0185211362269e+04 7.3885312348008e+01 1.8922216602032e-03
234 -9.5213226187779e+02 2.2561079819741e+04 8.1027676125498e+01 1.9099243923600e-03
235 -1.0419843678731e+03 2.2399998836632e+04 8.4685949550790e+01 1.9874529874054e-03
236 -1.1352762332480e+03 2.1992274172545e+04 9.0091106062793e+01 2.1474267766374e-03
237 -1.0450169065926e+03 1.7180450029870e+04 9.2937008785690e+01 4.0027643187203e-03
238 -7.8403064479130e+02 1.6648155354984e+04 -4.9179091766952e+01 1.9491277383731e-03
239 -8.0336827237608e+02 2.0914863122752e+04 6.2593601526481e+01 1.1330462353893e-03
240 -9.5544193159799e+02 2.1410845247705e+04 9.1835604213850e+01 1.6867177874367e-03
241 -2.9701416177477e+02 1.4812753848553e+04 7.2315643027150e+01 5.5249423497897e-04
242 -7.4730047933868e+02 2.1288207463747e+04 8.7873713447455e+01 4.8705745779774e-03
243 -7.4932062456621e+02 2.2722790816849e+04 9.2050534295890e+01 4.8361772803010e-03
244 -6.0362525360969e+02 2.0001173033058e+04 8.5712554284270e+01 1.7174717170308e-03
245 -5.0835860770817e+02 2.0933212801802e+04 8.6792846283703e+01 1.1737211920579e-03
246 -1.1904387063787e+03 1.6211857577383e+04 9.3354553679535e+01 1.9693231217612e-03
247 -9.1294306131484e+02 1.9206012489872e+04 8.4669239921232e+01 5.4473573528259e-04
248 -7.0548165582295e+02 1.9458018353586e+04 9.0293539272437e+01 2.0727722410485e-03
249 -6.6049829795311e+02 1.9518754633884e+04 8.8624320981167e+01 1.8839529568478e-03
250 -9.1590997437605e+02 1.8780730767696e+04 8.6930832751562e+01 3.0097300278886e-03
251 -1.0114751101800e+03 1.7699281022502e+04 9.8927009518633e+01 2.7217963988790e-03
252 -1.5324065925141e+03 1.9460513007852e+04 8.0057246434160e+01 3.2027907634906e-03
253 -1.7796268301634e+03 1.9214134098315e+04 9.3488756656133e+01 3.6355945723307e-03
254 -1.3566323993892e+03 1.9757810480902e+04 7.9294324873041e+01 2.9717526626254e-03
255 -1.6430169915328e+03 2.0225481384370e+04 9.4164651368600e+01 3.2781389679984e-03
256 -1.6086216260446e+03 2.0159686552746e+04 9.1798044948618e+01 3.1576124120574e-03
257 -9.2720293505544e+02 1.7679371345920e+04 9.0557672448051e+01 3.0788409200546e-03
258 -1.2042492633378e+03 2.0374127362648e+04 9.0066811727560e+01 1.8906318617496e-03
259 -1.3150838981168e+03 1.8313983288534e+04 1.0982842127380e+02 2.7352770984766e-03
260 -1.1160854367683e+03 1.9539090134414e+04 8.6934340741471e+01 2.9956047271675e-03
261 -1.2642626928979e+03 1.8261977711218e+04 1.0359542658586e+02 2.1361202846898e-03
262 -1.2755797832827e+03 1.8135867729336e+04 -8.8375403331454e+01 3.1177213070076e-03
263 -1.0426219745757e+03 1.7501003301293e+04 9.7520174339801e+01 2.8230914173549e-03
264 -7.0941412823893e+02 1.6370997923371e+04 -6.6849511779854e+01 2.2682958699559e-03
265 -8.6872996599331e+02 1.9266457471948e+04 9.0122438727055e+01 2.4838356311954e-03
266 -6.6068380920668e+02 1.7754786809683e+04 6.0683565159888e+01 2.2436147741175e-03
267 -6.9205736138731e+02 1.6609247446009e+04 -7.0603021228699e+01 2.4808889619531e-03
268 -9.9009253338279e+02 1.8986923765328e+04 9.2086442139596e+01 2.6394011104549e-03
269 -5.8230417795350e+02 2.3688545920315e+04 9.3577100007001e+01 1.4457276366333e-03
270 -6.4337096904889e+02 2.3088727860218e+04 1.1806876823709e+02 1.3388259061091e-03
271 -1.3273847519693e+03 2.2148945216257e+04 7.8253515209227e+01 2.6421243753336e-03
272 -1.4802335270314e+03 2.3530174942385e+04 8.9654151877153e+01 2.9337566810014e-03
273 -1.6310606484307e+03 2.0501649627951e+04 -1.1014472967047e+02 2.9396957709644e-03
274 -1.3936086652459e+03 2.1577335988246e+04 9.1267777950141e+01 1.1124264746227e-03
275 -1.7359381493987e+03 2.2795560197583e+04 8.1203393116286e+01 3.1336514943850e-03
276 -1.8443086280049e+03 2.3678453979980e+04 9.1056224313487e+01 3.1089738615996e-03
277 -2.0374273471234e+03 2.2243002524128e+04 -1.1285877556105e+02 3.3223029567160e-03
278 -1.6690764318051e+03 2.2938882815117e+04 5.9344567820502e+01 3.0698187530807e-03
279 -1.9100383373255e+03 2.5183885694549e+04 9.5968857180392e+01 2.4684513814507e-03
280 -1.5950220240850e+03 2.2463545727054e+04 9.1165100025236e+01 2.2413749172297e-03
281 -1.4661341411024e+03 2.1216365147122e+04 -8.1364074781674e+01 1.3134921830398e-03
282 -1.3014426798654e+03 2.1650157872665e+04 7.6978252302126e+01 2.7334469713020e-03
283 -1.5480353169471e+03 2.4145496985796e+04 7.1482189431225e+01 2.7483779219619e-03
284 -1.6629392626667e+03 2.4124347243433e+04 9.8661873015781e+01 2.9227943629492e-03
285 -1.7530095323158e+03 2.1951021235408e+04 8.1043873180425e+01 2.7230796465004e-03
286 -1.6636133905111e+03 2.4549560873146e+04 1.0429509741498e+02 1.8810055246704e-03
287 -1.5395470557295e+03 2.3872856349377e+04 9.7592956584916e+01 2.7678319043851e-03
288 -1.5194113709157e+03 2.5597089002477e+04 8.1023108662123e+01 2.3827314233741e-03
289 -1.5293070111346e+03 2.5178941119694e+04 7.5930978478167e+01 2.3419589310537e-03
290 -1.8057723578811e+03 2.5637999443370e+04 9.6667918787668e+01 2.8338315269864e-03
291 -1.7335984755248e+03 2.4031238856376e+04 -1.2290629849473e+02 3.0285105068894e-03
292 -1.8132391863281e+03 2.5149901551879e+04 9.6354894218638e+01 2.7166935119666e-03
293 -1.6720882482004e+03 2.5634961794564e+04 9.7027568542900e+01 2.6319791237329e-03
294 -1.7298969139203e+03 2.3242684511176e+04 9.4986738967165e+01 3.1047950961723e-03
295 -1.5712289092612e+03 2.4082770113021e+04 8.5024005592984e+01 2.7447127955581e-03
296 -1.6260894451729e+03 2.5014875702384e+04 8.9679025200090e+01 2.9193865570894e-03
297 -1.6360267053499e+03 2.0857179181789e+04 8.9301884504529e+01 3.0538965617729e-03
298 -1.4485425518565e+03 2.0324493192543e+04 5.3855065462185e+01 3.0841581734984e-03
299 -1.3911041361814e+03 2.3209685866329e+04 8.7122222621903e+01 2.6414835244439e-03
300 -1.6206267602758e+03 2.1415082168375e+04 6.8512010510532e+01 3.0009820865034e-03
301 -1.7334101603465e+03 2.1933332930268e+04 8.6105145403706e+01 3.0969326288731e-03
302 -6.0524584443271e+02 1.9443973299414e+04 2.6757271311565e+01 1.2168410821111e-03
303 -1.0625513774513e+03 2.3690837603223e+04 -3.4040314940933e+01 1.7303649005652e-03
304 -5.8543804429614e+02 2.2265626191695e+04 8.1509915184062e+01 1.2802498967200e-03
305 -3.1258955407842e+02 2.2310708701046e+04 9.6135501015721e+01 9.6483779152402e-04
306 -3.3627753392007e+02 2.1061948188051e+04 9.7344842479101e+01 1.1732521391931e-03
307 2.2304456446684e+02 1.5628736083476e+04 8.3813659837683e+01 8.9219241627776e-04
308 4.5829205860474e+02 1.4435608316882e+04 6.6128579887022e+01 9.7164436436571e-04
309 -1.2691423389619e+02 1.6838468032042e+04 6.4328223932440e+01 1.1212239300915e-03
310 -4.9175578615990e+02 1.9284348531507e+04 9.2789425758047e+01 1.4727708610442e-03
311 -4.2865716617993e+02 1.8744673398055e+04 7.9105104939878e+01 1.6122920364156e-03
312 3.7843508748755e+01 2.0135973462415e+04 9.0281983872754e+01 8.2450359119646e-04
313 -6.9184361404454e+02 2.3792527535857e+04 8.1941316323867e+01 1.2587039664957e-03
314 3.5358993586473e+02 1.6573906950737e+04 9.0450814369820e+01 6.0717911196289e-04
315 4.5081049330166e+02 2.3449753206192e+04 9.2747020269811e+01 2.2726760189801e-03
316 2.3537531583658e+02 1.6968664503136e+04 9.5645835471138e+01 9.3245254975552e-04
317 -8.6942384068540e+02 2.4722095455060e+04 9.1585132820362e+01 4.2684250912651e-03
318 -8.5381067084721e+02 2.3797947852782e+04 4.7504991062239e+01 1.5865921011653e-03
319 -1.1176138876240e+03 2.1154594336371e+04 9.2011930274924e+01 5.0553276172830e-03
320 -1.1547197449186e+03 2.4659629508332e+04 9.4503474304493e+01 7.8773881732680e-04
321 -8.4090263099244e+02 1.9167876118164e+04 8.6904492202423e+01 2.3436268453662e-03
322 -1.0276209089206e+03 1.9381635417738e+04 9.7661461955499e+01 1.5526092027806e-03
323 -4.8378620213760e+02 1.9767798657259e+04 9.3051795760191e+01 2.5571244671088e-03
324 -6.7284176406066e+02 1.5859217122268e+04 9.9162105752119e+01 2.5872926793248e-03
325 -7.4670663957785e+02 1.7839715250330e+04 9.3346867680570e+01 2.5089920357206e-03
326 -1.3257879823246e+03 2.1508255438661e+04 8.9518279235868e+01 2.7209412279579e-03
327 -1.3838558926415e+03 1.9790709264893e+04 -9.2373284961252e+01 2.9773041232248e-03
328 -1.4451725360132e+03 2.2450869671242e+04 9.2540155585786e+01 2.8397208110990e-03
329 -1.3702742878082e+03 2.2593345685590e+04 8.4016557227798e+01 2.6868424160981e-03
330 -1.2139930459397e+03 1.9346389678582e+04 9.6233854363952e+01 2.7481021327371e-03
331 -1.2170249064684e+03 1.9290786767872e+04 9.6663026868036e+01 2.9103385294739e-03
332 -8.8266624905064e+02 2.0850714437273e+04 8.9551436286665e+01 2.0736884581320e-03
333 -1.0134740286031e+03 2.0116715187074e+04 9.4012464152807e+01 2.5287898051913e-03
334 -9.3707161009388e+02 2.0084809108130e+04 8.6741760423306e+01 3.0402553012003e-03
335 -1.0055094359652e+03 2.0174503670514e+04 9.1450768094193e+01 4.9306012933273e-03
336 -7.0578034567125e+02 1.8648960216563e+04 7.8745966353799e+01 2.0258326498117e-03
337 -8.6355598610664e+02 2.2052303015675e+04 9.8234253473201e+01 1.8610859239379e-03
338 -8.4910751233590e+02 2.2209986174286e+04 1.0170986075252e+02 1.6376704308008e-03
339 -9.4639014238817e+02 2.3203801157333e+04 9.3187322697939e+01 2.6103600162078e-03
340 -1.6549648488397e+02 1.6201085368286e+04 -8.5692459019988e+01 1.2398436468965e-03
341 7.9489019419667e+01 1.7794030291427e+04 7.8210091278703e+01 8.6692195114897e-04
342 -4.7631246543836e+01 1.6283054870942e+04 -5.8038198698289e+01 1.4275621044750e-03
343 -6.4496491025278e+02 2.0244000882966e+04 -7.9112205904282e+01 1.8102895427074e-03
344 -1.1751042707769e+03 2.0930057801685e+04 -9.1718552143450e+01 2.4935917443213e-03
345 -1.1631137133850e+03 2.2288828037562e+04 9.5606721016125e+01 2.3047407455407e-03
346 -1.0606478205578e+03 2.1839914977455e+04 -1.0855132613635e+02 2.1061921363126e-03
347 -8.9252974043219e+02 2.1872878416343e+04 -7.3695706484730e+01 1.3238222698565e-03
348 -4.1325524528317e+02 2.5109941439958e+04 7.9433646350160e+01 8.1609810471605e-04
349 -6.3004277804576e+02 2.3138580959102e+04 -9.0461048517680e+01 1.2537097559602e-03
350 -6.9124060795293e+02 2.4605850732125e+04 9.3940745885967e+01 1.1060672562867e-03
351 -5.5634241684848e+02 2.4895566285564e+04 8.9194993132426e+01 8.8131935941825e-04
352 -8.0565950033956e+02 2.1120971188063e+04 -8.9753226299756e+01 1.6605547748806e-03
353 -5.0340804100604e+02 1.7899993883679e+04 5.8507995097121e+01 1.9353921560316e-03
354 -3.8646150784760e+02 2.3056917828940e+04 8.9265995510535e+01 1.5800100793806e-03
355 -1.4928850055809e+02 2.0438523334947e+04 8.5807591067689e+01 1.0214447585310e-03
356 -3.5654784007901e+02 1.8595087744565e+04 -4.8182579803383e+01 1.5059494840462e-03
357 -4.0126225027674e+02 2.3644883374188e+04 9.3605361629798e+01 1.2122311965446e-03
358 -7.1249692004637e+02 1.7751783513059e+04 -1.0135180119567e+02 1.9583214423325e-03
359 -6.3231378126256e+02 1.9666256658374e+04 9.0198816375188e+01 1.8830449857830e-03
360 -4.8622630294758e+02 1.9828756885160e+04 9.1749504530298e+01 1.1481505714102e-03
361 -3.8594404549428e+02 1.9765065087989e+04 8.4908557811579e+01 1.2954743912681e-03
362 -7.5254352746324e+02 1.8126109921226e+04 8.4573642025256e+01 1.6532135471233e-03
363 -5.5098324035303e+02 1.9612738864835e+04 2.7825598169481e+00 1.7395157640265e-03
364 -1.1207060692834e+03 2.0753385440312e+04 9.0018432653681e+01 2.1245429319187e-03
365 -9.8759113044049e+02 2.0090132462038e+04 7.3731773351146e+01 2.3700816997605e-03
366 1.2870882511163e+02 1.3322152594270e+04 9.6931596011139e+01 1.5502446267443e-03
367 2.3565017202475e+02 2.3433151600261e+04 -7.1493208735584e+01 4.2749993025816e-04
368 1.0725066334264e+02 2.3364235249712e+04 -5.4335271307895e+01 5.2967304255538e-04
369 -8.6850887582267e+02 2.5892696683661e+04 9.1337230690858e+01 3.4306381133379e-03
370 -8.2422062176200e+02 2.5225286971366e+04 9.0287920344615e+01 1.1181552849393e-03
371 -7.8948614983583e+02 2.1203477632020e+04 8.8402083455392e+01 1.9084010222304e-03
372 -7.3147156263540e+02 1.9356403165741e+04 4.4907290297256e+01 2.1167569944671e-03
373 -7.8281854367963e+02 2.1577466132253e+04 8.8448518001276e+01 1.7897324034960e-03
374 -4.6980501278701e+02 1.8633943403766e+04 -3.3639741006589e+00 1.7690131794194e-03
375 -3.7441371416341e+02 2.1459148759595e+04 9.2179027963188e+01 4.3957591788767e-03
376 -3.5431454049450e+02 1.9853793321745e+04 -9.4245634222695e+01 1.3661254809371e-03
377 -6.1814855496495e+02 1.8879229885270e+04 8.8117131423732e+01 1.9591951374834e-03
378 -8.3593292750871e+02 2.2031975539905e+04 9.7979361949535e+01 1.7309988583499e-03
379 -1.0137070250485e+03 2.2646188432942e+04 9.3148107158317e+01 2.5652112879603e-03
380 -1.0080893195024e+03 2.2503070546224e+04 9.3239784299863e+01 1.7661503100166e-03
381 -1.1700249698696e+03 1.7856538487389e+04 9.6102003029588e+01 2.9189937157287e-03
382 -1.0356691470502e+03 1.7328024270725e+04 8.9503405061145e+01 3.1340871314991e-03
383 -1.0522360881921e+03 1.8310225729113e+04 9.0187658205681e+01 2.9563700197163e-03
384 -8.4786432972713e+02 1.9753764288766e+04 8.1827791349681e+01 2.2606452925358e-03
385 -6.6181527522347e+02 1.9861438661990e+04 8.2768150117939e+01 9.0540059701947e-04
386 -9.4555982936944e+02 1.9785827058662e+04 9.0570551239365e+01 2.4219482739638e-03
387 -5.0908430180239e+02 1.6901642545849e+04 1.2719696192086e+02 1.5778030496227e-03
388 -3.5390990273435e+02 1.5381748443931e+04 -5.6961943938587e+01 2.0913254660167e-03
389 -6.8567154437009e+02 1.6942799208761e+04 9.3367996008820e+01 2.9653136300390e-03
390 -5.5237335051627e+02 1.5425278775866e+04 -8.3113980841924e+01 2.4608266323180e-03
391 -5.4723728822889e+01 1.5502341529180e+04 -9.3096981184829e+01 1.5742093739226e-03
392 3.2007789916092e+02 1.6618049535743e+04 9.7263256237043e+01 6.2631116279408e-04
393 5.1828664479997e+02 1.0407018722471e+04 8.1761217369646e+01 1.1297862693683e-03
394 -1.0075388189694e+03 1.7583346791723e+04 1.2036785814526e+02 7.8692019314248e-04
395 -4.9927790354934e+02 2.1996381915773e+04 8.1012767339885e+01 1.3009359097266e-03
396 -8.8813518019507e+02 1.9680195827839e+04 1.0916671587846e+02 2.2098073648059e-03
397 -1.1325873711100e+03 2.1184839790828e+04 6.4539222823585e+01 1.7420020481541e-03
398 -4.5570265705621e+02 1.6520031908020e+04 -8.5655822446707e+01 1.7370820090895e-03
399 1.0581012294069e+02 1.5008317897395e+04 7.8989801120396e+01 6.3987515346488e-04
400 -1.0826974602147e+03 2.1983741602310e+04 9.4396615536681e+01 6.2465615441396e-04
401 -5.3643248462991e+02 2.1236995918698e+04 8.8207583584518e+01 1.2025709517745e-03
402 -5.1792252827040e+02 1.9390256489301e+04 -8.2620103073770e+01 1.4485059569155e-03
403 -7.3750269001073e+02 1.6864913123253e+04 9.2723117179446e+01 4.3885980862636e-03
404 -5.9628592815808e+02 1.7277848816670e+04 8.0435105330597e+01 2.2366879106045e-03
405 -9.1237015832864e+02 2.1761785471063e+04 8.4268028437707e+01 1.9315098946037e-03
406 -8.0555070226635e+02 2.0575992945205e+04 8.9448458529594e+01 2.4399014557067e-03
407 -5.6144726561512e+02 1.7469285054702e+04 9.2042560152242e+01 5.2745357063746e-03
408 -6.4516613764176e+02 1.7233126990611e+04 9.1994128346073e+01 1.3782515482787e-03
409 -5.7673553283346e+02 2.1128807578761e+04 9.5034000472239e+01 1.2658236587946e-03
410 -1.5287197978550e+03 3.0047348290102e+04 8.4244722698144e+01 1.7564091660959e-03
411 -1.9948802470859e+03 2.5508052024116e+04 8.5000574152404e+01 2.7615760026124e-03
412 -1.8788629286915e+03 2.6799940450441e+04 7.2837872718273e+01 1.7073253539354e-03
413 -1.7688820953089e+03 2.7675310049575e+04 8.1318977767504e+01 1.2398028882471e-03
414 -1.4774935523062e+03 2.9550830861584e+04 -2.5825027132907e+01 1.4911180750130e-03
415 -1.7228262304686e+03 2.6642457859737e+04 1.0546782911392e+02 1.7603216146202e-03
416 -1.7915419857221e+03 2.7757387864074e+04 9.5611995494865e+01 1.1664325266373e-03
417 -1.8689521421945e+03 2.6275453607019e+04 9.6333051061875e+01 1.4148818087701e-03
418 -1.0324390697714e+03 2.5384824968407e+04 9.6989634884800e+01 8.7097669072412e-04
419 -8.5534454158342e+02 2.3113370160145e+04 -6.9710681136345e+01 1.6178063913078e-03
420 -8.2628343580595e+02 2.2550963211110e+04 8.4743813944301e+01 1.6408043059767e-03
421 3.1483145321755e+02 1.6910743520978e+04 -8.7200313027695e+01 8.6738584619753e-04
422 -2.2140138876556e+02 2.0251022325279e+04 -7.4184059711247e+01 1.1433496390673e-03
423 -1.0927784062765e+02 2.1529815206789e+04 7.4664868841643e+01 8.5300887641007e-04
424 -1.1998066188142e+02 1.9768087015353e+04 -6.1865131145599e+01 1.0683732606767e-03
425 -5.2854969971725e+02 2.1974737319562e+04 9.0524561415309e+01 1.6418451101660e-03
426 -1.7980213212748e+02 1.8502173897468e+04 8.9616401408355e+01 1.5445097067799e-03
427 -3.0373415224152e+02 1.9612720914996e+04 8.9891605502266e+01 9.7446141854558e-04
428 -2.1209319975241e+02 2.3247547395268e+04 8.8835724625783e+01 2.4219287360125e-03
429 -8.1429273242578e+02 1.8692850202267e+04 9.2247277612409e+01 5.1459488124215e-03
430 -8.9162570750016e+02 1.7537582308770e+04 1.3986234979752e+02 2.4359615603131e-03
431 -9.1993504894716e+02 1.7382459997049e+04 -1.6276184677278e+02 2.5830953538242e-03
432 -7.5435124044850e+02 1.7980972118446e+04 9.0679001042291e+01 2.1992282257646e-03
433 -1.0186303806508e+03 1.9551949789586e+04 8.4384816068747e+01 1.3299954764137e-03
434 -1.0199386199796e+03 2.0054644186155e+04 8.7276973959871e+01 3.7290434902916e-03
435 -1.0170875828520e+03 1.9279736417510e+04 7.7355448489390e+01 1.7558883149640e-03
436 -1.0118404472811e+03 1.8697253135838e+04 9.2470665304020e+01 2.5774639519281e-03
437 -9.9173980152104e+02 1.8116488615806e+04 9.2855369009377e+01 3.5158785987103e-03
438 -8.2532610053195e+02 1.6469411398229e+04 6.5949181549723e+01 1.9939218382533e-03
439 -7.0407012178928e+02 1.7342456798285e+04 8.5782846226596e+01 1.4161011756116e-03
440 -3.8575782269646e+02 1.6348385798074e+04 8.5241122619396e+01 1.2529374794407e-03
441 -5.9499396644730e+00 1.3122875768111e+04 8.9833064487438e+01 1.5053567371296e-03
442 2.3300476340179e+02 1.7679780914456e+04 7.7334233407622e+01 8.8842587505309e-04
443 1.8430432539976e+02 1.8998721286504e+04 8.9203006287725e+01 5.9085541663716e-04
444 -1.5535506741828e+02 1.4781422266449e+04 8.7513212407717e+01 4.3266827481260e-03
445 -2.9250346607226e+02 1.5532361743408e+04 -4.6376952448773e+01 1.9861827060185e-03
446 -2.6739418629489e+02 1.5563385942206e+04 -3.7059049462471e+01 1.9351988718094e-03
447 -6.2768951308860e+02 2.6389561387530e+04 9.5362315600856e+01 9.2519826950354e-04
448 -3.8224884303700e+02 2.1060444349529e+04 9.3025222804361e+01 1.1691691438312e-03
449 -1.2619952730632e+03 2.2698998834507e+04 9.6599044498362e+01 1.8592245218172e-03
450 -4.4091426626123e+02 2.3530714612495e+04 9.1300102017969e+01 1.0217598801911e-03
451 -3.5906086700431e+02 2.1267652033583e+04 2.7166567178953e+01 1.0637042794963e-03
452 -7.9661362645105e+02 2.8383605019456e+04 9.0874320450071e+01 9.0379360917087e-04
453 -7.4762398627586e+02 2.1542526516728e+04 -1.4865440095019e+02 1.1366388653510e-03
454 -6.4021045446809e+02 2.2128975650988e+04 8.9467025646201e+01 1.7677797989941e-03
455 -9.1595184354110e+02 2.2801270536981e+04 -6.0516290497476e+01 1.3669232649397e-03
456 -1.1800913376698e+03 2.3117528073928e+04 9.5567269251789e+01 1.9589909730757e-03
457 -8.7352671660886e+02 2.1752307259918e+04 9.5911516023039e+01 1.4452230375763e-03
458 -9.1652627843498e+02 2.2866128979779e+04 9.0676926528040e+01 9.7884100169517e-04
459 -1.0219642408154e+03 2.1231379767354e+04 8.9355637593945e+01 1.8497253692307e-03
460 -8.0822583384521e+02 2.1912231702592e+04 8.0205675224595e+01 1.7638513449333e-03
461 -1.4970249988051e+03 1.7062085469173e+04 8.6364250057580e+01 2.6545236425380e-03
462 -1.3623325546907e+03 1.8691248770864e+04 6.2881716371800e+01 2.6599418006269e-03
463 -1.3820750867935e+03 1.9838486780300e+04 6.4040955724256e+01 1.9024414838970e-03
464 -1.1351578469547e+03 1.6016118086495e+04 -7.6630843092978e+01 2.5305196597690e-03
465 -1.4980628675046e+03 1.9173438628243e+04 8.8239035857986e+01 1.9799272590451e-03
466 -1.6399632421565e+03 1.7829050276697e+04 5.6846312770402e+01 2.9328051499202e-03
467 -1.7419928260905e+03 1.8178988724350e+04 8.4070110900726e+01 3.1953567104937e-03
468 -1.8896549519821e+03 2.0460316708930e+04 -8.9907189861302e+01 2.8015210894658e-03
469 -1.8667316785314e+03 2.0829710623399e+04 -6.0173944829614e+01 2.5622611585000e-03
470 -1.8748272193614e+03 2.2354396030169e+04 9.2881127711305e+01 2.0663812337120e-03
471 -1.0224225823651e+03 2.1049514299779e+04 8.8540581250443e+01 1.9235112947053e-03
472 -1.2264323643880e+03 1.9484186532974e+04 1.0403759279790e+02 2.7591237899790e-03
473 -9.9288014984497e+02 1.8582815078001e+04 7.6761688796091e+01 1.6451139233286e-03
474 -1.1732525493647e+03 2.3005125602746e+04 8.8573318045024e+01 4.5840531392106e-03
475 -1.2130937328952e+03 2.3090765280697e+04 9.1221308748332e+01 3.7944296354603e-03
476 -1.4316185550585e+03 2.1955749396858e+04 -8.7614796940843e+01 2.6178656738403e-03
477 -1.2749580379467e+03 2.3340800961269e+04 -7.7771977002598e+01 1.5821075249476e-03
478 -1.4445365204442e+03 2.6209540363595e+04 9.0661348425265e+01 1.8353637308478e-03
479 -1.4498911313235e+03 2.5088865914322e+04 9.1628644545699e+01 5.0006505005297e-03
480 -1.3856145735133e+03 2.4840962451930e+04 8.7638501040834e+01 4.9814663732994e-03
481 -1.4471538099307e+03 2.4475009609719e+04 9.0556757665971e+01 2.5079133013464e-03
482 -1.5770301037482e+03 1.8435055322662e+04 9.7557130854526e+01 3.2993560028235e-03
483 -1.5378086133915e+03 1.7333934329463e+04 6.1374059450185e+01 3.3125471276201e-03
484 -1.5605853580621e+03 1.7486620107002e+04 7.9295356340862e+01 3.3173239583816e-03
485 -1.5583152674069e+03 1.7327810817808e+04 1.9285154827255e+01 1.9844451656066e-03
486 -1.9340239662812e+03 1.9738360192208e+04 9.0481021226615e+01 3.1284886985543e-03
487 -2.0436337611582e+03 1.9152787608526e+04 1.0090532787854e+02 3.1142904700698e-03
488 -1.2173713474651e+03 1.9009994990295e+04 9.0546091823992e+01 1.4389627769377e-03
489 -6.8840131425421e+02 1.5777468772440e+04 8.6048298622256e+01 1.9578276992372e-03
490 -6.9345191383583e+02 1.5455403037631e+04 8.2699433399293e+01 2.3498015965725e-03
491 -7.6923749569671e+02 1.4440027762527e+04 8.8090207030144e+01 1.8640865500542e-03
492 -9.2518218568886e+02 1.7685724184302e+04 1.0518111865772e+02 2.2956311333641e-03
493 -6.2041612074621e+02 1.7303493517197e+04 6.2910978095197e+01 2.0886427782183e-03
494 -5.6054221978701e+02 1.8932529321896e+04 9.1074363445567e+01 1.8356525689080e-03
495 -6.5481347039418e+02 2.0095690899440e+04 9.0472088825836e+01 1.5588700706165e-03
496 -8.3797332120382e+02 1.8377904354820e+04 9.0992663139726e+01 2.2493485721284e-03
497 8.3410900872095e+01 1.8089181916020e+04 7.1170127922545e+01 9.4158788621821e-04
498 -8.5190773692001e+01 1.8876642167039e+04 9.1589602900860e+01 9.6784760833823e-04
499 -1.3550072149759e+03 1.7195469067623e+04 9.9128921269931e+01 1.0043997461063e-03
