0 4.6106121995951e+02 9.4888773787354e+03 9.1152751890462e+01 1.4546247085137e-03
1 3.5431327913373e+02 1.3961667123464e+04 9.1425158337229e+01 3.2997631120017e-03
2 -6.7853264662047e+02 2.2927073804165e+04 8.5879742988285e+01 1.2281710814788e-03
3 -6.1032239544013e+02 2.4467592954871e+04 8.1128804561248e+01 8.4992598245032e-04
4 -2.1104777571231e+02 2.6339799523095e+04 8.9757320571695e+01 1.9943601517950e-03
5 -7.5007069876533e+02 2.2923876943680e+04 -8.7069333890512e+01 1.0769183344556e-03
6 -7.8338270711386e+02 2.3262483377289e+04 -9.8044699091875e+01 1.1398921872497e-03
7 -6.9833245971325e+02 2.1634338714976e+04 -7.5859364230816e+01 9.1350140201022e-04
8 -7.8292812437669e+02 2.0493436197733e+04 9.3269121740463e+01 1.2093595914493e-03
9 -5.6463499647717e+02 1.7654382713904e+04 8.1671774949137e+01 1.7521758121120e-03
10 -6.8493554436873e+02 1.7313016389872e+04 8.9136098398516e+01 4.6928773465975e-03
11 -6.0160351907664e+02 2.3546551914667e+04 9.5081340475884e+01 1.0562669286129e-03
12 -5.0763612474533e+02 2.0367759188152e+04 8.6839289231062e+01 1.3242515109595e-03
13 -7.8167604073766e+02 2.0820837635830e+04 8.6458939776226e+01 1.5456034827567e-03
14 -8.4204257553238e+02 2.1037603343776e+04 9.2290307068800e+01 1.6594331928173e-03
15 -4.1041794726651e+02 2.5113277345748e+04 9.4403237890798e+01 5.2781514399394e-04
16 -2.4562996936403e+02 2.4810915940939e+04 7.9597767712024e+01 4.8879359439313e-04
17 -1.0836789923758e+03 2.2018214558605e+04 9.9429270035159e+01 1.9730366018507e-03
18 -1.2265350793484e+03 2.0964165565273e+04 9.4138173598575e+01 2.1851237207304e-03
19 -1.2087658937923e+03 2.0230416008282e+04 -8.6065887910905e+01 2.1591877149918e-03
20 -1.2478093866139e+03 2.0460418950035e+04 -9.6073777244446e+01 2.2499335095593e-03
21 -1.2547024432351e+03 2.0689541195985e+04 1.0227299595514e+02 2.2766806841924e-03
22 -1.2809809548879e+03 2.1574829951195e+04 9.0866599929516e+01 2.3409024246270e-03
23 -5.6045509763755e+02 1.9923966180528e+04 8.9050992553981e+01 1.0539379399094e-03
24 -1.1981694826451e+03 2.0203019467665e+04 9.0437914101889e+01 2.7111016828330e-03
25 -1.0782739468799e+03 2.0758730395879e+04 -6.9585836920183e+01 1.4439172773202e-03
26 -1.2281115582714e+03 2.1546073286008e+04 9.1791787740620e+01 1.6449765807984e-03
27 -5.8084413371838e+02 2.3600166948805e+04 9.3513395541415e+01 1.0263471456958e-03
28 -4.4595445580340e+02 2.3716462522314e+04 8.5274968013396e+01 6.3028282713359e-04
29 -9.8273300122965e+01 1.5090805044948e+04 8.5453552628406e+01 8.0890076166903e-04
30 -2.2453056180881e+01 1.9407229043451e+04 9.2668382963782e+01 6.5863939648242e-04
31 5.6892489797097e+02 1.3983911408518e+04 8.3565516840906e+01 7.7859007556929e-04
32 -2.8927969007664e+02 2.2448479555108e+04 8.4219972622487e+01 8.0724080802683e-04
33 -8.2338234356981e+02 2.2593747983719e+04 8.4473543552960e+01 1.2264114377127e-03
34 -7.9828884709031e+02 2.2408966397514e+04 7.9027231463789e+01 1.1509430416690e-03
35 -3.1782617748998e+02 2.0217179197695e+04 8.8210699939654e+01 8.4068253270798e-04
36 -5.0201925899848e+02 2.1450900282005e+04 9.5139392551690e+01 5.7500309756021e-04
37 -8.8297041506371e+02 2.5818191629430e+04 -8.0707728277534e+01 7.2622496568242e-04
38 -9.4549793444315e+02 2.7485362188542e+04 9.0747719642052e+01 7.3627340188430e-04
39 -7.0327086980374e+02 2.3001647649046e+04 9.0140273085477e+01 2.4225886780905e-03
40 -8.6449981820937e+02 2.2689644057686e+04 8.7228749916770e+01 1.1183289877263e-03
41 -5.9198375017507e+02 2.3733154235785e+04 9.0276000216256e+01 2.6934084396205e-03
42 -9.1900159203748e+02 2.6985927577185e+04 8.7578624021096e+01 1.3246980704304e-03
43 -7.9130717135079e+02 2.8075639836867e+04 9.2944661089789e+01 6.6488002017707e-04
44 -4.8403368053584e+02 2.2974706463246e+04 8.9474384740174e+01 3.2427405723360e-03
45 -5.3570813556266e+02 2.3128273606069e+04 9.2821326722755e+01 1.0254056799497e-03
46 -4.7055911672816e+02 2.3309014296898e+04 8.5754322845916e+01 9.3292369790566e-04
47 -4.1645206391096e+02 2.1200111935116e+04 7.7328109477541e+01 9.6103621217827e-04
48 -6.5215613659000e+02 2.3132345758379e+04 8.8799039048023e+01 3.9061631670658e-03
49 -1.1173067361469e+03 2.0573438922936e+04 9.2389212320425e+01 2.5732678325338e-03
50 -9.2201262327890e+02 1.9221007934105e+04 8.6441039289872e+01 2.1368230553218e-03
51 -1.0943620903651e+03 1.7504594870399e+04 9.2336311761185e+01 3.0531990281189e-03
52 -1.0576501834777e+03 1.6857921902992e+04 8.9316974760187e+01 5.1536135186262e-03
53 -5.6304407075785e+02 1.9210536165877e+04 1.1017965245615e+02 1.4696531067424e-03
54 -5.7643479785779e+02 2.0216637991217e+04 9.2704888059548e+01 1.4238291063844e-03
55 -9.3115934477110e+02 2.2992263184428e+04 9.0210280133698e+01 2.8573096880671e-03
56 -9.0821444318620e+02 2.3063146810487e+04 8.8926853002963e+01 4.0637685014605e-03
57 -9.8040473632130e+02 2.2462832882169e+04 9.6910742319603e+01 1.4007849283957e-03
58 -3.8448596581868e+02 2.1613825868734e+04 9.9306688292451e+01 7.9014487907176e-04
59 -7.4885535276197e+02 1.6594044380760e+04 -6.9467306515546e+01 1.7758663575859e-03
60 -8.8380574492793e+02 1.7789074720862e+04 9.0163024876767e+01 2.4775594310026e-03
61 7.6478546756671e+01 1.7249003131870e+04 3.7663545757309e+01 9.6448369166417e-04
62 -2.9948043097765e+02 1.4319427847315e+04 8.8186856074680e+01 3.3467690743953e-03
63 -3.7457507163943e+02 1.4434357810830e+04 9.4748280890492e+01 1.9918983032141e-03
64 -2.9386322351480e+02 1.4771019403834e+04 8.8672554649101e+01 4.3549453103199e-03
65 -7.9538667877025e+01 1.4934396609239e+04 9.3721039395135e+01 1.4612386011769e-03
66 -1.9769638611198e+01 1.3501156983027e+04 8.9284849288143e+01 4.2055201886026e-03
67 -4.6282113799659e+02 1.4635630129742e+04 8.3169126874760e+01 2.0942850905720e-03
68 -4.8134745430268e+02 1.4522790582892e+04 -9.1443290799430e+01 2.0801077492878e-03
69 -5.0757708079819e+02 1.5392164716350e+04 9.1057453034590e+01 4.7886963788031e-03
70 -3.4041581441997e+02 1.3935510852701e+04 -3.1602129439936e+01 1.9359807933695e-03
71 -6.9648128868951e+01 1.6378646708665e+04 8.9578177296283e+01 1.3478911269740e-03
72 -9.2873463532759e+01 1.7411200907746e+04 9.0864657450501e+01 1.0138302467344e-03
73 -4.0231074507383e+02 1.6592061740019e+04 1.5144137998552e+02 1.4173275725844e-03
74 -4.8929257836017e+02 1.7548034950272e+04 8.9837130232359e+01 3.0303273461752e-03
75 -3.8111642598980e+02 1.8676505334304e+04 -1.5810987140057e+02 1.2458432656903e-03
76 -8.4334552018017e+01 1.9066712231945e+04 9.3422052466533e+01 6.7191752304485e-04
77 3.0770424813778e+01 1.9249761966843e+04 8.6102079769759e+01 6.1775414093436e-04
78 -2.3869614019504e+02 1.8515340966787e+04 8.3613537264317e+01 1.2036120677417e-03
79 -4.0637804124794e+02 1.8131872525915e+04 9.7553955473003e+01 1.4852134047093e-03
80 -2.9850649987364e+02 1.8266243171238e+04 8.3426487432570e+01 1.2898628362153e-03
81 -2.2021710953113e+02 1.9468987772108e+04 8.5993920688911e+01 1.0505138884443e-03
82 -4.9345401043996e+02 1.6493240109541e+04 -9.7444589595302e+01 1.8311310317538e-03
83 7.0032928599260e+02 1.4843695578053e+04 8.4086146047333e+01 5.7277409480755e-04
84 -2.7328388310103e+02 2.0369150325983e+04 8.3917906955572e+01 9.8283602251986e-04
85 -3.7650626152469e+02 2.0147310772189e+04 8.8976724637161e+01 1.1854246166946e-03
86 -6.1921715385447e+02 1.8876118605807e+04 8.8692546205447e+01 4.0329821604912e-03
87 -7.0674595860791e+02 1.7937507809482e+04 8.7480010752691e+01 1.9075868436234e-03
88 -6.3897265823354e+02 2.2318129577172e+04 9.0801568061224e+01 1.2236381580262e-03
89 -4.7670112258488e+02 2.2312472236970e+04 9.2568278435577e+01 1.2069929717546e-03
90 -4.1588635266477e+02 2.1956550195976e+04 8.8223077714590e+01 2.5148856886050e-03
91 -7.2804786799715e+02 1.9967390080625e+04 7.0870119099973e+01 1.7108144937595e-03
92 -7.9393262577429e+02 2.0244488060411e+04 9.3670765042539e+01 1.7604731538589e-03
93 -5.3226752283292e+01 2.2154977295254e+04 -1.3122532165723e+02 5.4954642272804e-04
94 7.3375397135700e+01 2.2999045380300e+04 8.5739565121097e+01 4.4512800126760e-04
95 -9.0112289393643e+02 2.3573106871312e+04 8.8393781160777e+01 1.2652239059699e-03
96 -1.2887944847931e+03 2.2154551064118e+04 5.2688750658827e+01 2.2436794722523e-03
97 -9.1450159306406e+02 2.2769641638976e+04 8.8658509110118e+01 1.5369256306234e-03
98 -9.5989413457898e+02 2.3026877344899e+04 9.0792613723436e+01 1.7412810573027e-03
99 -8.7434130302226e+02 2.3132866858811e+04 8.3982938590473e+01 7.5278621278173e-04
100 -8.2769093797751e+02 2.2259526207368e+04 8.5737502029105e+01 1.5246844890805e-03
101 -9.3202852717120e+02 2.3272170114332e+04 8.6394139445077e+01 1.1020225231902e-03
102 -9.7488808658618e+02 2.2155138733237e+04 8.8965188247890e+01 4.5471210998087e-03
103 -1.0242027147112e+03 2.1932522121128e+04 9.1604938182261e+01 3.8268147880373e-03
104 -9.9579312123440e+02 2.0876888332409e+04 8.7559745754614e+01 2.2837175631077e-03
105 -6.5957507124322e+02 2.0606831796140e+04 1.8160396297455e+01 1.3572909992021e-03
106 -5.9769996629514e+02 1.9146158416794e+04 -8.3398161863342e+01 1.6417563476445e-03
107 -7.8469418089217e+02 1.7377273029307e+04 8.1088532171314e+01 2.0337338908106e-03
108 -7.7926491022208e+02 1.7434024376928e+04 8.1386656904597e+01 1.9763467358457e-03
109 -6.5193243050299e+02 2.0187763021785e+04 8.5931155338291e+01 1.2836507572384e-03
110 -5.6090082193004e+02 1.8038439365102e+04 8.6573370329608e+01 1.2773452266205e-03
111 -4.6879162839400e+02 1.6237738016237e+04 -7.9163804695018e+01 1.6980967654420e-03
112 -5.7578334674977e+02 1.5378448807724e+04 9.1502787416337e+01 2.1552855036583e-03
113 -8.3277883053452e+02 1.8391888439515e+04 8.7802545480696e+01 1.8215179387981e-03
114 -2.9869898658511e+02 1.3499555227170e+04 -8.6933335844684e+01 1.7802403569599e-03
115 -4.6103305043202e+02 1.7330727922035e+04 9.1315484646388e+01 3.8093929223068e-03
116 -4.1540489445292e+02 1.4971164579563e+04 8.4086730445934e+01 1.4154208734656e-03
117 -3.7314666389110e+02 1.4905199905525e+04 -2.7441447789732e+01 1.3806443469811e-03
118 -2.8266186012598e+02 1.6633240032102e+04 7.7398481221056e+01 1.3991914043202e-03
119 -2.6731332291305e+02 1.9320079332626e+04 -9.5213553825812e+01 8.1305085985549e-04
120 -1.6811234648854e+02 2.1474350167489e+04 8.8493080689234e+01 2.7838261069331e-03
121 -2.0192552430272e+02 1.5916001806659e+04 9.0415530205945e+01 3.1631671968752e-03
122 -8.6638504222609e+02 2.3684027174519e+04 8.7544367464277e+01 1.6427046242603e-03
123 -1.0030060109851e+03 2.1621121767644e+04 -7.8745616475507e+01 1.8673712979681e-03
124 -1.0633408054915e+03 2.2724442214806e+04 8.8130071206300e+01 2.9597312068514e-03
125 -9.9859254385899e+02 2.3731747009049e+04 -7.4542498101029e+01 1.4188745866811e-03
126 -6.2700806196481e+02 2.1529433844498e+04 8.7627596334988e+01 1.4910826732826e-03
127 -9.3132311977585e+02 2.1182743759340e+04 3.4431424524592e+00 1.2980807755231e-03
128 -1.7439016046692e+03 2.6470674343852e+04 9.3871217194132e+01 2.3229880687658e-03
129 -1.7109567875073e+03 2.6393295996194e+04 9.1950793832191e+01 3.4380696553949e-03
130 -1.6286010949702e+03 2.4661797072648e+04 9.2594194004883e+01 1.8535658363341e-03
131 -1.3904364482076e+03 2.3323062740996e+04 -6.8146279643601e+01 1.0557783852754e-03
132 -1.4793279187356e+03 2.4573943003985e+04 8.7585940812701e+01 1.4456187834957e-03
133 -1.4030250556594e+03 2.3658818373278e+04 9.7003143531758e+01 2.1428152183977e-03
134 -1.2532172902343e+03 2.4223199648966e+04 -1.0490157713777e+02 1.5638616249181e-03
135 -1.3192002297179e+03 2.4707011517974e+04 9.2147261897279e+01 2.7003771282730e-03
136 -1.2302264427900e+03 2.4488085755541e+04 8.9160309860219e+01 4.6009675455455e-03
137 -1.1580731687498e+03 2.3156385754514e+04 8.7592105730779e+01 1.6402661286022e-03
138 -1.1649387952249e+03 2.5077480907216e+04 8.9899407684177e+01 2.9052710597905e-03
139 -1.5351819194893e+03 2.4379719404051e+04 8.7866698137284e+01 2.2446830191766e-03
140 -1.0910917168566e+03 2.3731818978754e+04 8.6646834898809e+01 1.2438146363974e-03
141 -1.3859688428957e+03 2.5078534857689e+04 9.2126936835655e+01 2.0591362130122e-03
142 -1.3859118715479e+03 2.4701659691269e+04 9.3392650377005e+01 1.1476841814561e-03
143 -1.1781353167722e+03 2.3957100205008e+04 -8.1205203374578e+01 1.8156917711227e-03
144 -1.3284527486756e+03 2.6150890163147e+04 9.0757688145979e+01 1.7946655114733e-03
145 -1.1632437204610e+03 2.3472647099045e+04 9.4059161588219e+01 1.6940548827675e-03
146 -1.1661314476822e+03 2.3501772271029e+04 9.4159628447055e+01 1.5707994349219e-03
147 -1.0651347061705e+03 2.0317841917532e+04 8.8471088930471e+01 2.1952671925933e-03
148 -1.0317424947590e+03 2.1016881099596e+04 -8.6970813246294e+01 1.9543621254910e-03
149 -1.0308925457484e+03 1.8001616556097e+04 9.2675478429969e+01 2.3341839578527e-03
150 -8.5941226657561e+02 1.9983343024955e+04 9.2803114731754e+01 1.7646980337046e-03
151 -9.9600710886857e+02 1.9363675847029e+04 -1.2190358445552e+02 1.0546450771489e-03
152 -2.3430271116653e+02 1.9943206311206e+04 9.1756708813530e+01 8.5078096224817e-04
153 -2.5351388805206e+02 1.7765491496197e+04 7.5621438736099e+01 1.1697849564878e-03
154 -3.0864769257526e+01 2.1677792356263e+04 9.0313334265050e+01 1.1111547493632e-03
155 -2.8702512555626e+02 2.7578845077360e+04 8.9630388832532e+01 8.5280267206571e-04
156 -1.0398330755871e+03 2.1933279171103e+04 -6.7073464447350e+01 8.6505270748542e-04
157 -9.4940035367402e+02 2.2816131794184e+04 3.1156076118014e+01 1.5143993277152e-03
158 -5.4465454728821e+02 2.3901759981067e+04 1.0219802508935e+02 8.2308751835186e-04
159 -1.3904145291085e+03 2.8080251614333e+04 -1.1773887384336e+02 1.4591054474524e-03
160 -1.0407316825656e+03 2.6402448784379e+04 9.4607817695455e+01 1.2760496898518e-03
161 -1.1166373041784e+03 2.5040526665246e+04 2.7936713632496e+01 1.2534840741839e-03
162 -1.4480170409443e+02 1.6089744987708e+04 1.0011860767893e+02 1.3741821331569e-03
163 -5.0937642888094e+01 1.7073782060781e+04 8.5499565606248e+01 9.9139574337996e-04
164 -5.7220958057393e+02 1.7060966033634e+04 9.4213436189609e+01 1.2808611330531e-03
165 -5.4246240654650e+02 1.7442691525136e+04 9.1432656381642e+01 3.5244128440844e-03
166 -3.1834508641796e+02 1.5666296218865e+04 -1.1434091608415e+02 1.0609806805539e-03
167 -1.3918544337334e+02 1.9461070919051e+04 9.1602717265326e+01 2.5388168207846e-03
168 -3.6994869028813e+01 1.7655679489789e+04 8.5572735219693e+01 5.4477397747624e-04
169 -1.0529948210875e+02 1.4583905159707e+04 9.2867575834770e+01 1.5413513176754e-03
170 -3.9863536869103e+02 2.1570455190485e+04 8.7739671047834e+01 1.4058351722682e-03
171 -3.3673269060552e+02 2.1829043639965e+04 8.5797513939392e+01 6.7300363652230e-04
172 -7.4528359523715e+02 1.9713131922160e+04 8.5453203366365e+01 1.6870269054422e-03
173 -5.8094844051725e+02 2.1001911034341e+04 -9.3474255780789e+01 1.2052428682515e-03
174 -6.1181767031309e+02 2.1953011477730e+04 1.0525651455466e+02 1.2547316050664e-03
175 -4.4080821142645e+02 2.1762906623036e+04 7.2323581259851e+01 1.0643832265162e-03
176 -3.9500966080312e+02 2.1756186080227e+04 9.3565136996684e+01 9.7068464469200e-04
177 -1.2391265939507e+03 1.9530066315828e+04 8.6373679106375e+01 2.0947795320868e-03
178 -4.3987858618333e+02 2.0272282657065e+04 -9.1142650629827e+01 8.4121202620857e-04
179 -1.5429656257070e+02 1.7648000867285e+04 8.4059444392348e+01 7.7832816410553e-04
180 -8.7474572898873e+01 1.9379556113978e+04 9.0880195516748e+01 9.9646116023214e-04
181 -2.0865178465986e+02 1.9472136557303e+04 1.0092291030205e+02 1.0291045125746e-03
182 -8.1770307042409e+02 2.3781454856601e+04 9.2190067412088e+01 1.2795838580245e-03
183 -6.8476337424004e+02 2.2474948383394e+04 7.2759406675772e+01 1.2754604783239e-03
184 -5.7890277464669e+02 2.7548243043983e+04 8.9036517603339e+01 3.4590969012245e-03
185 -1.0661630004220e+03 2.4548306170148e+04 9.1833271137329e+01 2.8898701809444e-03
186 -1.1639426572882e+03 2.4808857487111e+04 9.0049241977446e+01 2.5217687574713e-03
187 -1.1168161090958e+03 2.5859615470186e+04 8.7615941396833e+01 1.2193084120351e-03
188 -7.8768224811124e+02 2.2656525597151e+04 9.3579318710022e+01 1.1796383361061e-03
189 -1.0032510449539e+03 2.3171267343295e+04 -6.3505825313187e+01 1.5061101785975e-03
190 -1.1486051118444e+03 2.4702677240576e+04 8.5100427909483e+01 1.0479678256547e-03
191 -1.5311494321180e+03 2.4907859309283e+04 9.5134440825355e+01 1.4780302148552e-03
192 -1.1525549347227e+03 2.5942609399024e+04 9.4414137206255e+01 1.0814385734313e-03
193 -1.2951753633091e+03 2.5876247202931e+04 8.6673827952730e+01 1.5904219281078e-03
194 -1.1475211301507e+03 2.6596842962999e+04 9.2677310384284e+01 1.4025221025565e-03
195 -1.3766745473729e+03 2.6352725752072e+04 8.9315287697826e+01 1.9234871303293e-03
196 -1.3026526013761e+03 2.5884588380331e+04 8.6533128243094e+01 1.6745716872037e-03
197 -9.7358394511241e+02 2.0867910786758e+04 8.8127379990012e+01 1.6996787343064e-03
198 -1.3484714561534e+03 2.5843400741739e+04 8.6659067663977e+01 1.0715588791005e-03
199 -1.1989166064300e+03 2.3034538749166e+04 8.4010538156966e+01 1.6958688759314e-03
200 -1.2770057130152e+03 2.3714706464593e+04 8.9749599892350e+01 3.4651432400840e-03
201 -5.4220773709439e+02 2.3338520849450e+04 -8.9711854796982e+01 4.2825631958131e-04
202 -5.0733098074218e+02 2.0014729777363e+04 8.8906445852541e+01 4.1495631438214e-03
203 -9.9441759968344e+02 2.3855993592944e+04 8.8393131897256e+01 1.1562762416887e-03
204 -9.7914485538929e+02 2.5463069588312e+04 8.7061336519307e+01 1.0231960510570e-03
205 -1.0337502346143e+03 2.4724993429925e+04 9.1162786198260e+01 4.1840386051835e-03
206 -1.0728930882732e+03 1.8698458910326e+04 8.0258371909035e+01 2.2946532282770e-03
207 -1.1256824391153e+03 1.9775101510505e+04 -6.0020504844108e+01 2.0987195862269e-03
208 -6.1268252025525e+02 1.8483671424399e+04 -9.6747749098200e+01 1.2870449038219e-03
209 -3.0635180664793e+02 1.5408323778903e+04 9.6444720507269e+01 3.8192396064445e-04
210 -5.1829776471304e+02 2.3577446361694e+04 9.1384300740560e+01 9.3116362819063e-04
211 -5.4464061438975e+02 2.3631276955837e+04 9.2885696092003e+01 1.0567417759235e-03
212 -4.2327750502733e+02 2.3813209976180e+04 -6.9878349876790e+01 8.0252929237438e-04
213 -6.3534280863665e+02 2.0301456205715e+04 -8.7345382444798e+01 1.2456794117456e-03
214 -7.3551211750406e+02 2.0041015535685e+04 9.0913446441367e+01 1.0471158632537e-03
215 -1.4048537668807e+03 2.2866735156093e+04 9.0737723822841e+01 4.8410466572405e-03
216 -1.3732247814077e+03 2.2167344242571e+04 8.5742374387998e+01 2.3628651937181e-03
217 -1.5079165442123e+03 2.1695561511832e+04 8.8497663470149e+01 2.5167883619104e-03
218 -1.5599809542532e+03 2.2066053324877e+04 9.2646691574211e+01 2.5455874065732e-03
219 -1.5089385385871e+03 2.0273714276327e+04 8.1334144262666e+01 2.4107401965020e-03
220 -1.3585414673694e+03 2.1352485610157e+04 9.3659725556425e+01 2.2475596569602e-03
221 -1.4333543245838e+03 2.3643043760074e+04 8.9408007470191e+01 2.0795485636817e-03
222 -1.4391635550752e+03 2.1656358801414e+04 -7.6876419600136e+00 2.3759884526644e-03
223 -1.3883914746472e+03 2.2595864757452e+04 9.1109462755994e+01 5.1419353627435e-03
224 -1.7389774570977e+03 2.2217572733460e+04 9.6667614308288e+01 2.7345039591898e-03
225 -1.5684079624585e+03 2.0677202999238e+04 7.9144278900465e+01 2.1473626781865e-03
226 -1.5067450921992e+03 2.0945913065918e+04 7.8104704836807e+01 2.0935953194730e-03
227 -1.0303463663656e+03 1.9420122726506e+04 8.6692749541144e+01 1.6492765627711e-03
228 -9.4633553777685e+02 1.9335417670602e+04 8.0216541064214e+01 2.1230514750777e-03
229 -1.2434040662335e+03 2.3359539252758e+04 9.1368391586268e+01 4.1041615125442e-03
230 -1.2588324031391e+03 1.8896721075583e+04 9.5586281114936e+01 2.0173903218739e-03
231 -1.1017664356382e+03 1.9375487071724e+04 -7.1416190770695e+01 1.7720797628373e-03
232 -1.0573161433839e+03 1.6794777973153e+04 -8.3568383446303e+01 1.4147830391146e-03
233 -1.3034218032167e+03 1.8630572605779e+04 1.1773719503918e+02 2.5709463208928e-03
234 -9.1545340552270e+02 2.1530487974581e+04 8.8338481568017e+01 3.5176200623309e-03
235 -9.7347174316647e+02 2.0909237800542e+04 1.7745788885333e+02 1.9152159661571e-03
236 -8.1051839297456e+02 1.8593319615797e+04 -8.9459658506789e+01 1.8842938490642e-03
237 -6.3083856810422e+02 1.6363736569494e+04 8.2974993146488e+01 1.5622169446836e-03
238 -7.9869223546901e+02 2.1690799471506e+04 9.0386146826400e+01 1.9141383191367e-03
239 -4.6718505473955e+02 1.9539210463619e+04 9.2499871020940e+01 1.6839181758512e-03
240 -4.9732010845540e+02 2.0411812480659e+04 9.0090303673938e+01 2.1810174697120e-03
241 -9.2276609390658e+02 2.1881839044790e+04 9.2268371614386e+01 2.2339962126938e-03
242 -4.9534736460683e+02 2.4544391180330e+04 8.9241564145409e+01 3.5130703007429e-03
243 -1.1618702817985e+03 2.3552523444625e+04 -8.5167176046236e+01 1.8670573204394e-03
244 -1.3510917443225e+03 2.2739596701640e+04 -8.7334481987502e+01 2.1920862390138e-03
245 -1.4361514463458e+03 2.5194446401494e+04 9.1395354492979e+01 4.4832528717032e-03
246 -1.7461646149431e+03 2.0309436175586e+04 8.2088608242182e+01 2.6446871185949e-03
247 -1.7438496659215e+03 2.2166656322351e+04 9.1104542939424e+01 4.7280345632693e-03
248 -1.8068904229420e+03 2.3057284245246e+04 9.3382920781407e+01 2.5255620013023e-03
249 -1.7441550912631e+03 2.3712912984520e+04 8.8176764327607e+01 2.6074831257164e-03
250 -1.9094053345514e+03 2.4530826838699e+04 1.0254193758926e+02 2.5859139756967e-03
251 -1.6690780318177e+03 2.3363938312199e+04 -5.1795350327074e+01 2.5868131901851e-03
252 -1.7232872604423e+03 2.2951359932809e+04 -8.8340839275944e+01 2.6833966504309e-03
253 -1.7621943926225e+03 2.4583902090987e+04 9.1235493617420e+01 5.2617923395926e-03
254 -1.7128640108464e+03 2.5606445575567e+04 8.9641180001579e+01 4.1240988781305e-03
255 -1.8158696077564e+03 2.6538097649701e+04 8.7377281348636e+01 2.1757688637464e-03
256 -1.9339191095667e+03 2.5570528314069e+04 9.0577104331267e+01 2.8808003250834e-03
257 -1.9341813933148e+03 2.3868580936026e+04 -1.0360257003683e+02 2.7754445228515e-03
258 -2.0570947334915e+03 2.3984213560027e+04 1.2670118401522e+02 2.8201999700535e-03
259 -1.8002756713266e+03 2.5168410828770e+04 9.8349368328121e+01 2.5098382486160e-03
260 -1.7366843112434e+03 2.5737752076212e+04 9.1357080154797e+01 2.3982906861262e-03
261 -1.7228912558373e+03 2.5895738665444e+04 9.0615053753878e+01 4.6964396607454e-03
262 -1.6894176041882e+03 2.5186917594402e+04 8.6867103170591e+01 2.0283841644358e-03
263 -1.6230742649822e+03 2.6774497425804e+04 8.3565453710109e+01 1.7892137207833e-03
264 -1.6440255499941e+03 2.4009830929431e+04 9.0601945910225e+01 2.0075467849493e-03
265 -1.6242899785851e+03 2.3252369452938e+04 -8.6397632500752e+01 1.4457625747121e-03
266 -1.6799037220730e+03 2.3915816290453e+04 9.5398559796426e+01 1.7295483279466e-03
267 -1.5407987166476e+03 2.3965413118476e+04 9.4006662668639e+01 2.2561653965090e-03
268 -1.3414684703014e+03 2.3854268135140e+04 8.9077816831532e+01 4.9030181633278e-03
269 -1.1664316114346e+03 2.4863816448297e+04 8.9561632782764e+01 2.0397511250971e-03
270 -1.5937153509000e+03 2.5218676844984e+04 -2.9639895804852e+01 1.8994139801256e-03
271 -1.7026090242316e+03 2.6172028478614e+04 9.0527701901480e+01 4.2689947308562e-03
272 -1.8310704401879e+03 2.5800324846714e+04 9.1670851921534e+01 1.7574505420765e-03
273 -1.6862050006130e+03 2.7868546942229e+04 8.7379472252833e+01 1.8407819607777e-03
274 -1.6479085731126e+03 2.8207609750044e+04 9.0929561695437e+01 1.9053886657571e-03
275 -1.6354778077820e+03 2.5752610788075e+04 9.6146293569450e+01 2.1604029896067e-03
276 -1.5469869965290e+03 2.5344364507891e+04 -2.9126255320977e+00 2.0131978312263e-03
277 -1.6215928315297e+03 2.7121581692780e+04 9.1064922532654e+01 4.8670683722287e-03
278 -1.6172457655163e+03 2.6900485752807e+04 9.1055564676359e+01 2.1158399470480e-03
279 -1.5654621628884e+03 2.5899534211979e+04 8.6822823506912e+01 2.1287258767618e-03
280 -1.4283787201613e+03 2.7062948752379e+04 6.7296829403013e+01 1.5796242303864e-03
281 -1.5160795138713e+03 2.7231384234665e+04 9.2531581486325e+01 1.8768627017477e-03
282 -1.3010386748511e+03 2.7950054970123e+04 5.1630621107490e+01 1.4067214945633e-03
283 -1.7130593463975e+03 2.7746237350965e+04 9.3860440325111e+01 2.0609399549207e-03
284 -1.7023656684883e+03 2.7211225269210e+04 9.0924273128814e+01 2.2317135994713e-03
285 -1.5076218443159e+03 2.6113948774552e+04 8.9583693262638e+01 2.3760145666260e-03
286 -1.4316142950653e+03 2.6188512092101e+04 8.4674188227464e+01 1.8942165269744e-03
287 -1.8220243919109e+03 2.5479135860883e+04 8.9934767195839e+01 3.3510527742363e-03
288 -1.8138497886524e+03 2.7320220738570e+04 9.0306645799349e+01 2.8215036949387e-03
289 -1.7252364327527e+03 2.6248431265937e+04 9.4208482258998e+01 2.2883708109623e-03
290 -1.6975284641886e+03 2.5338468306962e+04 1.1316987250583e+02 2.3433937842183e-03
291 -1.6203553504617e+03 2.3528926800779e+04 9.2110012967625e+01 3.2817712388720e-03
292 -1.5872321248447e+03 2.5110394143856e+04 8.9032947113156e+01 5.1300375684315e-03
293 -1.5173414708369e+03 2.5630805738976e+04 -8.3748524267976e+01 2.0240918971274e-03
294 -1.8201548113218e+03 2.7622828112511e+04 8.9943996646532e+01 3.4372712272227e-03
295 -1.8017974589386e+03 2.7190822868846e+04 8.8801941739176e+01 2.3299142932041e-03
296 -1.6731286906358e+03 2.2933515112109e+04 8.6448500419893e+01 2.6209414478681e-03
297 -1.7486229845315e+03 2.2664222576896e+04 1.0251834336218e+02 2.7266133396071e-03
298 -1.7592385656048e+03 2.2273838510887e+04 -1.2087409394695e+02 2.7423192549408e-03
299 -1.6788336148492e+03 2.2083792876749e+04 -8.8244957412761e+01 2.6957839139711e-03
300 -1.3771238400097e+03 2.2611656682751e+04 9.0419342810729e+01 2.6554920093190e-03
301 -1.3418430027742e+03 2.1174398538507e+04 8.6414393225344e+01 2.3124176872482e-03
302 -1.3247603636959e+03 2.0921473193158e+04 8.4820232096793e+01 2.4409172732864e-03
303 -1.2769177523509e+03 2.4787982435255e+04 8.8123157886959e+01 1.4951381724894e-03
304 -1.7109734221810e+03 2.3105797949822e+04 9.1087889343286e+01 2.6740188254881e-03
305 -1.6555880341191e+03 2.2526454747637e+04 9.1640463044318e+01 4.0132805306665e-03
306 -1.5814808191517e+03 2.2451452040528e+04 8.4874272866483e+01 2.3160359659586e-03
307 -1.5997691800545e+03 2.5406109744475e+04 9.0323422313132e+01 3.8786917914722e-03
308 -5.7697727861349e+02 2.0640472507978e+04 1.4669387794594e+02 1.0291826868374e-03
309 -1.0051198326746e+03 2.5519953968423e+04 9.0204420525186e+01 2.7655789203790e-03
310 -4.7093703445812e+02 2.5353911433823e+04 8.0593708910520e+01 7.0955355600070e-04
311 -9.5250879259595e+01 2.2771664901750e+04 -8.2831608918219e+01 5.1967379961358e-04
312 -3.2733487705133e+02 2.1052541710924e+04 8.8272964751312e+01 2.6034027735006e-03
313 -3.9309147526956e+02 2.1297833960319e+04 8.9033438975314e+01 7.8565364074070e-04
314 4.4665162280149e+01 2.0124739082278e+04 8.2977709726373e+01 6.3718344231884e-04
315 -1.0868482151789e+03 2.6264714118039e+04 8.9690024546844e+01 1.8504589501783e-03
316 -1.0564535562612e+03 2.5458816008328e+04 7.9390926489795e+01 1.4268880311436e-03
317 -1.0958084316813e+03 2.2164174178541e+04 9.4269293580904e+01 1.3910156874156e-03
318 -8.5650878138343e+02 1.9423294495575e+04 9.0371145327773e+01 2.4383048137633e-03
319 -1.1444682552553e+03 2.1656798213897e+04 8.9587928400426e+01 1.5359080608332e-03
320 -5.3985856079538e+02 2.1091752127408e+04 -9.3432007480461e+01 1.1984470543215e-03
321 -4.1988596385769e+02 2.1668879097625e+04 8.7659784842792e+01 1.0228624589574e-03
322 -6.0333179253160e+02 1.5086277226264e+04 -9.4377679406926e+01 2.1275432311053e-03
323 -6.0689183347689e+02 1.3271519898557e+04 -9.2098335269745e+01 2.3623222459527e-03
324 -6.1924606206575e+02 1.9579762026664e+04 8.7915704477972e+01 2.1211255240161e-03
325 -1.0598815026564e+03 2.4465643561483e+04 8.3955092441104e+01 1.3965217447054e-03
326 -1.4124455194283e+03 2.0834544029006e+04 9.2163605849793e+01 2.5757025668409e-03
327 -1.4997435163994e+03 2.1030969497857e+04 9.4397202743877e+01 2.6465190747685e-03
328 -1.4189970441641e+03 2.1495621425517e+04 8.6847327021286e+01 2.5235674579629e-03
329 -1.3879130948863e+03 2.3635643701799e+04 9.2294725000049e+01 2.7011807985358e-03
330 -1.2026149740341e+03 2.4269854548011e+04 9.1196186580662e+01 1.8461055352085e-03
331 -1.1977591713612e+03 2.1883404326291e+04 1.0206825599818e+02 2.1031235890503e-03
332 -1.2644437049107e+03 2.2189153592078e+04 1.0223585933494e+02 2.1213300083087e-03
333 -8.6597446318947e+02 2.1971176756315e+04 7.8741384669261e+01 1.5198868955838e-03
334 -1.2249728171484e+03 1.8483604706810e+04 -9.1025802336475e+01 2.6167046799286e-03
335 -7.9200870115483e+02 2.3130064919257e+04 8.9009593504796e+01 1.2751469097018e-03
336 -7.5169685486772e+02 2.2378394337105e+04 9.0633109764884e+01 1.5452599210001e-03
337 -7.3071878982269e+02 2.1348585616527e+04 8.9116287771259e+01 1.5492782092581e-03
338 -8.5095109353994e+02 2.1433079884021e+04 8.4697528223486e+01 1.6629091338590e-03
339 -7.6422857818171e+02 2.2387732188005e+04 9.2802021283720e+01 1.4500738132458e-03
340 -9.4004591005930e+02 2.3098246977726e+04 7.7653238253964e+01 1.3142448701328e-03
341 -7.8991235307593e+02 2.5467999787902e+04 9.1679169223975e+01 2.8432631241625e-03
342 -2.4045709615110e+02 1.8940412049551e+04 9.0146967947967e+01 1.8332971931600e-03
343 -6.8500144983616e+02 2.2808080275609e+04 8.1648371931059e+01 1.2446321423302e-03
344 -1.1505745448853e+03 2.2065805898636e+04 9.5667937852471e+01 1.8746313592333e-03
345 -1.1658140084537e+03 2.4822759598634e+04 9.1393450593388e+01 3.4294759955789e-03
346 -1.2435068413037e+03 2.3358169971230e+04 9.0154349111417e+01 2.4299474417333e-03
347 -1.0042954139014e+03 2.2899110713102e+04 8.7872791013412e+01 1.7183728479483e-03
348 -7.4312044443005e+02 2.4113719125516e+04 9.6090811782998e+01 8.3274871202696e-04
349 -9.1492873350013e+02 2.2881862282569e+04 -9.1072767914712e+01 1.1868088041368e-03
350 -2.9642347385574e+02 2.3843233819845e+04 9.4034295266641e+01 6.8408250525303e-04
351 -5.6952667785850e+02 2.2062130201310e+04 8.4570308584865e+01 5.9068029256380e-04
352 -6.0432039357506e+02 1.9962317374191e+04 1.1360855372031e+02 1.1759299920210e-03
353 -3.8061001529270e+02 2.2056068249710e+04 9.4800254951716e+01 6.1692886008735e-04
354 -2.9851815567445e+02 2.1665381358394e+04 6.9787145348508e+01 5.8236047314269e-04
355 -4.7798918021645e+02 2.2962528419460e+04 8.8213426155980e+01 9.7693810876608e-04
356 -8.8416203230927e+02 2.1940100633463e+04 8.0125645585891e+01 1.4601871791307e-03
357 -9.1173884208279e+02 2.1016223344294e+04 -8.6005276636529e+01 1.6337400099783e-03
358 8.7984190600290e+01 2.7243679481458e+04 8.9456645839384e+01 2.6617951509081e-03
359 -5.3594430748293e+02 2.2349500902595e+04 8.4782223182003e+01 1.1177467612533e-03
360 -9.7711378030679e+02 2.4494333565178e+04 8.9695695186965e+01 3.1995641020371e-03
361 -3.6253191277349e+02 2.1134616132788e+04 9.2012399148799e+01 1.7729415914958e-03
362 -4.3956495992501e+02 2.0225957755719e+04 9.2118788406381e+01 1.2546346873075e-03
363 -9.4969325523729e+02 2.3180657878266e+04 9.1003676462845e+01 4.2027583010962e-03
364 -1.0469104274311e+03 2.4700634475495e+04 7.7597587704714e+01 1.5036637316367e-03
365 -9.5549472708368e+02 2.4979703303294e+04 9.2177799586836e+01 1.7616679418837e-03
366 -8.8769267846047e+02 2.4377121305480e+04 8.9456470100156e+01 3.2924475532396e-03
367 -1.3171699575204e+03 2.0565504828240e+04 8.9674091980857e+01 2.8913276047258e-03
368 -1.1466244290376e+03 1.9906207704152e+04 9.2341848367777e+01 2.3557713581119e-03
369 -1.1700687252960e+03 1.9366628201517e+04 9.6217151342429e+01 2.4517461568022e-03
370 -1.1056795807727e+03 1.9793519226694e+04 8.8707497623192e+01 4.9059660332181e-03
371 -1.1388075204037e+03 1.9566189370241e+04 8.6674074982993e+01 2.3696654508989e-03
372 -1.1619975946507e+03 1.8703857137056e+04 7.9473301665741e+01 2.3519809566166e-03
373 -7.8542856766085e+02 2.0061159764769e+04 8.4612073934491e+01 1.7975020157512e-03
374 -9.4471986516811e+02 1.9989714304542e+04 9.4004380336896e+01 2.0499503092421e-03
375 -7.5574815849345e+02 2.1888696247202e+04 8.9408960158618e+01 1.3999351952663e-03
376 -9.8690336350121e+02 2.1767936747320e+04 9.3912509897589e+01 1.8064218040663e-03
377 -7.7122036246878e+02 2.2142404479285e+04 3.9042754850640e+01 1.4222244108958e-03
378 -4.4654620971205e+02 1.8068768632384e+04 6.1873590522605e+01 1.2827510771621e-03
379 -2.7033454913636e+02 1.8761408370428e+04 9.6421372494180e+01 1.1951915128582e-03
380 -4.9796080406347e+02 1.6044042063434e+04 8.2171230270928e+01 1.9329588403359e-03
381 -1.9163630494506e+02 1.9113283985572e+04 8.9413890046798e+01 9.7646467587903e-04
382 -2.2629586227055e+02 1.8695657239523e+04 9.2699033086948e+01 8.8733754923663e-04
383 -2.7757701307765e+02 2.3633231588793e+04 7.9600461193713e+01 7.1447879366636e-04
384 -5.2177003937253e+02 2.0800944710139e+04 7.1625559444504e+01 1.2969441114123e-03
385 -5.4445058950686e+02 1.8028496750214e+04 9.3701952479109e+01 9.4400015662846e-04
386 -5.2505911632749e+02 2.2236197962000e+04 9.1749243670496e+01 9.6944292134258e-04
387 -4.5100597418477e+02 2.2020285789263e+04 8.2381646030748e+01 1.0511467961512e-03
388 -5.6505296085952e+02 2.3355290783538e+04 9.2216227809839e+01 1.0213890323632e-03
389 -6.8502437364715e+02 1.9708217504699e+04 8.4874764313314e+01 1.5973951174227e-03
390 -4.5239483329974e+02 1.6694719644528e+04 7.4772745237239e+01 1.7667971470991e-03
391 -1.0353158054566e+03 2.4684684402890e+04 8.9286274526696e+01 1.4501026962637e-03
392 -8.2662220803494e+02 2.1357974326013e+04 9.3104398022578e+01 1.6689380372761e-03
393 -6.4722578223283e+02 2.2253918562947e+04 8.3545218251202e+01 1.2675714949926e-03
394 -8.6597896787991e+02 2.1784265946002e+04 -9.4706078513542e+01 1.3948591846668e-03
395 -1.2965364470168e+03 3.2670690699454e+04 8.4639162910862e+01 8.6228308302302e-04
396 -1.9218023151110e+03 2.8341434313830e+04 8.8394093291537e+01 4.2928386260479e-03
397 -1.9762832163286e+03 2.8834316055720e+04 9.1011927488394e+01 5.1033473070396e-03
398 -1.9352027205216e+03 2.8134393004341e+04 8.8941488663883e+01 5.0839166248447e-03
399 -1.8712100623522e+03 2.6980649740626e+04 9.0376464205915e+01 4.3434812183679e-03
400 -1.8899647839412e+03 2.8365176871373e+04 8.6383617599236e+01 1.4929659520346e-03
401 -1.9445329626186e+03 2.8893446332576e+04 8.0731690559640e+01 1.9016715742452e-03
402 -1.4295268212077e+03 3.3045275707118e+04 8.8213667811824e+01 2.1645533946836e-03
403 -1.5297090287694e+03 3.2034047075054e+04 1.0330826376170e+02 1.4122365856566e-03
404 -1.4894164402966e+03 3.0773499480099e+04 9.3897315804891e+01 2.2821556218072e-03
405 -1.8823245040992e+03 2.8234159152285e+04 9.4135228289592e+01 1.7506554611888e-03
406 -1.7157755343281e+03 2.8464338065562e+04 1.3262216820965e+01 6.0902071742197e-04
407 -1.1506085117707e+03 2.5507822003213e+04 8.7789837358360e+01 4.8243526514061e-04
408 1.9407487939168e+02 2.0713185648125e+04 9.0857244750500e+01 6.4223631268833e-04
409 2.0783880678098e+01 1.9751229880015e+04 -6.6271992972249e+01 7.5578287336598e-04
410 -3.5974164161137e+02 2.1371881615609e+04 9.3690142755405e+01 5.6435784734198e-04
411 -2.5764922772354e+02 2.2705601013425e+04 8.9271568620631e+01 6.3878378835480e-04
412 -7.2245312944300e+02 2.0281230309885e+04 8.9018425182925e+01 3.9166250679176e-03
413 -9.8255943690428e+02 1.9653177061300e+04 9.0654118156205e+01 4.6766734133815e-03
414 -9.3865820271490e+02 1.9295402518632e+04 9.4526320903608e+01 1.5534965393451e-03
415 -8.2308113809818e+02 1.9148156158935e+04 -1.4391832788144e+02 1.9827504459946e-03
416 -8.1511453585575e+02 1.8892118457542e+04 -9.2458000183234e+01 1.9801357318772e-03
417 -8.3053266333931e+02 2.0001205118543e+04 9.2757796126117e+01 1.9884949281009e-03
418 -8.2360434235144e+02 2.1934654252220e+04 8.0831935644577e+01 1.2202104321954e-03
419 -9.5352564089425e+02 2.1429498616941e+04 9.0280946031223e+01 2.9506418820463e-03
420 -1.1008650218526e+03 2.1609548416342e+04 9.1264520888864e+01 1.9766445297032e-03
421 -1.0858926058021e+03 2.0321310028398e+04 8.7386161918149e+01 1.3628321688807e-03
422 -1.1509141816667e+03 2.1087503962336e+04 9.1131796240142e+01 1.6198805647983e-03
423 -6.1946491832668e+02 1.9191637309623e+04 9.1766991312231e+01 3.0630495044524e-03
424 -2.1259368070292e+01 1.5741116280430e+04 9.1509459305294e+01 5.7263558928732e-04
425 3.5192492534446e+01 1.5067098242636e+04 1.0184416073118e+02 1.2216750880965e-03
426 -2.7156841543668e+02 1.6689364682031e+04 9.1291413123620e+01 1.5120967986550e-03
427 -7.2980087860812e+02 2.7930397416390e+04 9.3998971795519e+01 7.3658929479040e-04
428 -1.0864008990949e+03 2.5020197008996e+04 9.1165243619668e+01 8.9636233119609e-04
429 -4.2898505577140e+02 2.6390286414119e+04 9.0940815578958e+01 3.4531164530677e-03
430 -3.7113929436720e+02 2.4829953811941e+04 9.0697576511264e+01 8.3847419119045e-04
431 -3.0320372706394e+02 2.3241988147790e+04 9.0095237045751e+01 1.8379688211713e-03
432 -2.4351697828577e+02 2.3420388625857e+04 8.7730767000921e+01 1.1040662083533e-03
433 -7.6242285782165e+02 2.3439044508014e+04 9.7911151203990e+01 8.6232815793300e-04
434 -7.2932585182326e+02 2.5636453109488e+04 9.0988919473839e+01 6.3644235751836e-04
435 -8.0745682720381e+02 2.2655023859074e+04 9.7071758090859e+01 1.3462956614347e-03
436 -7.3467060126563e+02 2.2754453268168e+04 8.8494042969680e+01 3.5201208790659e-03
437 -1.2710163743800e+03 1.7931458212160e+04 -9.1827236300942e+01 2.2845771836108e-03
438 -1.4001147285404e+03 1.8740345962903e+04 9.2891879067135e+01 2.7362471795608e-03
439 -1.4490091202802e+03 1.8805867629566e+04 9.7772271404061e+01 2.7289007603613e-03
440 -1.0379055835625e+03 2.1538504081476e+04 8.9968354806476e+01 2.7393563742299e-03
441 -9.5804759987901e+02 1.7086583409801e+04 -5.7114010687857e+01 2.0159963330909e-03
442 -1.0337159422060e+03 1.5928985864916e+04 -1.5803636573860e+02 2.2292887677488e-03
443 -8.1525067817039e+02 1.7578961936551e+04 8.4379497871690e+01 1.8103416693154e-03
444 -1.4751165166170e+03 2.1334574629119e+04 8.8964304064458e+01 3.9574931724486e-03
445 -1.5052430311999e+03 2.0808829534249e+04 8.9809185179995e+01 1.5959226468284e-03
446 -1.5818282215619e+03 2.1010142576212e+04 9.2454703763671e+01 2.2785071758860e-03
447 -1.5653863856552e+03 2.0022829055716e+04 4.8462890612302e+01 2.4157677629334e-03
448 -1.5402468978409e+03 2.0951112747255e+04 8.7915227277458e+01 3.1015477802178e-03
449 -1.5820468710208e+03 1.9342000723657e+04 6.2774138441510e+01 2.1431160001073e-03
450 -1.6671076982001e+03 1.9010505852063e+04 -9.0161535921927e+01 2.7267958976930e-03
451 -1.6442432377453e+03 1.9414100073972e+04 7.4886270580167e+01 2.8038070905234e-03
452 -1.8247810449257e+03 2.0487991723691e+04 9.3961314251062e+01 2.7282074262237e-03
453 -1.7302056559821e+03 2.0583099213800e+04 8.7422085140438e+01 2.5674307408063e-03
454 -1.6743237718546e+03 2.0747775382693e+04 8.4789866278512e+01 2.6230343745100e-03
455 -1.8486170511332e+03 1.9859565789952e+04 -9.6649690560262e+01 2.5929965922302e-03
456 -1.5999145369910e+03 2.1939274941636e+04 8.9217583152840e+01 4.4669113081014e-03
457 -1.7391645129997e+03 2.1591236093252e+04 9.9437952036363e+01 2.2669271917211e-03
458 -1.8421691476248e+03 2.4279268569671e+04 8.8383538953035e+01 3.6169395599824e-03
459 -1.6603597311364e+03 2.4081195722104e+04 8.3407877423183e+01 1.4003633626108e-03
460 -1.2988499053873e+03 2.2086219851867e+04 -9.6804971904079e+01 2.0763772501415e-03
461 -1.2787690220903e+03 2.3382263089425e+04 9.0161668673455e+01 3.2949842107763e-03
462 -1.3054930513239e+03 2.5533230414088e+04 -9.0147777914699e+01 1.6883074879926e-03
463 -1.1555632141332e+03 2.4422316381855e+04 8.8825535720639e+01 1.3175162769937e-03
464 -1.2111006537289e+03 2.3896897926246e+04 7.0266059699872e+01 1.5797122849757e-03
465 -1.1878250887006e+03 2.5652913705817e+04 8.6753116657772e+01 1.0607446122246e-03
466 -1.3839403655089e+03 2.7094183038421e+04 8.1114097657792e+01 1.3513147083193e-03
467 -1.3455804398713e+03 2.5411432850034e+04 7.4343320339062e+01 1.8632099758044e-03
468 -1.5168281815781e+03 2.7773287873417e+04 8.9977163201536e+01 1.9655997535661e-03
469 -1.6010921974763e+03 2.6290281019562e+04 -1.0265922309127e+02 1.2696395432593e-03
470 -1.6724270878250e+03 2.1157987430712e+04 8.9217373603154e+01 5.0559539690848e-03
471 -1.7203607621526e+03 2.0515255023395e+04 9.3464028603844e+01 2.4980841415971e-03
472 -1.5978329002813e+03 2.1030315286523e+04 9.0442250661772e+01 3.0752550736843e-03
473 -1.6328974416924e+03 1.9091672697510e+04 -1.0848641783860e+02 2.7469576887665e-03
474 -1.5047254488176e+03 1.9627057705940e+04 9.0314929287358e+01 2.2001378653648e-03
475 -1.4727320758173e+03 1.8497440396323e+04 -8.7805585613849e+01 2.7492734461693e-03
476 -1.4713776203947e+03 2.0164214730978e+04 8.8300727580294e+01 4.4426936433539e-03
477 -1.5098608308233e+03 2.0587892796923e+04 9.0415177232351e+01 4.6927156025523e-03
478 -1.3512658449689e+03 2.0065012765473e+04 8.4085160358635e+01 2.4019052426643e-03
479 -1.5442987234138e+03 1.8839314785344e+04 9.1005429046621e+01 5.2363820607311e-03
480 -1.9518675844121e+03 2.2310585894272e+04 8.7887163491298e+01 3.6622409821642e-03
481 -1.9497416227892e+03 2.2391862772340e+04 8.7940674532385e+01 2.8049436670128e-03
482 -1.8736470971195e+03 2.1490432866684e+04 1.6080487908891e+01 2.8403036197101e-03
483 -1.9095977144164e+03 2.1887278725574e+04 8.9466328348646e+01 3.1116125137733e-03
484 -1.9441813675651e+03 2.2124446748602e+04 9.2594808606358e+01 2.8184826197938e-03
485 -2.0117299445401e+03 2.1709512468933e+04 8.0312672599661e+01 2.7994232468080e-03
486 -2.0457269125193e+03 2.1992651668697e+04 8.4999344166319e+01 2.8016647582362e-03
487 -2.1921044598889e+03 2.2249166665700e+04 9.4513796312669e+01 2.5393415072867e-03
488 -2.0021310242862e+03 2.2591144642306e+04 9.0446716952596e+01 2.6895052698254e-03
489 -6.9880408174553e+02 1.8599719096211e+04 -1.1979070140682e+02 6.0071872837592e-04
490 -6.1420680144874e+02 1.9779623785516e+04 9.2273318944381e+01 1.1943644540704e-03
491 -5.2689587377290e+02 1.9884438577641e+04 8.8573751543161e+01 1.2243962381021e-03
492 -6.4439400123287e+02 1.8149713810003e+04 9.0897870331554e+01 9.8254591236089e-04
493 -9.5551013478096e+02 1.9606828051090e+04 8.5104957264748e+01 1.4678346698737e-03
494 -7.5576047545747e+02 1.8266213452336e+04 9.5082367362149e+01 1.9652889018684e-03
495 -7.8249733803034e+02 1.9010242903367e+04 9.3285615464357e+01 1.9467574301501e-03
496 -6.8756798734268e+02 1.7519638462609e+04 -8.4492762664240e+01 1.8227669921697e-03
497 -5.9462462425388e+02 1.9827628305222e+04 -5.9123255786862e+01 1.5327334247638e-03
498 -6.1486013238184e+02 1.9651278381745e+04 9.4306866104314e+01 1.1147880656327e-03
499 -5.2655183050229e+02 1.9470652536923e+04 7.9141190454413e+01 1.1077662032588e-03
