0 1.4426783522536e+03 2.5162330316822e+04 -1.0460201574325e+01 3.4218672100734e-04
1 -4.3508647225285e+02 2.5239506482293e+04 -2.8822272674093e+01 9.4250739503866e-04
2 -1.6876660219023e+03 2.7019502272487e+04 -1.1768115103263e+01 2.8227782972839e-03
3 -3.0376773071453e+03 2.7183935338433e+04 1.7723912868912e+02 2.6872480552527e-03
4 -2.0732802464072e+03 2.6612304774054e+04 -1.3046766166837e+02 1.0228770078030e-03
5 -2.4320016437328e+03 2.6492501452905e+04 1.6345206322316e+02 6.4041347277031e-04
6 -1.5711376646376e+03 2.5923920030261e+04 -1.7030335198712e+02 1.5901891038076e-03
7 -2.3776240477389e+03 2.5922406838105e+04 1.7687015977816e+02 3.2534466613466e-03
8 -1.1535466829694e+03 2.5742086176868e+04 -1.0045185880001e+01 1.9694581533409e-03
9 5.1643736193930e+02 2.6044147459212e+04 -2.1153482798104e+00 3.7955053514536e-04
10 -1.1488097378337e+03 3.0674818415799e+04 1.1700184743292e+02 1.9695851827709e-03
11 -1.1871075668468e+03 3.0784371916800e+04 1.1239054614652e+02 3.6002349839804e-03
12 8.6173809662536e+02 3.0189385429013e+04 -3.2046079364840e-01 2.3892724044020e-03
13 6.4382886550195e+02 3.1336873324305e+04 -1.2782034612073e+01 3.7385043484324e-03
14 1.6969654027974e+03 3.1193490120435e+04 -8.7653199975054e+00 3.7336503887763e-03
15 9.7873751668684e+02 3.1405143399974e+04 8.6135456154398e-01 3.7356979317324e-03
16 -1.5880309756496e+03 2.5507660816099e+04 -2.2076413459164e+01 2.8669260104999e-03
17 -8.3706355100777e+02 2.5407604041570e+04 -1.2526189785914e+01 1.4133634018066e-03
18 -3.2849503212453e+02 2.5787274264685e+04 -6.9675514393282e+00 5.7413171202882e-04
19 -1.4109271194072e+01 2.6114140697290e+04 1.0457872693755e+01 5.4642219067152e-04
20 -1.0511399487768e+03 2.7452813467149e+04 1.2935645564741e+02 1.4316368678659e-03
21 7.2072405615702e+02 2.6625096904563e+04 -1.1634087748725e+01 3.6060154823985e-04
22 -1.0329531719276e+03 2.6858990654544e+04 1.5532223339850e+01 1.2132905182825e-03
23 -6.2954729054372e+02 2.9594459673036e+04 3.4791054233222e+01 8.6205766149611e-04
24 -2.2065970340034e+03 2.7879168696256e+04 1.7879628281462e+02 1.2882899297387e-03
25 -1.9090033172579e+03 2.2362252624537e+04 -1.5627607514404e+02 8.2818069335959e-04
26 -1.8421641475918e+03 2.2676769708654e+04 -1.3374171125867e+02 3.5551190040015e-03
27 -1.3399667612750e+03 2.2607354844522e+04 -3.8962443845032e+01 2.9531908283545e-03
28 -3.7556804733007e+02 2.2153398703300e+04 -1.1816137655752e+01 6.4926532704918e-04
29 -4.3280553896247e+02 2.3801868216152e+04 1.6264291115211e+01 9.9552930467579e-04
30 6.0538870662582e+02 2.3113078934369e+04 4.1149518945981e+00 4.3000241975872e-04
31 3.4488956812354e+02 2.5865866849199e+04 4.8890536301741e+01 3.8332233159791e-04
32 -1.1568768534967e+03 2.5053411585363e+04 1.2296991414777e+02 2.1436637510483e-03
33 -2.1575689373646e+03 2.6098591786046e+04 1.3744560305650e+02 3.6066729016854e-03
34 -1.0242721745575e+03 2.5755384335422e+04 -1.9941685425965e+00 1.6881626722029e-03
35 -4.8786972967540e+02 2.3909953725389e+04 -2.8233280862795e+01 8.2519539268604e-04
36 -2.0230435987054e+03 2.6793737070953e+04 -1.7075403087001e+02 2.0375037634491e-03
37 -1.4308196619071e+03 2.6915093536957e+04 1.3500264326641e+01 1.8743695740053e-03
38 1.7115638698528e+02 2.5782140516034e+04 7.2710317604572e+00 4.8197559358313e-04
39 -1.3908748209712e+02 2.4575598224529e+04 -5.8144924255767e+00 6.9200269159657e-04
40 -1.4158722289440e+03 2.0816996777884e+04 -5.3193981400042e+01 1.2237301083306e-03
41 -8.8834815736758e+02 2.0974642430884e+04 -6.2278424557020e+00 1.9116991039179e-03
42 4.3412812729874e+02 2.0850948636331e+04 -5.5021132078325e+00 5.5418371854443e-04
43 -7.7388915016855e+02 2.4660647825615e+04 1.3762858205423e+02 5.5119818266520e-04
44 -1.7154782978938e+03 2.3639602933739e+04 1.7962843479218e+02 2.1074932513815e-03
45 1.9266845086642e+02 2.1995356347336e+04 1.0255355028629e+01 5.3131896774054e-04
46 -7.5799328473076e+02 2.6585497823635e+04 1.3961082894192e+01 1.1016092405005e-03
47 -7.8531403088512e+02 2.9938916616006e+04 -1.8835095350201e+01 2.0583763119790e-03
48 -3.0078926116822e+03 3.3323163901963e+04 -1.4414112876344e+02 6.6683394688833e-04
49 -1.4564077106335e+03 3.1318206478228e+04 1.3200826905465e+01 3.7020527813277e-03
50 -1.1184441294481e+03 3.0974504404134e+04 -3.1342565705669e+01 3.1459771392596e-03
51 -5.9710941807664e+01 3.0703388046209e+04 -1.1750541267278e+01 3.4259081675585e-03
52 -4.6524796992107e+02 3.0915537461156e+04 2.0079456427354e+01 3.5806434783419e-03
53 -9.7817012280692e+02 3.1445680389519e+04 1.7109644014824e+02 2.1138022377060e-03
54 -2.3829075917921e+02 3.1900721732532e+04 -1.1877114543561e+01 2.8999663740524e-03
55 -8.2979947840480e+02 3.0719089198487e+04 1.7464953039029e+02 2.1275549840164e-03
56 -2.0744620704766e+03 3.2240415829163e+04 1.7395754608916e+02 1.1535665564551e-03
57 -1.6772080659057e+03 3.1981545617649e+04 -1.5966508568648e+02 1.1051467800148e-03
58 -3.9152832621817e+02 3.2201380362309e+04 1.4346313032467e+00 2.6034286631615e-03
59 2.3658114590515e+03 3.1779794392950e+04 -8.4975434940627e+00 9.9311816916474e-04
60 -1.0922756008180e+03 3.1399622264868e+04 1.1579295994604e+02 1.8164378738723e-03
61 -1.2328784761562e+03 3.1330082240031e+04 1.5252391835587e+02 1.1364989727355e-03
62 1.4094693377677e+02 3.2878935279221e+04 -1.1120312436353e+00 1.3352286987305e-03
63 3.1464395817392e+02 3.2197337578949e+04 -1.6460879164271e+01 2.7341938518564e-03
64 4.8237443805212e+02 3.1223228094673e+04 -1.1129037511892e+01 1.7037036981871e-03
65 1.8393830046845e+02 3.1578495668391e+04 -6.7857112876619e-01 7.3747191324645e-04
66 -1.2877151748244e+03 3.0066937070848e+04 1.4890922186523e+02 2.1685823106839e-03
67 -5.4533385783571e+02 3.2815917530453e+04 1.0984450652014e+01 1.4090789396695e-03
68 1.3362271936671e+03 3.2315354361055e+04 -1.6875297924828e+01 2.3295525195573e-03
69 -1.1447505830491e+03 2.6771970428690e+04 -1.7699157258106e+01 1.3359344712924e-03
70 -1.2347941320576e+02 3.2752944176967e+04 -1.1378197063302e+01 1.4609965744279e-03
71 -1.8367312886907e+03 3.0471385493931e+04 -1.6606449976679e+02 2.9734822468483e-03
72 2.8770273561071e+02 3.0261792429493e+04 -1.1596822817587e+01 2.3866187140862e-03
73 -2.2148702900448e+03 3.2061501213565e+04 -1.4902676132177e+02 2.5491451786589e-03
74 4.5312094534222e+02 3.1526880765836e+04 -1.4254481520995e+01 2.6411452878592e-03
75 -2.1332836507636e+02 3.1382552697442e+04 -4.0837054997725e+01 2.6504384751742e-03
76 -1.5907505381550e+02 3.1638171600005e+04 -2.1419801053917e-01 3.5705184991858e-03
77 -1.7336791031217e+03 3.1531270731260e+04 -1.6497706873131e+02 2.8488068964709e-03
78 3.0702936990733e+02 3.1806820271956e+04 -4.3328266939671e+00 2.0874119403696e-03
79 -2.7836557244074e+01 3.1667053743566e+04 1.3004322781641e+01 3.3658347614961e-03
80 1.0193922375765e+03 3.1442396100239e+04 -5.1810845583795e+00 3.4135455567906e-03
81 -4.7128337896743e+02 3.2063758149364e+04 8.0063007275146e+00 1.7763419952311e-03
82 5.6751447279733e+02 3.0226591835608e+04 -1.8301197895867e+01 1.4581698751567e-03
83 1.4425581777040e+02 3.2315357841660e+04 -5.7744391884062e+01 3.9318858158499e-04
84 -1.0309453515104e+03 3.1149077019068e+04 -6.9732423691651e+01 3.4344416105408e-03
85 -1.0237915894746e+03 3.0796599523337e+04 -1.4925636818671e+01 4.4666584918129e-04
86 1.2378755798807e+02 3.0015771975069e+04 2.1339004403043e+01 2.0315774940846e-03
87 9.3463036158712e+02 2.8429991431193e+04 1.7827993999173e+01 3.7340376573029e-04
88 -1.9948790810081e+03 3.2277144984997e+04 1.4817311740317e+02 1.9976153964403e-03
89 -1.6634477933453e+02 3.1275919574189e+04 -4.5872001844105e+01 2.9110507274268e-03
90 -9.7873883988028e+01 3.1415182141295e+04 -1.5666858351564e+01 1.7559515988812e-03
91 -2.4278575416913e+02 2.9930317094302e+04 -1.9855150767430e+01 1.6576656899217e-03
92 6.6679659663176e+02 2.8653553673639e+04 4.4369330448104e+00 4.7377441924650e-04
93 -2.5949939899037e+03 2.8029247353746e+04 -8.5049504441789e+01 2.0937431647495e-03
94 -3.1844241638426e+03 2.6428533982350e+04 -7.3443194359690e+01 6.3526938766072e-04
95 -1.2997611061847e+03 2.6366906131356e+04 -1.0500319122184e+01 6.0795531368785e-04
96 -1.2306643386625e+03 3.1059547620372e+04 2.1111371110645e+01 2.3432107824228e-03
97 -8.5195951459389e+02 3.0738935791234e+04 -1.7569585182540e+01 2.9874885582113e-03
98 1.5913922440127e+02 2.6417341984578e+04 5.2828078938053e+00 4.5691920078445e-04
99 -6.7031419434147e+02 2.7842579380761e+04 2.9784978309223e+00 8.6534963643536e-04
100 -2.4753157376199e+03 2.8420287537162e+04 5.2026164518965e+00 1.2773879446862e-03
101 -1.5870476267095e+03 2.8255260975208e+04 -1.7803373904146e+00 1.7664308648168e-03
102 2.6421373424224e+02 2.7611788202815e+04 -9.3484368268107e+00 4.1017974586350e-04
103 -7.6630115535068e+02 2.7456089737844e+04 -1.8394084419125e+01 1.0081092612066e-03
104 3.2295138585243e+02 2.7171154843355e+04 1.6445140173453e+00 4.0429673446318e-04
105 -2.8118182139394e+02 2.7226339422416e+04 1.0910537655414e+01 6.2473522013974e-04
106 -1.3106335502572e+03 2.9035969171652e+04 1.1025152391005e+02 1.3288597020022e-03
107 -1.1030354384651e+03 2.7377577173826e+04 -5.9380346594320e+00 1.4792179260889e-03
108 -8.0805613075726e+02 2.8036946231492e+04 -7.6079388198706e+00 6.8580962835333e-04
109 -9.3513530003882e+01 2.9537372869222e+04 -1.9530810711157e+01 1.2670680148398e-03
110 -1.8945145956920e+03 3.0123820620455e+04 -5.5359593269114e+00 1.8146461152256e-03
111 -1.0802520117741e+03 3.0058882640593e+04 -4.8651294931913e+00 2.2215958460639e-03
112 -2.6930932631685e+02 2.9152584746116e+04 -5.7676100375080e+01 8.1823287792761e-04
113 -2.0836730172136e+03 2.6964630496368e+04 7.5526006461625e+00 2.2159669678771e-03
114 -8.1525710119879e+02 2.9814772965781e+04 -1.7693847211460e+01 1.6972279770347e-03
115 -5.6677722946773e+02 2.9518487594273e+04 1.3516058090537e+02 1.1677549313529e-03
116 -1.3202351960216e+03 2.4805024490655e+04 -1.2499611121712e+01 2.4638097307778e-03
117 -9.6760874425422e+02 2.4967281218553e+04 4.9606131171731e+00 1.4990642000413e-03
118 -5.4574325101001e+02 2.5173347087012e+04 -3.8037096452142e+00 6.0160344226014e-04
119 -1.6025783797635e+03 2.8097553569379e+04 -8.6654984591667e+00 1.9474663932383e-03
120 -1.5090384304658e+03 2.8088165909959e+04 -8.3282252296976e+00 1.4497643426268e-03
121 -4.6007827691645e+01 2.9022705750553e+04 -2.5706900765325e+00 6.7186358402905e-04
122 -4.5438324527898e+02 2.7305068507636e+04 -6.8084906075147e+00 6.9835936716635e-04
123 6.0822106604256e+02 2.7849663495634e+04 -8.5247039042717e+00 3.6156177422460e-04
124 -1.7081571253229e+03 2.6957899920676e+04 1.4281049948160e+01 2.2518513645188e-03
125 -1.9340654027934e+03 2.6793069825084e+04 -6.3011252196768e+01 3.0964013406201e-03
126 -3.1910202111440e+02 2.6610223597247e+04 -7.4962478207682e+00 6.7766642825327e-04
127 -1.4745190862098e+03 2.6348400223045e+04 4.2986175219003e+00 2.4054023411510e-03
128 -2.2295931418845e+03 2.6447906500507e+04 8.3637700168189e+01 3.6442525249084e-03
129 -1.7386113427166e+03 2.6630675346881e+04 -1.0952395579583e+02 1.9512652288981e-03
130 -1.4971923166461e+03 2.6914028001147e+04 4.0350698904126e+01 2.2213081221653e-03
131 -1.4611779838540e+03 2.6838843896184e+04 -1.0470051689328e+02 9.7562200773066e-04
132 -3.9670211795658e+02 2.8974472668601e+04 8.3473970815699e+00 6.8610032746307e-04
133 -1.6278012526552e+03 3.0888295261642e+04 -1.5501386531793e+02 3.6990633506182e-03
134 -8.6869374693302e+02 3.0836094478263e+04 -2.9422765464945e+01 3.6212707690317e-03
135 -1.3825174414766e+03 3.1112829112813e+04 1.5553961248342e+02 2.7958609824972e-03
136 -3.8693209578629e+02 3.0264683049918e+04 -5.0824080739557e+00 2.6781910033712e-03
137 1.1128884041052e+03 3.0717612597082e+04 -1.2502664546525e+00 2.7941255152279e-03
138 -2.1779120720960e+02 3.0753582228463e+04 -3.6811818970903e-01 2.1560627503871e-03
139 -1.7122490298154e+03 3.0116938573488e+04 -3.9654972251848e+01 1.1148746196337e-03
140 -4.0976367612875e+02 3.0062066417649e+04 -1.1042383385869e+01 2.0309184933797e-03
141 -8.6484982417628e+02 3.0306081366970e+04 -1.1491061756124e+00 2.8396917393360e-03
142 -9.3859764859719e+02 3.0665813859169e+04 -1.3271484531339e+01 2.8178068275154e-03
143 -1.7960492297035e+03 3.0689048935493e+04 -1.7284539127151e+02 3.2010350775620e-03
144 -1.1353252045953e+03 3.1663911543035e+04 7.7097306556899e+00 3.3848092292284e-03
145 -8.8566815943889e+02 3.1241507195142e+04 -2.9605183940732e+01 3.0793590274692e-03
146 -8.7213798321015e+02 3.1256600423734e+04 9.5488425591898e+00 2.3312722885415e-03
147 -1.3614798231502e+02 3.1091544861273e+04 -2.7459007287545e+00 3.6988607214143e-03
148 -5.9177943801083e+02 3.0693035696460e+04 -3.1802874472712e+01 2.4858815438776e-03
149 -1.0361958176015e+03 3.0756207978444e+04 1.7894213579733e+02 1.8779703817307e-03
150 -1.0666016704766e+02 3.1817568638579e+04 -1.5645445415067e+02 3.3557671843037e-03
151 -1.3407033329410e+03 3.2971781519802e+04 8.7849485407695e+01 7.1447741350739e-04
152 5.9560804995991e+02 3.2300681934201e+04 2.4683053540677e+01 2.1234811877071e-03
153 -3.7277815830762e+02 3.2498092956575e+04 -7.6739702939883e+00 1.5338130767722e-03
154 -5.4783699029787e+02 2.9239386255368e+04 4.9319291487584e+00 9.3264071992344e-04
155 -5.8684054984264e+02 2.9517867728699e+04 4.7187154598027e-01 1.3092298739161e-03
156 -1.4528269703643e+03 2.9337825685413e+04 1.5116464113847e+02 1.4639381222157e-03
157 -1.1782536389727e+03 2.9498464812566e+04 1.3715660796407e-01 1.3805956818232e-03
158 -1.4840521088672e+03 3.1532344662515e+04 -1.7369413088661e+02 1.3118857504857e-03
159 -7.2202459323318e+02 3.1674808770642e+04 1.6663313946384e+02 1.6564997758899e-03
160 -1.6462567690946e+03 3.1413074652169e+04 -1.8108157366041e+01 3.5595918877857e-03
161 -1.4187430427136e+03 3.1242551911251e+04 -3.3166821612895e+01 3.7386003156499e-03
162 -1.0995045013524e+03 3.1873942597492e+04 1.5395883663403e+02 3.1347128701019e-03
163 -2.8390721964127e+02 3.1710211462806e+04 -6.9192323166514e+00 3.4919747306805e-03
164 3.4654914727011e+02 3.1878195316389e+04 -1.6171995271469e+01 3.0022114365062e-03
165 -1.2773231758514e+02 3.1710445790980e+04 3.9546945295007e+00 3.4867130518539e-03
166 -8.5402429812086e+02 3.1532695183152e+04 -8.0429173173355e+00 2.1661779010893e-03
167 -1.1421990684727e+03 3.2724010214459e+04 1.2960862506900e+02 1.4992384073758e-03
168 4.0581816578945e+02 3.0397788473379e+04 -1.3204002306678e+01 2.2572524818448e-03
169 1.5435200585647e+03 3.0293337192470e+04 -8.9370716946999e+00 2.4807662730302e-03
170 -1.6667892807927e+03 3.0587198055254e+04 -1.5456510197375e+02 2.1391666698300e-03
171 -2.5421690390387e+03 3.0654313501776e+04 -2.5532502323938e+01 1.0010729845021e-03
172 -2.2725159106491e+03 3.0643193536473e+04 -3.6734483984900e+00 2.5818522941140e-03
173 -1.0115334278380e+03 3.1071558653898e+04 -2.3416706670058e-02 2.3123565158575e-03
174 -3.0218926494791e+03 3.1066097962123e+04 -1.7973215542348e+02 3.3987343571355e-04
175 -9.7995681551782e+02 3.1638972211161e+04 -8.1834056635804e+00 2.1227055108106e-03
176 5.5481666715980e+02 3.0461151645151e+04 -2.5383841499530e+01 2.9754483313907e-03
177 5.3011791260435e+02 3.0539570659531e+04 -1.5217217796148e+01 3.1160667142572e-03
178 -2.2684467798253e+03 3.3634818818108e+04 -1.5171913518448e+02 4.3925543048972e-04
179 -1.3457235833737e+03 3.0258056379992e+04 4.1506535006201e+01 2.7164283769080e-03
180 -2.0865782294494e+03 3.0277924041453e+04 1.2898783352219e+02 2.8885877083773e-03
181 -1.9730355398502e+03 3.0445976287517e+04 2.9050665462034e+01 2.0131457111073e-03
182 4.2007675661772e+02 2.8033773043059e+04 -1.6140735761884e+01 3.5997936874831e-04
183 -1.4310378620070e+03 2.7192490358585e+04 -2.7981823802408e+01 2.2867679992165e-03
184 -1.6962053821921e+03 2.8484307908796e+04 8.6835511575144e+01 2.3402604094955e-03
185 -3.7828751258381e+02 2.8300819184518e+04 -5.9700003991692e+00 6.3426904015279e-04
186 -3.8309521650882e+02 2.9034667040158e+04 4.2182858931817e+00 5.7980560153730e-04
187 -7.9762120196166e+02 3.0012571577035e+04 1.6283144324530e+02 2.2447632356467e-03
188 -2.0690206591601e+02 2.9916125096506e+04 -6.2734941369236e+00 1.3131778330435e-03
189 -1.0586926630898e+03 3.1595267198095e+04 2.5422565628432e+01 3.4825106976524e-03
190 3.2581648287473e+02 3.1334524296296e+04 -7.1170457128450e+00 3.0115735829491e-03
191 -1.3355261408213e+03 3.0577696549019e+04 4.7222352824298e+01 2.6034305003977e-03
192 -1.4345024496293e+03 3.2001041866821e+04 5.6574370862632e+01 2.8291419011915e-03
193 -9.2350521382076e+02 3.1954920816125e+04 2.3150129257628e+01 3.0022712862046e-03
194 8.4133657669714e+02 3.0768008142302e+04 -4.0183912365937e+00 2.6572992387112e-03
195 4.7481582573268e+02 3.0734392291673e+04 -6.6711302926874e+00 2.0533162889753e-03
196 -1.5399433209004e+03 3.1032534032122e+04 -2.3376500766699e+01 1.2579174165483e-03
197 -2.0148201685716e+02 3.0688339313911e+04 5.6573372580733e+00 2.3203688386494e-03
198 -4.9016446590514e+02 3.0924550777483e+04 4.4844149990014e+01 3.5469323576608e-03
199 -1.6127953338178e+03 3.1559598845689e+04 2.3098358726852e+01 2.3925151339475e-03
200 -2.6346721498519e+03 3.1529084207476e+04 1.6585899384918e+02 2.9531467667411e-03
201 -2.1678054217667e+03 3.1346784899961e+04 -2.7599395513811e+01 3.7043125368489e-03
202 6.5556589727452e+02 3.0470995636389e+04 -3.1723295551163e+00 2.5522245227414e-03
203 5.2025379812132e+02 3.0218877631346e+04 -3.0510921877968e+01 2.4619670676650e-03
204 2.0019245523935e+03 3.1802588263973e+04 -2.9414391122690e+00 1.1206544028896e-03
205 -5.9727685213229e+02 3.2380528877596e+04 2.0053353189276e+01 2.2447211695040e-03
206 -4.4095060817402e+02 3.2188816218800e+04 6.2220599202467e+00 2.6335115872802e-03
207 -1.0622993703345e+03 2.7773167439168e+04 1.4789284434086e+01 1.4575133163735e-03
208 -6.2244555003287e+02 3.0056467278140e+04 -9.0673777362293e+00 2.3044114354494e-03
209 -1.7438143913769e+03 2.9995558411319e+04 -1.6555567267839e+02 1.7641379124130e-03
210 -1.2787909914292e+03 3.0767000183078e+04 -8.7529114207109e+00 1.9877639642300e-03
211 -9.6442565779577e+02 2.7925794104684e+04 -1.6107198694317e+02 4.4560807597497e-04
212 -4.1238753609502e+02 3.2540294103258e+04 1.2366204778948e+02 1.8381176669539e-03
213 -3.1799228835073e+02 3.0057932867101e+04 -3.1916454890612e+00 2.2135967637151e-03
214 -9.9448414507830e+02 3.0105994771065e+04 -2.2603713768548e+00 2.4126993903827e-03
215 -5.0893931391747e+02 3.1139836107344e+04 -2.3363619334276e+01 3.5470731514244e-03
216 -1.0287769509119e+03 3.1660150257469e+04 2.4461694721047e+01 3.3996352703295e-03
217 3.5440619958315e+02 3.0544243158570e+04 1.7365599918508e+02 2.6717178204970e-03
218 1.6753116170587e+03 3.0297233127947e+04 -1.1899417549102e+01 2.4769415857621e-03
219 -1.4708144550132e+03 3.0978353835288e+04 1.6714792903691e+02 2.9421733241680e-03
220 2.7287612111621e+02 3.0728898783988e+04 -7.4346493742038e+00 3.4413132287175e-03
221 4.6756713947709e+02 3.0626287566758e+04 3.7703608419060e+00 3.1010142955352e-03
222 -1.4329187160773e+03 3.0533472064351e+04 -1.7784718069134e+02 1.4482274540466e-03
223 -1.6731341831697e+03 2.9621053153690e+04 -1.2456254461964e+02 1.7571402802814e-03
224 -1.0652827324689e+03 3.2619698504162e+04 -1.9149594842430e+01 1.6188023291187e-03
225 -7.0258197805815e+02 3.2188179564893e+04 -1.1816747551605e+01 2.0781447870672e-03
226 6.7481283921210e+01 3.2281919508472e+04 -1.6714327383728e+01 1.6465899004932e-03
227 2.2766807439247e+03 3.0924176951908e+04 -9.1337538619077e+00 2.9925116664107e-03
228 6.3590155004427e+02 3.1109997481505e+04 -1.8036714402914e+01 3.6994649537948e-03
229 -1.1080894684268e+03 3.1044162408036e+04 2.6764495347252e+01 3.2951241219491e-03
230 -1.4081691124977e+03 3.0975128701639e+04 -1.7495280550865e+02 2.1210801540370e-03
231 -5.2050870268391e+02 3.0967734294894e+04 -1.7780427542369e+02 5.0798103275459e-04
232 1.0338865858037e+03 3.4416189443376e+04 -1.1803117050778e+01 3.6822474187764e-04
233 1.3655672817484e+00 3.2566114032197e+04 3.8423487609808e+01 1.9272224057955e-03
234 -8.0263931264007e+02 3.1180829162541e+04 1.5457620343598e+02 3.6621409923590e-03
235 -4.3461850927640e+02 3.0671942514775e+04 -8.6291689531179e+01 2.8458129878065e-03
236 4.8330537461262e+02 3.0764246743877e+04 -1.5018224425031e+01 3.4686366974513e-03
237 -2.2289634290450e+03 3.1163303476739e+04 1.7095083498259e+02 3.0336903398173e-03
238 2.8356246416547e+01 3.0858231082368e+04 -7.5168546322724e+00 2.9616838682552e-03
239 2.1162540795760e+02 3.0596439222740e+04 2.3287236702956e+01 1.3081892649245e-03
240 -1.2529444832403e+03 3.0758453986856e+04 1.6244204675394e+02 1.8157530817468e-03
241 -1.6035490282736e+03 3.0581443771633e+04 -1.7007851157143e+02 1.7696774366814e-03
242 -2.5919349458218e+03 3.2629798411475e+04 1.7245140727767e+02 6.3696706028959e-04
243 -1.3410156119541e+03 3.2217062214809e+04 -1.4879004000493e+02 1.9184540699605e-03
244 4.3287759977159e+02 3.1229023524331e+04 6.0394171585732e+01 3.7226216339361e-03
245 1.0289288601322e+03 3.1413743802659e+04 1.9212691380383e+01 3.7383957355678e-03
246 -4.0189699925074e+02 3.1830007058547e+04 -2.5930609709932e+00 2.0407223750950e-03
247 -8.8019605128705e+02 3.2516206514863e+04 1.6747883715870e+02 1.3244548853215e-03
248 1.5255335745021e+03 3.2203379778950e+04 -1.5407890324009e+01 2.1936738966705e-03
249 2.1728890748307e+00 3.1462665243836e+04 -2.9915503412034e+01 3.2238648438730e-03
250 -1.0184723832456e+02 3.1959880573978e+04 3.3329696760562e+00 2.0751596275014e-03
251 8.0768505862606e+02 3.1716025734275e+04 -4.6257166000746e+00 2.5632981168750e-03
252 -1.0403881234037e+03 3.1816848362644e+04 -1.7936065543767e+02 2.1516944236325e-03
253 -8.5660486477863e+02 3.1008166919521e+04 -1.6103739643769e+01 3.1069923906909e-03
254 -1.0873951741993e+03 3.1042648554704e+04 -1.7801860077827e+01 2.6691661877645e-03
255 1.1026516503332e+03 3.1502714341666e+04 4.5305165564297e+00 1.4372945792820e-03
256 2.8325460581293e+02 3.1395346280972e+04 2.9006636488283e-02 2.8913695974569e-03
257 5.4538950242557e+02 3.0902537397345e+04 -5.2421460469151e+00 3.5462115731175e-03
258 1.1035924298511e+03 3.0767575954067e+04 -8.4987021348559e+00 3.3354045372222e-03
259 -1.1979429740287e+03 3.1427619978915e+04 9.1030364512352e+00 3.6503291265493e-03
260 -1.6724349760628e+03 3.1197650954456e+04 -4.8575955841235e+00 3.7049377359576e-03
261 -9.1640259793752e+02 3.1178024104862e+04 -1.5108395756919e+02 1.1297788478986e-03
262 -3.1180996141990e+02 3.1668689980135e+04 5.8060185113473e+00 3.4507097368725e-03
263 -1.7669342483657e+03 3.1560752918541e+04 -1.7658046088225e+02 2.3556276942646e-03
264 2.9804037763581e+02 3.1237389147985e+04 7.7346749374640e+00 3.7299692048538e-03
265 -1.2968222375536e+03 3.1245749436045e+04 1.6361344570163e+02 2.7495054936600e-03
266 -1.1105721238294e+03 3.0342449284647e+04 1.6725736843369e+02 1.0190551898476e-03
267 -2.4058751968231e+03 3.2540574361179e+04 1.7022405637324e+01 1.0752408519509e-03
268 -7.6294755484277e+02 3.2103458286614e+04 2.9298827773926e+01 6.5504489584008e-04
269 -5.1140463816173e+02 3.1930300932615e+04 1.7084660807835e+02 2.9218719295111e-03
270 -2.9227330270688e+03 2.9864347360714e+04 -1.6789562757696e+02 3.7285022186847e-03
271 -2.5396450809849e+02 3.0035376132474e+04 -4.0866481019744e-01 1.1092131099583e-03
272 6.2744222663350e+00 2.8507823030181e+04 -6.3318971182965e+00 4.5099148137702e-04
273 2.3207558046171e+03 2.8420228022438e+04 -5.1135694030796e+00 3.8850867736403e-04
274 -1.4533114851208e+03 2.7830718776777e+04 -2.0369017906937e+00 1.7556382792297e-03
275 -1.3600860352123e+03 2.9440967517375e+04 -2.4073140997089e+00 1.7000910024432e-03
276 -6.9795937658873e+02 2.9227472584867e+04 -1.2338355079317e+01 9.3531978151779e-04
277 -2.6041027439054e+03 2.9092631066256e+04 3.0023843945948e+01 3.2338598449814e-03
278 -2.0090660920896e+03 2.9101406747223e+04 5.7763375701763e+00 2.4628859447166e-03
279 -1.4757472505885e+03 2.6164858329564e+04 -3.9071841967767e+01 1.2239124219551e-03
280 -1.1477772632417e+03 3.1350821063109e+04 -3.2538852531298e+01 3.5786132798561e-03
281 -1.1429601533066e+03 3.1509365252516e+04 -6.2025899227010e+00 3.5378858850477e-03
282 1.5526679040956e+02 3.0919412408768e+04 -7.7811387375722e+01 3.6415505414354e-03
283 -6.7525979917947e+01 3.1353703065856e+04 1.5682214431813e+02 3.4827423841041e-03
284 -1.1404224029003e+03 3.0712546034040e+04 1.8368807243696e+01 3.2741909625350e-03
285 -2.0208640630281e+03 3.0589573633941e+04 -1.7854983563356e+02 3.2985930138379e-03
286 -1.4319068111623e+03 3.0718308834501e+04 1.6665570113251e+02 3.2711247062451e-03
287 -1.0119201794468e+03 3.0559440808230e+04 -5.4377909348328e+01 2.5465062300289e-03
288 5.3058189679490e+02 3.1537751252364e+04 1.7252355205382e+01 3.3054836033223e-03
289 1.1966062303300e+03 3.1484665306691e+04 5.7465816677571e+00 2.5731114984662e-03
290 -9.1518805747130e+02 3.0890256038673e+04 5.4653422113461e+00 2.1048229543842e-03
291 -2.1669418386734e+03 3.0898808977199e+04 1.6765994507108e+02 3.7189416377286e-03
292 -1.7927322891062e+03 3.1149228116894e+04 -1.6725716643443e+02 4.3028515905480e-04
293 -1.2295344960797e+03 2.4410493002382e+04 -1.0788828737800e+02 2.3468283019703e-03
294 -1.9954750213895e+03 2.6204157282768e+04 1.7826291375996e+02 3.7297980765248e-04
295 -1.6338653527772e+03 2.5095102215378e+04 -1.5532341311472e+02 3.0837550317765e-03
296 5.3311365760507e+02 3.0615477865557e+04 -6.6484756940365e+00 3.2507220481941e-03
297 -6.0763712907888e+02 3.0413723307185e+04 -1.2603068080137e+02 2.9905881478081e-03
298 -2.5135785736785e+03 3.1397595561118e+04 -1.5900611040667e+02 2.3942713854485e-03
299 -6.0270982498218e+02 2.5726550661233e+04 -9.3439205044788e+01 1.0577108421237e-03
300 -1.7875552161218e+03 2.8349291631022e+04 4.1708741521581e+01 2.7712846610884e-03
301 -2.0761725026504e+03 2.8220432723345e+04 1.5106187985022e+02 2.6946333885688e-03
302 -2.0011324295489e+03 3.0068414043194e+04 1.7064930493133e+02 2.8117636484466e-03
303 4.7294354904863e+02 3.1365533956180e+04 9.5476300428576e-01 2.2676534200821e-03
304 5.4097155757854e+02 3.1385641676105e+04 2.3184613996127e+00 2.9524151045022e-03
305 -2.0455519604383e+03 3.2118051324366e+04 1.6512880755801e+02 1.7317862102729e-03
306 -1.2258740336909e+03 3.1981596408159e+04 9.8342747405946e+01 2.4938691072492e-03
307 3.2765020303282e+02 3.2251916323288e+04 -1.4023730004055e+02 1.7726350993497e-03
308 -8.6654411099318e+01 3.2400121836884e+04 1.6641779186530e+02 1.9572887149856e-03
309 5.1557662901507e+02 3.0989122575665e+04 -7.0299990531506e+00 2.3341027540894e-03
310 2.6965264862850e+02 3.1341938471866e+04 2.1278449656174e+01 2.4702576727071e-03
311 -1.1569467313583e+03 3.0479141923966e+04 -5.3423895441579e+01 2.2460093090260e-03
312 9.6484439054488e+02 3.1177528087961e+04 -2.2918326922948e+01 3.4670152368233e-03
313 2.0377161888030e+03 3.1296769051562e+04 4.5459949673321e+00 3.6899339869835e-03
314 8.8261362014368e+02 3.1593486602198e+04 -2.1804680569195e+00 3.6606961145760e-03
315 4.1324736917047e+02 3.1683391706797e+04 7.5659466150814e+00 3.4253432915064e-03
316 -1.4728297519546e+03 2.9501677684917e+04 -8.0216668030287e+01 1.2487581614117e-03
317 -3.8789714145995e+02 2.5956718280761e+04 9.5486304090498e+01 8.1759089155295e-04
318 6.4011210784953e+02 2.6602970463669e+04 -7.6423189841520e+00 3.4409286168954e-04
319 -1.1166973976222e+02 3.1433399099635e+04 3.0334217127590e+01 2.9683658639049e-03
320 -2.3063607010329e+01 3.0180887323339e+04 -1.6307064939683e+02 2.4157087620569e-03
321 2.0442935195869e+03 3.0229442938567e+04 -8.6438125524975e+00 1.7782352853839e-03
322 4.1734708329676e+02 2.2819346568702e+04 -9.4021526581513e-01 4.3493907174029e-04
323 2.4782843235250e+03 3.1044759447060e+04 -6.2371928751350e+00 2.2928913871603e-03
324 2.5693672637460e+02 3.1424564787534e+04 1.5218097011234e+02 3.6468719633403e-03
325 -5.9634150169837e+01 3.1087436364615e+04 1.5812543106004e+02 1.5087058259547e-03
326 3.4998152020253e+02 3.1939931589653e+04 5.7871079895878e+00 3.1526799524258e-03
327 2.4978728175105e+02 3.1724410876917e+04 -1.3652044216776e+01 3.4904541781186e-03
328 1.5219832266801e+03 3.1796122767553e+04 5.9648289943308e+00 3.4519333996683e-03
329 4.2916868842630e+02 3.2001284792521e+04 3.9716765817834e+01 3.0373984203362e-03
330 -1.0328087456335e+03 2.7033446982681e+04 -4.0015965286957e+00 9.8679951905988e-04
331 -7.7939581811253e+02 2.7211773483809e+04 3.1095747295835e+00 9.8163894035182e-04
332 1.1613435780782e+03 2.5516905321378e+04 -1.8269145603241e+00 3.4633761927556e-04
333 1.8651753369755e+03 2.7443794824374e+04 1.1099539495253e+01 3.4209472376388e-04
334 1.3588168631297e+03 3.0101263169022e+04 -9.3106092266294e+00 1.9913054495131e-03
335 -1.0664761506509e+03 2.7399828263227e+04 2.3903388965573e+01 1.4750387097657e-03
336 7.5440424931625e+01 2.6314540361176e+04 -2.1684248921676e+01 4.8547642479459e-04
337 -1.6034318811844e+03 2.5666593273535e+04 -1.7742446519433e+02 2.5442988803334e-03
338 -1.0505636459078e+02 2.6196888605698e+04 1.1519489497127e+01 5.9070850361403e-04
339 -1.2980610603656e+03 2.7834174789789e+04 4.1968828463299e+01 1.2360914771617e-03
340 -3.1850796569380e+02 2.5126928405408e+04 1.4764236544513e+01 5.6536203052059e-04
341 5.1557701961468e+02 2.4925180549753e+04 6.6798897937085e+00 4.1013081109913e-04
342 1.0691834614343e+03 2.2374206403027e+04 -9.1030901241434e+00 3.6560036855200e-04
343 1.6178577716977e+03 2.2579580485972e+04 -3.4926165777231e+01 3.4416871348478e-04
344 -7.0540451031144e+02 2.2422093242239e+04 -1.6190008803402e+01 1.6295591573625e-03
345 1.7290360939158e+02 2.2919122094578e+04 -6.8677573878359e+00 3.6543235580516e-04
346 -9.8335588279289e+01 2.3307461616907e+04 -2.5037671651977e+00 4.3905061835491e-04
347 -2.2476846681262e+02 2.1920073451694e+04 5.0716744880502e-01 7.7219002243344e-04
348 -1.0933566622318e+03 2.3518225967322e+04 7.7303756043282e+00 1.5233356005068e-03
349 -4.8575498777301e+02 2.1870969438296e+04 4.5312064514975e+00 1.0001417001411e-03
350 1.3538762381874e+02 2.7401870752322e+04 -8.5271931904796e+00 3.5845103219358e-04
351 -1.5973301484441e+03 2.5628480816014e+04 3.7661124699796e+01 2.1955339818492e-03
352 -1.6406755115211e+03 2.5640624920823e+04 5.6852496101088e+01 2.4321929262457e-03
353 -8.0697970937577e+02 2.5134629295275e+04 1.2780225104050e+01 1.2254154143451e-03
354 -7.4827040534088e+02 2.4918814561138e+04 1.5701569462578e+01 1.1508765117364e-03
355 -6.0407338115984e+02 2.4434810465254e+04 -8.3005860220227e+00 1.1506879223325e-03
356 -7.8266611672293e+02 2.5495548600156e+04 1.1706163995727e+00 1.3824787013663e-03
357 -1.3691976509695e+03 2.5338819212544e+04 -9.0534874767950e+00 2.3601850404081e-03
358 -2.8632997537541e+03 2.7161087622062e+04 -1.1326582912212e+01 1.5393791670335e-03
359 -3.0080439661938e+03 2.6465200375287e+04 -1.6183042272242e+02 5.2645332001529e-04
360 5.2247194741221e+02 2.6647291455903e+04 -4.9458083382553e+00 3.7842753156688e-04
361 -1.2631104940188e+03 2.5686575194078e+04 -1.5825145157736e+02 2.0587253457875e-03
362 -2.6204873999593e+03 2.6120774909216e+04 1.6181582167706e+02 3.5370671273750e-03
363 -1.1019099168272e+03 2.5872602181370e+04 -6.0033976239675e+00 1.6479509558492e-03
364 -4.6030631406155e+02 2.6478589625134e+04 -6.5864245381180e+00 5.5469202878486e-04
365 -9.3258168485693e+02 2.4819326902797e+04 1.5861940349373e+02 1.5296557824006e-03
366 -1.7842152255280e+03 2.3203911610858e+04 -7.5088020155604e+01 2.2481444564525e-03
367 -1.6915929790243e+03 2.3349290762359e+04 -3.7373266415364e+01 2.8546651680577e-03
368 -2.5806895381291e+03 2.9759174348573e+04 -6.5386595960262e+00 1.7212173249886e-03
369 -2.8219021718647e+03 2.9671310570555e+04 -1.0798799623740e+02 1.8617308048526e-03
370 -1.4470147963608e+03 3.0178405276752e+04 1.1091271636615e+02 2.3874770985383e-03
371 -7.9637044385572e+02 3.1633849813574e+04 -3.5677545967010e+00 3.4805969358242e-03
372 -1.2753681272755e+03 2.8218194228259e+04 1.3466438216226e+01 1.7909146783894e-03
373 -1.3612010405302e+03 2.8171048390068e+04 1.0673452347485e+01 1.9591718484557e-03
374 -1.3320466275001e+03 2.8206094459205e+04 -1.4117427755207e+02 1.9015680226259e-03
375 -2.8216597325442e+03 3.0846126321492e+04 -1.7230210284968e+02 2.9939230089977e-03
376 -1.3338635051724e+03 3.0983449373520e+04 5.1574524777851e+00 1.7712979551172e-03
377 -2.2498588725974e+01 2.6794507699240e+04 1.8815045966942e+01 4.7497587748367e-04
378 -1.2564081012107e+03 2.6086565520641e+04 -4.2004076945766e+01 1.4131426372575e-03
379 -1.8341360955972e+03 2.6152166739873e+04 -1.9029732490591e+01 2.4638710599068e-03
380 -3.4701632084349e+03 2.6609326979785e+04 1.6864976220203e+02 2.0105130050969e-03
381 -2.3495562055575e+03 2.7066790275862e+04 -1.3261734721958e+02 2.6222094502102e-03
382 3.3675351748417e+01 2.8248742169594e+04 3.8661744694413e+00 4.2800383475608e-04
383 -1.2179665525517e+03 3.0344555784374e+04 -3.6558873366112e+01 2.2066594472189e-03
384 5.9658169322375e+00 3.0846536100818e+04 7.6387832803135e+00 3.5415269670391e-03
385 9.4422895303333e+01 3.0861513669497e+04 8.4364016481055e+00 2.9694448575873e-03
386 -5.9391344958252e+02 2.7957856701924e+04 -4.9863147683277e+01 8.3185114105171e-04
387 -1.5139822364550e+03 2.8817195776245e+04 2.2354050335128e+01 1.2223360632749e-03
388 -1.6648075875274e+03 2.9934874900797e+04 -9.7912269781787e+00 2.1784704294171e-03
389 -2.7506744109511e+03 3.0086680332444e+04 1.7637106017730e+02 3.5780449508302e-03
390 -8.9293430727245e+02 2.9977783050476e+04 -6.6082365361205e+00 1.5188587032110e-03
391 8.8384210028314e+02 2.9459181043094e+04 2.4762704225291e+00 1.0952794219805e-03
392 -3.4086913592560e+02 2.7219837122735e+04 5.1180895026158e+00 4.5542736365008e-04
393 -1.6801035040725e+03 2.6709246408644e+04 -1.7169612259960e+02 2.3638101789121e-03
394 -2.7641533982808e+03 2.7881810141206e+04 1.7117287904867e+02 3.4643904498537e-03
395 -9.7531515091784e+02 3.1316973587863e+04 -5.1828559322997e+01 3.7242262385522e-03
396 -9.7222079007752e+02 3.1412943147607e+04 -3.6389449124335e+01 3.6818035562133e-03
397 -5.1653055035465e+02 3.0007573081985e+04 1.9935347479930e+01 1.7361140093112e-03
398 8.1796802221845e+02 3.0604521096714e+04 1.2971232550887e+01 1.7716616165957e-03
399 1.1792865929517e+03 2.9117519385047e+04 -4.4496148923205e+00 7.0723511897880e-04
400 -3.3274568443334e+02 3.2014890427410e+04 -8.5380392988885e+01 1.2667685337756e-03
401 -3.2964621345390e+02 2.6584575295656e+04 4.6754869433452e+00 6.7643211294146e-04
402 -1.4580526971228e+03 2.7843227141685e+04 1.7609452391006e+01 1.2165470974148e-03
403 -7.9095270367555e+02 2.6474346745146e+04 -4.6662515012069e+01 6.2694214965869e-04
404 -2.7732477993254e+03 2.4031650869636e+04 -1.6548357077549e+02 5.4429247298082e-04
405 -1.1908080931870e+03 2.4119326965754e+04 -1.6073872299422e+02 2.1509408311298e-03
406 -8.1686196881262e+01 2.4965567442545e+04 -3.7668490610869e+00 6.4924201278577e-04
407 -1.4993101837630e+03 2.4906450770209e+04 1.4502932655389e+01 2.8197541480065e-03
408 -1.1553726673368e+03 2.4755796454073e+04 -9.2014082095256e+00 2.1706667523739e-03
409 -1.6289445788014e+03 2.4822909005657e+04 -2.1434929743428e+01 2.9047853599296e-03
410 -1.7019144813901e+03 2.5679807694250e+04 -1.3526959188481e+01 1.5098680973157e-03
411 -1.9087474073075e+03 2.6677695479909e+04 -1.7266285334655e+01 3.1813641184708e-03
412 -1.3511820547046e+03 2.6622670655452e+04 -1.0237313664464e+01 2.0802005298510e-03
413 -3.1622300322531e+03 2.6010883963134e+04 1.5633697006632e+02 2.0453983207162e-03
414 -1.6973933359017e+03 2.5904828660352e+04 -7.6528832713648e-01 2.8655475662569e-03
415 -1.6935413091073e+02 3.1355950290902e+04 -1.5086756640847e+01 3.0204911904919e-03
416 -1.3559870260627e+03 3.1708281960013e+04 1.6104778733280e+02 3.1369116384754e-03
417 -2.8407258554208e+03 2.5595111264674e+04 -6.8144691290844e+00 3.5774609730695e-04
418 1.2385900167739e+02 2.7309578639075e+04 -9.5269168273028e+00 4.4077792615249e-04
419 -2.9967114558993e+03 2.6130938715208e+04 1.6790131384248e+02 3.3633919376075e-03
420 -3.3853514925240e+03 2.6015082083501e+04 -1.7865933650338e+02 1.6392802285536e-03
421 -1.2080177098259e+03 2.8433655392444e+04 -2.6075964819260e+00 1.0671751294232e-03
422 -8.5648231070178e+02 2.4977502257673e+04 -1.0370527530463e+01 1.4159037653644e-03
423 -1.7247586482147e+03 2.4895685136532e+04 -3.7947589914311e+01 2.9815621707152e-03
424 -1.3406413637645e+03 2.5982905586984e+04 1.5846711714104e+02 2.0988384166644e-03
425 -1.1788995459027e+03 2.8205250865414e+04 -2.0922702096088e+00 5.8481471893846e-04
426 -2.1811357060767e+03 2.8476920424500e+04 -7.3175107353674e+00 1.5990883692937e-03
427 -3.3646282464500e+03 2.8774175882872e+04 3.2821004835191e+00 1.9486449606268e-03
428 -2.4420559240019e+03 2.6241581098648e+04 -6.9526717345642e+01 9.0430098685040e-04
429 -6.3181734871645e+02 2.7808849404792e+04 -1.2952602861318e+02 5.2932965070536e-04
430 -1.3880254034455e+03 2.7959694808592e+04 -7.2763506309495e+00 1.5665251885351e-03
431 -9.4558709189360e+02 2.5511129722594e+04 -9.7710459298079e+00 6.7277571173975e-04
432 -4.7921767901071e+02 2.6393617064476e+04 1.0288485474837e+00 8.7296594050647e-04
433 -2.2309780180421e+02 2.6226924323460e+04 -7.1042285643572e+00 6.6604301181396e-04
434 -1.0946233972708e+03 2.6353615111287e+04 -3.9945504184077e+00 1.7848455740382e-03
435 6.2212458337438e+02 2.7298774698040e+04 -9.3347795414178e+00 3.6624020652784e-04
436 -1.7722353171386e+03 2.9429461198337e+04 -3.2443473229029e+01 2.0562236957436e-03
437 -1.3629162499903e+03 2.8342030208078e+04 -1.2499180177981e+01 4.3706456361701e-04
438 -7.7751189633284e+02 2.6560919628983e+04 -5.9678321024417e+00 1.2018778820092e-03
439 -1.1336173394898e+03 2.7002472827242e+04 -1.8479648441382e+01 1.4772221779449e-03
440 -2.0166189633798e+03 2.7315023760692e+04 1.5835255368648e+02 3.3613633030806e-03
441 -1.3835233736965e+03 3.2223737131105e+04 -9.4527512448244e+00 2.3118585371358e-03
442 -1.0429325877906e+03 3.2246850014399e+04 -1.1618123795843e+00 1.9890344766729e-03
443 3.9723966871281e+02 3.0158087039272e+04 -1.8056961587454e+01 1.4517575188864e-03
444 -5.3118383677445e+02 3.0992279105844e+04 -7.7840030950499e+01 3.7144326728404e-03
445 7.1145447817485e+02 3.1046720413588e+04 -7.9435030212482e+00 3.5959725860365e-03
446 -1.0159493971421e+03 3.1092673364014e+04 -1.6278681837067e+02 3.5478666602763e-03
447 -4.4530315911336e+02 3.1437365750001e+04 -3.3957703588041e+01 1.1179183860958e-03
448 -3.4377246463469e+02 3.0851880292111e+04 1.3710947551019e+01 3.5251364418236e-03
449 -3.4064148744930e+02 3.0570212985603e+04 -9.7210620471041e+00 3.2039060977084e-03
450 -1.5637481657135e+03 2.9763027328349e+04 -4.4459768127401e+01 6.3281244937731e-04
451 -1.4260914426547e+03 3.0420145654975e+04 1.7010122340656e+02 9.9292512185130e-04
452 -2.4560199960259e+03 2.9740388862585e+04 -1.7291084658642e+02 5.8659880472351e-04
453 -2.9795176258361e+03 2.8290510827282e+04 1.4832184890724e+02 8.1467474694446e-04
454 -1.9950867322585e+02 2.7909815147143e+04 3.8431084076349e+00 4.5753557160324e-04
455 -2.2618739679141e+03 2.7647278676818e+04 -1.2855568349096e+02 3.2961813605016e-03
456 -1.6229822729212e+03 3.0657029708732e+04 -1.8024095835693e+01 3.0845656197610e-03
457 -1.8403320860980e+03 3.0976960270919e+04 1.0216631755454e+01 3.3539834658698e-03
458 5.5413280356868e+02 3.0897718213478e+04 -6.3166884308980e+00 8.2490350372048e-04
459 -1.2284071486117e+03 2.9595365996212e+04 5.8262954886474e+01 1.4014048684611e-03
460 -2.0740666288286e+03 2.9307284586346e+04 -1.2884154975281e+01 1.8068071365074e-03
461 3.3142773045062e+02 3.0014635356660e+04 -7.1206112807772e+00 7.6639974255059e-04
462 -2.3636145137527e+03 2.7849016229364e+04 -1.6814336308146e+02 1.0262863016946e-03
463 -3.4161273889928e+03 2.8042857050346e+04 -1.7915384866881e+01 1.9698627687544e-03
464 2.5938322722676e+02 3.1078591492825e+04 5.4940206306868e+00 1.4261616524435e-03
465 -6.1686730295771e+02 3.1726295599309e+04 -7.7288991002220e+01 3.2701250682395e-03
466 -6.3348650936136e+02 3.1640904258105e+04 -8.6930242726391e+01 3.4965614309176e-03
467 -1.1382960807430e+03 3.1112077853782e+04 -5.5527946487493e+01 3.4977216612287e-03
468 -1.0347185893824e+03 3.1380886079210e+04 3.8241026088093e+01 3.2903249140296e-03
469 7.1936748027826e+02 3.2211464029098e+04 1.8687020483014e+00 2.6493223532291e-03
470 -1.0218269705655e+03 3.2320702223203e+04 -2.5857530460615e+01 2.2693217681623e-03
471 1.0750681623782e+03 3.0943012612230e+04 -2.4544596861461e+00 3.1610384716416e-03
472 -2.6680174499882e+02 3.1026203381251e+04 1.5057246228218e+02 3.3439704580173e-03
473 1.1648158176693e+03 3.1398243050055e+04 -1.0197678639064e+01 3.7386003156499e-03
474 2.0907552517631e+03 3.1279014438218e+04 -8.4249779245319e+00 3.5421262006886e-03
475 -2.0060357396290e+03 2.9439670112589e+04 6.1388651323723e+01 2.1589741332016e-03
476 -2.0370141234427e+03 2.9150811715940e+04 -1.2813573637362e+01 2.1019683387129e-03
477 -4.1634019335761e+01 2.8074922475527e+04 -6.6540108098923e+00 4.5847847128631e-04
478 -1.2706728036141e+03 3.2361333402106e+04 3.8208643647554e+00 2.1453404558783e-03
479 -1.8755147146683e+03 3.0165390888204e+04 1.6911391093045e+02 2.0812198948395e-03
480 3.2502459516712e+02 2.9934699501476e+04 -7.3574928871968e+00 1.8293036656047e-03
481 -7.1723882346097e+02 3.0280004769320e+04 1.4174490093715e+02 2.7776095897734e-03
482 -9.3724070705721e+02 2.9178655807305e+04 6.0574155109762e+00 7.6114348440122e-04
483 -5.2818963230485e+02 2.9475676500479e+04 -7.7264065022453e+00 1.0624986072207e-03
484 -1.6426285145764e+03 2.9174850893254e+04 -1.2450443441924e+01 2.3386346759108e-03
485 -1.6957615468735e+03 2.9228994685385e+04 -9.2260414877290e+00 2.3867313780768e-03
486 -1.7603980915203e+03 2.9877178057366e+04 1.7914894737990e+02 1.3403652929128e-03
487 -9.4566338908357e+02 2.7412864913521e+04 5.7604665206948e+00 1.1307410052326e-03
488 -1.1272967718073e+03 2.7291455227371e+04 -1.4363907831315e+00 1.6770612164621e-03
489 -1.2396278355378e+03 2.7356579557204e+04 -4.0913635595040e+00 1.7921337727729e-03
490 -1.4766157012312e+03 2.7027761134690e+04 -4.8879856684833e+01 9.0491999767371e-04
491 -3.8803135565812e+02 3.1442600570736e+04 2.4711718545034e+00 2.9292542945621e-03
492 5.1421705008009e+02 3.3360601077919e+04 -2.6051229445261e+01 7.0749024156687e-04
493 -2.7313716158145e+03 3.1698867885784e+04 -1.5502565369475e+02 3.2870374116083e-03
494 -1.9249243203592e+03 3.1928268650787e+04 5.8115797457541e+00 2.7494050416849e-03
495 -6.0817023433151e+02 3.1033962776380e+04 -1.2893903350106e+02 3.6625950556407e-03
496 -4.6489535642099e+02 3.1227014529331e+04 6.2552854059889e+01 3.7381189445122e-03
497 6.7057232756830e+02 2.6747806900237e+04 1.9928128005441e+00 3.6400532809827e-04
498 2.6660831716097e+02 2.5641053102637e+04 1.0378307792271e+01 3.9548627249566e-04
499 9.8567696392803e+02 2.5470043958386e+04 -5.6903249305960e+00 3.5435725209700e-04
