0 5.2485066611280e+02 1.6433764179468e+04 8.1038375794138e+01 5.4791861013069e-04
1 2.5182691900428e+02 1.8030048362348e+04 9.8420881598594e+01 6.0018856977636e-04
2 -5.5881738932438e+02 2.6551063329427e+04 4.8951628708633e+01 6.7261294523327e-04
3 -5.9903601606657e+02 2.2941673225199e+04 9.0506827163249e+01 1.3369745269408e-03
4 -5.9772588063494e+02 2.0893221231827e+04 -6.8419596860756e+00 1.7619916761925e-03
5 -6.7551276538228e+02 2.0696907200581e+04 7.8258699339497e+01 1.9041270634495e-03
6 -4.0648765584181e+02 2.7370361934512e+04 8.2776539297310e+01 5.6189114298824e-04
7 -9.3854538564145e+02 2.8167378788556e+04 -7.4975203780147e+01 1.1733474713348e-03
8 -1.2719707461547e+03 2.5226662077721e+04 8.8662862518400e+01 1.1110928404076e-03
9 -8.6679089113009e+02 2.3817895147522e+04 6.9483107235571e+01 1.6686718846717e-03
10 -1.2005381252454e+03 2.2789549658354e+04 7.5864051705490e+01 2.3693766794073e-03
11 -1.0199588227047e+03 2.5199542135367e+04 4.1240410657613e+01 1.6450637573879e-03
12 -9.8164887185723e+02 2.5048650471103e+04 7.4198580044028e+01 1.6890389606074e-03
13 -1.4161499219418e+03 2.6087218582825e+04 9.4985222499739e+01 2.3849568120926e-03
14 -1.2955270848128e+03 2.6821774137030e+04 7.5377129156461e+01 2.0076275898250e-03
15 -8.4376318389710e+02 2.5926652338826e+04 7.9701752761094e+01 1.3571022358124e-03
16 -5.5316945448415e+02 2.2273185845646e+04 8.2025062732122e+01 1.0044649009126e-03
17 -7.5286050022573e+02 2.4188321246664e+04 9.6555253465868e+01 8.0147661724222e-04
18 -5.1670756692464e+02 2.4792816533114e+04 9.4577561000633e+01 6.6751826016352e-04
19 -7.4057831112653e+01 2.8835402239683e+04 -3.4738004014678e+01 5.4111116135319e-04
20 -8.8439113750299e+02 3.1235821589066e+04 9.4951241386211e+01 1.9483155798620e-03
21 -8.1559499367603e+02 3.2638740954532e+04 -7.5238895749287e+01 5.7369167018285e-04
22 -6.0781663999262e+02 2.6891302597443e+04 9.6956546850868e+01 9.2649438798265e-04
23 -1.2569091778573e+03 2.5853721765488e+04 8.4990660653101e+01 2.1177518317756e-03
24 -1.1311771730707e+03 2.2103989576023e+04 5.7187207686021e+01 2.5725197927286e-03
25 -1.1433355068111e+03 2.2316753910571e+04 -5.1243815378713e+01 2.4914140749356e-03
26 -9.3793281935271e+02 2.4563062201158e+04 -2.2832926064116e+01 1.7457819589595e-03
27 -1.1314227763541e+03 1.8103619511896e+04 -1.4874065698185e+01 3.1964398476766e-03
28 -9.5830669501978e+02 1.9382986873914e+04 8.3878436252068e+01 2.2223543012371e-03
29 -8.3889395075616e+02 2.0778996099475e+04 5.4165792117079e+01 1.7789001005435e-03
30 -8.5770420238683e+02 1.9260787640264e+04 7.1347988295660e+01 2.1446167942401e-03
31 -7.3750150379870e+02 1.8226039106848e+04 7.3773911705012e+01 2.4384685860801e-03
32 -8.4771046535830e+02 1.8299149025216e+04 5.9895519664779e+01 1.7964641018976e-03
33 -7.8634298431587e+02 1.9603735683676e+04 7.0583204899004e+01 2.2230746483135e-03
34 -1.0565354654911e+03 2.1551325530346e+04 9.0474468991322e+01 2.8392778158456e-03
35 -1.0817961101603e+03 2.2066325385616e+04 -9.4963710670349e+01 2.4073564748807e-03
36 -3.4131004815045e+02 2.0915636168928e+04 5.9925449517874e+01 7.9470442094034e-04
37 -5.7912725073854e+02 2.4994163031949e+04 -7.4442144601870e+01 8.1503221273207e-04
38 -8.3400442261813e+02 2.7855317187038e+04 8.9914218254968e+01 1.0041014153190e-03
39 -9.2582822469389e+02 2.9298551560324e+04 9.2054384208568e+01 7.4966873945932e-04
40 -8.8486860410756e+02 2.7845676282589e+04 8.9052470478446e+01 6.1674049013203e-04
41 -6.6626136691561e+02 1.6429347471399e+04 8.9731024129139e+01 2.8686172908371e-03
42 -9.1332010389888e+02 1.9477749190372e+04 9.7863086789099e+01 2.3943021233478e-03
43 -5.7933445123902e+02 1.6923138664052e+04 1.5075994292781e+02 2.4584794388226e-03
44 1.7363658219135e+02 1.6821253484582e+04 -4.8212565335073e+01 9.0761866441680e-04
45 -1.5144155419722e+02 1.9994503785361e+04 6.8300192755693e+01 1.1590187366291e-03
46 -2.3142105012158e+02 2.1456737928801e+04 8.2601259227798e+01 8.7032936500177e-04
47 4.9665648067326e+02 1.3460372560511e+04 5.0617631372137e+01 6.6941993331010e-04
48 -1.0705224075702e+02 1.7569328438936e+04 3.5291169046158e+01 9.5185129813674e-04
49 -4.9174903974054e+02 2.0241061338410e+04 9.3557592782129e+01 1.4983281912947e-03
50 -4.7954082823002e+02 2.0075959010677e+04 9.7564603400730e+01 1.6121192771720e-03
51 -4.1122189046513e+02 1.8783661106263e+04 9.4015823402954e+01 1.7834177894910e-03
52 -9.0888283314766e+01 1.7841489136476e+04 6.4644085259195e+01 1.0680690847965e-03
53 -3.4156718232785e+02 2.2745838394116e+04 9.3554266594642e+01 8.6288533817453e-04
54 1.7346854803019e+01 2.3483856703116e+04 6.9746439292985e+01 6.3760794958056e-04
55 -4.7188373907646e+02 2.1877511928206e+04 -9.0060299175522e+01 1.0225689884841e-03
56 -6.1985130674268e+02 2.8779677959151e+04 8.7224184058491e+01 7.5085409696390e-04
57 -6.2766469620662e+02 2.7074525351165e+04 9.6024277945810e+01 8.9427911849350e-04
58 8.0554551401341e+01 2.6682093538293e+04 5.2811108061486e+01 4.2826545446120e-04
59 -1.1731013867339e+03 2.4636170767346e+04 -8.9749890401220e+01 1.8242716247214e-03
60 -1.1918026615877e+03 2.5733351565371e+04 9.1334213428204e+01 4.1002752000372e-03
61 -6.9595624116422e+02 2.6904688571432e+04 3.0327324078457e+01 1.0232051365859e-03
62 -7.0858128302854e+02 2.1829607673448e+04 -1.8425101345563e+01 1.7848616519273e-03
63 -9.9205138897242e+02 2.2983793477292e+04 9.3025019770849e+01 1.5392182146643e-03
64 -7.7140461571958e+02 2.4354721239128e+04 8.4543362487906e+01 1.4379951200714e-03
65 -2.7494603765821e+02 2.6342615195797e+04 7.2447350459975e+01 5.5690356421067e-04
66 -8.9921120400698e+02 2.2020493827431e+04 9.3712462482716e+01 1.2406941023589e-03
67 -1.8078100189519e+02 2.3925317866796e+04 7.6367892311622e+01 7.5068137035342e-04
68 -4.6036985235768e+02 1.8724890505950e+04 1.3330837749294e+01 1.8109568141360e-03
69 -6.4014350673119e+02 1.9860733852024e+04 9.6690264518839e+01 1.9609403614507e-03
70 -2.8018723219587e+02 1.9037849624196e+04 6.9026535930928e+01 1.3663359342454e-03
71 -3.5808288300509e+02 1.5655212363250e+04 9.1756448856896e+01 2.2548713645295e-03
72 -5.6657709172181e+02 2.1139791058612e+04 8.4393171767834e+01 1.0254805917434e-03
73 -6.8191011307131e+02 1.9825549922369e+04 9.4257152257034e+01 1.3316094640596e-03
74 8.4795473918450e+01 2.4705308149091e+04 -2.3840859459530e+01 4.7999237444164e-04
75 -6.8932546808660e+02 2.4775519853096e+04 7.2260514655885e+01 9.5907234637997e-04
76 -1.1521009397922e+03 2.5453796297057e+04 1.2569596930008e+02 1.8521312410491e-03
77 -8.4132109583402e+02 2.5388240306022e+04 7.7617373373856e+01 1.1704991987541e-03
78 -4.0084699919121e+02 2.8767806672318e+04 8.8211055472574e+01 5.0594814520033e-04
79 -8.0317343913830e+02 2.3720374667579e+04 8.7311307871078e+01 2.8316097104726e-03
80 -1.5910475038576e+03 3.0432218386128e+04 8.1412972344197e+01 2.9292431259358e-03
81 -1.6318905302042e+03 2.7494952001719e+04 9.1125778254316e+01 1.2947007678559e-03
82 -1.3951377328766e+03 2.6390754870831e+04 1.2084337359996e+02 1.6205676576906e-03
83 -1.4387234029838e+03 2.5187696362874e+04 1.0305650406263e+02 2.2215171225010e-03
84 -1.5447750295363e+03 2.6936426933029e+04 1.0982700113777e+02 2.0902437862439e-03
85 -1.3749705861192e+03 2.5609862122129e+04 4.1911444659424e+01 2.3349164362405e-03
86 -9.6504045680158e+02 2.7614903437428e+04 -6.9774472562287e+01 7.3899342098730e-04
87 -1.2617372066064e+03 2.8565950600554e+04 9.4246196561506e+01 1.6329985922847e-03
88 -1.1496130659421e+03 2.6144841305063e+04 -8.7899339935942e+01 1.6538076238746e-03
89 -1.0950592283128e+03 2.7668444281707e+04 -5.9285849340295e+00 1.2458478629523e-03
90 -1.6297188114507e+03 2.7436571502273e+04 -1.2756457824271e+02 2.5387408725846e-03
91 -1.5875199280411e+03 2.8617460624656e+04 9.3085562770991e+01 9.8822051619880e-04
92 -1.6113269299957e+03 2.7156486967070e+04 -1.1023043052740e+02 2.1069330779927e-03
93 -1.1680896450493e+03 2.7375116150500e+04 9.4654814747874e+01 8.9650380538104e-04
94 -1.0097562933480e+03 2.8452571270384e+04 5.3370546962248e+01 1.1559510285057e-03
95 -1.1002953769614e+03 2.9773242102984e+04 6.1806901615146e+01 1.6361712364194e-03
96 -1.1611431792131e+03 2.5557177812592e+04 1.2526883770342e+02 1.9179980832427e-03
97 -7.5483166112485e+02 2.3769190980072e+04 4.4129239498922e+01 1.0872201128578e-03
98 -1.0674980968290e+03 2.1310398870449e+04 9.6493464716843e+01 2.0325848672577e-03
99 -1.0878644381707e+03 2.3073090025595e+04 9.3144900265978e+01 9.6314591458217e-04
100 -4.7985370313311e+02 2.1212766955279e+04 -7.4260095147795e+01 7.7369912115571e-04
101 -1.0596385445212e+03 2.3692662112146e+04 9.6547561522102e+01 1.6026083181179e-03
102 -4.6169103295276e+02 2.2935508899525e+04 9.3303554755943e+01 1.4101932929403e-03
103 -2.7491062479356e+02 2.3140136228239e+04 8.2894490660858e+01 9.4468392250000e-04
104 -1.5412504986229e+02 2.0426321684715e+04 9.7507965713623e+01 4.5593646310211e-04
105 -6.7726070809895e+01 2.1900885453657e+04 9.3555754924969e+01 3.8947182893463e-04
106 -6.1057350411481e+02 2.5766833905435e+04 -8.2457712475541e+01 8.7929960451451e-04
107 -1.3896399398321e+03 2.2972065369496e+04 9.8658976978494e+01 2.8922300943310e-03
108 -1.5413477033631e+03 2.3626972960458e+04 1.1319578178156e+02 3.0435994719919e-03
109 -2.8644756371833e+02 3.3289101703448e+04 6.3429072653447e+01 5.2710068144858e-04
110 -2.3801027467354e+02 3.4025092034589e+04 6.2838748390219e+00 4.0819072996863e-04
111 -9.3366548812947e+02 2.9352178288395e+04 3.7231841697901e+01 7.2454457109341e-04
112 -1.2571128328845e+03 2.8824733078678e+04 9.1408625712492e+01 3.6071747675797e-03
113 -9.1977413230597e+02 2.8081447563726e+04 8.6511336704005e+01 9.7550505554445e-04
114 -1.1215892620390e+03 3.0641291124389e+04 8.5021613019764e+01 1.6341931419778e-03
115 -1.0183732215633e+03 2.8986393597110e+04 8.7257668825046e+01 3.2674281372223e-03
116 -1.3057472727285e+03 2.5991147530702e+04 8.7250202297952e+01 2.0411779895757e-03
117 -1.4423564349258e+03 2.7321343108210e+04 9.5666755990705e+01 2.1416484984684e-03
118 -9.7066958568848e+02 2.5497278877361e+04 4.2827988595515e+01 1.0222997169821e-03
119 -1.1304510948506e+03 3.1136191778256e+04 9.6838471804415e+01 2.7159584999105e-03
120 -1.2624014192077e+03 2.8880436681258e+04 9.3660078935223e+01 9.9972426606939e-04
121 -1.0515166154191e+03 2.9775107221566e+04 8.8781845360318e+01 3.2701731146697e-03
122 -9.4301772482264e+02 2.3148407263782e+04 -8.6162122332662e+01 1.8542035051178e-03
123 -9.1462121963036e+02 2.2869062429525e+04 6.9425866986323e+01 1.9395258870061e-03
124 -1.2091763431941e+03 2.2687556063763e+04 1.2139938040192e+02 2.1202319776175e-03
125 -5.0936934799502e+02 2.0360842194317e+04 1.0162949068721e+02 1.1734691707725e-03
126 -1.9764191703459e+02 2.7331568593000e+04 8.1915015613131e+01 5.6272396769918e-04
127 -1.6962122937208e+03 2.6117236346179e+04 1.0771810235623e+02 2.5202070058527e-03
128 -1.7056895919025e+03 2.6640246634269e+04 1.0499705085528e+02 2.7626069588819e-03
129 -1.4227841948683e+03 2.5873488318320e+04 1.0291315964442e+02 1.4916449672313e-03
130 -1.3802809414500e+03 2.8431430467938e+04 8.8497431881134e+01 1.8398018160867e-03
131 -1.5932317859520e+03 2.4155416727296e+04 9.8425934305844e+01 2.7568078594901e-03
132 -1.3692592557893e+03 2.5570297610726e+04 6.5571427499837e+01 2.1598431980271e-03
133 -1.2430459602838e+03 2.4464024320436e+04 7.8630678521223e+01 2.0939805562884e-03
134 -1.7309623419498e+03 2.7727686149321e+04 9.8903363243986e+01 1.7913139909830e-03
135 -1.4738656998399e+03 2.4139218633972e+04 -9.0723556495975e+01 2.6688080088289e-03
136 -1.5624620884429e+03 2.5673375691289e+04 9.1640076921682e+01 5.9127654769818e-03
137 -1.9374376350097e+03 2.3934481266660e+04 1.0134875937400e+02 3.4491093344904e-03
138 -1.9225308674466e+03 2.6450764217958e+04 1.1779527123447e+02 3.2279572905591e-03
139 -1.5939136921578e+03 2.5957596143434e+04 8.2132757903298e+01 1.8527428943522e-03
140 -1.1818749289983e+03 2.4877659930787e+04 -1.3215965192319e+01 1.9307150697750e-03
141 -1.3813828043061e+03 2.7305604990208e+04 -1.0535067622331e+02 9.0453249799577e-04
142 -1.3259414651714e+03 2.8112605452926e+04 8.6001255112792e+01 1.2257523735144e-03
143 -1.6396972652324e+03 2.5012948399279e+04 9.6252093256404e+01 2.5264050910677e-03
144 -1.4221455314370e+03 2.5117375226422e+04 8.0921799587410e+01 2.4365169492070e-03
145 -1.4256536368987e+03 2.5814563271682e+04 9.0605622960257e+01 1.5419296704692e-03
146 -1.3868532534104e+03 2.5607230131170e+04 8.6748577605610e+01 2.1718639171803e-03
147 -1.4667353350291e+03 2.5508760077162e+04 7.0203373740823e+01 2.5650197542106e-03
148 -1.8517781351916e+03 2.4331228113760e+04 1.2265212739305e+02 3.3372578784435e-03
149 -1.3793956705707e+03 2.3352908307053e+04 6.6861856356690e+01 1.8434528013636e-03
150 -1.1891708290844e+03 2.4957255772300e+04 7.4144110024386e+01 1.9227532073626e-03
151 -1.1070809522248e+03 2.2395013476547e+04 -2.8926183308678e+01 1.9937593273323e-03
152 -6.1795880998013e+02 2.5039864537928e+04 6.6063710369963e+01 1.1505126945283e-03
153 -7.4557825217699e+02 2.4960059680967e+04 3.4998594012290e+01 1.3546649623136e-03
154 -8.1878079636038e+02 2.3249499863645e+04 8.2482442160275e+01 1.7329571456901e-03
155 -1.2609178312181e+03 2.6134373356725e+04 -8.4834221912250e+01 1.1349940583968e-03
156 -1.1808218520097e+03 2.7880204994155e+04 8.2474724094670e+01 1.2072253450359e-03
157 -1.5185337798983e+03 2.2608134199204e+04 9.5418898606661e+01 1.4136397227028e-03
158 -1.0829459950856e+03 2.3214920395797e+04 9.4620376624880e+01 2.2505424665856e-03
159 -1.1353915896438e+03 2.3298263867355e+04 1.2236383671531e+02 1.8169447394839e-03
160 -1.0424681567731e+03 2.1656051982003e+04 9.1665042580928e+01 5.5434644316927e-03
161 -1.3819056615844e+03 2.1202172137067e+04 9.4380621836759e+01 2.2266030264669e-03
162 -1.3970634988782e+03 2.1055581519262e+04 1.1450253431029e+02 2.2829751461441e-03
163 -1.2574256199260e+03 2.7079291058281e+04 1.0570917137550e+02 1.1892869827933e-03
164 -1.1704552528860e+03 2.8335649472786e+04 9.1159190478574e+01 2.6077977389314e-03
165 -1.1517197192792e+03 2.4876839422034e+04 1.0013770709236e+02 1.2630475881301e-03
166 -5.1990461877517e+02 2.2065910599575e+04 -5.4335640224477e+01 1.2803903780982e-03
167 -5.1759439421897e+02 2.3128845118052e+04 9.0009147015436e+01 1.0553014124798e-03
168 -5.1605161951085e+02 2.0710931421437e+04 -4.1740544674181e+01 1.5877688741377e-03
169 -8.4919678786386e+01 2.3677528650781e+04 6.2640098480122e+01 7.1829267794738e-04
170 -5.1109886580844e+02 2.6760262622667e+04 -4.9051024312565e+01 7.6513178268328e-04
171 -1.2037277102706e+03 2.9249043635806e+04 1.0037027573924e+02 9.4551050295041e-04
172 -1.0387511167434e+03 2.9730479049435e+04 8.7173435961892e+01 1.0359929697335e-03
173 -1.1165184443916e+03 2.8603304433300e+04 4.2378747123564e+01 5.8758993050654e-04
174 -1.3860781828236e+03 2.9171032971729e+04 9.1060390543079e+01 3.2073691330513e-03
175 -1.1249413205597e+03 2.7172276424502e+04 5.5574262444303e+01 1.5417905779664e-03
176 -1.7858471939420e+03 2.7774926478088e+04 1.0377625829042e+02 2.1119157206226e-03
177 -1.5427979925939e+03 2.6398543774371e+04 7.7649698623192e+01 1.7890477555794e-03
178 -1.5608300796498e+03 2.5596413366535e+04 8.3063734230198e+01 8.6189130826134e-04
179 -1.5887181709142e+03 2.9011692317808e+04 7.8912388761910e+01 9.1988525763592e-04
180 -1.5889559346068e+03 2.6379146009365e+04 8.1491780719518e+01 2.6516183567964e-03
181 -1.4590964693340e+03 2.6548385634849e+04 5.4102097170690e+00 1.5244748992353e-03
182 -1.5904920946595e+03 2.7235995064920e+04 -4.1028877768403e+01 2.5170669944015e-03
183 -1.8357986620122e+03 2.6952603830743e+04 9.0142203836931e+01 3.0073029851938e-03
184 -1.5031843264196e+03 2.4597901122792e+04 6.1605960389378e+01 2.0155818670354e-03
185 -1.7414945585145e+03 2.5301889165586e+04 9.1614266994958e+01 3.0656703845131e-03
186 -1.8381640396093e+03 2.5027988078609e+04 -8.9693613597259e+01 3.2917139521359e-03
187 -1.5260595654929e+03 2.4365195866453e+04 -6.0587182902662e+01 8.8473042247840e-04
188 -1.7053398576649e+03 2.7254848047772e+04 1.0496062795239e+02 2.7198818644951e-03
189 -1.5786195696370e+03 2.7054705926913e+04 6.3744258910560e+01 2.4680345207965e-03
190 -1.7968550920276e+03 2.8427435528871e+04 1.2166226454456e+02 9.6321170141238e-04
191 -1.7844629435272e+03 2.9607384571683e+04 9.4194397665361e+01 2.3338725271032e-03
192 -1.6272712095981e+03 2.8809866432464e+04 8.9732644693593e+01 2.3005678882537e-03
193 -1.5822086208071e+03 2.7246749661442e+04 7.2911398132222e+01 2.2191701543498e-03
194 -1.8344054034035e+03 2.8908339836692e+04 1.4098082682317e+02 2.5200182052915e-03
195 -1.8901843771287e+03 2.9433739856066e+04 1.0616412381764e+02 2.5420427585550e-03
196 -1.7492160117253e+03 2.8795304226542e+04 8.9668605313472e+01 1.4757769390993e-03
197 -1.8954397596353e+03 2.7918404627158e+04 9.8428232353169e+01 2.9646986078362e-03
198 -1.5033672250834e+03 3.0385418381592e+04 8.8852014527449e+01 2.8497179087219e-03
199 -1.8243896608653e+03 3.2744828480298e+04 9.4636986948184e+01 1.3676420812843e-03
200 -1.5439625135756e+03 2.7794471848093e+04 7.8311489633283e+01 1.6238809756938e-03
201 -1.5632270392914e+03 2.8161253691238e+04 5.2346242981045e+01 2.1658695168703e-03
202 -1.7533738233075e+03 2.6496817053463e+04 7.5921791463583e+01 2.5846621823214e-03
203 -2.1477841708177e+03 2.7658902949043e+04 9.1581179894305e+01 3.3644827505643e-03
204 -2.3129648659811e+03 2.7742171335723e+04 9.7633940445278e+01 3.4470399923478e-03
205 -2.2163942658968e+03 2.8991273545485e+04 1.0264940649264e+02 3.2113386655058e-03
206 -1.7403312469311e+03 2.9209987897621e+04 9.3786622493514e+01 2.5650449912467e-03
207 -1.7123392578857e+03 2.8436385982042e+04 -8.9804879624601e+01 1.5512167576218e-03
208 -1.5498421107540e+03 2.7264033524260e+04 -6.6421876013411e+01 2.2757636353973e-03
209 -1.9337049842688e+03 2.9354010954486e+04 1.0939461366771e+02 2.3170486279238e-03
210 -1.8235462963730e+03 2.9252193467321e+04 1.1822589707230e+02 1.0648209971449e-03
211 -1.7952423392660e+03 2.9865805480317e+04 -9.7936230172828e+01 1.8743592994070e-03
212 -1.6843408011734e+03 2.6547134281471e+04 7.7970349938500e+01 2.3794727606019e-03
213 -2.0896311468215e+03 2.8744043832107e+04 1.1303142586394e+02 3.0503842563304e-03
214 -1.9882410583852e+03 2.9030975685081e+04 1.1048996383099e+02 2.9185533149715e-03
215 -1.5214686271009e+03 2.9374980182744e+04 9.4982922070524e+01 1.5174335493356e-03
216 -1.6115008271303e+03 2.9469807926968e+04 1.0610358302566e+02 9.2831476040051e-04
217 -1.6587797486337e+03 2.6292963493444e+04 8.4543668559345e+01 2.0979829922580e-03
218 -1.9000546831710e+03 2.8160846188652e+04 1.0505956788038e+02 2.0545438640234e-03
219 -1.1842213515264e+03 2.9433404266930e+04 8.7692789815104e+01 4.4548132982116e-03
220 -1.0104786916578e+03 2.8658945501802e+04 3.8531268612200e+01 1.1601361496510e-03
221 -9.2695670178832e+02 2.7488712249129e+04 -2.7446971587132e+01 1.2600038083929e-03
222 -1.0797766715767e+03 2.7779400100704e+04 6.8226838901892e+01 1.3460155300111e-03
223 -1.2744347242220e+03 2.8870365124598e+04 9.4788508643547e+01 1.6027465538334e-03
224 -8.7614426346166e+02 2.8961426766871e+04 6.3250759830090e+01 1.0046526349468e-03
225 -1.4643702712106e+03 2.7665467408573e+04 -8.5922714897447e+01 1.8666073206269e-03
226 -1.7043707427301e+03 2.9718608875312e+04 7.5799334144618e+01 1.5262300086467e-03
227 -1.7356904673545e+03 3.4663907349949e+04 8.7494821810451e+01 3.1212490483032e-03
228 -1.4907326666969e+03 3.2169493307358e+04 -7.9846632823417e+01 2.3225352115026e-03
229 -1.7426998080668e+03 3.1265941701265e+04 1.0267011432449e+02 3.5947080664852e-03
230 -1.5080962944668e+03 3.0148142631946e+04 2.5391377861085e+01 2.5108502528342e-03
231 -1.5822968348262e+03 2.7947425122200e+04 7.7640889545870e+01 2.2351426757805e-03
232 -1.7336068447405e+03 3.0322487107497e+04 8.0813244317927e+01 2.3894578493720e-03
233 -1.6801304831519e+03 3.2746460833306e+04 9.9825307611670e+01 1.2941825897882e-03
234 -1.3926917166734e+03 2.9712886865591e+04 4.9022751146260e+01 1.5753828620202e-03
235 -1.4965324522470e+03 3.0235389933040e+04 1.5477310023618e+02 2.2863981704567e-03
236 -1.8740972788191e+03 3.2309035923752e+04 1.0952516846405e+02 1.6183070691557e-03
237 -1.4592874464307e+03 3.1431402124895e+04 9.0429137138594e+01 3.1674775077518e-03
238 -1.4250857207435e+03 3.2374398450498e+04 8.2455165661406e+01 1.9382894013426e-03
239 -1.3165728939431e+03 3.0225191284393e+04 7.0447126164611e+01 2.6270901342727e-03
240 -1.3343514856248e+03 3.2710882654565e+04 8.9665251688674e+01 1.4800153986984e-03
241 -1.1715646149862e+03 3.0938223973668e+04 6.4035825658754e+01 2.5042131928489e-03
242 -1.8710706410661e+03 3.0932345839250e+04 9.6127250554722e+01 3.0711052266620e-03
243 -1.9077694396136e+03 3.1075569764341e+04 9.1919744361515e+01 2.0363749024347e-03
244 -1.4777649870065e+03 2.7516553662051e+04 1.0160118647726e+02 1.0373062108293e-03
245 -1.2760087635973e+03 2.6150392248342e+04 8.1543918662961e+01 2.0831369809381e-03
246 -1.4630354641248e+03 2.8643202152389e+04 7.4307233368571e+01 1.7321506050483e-03
247 -1.8811221854835e+03 2.6640636759968e+04 9.6127682548389e+01 3.1280088389011e-03
248 -1.7727387277226e+03 2.9068783717582e+04 8.9188563690366e+01 2.5233200629934e-03
249 -1.5537533615002e+03 2.8683676853152e+04 1.1679527806466e+01 2.1086674889965e-03
250 -1.7160546242016e+03 2.8188834103744e+04 9.1985647017290e+01 6.0391836665641e-03
251 -1.6144367392417e+03 3.0696566416827e+04 7.7187231778949e+01 3.4134058317730e-03
252 -1.4997885360598e+03 2.7947160669720e+04 6.7159618049725e+01 8.3433137711624e-04
253 -1.5149585923044e+03 2.6821005964672e+04 6.2507007886399e+01 2.4461615863680e-03
254 -1.4377392771981e+03 2.3453162973701e+04 5.0468966155998e+01 2.0443205005494e-03
255 -1.5106702202767e+03 2.5128808016195e+04 7.1789129750087e+01 2.5285273308084e-03
256 -1.3948713049329e+03 2.6855441475891e+04 4.7557547530715e+01 2.0788934368934e-03
257 -1.8076477591852e+03 2.5236123412394e+04 1.6210702003930e+02 3.1994890546360e-03
258 -1.3313138741715e+03 2.9531910845576e+04 6.1604173830162e+01 1.5744741406888e-03
259 -1.6161339130627e+03 2.9224977423881e+04 9.3255243644750e+01 2.1804673692995e-03
260 -1.6064697303196e+03 2.8747075148165e+04 9.0594167358513e+01 2.6266837941102e-03
261 -1.5453927501282e+03 2.8047658133621e+04 8.6379700910536e+01 2.1103058605137e-03
262 -1.9742951899819e+03 3.0037275004127e+04 1.0812645502035e+02 2.7308674033970e-03
263 -1.8119956030695e+03 3.3360912523106e+04 9.3319365443416e+01 6.6612110980146e-04
264 -1.6827453017929e+03 3.2581218029907e+04 7.3076356412458e+01 1.4179347308028e-03
265 -1.5989274253195e+03 3.1054947674558e+04 7.0405202294487e+01 3.6006811814783e-03
266 -1.6655977440172e+03 2.8909481707009e+04 8.8950247635629e+01 2.1592734414903e-03
267 -1.4305142042827e+03 2.9630183406894e+04 -3.8654130459000e+01 1.5472324597541e-03
268 -1.6005444458263e+03 2.9601247745592e+04 6.1988540392866e+01 2.0912106166118e-03
269 -1.4023058906140e+03 2.8294275901109e+04 -6.6729628681588e+01 1.6458348870845e-03
270 -1.7081213988958e+03 2.9866903776661e+04 -4.3858033906933e+01 1.3807318864440e-03
271 -1.8202782368176e+03 3.0854281550986e+04 9.6411863940735e+01 3.5427535209482e-03
272 -1.5611271456781e+03 2.8111168090483e+04 6.7598130258966e+01 2.2937113951035e-03
273 -1.5147183770631e+03 2.7091383445904e+04 7.5076872808877e+01 2.1076615402209e-03
274 -1.8863394282426e+03 2.6685074393313e+04 1.1009257374803e+02 3.1341434671517e-03
275 -1.5153691137231e+03 2.7339153501910e+04 -5.7320189607082e+01 2.1150192136630e-03
276 -2.0379988880296e+03 2.6375087564631e+04 1.0883127306867e+02 3.2167489254402e-03
277 -1.9880655919449e+03 2.5465314764520e+04 1.0156972224927e+02 3.0270870513953e-03
278 -2.0652849935547e+03 2.6144955538937e+04 1.0724706885123e+02 3.2624628113966e-03
279 -1.3870497240775e+03 2.2561005729569e+04 -4.0770726794247e+01 2.7778055576797e-03
280 -1.6932434665664e+03 2.5961343882895e+04 1.0439760138334e+02 2.8283141397044e-03
281 -1.4764814356953e+03 2.3149067961721e+04 -6.6161026578508e+01 2.3462552958124e-03
282 -1.2572890803504e+03 2.6253166348946e+04 1.0236471184190e+02 1.8374953142101e-03
283 -1.0408540769867e+03 2.6858232758622e+04 -8.8665515139541e+00 1.2306812641650e-03
284 -1.2151119312545e+03 2.6092841155364e+04 2.4722823930788e+01 1.9564803284493e-03
285 -1.2949303401523e+03 2.3064498836550e+04 8.6856116704556e+01 3.4413440094254e-03
286 -9.8978029018569e+02 2.4007286173616e+04 7.0231471297511e+01 6.8032725188834e-04
287 -1.4636974852200e+03 2.5246793389952e+04 9.2709114158384e+01 1.9334560722880e-03
288 -1.4450282053020e+03 2.5492424173958e+04 9.0343759376253e+01 2.7829810513882e-03
289 -1.7150756825383e+03 2.5704491678442e+04 1.0517906293377e+02 2.4156735977204e-03
290 -1.7066722764337e+03 2.4703043916810e+04 8.7200100204419e+01 2.6261466920325e-03
291 -1.4696065115910e+03 2.6441439964351e+04 7.0013486767993e+01 2.4212558338792e-03
292 -1.9547821350339e+03 2.6141900468140e+04 1.5948143737667e+02 1.2607444411292e-03
293 -1.6794482933705e+03 2.7019935928734e+04 1.0085268484051e+02 2.6821619169189e-03
294 -1.3373394980970e+03 2.3052249746500e+04 -5.7942846113478e+01 2.7373197427817e-03
295 -1.2383827924966e+03 2.6053031219110e+04 6.9915726100500e+01 1.6158364640658e-03
296 -1.4231204695018e+03 2.5794121823804e+04 8.5895073371588e+01 1.9266243576468e-03
297 -1.3506855571987e+03 2.8662300921618e+04 5.9736241594951e+01 1.7832796105834e-03
298 -1.8123358391968e+03 2.9169541680182e+04 -1.5767661762600e+02 2.5427246707437e-03
299 -1.6727573743580e+03 2.8560591866296e+04 1.3943181665033e+02 2.3734878790563e-03
300 -1.0643609032523e+03 2.9895876460825e+04 9.3984566601870e+01 1.9494289667419e-03
301 -1.2404352248764e+03 2.9311231457424e+04 1.0309911359796e+02 1.4069648854751e-03
302 -6.1627328983530e+02 2.5100822505226e+04 5.3808584586265e+01 1.0465371758240e-03
303 -6.9013117927835e+02 2.5489922062486e+04 6.1376732277613e+01 1.0906578193287e-03
304 -5.3241840220610e+02 2.0428353794873e+04 8.2161180369648e+01 1.1529569427238e-03
305 -9.2591115173978e+02 1.7400332037170e+04 1.1004173725714e+02 2.3817045892020e-03
306 -1.0407865562075e+03 2.4690899610514e+04 7.8148847414765e+01 1.7272278286557e-03
307 -1.4983076569425e+03 2.3931711374684e+04 9.8651660983642e+01 2.8868691461964e-03
308 -1.4491603748969e+03 2.3825466195803e+04 8.2013463514767e+01 2.5143893874481e-03
309 -1.3736858269625e+03 2.6556394278151e+04 9.6418939264520e+01 2.1021583508953e-03
310 -1.2463803144282e+03 2.5654289997269e+04 8.8112270920384e+01 2.1161095800078e-03
311 -1.5584881304856e+03 2.5008591998288e+04 1.2340179315754e+02 2.0251122382623e-03
312 -1.1333099028807e+03 2.6001252491703e+04 3.7131177171886e+01 1.8531178630656e-03
313 -9.8922053720043e+02 2.5959604036672e+04 3.6040558538480e+01 8.9901099646430e-04
314 -9.9952262102552e+02 2.7175192556206e+04 -2.8515841810365e+01 7.4857467351600e-04
315 -9.5973608341853e+02 2.5158137362204e+04 9.4245431190539e+01 1.6193027313524e-03
316 -8.5218342102667e+02 2.1472381208491e+04 6.4956678849810e+01 2.0198708277423e-03
317 -4.0012669380113e+02 2.6138707352232e+04 -4.5434567897055e+01 7.7968598229853e-04
318 -4.6054216736856e+02 2.4665107614838e+04 -7.3378072944877e+01 9.9232368741558e-04
319 -7.7391841604876e+02 2.8708770897802e+04 8.1048983057145e+01 9.0274877821555e-04
320 -9.2780567623878e+02 2.2504240736774e+04 -1.6070447286132e+01 7.5975675497192e-04
321 -1.0742727675420e+03 2.7549431997208e+04 8.7839108448074e+01 4.6958306616109e-03
322 7.2122311089396e+01 2.5231499825510e+04 2.2244885333732e+01 5.2151707231950e-04
323 -1.0627600208824e+03 2.0809915995276e+04 9.8041284704507e+01 2.6744457258338e-03
324 -3.7146957713263e+02 2.7559289043064e+04 7.7774788700863e+01 6.3699581860595e-04
325 -1.0522286290411e+03 2.4957730193729e+04 9.0093206813370e+01 1.9333794714654e-03
326 -1.0474542111189e+03 2.7027491858411e+04 -3.9148633782394e+01 1.3763024930305e-03
327 -7.3480200729149e+02 2.6694221655350e+04 8.7598924358097e+01 3.6718855807549e-03
328 -9.9867780079112e+02 2.6387335361065e+04 9.6039085241675e+01 6.7370698824785e-04
329 -5.9295233736658e+02 2.8866525122800e+04 7.8356699926787e+01 5.6770112948834e-04
330 -8.0216221674822e+02 2.6352994972869e+04 7.4006454406345e+01 1.0922581633369e-03
331 -1.3885408079644e+03 2.7203333227350e+04 9.0959914288775e+01 1.7954587033600e-03
332 -1.4696262164243e+03 2.5436929364863e+04 9.0358737997083e+01 1.8536981296308e-03
333 -1.4837353438918e+03 2.7052524475447e+04 9.8351316778952e+01 2.3362844055981e-03
334 -1.0770550559631e+03 2.6243779940290e+04 8.6359029333258e+01 1.6010291604721e-03
335 -1.3635160674473e+03 2.5607666795008e+04 1.0238186432995e+02 2.1510967838327e-03
336 -1.0356551493150e+03 2.2484415835214e+04 7.6919587264917e+01 1.9367431299182e-03
337 -1.0994977720932e+03 2.1841407950941e+04 8.9426540817746e+01 2.8403279498911e-03
338 -9.9851533970168e+02 2.2733548337131e+04 7.3180790852815e+01 2.1545682322140e-03
339 -9.0859743113840e+02 2.2518189751678e+04 7.4935777983071e+01 1.7290066114123e-03
340 -9.8734436213104e+02 2.4798227846403e+04 7.2124672272809e+01 1.1406841806240e-03
341 -6.3539821598479e+02 2.5488518179577e+04 8.7369256617368e+01 3.5042920520215e-03
342 -6.6164077458895e+02 2.5108845091988e+04 8.8458863307974e+01 1.1573712304542e-03
343 -9.1391502678198e+02 2.1060673379714e+04 9.6826573712463e+01 2.3207651513384e-03
344 -4.8581120560672e+02 2.0080882430477e+04 8.3861248250274e+01 1.6351259339158e-03
345 -5.2424038651017e+02 2.2117695549812e+04 9.7083590529399e+01 8.5537742822571e-04
346 -3.0794245691496e+02 1.9507928648165e+04 1.5899786605650e+01 1.2231855211280e-03
347 -7.1550836856848e+02 2.1990492384420e+04 9.3126043568623e+01 1.0731752690254e-03
348 -4.7199223728203e+02 2.2794155282850e+04 1.0073612261852e+02 1.2305483277974e-03
349 -5.2837990644427e+02 2.0771590395996e+04 8.5216767715216e+01 1.5878789990627e-03
350 -7.3999480494526e+02 2.2870616554614e+04 1.0317948988896e+02 1.6767972078276e-03
351 -8.5224569305287e+02 2.7439181673799e+04 8.1898627610814e+01 4.4717589068623e-04
352 -1.8396373732614e+03 3.1839018665871e+04 -8.0327710145780e+01 2.9694255064417e-03
353 -2.3446879710112e+03 3.4482124374298e+04 1.0324055728569e+02 3.4041977029023e-04
354 -2.1008158099033e+03 3.0972913770392e+04 1.0527235190530e+02 2.1646754159445e-03
355 -1.8426462054107e+03 3.2102416690826e+04 7.2513727018734e+01 2.0950280906228e-03
356 -1.7340419733082e+03 3.2441875500247e+04 6.6758008097269e+01 1.8646413220846e-03
357 -1.9884674351760e+03 3.2035312231673e+04 9.2175568458595e+01 2.4883505997337e-03
358 -1.8783202302322e+03 3.2835143805317e+04 -2.4710341851755e+01 7.8414167522012e-04
359 -1.8144506937913e+03 3.1706599679536e+04 5.8389536100817e+01 2.2284858390802e-03
360 -1.7373676290094e+03 3.4011603841915e+04 3.7368050099331e+01 3.5422727657856e-04
361 -1.7852611706514e+03 3.2080053326740e+04 -6.9063591034362e+01 2.4919643922886e-03
362 -1.8548959926343e+03 3.0990037110096e+04 -8.0949548518745e+01 3.4160790687661e-03
363 -1.7738340066088e+03 3.2563934428185e+04 5.7949086345812e+01 1.6786791706452e-03
364 -1.5831772324359e+03 3.0143623939025e+04 6.3243133398568e+01 2.2004650703129e-03
365 -1.9158013714494e+03 3.2528425803670e+04 2.3422488988076e+01 1.4187309164760e-03
366 -2.0414586780466e+03 3.2421034807181e+04 -5.9803647630613e+01 1.9046171296965e-03
367 -1.8155977831949e+03 2.8403349243960e+04 9.7795675008753e+01 2.6563926501194e-03
368 -1.7729717529421e+03 2.9856525094055e+04 9.7113921704220e+01 1.7512971912612e-03
369 -1.6868382445390e+03 2.9172749227595e+04 8.7418114047573e+01 4.3442803277835e-03
370 -1.9245627570779e+03 3.0180042497084e+04 1.0776419963532e+02 2.2000048023412e-03
371 -1.6949751315013e+03 3.0833919913122e+04 8.6563396767856e+01 3.7193650502355e-03
372 -1.8292731939177e+03 2.8696250341327e+04 9.4262621620529e+01 2.4323277671863e-03
373 -1.8052931385311e+03 3.3215270129734e+04 -6.9189325712021e+01 3.8470118955997e-04
374 -1.7401105097065e+03 3.1919994491558e+04 7.3472082156165e+01 5.0094012268474e-04
375 -3.4540914710838e+01 2.5128993094972e+04 9.0801588070551e+01 4.9995570638564e-04
376 -8.9281380541942e+02 2.2315553408226e+04 -9.7304392050064e+01 2.0657346581242e-03
377 -8.7327822764501e+02 2.2481150425792e+04 7.9590210169906e+01 1.9837179405032e-03
378 -8.5173362706853e+02 2.3462917857667e+04 8.1339357028557e+01 1.7772076875881e-03
379 -1.1691484222377e+03 2.2974589188054e+04 -1.5377709275396e+02 2.4848233134467e-03
380 -7.8529333519285e+02 2.2307516947688e+04 6.1833481858761e+00 1.8589916352550e-03
381 -7.4876303308736e+02 2.3580713896799e+04 5.4877014011529e+01 1.5757602660682e-03
382 -6.3843333577132e+02 2.2854484821063e+04 6.3216582536042e+01 1.3208533030853e-03
383 -8.2473521047177e+02 2.6622596536417e+04 8.4482519357989e+01 7.6030275548224e-04
384 -1.4775963930143e+03 2.4147942060429e+04 9.7051188711308e+01 2.5127253396159e-03
385 -5.9359822559577e+02 2.2883483058557e+04 9.1736830819744e+01 1.0901484071785e-03
386 -1.8139311631504e+02 1.9939032887048e+04 6.8483419386072e+01 1.2181864490904e-03
387 -4.4218505350391e+02 2.4580884580098e+04 3.1857990310630e+01 9.8835667087536e-04
388 -1.0614755736492e+03 2.7241639120853e+04 1.2335454832978e+02 1.1579059529535e-03
389 -4.0352550112445e+02 2.7541471410616e+04 -6.5204444898378e+00 4.2847033587957e-04
390 -5.9668219540400e+02 2.4851860647960e+04 -8.2688713060803e+01 9.7802915903458e-04
391 -1.4447612084196e+03 2.0281202169259e+04 9.9339314953120e+01 2.2825350022049e-03
392 -1.1296857122825e+03 2.2287408695701e+04 8.3149781414594e+01 9.3081142096670e-04
393 -1.1793471930463e+03 2.0285270417458e+04 -7.7569722133949e+01 2.7797556540427e-03
394 -1.6156088080154e+03 2.2050102287984e+04 1.0325850841990e+02 2.9650932118920e-03
395 -1.2896823486222e+03 2.2947683491949e+04 7.9457841236553e+01 2.0195383339876e-03
396 -1.0061767968461e+03 2.2481747394106e+04 5.4807428130879e+01 1.1677738853281e-03
397 -1.3066749751639e+03 2.2691535859675e+04 9.5597934885409e+01 2.6005073531683e-03
398 -9.8714039159535e+02 2.0186370463493e+04 8.5509335518737e+01 2.6455956373558e-03
399 -1.0191137204369e+03 2.0846799744447e+04 -1.7207910898032e+02 6.8127587987122e-04
400 -1.0535356177717e+03 2.0900332764504e+04 9.8409750635990e+01 2.6421966522791e-03
401 -8.5090693174365e+02 2.0394320380526e+04 8.6391980321048e+01 1.2893061275535e-03
402 -1.4248058749520e+03 2.5862251202554e+04 8.4795921151782e+01 1.5007463613668e-03
403 -1.4291712373691e+03 2.2785991492699e+04 7.5406708420556e+01 2.4205495790074e-03
404 -1.2693461938916e+03 1.8739595178689e+04 7.8243759001131e+01 3.1487084750008e-03
405 -1.7054248579414e+03 2.6008640094419e+04 9.5310653451771e+01 1.4758166755655e-03
406 -1.4963592653578e+03 2.3841327596742e+04 -7.7067832555151e+01 1.2986212227711e-03
407 -1.4979395248324e+03 2.4264829966114e+04 8.6511043424256e+01 1.5743261260341e-03
408 -1.4004717852343e+03 2.4567270886845e+04 -5.9225810085164e+01 1.8983313200689e-03
409 -1.2266009379054e+03 2.3307017107548e+04 7.9592893342456e+01 2.3507904888765e-03
410 -1.2558197656092e+03 2.1238888487761e+04 3.2398997362118e+01 2.2066682388479e-03
411 -1.1835611956814e+03 2.1102644415568e+04 -1.8913269848495e+01 2.4302988019742e-03
412 -1.3181750896791e+03 2.2888331843627e+04 7.9991314595526e+01 1.0062344838743e-03
413 -1.2447517899124e+03 2.1555665014576e+04 7.3731986906680e+01 2.7094135967349e-03
414 -1.6855384239656e+03 2.2790120763932e+04 9.4661345537694e+01 3.3303688778522e-03
415 -1.5157731500240e+03 2.0738002123491e+04 -8.2790271115696e+01 3.0532885752762e-03
416 -2.0698727988721e+03 2.3636083193145e+04 1.0399723851081e+02 3.5162927360934e-03
417 -1.5265162050663e+03 2.5376238198612e+04 7.9420036415952e+01 2.3207257253901e-03
418 -2.0406757176643e+03 2.4824460410772e+04 1.4922106243265e+02 2.7008206396838e-03
419 -1.5340775785291e+03 2.3606137167223e+04 7.2269233636587e+01 2.4383332384285e-03
420 -1.5427560540333e+03 2.6020688844487e+04 -3.4954830256063e+01 2.1586005771568e-03
421 -1.5033711549758e+03 2.5894926460295e+04 8.1591081715223e+01 2.5394875513954e-03
422 -1.4421923827808e+03 2.3492154114899e+04 6.0962477295924e+01 2.8251196809581e-03
423 -1.6743929241220e+03 2.0454150947175e+04 -8.5114722021742e+01 2.8267957899832e-03
424 -1.6540181371630e+03 2.3784713087251e+04 7.9720424509763e+01 2.3224448407027e-03
425 -1.7903874615498e+03 2.3257979642969e+04 9.1160679616832e+01 3.2721125180889e-03
426 -1.6696063667971e+03 2.2485953977309e+04 8.0898949631971e+01 2.3343799402450e-03
427 -2.0339437504158e+03 2.5190645725751e+04 9.8603306219978e+01 3.4884901455764e-03
428 -1.3634111544874e+03 2.6295454149308e+04 -5.5059814583805e+01 1.2684331886546e-03
429 -1.6504281521886e+03 2.4282861476512e+04 9.4673870404725e+01 1.2447876426311e-03
430 -1.5074872032822e+03 2.5368433783185e+04 6.8815257310100e+01 9.7127943403648e-04
431 -2.2869203855594e+03 2.5415540876194e+04 1.2005015998377e+02 2.1799105057977e-03
432 -1.8095987412427e+03 2.7424089709844e+04 3.8397494292791e+01 9.4344990810296e-04
433 -1.5722528725469e+03 2.5166113899029e+04 -7.3648311695884e+01 1.1708056749915e-03
434 -8.2429764349406e+02 2.5740749362050e+04 4.6250719860598e+01 1.3507107957672e-03
435 -1.4046034322079e+03 3.1148249762907e+04 8.8750764361849e+01 5.2541779736160e-03
436 -8.9799876830858e+02 2.7898850857465e+04 8.8180681239387e+01 7.4575853401292e-04
437 -1.0841466564944e+03 2.9516060001294e+04 -6.2185280117520e+01 8.9573709507005e-04
438 -1.2752771297545e+03 2.8074027090763e+04 9.2480586950657e+01 4.6124729476583e-03
439 -1.7344611982746e+03 3.3622955337208e+04 1.0607906329785e+02 4.8773251029897e-04
440 -1.3755709242657e+03 2.4827556601744e+04 3.2660738124725e+01 1.0489560111013e-03
441 -1.5482991679756e+03 2.2243147095232e+04 6.5863876533001e+01 2.7180001903774e-03
442 -1.6337116049814e+03 2.5758944397902e+04 9.6867055031230e+01 1.1911369808605e-03
443 -1.3560712423871e+03 2.2810296685374e+04 -6.6669559190755e+01 2.5977813847823e-03
444 -1.8395150875217e+03 2.6667543006515e+04 1.0699077366218e+02 2.7013828487661e-03
445 -1.4208311581538e+03 2.6053928112948e+04 7.4665244982425e+01 2.3552553332650e-03
446 -1.5170532233870e+03 2.5230350745812e+04 9.5596325012203e+01 2.7397415081769e-03
447 -1.5279987388901e+03 2.6890922636232e+04 8.7231244197752e+01 4.0099828593207e-03
448 -1.5208117826254e+03 2.3215544473010e+04 -7.8124229484324e+01 2.9995995438061e-03
449 -1.2993424675382e+03 2.4505462565949e+04 7.7431907017837e+01 2.1525882846592e-03
450 -1.8457788177274e+03 2.4335200432957e+04 1.1018105036227e+02 1.6486308410072e-03
451 -1.4478700650012e+03 2.4247270665337e+04 8.7275590017631e+01 4.1551441052259e-03
452 -1.2039759506547e+03 2.4078945108140e+04 -5.7867879989802e+01 1.4458250621480e-03
453 -9.0725541968520e+02 2.5057241885417e+04 3.6629343873218e+00 1.3094010746457e-03
454 -1.4659809270452e+03 2.1486846277280e+04 3.3367853902760e+01 2.7701406906691e-03
455 -1.5839262128318e+03 2.2950162655006e+04 9.5598647064840e+01 2.5945127115889e-03
456 -1.5333483103298e+03 2.2151726519443e+04 1.7019735280840e+02 3.2257011493391e-03
457 -1.2953011526422e+03 2.5526601201683e+04 5.1952949175356e+01 1.2354147036350e-03
458 -1.1269711874603e+03 2.3854069528903e+04 5.4267387677535e+01 1.5139030679766e-03
459 -1.6355300210903e+03 2.4596179183799e+04 1.1135259593340e+02 2.6918207937290e-03
460 -1.3258869995928e+03 2.4769688517653e+04 8.7441693363697e+01 2.4582267215874e-03
461 -1.3058161366326e+03 2.1105468506213e+04 8.2180708492403e+01 3.0625292630277e-03
462 -1.4446933474163e+03 2.0947624791620e+04 9.2518541282335e+01 5.8767472584941e-03
463 -1.6621330790608e+03 2.1937778949083e+04 1.0497564217201e+02 2.9543711612155e-03
464 -1.3953023786786e+03 2.2664690450344e+04 5.7927456845220e+01 1.3152520005361e-03
465 -1.8466725092711e+03 2.7384784514851e+04 4.0737896547832e+01 2.9088128431457e-03
466 -2.0185212210186e+03 2.4862250538894e+04 2.9969444093915e+01 3.3575841493714e-03
467 -2.0287339141913e+03 2.2859253835888e+04 -7.5517822320324e+01 3.4822865913007e-03
468 -2.1732152442461e+03 2.3738679822639e+04 1.0850235931760e+02 3.5733356461693e-03
469 -1.9069745427951e+03 2.3481915394084e+04 7.1932731446498e+01 3.3949022189433e-03
470 -2.1511420105360e+03 2.3764309422835e+04 9.0086132091343e+01 3.5955951415742e-03
471 -2.0930411788980e+03 2.6780398076149e+04 1.0078615273202e+02 3.0777512927124e-03
472 -1.6789672976167e+03 2.4231846908847e+04 8.6401615482991e+01 3.0783484526317e-03
473 -1.8738061016395e+03 2.3247200206677e+04 9.7256566675133e+01 3.4836737747296e-03
474 -1.6162605619729e+03 2.4581618747211e+04 -5.5400482664550e-01 2.3824294906157e-03
475 -1.7932722410829e+03 2.5251151153555e+04 5.5770498121217e+00 2.9047047796212e-03
476 -1.7751034397970e+03 2.6289596843437e+04 8.8563150134161e+01 2.3608331526666e-03
477 -1.8013772993257e+03 2.7694741133618e+04 8.7934802761402e+01 5.4575928723992e-03
478 -1.9442701896998e+03 2.4764280974221e+04 1.0115241081229e+02 3.1030730872270e-03
479 -1.8018972512177e+03 2.7204580529774e+04 9.3748440561624e+01 2.5478314132712e-03
480 -1.8726462217708e+03 2.4812113178373e+04 8.5952638487414e+01 3.2249499888599e-03
481 -2.0521398452599e+03 2.6230658205041e+04 8.8947761143457e+01 2.6868662220427e-03
482 -1.9434748922971e+03 2.6777243258514e+04 6.0263212723786e+01 1.1772788672957e-03
483 -1.8840334225698e+03 2.6463057447237e+04 4.7198660732094e+01 3.1501687228426e-03
484 -2.0380617607667e+03 2.8783583549677e+04 7.9681819507595e+01 2.4309894436541e-03
485 -1.8148633654384e+03 2.5543449776570e+04 7.6105736536237e+01 3.1436396980693e-03
486 -2.0035174080116e+03 2.5187347083978e+04 8.7453782480561e+01 3.3574482756702e-03
487 -2.2932537101722e+03 2.6281218800637e+04 9.6164630267253e+01 3.5791869183426e-03
488 -2.2727059571541e+03 2.5482998410569e+04 9.5470937116187e+01 3.4126354738685e-03
489 -2.6188643720759e+03 2.3912198767797e+04 -1.3879333366985e+02 2.5246601228823e-03
490 -2.3799501236050e+03 2.4851100744474e+04 9.1914103510578e+01 5.8597697252760e-03
491 -2.0546242451716e+03 2.8100358200679e+04 9.1074878970566e+01 2.3102539180775e-03
492 -1.9849222636474e+03 2.7527357157508e+04 6.6023833348463e+01 3.0437209970011e-03
493 -2.1915840834926e+03 2.8168143383581e+04 9.7954798424239e+01 3.3192657118389e-03
494 -1.7024597348474e+03 2.6464128353520e+04 5.0698541888172e+01 2.3232576998879e-03
495 -1.8485122820692e+03 2.2540789737820e+04 -6.1867220275222e+01 3.4663809345693e-03
496 -9.4198760770287e+02 1.9042182728556e+04 1.2182591548548e+02 2.3820455287730e-03
497 -6.0440740500563e+02 2.4409774692536e+04 7.7601974997606e+01 1.1794026854886e-03
498 -7.8148049260550e+02 2.3009207009784e+04 9.4063683333675e+01 1.7229899498607e-03
499 -5.7049648139647e+02 2.4612599177436e+04 9.1957166433166e+01 4.6095294763450e-04
