0 -1.1936691110435e+03 2.5567343152020e+04 -7.2929114488536e+01 1.9896284456031e-03
1 -1.2652942678470e+03 2.6793091351767e+04 -5.8149155429666e+01 1.4017598823685e-03
2 -8.1851189636031e+02 2.5603381561201e+04 -4.1340251365522e+01 1.3519587401985e-03
3 -1.4471170669214e+03 2.5859568957223e+04 -5.3170429254554e+01 1.9865816890481e-03
4 -1.9387203906595e+03 2.7343278732599e+04 1.2240289786276e+02 2.9831032104983e-03
5 -1.5590846497783e+03 2.8760234975219e+04 -4.5259471761250e+01 4.4702202548123e-04
6 -1.6074000198878e+03 2.6554266260994e+04 -7.2363468583988e+01 1.4617839404088e-03
7 -2.5463545799737e+03 2.6538979688348e+04 1.4690644340741e+02 1.7285053997071e-03
8 -1.9885847035696e+03 2.6141345469456e+04 -4.1264086800338e+01 3.3155761794644e-03
9 -1.9541041357111e+03 2.6026166291138e+04 1.4696084746008e+02 3.2760758208750e-03
10 -1.3139932166533e+03 2.6098441553887e+04 -1.9157075927357e+01 2.1164564322974e-03
11 -3.1632621866156e+02 3.0839945943899e+04 -1.3072669707406e+02 1.6463294236708e-03
12 -1.7388932513833e+03 3.0769548985133e+04 -6.9190836801931e+01 3.3409572094899e-03
13 -3.5681646222427e+02 3.0119142771340e+04 -2.5318969801297e+01 1.9941559849319e-03
14 -6.9758833030943e+02 3.1354951675140e+04 -6.3738802384869e+01 3.5351816607989e-03
15 -2.1040808475644e+03 2.5716831900795e+04 6.9930874210246e+01 3.3331613385736e-03
16 -1.8899136999492e+03 2.5138222341645e+04 -7.4096489940757e+01 1.9880144354067e-03
17 -1.5520574831217e+03 2.6054077012726e+04 -4.6284323421573e+01 2.6152408695093e-03
18 -1.5230783975739e+03 2.6047400973189e+04 -2.6358360139322e+00 2.4386211778084e-03
19 -1.5921481160266e+03 2.7559674439442e+04 -7.4450298260804e+01 2.4504245965299e-03
20 -1.8664418733587e+03 2.7905290975770e+04 1.1713326453239e+02 1.6540607807043e-03
21 -1.1025947303820e+03 2.6772487298958e+04 1.1466547064235e+02 1.5342422151233e-03
22 -1.5741945038356e+03 2.6736494252375e+04 1.5131581287899e+02 1.9212902321863e-03
23 -2.4415209124854e+03 3.0067991396329e+04 -6.3303725107000e+01 9.0468883755669e-04
24 -1.3027797924005e+03 2.9577059232954e+04 -9.3823871973166e+01 6.4293645499269e-04
25 -1.2152849008670e+03 2.9324111076516e+04 -2.9888416557392e+01 1.2411196946442e-03
26 -1.4608144475713e+03 2.8877471758648e+04 -4.4619342766713e+01 1.0428148011518e-03
27 -6.9299525009254e+02 2.7771025636363e+04 1.0913241076737e+02 7.2427940883985e-04
28 -1.3267241280762e+03 2.4388857890992e+04 1.6301533464931e+02 8.3097052648885e-04
29 -2.0130969479010e+03 2.2503364936725e+04 -5.8602273547951e+01 2.2879281908695e-03
30 -1.1621023051065e+03 2.2546610761522e+04 -4.5506569144565e+01 2.4210753065052e-03
31 -1.1451348169855e+03 2.2573498957082e+04 -7.5309812097415e+01 1.8239152518740e-03
32 -1.3060787672285e+03 2.3670848595104e+04 1.5723778928936e+02 1.5659809833644e-03
33 -3.1941006023553e+02 2.2872699570161e+04 -6.2776461968823e+01 9.4979980276249e-04
34 -8.1825298640015e+02 2.2198383993577e+04 -5.8560758282550e+01 1.3060821917327e-03
35 -9.2041209835168e+02 2.2968879849875e+04 1.2070995244712e+02 1.9882853863937e-03
36 -8.6749451144956e+02 2.5527614162699e+04 -4.8959641733502e+01 6.7122331285099e-04
37 -1.4581802220147e+03 2.6289601512415e+04 -1.4553279862874e+01 1.4184574678793e-03
38 -8.6693945516518e+02 2.4784314323246e+04 -4.9876481196681e+01 1.5677053374030e-03
39 -1.7918895166975e+03 2.6242421904017e+04 1.3664073946661e+02 8.7248995259624e-04
40 -2.0939611447132e+03 2.5795948029452e+04 -1.4465261938301e+02 3.0295464508862e-03
41 -1.0191828675035e+03 2.4108027234484e+04 -4.3976373681655e+01 1.7561678957030e-03
42 -2.0246743364763e+03 2.6978752361258e+04 1.5083869095138e+02 2.7599386619403e-03
43 -1.7217629892918e+03 2.5919318885175e+04 -3.1501809451684e+01 2.1303455108845e-03
44 -1.3680284861388e+03 2.4934665832637e+04 -3.3706372659009e+01 8.0589209096291e-04
45 -9.6785795901249e+02 2.4793705557103e+04 -1.0952825834348e+02 1.5512414283776e-03
46 -5.7126939297972e+01 2.1423417236566e+04 -5.1419133631362e+01 7.7302483804555e-04
47 -6.2712943551700e+02 2.0873390269006e+04 -3.6886700864603e+01 1.5679908689805e-03
48 -8.3213868165689e+02 2.0908463794918e+04 -9.1666093287276e+01 2.1924601504981e-03
49 -3.3731408097235e+02 2.5757062535467e+04 -9.5741568383868e+01 5.5264034962048e-04
50 -9.3997426018905e+02 2.5840063548821e+04 -5.4284712984390e+01 1.1256618800333e-03
51 -1.1793045701531e+03 2.5477952267463e+04 -2.7319758018701e+01 7.4243755483966e-04
52 -1.8200981713829e+03 2.4610884082938e+04 1.5213817683055e+02 3.0671101823259e-03
53 -1.2968974846409e+03 2.3604833614172e+04 -5.7191014358232e+01 2.3693812114007e-03
54 -5.3937976228327e+02 2.1929473359482e+04 1.3742296758659e+02 1.4391623270734e-03
55 -6.4454400062460e+02 2.8920425408509e+04 -5.8106186779397e+01 7.4049994349933e-04
56 -7.8464658583273e+02 2.6408494686586e+04 1.6382592958973e+02 1.1364584473574e-03
57 -1.7084537909874e+03 3.0111852583313e+04 1.7275350788685e+02 2.3338188355487e-03
58 -2.4906745748770e+03 3.3564129255333e+04 -4.9181492649868e+01 5.1213495813551e-04
59 -1.3511890674962e+03 3.2014005011998e+04 1.2104822179220e+02 1.5623067299988e-03
60 -2.5439582472717e+03 3.4099570471255e+04 1.3827605930461e+02 3.7262200751517e-04
61 -1.5425833519001e+03 3.1306322895214e+04 -5.2853456446165e+01 3.3293651727306e-03
62 -9.2416194625456e+02 3.1018040598616e+04 -1.3722287052088e+02 3.5770016627199e-03
63 -6.0289130475492e+02 3.4043103302841e+04 -1.4579127427012e+02 4.0003052975505e-04
64 -6.7886613333375e+02 3.1321776792029e+04 -7.2903171194796e+01 1.5779605695596e-03
65 -6.4953505079295e+02 3.1939330021543e+04 -5.2664692154453e+01 2.7738026294216e-03
66 -9.1021425958650e+02 3.0560132815343e+04 1.6612333304915e+02 2.2321706294779e-03
67 -2.4496932841752e+03 3.2150790059749e+04 6.7237324571321e+00 2.2613003026793e-03
68 -1.6927065230487e+03 3.2041116043430e+04 -1.6493506461655e+02 2.5068108091454e-03
69 -2.4945435622727e+03 3.2252229327543e+04 1.5945718656326e+02 1.6909127801257e-03
70 -1.3697747179151e+03 3.2203463214339e+04 -4.2384767514800e+01 1.3118250855825e-03
71 -7.4853401939651e+02 3.1173638050883e+04 -8.8062930479965e+01 3.1507598771775e-03
72 -1.8178233802935e+03 3.3324316546684e+04 1.1377118679661e+02 6.3142466903735e-04
73 -8.8724666592755e+02 3.2893353611111e+04 9.7386567293526e+01 1.2276886397453e-03
74 -1.6826542302816e+03 3.2591841041769e+04 -6.3637319995044e+01 1.4865310411367e-03
75 -2.4147833416402e+03 3.2787752254783e+04 1.2136864475196e+02 1.2131390305229e-03
76 -1.2100565147964e+03 3.1597343260050e+04 -4.8987425538862e+01 2.8380396227286e-03
77 -1.4659092591776e+03 2.9937041860585e+04 1.6751871521479e+02 1.7388836202922e-03
78 -1.5838468086861e+03 3.2601237660702e+04 -5.0188300282551e+01 1.6237613481566e-03
79 -1.7948147191837e+03 3.4041070462402e+04 -3.0200444809063e+01 3.5639013644058e-04
80 -4.7236989403857e+02 3.2645054769586e+04 -3.5134346630588e+01 1.1015571396310e-03
81 -1.3556056881923e+03 2.7140685930780e+04 -8.2584093146371e+01 2.0600043701484e-03
82 -1.1254960750184e+03 2.6624249818388e+04 -7.0079327398060e+01 1.6353282942006e-03
83 -6.3397179225293e+02 3.3103673511231e+04 -7.8488178119434e+01 7.9424876674833e-04
84 3.2170007053199e+01 3.3034183342047e+04 1.2913276658243e+02 1.0102282324419e-03
85 -2.0189552096025e+03 3.0735904136406e+04 -1.5147296598291e+02 3.4310006485438e-03
86 -1.4928351945851e+03 3.2221119755124e+04 -5.3424816435833e+01 1.1708773887006e-03
87 -1.8766939479149e+03 3.3066628967378e+04 -1.5169450147610e+02 9.2604153901533e-04
88 -1.8053359119203e+03 3.1853755742328e+04 -3.5794300422391e+01 1.2004466136864e-03
89 -1.2072520215860e+03 3.1783715962594e+04 -4.7922604481699e+01 1.9797524456842e-03
90 -1.5078324851250e+03 3.1940735714092e+04 1.3274620832307e+02 2.3456340472565e-03
91 -4.5799118649044e+02 2.7821313131811e+04 -3.6556668648142e+01 6.3849293371328e-04
92 -7.1613767532821e+02 3.1683408060934e+04 -5.7991884192443e+01 3.3461505243028e-03
93 -9.7033052272962e+02 3.1863222635799e+04 -4.4382382598484e+01 2.5497153878241e-03
94 -6.0007366519158e+02 3.0651718889399e+04 1.4459801985180e+02 2.3187926793035e-03
95 -9.3135647957129e+02 3.2564142562972e+04 -1.5740514017723e+02 6.5236784242513e-04
96 -1.3938880174374e+03 3.1296349018971e+04 -6.1287217385889e+01 3.4620097943886e-03
97 -1.3657139650940e+03 2.7032123548540e+04 1.2648332895183e+02 1.3184853681868e-03
98 -1.7057909880997e+03 3.1066148524642e+04 -4.5913123573985e+01 1.4203935067213e-03
99 -1.1318851068531e+03 3.0025080840305e+04 -3.3833933389532e+01 2.2222693112762e-03
100 -1.8500235744060e+03 3.3006683579983e+04 -6.1949580691790e+01 9.6397360812117e-04
101 -1.2519310121381e+03 2.8373070245183e+04 1.2880603735273e+02 1.0752516939819e-03
102 -1.2366597419180e+03 3.1972791086546e+04 1.3381982538889e+02 2.6926576595956e-03
103 -1.4700334217690e+03 3.1685780156159e+04 -9.5188327923117e+01 3.0547791239200e-03
104 -1.6306565985619e+03 3.0212544177876e+04 -3.7419874258380e+01 2.4924275355087e-03
105 -1.8094581443351e+03 2.8671299216235e+04 -1.1124571066902e+02 2.4182551107765e-03
106 -2.6485784299546e+03 2.8485973188983e+04 1.1834364381015e+02 3.5926125567878e-03
107 -2.7770246341556e+03 2.6595326667646e+04 5.2855842593450e+01 2.9321561393610e-03
108 -2.5951036816678e+03 2.6382113244249e+04 -5.2859128946325e+01 2.0156287048763e-03
109 -1.0717772949510e+03 2.7776619374342e+04 -4.4708641096244e+01 8.6332355826187e-04
110 -1.9470982683489e+03 3.1012859127330e+04 1.7765543569142e+02 2.3621875068786e-03
111 -6.4535619954436e+02 2.8622340561824e+04 -4.1633941720949e+01 4.9682859609248e-04
112 -4.0185533567129e+02 2.7854118630280e+04 -3.3666393623164e+01 6.4236510801047e-04
113 -6.7717719066647e+01 2.6634487022125e+04 -4.5988304555338e+01 4.5049440760454e-04
114 -1.6770581551986e+03 2.7897638755149e+04 -5.8209450040474e+01 2.5484634023306e-03
115 -2.2521926129298e+03 2.8299360640149e+04 -6.0514568901405e+01 2.3464974441711e-03
116 -2.1291711503054e+03 2.8309048610500e+04 1.1241253765605e+02 3.2598580052506e-03
117 -1.9811062792321e+03 2.7788624568913e+04 1.4867022610962e+02 2.9936291320268e-03
118 -2.6024192323705e+03 2.7656700214480e+04 1.6351240706418e+02 1.3860144190604e-03
119 -1.6943225734639e+03 2.7082232407950e+04 -8.5921697292524e+01 2.7249859707891e-03
120 -1.5642951794264e+03 2.7117466775777e+04 -6.8818847209851e+01 2.3861126331695e-03
121 -1.3954670389408e+03 2.8717272721614e+04 -3.9325259983010e+01 1.8517588012567e-03
122 -1.9098851734174e+03 2.7386861822413e+04 1.3973561593794e+02 1.6163030755091e-03
123 -2.5215022807693e+03 2.8059640973010e+04 -1.3957311237653e+02 1.3285363383762e-03
124 -1.8713624150640e+03 2.9064420930057e+04 -3.0550963319745e+01 2.3216533323125e-03
125 -2.0146438832653e+03 2.9894861655425e+04 -4.6263519497865e+01 2.3726892660483e-03
126 -1.5745126396196e+03 3.0050795612838e+04 -4.2524258872269e+01 2.2905937723519e-03
127 -1.6417406376615e+03 2.9350661641487e+04 1.5606889550730e+02 1.6802113662518e-03
128 -9.2270241051269e+02 2.6417439886710e+04 -4.6003495044188e+01 1.3277346358303e-03
129 -1.6639695323482e+03 2.6953554403784e+04 -2.5338766763783e+01 2.5919969693966e-03
130 -1.9165658336181e+03 3.0332028810985e+04 -8.1053306602972e+01 2.2789094550630e-03
131 -8.2410457067346e+02 2.9286844094105e+04 1.5883188468698e+02 6.0441813178203e-04
132 -4.2976349446872e+02 3.1662674304873e+04 -2.8511652097581e+01 1.2634851033634e-03
133 -2.0421032713435e+03 2.4977173153927e+04 1.2422874039683e+02 2.7867242255057e-03
134 -1.6249536887835e+03 2.5273790246605e+04 -4.7010704815267e+01 2.3989492624081e-03
135 -1.6166928281641e+03 2.8879657588737e+04 -5.7107982602420e+01 2.2415494441032e-03
136 -1.9977744516588e+03 2.8111553758403e+04 -8.7672122005976e+01 2.7266588650971e-03
137 -2.4712829578931e+03 2.9633391339816e+04 -7.9074984345701e+01 2.6672635204721e-03
138 -2.0943709956581e+03 2.9212474401412e+04 -5.3556989441663e+01 2.3905291719989e-03
139 -1.4036060812340e+03 2.7469218610486e+04 -6.9323433513120e+01 1.1255147950168e-03
140 -2.4263565936085e+03 2.7352685086573e+04 -5.0188952034427e+01 5.7616026829406e-04
141 -2.0944540271409e+03 2.7946560211812e+04 9.3779080393667e+01 2.4318287379543e-03
142 -1.6693467434267e+03 2.6303570757005e+04 -3.7936728754238e+01 1.9896781548482e-03
143 -2.1876716760874e+03 2.6789322810119e+04 -3.7159228940942e+01 3.3884270179730e-03
144 -1.8135356724423e+03 2.6894584504557e+04 -1.7636995609782e+02 2.9652891924169e-03
145 -1.6630325097277e+03 2.8464226764281e+04 -5.7057958937925e+01 7.8101157574454e-04
146 -2.2673154584335e+03 2.6230281952260e+04 1.1807453257478e+02 3.0207728511663e-03
147 -2.6102424261194e+03 2.6820103018968e+04 1.7471358273975e+02 3.5100356225708e-03
148 -1.8243219827751e+03 2.6915878667000e+04 9.4198103357313e+00 2.9965222525334e-03
149 -2.4634541005178e+03 2.8859877333367e+04 1.2351187910769e+02 3.5337493956691e-03
150 -1.4802149738568e+03 3.1053058165612e+04 1.4513941304632e+02 3.5917364607315e-03
151 -5.8328127149248e+02 3.0327585551169e+04 -4.6144665933176e+01 2.7365154600233e-03
152 -1.8122366669389e+03 3.0636642431508e+04 -1.1457327248376e+02 2.2757358304435e-03
153 -1.2674826524669e+03 2.9197041322704e+04 -5.5792544431928e+01 8.9813551803518e-04
154 -1.8791659806860e+03 3.0188483991815e+04 1.4352604760238e+02 2.0304559039609e-03
155 -2.6054754081475e+03 3.0614444531636e+04 -5.6384053104888e+01 3.2528957760653e-03
156 -2.6267675875355e+03 3.0792326371220e+04 -5.0381496954342e+01 3.4785391087486e-03
157 -1.5632161959831e+03 2.9441356903041e+04 -5.5451392982724e+01 1.1445588909705e-03
158 -1.6972901571342e+03 3.1633959546301e+04 1.4656038872202e+02 3.0069765380061e-03
159 -1.4558610901160e+03 3.1180411988389e+04 1.3072581835835e+02 3.4851547982174e-03
160 -7.7220808588727e+02 2.9227899817803e+04 -5.7230278288325e+01 6.7647305800759e-04
161 -2.2471107245837e+03 3.0930215909426e+04 1.4624353142675e+02 3.4565191790551e-03
162 -1.7709182854500e+03 3.1933764808871e+04 1.1967538703214e+02 2.3451351752600e-03
163 -1.6724921591766e+03 3.2668552352844e+04 1.4389809304839e+02 1.3919591668985e-03
164 -1.1738408067119e+03 3.2145226396842e+04 -6.5721339483442e+01 2.1495506098925e-03
165 -1.5112279445966e+03 3.2812634285705e+04 1.3404209875865e+02 1.2514438788039e-03
166 -1.0956210759632e+03 2.9072296825984e+04 -4.0889963329087e+01 1.0687850441443e-03
167 -1.5693995216508e+03 2.9549446072043e+04 -1.0862567934664e+02 2.0341964281349e-03
168 -9.8918069565190e+02 2.9174961091152e+04 1.3600648928180e+02 1.0444727555058e-03
169 -1.2928119531048e+03 2.9455688367580e+04 2.9728473950033e+01 1.1875241821327e-03
170 -2.4715376780101e+03 3.2485623282157e+04 -1.8871961806889e+01 1.5503392256691e-03
171 -2.1079008158949e+03 3.1738572349887e+04 1.6223972890439e+02 6.1184928894792e-04
172 -1.4766607783567e+03 3.1711093882227e+04 -1.6738004115243e+02 2.8671907922447e-03
173 -1.7858847200818e+03 3.1880927417428e+04 -4.6474988584446e+01 2.9600474553919e-03
174 -1.7623624001390e+03 3.2108092499222e+04 -1.5332719839135e+02 2.5363287826096e-03
175 -1.3949584995581e+03 3.0785940781452e+04 -5.4593532865421e+01 1.6511276273573e-03
176 -1.8913715423038e+03 3.1579477680655e+04 1.3749586721079e+02 2.3305853878711e-03
177 -1.6752668255056e+03 3.2487700017701e+04 -1.2406335038090e+02 1.5360499395089e-03
178 -1.2850752688415e+03 3.0599961005101e+04 -5.0541079432361e+01 2.8133174317733e-03
179 -1.7835952763199e+03 3.0804641805083e+04 -4.8768209799773e+01 2.9692601525396e-03
180 -2.2562443406886e+03 3.3880703965528e+04 1.6708910641886e+02 3.9492697212617e-04
181 -2.2210680921890e+03 3.0738686953868e+04 -5.5440306007396e+01 3.0054407833591e-03
182 -1.9491322418450e+03 3.3655151871512e+04 -2.2615160819113e+01 3.8917818121089e-04
183 -2.1060031245045e+03 3.1084542145861e+04 -7.3659589627895e+01 2.3621059783419e-03
184 -2.3106643117774e+03 3.1604249033259e+04 -8.1115365644437e+01 2.5216063922966e-03
185 -7.8534325359337e+02 3.0581160353039e+04 -1.5259695476959e+02 2.9650692411436e-03
186 -2.4782303651696e+03 3.3328025835411e+04 5.2153788874865e+01 6.3451353023371e-04
187 -2.6770350880008e+03 3.3682269377015e+04 1.4673516561931e+02 3.9502539818388e-04
188 -1.5114937308838e+03 3.2424800288579e+04 -7.0311044533684e+01 6.2951977706818e-04
189 -1.3983591605656e+03 3.0249449369846e+04 -5.2785419795230e+01 2.4783907545842e-03
190 -1.6928851899824e+03 2.9810311683418e+04 -4.5658426509550e+01 1.1850647024383e-03
191 -1.6693748766738e+03 3.0289046091893e+04 -4.3314280874941e+01 1.0328279518744e-03
192 -1.8058782966861e+03 2.8172333224308e+04 -4.1822120999693e+01 2.4428529705656e-03
193 -1.1590017244719e+03 2.7379234537952e+04 -2.9447258765478e+01 1.6540276459218e-03
194 -2.0479012372815e+03 2.8486781951812e+04 -1.3932584044682e+02 3.0427389638270e-03
195 -1.7468508331985e+03 2.8870235289817e+04 1.6454267871961e+02 1.9457241731204e-03
196 -1.8407062721996e+03 2.9137057124557e+04 -2.7606248981946e+01 2.3120359289916e-03
197 -2.4510044262818e+03 2.9367689081534e+04 1.7583275963639e+02 3.2934732138460e-03
198 -2.0546008085636e+03 2.9961170537706e+04 -9.0015375583936e+01 2.6704013503296e-03
199 -2.3647425005490e+03 3.1498055026862e+04 1.2154657515420e+02 3.3562112940653e-03
200 -2.5221783537923e+03 3.0682464901146e+04 -5.6824329154577e+01 2.3061217487446e-03
201 -1.8107083704874e+03 3.1625789880197e+04 -6.3414526616165e+01 3.3301653972862e-03
202 -1.1752438866875e+03 3.0835341499594e+04 1.1075726110812e+01 3.5027942628363e-03
203 -2.0358124750192e+03 3.1320049740355e+04 1.3022933135003e+02 2.0572960722773e-03
204 -1.5308529045300e+03 3.0879078350073e+04 -9.2857411980104e+01 3.5175620044504e-03
205 -1.5736061980765e+03 3.1376693938661e+04 -1.2810084831257e+01 3.5338602956234e-03
206 -2.0552729027618e+03 3.1559540176508e+04 -5.8012991236947e+01 3.1496560240704e-03
207 -2.0572423094710e+03 3.5044613599404e+04 -6.9980244343171e+01 3.2867371568641e-04
208 -1.3152136713283e+03 3.0495118086400e+04 1.4159826787372e+02 2.9166922487380e-03
209 -9.4571034511132e+02 3.1818201127549e+04 -1.2446126708830e+02 2.8323765504165e-03
210 -1.5047981233981e+03 3.2210725489776e+04 -4.6144527681326e+01 2.2311590586060e-03
211 -1.0486806519486e+03 2.7642890322191e+04 -2.2578543988996e+01 1.3989492096145e-03
212 -1.0397071177403e+03 2.7222885595484e+04 -2.5654572420674e+01 1.4373193844336e-03
213 -8.1617111434117e+02 2.8068267818598e+04 -8.0687452316859e+01 7.6327512128468e-04
214 -1.8660760590295e+03 3.0158480867609e+04 1.1404310334791e+02 2.5694834092861e-03
215 -2.1560807348252e+03 3.0954216718844e+04 -6.5788320238709e+01 1.9861287443170e-03
216 -1.8616125032783e+03 2.8066469698501e+04 -3.7460001736936e+01 1.6301273368756e-03
217 -1.7787796842792e+03 3.2409818776417e+04 -3.5795958452941e+01 1.7023206387651e-03
218 -1.5023153930322e+03 3.4368138650306e+04 1.5664488883655e+02 3.4102732237699e-04
219 -4.7955399802219e+02 3.4451352815590e+04 -5.3373943250661e+01 3.5036307540513e-04
220 -5.8798140229371e+02 3.3497413469073e+04 -7.6033193272045e+01 5.2839795511021e-04
221 -8.4995901750776e+02 3.0200352229298e+04 1.4419405943897e+02 2.4450571441799e-03
222 -7.4227594888873e+02 3.3390948235645e+04 -5.3279619241142e+01 4.1528459839647e-04
223 -2.0538077917644e+03 3.4485071218231e+04 -5.2242918336636e+01 3.3279884102127e-04
224 -2.2988552185942e+03 3.1728497720335e+04 -6.8309241683177e+01 3.0349027469928e-03
225 -9.7580759961371e+02 3.0717517002636e+04 1.4583264742745e+02 3.3333925544167e-03
226 -1.1653315954982e+03 3.0917052379663e+04 -1.3277474562091e+02 3.5547410960308e-03
227 -1.4450758102503e+03 3.0542019005561e+04 6.1434229973802e+01 2.3319666838770e-03
228 -8.7073649830178e+02 3.3328368761439e+04 1.2745208417611e+02 4.8291889897007e-04
229 -4.9322064899860e+02 3.3834141446309e+04 1.4055454562191e+02 4.3654617025777e-04
230 -7.4953439198759e+02 2.9739590875875e+04 -5.7840587276994e+01 1.6283978152252e-03
231 -1.8870698118582e+03 3.2870829547041e+04 -1.4185934222713e+01 1.0207234077232e-03
232 -1.9779126632820e+03 3.2788774686815e+04 -1.5379645682838e+02 1.2814392420153e-03
233 -1.6669414993109e+03 3.2434154001260e+04 -5.3265729202498e+01 1.7274511888069e-03
234 -9.8330439558601e+02 3.3768624606734e+04 -1.0863482149579e+02 3.9303227667987e-04
235 -1.6925471108735e+03 3.1241694143412e+04 -6.2587027728791e+01 3.2075784406767e-03
236 -1.3295066935864e+03 3.0968867328710e+04 -2.9979877520441e+01 3.5152251729405e-03
237 -9.3253657284459e+02 3.1136385172862e+04 -5.9962019395351e+01 8.3344742066989e-04
238 -1.8273111852809e+03 2.8468972234651e+04 -3.0783303420342e+01 2.6511346000009e-03
239 -9.1564232352016e+02 3.4728545630124e+04 1.6975055605127e+02 3.3437970832946e-04
240 -1.4214604548321e+03 3.2968836831537e+04 9.4598362553451e+01 1.0767526694662e-03
241 -7.3337181253640e+02 3.2250694882681e+04 -2.4257080658027e+01 2.3945859857605e-03
242 -1.2255693731035e+03 3.1004260989820e+04 1.5281581663379e+02 3.5612768144484e-03
243 -2.1943191631215e+03 3.3756849547427e+04 1.3801956023857e+02 4.2815769562864e-04
244 -1.1884822889963e+03 3.4247551563423e+04 -6.1074872237188e+01 3.6389000197762e-04
245 -1.9896594288053e+03 3.1158052952372e+04 -9.9002194101447e+01 3.5926125567878e-03
246 -1.5179370502624e+03 3.0660411880466e+04 -6.3841470251801e+01 2.5046779999539e-03
247 -1.1402519504110e+03 3.0726075729456e+04 -3.3296410550985e+01 2.8723154661637e-03
248 -1.7367043676256e+03 3.2311597954007e+04 -6.6983458935556e+01 2.1463674433136e-03
249 -1.7692950988826e+03 3.2535774179730e+04 -1.0353236886902e+02 1.6625274339788e-03
250 -1.2716426801271e+03 3.4147960071423e+04 1.0233704129594e+02 3.5821066540424e-04
251 -1.5293921408937e+03 3.1376644259943e+04 -1.9492158140523e+01 3.5324439547048e-03
252 -1.5858918143801e+03 3.1962009963763e+04 -4.8494161969975e+01 2.1485243315827e-03
253 -1.2848179742588e+03 3.2461326714870e+04 1.3626605497693e+02 1.6496663986700e-03
254 -7.3691686058704e+02 3.2548944139901e+04 -5.6787604098211e+01 1.8172895242212e-03
255 -1.4208690079359e+03 3.1919298407720e+04 1.0129034662628e+02 2.1667874652139e-03
256 -1.2381527617713e+03 3.2268937428382e+04 -3.4814645419795e+01 2.2977100461685e-03
257 -1.0173172863806e+03 3.1878335219938e+04 -8.0700223699044e+01 3.0004550856045e-03
258 -2.0983263657841e+03 3.1344240845275e+04 1.7066815074221e+02 3.3332078920811e-03
259 -1.5904634710016e+03 3.1257249504137e+04 -5.4924048071852e+01 3.5913340411248e-03
260 -1.2409764301450e+03 3.1114593886723e+04 -2.4976728847439e-01 3.5848740470817e-03
261 -1.1752812264699e+03 3.1231637964117e+04 5.6273832349753e-01 3.5498984165458e-03
262 -1.5143939119244e+03 3.1456698185796e+04 -6.7081148725308e+01 1.6982798433982e-03
263 -1.0760934042134e+03 3.1692538080914e+04 -3.8823427286158e+01 3.2660077096155e-03
264 -1.6897150025883e+03 3.1252071026497e+04 1.3700294840458e+02 3.0235830898657e-03
265 -2.1639927927085e+03 3.0200296116102e+04 -7.3169160733412e+01 1.0136916713164e-03
266 -2.0147064559229e+03 2.9766265881761e+04 -7.8941032885416e+01 7.2560756824721e-04
267 -2.7246941469681e+03 3.2361269393097e+04 -1.0548352211211e+02 1.8827243456292e-03
268 -2.5795357194447e+03 3.2148361132314e+04 -5.8407475107001e+01 5.9715652089461e-04
269 -1.5498530401405e+03 3.1969908036486e+04 1.4147867676886e+02 2.8364421659163e-03
270 -2.7203399954947e+03 3.0018638563702e+04 -8.6298749883685e+01 2.7852778146742e-03
271 -1.4006024500560e+03 2.9206873281737e+04 -9.8835102639471e+01 1.6399970285552e-03
272 -2.0887606287382e+03 2.8775880386630e+04 1.6961722764529e+02 3.1271340676419e-03
273 -1.9803374897313e+03 2.8771858811070e+04 -7.7098137766569e+01 2.3669378956211e-03
274 -1.6938304176311e+03 2.7979021266717e+04 -4.6964013468226e+01 2.5581071278358e-03
275 -2.0451321010952e+03 2.9390699469012e+04 -8.0466838614545e+01 2.8342084200029e-03
276 -2.5543670833328e+03 2.9107625466229e+04 -1.6943752444074e+02 3.0569467229948e-03
277 -1.5739526922596e+03 2.6470171830628e+04 -7.2982631469280e+01 1.9490864498277e-03
278 -5.6357271024467e+02 2.9507785657900e+04 -1.0836499844458e+02 1.1107370848495e-03
279 -2.3616718637574e+03 3.1679150952638e+04 1.5604289550204e+02 2.9996713247324e-03
280 -1.6747361923952e+03 3.1484523410090e+04 -5.1533692383758e+01 3.2368889211090e-03
281 -2.2826073438288e+03 3.0848615885498e+04 -4.0035443359611e+01 3.5512022497041e-03
282 -1.8826606300164e+03 3.0543425564961e+04 -1.7596569994807e+01 2.9611704501027e-03
283 -3.4566891753746e+02 3.1414880561215e+04 -4.5688930052130e+01 2.9407065343755e-03
284 -1.0438519397916e+03 3.0755565707054e+04 1.3829434174851e+02 2.6693501977803e-03
285 -7.9234276019802e+02 2.8244946463409e+04 -8.9258866087399e+01 9.7436331335419e-04
286 -2.1652644181780e+03 3.1223640322262e+04 1.2699315337203e+02 7.2970285552352e-04
287 -9.3867698632928e+02 2.4749534308367e+04 -1.4847377532695e+02 1.7091686237766e-03
288 -1.9444072052988e+03 2.6349822245789e+04 -2.6120388346493e+01 1.4708488383929e-03
289 -1.3041750975039e+03 2.5473759776444e+04 -9.9552803334404e+01 1.1936714487845e-03
290 -1.6016927444235e+03 2.5404459945817e+04 1.5134410497788e+02 1.9498701700016e-03
291 -1.6578652909264e+03 3.0904630363880e+04 -2.7686217459654e+01 3.4802943126068e-03
292 -2.4462737737333e+03 3.1659310785319e+04 -5.1149128595721e+01 1.3475417003906e-03
293 -1.1420028745095e+03 2.5954586454997e+04 -8.7107306021175e+01 1.3435568844952e-03
294 -2.4585151203324e+03 2.8339998846625e+04 1.3849562133529e+02 2.8139112503980e-03
295 -1.1157097283316e+03 3.0165595694838e+04 -5.4171538458768e+01 2.0918263436630e-03
296 -2.6707319126064e+02 2.5166152941438e+04 1.3153155692729e+02 3.9670448025786e-04
297 -9.2059521254703e+02 3.1291125328962e+04 -6.3000542086519e+01 2.7916773771390e-03
298 -4.0111834719376e+02 3.0707265259406e+04 -8.1935597572304e+01 1.8099533362209e-03
299 -1.4840963236730e+03 3.1964565899428e+04 -5.0736322942863e+01 2.8570446992842e-03
300 -3.1451768533157e+02 3.2440616628977e+04 -5.4833685967850e+01 1.8240338972288e-03
301 -5.6833478150281e+02 3.1140251783232e+04 -1.0725407002738e+02 2.9041368197874e-03
302 -1.2517972114564e+03 3.0975218301513e+04 -5.0965658176188e+01 3.3299585531734e-03
303 -9.6727971254814e+02 3.1262698187522e+04 -9.0320303377975e+01 2.8837548088349e-03
304 -1.0501357220400e+03 3.1712459353428e+04 1.5525137929291e+02 3.2522126260853e-03
305 -1.6151740262600e+03 2.9543739375909e+04 1.5551078191892e+02 1.9754564675364e-03
306 -1.5019766300154e+03 2.5859349503042e+04 -5.7535382197454e+01 2.5901830056053e-03
307 -9.0426742875385e+02 2.5510320791702e+04 1.2805750962095e+02 1.4647303984288e-03
308 -8.8818601578778e+02 2.6729633478641e+04 -5.4345496475333e+01 5.0491940485197e-04
309 -7.0365097959109e+02 2.6136984350051e+04 7.2522019062065e+01 9.3975668077951e-04
310 -8.6580781496964e+02 3.1079615344788e+04 -1.0075360228518e+02 2.3507261493781e-03
311 -7.2282029063513e+02 3.0564236852529e+04 -7.8937337767243e+01 3.0511407071062e-03
312 -8.2224026283282e+02 2.3524647519350e+04 -3.6474736039405e+01 1.3384603926769e-03
313 -8.1712474860658e+02 2.2834784456712e+04 -4.1975018157211e+01 1.1916384373325e-03
314 -1.0201511471872e+03 3.1328255133873e+04 -4.5689558590173e+01 3.0933864396529e-03
315 -1.2462112319090e+03 3.0920208192471e+04 -9.2154577604882e+01 1.6104296654878e-03
316 -9.0509124856512e+02 3.1904750146514e+04 -5.4608394108637e+01 2.1891173633441e-03
317 -1.4508611890737e+03 3.5011023695895e+04 -1.4510888160963e+02 3.2945055114279e-04
318 -1.7896600210207e+03 3.4884979491174e+04 -1.5860948829808e+02 3.3047276431437e-04
319 -6.9016680002789e+02 3.1852740346326e+04 -3.1027726264803e+01 2.1210572360792e-03
320 -1.2639967323722e+03 2.7543064556362e+04 1.6994724166580e+02 1.7945116000040e-03
321 -1.0096095557625e+03 2.7064753264138e+04 -6.3647193603090e+01 1.4342729641764e-03
322 -1.8477252781471e+03 2.7236887825498e+04 1.3536630306280e+02 2.9227888553880e-03
323 -1.4163309528294e+03 2.5664639729815e+04 -4.0188737587374e+01 2.4536470422167e-03
324 -9.6768053469082e+02 2.5128409584530e+04 9.7870374064100e+01 1.6955449652048e-03
325 -1.3034407134622e+03 2.6234405699042e+04 -1.3008909495368e+02 1.1233973303542e-03
326 -5.5527125757628e+02 2.7593359849219e+04 -6.3349150027278e+01 6.1352634865420e-04
327 -1.5998090597965e+03 3.0316057837662e+04 -5.1678835071349e+01 2.1119405996550e-03
328 -1.8694546677919e+03 2.7282434929636e+04 1.2246887371198e+02 2.5139512423870e-03
329 -1.4033881231871e+03 2.6736389653818e+04 1.7566762438570e+02 2.1541945649474e-03
330 -1.3780013399570e+03 2.5927046273139e+04 -5.0940212090838e+01 2.3329774552497e-03
331 -1.2801209470668e+03 2.6395707901112e+04 -6.5758715658834e+01 1.5000623314432e-03
332 -1.0771660849234e+03 2.5978643651759e+04 1.4490007532076e+02 1.6883365674436e-03
333 -2.1348809979203e+03 2.7634236774090e+04 1.3632472506094e+02 1.8876179999947e-03
334 -2.4789586007232e+03 2.5167477650573e+04 1.3711221327435e+02 3.5865331943727e-03
335 -1.5699416510634e+03 2.4877909416057e+04 5.5687153380634e+01 2.2786278812802e-03
336 -1.4139055606846e+03 2.4708970384575e+04 -1.0216204983703e+02 2.3473870496899e-03
337 -7.9120079574558e+02 2.4157788039348e+04 -2.3118454656532e+01 1.4725598436324e-03
338 -1.3118834780428e+03 2.4146014670306e+04 -2.8561513651849e+01 2.5180017947326e-03
339 -2.9425177715904e+02 2.2513724504802e+04 -5.2383193778341e+01 1.0069678903514e-03
340 -5.0662391556297e+02 2.6227764323224e+04 -4.2066166522027e+01 7.8419992970099e-04
341 1.6838726407413e+02 2.3002951982790e+04 -4.0582186481165e+01 5.8747321388099e-04
342 -1.6235780544085e+03 2.9510698228528e+04 -8.8516210495267e+01 5.0879790669145e-04
343 -2.2230324003909e+03 2.2571978072364e+04 -6.2307171004564e+01 3.5829767203544e-03
344 -1.1684133287436e+03 2.3154534399377e+04 -5.3146705412600e+01 6.9531916357077e-04
345 -2.1620568168919e+03 2.3447018114439e+04 -6.9944215489281e+01 2.0875091290799e-03
346 -1.4311380210521e+03 2.1960885875410e+04 -2.5866677811855e+01 3.0628598160563e-03
347 -2.2949093424916e+03 2.3327353714567e+04 -8.4658147780065e+01 1.3848518325137e-03
348 -2.6329160577180e+03 2.1764340282596e+04 -1.1150176887064e+02 1.4618466957812e-03
349 -1.5909424047291e+03 2.7542679303511e+04 -4.4056632602853e+00 9.7887207428595e-04
350 -8.8466661646661e+02 2.7170545860658e+04 -8.5010350643742e+01 1.1651801363840e-03
351 -1.2767916159503e+03 2.5650612039924e+04 1.5139386774391e+02 2.0293647349464e-03
352 -1.4581088664602e+03 2.5508649420707e+04 1.2685668278446e+02 1.6776677975198e-03
353 -1.9179503792197e+03 2.5002732550443e+04 7.3377306583810e+01 3.1151985036685e-03
354 -1.9418741656620e+03 2.4612461898744e+04 1.2327536269757e+02 3.4424943405955e-03
355 -2.3700282476175e+03 2.5573892028304e+04 1.3996344030661e+02 3.2649449926175e-03
356 -1.9899339207699e+03 2.7395420577918e+04 -1.1107183035511e+02 2.6227017798710e-03
357 -1.7069372835349e+03 2.6922654809929e+04 -6.0984624827691e+01 1.1192310257710e-03
358 -2.5645514792200e+03 2.6754808773743e+04 8.0991906272937e+01 1.0511301310730e-03
359 -1.9182936345202e+03 2.7038872211669e+04 -6.0445443953009e+01 2.9641318456798e-03
360 -1.7123999409411e+03 2.5782178638602e+04 1.6159978924661e+02 2.6815274863951e-03
361 -2.0243603831859e+03 2.5981256448958e+04 -5.5497882850153e+01 3.3633504326691e-03
362 -1.5773603174823e+03 2.6815442549703e+04 -7.4932980672398e+01 2.1302210486184e-03
363 -1.6930068753018e+03 2.4792806272742e+04 1.3605279005224e+02 2.7409437032506e-03
364 -1.7592161861936e+03 2.2618152862568e+04 1.2665712575349e+02 1.0004732934526e-03
365 -1.4303340409619e+03 2.3469920829151e+04 -6.3401146415217e+01 1.9003962242303e-03
366 -1.3840361668662e+03 2.2276182947408e+04 1.5220718867546e+02 1.1103461774074e-03
367 -2.0725748675926e+03 2.9826804103935e+04 1.4243925575829e+02 2.9358389697852e-03
368 -1.3514534698105e+03 2.9622732625629e+04 -4.3604513005710e+01 1.2509458988488e-03
369 -1.8064915634553e+03 3.1703630745158e+04 1.5362016931614e+02 3.1343373191460e-03
370 -1.5529028602946e+03 2.8180501781642e+04 -7.1079979048214e+01 2.2582926983080e-03
371 -1.2994373248813e+03 2.8269178955762e+04 -4.3349580335170e+01 1.6884459975387e-03
372 -1.1861252940406e+03 2.7590407482198e+04 1.4705801313453e+02 1.5779948631890e-03
373 -1.7777176244901e+03 3.0743472267093e+04 -6.2698777464922e+01 9.9696052692808e-04
374 -1.0718313837387e+03 2.6963199183369e+04 -2.9965366344584e+01 1.4219501089537e-03
375 -1.1255205743373e+03 2.6762937591444e+04 -4.7967380806538e+01 1.4943423134233e-03
376 -1.7280971609347e+03 2.2643458475921e+04 -4.8917830344152e+01 2.3721935893563e-03
377 -1.3546781279248e+03 2.6487984359552e+04 -5.6284657549515e+01 1.1384114910808e-03
378 -2.2549131306660e+03 2.6493184352781e+04 -1.7733791835781e+02 2.8022170800009e-03
379 -2.2096564103264e+03 2.7551004002540e+04 1.3671141997716e+02 1.4781491249547e-03
380 -1.8647080708930e+03 2.8106057466869e+04 -3.8248432605002e+01 2.6620659001093e-03
381 -1.9359970340902e+03 3.0665543697610e+04 -1.4093912712701e+02 1.8034679975693e-03
382 -1.6405996272055e+03 3.0670509199482e+04 -1.6710151504278e+02 3.3790566508655e-03
383 -1.9287486131448e+03 2.9638680254469e+04 -1.0281817791711e+02 9.5782181123274e-04
384 -1.4659894089535e+03 2.9107236097646e+04 -5.8781064000579e+01 4.1084023902696e-04
385 -1.3518754557385e+03 2.8345820962280e+04 -2.2774958442880e+01 1.8395001342825e-03
386 -1.8978659780372e+03 2.8883603016569e+04 1.6190282967554e+02 2.1288281820117e-03
387 -2.0829944095093e+03 3.0032222144167e+04 -7.8766910431450e+01 1.8863873507778e-03
388 -1.1269099383552e+03 2.9950175677986e+04 -4.6977459614803e+01 1.3960311847429e-03
389 -6.6969389176039e+02 2.9506674061592e+04 -5.0765087619413e+01 1.2432589212238e-03
390 -1.2714065471953e+03 3.4695817108046e+04 -4.2593551930361e+01 3.3280486077277e-04
391 -1.8800748497129e+03 2.7154054741418e+04 -1.4434910507327e+02 2.8302717820705e-03
392 -1.5787519081970e+03 2.7016584530616e+04 -1.4919632652859e+02 2.3737347131094e-03
393 -2.2830327123329e+03 2.7759001905978e+04 1.4124760663805e+02 2.5341892319954e-03
394 -1.2375989150442e+03 3.1700773115302e+04 1.2199317165197e+02 2.5461279201599e-03
395 -1.4682511958109e+03 3.1854697407213e+04 -3.9154212233354e+01 9.1066992690413e-04
396 -1.1504548406808e+03 2.9814253986299e+04 -5.4546791980764e+01 1.4604390344379e-03
397 -1.4305182309269e+03 3.0636968968955e+04 -4.7093758840866e+01 3.2088406982735e-03
398 -1.1594510392681e+03 2.9185918645722e+04 -1.4503119572950e+02 1.2929644110502e-03
399 -8.4308491338910e+02 3.2155695294847e+04 1.2998578733249e+02 8.3183414297253e-04
400 -1.7202064300110e+03 2.6708833196225e+04 -6.7793768722534e+01 2.4683986876305e-03
401 -1.0273647813535e+03 2.6705689532890e+04 -8.0214120826043e+01 1.5002119045442e-03
402 -1.6555767844465e+03 2.7624835536888e+04 -1.6180826816216e+02 2.2297369495908e-03
403 -2.2863993106911e+03 2.6593630395972e+04 -1.2350370735880e+02 9.9910381036178e-04
404 -2.4487096988710e+03 2.6944616861475e+04 1.7794173707372e+02 2.3352237103015e-03
405 -1.3257542621022e+03 2.3996176202829e+04 -3.5203781786536e+01 2.5332108911385e-03
406 -1.6048325054900e+03 2.3917778547325e+04 -5.8376556717435e+01 1.1944558523072e-03
407 -1.6156946734399e+03 2.4264458709122e+04 -3.7051296395208e+01 2.6385117863364e-03
408 -2.0625091702127e+03 2.4798070433418e+04 1.4619445442937e+02 3.3423495710121e-03
409 -2.6695013504589e+03 2.4871839863993e+04 -1.2109962354386e+01 3.5003271526773e-03
410 -2.5191368997572e+03 2.5066150071499e+04 1.4096737927092e+02 3.3488523927258e-03
411 -2.3561709169141e+03 2.5948989497004e+04 -3.9148519969646e+01 3.0120253947867e-03
412 -2.2414328974572e+03 2.6815061832970e+04 -1.8615038729230e+01 3.5077780003313e-03
413 -1.8829179696865e+03 2.5958131219260e+04 -5.1601363202893e+01 3.1758948082059e-03
414 -1.5534218982931e+03 3.1609979492750e+04 -3.6860013762369e+01 2.9911025196554e-03
415 -6.1621093589948e+02 2.9568207538926e+04 1.4530510258643e+02 1.2955475425289e-03
416 -1.6460372201306e+03 2.5620363255932e+04 -7.7649405817333e+01 6.4527940946912e-04
417 -2.4236150883908e+03 2.9718821109973e+04 1.3135520904874e+02 1.3252942425095e-03
418 -1.0453924006515e+03 2.6055517912173e+04 -4.8322531521440e+01 3.9816712353490e-04
419 -1.1260258932854e+03 2.7328534110893e+04 -5.1933851025075e+01 1.4353129715485e-03
420 -2.2456932369192e+03 2.6224815567698e+04 1.1832132416091e+01 3.2001955511848e-03
421 -9.8885645005473e+02 2.7197552679183e+04 4.4595036223279e+01 1.1278925541491e-03
422 -2.2466302814472e+03 2.8556342672706e+04 8.4400107374347e+01 3.2475376462274e-03
423 -8.3320159421764e+02 2.4347863486766e+04 -5.5790773983987e+01 1.3717612837597e-03
424 -1.5064946103652e+03 2.5204789216039e+04 1.2092517323091e+02 2.4545236484032e-03
425 -1.3884996612361e+03 2.5985431031289e+04 -7.2253643965434e+01 1.9985412481985e-03
426 -2.7791229117754e+03 2.8214380327950e+04 -1.2897365010601e+02 9.9930710187678e-04
427 -2.8108056526218e+03 2.8684637050133e+04 -5.0059452234616e+01 1.7752987379865e-03
428 -1.0833166487415e+03 2.8118121774976e+04 -1.5699868050162e+01 1.0555153807600e-03
429 -3.3269785431737e+03 2.8659632902208e+04 1.5275173219767e+02 2.3910432774672e-03
430 -1.4491932628888e+03 2.6108944130243e+04 -9.3158014809923e+01 2.2028433642749e-03
431 -2.2432412615375e+03 2.6433837243056e+04 1.4002579597113e+02 2.2786017997890e-03
432 -1.0037410171266e+03 2.7540707549805e+04 -2.1170062394248e+01 1.3202393104143e-03
433 -1.5872450558249e+03 2.8046126176816e+04 1.3096857093165e+02 2.1199069036128e-03
434 -1.9315430340143e+03 2.8096873240214e+04 -7.2567551019568e+01 1.9922664855413e-03
435 -1.4683630480777e+03 2.5685360035232e+04 -5.9663139143154e+01 2.0733642043886e-03
436 -1.8385062505822e+03 2.5539817866222e+04 -1.2689362034250e+02 2.7086989836206e-03
437 -1.3919748229037e+03 2.6292483461913e+04 -1.0990552076650e+02 2.2493340443949e-03
438 -1.2855017501405e+03 2.7238292671623e+04 -3.1926790176413e+01 1.7388699747446e-03
439 -1.2082046471840e+03 2.7392092075487e+04 -5.4906058084874e+01 1.7019024198527e-03
440 -2.3365923519312e+03 2.9804751228436e+04 1.2389973263365e+02 1.8324993252542e-03
441 -1.9742371184931e+03 2.8548445133376e+04 -2.6231555994317e+01 1.9460031387095e-03
442 -1.2323153800650e+03 2.8306228520600e+04 -9.0612784940860e+01 1.5184050301683e-03
443 -1.6892432409083e+03 2.6624599437218e+04 -1.2994238312405e+02 2.6711778227596e-03
444 -2.2716545951500e+03 2.7183329839591e+04 1.4921693618821e+02 2.8539141395440e-03
445 -1.5978741888479e+03 2.6465017252403e+04 -5.4751380574703e+01 2.3699861099379e-03
446 -2.0478622933595e+03 3.2318873169959e+04 -8.1626236268490e+01 2.0705501383317e-03
447 -1.8539069769033e+03 3.2572091782249e+04 -4.9057942550625e+01 1.6304793966005e-03
448 -1.0525992714155e+03 3.0395202451743e+04 -2.5239811375121e+01 2.0503061501303e-03
449 -1.1107065145861e+03 3.1364053231923e+04 -2.6970866164523e+01 3.1164876593207e-03
450 -1.6797234900250e+03 3.1656902940915e+04 1.4314570772360e+02 1.4245950173349e-03
451 -6.8563825383060e+02 3.1501284156498e+04 1.4753823373393e+02 2.4939050571023e-03
452 -2.5117648148239e+03 3.0788335577740e+04 -5.0970872603099e+01 3.3495449233714e-03
453 -2.4902247941683e+03 3.0110174484095e+04 -4.3037432357120e+01 1.7745480807393e-03
454 -2.6142158729785e+03 3.0332441101429e+04 -1.0701443934749e+02 1.7193003881744e-03
455 -2.0686432566068e+03 2.9932778826054e+04 1.6130928729841e+02 2.1659843619959e-03
456 -2.4716338667578e+03 2.9434658685063e+04 -5.1250176488527e+01 2.9040772440892e-03
457 -2.2515747994175e+03 2.8144187286481e+04 1.1845903185284e+02 2.9334734284507e-03
458 -2.2235509681410e+03 2.7858142763994e+04 -3.3247247120752e+01 3.4061375475963e-03
459 -2.2254565268042e+03 3.0797649817768e+04 1.0351612142631e+02 2.1072356100219e-03
460 -2.1664585047124e+03 3.1100809945752e+04 -1.6392898075823e+02 1.2086826748690e-03
461 -2.5317845092367e+03 2.9507305555902e+04 -1.2203497288617e+02 3.0043370117594e-03
462 -1.8464641617650e+03 2.9438512397948e+04 1.7223173210446e+02 2.5597323417553e-03
463 -2.2605902531860e+03 3.0117524956449e+04 -5.3686307055975e+01 1.4896641553988e-03
464 -1.9840550164019e+03 2.7756797985415e+04 1.3572491226400e+02 2.8299948016698e-03
465 -2.9038450433238e+03 2.8332121506492e+04 -5.4233954343315e+01 3.5569974066339e-03
466 -1.2088950642803e+03 3.1079389354210e+04 1.2904557878025e+02 3.3057178540945e-03
467 -1.2480185919381e+03 3.2657738367615e+04 1.2863143081318e+02 7.8097845211749e-04
468 -1.9944578212213e+03 3.1982556698548e+04 -4.9010827830206e+01 1.9012097505752e-03
469 -2.0260294656594e+03 3.1372007300592e+04 -1.8928371707590e+01 3.1766896711248e-03
470 -1.4470004793477e+03 3.2414232522620e+04 -3.1426101972843e+01 1.9030505203114e-03
471 -8.0963912483386e+02 3.2492317747666e+04 8.0927978381331e+01 7.8989424180487e-04
472 -4.2371657802957e+02 3.1107815715559e+04 -6.0512650919322e+01 3.5615971700831e-03
473 -8.1303784407181e+02 3.1501433436673e+04 -2.7711733887663e+01 3.5129446346870e-03
474 -2.0914475486411e+03 2.9280437331913e+04 1.1681195943771e+02 2.5736995315770e-03
475 -2.0408079489652e+03 2.8785626947728e+04 -8.3289762166111e+00 3.0431027036031e-03
476 -2.2062434028067e+03 2.8159475809878e+04 -6.5058695643091e+01 1.3343491883165e-03
477 -1.6486174173975e+03 3.2267136942878e+04 1.2883431223987e+02 1.8886313592072e-03
478 -1.0710478008478e+03 3.0105248047772e+04 -4.0534736497383e+01 1.2245215081730e-03
479 -1.5991256141701e+03 3.2077323315680e+04 -5.6016735806802e+01 5.3197737594250e-04
480 -9.4488910021409e+02 2.9979817845464e+04 -4.5407560263793e+01 2.1079758421579e-03
481 -2.0897159420170e+03 2.9034411373281e+04 1.3009908386913e+02 2.6132436249469e-03
482 -1.7372152023569e+03 2.9226999720525e+04 -3.7915265479560e+00 2.2510253779154e-03
483 -1.4901618650020e+03 2.9348090113973e+04 1.2391335206926e+02 1.9166358538922e-03
484 -2.0192397488653e+03 2.9216397958574e+04 -6.4897927285604e+01 2.8943978274888e-03
485 -2.4793333091079e+03 3.0146705262311e+04 -4.5745699579074e+01 3.0871637988887e-03
486 -2.7562182170183e+03 2.8454261799644e+04 -3.4712362298131e+01 2.0568494117609e-03
487 -1.6866515819332e+03 2.7427677771481e+04 -1.0202519599101e+02 2.3104497230881e-03
488 -1.3781587257219e+03 2.7430629728938e+04 1.4903235016667e+02 2.0515656861939e-03
489 -1.0404416559659e+03 3.1428008624246e+04 -7.2720616220618e+01 2.2516890012522e-03
490 -8.5112484515489e+02 3.3728344950869e+04 -4.7299238224445e+01 4.8975200779806e-04
491 -1.9574065964812e+03 3.2456491482714e+04 1.2450132173315e+02 1.0153466079947e-03
492 -1.4883057399044e+03 3.1869034235677e+04 -2.9022468941042e+01 2.7500986607729e-03
493 -9.3387896902712e+02 3.1288123658611e+04 -1.5004867452261e+02 2.5054458867752e-03
494 -1.0625510595311e+03 2.6712880654288e+04 1.7199391969902e+02 1.5933025809095e-03
495 3.5593639994747e+01 2.5090848983565e+04 -9.3039425507274e+01 4.9381443931156e-04
496 -1.0273119774416e+03 2.5448365865166e+04 -8.9077993409776e+01 1.4266805482847e-03
497 -8.0020493395560e+01 2.2341155477433e+04 1.4476904444580e+02 8.1186347914286e-04
498 -1.1491650009264e+03 2.5728707418421e+04 -8.4306179799268e+01 1.9213119049480e-03
499 -9.2169623945067e+02 2.3790282699825e+04 1.3884139949231e+02 1.8429228306296e-03
