0 -1.7646191591554e+03 2.6111073393746e+04 1.0367083717488e+02 2.0649811019470e-03
1 -1.8497416798047e+03 2.7019177650020e+04 9.0039604213135e+01 1.9947449666818e-03
2 -1.7150691296469e+03 2.7948046339372e+04 9.0453686205241e+01 1.2801252065243e-03
3 -1.7062442992056e+03 2.5676378357011e+04 8.3861557600983e+01 2.1193996321603e-03
4 -1.6873536598185e+03 2.6891873753514e+04 9.1364492932490e+01 1.7897846587278e-03
5 -1.7939682298944e+03 2.7296693066391e+04 -1.4884776835871e+02 1.5823343285496e-03
6 -2.0201654496077e+03 2.8444204512777e+04 9.4292995553225e+01 9.2641489920288e-04
7 -1.6133611757191e+03 2.6734069750924e+04 8.7438461787337e+01 1.1625616419546e-03
8 -1.7051538769601e+03 2.7083151486363e+04 9.0526623819292e+01 2.2214033522027e-03
9 -2.2749729120149e+03 2.6439080665006e+04 9.0186603136837e+01 1.8398079088658e-03
10 -2.2187027206078e+03 2.6427511809063e+04 8.9244554057209e+01 2.6225646990407e-03
11 -2.0548552984861e+03 2.6069964421881e+04 -8.8864093799712e+01 2.7129770329659e-03
12 -1.3479934224652e+03 3.3867750079303e+04 9.0737967917579e+01 3.5147493928008e-04
13 -9.4378875477250e+02 3.1177204273501e+04 -8.9557161512117e+01 1.2980147854327e-03
14 -1.3457237858828e+03 2.8554300181628e+04 -1.1833982145316e+02 1.1204133879466e-03
15 -1.6170487896406e+03 3.0755391589542e+04 1.1220655736817e+02 2.5552966699909e-03
16 -1.4787159750087e+03 3.1891178819405e+04 8.9297006136939e+01 2.5340531050302e-03
17 3.7944129804032e+02 2.7807710457528e+04 -8.8575733347713e+01 2.9169804330158e-04
18 -2.0251221879186e+03 2.5447908803374e+04 8.6481055720668e+01 3.0576440123651e-03
19 -1.7898334817984e+03 2.6500994087247e+04 9.1408100609683e+01 4.0462784629914e-03
20 -1.7283998303623e+03 2.7213638269538e+04 9.0622313803818e+01 1.3873137634771e-03
21 -1.5918707598391e+03 2.7829743938563e+04 9.3053002663714e+01 2.8720812934995e-03
22 -1.6624764380197e+03 2.7185983532254e+04 9.3184112053697e+01 2.1334629700323e-03
23 -1.7648834291787e+03 2.7150804457310e+04 8.9423308006640e+01 2.2917250462184e-03
24 -1.6821443548531e+03 2.9978138497297e+04 8.8093390957836e+01 3.9153473824890e-03
25 -1.4895160074760e+03 2.8945618922582e+04 9.1000156062191e+01 2.4252714953795e-03
26 -1.6187681757813e+03 2.8696735707552e+04 9.0045222930896e+01 1.7747906148233e-03
27 -1.2331421399873e+03 2.7839164135278e+04 -8.7390453565966e+01 1.1189769478380e-03
28 -1.3295927349736e+03 2.7829720206889e+04 9.1771566722476e+01 1.5142027569547e-03
29 -9.4168075069824e+02 2.3791367774091e+04 9.0277495112898e+01 8.6555722519541e-04
30 -1.4008718439468e+03 2.2242323731372e+04 -9.4487957053849e+01 2.4191881195243e-03
31 -1.1956436394584e+03 2.2343373480084e+04 -9.0878604203735e+01 2.0403233876107e-03
32 -1.4157293414265e+03 2.2560566638796e+04 9.1519840375690e+01 1.5422580664637e-03
33 -1.3228361558840e+03 2.2901264377678e+04 9.2263925061378e+01 4.9476304423173e-03
34 -9.2812698136279e+02 2.2528006414249e+04 6.9934098593211e+01 1.6790202005274e-03
35 -1.3551310783434e+03 2.3185703611689e+04 9.1120298833171e+01 2.8924385180186e-03
36 -1.6341173361729e+03 2.5885091898421e+04 9.0404698386092e+01 1.2584685504011e-03
37 -1.2515208035895e+03 2.6247784776698e+04 8.9543160555765e+01 1.6446898697286e-03
38 -1.6037928580538e+03 2.5202205081758e+04 9.9939860533597e+01 2.3224909246244e-03
39 -1.4048472920376e+03 2.5370516061917e+04 9.1823982632144e+01 3.7941307558822e-03
40 -1.2974919573964e+03 2.4444750437929e+04 8.4036885092412e+01 1.8967414470370e-03
41 -1.6639034499936e+03 2.6336187026911e+04 8.8384372285207e+01 2.0314556713701e-03
42 -1.8049505357807e+03 2.6529090649101e+04 9.4859717635015e+01 2.2380198934331e-03
43 -1.8407774930883e+03 2.4794454860301e+04 9.9581712241712e+01 1.2992856206328e-03
44 -1.5439790048882e+03 2.5446910738793e+04 8.9036175575441e+01 2.0754743767629e-03
45 -6.2935402658439e+02 2.2084814331363e+04 8.9996344469639e+01 3.7317171247920e-04
46 -8.8650476923864e+02 2.1660686878340e+04 1.1048920074871e+02 1.1570255050299e-03
47 -8.3951869406901e+02 2.2294766847356e+04 8.9242951952107e+01 1.4982259508881e-03
48 -7.8608256831272e+02 2.0954227757013e+04 8.7377506191593e+01 3.5230929995714e-03
49 -1.1312173967719e+03 2.5949958931160e+04 9.1765199735069e+01 3.8709711352517e-03
50 -1.3176417453330e+03 2.5601821572209e+04 9.0549856042130e+01 1.1724236314943e-03
51 -1.4625318191141e+03 2.4093731271631e+04 -6.7003670676671e+01 2.2801177919721e-03
52 -1.2219844352816e+03 2.4284334869032e+04 9.0722775219700e+01 1.6922060701917e-03
53 -9.1320148861340e+02 2.1873894278759e+04 -7.4901781804214e+01 1.7478270309149e-03
54 -2.1908677602359e+02 2.1708069386138e+04 9.5149104980377e+01 8.4368225874946e-04
55 -9.3589381611729e+01 3.2886386409532e+04 1.1583049898236e+02 7.7335621767694e-04
56 -1.2420573103429e+03 2.9617418993721e+04 9.0934322229873e+01 7.5179082241777e-04
57 -8.1164699253824e+02 2.6865116929536e+04 9.2863330485487e+01 1.9572960265212e-03
58 -4.2432013832389e+02 2.2999419711086e+04 -8.2116938114223e+01 9.2665837302445e-04
59 -1.6364960610351e+03 3.0031779400472e+04 9.0746932271907e+01 2.3350083164383e-03
60 -2.1388145465433e+03 3.4073983268929e+04 8.9263330669312e+01 8.5819909981745e-04
61 -2.3537966050514e+03 3.2378502855449e+04 1.2358904434674e+02 3.8566979043171e-04
62 -1.5689472131444e+03 3.1851791191421e+04 -9.3162459744805e+01 1.9505364734078e-03
63 -1.7968659393784e+03 3.3056566336199e+04 9.1543921145221e+01 3.0606576978315e-03
64 -1.8240484997976e+03 3.1497025917428e+04 1.0544417837126e+02 2.7880595319554e-03
65 -1.8681676531583e+03 3.4459894001877e+04 9.0748662728851e+01 8.8410646731133e-04
66 -1.5032230644802e+03 3.4348726576115e+04 8.9057742646515e+01 1.2321073668304e-03
67 -1.0536529952315e+03 2.8280661536932e+04 8.8740263923407e+01 1.0028339844052e-03
68 -1.1853974423036e+03 3.1466536516735e+04 9.0802160771119e+01 1.5496971201411e-03
69 -1.6488631207692e+03 3.2397203132377e+04 9.5891392212404e+01 1.4410157004253e-03
70 -1.5323531205514e+03 3.0482642334273e+04 9.2359659720577e+01 2.3204205646807e-03
71 -1.9560051229853e+03 3.1849426576300e+04 9.0473313308260e+01 2.7101793732111e-03
72 -1.9273427073562e+03 3.1842936071549e+04 8.7227471627448e+01 3.9113528570328e-03
73 -1.7791350219762e+03 3.1906227185911e+04 8.9138356930581e+01 1.7922351313612e-03
74 -1.6686054974127e+03 3.1542628950141e+04 9.0250692974017e+01 2.3102765913753e-03
75 -1.7754047658035e+03 3.3268793484903e+04 9.1400688429361e+01 2.6207086105523e-03
76 -1.8347054443623e+03 3.2843933556186e+04 -9.2458094060905e+01 9.8103723248296e-04
77 -1.8571380802196e+03 3.3093472512858e+04 9.0613234459532e+01 1.1487739095322e-03
78 -1.6795377474705e+03 3.2253958208566e+04 9.0853756586233e+01 1.6280357119577e-03
79 -1.8187474332665e+03 3.3436690779996e+04 8.9918101464279e+01 4.8713868747962e-04
80 -1.6040784805929e+03 3.1231616804271e+04 9.3424756090727e+01 2.5380752371833e-03
81 -1.7423617163272e+03 3.0028239852067e+04 8.5804000957810e+01 1.8353850176148e-03
82 -1.7947373164742e+03 3.3614193359104e+04 8.9807225322320e+01 5.1540314473882e-04
83 -1.8479202330491e+03 3.2933495659047e+04 9.0898423015699e+01 1.4814918344060e-03
84 -1.5471600706919e+03 3.3718835393718e+04 8.8311814460534e+01 3.0049572974124e-03
85 -1.3412438273087e+03 3.3387395821294e+04 8.9847129373298e+01 5.2487769992990e-04
86 -1.3331644853581e+03 3.3829268292085e+04 9.1718752856498e+01 3.6144607239296e-04
87 -7.9795227105739e+02 2.5143392685981e+04 8.4153321634131e+01 9.6512407001372e-04
88 -1.5728993394023e+03 2.6922769266321e+04 9.0326164100309e+01 2.0392603330683e-03
89 -1.3449002273579e+03 2.6983847916031e+04 9.5195990954418e+01 1.6738957246521e-03
90 -2.8662836614126e+02 3.3010872673120e+04 8.8299024065762e+01 3.3347032998298e-03
91 -1.9891064744572e+03 3.0705600779261e+04 -7.3240633376440e+01 2.5797560171144e-03
92 -1.8748267770406e+03 3.2311036052870e+04 8.9047652393426e+01 2.1840906191934e-03
93 -1.4990604254910e+03 3.2353902318077e+04 9.0779636754228e+01 2.2528526248371e-03
94 -1.8034256976283e+03 3.1846633809051e+04 8.4841623246770e+01 6.2784891758115e-04
95 -1.5739131129591e+03 3.1481626365006e+04 9.1577037806191e+01 4.6838233397600e-03
96 -1.1964819537053e+03 2.7740829026738e+04 9.1812392707934e+01 1.2157687919993e-03
97 -9.3284810838955e+02 2.4368303484068e+04 8.9129963399512e+01 1.3373950156777e-03
98 -1.5916034320815e+03 3.1860801965469e+04 9.0745519512136e+01 2.3561142119982e-03
99 -1.4599537311243e+03 3.1152665136341e+04 8.8326127571910e+01 2.3889925969123e-03
100 -1.6119612547512e+03 3.2899911587822e+04 8.8716683408782e+01 2.1935856764037e-03
101 -1.4449556456862e+03 3.1732157577589e+04 8.8106843550881e+01 1.8825589561986e-03
102 -1.2762994026649e+03 2.6811228860029e+04 8.8892081866769e+01 2.3270575667199e-03
103 -1.4260063322649e+03 3.0863615804667e+04 9.1010216003076e+01 2.9220254106630e-03
104 -1.3593091740161e+03 3.0157635230286e+04 9.2693455736227e+01 1.9702087955488e-03
105 -1.3687682775476e+03 3.2438613082515e+04 8.9320586013850e+01 1.4547664839710e-03
106 -1.5112481844142e+03 2.8288780234549e+04 9.7339794279316e+01 1.0185438449756e-03
107 -1.5005406110120e+03 3.2385406831699e+04 8.9656670111026e+01 1.6320178158181e-03
108 -1.5500417649699e+03 3.1879339145331e+04 9.3098233663212e+01 2.4216752742372e-03
109 -2.2125980030161e+03 3.0308580954643e+04 1.3529105199453e+02 2.4974266566115e-03
110 -2.1306785811670e+03 2.8612591083235e+04 9.1113248103463e+01 2.3718229390156e-03
111 -2.0933032751262e+03 2.7521668492560e+04 9.0077987061987e+01 2.7375987623114e-03
112 -2.3276448907563e+03 2.6280309251652e+04 -8.8001743907964e+01 2.6192541772769e-03
113 -1.2944969918125e+03 2.9426154214551e+04 8.9478415229507e+01 1.1642067022202e-03
114 -1.3876237298272e+03 2.7864567278936e+04 -8.3243578110683e+01 1.3713667902984e-03
115 -1.3578909442880e+03 3.3168073529825e+04 8.9410926556862e+01 6.9393967213425e-04
116 -1.8104613783482e+03 3.0866520638010e+04 9.3227457103365e+01 1.2973254395766e-03
117 -1.1217597468022e+03 2.8313561506208e+04 9.1475499420569e+01 3.1869423002537e-03
118 -1.2078885365526e+03 2.7436920670371e+04 8.8819296961388e+01 2.3584568065100e-03
119 -2.3502686527535e+03 2.8375603959019e+04 9.1210661215665e+01 4.2915943694828e-03
120 -2.1141061032424e+03 2.7927313472982e+04 9.2067072304890e+01 2.5343579551160e-03
121 -1.9449242581784e+03 2.7604530348934e+04 9.2883572777950e+01 3.3160310753980e-03
122 -1.9940355239807e+03 2.6930085186335e+04 8.8971662219824e+01 3.7466648823309e-03
123 -1.9823521632127e+03 2.9523038525118e+04 9.1178714981118e+01 3.5095853030161e-03
124 -2.0361385125590e+03 2.7713704079845e+04 9.1038764781155e+01 2.4690133713713e-03
125 -2.1344340203709e+03 2.8713746476463e+04 8.6322054773337e+01 2.2317635471474e-03
126 -1.9923954671327e+03 2.9749425112980e+04 8.7552111504018e+01 4.4175597480152e-03
127 -2.0669040219783e+03 2.9562825302214e+04 9.0149898205490e+01 2.4540352368980e-03
128 -2.2410956063389e+03 2.7141067044954e+04 9.6102772592081e+01 2.7607846959356e-03
129 -1.9047486513305e+03 3.0013728426819e+04 9.0487969217408e+01 2.1649673046238e-03
130 -1.7734387618067e+03 2.9268408285955e+04 8.9566008927580e+01 1.8780583021110e-03
131 -1.8072465673173e+03 2.9614790677656e+04 8.8110505057836e+01 4.6454486088515e-04
132 -4.6848138684024e+02 3.1719519409815e+04 8.9100616940465e+01 2.4996031255010e-03
133 -2.1532246545520e+03 2.4997230002028e+04 8.8160270275548e+01 1.1019962171429e-03
134 -2.2485653161931e+03 2.7030001239049e+04 8.9078620730943e+01 1.2529859573216e-03
135 -2.3263026350415e+03 2.5847567257165e+04 9.4478935318654e+01 1.3350166072116e-03
136 -2.4869213381882e+03 2.8643751273235e+04 8.8785183253228e+01 4.2239149872080e-03
137 -2.4445367136930e+03 2.9194262692299e+04 9.2285260498671e+01 4.7624230211882e-03
138 -2.1290498614553e+03 2.7470486150428e+04 8.7586041292767e+01 4.1025894329199e-03
139 -2.2452476830390e+03 2.6566167483622e+04 -7.7041933038399e+01 2.3865536465619e-03
140 -2.1467964996537e+03 2.6560094515549e+04 9.0641078150412e+01 2.7824035774565e-03
141 -2.1702626339357e+03 2.6403517849920e+04 9.0324671143174e+01 2.6556247973387e-03
142 -2.1402319434793e+03 2.8132626273976e+04 9.1295302230008e+01 1.6401809610259e-03
143 -2.1094322419496e+03 2.6338674978240e+04 8.8262642643301e+01 2.0745129232947e-03
144 -2.2737114760562e+03 2.6716970296594e+04 9.1994111326601e+01 2.6744207032560e-03
145 -1.8895884088227e+03 2.8027875031874e+04 9.8101856276480e+01 2.3528929337820e-03
146 -1.7697729237561e+03 3.5061577646532e+04 -8.8883152605474e+01 2.6384480948863e-04
147 -1.3029603664555e+03 3.3388904654520e+04 9.0455320638528e+01 7.8525354896164e-04
148 -1.4083431346470e+03 3.0865963131350e+04 8.9057171987119e+01 3.6513656291714e-03
149 -8.2969763548564e+02 2.9143944167952e+04 9.3855845612391e+01 5.8061066055317e-04
150 -1.4844612758930e+03 3.0480450926817e+04 -9.1777959849495e+01 1.6850920363537e-03
151 -1.5861633117889e+03 2.9268050328666e+04 8.9804364433327e+01 1.4714155564617e-03
152 -2.2762268707865e+03 3.0551098157364e+04 8.8272932611036e+01 5.3421177282436e-03
153 -2.0113598783483e+03 2.9914095365559e+04 -8.6617514741768e+01 1.8921536917029e-03
154 -1.8442980306305e+03 3.2431899130416e+04 9.2643888364049e+01 1.0733327620432e-03
155 -1.6313135632057e+03 3.1308336589909e+04 9.1304063717996e+01 4.4095978513889e-03
156 -1.6774767235612e+03 3.0451930860953e+04 9.4355534327668e+01 2.4837851334763e-03
157 -1.7181535317745e+03 3.1641116332407e+04 9.1133133699857e+01 3.5282477338012e-03
158 -1.6923556172597e+03 3.2726927036990e+04 9.6219209396107e+01 1.1342232668399e-03
159 -1.3840019867889e+03 3.2336845887861e+04 9.1628072221654e+01 4.1963464139395e-03
160 -1.7319180702678e+03 2.9501695232206e+04 9.1119873854346e+01 1.2625176240062e-03
161 -1.9972061848813e+03 2.9566877521944e+04 9.0566884961175e+01 2.3366169424036e-03
162 -1.7938225025447e+03 2.9478446687792e+04 8.7081232996797e+01 3.1256945690934e-03
163 -1.6358033082591e+03 2.9117520252787e+04 -1.5760673540920e+02 1.7849686056726e-03
164 -2.1391590710786e+03 3.1979737912423e+04 9.3505388675080e+01 1.6128388729713e-03
165 -2.1954498087578e+03 3.2327941927862e+04 9.2929117983004e+01 2.3238778031490e-03
166 -1.8968952620225e+03 3.1855116772381e+04 8.8031446055993e+01 5.1375491750190e-03
167 -1.9610434309908e+03 3.1397987325496e+04 9.1047507763396e+01 3.4797051297436e-03
168 -1.8541467768245e+03 3.1868998138887e+04 8.9042347870465e+01 3.3206189831266e-03
169 -1.9444210061080e+03 3.1061395487232e+04 8.9261841531499e+01 2.8072543806778e-03
170 -1.6959845277309e+03 3.3124102491932e+04 8.9866115409058e+01 7.3770101775083e-04
171 -1.5603073542956e+03 3.3668116077815e+04 8.7485700900163e+01 4.0007821364106e-04
172 -1.8314517982364e+03 3.4241168767751e+04 9.1495435865054e+01 2.9141733343373e-04
173 -2.1859640113756e+03 3.3955010836290e+04 9.0960628014155e+01 1.2783928983202e-03
174 -2.1764534645343e+03 3.0364035811447e+04 -8.8498510262301e+01 2.4154227355722e-03
175 -2.0292354647162e+03 3.3436648289427e+04 9.1095014903250e+01 1.5930520529105e-03
176 -2.0625005644802e+03 3.0684351641676e+04 9.4080597416867e+01 2.4896669147562e-03
177 -2.0728210146800e+03 3.1591914168456e+04 9.0002685549297e+01 2.7518976660960e-03
178 -1.3811882647749e+03 3.4990857805902e+04 -8.6677844142150e+01 2.6478047170685e-04
179 -1.4484297666241e+03 3.3148363818481e+04 9.0399760812851e+01 8.2081923091113e-04
180 -2.3907783057195e+03 3.2739849878179e+04 9.0706500654205e+01 8.4590759661125e-04
181 -2.2425511091047e+03 3.2922219421487e+04 8.8040510171891e+01 7.5398976830165e-04
182 -1.7220884189944e+03 3.2740349217290e+04 8.8190607056816e+01 3.3661688800683e-03
183 -2.1166210305408e+03 3.0744860713013e+04 9.0925629396699e+01 3.5110319612420e-03
184 -2.3347152540533e+03 3.0083139194378e+04 8.8945593301698e+01 3.4763728825839e-03
185 -2.1281509631463e+03 2.8020467036392e+04 9.3031931832106e+01 3.6394550885787e-03
186 -2.1677697152118e+03 2.8523755023312e+04 -9.2883875654187e+01 2.5325016259241e-03
187 -2.2396075687134e+03 2.9240695461774e+04 8.9137461750920e+01 2.5757984757036e-03
188 -2.3038987821564e+03 2.8919831941708e+04 -8.2365924136656e+01 2.7276533666334e-03
189 -2.3940216736347e+03 3.0102794895542e+04 8.0754864636492e+01 2.3461462906577e-03
190 -2.3646651106815e+03 3.1114027112792e+04 9.2985369761050e+01 2.9010020453039e-03
191 -1.4170961103882e+03 3.2652333846003e+04 9.6687982052682e+01 7.8897047351322e-04
192 -1.5708008306143e+03 3.1499552906662e+04 9.1148274336213e+01 2.7396822928263e-03
193 -1.8308992435639e+03 3.0881306855100e+04 9.2332913764425e+01 5.4509986937835e-03
194 -1.5200494208024e+03 3.1341698080888e+04 -9.0597787002599e+01 2.5359553245642e-03
195 -1.7915597500781e+03 3.1398612735785e+04 -8.3137242068904e+01 2.3968331466514e-03
196 -1.9522468892373e+03 3.4846055323409e+04 9.0201502234757e+01 2.8966533702364e-04
197 -1.7605318299098e+03 3.0921062487119e+04 9.0244779652124e+01 1.8831653234264e-03
198 -1.9707051430577e+03 3.4450715986782e+04 9.2270815383846e+01 2.7803734079076e-04
199 -1.9970056832727e+03 3.4694239225015e+04 -9.3739142945778e+01 2.6996600240917e-04
200 -1.5891028487603e+03 3.2180638879237e+04 8.5248644976210e+01 1.0571145478323e-03
201 -1.6584615666554e+03 3.2162144057155e+04 8.9521770022771e+01 1.8350146375413e-03
202 -1.5740213863728e+03 3.2182624850981e+04 -5.6805874134384e+01 1.8455955063751e-03
203 -1.7400035754991e+03 2.7452604337244e+04 9.0107943970101e+01 2.3055416318978e-03
204 -1.6376690809205e+03 2.7904075586865e+04 9.0447315503249e+01 1.9781777626097e-03
205 -1.9316691527725e+03 2.8313655537740e+04 8.9691922945755e+01 1.9029407729751e-03
206 -1.8528518863896e+03 2.9768850796012e+04 8.9042948851533e+01 2.7682014344706e-03
207 -1.5492783267297e+03 2.8514086786739e+04 8.3528811755822e+01 1.5974009590688e-03
208 -1.6094147054957e+03 2.7978883910495e+04 -8.6833715914220e+01 1.9318543957254e-03
209 -2.0233725671763e+03 3.2323116450146e+04 9.6548579985655e+01 1.1912420717622e-03
210 -7.0949616294100e+02 3.3138942484859e+04 8.2097746654109e+01 6.2523554405068e-04
211 -9.7014279605056e+02 3.4202838257811e+04 9.1759197051638e+01 3.0372219318593e-03
212 -5.3784095514693e+02 3.3592314603445e+04 8.8616379944669e+01 2.4374516984314e-03
213 -1.1626776201839e+03 3.0259720695162e+04 7.4833908571072e+01 2.1397562917333e-03
214 -1.5847809909023e+03 3.4202651350253e+04 8.9315847758852e+01 7.9899202595979e-04
215 -1.6843522326392e+03 3.4176474862618e+04 8.9274805404612e+01 2.9016627174012e-04
216 -1.5550849725949e+03 3.2797370987534e+04 8.4985956187203e+01 1.0400276444899e-03
217 -1.5164432034474e+03 3.3200802646795e+04 9.4654586986034e+01 5.2168398230655e-04
218 -1.6408818754238e+03 3.3905987509640e+04 9.1652289623765e+01 2.8176188246328e-04
219 -1.5025665077553e+03 3.4630524630405e+04 8.5871734493298e+01 2.7164535754312e-04
220 -1.5045352766678e+03 3.1306046330087e+04 9.1737831113059e+01 2.8963012838561e-03
221 -1.3644687230279e+03 3.0531981219940e+04 9.1455289870940e+01 4.6863967147005e-03
222 -1.2887755604861e+03 3.2693719460411e+04 8.8666913347265e+01 2.9532914184116e-03
223 -1.3631061280442e+03 3.4105460063168e+04 8.7537215493569e+01 2.9995535791171e-04
224 -1.3574413430206e+03 3.3103021233594e+04 9.0103694551835e+01 5.2375883132100e-04
225 -1.4100694174667e+03 3.3842521724143e+04 9.0177416138922e+01 4.6149983925538e-04
226 -1.4437153224416e+03 3.2454956097209e+04 9.0166902853775e+01 1.5681854238634e-03
227 -1.3386614759161e+03 3.0035993626871e+04 8.8805146228297e+01 1.8288630529451e-03
228 -2.0995759366356e+03 3.2896644442568e+04 8.7363170493300e+01 2.8102941609191e-03
229 -1.9261119537289e+03 3.2324797795640e+04 8.1693423967269e+01 1.5209822446205e-03
230 -2.0240894271098e+03 3.3570689294339e+04 9.1363842659029e+01 4.2873648439169e-04
231 -1.2472245613489e+03 3.3871446423674e+04 9.2174814853687e+01 3.1082248317237e-03
232 -1.3171851378074e+03 3.1124794240894e+04 9.6285802397471e+01 2.8925453331938e-03
233 -1.3944866667801e+03 3.1300047935504e+04 -9.0665235958510e+01 2.0334143438142e-03
234 -1.3678004290799e+03 2.7604373733369e+04 -9.0951950991948e+01 6.3629199839721e-04
235 -1.8274651746150e+03 2.7906225903907e+04 1.0897074135601e+02 2.2788845420577e-03
236 -9.5993829388200e+02 3.4223846535769e+04 9.0361931009152e+01 3.0993592592105e-04
237 -1.0308513607817e+03 3.4504202880867e+04 8.7631653486746e+01 2.7829807763251e-04
238 -1.4313935950996e+03 3.2366008080030e+04 -1.0113937927004e+02 1.0494567263909e-03
239 -1.3394432298708e+03 3.2654114621521e+04 9.1285853479784e+01 2.9696276534045e-03
240 -1.3618444803666e+03 3.1018112826973e+04 9.5090681167379e+01 2.6206005054838e-03
241 -1.3424408026946e+03 3.3448890418756e+04 9.1780072681965e+01 3.2326620996446e-03
242 -1.3289275060310e+03 3.3971741885621e+04 8.9244130087548e+01 9.4712974895151e-04
243 -1.1763996375841e+03 3.3406299039534e+04 8.8827435857808e+01 5.2956743449138e-04
244 -1.9830524449821e+03 3.0945884183280e+04 9.2194569922952e+01 2.7420986263371e-03
245 -1.6072413149682e+03 3.0609899127201e+04 9.5329237654732e+01 2.1695773008748e-03
246 -1.5100320634942e+03 3.1827063336525e+04 9.2218123973227e+01 1.0384697731584e-03
247 -1.4464265755904e+03 3.2039584148223e+04 8.6534162142462e+01 2.1726739944737e-03
248 -1.3506150122406e+03 3.4361039812594e+04 9.1618563587247e+01 2.7873494190900e-04
249 -1.3917710149933e+03 3.2160553277333e+04 -8.4317710189177e+01 1.9942568188190e-03
250 -1.7667989895656e+03 3.4502614280296e+04 9.1214816240110e+01 2.6834118641081e-04
251 -2.1363592239529e+03 3.1411966967400e+04 -8.2566202840743e+01 2.8052320065075e-03
252 -2.4485359767468e+03 3.2274561450082e+04 1.1285971229698e+02 1.4993215722162e-03
253 -1.4203570685560e+03 3.2060000205762e+04 9.3090418591197e+01 2.5992269915612e-03
254 -1.0598845392370e+03 3.2290460588342e+04 9.0675946186455e+01 1.7231513219975e-03
255 -1.7168002784180e+03 3.1255778205289e+04 -9.0237374988109e+01 2.7122367019513e-03
256 -1.7066044877505e+03 3.2673778679433e+04 9.1115482468509e+01 1.1742806874344e-03
257 -1.5603721393089e+03 3.2308974085810e+04 8.9193489421787e+01 1.7514242071348e-03
258 -1.5361981013036e+03 3.2688778214223e+04 9.1563222139936e+01 4.4741370290427e-04
259 -1.4643292283367e+03 3.0908793226273e+04 9.1790003057091e+01 5.5660297420799e-03
260 -1.9344780189761e+03 3.2282237690136e+04 9.0555397475501e+01 1.3920929778746e-03
261 -1.9162622490012e+03 3.1389869953048e+04 8.8786922603275e+01 2.5611272446264e-03
262 -2.0105189949718e+03 3.1790833743619e+04 9.1054446680897e+01 2.0952155176170e-03
263 -1.8531695168154e+03 3.1669542740780e+04 9.3736035178572e+01 2.7331112199645e-03
264 -1.7988420027752e+03 2.9941124289258e+04 8.8380208225283e+01 4.2147908223249e-03
265 -2.5737381913013e+03 3.2004496120180e+04 9.5406884297824e+01 2.0538984846576e-03
266 -2.5919879397016e+03 3.2846626165035e+04 8.9644123196420e+01 8.9692852482335e-04
267 -2.6476965120610e+03 3.1964870657480e+04 -6.0853344302545e+01 2.1962598150251e-03
268 -2.3980902949888e+03 3.2780976299940e+04 9.1926218020003e+01 5.8567560549963e-04
269 -2.4381864981568e+03 2.9438111990317e+04 9.1140624592793e+01 4.1586794951024e-03
270 -2.3399813873210e+03 2.8691900515212e+04 -8.9578200944029e+01 2.7828252082145e-03
271 -2.3039878265112e+03 2.8455455109045e+04 9.1191212298939e+01 3.7033315506112e-03
272 -2.5984058422178e+03 2.9561950128785e+04 8.5391634374644e+01 2.7289418508676e-03
273 -1.5623728066169e+03 2.6578505407184e+04 9.0732796854483e+01 2.5771520728808e-03
274 -1.3815045309869e+03 2.9977507924653e+04 -9.0257783599355e+01 1.2815594389611e-03
275 -1.1111403395269e+03 3.2027647890469e+04 8.9913181374465e+01 5.6345401449015e-04
276 -2.1240175434074e+03 3.1696805873711e+04 9.3957070657097e+01 2.1290754683067e-03
277 -1.9580730081781e+03 3.2026549264187e+04 8.9455682107498e+01 2.0945401539054e-03
278 -2.2231098507334e+03 3.2920113221897e+04 9.0627029830876e+01 7.7043680137563e-04
279 -1.8867153897170e+03 3.0295245627302e+04 8.7036109472221e+01 2.1506455427620e-03
280 -1.2894434522330e+03 3.1789063541165e+04 9.0690947542383e+01 2.0224316217403e-03
281 -1.0819446936880e+03 3.0489708442518e+04 9.0928849882032e+01 2.9552980324210e-03
282 -1.7760486966025e+03 2.8188311336956e+04 8.1595301377328e+01 6.1922538820652e-04
283 -1.1455981704049e+03 2.8808648563624e+04 -9.1582466111505e+01 9.7083826840845e-04
284 -1.1873269358639e+03 3.1058767176981e+04 8.9955542072210e+01 2.5647246102212e-03
285 -1.3868318069602e+03 2.4515321389221e+04 1.1077186545556e+02 2.1074428642186e-03
286 -1.4803716532447e+03 2.5543859011008e+04 9.1476949267488e+01 5.1960928284722e-04
287 -1.2260029962573e+03 2.5763185729800e+04 9.2274289385351e+01 4.1406133145334e-03
288 -1.2579487060457e+03 2.4868966464648e+04 -8.5993261252618e+01 9.4273369575852e-04
289 -1.5416250499335e+03 3.1200664814671e+04 -8.1587845472809e+01 2.1716051526385e-03
290 -1.4833283702152e+03 3.3173243191641e+04 8.9487774450867e+01 9.1671435031065e-04
291 -2.3225153493844e+03 3.1569968641113e+04 8.9858734398058e+01 7.3029576408574e-04
292 -5.6603802516180e+02 2.3287837403738e+04 9.1752461085113e+01 1.0444487897599e-03
293 -8.9642259281749e+02 2.5826999959563e+04 9.4428593086243e+01 7.6208475792630e-04
294 -4.8773306432208e+02 2.9975881267116e+04 7.2419659863350e+01 1.0455389582716e-03
295 -1.9113670176025e+03 2.8236430522493e+04 9.0494223390484e+01 1.1698840168490e-03
296 -1.6649476135971e+03 2.8860428136841e+04 9.3165446298441e+01 9.1114703480732e-04
297 -1.5485253754943e+03 3.0878043747010e+04 1.4922561378912e+02 1.4692282314391e-03
298 -1.1335283685841e+03 2.6167021920786e+04 9.1602007566275e+01 4.9068642460196e-04
299 -1.1324951516303e+03 2.5920566718800e+04 8.9820974802813e+01 8.3713613098529e-04
300 -9.9291662547143e+02 3.3212023887935e+04 9.1004319726094e+01 4.6140448582273e-04
301 -9.7476645888463e+02 3.2712069839400e+04 -1.5376362887295e+02 8.8187631082232e-04
302 -1.0255140799767e+03 3.1186335776755e+04 9.4101016397879e+01 2.7791973390041e-03
303 -1.2371175516447e+03 3.1562010893544e+04 8.6575336660893e+01 2.6358445622431e-03
304 -1.2778300690018e+03 3.2952074396823e+04 8.9723465788966e+01 9.3729468214693e-04
305 -6.1387040512000e+02 2.0846213326760e+04 1.0865478085879e+02 1.1897666669430e-03
306 -1.6172804949439e+03 3.1380612132995e+04 8.9357824295835e+01 3.3061703918032e-03
307 -1.4642070146984e+03 3.1659597378657e+04 9.1077465401479e+01 3.9207909797699e-03
308 -1.2880611311789e+03 3.2083653854056e+04 8.6574067501524e+01 1.0741626495104e-03
309 -1.9354188471170e+03 2.9846566118162e+04 8.9687789232017e+01 1.8704329483662e-03
310 -1.8201514739714e+03 2.5557072868093e+04 9.0362702021125e+01 2.4796748916665e-03
311 -1.3821128713809e+03 2.5902341081436e+04 -9.0188375130000e+00 1.8738220734812e-03
312 -1.2352709660653e+03 2.6331191343051e+04 8.7391746136905e+01 2.8487204489964e-03
313 -1.2464551065059e+03 2.5806966508149e+04 8.4031115111439e+01 1.1557624655873e-03
314 -9.3807732012640e+02 3.1176259017628e+04 9.0111995801517e+01 1.4814032647117e-03
315 -9.5703315968706e+02 3.1104822813327e+04 8.9745982119625e+01 2.2240285147033e-03
316 -1.1877074546806e+03 2.3662456807779e+04 9.4870037125860e+01 1.5661260507173e-03
317 -7.1750853582987e+02 2.2920080258348e+04 -8.5784781182821e+01 1.2294377887223e-03
318 -1.2990617313458e+03 3.7694390233371e+04 9.0085798227176e+01 3.0114992347756e-04
319 -1.5110009179065e+03 3.3876050864899e+04 -8.4334940924579e+01 3.4515715375252e-04
320 -2.5288618830374e+03 3.8050216179492e+04 9.0494748966705e+01 2.6947706063047e-04
321 -2.4400049727217e+03 3.9244051309117e+04 8.9364304837198e+01 2.6651765329326e-04
322 -1.1529351077904e+03 3.1673681331804e+04 1.0791654606725e+02 1.4354059319453e-03
323 -7.4606357300066e+02 3.1454548900135e+04 9.0541687896128e+01 2.9841918274180e-03
324 -1.6359270827602e+03 3.2323891804779e+04 9.4236165744493e+01 1.1976938080378e-03
325 -1.7109170184137e+03 3.4661614481868e+04 9.1959387873204e+01 3.1675211034481e-03
326 -1.6084718034802e+03 3.2430855547833e+04 8.9384029649149e+01 1.9218949522425e-03
327 -1.7131299065881e+03 3.3714634053991e+04 8.8421174992697e+01 3.7774152731865e-04
328 -1.1367978992155e+03 2.8667723958561e+04 9.3149567829194e+01 1.0962230782223e-03
329 -1.4002000616996e+03 2.7506991860750e+04 9.1644053041482e+01 4.1645022217754e-03
330 -1.4151178421921e+03 2.6903763497185e+04 -7.5150954445681e+01 1.7859803235812e-03
331 -1.5238354623652e+03 2.5935645271081e+04 9.0012185742395e+01 1.7123319109130e-03
332 -1.2150433233502e+03 2.5053338551156e+04 -1.1293386186734e+02 1.7182923244763e-03
333 -1.3613300659045e+03 2.6788699105264e+04 8.7920650030656e+01 1.7293458173271e-03
334 -1.8178169040789e+03 2.8711444373679e+04 8.9840801535946e+01 2.0707998152398e-03
335 -2.1342704873667e+03 3.2919938620546e+04 8.8922489389146e+01 7.2222994194093e-04
336 -1.8235166417237e+03 3.0236474125984e+04 9.2370937153240e+01 1.6444336974168e-03
337 -1.8628640341731e+03 2.7094514572115e+04 8.9181076983820e+01 1.7478771833565e-03
338 -1.6166763261551e+03 2.7015468491179e+04 9.0789817699366e+01 2.0983993775129e-03
339 -1.8202414083278e+03 2.6223468395821e+04 8.1851326968457e+01 2.4947325300555e-03
340 -1.2283609077940e+03 2.6491441302685e+04 -1.4260489058887e+02 6.0789054339459e-04
341 -1.7709844091403e+03 2.6339653683184e+04 8.8152181212951e+01 2.4158795193959e-03
342 -1.4665708930863e+03 2.6870775772903e+04 8.8647471586819e+01 3.4054223192664e-03
343 -1.6411801200616e+03 2.4322632909346e+04 8.9770533804616e+01 2.4580600397671e-03
344 -1.5593775630294e+03 2.4870615381444e+04 8.6076584418044e+01 2.3812162750459e-03
345 -1.8074176766576e+03 2.4425436660165e+04 9.0683909873569e+01 3.1903953208088e-03
346 -1.8423003629092e+03 2.7425358383400e+04 9.1543546808124e+01 1.8991727214575e-03
347 -1.3978783633155e+03 2.3050044807481e+04 8.9662751846862e+01 1.7597733834663e-03
348 -1.2411556817706e+03 2.6392444318552e+04 9.1109031365601e+01 1.3972932107176e-03
349 -1.1875516512795e+03 2.3249258807922e+04 -8.5460974700573e+01 1.7918496054231e-03
350 -9.4316150231376e+02 2.6600219177726e+04 9.0686869754942e+01 1.0062632697511e-03
351 -1.7500704531880e+03 2.9683332219244e+04 -8.6216924807773e+01 4.6105770578397e-04
352 -2.1283279247902e+03 2.2635231593952e+04 9.8082811811484e+01 2.7217588393308e-03
353 -1.9431856882681e+03 2.3332142841895e+04 8.2318991023947e+01 9.6064726789326e-04
354 -2.1333932666163e+03 2.3092619675866e+04 9.6401382496937e+01 2.0391074195120e-03
355 -2.2497265737213e+03 2.2325947685448e+04 -9.5022544770629e+01 2.8996719795406e-03
356 -2.1590794540666e+03 2.2916081920621e+04 9.2542057972931e+01 1.6966252600365e-03
357 -2.3320927243992e+03 2.1766789420193e+04 -9.3691384854335e+01 2.5767995280110e-03
358 -1.7846566616049e+03 2.7087806000779e+04 9.3992722124553e+01 1.6035659039753e-03
359 -1.4267599495748e+03 2.7257318794690e+04 8.8965720243130e+01 1.5860404561306e-03
360 -1.2851098282060e+03 2.6194030023083e+04 8.9158518128059e+01 1.6538616227726e-03
361 -1.4052204727522e+03 2.6851010177707e+04 8.8772389658414e+01 6.5003903581860e-04
362 -1.0768903915538e+03 2.4445336950950e+04 -9.5602350060892e+01 9.7193807753791e-04
363 -1.3021982632455e+03 2.5262561688936e+04 9.0801159424141e+01 1.9099985269132e-03
364 -2.1141230072662e+03 2.4932020313232e+04 8.7467403960543e+01 4.8800550174878e-03
365 -2.4885436490777e+03 2.7941408099922e+04 9.3550937182449e+01 3.1529879993485e-03
366 -2.1850575343645e+03 2.7361627170262e+04 9.0907898868647e+01 1.6434290014685e-03
367 -2.4060619906383e+03 2.7079728611007e+04 9.2876477215003e+01 4.2296874978569e-03
368 -2.4004809448847e+03 2.5404148001489e+04 -1.5773774749065e+02 2.6930730560941e-03
369 -2.3445802452176e+03 2.7197708642459e+04 8.9871000730256e+01 2.8933321844023e-03
370 -2.2473036710422e+03 2.4706382037652e+04 -1.2107977313308e+02 2.2585771811660e-03
371 -1.2725830277410e+03 2.3098349115533e+04 8.7833757669057e+01 2.0177967197539e-03
372 -1.2292668622408e+03 2.3378094283727e+04 9.3223957898609e+01 1.9885880934821e-03
373 -1.1343641910502e+03 2.2231377353179e+04 9.3562164638380e+01 1.4492516091200e-03
374 -2.3868475039291e+03 2.9839479688008e+04 -9.5413815323023e+01 2.6456836783525e-03
375 -2.1983778572241e+03 3.0287421508310e+04 9.0089502587171e+01 1.7169579359064e-03
376 -1.8928980071843e+03 3.0920755335929e+04 9.1735784989440e+01 2.0504498223040e-03
377 -1.9795674495386e+03 2.8422560196019e+04 -9.0551634103276e+01 1.9669661469228e-03
378 -1.9398449679272e+03 2.9483493715259e+04 9.2115377326351e+01 4.2206200616344e-04
379 -2.1050819562340e+03 2.8792164526352e+04 -1.0224592907588e+02 1.5187451060451e-03
380 -1.5867625295652e+03 2.7457935250995e+04 8.9350610023857e+01 2.4500711087943e-03
381 -1.7247244089085e+03 3.0546222839129e+04 9.4940702154477e+01 5.6694436442962e-04
382 -1.4651208949936e+03 2.7414630743656e+04 8.3572297854786e+01 1.7163163896498e-03
383 -1.6919503840343e+03 2.7212587832686e+04 8.8893256450928e+01 1.8911526913650e-03
384 -1.8635647218090e+03 2.7449779206685e+04 -8.6737501614352e+01 2.1353937393729e-03
385 -1.5309050161100e+03 2.2166587090724e+04 -9.7280085809765e+01 1.3448797707182e-03
386 -2.0956364951554e+03 2.6764527006010e+04 9.0083095760109e+01 1.7415684885416e-03
387 -1.9200835368554e+03 2.6587033903070e+04 -1.0443831305073e+02 2.5802196139502e-03
388 -1.8593997938491e+03 2.7459223197225e+04 -9.0164075969108e+01 7.0813100189356e-04
389 -2.1388178986061e+03 2.7710115568586e+04 9.3545240520972e+01 2.7420737607544e-03
390 -1.9387112900488e+03 2.9948964376600e+04 9.4965569909520e+01 2.0260742320110e-03
391 -1.8574114743269e+03 3.0100860274153e+04 8.9442272553018e+01 2.0083446742377e-03
392 -1.9454877861674e+03 2.9504157693426e+04 8.8700756040103e+01 3.0562559166861e-03
393 -1.8309809365283e+03 2.8408429851688e+04 -8.8458143951586e+01 2.2251117005015e-03
394 -2.0864153174916e+03 2.8665107019820e+04 -1.0537205206190e+02 2.3410077214948e-03
395 -2.3912111913623e+03 3.0172034616601e+04 9.1462849852303e+01 4.0167958272006e-03
396 -1.1060642908222e+03 2.9493127689734e+04 8.6687849610520e+01 1.5437805042721e-03
397 -1.1993203471571e+03 3.4669859455167e+04 9.1416761996191e+01 2.3307934545678e-03
398 -1.3412190917751e+03 3.2593549018796e+04 -8.9731176012080e+01 1.0126302481477e-03
399 -1.9187508367864e+03 2.7081827788063e+04 9.1470359279814e+01 4.1913093397353e-03
400 -1.9216265163408e+03 2.7112616125104e+04 9.0735109384387e+01 2.1321881347164e-03
401 -2.2080857913438e+03 3.2296970312475e+04 9.1370848361754e+01 2.7212646170077e-03
402 -2.1836839502011e+03 3.3046115718999e+04 9.2373993542334e+01 4.6207032252544e-04
403 -1.4441868207627e+03 3.0147622658612e+04 8.7171059153963e+01 1.5824742644597e-03
404 -1.4763984520885e+03 3.0947672509644e+04 9.0841882805364e+01 2.4286245573205e-03
405 -1.2364774895615e+03 2.9336668703820e+04 8.9769886577089e+01 1.0536842594902e-03
406 -2.1112732199855e+03 3.2472327621568e+04 9.1472915650053e+01 1.3902064202798e-03
407 -1.6122841043950e+03 3.2422056710992e+04 8.7628951605258e+01 5.9077329611918e-04
408 -1.6004471630570e+03 2.6886160615898e+04 8.7470998060555e+01 4.2868205643539e-03
409 -1.6916197047845e+03 2.7628207005477e+04 8.9113286953925e+01 2.1253531172272e-03
410 -9.7583158495184e+02 2.9751601634784e+04 9.2218503459280e+01 6.2068292061405e-04
411 -2.1522187953357e+03 2.6301624210694e+04 9.0673598881952e+01 1.0831902405778e-03
412 -2.1192184286581e+03 2.6420749054966e+04 7.0445562692172e+01 2.0290996700276e-03
413 -2.0117372680473e+03 2.4054553831565e+04 8.8883725117020e+01 2.8586143145472e-03
414 -2.1835967965773e+03 2.4128470221035e+04 8.9787459019522e+01 2.5983414528252e-03
415 -2.2813879516064e+03 2.4610408188983e+04 -9.0850422103763e+01 2.8311035152063e-03
416 -2.2836819035942e+03 2.4567199552588e+04 8.7777144516557e+01 5.1621667430238e-03
417 -2.4209940261278e+03 2.6587954862664e+04 8.9247469500830e+01 2.9019303020378e-03
418 -2.2811910460021e+03 2.6615851630846e+04 9.1494096241261e+01 2.5006900982456e-03
419 -1.4838083557540e+03 3.1739296226081e+04 8.9543412645394e+01 1.2762900371915e-03
420 -1.3627058005735e+03 2.9972238970819e+04 -9.7728175059869e+01 1.7132512465852e-03
421 -1.0544065629005e+03 2.4358697719253e+04 8.9911186886538e+01 1.2039005930134e-03
422 -1.1002950674634e+03 2.5905648540198e+04 9.7926148315826e+01 1.3487192006949e-03
423 -2.0451130546072e+03 2.8385459686349e+04 1.0964894180839e+02 9.2459745781660e-04
424 -2.2929929011848e+03 2.9270647344155e+04 -9.7206208630743e+01 8.0496907146180e-04
425 -1.5377291085228e+03 2.7129938693337e+04 1.1188602135781e+02 1.5182704428492e-03
426 -1.7359389491734e+03 2.6935477672495e+04 9.8951290032286e+01 1.3249143201830e-03
427 -1.6088267431388e+03 2.7000939592311e+04 9.0211452888281e+01 2.2076912774031e-03
428 -1.9633448974201e+03 2.6094922010668e+04 9.0246153882912e+01 1.6473146217121e-03
429 -1.7436224358400e+03 2.7178957121977e+04 7.2418503876445e+01 2.2693654830969e-03
430 -1.5856746209072e+03 2.8043828332616e+04 9.2277698089039e+01 1.8937910820092e-03
431 -1.6604008542971e+03 2.4994859574400e+04 -1.0673263901509e+02 2.2899864151312e-03
432 -1.6257531964067e+03 2.4824778585803e+04 -1.0280328517895e+02 2.4192956075624e-03
433 -1.6476413011482e+03 2.5736924875322e+04 8.8160054013441e+01 1.9669404025218e-03
434 -2.6223506804337e+03 2.8712513420920e+04 9.9511973706398e+01 2.4852190304094e-03
435 -2.1662259004421e+03 2.8141810857724e+04 8.7086960382814e+01 2.2207531834803e-03
436 -2.4433585557053e+03 2.8380630306366e+04 9.0529689463999e+01 2.7971948948846e-03
437 -1.8138239839885e+03 2.6488176353856e+04 8.9946321598193e+01 1.5840187011968e-03
438 -2.1255679993021e+03 2.6395669268757e+04 2.6036315649687e+01 2.7048626968316e-03
439 -1.9679001553145e+03 2.7768500492543e+04 9.3068055821921e+01 3.2675977972794e-03
440 -1.9499520124261e+03 2.7788035486904e+04 8.9492409506054e+01 2.4821344586779e-03
441 -1.9966158054906e+03 2.5832101230730e+04 9.3121744200364e+01 3.3834252349392e-03
442 -1.6412568270574e+03 2.6032780809661e+04 8.9530302271788e+01 2.5270704337947e-03
443 -1.5628664365446e+03 2.7278656369917e+04 -8.7270752468926e+01 1.8994087422072e-03
444 -1.7817457529133e+03 2.7720714635819e+04 8.3281604549041e+01 2.2488264814431e-03
445 -1.9272688048955e+03 2.8838657860757e+04 9.1291840878545e+01 3.4631856184390e-03
446 -1.9815525533173e+03 2.8640307992096e+04 -1.3272456161055e+02 2.3088678420966e-03
447 -1.7652038000233e+03 2.6459671878606e+04 9.9590228998210e+01 2.3943037499031e-03
448 -1.9113192173836e+03 2.6581047809294e+04 8.9917580455855e+01 2.4324144522224e-03
449 -2.1493940286553e+03 3.2387316413795e+04 9.1621727201660e+01 3.8445083491111e-03
450 -2.1241943374647e+03 3.2361598626496e+04 9.0537784052113e+01 1.6114767860697e-03
451 -1.6652285894472e+03 3.0511176168281e+04 -9.0090956523706e+01 1.5768258051943e-03
452 -1.4865643516622e+03 3.3074761628827e+04 9.0586539343760e+01 5.3003973027872e-04
453 -1.2657736724411e+03 3.1554109050312e+04 9.1942304184401e+01 5.5263331797775e-03
454 -2.5841541106114e+03 3.0369274559363e+04 8.8118848847268e+01 5.5584812625293e-03
455 -2.5270891500625e+03 3.0101441537318e+04 -8.9402642066545e+01 2.4631902930778e-03
456 -2.4194362178261e+03 2.8708169622217e+04 9.1566828304289e+01 2.2957994788766e-03
457 -2.2491445376528e+03 2.7887626473854e+04 8.9317699253319e+01 2.7795395567202e-03
458 -2.0565458275641e+03 3.0399192747955e+04 8.8418651364848e+01 3.9812220519049e-03
459 -2.3225206746556e+03 3.0000923572406e+04 9.1549836227405e+01 4.8425984597221e-03
460 -2.1748054296442e+03 2.9764471843624e+04 9.1829736848910e+01 1.5547213410415e-03
461 -2.5751426856843e+03 2.7882758929961e+04 9.1229243859211e+01 4.4071641206879e-03
462 -1.7213593157060e+03 3.1380937084053e+04 9.1108594907017e+01 1.6228659462265e-03
463 -2.3945703881058e+03 3.2938096404791e+04 1.6563748157439e+02 7.4824589457134e-04
464 -2.0531158269527e+03 3.2635594305533e+04 9.0633757020374e+01 1.0896323352924e-03
465 -2.5872695764552e+03 3.3976714976332e+04 9.0283824587504e+01 4.3944711916092e-04
466 -2.3873287613524e+03 3.2116693379939e+04 9.0698345105352e+01 1.3066449509427e-03
467 -2.2290493539368e+03 3.1700924282943e+04 9.3025906296936e+01 3.3946262994615e-03
468 -1.2673732241796e+03 3.2371055299782e+04 9.0855392684475e+01 1.4659811280155e-03
469 -1.3398183256060e+03 3.2609793500814e+04 8.4918562753150e+01 9.1095311476949e-04
470 -1.1497252044888e+03 3.1602216034582e+04 8.7870274795351e+01 5.6012223690399e-03
471 -1.7878853391825e+03 2.9202548249760e+04 8.9162350218746e+01 1.9866987735540e-03
472 -1.6131211226986e+03 2.8321484462378e+04 9.0877899779639e+01 1.8979639051785e-03
473 -1.9185215929373e+03 2.8099252377570e+04 9.0372112174723e+01 2.1192035972186e-03
474 -2.1814218044849e+03 3.1814782142417e+04 8.9736911777159e+01 2.2133646538584e-03
475 -1.7757632950470e+03 3.0422826429867e+04 9.0834781688665e+01 1.7137953322777e-03
476 -1.7372290236251e+03 3.1464079950021e+04 -9.1193796607999e+01 8.2551476310819e-04
477 -1.9467812294941e+03 3.0171091653500e+04 8.8704176453454e+01 2.0886003092643e-03
478 -2.0140458862231e+03 3.0093414973671e+04 9.1662120794258e+01 9.5466534095737e-04
479 -2.1951894897257e+03 2.8990792625091e+04 -9.5079766651857e+01 2.6286376640575e-03
480 -2.1370044691924e+03 2.9652719731133e+04 9.9779176195867e+01 2.4364008481078e-03
481 -2.4408483701455e+03 2.9265207769355e+04 9.9231039717277e+01 2.4782992690473e-03
482 -2.6414051284749e+03 3.0473471640577e+04 9.0247013314886e+01 2.8865870358065e-03
483 -2.9263949711869e+03 2.8148906727125e+04 9.7279502133239e+01 2.0566759104693e-03
484 -2.0551840377881e+03 2.7298045230140e+04 8.6590536472954e+01 3.0422852189031e-03
485 -2.0322273362718e+03 3.1849927596076e+04 8.9176814704904e+01 2.0035095168194e-03
486 -2.2272342254914e+03 3.2466596968199e+04 9.0649286751937e+01 5.7462167552980e-04
487 -1.9035932714990e+03 3.3914147491124e+04 9.0487033944878e+01 6.2844727520443e-04
488 -1.8715383638385e+03 3.4658107356584e+04 9.1498786678728e+01 2.6860294150311e-04
489 -1.6122030310096e+03 3.2735958029128e+04 8.8521477842100e+01 1.0826783576643e-03
490 -1.6938093957998e+03 3.1932121360556e+04 8.1957255381639e+01 1.2197993800971e-03
491 -1.6931321430280e+03 3.1895402879415e+04 -8.8473933330710e+01 2.2597132133543e-03
492 -1.4294660398846e+03 3.1778806196846e+04 1.4583381143198e+02 1.5892678431873e-03
493 -1.3980432107258e+03 2.6816839803200e+04 8.9501620146987e+01 1.7438459477303e-03
494 -1.5809993828879e+03 2.7251755561768e+04 9.0188214807091e+01 1.4252123789188e-03
495 -9.6456444322636e+02 2.5558607050882e+04 9.0508652379233e+01 1.2612803286896e-03
496 -1.0939486569898e+03 2.5552530805246e+04 8.8748024527540e+01 2.7202625559790e-03
497 -9.7864214013378e+02 2.2875326817024e+04 9.6392690681046e+01 1.3684954633122e-03
498 -1.3319952209150e+03 2.4884258039049e+04 9.2590380709912e+01 1.8299400174935e-03
499 -1.0759652515870e+03 2.3751708179911e+04 -9.3625968575015e+01 1.6158871875822e-03
