0 9.0315401446516e+02 2.0988847726560e+04 7.8489373926953e+01 3.4138381830438e-04
1 -2.4845626038798e+02 1.3406640267852e+04 8.7780658055083e+01 1.5152798008198e-03
2 2.7191987527961e+02 6.3587932877372e+03 -2.0517277555936e+01 2.0513705707518e-03
3 6.0710305595551e+01 9.1286732000860e+03 8.5975573293698e+01 2.1009684808473e-03
4 4.1219507974582e+01 8.1684932288057e+03 -7.3466275465217e+01 2.3321058153915e-03
5 -2.1869236273390e+02 1.2015126990611e+04 9.5055259997917e+01 1.9532566600839e-03
6 2.0370736130659e+02 1.9460271479832e+04 -6.9019899358251e+01 7.3098554665254e-04
7 -7.6898776093366e+02 2.1065936084091e+04 7.0650490519016e+01 1.8323538590369e-03
8 -7.7176815028371e+02 2.2027127045148e+04 8.6971155203776e+01 2.7661551770011e-03
9 -7.0203296544595e+02 2.0227578293501e+04 1.0612751835995e+02 1.6730697140604e-03
10 -2.5699158032055e+02 2.3151874962871e+04 8.7503762915840e+01 3.3088752373576e-03
11 -6.8643187340858e+02 2.0444262374583e+04 1.1571052933806e+02 1.1242814274075e-03
12 -5.2803007473410e+02 2.0491894096263e+04 7.0696058398663e+01 1.1464958211589e-03
13 -2.4284334921325e+02 1.9798375598739e+04 -8.3463996378134e+01 1.1879365670012e-03
14 -4.7393893986531e+02 2.2532607297751e+04 9.4226523613728e+01 1.1578859180293e-03
15 -3.4748643807760e+02 2.0433090058691e+04 -1.2028747122251e+02 1.1015460299544e-03
16 -1.3018326864353e+02 2.1843583424532e+04 9.0043178034577e+01 8.3564553817471e-04
17 -7.2587010612724e+02 1.9421803130739e+04 8.8738657556153e+01 1.4593553512829e-03
18 -3.0283907064997e+01 1.8866336290567e+04 8.7501334835646e+01 3.2029006792444e-03
19 -3.2182202462566e+01 1.6500086830161e+04 8.9032603989960e+01 1.1599003641548e-03
20 -7.6250330053072e+02 1.6749718395826e+04 9.3544285419310e+01 2.5383904018031e-03
21 -6.0633539187340e+02 1.5555037937656e+04 7.2042959428179e+01 2.4471450855968e-03
22 -7.4323807057577e+02 1.7919005994951e+04 9.0705203318511e+01 2.3105487389198e-03
23 -6.4517598620425e+02 1.5967984064173e+04 8.8795289763793e+01 2.3468134027363e-03
24 -4.9679688663096e+02 1.6903616385107e+04 9.2415885497011e+01 2.0196167137597e-03
25 -4.0852837441252e+02 1.7506213364534e+04 9.1915183640582e+01 4.9253318759035e-03
26 -7.2103084406438e+02 2.0600097375613e+04 7.6176564598986e+01 1.8262957367448e-03
27 -1.0490968097620e+03 1.8189233494779e+04 9.2165457773285e+01 5.8993205777635e-03
28 -9.5940213510612e+02 1.7593674056287e+04 8.2148864262325e+01 2.6950895544413e-03
29 -1.0337525157007e+03 1.6657553821525e+04 4.9781781658366e+01 2.9452611959762e-03
30 -4.3314095448531e+02 1.8185014722293e+04 9.1053093972726e+01 1.6483291189823e-03
31 -5.9333070477983e+02 2.2293397604598e+04 9.0513871388414e+01 1.6860334996794e-03
32 -9.0916512707089e+02 2.0339799338728e+04 9.2121008095877e+01 2.1297563577630e-03
33 -6.2573672021950e+02 2.0331789149296e+04 9.0515023434618e+01 1.5993497203785e-03
34 -6.1055547399994e+02 2.0963648105802e+04 9.5226544673971e+01 1.4505577246859e-03
35 -1.3575473348676e+02 1.3177308780662e+04 1.1261278763487e+02 1.5823327728951e-03
36 1.4830476591418e+01 1.6655004751798e+04 8.5021924182417e+01 1.1081175088572e-03
37 -7.7387681390140e+00 1.4587683738478e+04 9.0192907104861e+01 1.7155480141769e-03
38 3.5778151862351e+02 1.2768092072801e+04 8.3279174366726e+01 1.2811454345500e-03
39 -6.6708846743693e+02 1.9561547150451e+04 8.8506736119528e+01 1.4740196324779e-03
40 -7.4701030606901e+02 2.0259928541897e+04 9.2071092624114e+01 1.5156669036558e-03
41 -5.5589904038759e+01 1.6650128248966e+04 8.5776234331577e+01 1.3011480044103e-03
42 -2.7508790607879e+02 1.9745991071378e+04 9.3260993956379e+01 1.2093469083149e-03
43 -3.0584052441833e+02 1.7436427376991e+04 -8.7446357772334e+01 1.5386952080190e-03
44 1.7532025074694e+02 1.6599589639123e+04 8.8002183955242e+01 4.2772945536610e-03
45 7.7482565008923e+01 1.4385068593478e+04 8.7720954787933e+01 1.4804973583253e-03
46 -7.7155477714522e+02 1.8225974206492e+04 -9.9069896468171e+01 2.0008072233187e-03
47 -4.7993089198466e+02 1.7803760482665e+04 8.7188580917650e+01 1.4751603323325e-03
48 -4.4670300183699e+02 1.7222662973672e+04 9.3677965596589e+01 1.6694213561540e-03
49 -9.1675692133749e-01 1.8514458945130e+04 9.0171978024636e+01 1.1544704939352e-03
50 -7.6431230025779e+01 1.7466983356223e+04 9.4615581413810e+01 1.2714722878418e-03
51 -3.0879787216699e+02 1.6005932010271e+04 9.1848523751074e+01 4.9241641767250e-03
52 -3.9955669277091e+02 1.6538218675698e+04 9.3899671414633e+01 8.7283932549779e-04
53 2.0992953313522e+01 1.6755751925839e+04 8.0074713461326e+01 1.0923028539025e-03
54 -4.4664087031653e+02 2.0547605770699e+04 9.0225102129066e+01 9.8361517795999e-04
55 -8.2276644601557e+02 2.2137110839369e+04 -3.4958272526253e+01 1.0037932833726e-03
56 -7.0777399131750e+02 2.3189256633055e+04 8.3637980632225e+01 1.4047016471701e-03
57 -1.0079349890602e+03 2.3496312898474e+04 8.5353016629278e+01 1.8130089498130e-03
58 -7.5914247804146e+02 2.4118113828620e+04 9.4485877175259e+01 1.2952311359171e-03
59 -1.1456813275900e+03 2.0389510709788e+04 8.6791420200455e+01 1.8350670751758e-03
60 -4.7257918664178e+02 1.9705976707694e+04 -6.1545594696751e+01 1.4769878794712e-03
61 -8.2700974698515e+02 2.5398290900968e+04 8.5586915867893e+01 1.2683031489866e-03
62 -8.3799614849572e+02 2.5172247744275e+04 8.4647975414340e+01 1.3056922243644e-03
63 2.1977191599807e+02 1.4861454455116e+04 -9.3403228275047e+01 1.2078666872943e-03
64 -6.5806888791128e+02 1.9622252183858e+04 -2.0610413140984e+01 1.8852288564542e-03
65 -6.2121882347681e+02 2.1060738762124e+04 8.7859331520015e+01 1.5741266061945e-03
66 2.7906494236816e+02 2.0776341572939e+04 8.7597499975443e+01 3.2915653504800e-03
67 -7.5936201091922e+02 1.9495047813314e+04 8.6617789916251e+01 2.0510613373445e-03
68 -8.2752756507555e+02 1.8481308428710e+04 8.8627158817139e+01 4.5540755665429e-03
69 -7.4213398373431e+02 1.6992855995487e+04 8.8077341648521e+01 2.4356620098554e-03
70 -9.9101352310251e+02 1.7949206429635e+04 -1.2192382764617e+02 2.6630080204287e-03
71 -9.6161354546514e+02 1.6328224290167e+04 8.7721532194345e+01 2.8871675454775e-03
72 -9.1968668003446e+02 1.6167436847621e+04 7.0547068746340e+01 2.8027382978781e-03
73 -3.6576004592552e+02 1.9319798284105e+04 9.0524650100775e+01 1.5589084312962e-03
74 -1.3278713928349e+02 1.6382913454578e+04 8.5969381799552e+01 1.5708620984808e-03
75 5.3850498112395e+02 1.7208904618620e+04 8.7247990938300e+01 6.3622696225636e-04
76 4.5760556184879e+02 1.7766805996778e+04 9.2229794916247e+01 6.5660574919575e-04
77 9.2360504342939e+01 1.6467574511051e+04 8.7708788589940e+01 1.1696561000795e-03
78 -1.3735990522042e+02 1.7381036510219e+04 8.5055945823329e+01 1.3766874740829e-03
79 -5.0836132645173e+01 1.6442829967958e+04 -1.7794084724572e+01 1.3830825893247e-03
80 -1.0185809878834e+03 1.6918558049265e+04 8.9124634397439e+01 2.3671493360409e-03
81 -8.4564401131912e+02 1.5743423769620e+04 -8.9440843428723e+01 1.5103011515640e-03
82 3.7465877642557e+02 1.5461572766824e+04 -8.5751448252589e+01 9.1297279491988e-04
83 3.4539229752538e+02 1.6756652582121e+04 8.7168748514151e+01 7.4456199607192e-04
84 -2.2875930359560e+02 1.8290729565714e+04 9.3442935304521e+01 1.3818975082866e-03
85 -3.1458844507399e+02 1.1452080638835e+04 -8.4761703808127e+01 2.6345953925932e-03
86 -2.4391731380570e+02 1.1777281729172e+04 -4.8123373051167e+01 2.4658996341013e-03
87 -2.7226049338633e+02 1.1683337009538e+04 -6.9091184732482e+01 2.5234552260918e-03
88 -1.9491264829902e+02 1.1663046702711e+04 8.9400928376254e+01 2.6050659465810e-03
89 -3.0126190774130e+02 1.3412093167036e+04 8.7778866913580e+01 1.9990963381537e-03
90 -4.0309160961581e+02 1.5902483930620e+04 9.5611330409200e+01 1.7429457717536e-03
91 -5.7921750050281e+02 1.4983395924943e+04 9.4292824421526e+01 2.2450317409969e-03
92 -1.2973085969864e+02 1.6089517434714e+04 9.7017914190170e+01 1.3518138690368e-03
93 -1.5055993881200e+02 1.6430370685578e+04 8.2022230225645e+01 1.3961635854371e-03
94 -2.3848080808784e+02 1.4855889159950e+04 9.4587431831075e+01 1.2812227969624e-03
95 -3.0757016194689e+02 1.5855615232578e+04 8.2735475798409e+01 1.8986578172629e-03
96 -3.2885375466538e+02 2.1494241546224e+04 9.3948180642591e+01 1.0758172641658e-03
97 -1.1569708295970e+02 1.9531759342373e+04 -3.2793981549731e+01 9.8952334840020e-04
98 -4.3593238834294e+02 1.4477129958082e+04 -7.8026391368162e+01 2.2953632641188e-03
99 5.3547944154424e+02 1.5323533205735e+04 7.1635392583508e+01 7.7466223294952e-04
100 -8.2518064133103e+02 1.9762377260978e+04 -6.8533455330808e+01 1.2853049408675e-03
101 7.5667235815249e+02 1.0919656284328e+04 8.7529897158207e+01 9.9187069086808e-04
102 -3.0300649687079e+01 1.6328334890618e+04 9.3300408938646e+01 1.3592576701123e-03
103 2.1712787661928e+02 1.3149624761904e+04 9.3811901336242e+01 1.4700713429432e-03
104 -2.8381753482957e+02 1.8800909022119e+04 9.2340260996845e+01 1.3934269342805e-03
105 -4.5776624439695e+02 1.9332749410945e+04 9.1061757230811e+01 2.8288860607671e-03
106 -1.7939743339289e+02 1.8170285862612e+04 8.9896587491055e+01 1.3659028595852e-03
107 -2.0481255939585e+02 1.8194880181475e+04 8.7871311241896e+01 1.3621197904206e-03
108 -6.5112527129659e+02 1.4988108572207e+04 -9.1926296325562e+01 2.3153805278291e-03
109 -6.2645830260184e+02 1.7361862354357e+04 9.7906381323929e+01 2.1976186690515e-03
110 -5.0735563625062e+02 1.7993376511170e+04 8.4955220246543e+01 1.7327060103204e-03
111 -4.5694341340341e+02 1.7891891267434e+04 9.7979111950711e+01 1.5947606674005e-03
112 -1.0238140389843e+03 1.8753222467418e+04 8.9173213745013e+01 3.4379386201913e-03
113 -9.4946287657294e+02 1.6360061500806e+04 -8.7053312937803e+01 1.7455144435141e-03
114 -2.6660145278321e+02 2.2223697885107e+04 8.2999061794229e+01 7.7527673293922e-04
115 -4.8269826621490e+02 1.7890112768328e+04 8.5531646490870e+01 1.8323719407357e-03
116 -7.9770095636344e+01 1.9080819582579e+04 9.7520419804561e+01 7.3517127807780e-04
117 -1.3295739691887e+02 2.0740444210677e+04 8.5919494827579e+01 5.1601239893971e-04
118 -1.0969790617907e+03 2.0107890418288e+04 9.0474970537229e+01 1.9841333885912e-03
119 -1.0988837571554e+03 1.9524342724998e+04 9.0903315537978e+01 2.9848697986664e-03
120 -9.0845960883479e+02 1.9477542271198e+04 8.7278229007351e+01 4.0499974069303e-03
121 -9.2009232446575e+02 1.7528267326263e+04 9.3401330773081e+01 2.8047820858796e-03
122 -1.0367336381159e+03 1.9007536431779e+04 9.4223764388380e+01 1.8702860666205e-03
123 -1.1723671517691e+03 1.6861428310608e+04 1.1253554547323e+02 3.0710663798614e-03
124 -8.4808755486044e+02 1.6496362070148e+04 8.9717552577252e+01 2.8189216082786e-03
125 -9.3097089743931e+02 1.5005420450097e+04 9.6811647249836e+01 2.9638288602124e-03
126 -5.2054573402220e+02 1.6022039439295e+04 8.8872325545588e+01 3.1197488198626e-03
127 -6.4962667215037e+02 1.3304513064585e+04 9.2246010563776e+01 5.9038164315411e-03
128 -5.2696072778453e+02 1.2356782430195e+04 -3.0867471793096e+01 2.8080285175867e-03
129 -6.0361219626159e+02 1.2401663578132e+04 7.6950580893508e+01 2.9087617663421e-03
130 -3.5143085611410e+02 1.3610036505739e+04 8.6605861956405e+01 2.5205701267453e-03
131 -4.1187321683534e+02 1.4215388163704e+04 9.2486985034012e+01 4.7207602004376e-03
132 -4.1000751142598e+02 1.4887209149077e+04 9.1383159248649e+01 2.0689663851461e-03
133 4.8008496784494e+01 1.3662868604908e+04 4.6509207616154e+00 1.0743487824653e-03
134 -8.3475540199262e+01 1.3341256880236e+04 9.1157674825441e+01 1.3612611878636e-03
135 -1.6063051074342e+01 1.3109375898614e+04 8.6888537919795e+01 1.3463337654918e-03
136 4.2883887075748e+02 1.3778183678095e+04 3.7924145243374e+01 1.0453798368830e-03
137 -1.1114287289010e+03 2.0533704214294e+04 9.4002919941036e+01 2.5209560700396e-03
138 -1.0475952703711e+03 2.0801277691797e+04 9.0185378225509e+01 2.2665326427509e-03
139 -9.9773479388896e+02 2.1113593592661e+04 1.0627048887931e+02 2.0304191300945e-03
140 -8.0003351371730e+02 1.9114692308467e+04 -7.6147734863273e+01 2.1500417706263e-03
141 -9.1058318766578e+02 1.8783103876127e+04 1.0027088268226e+02 2.0045359988959e-03
142 -7.6742004742945e+02 1.8793677783706e+04 -5.5786386594352e+01 1.3324473573206e-03
143 -1.3532192706488e+03 2.1241027052730e+04 8.6470262908693e+01 2.2900711993719e-03
144 -7.8476457704199e+02 2.4036881399154e+04 8.5981401741053e+01 1.0150093478862e-03
145 -1.3525083817952e+03 2.2009182176808e+04 8.5651236657453e+01 2.4994061324274e-03
146 -1.4549855047909e+03 2.1665797928672e+04 9.1399709287573e+01 2.7009315640463e-03
147 -1.3912022561292e+03 2.1610403215818e+04 8.7382555640226e+01 2.6291029875246e-03
148 -1.2464832082064e+03 2.0933401676630e+04 4.9956878513099e+01 2.3004078974706e-03
149 -1.4445878949316e+03 2.1878646387325e+04 9.0852635859916e+01 3.6247571143725e-03
150 -1.2874276460978e+03 2.2041396121160e+04 8.9275866309403e+01 3.1080753668505e-03
151 -1.2514064233187e+03 2.1309354135832e+04 8.8924648327415e+01 2.5720391094462e-03
152 -1.2405338755346e+03 2.1967337432552e+04 8.8989685194671e+01 3.7250323156343e-03
153 -1.1485004485895e+03 1.9877840722009e+04 8.8618432167391e+01 1.2056033800234e-03
154 -1.1603786086017e+03 1.7861517989345e+04 8.7847586960810e+01 5.3137054856765e-03
155 -1.0603222736192e+03 1.6507549988677e+04 -8.9377465047257e+01 2.4008772364832e-03
156 -4.0608868547199e+02 2.1122807175861e+04 8.1125524150267e+01 1.2288203317214e-03
157 -5.6308392463847e+02 2.0609937213320e+04 1.5144865892335e+02 1.5359238907819e-03
158 -2.8700649202702e+02 2.1200150757730e+04 -6.8645312432020e+01 1.0416901853716e-03
159 4.0887512957051e+02 2.0192924828994e+04 9.1344800333324e+01 2.6338896242696e-03
160 3.6268131229547e+00 1.7362254910245e+04 7.2890630835599e+01 1.1228387541703e-03
161 -4.4156756784621e+02 1.5626107198123e+04 1.0077028520444e+02 2.1689859341169e-03
162 -4.2411961828006e+02 1.6327609083262e+04 8.4052647614718e+01 2.0289938768877e-03
163 -3.4551256944122e+02 1.5075772334409e+04 8.9651454359810e+01 1.8471027002414e-03
164 -6.2487313459974e+02 1.6490773928677e+04 9.1899840370382e+01 1.9492745493334e-03
165 -9.2831229162762e+01 1.7414086935560e+04 -7.6051139993245e+01 1.1588688595699e-03
166 6.5656094486524e+01 1.6794334923670e+04 4.4133590518811e+01 1.0412333895692e-03
167 -3.2086799631249e+02 2.1144322357094e+04 8.5867757987566e+01 9.6994700191977e-04
168 -3.4883092577576e+02 2.2052308012526e+04 9.0487597990241e+01 8.1955057727089e-04
169 -1.1726662484533e+03 2.0653858784886e+04 -1.5329871282588e+02 1.4293051501433e-03
170 -1.1899999696851e+03 2.0427417292928e+04 9.3127043251734e+01 2.2399026816167e-03
171 -1.0248073021191e+03 2.0155971342738e+04 1.0031634979959e+02 2.2357935046185e-03
172 -3.5000848986483e+02 1.9319298632139e+04 -8.6007987955695e+01 1.2158333280212e-03
173 -3.2061535643076e+02 1.9746457539235e+04 8.3132645236017e+01 9.3702752485014e-04
174 -6.4708772769410e+02 2.3834712860817e+04 9.2427422644421e+01 1.0949906554554e-03
175 -6.1071080737566e+02 2.4027259133599e+04 9.0566119737264e+01 1.3898036516299e-03
176 -6.0996396971150e+02 2.3459761026513e+04 9.0913098497743e+01 1.1185468226446e-03
177 -6.0506312138873e+02 2.4352873662423e+04 9.4821903939483e+01 1.0274491463303e-03
178 -3.4410818548314e+02 1.7115460953112e+04 1.0503678326999e+02 1.0083529278026e-03
179 2.3115414418853e+02 1.3697457147752e+04 8.9838422120832e+01 1.3173435897722e-03
180 -1.2412796349114e+03 2.3847461215578e+04 8.9204512004765e+01 2.8316014136631e-03
181 -1.3791504473314e+03 2.2770323959699e+04 8.4006287084037e+01 2.5902750250829e-03
182 8.9095220375568e+00 1.7171657140196e+04 6.8128064214395e+01 7.5321003616441e-04
183 1.5940737871766e+02 1.5631078664689e+04 9.0264199347527e+01 1.2636485455334e-03
184 -2.4565502970332e+02 1.4940879594261e+04 9.0655317481799e+01 1.8487695149734e-03
185 -2.4938212788542e+02 1.3172807424820e+04 1.2854361042894e+02 1.9559353667088e-03
186 -5.3125951404303e+02 1.2779238267453e+04 -9.1325552565000e+01 2.2563022258427e-03
187 -2.8467667806429e+02 1.2028506977852e+04 7.9764701887212e+01 2.0639394728019e-03
188 -5.2232665584232e+01 1.3037452466376e+04 8.5302994989352e+01 1.8239904620976e-03
189 -1.3026169061503e+02 1.8293447735446e+04 9.1600748769663e+01 3.9412069906961e-03
190 -2.6785940395808e+02 1.6013791055801e+04 9.8084073402891e+01 1.7090792006070e-03
191 -3.9420979899436e+02 1.4573508615179e+04 8.5769912509762e+01 2.2009916965106e-03
192 -1.7618663620670e+02 1.2751229678191e+04 9.4204923939810e+01 2.1739286559119e-03
193 -3.7172991609618e+01 1.1498935425462e+04 9.0828483233149e+01 2.9619481115210e-03
194 3.8392184007874e+02 1.2074912590080e+04 9.1761615300874e+01 1.2835842970895e-03
195 -2.6033400395903e+00 1.1728604746350e+04 8.4330837601493e+01 1.7699467650580e-03
196 -6.7479567111621e+02 1.7790728869644e+04 8.9292472379226e+01 1.8756316922250e-03
197 5.6102057964691e+02 1.6644131246350e+04 8.5796343139528e+01 4.5161036492665e-04
198 9.8065543203668e+02 1.5342261431953e+04 8.9372097658046e+01 9.1203902440167e-04
199 -2.0716287515958e+01 1.8330890136455e+04 7.4002503730342e+01 9.1441161167737e-04
200 -4.4740401674768e+02 1.8202093064034e+04 8.2418661448958e+01 1.7314158068110e-03
201 -7.0448879417976e+02 1.7020282500174e+04 -1.4319284322384e+02 2.2258083133219e-03
202 -7.0930907909516e+02 1.7860138644581e+04 9.7780688566916e+01 1.9314587828586e-03
203 3.0144166533018e+02 1.6033772786954e+04 9.2487360435971e+01 3.4698014547882e-03
204 -1.1971780835199e+03 1.6947869555150e+04 9.3382915085112e+01 1.8603442197829e-03
205 -7.5628761634945e+02 1.6910208180753e+04 8.2101405331992e+01 2.0862969164748e-03
206 4.0590114243338e+02 1.8236852447845e+04 7.7752580841114e+01 6.3652881716755e-04
207 1.3626488910802e+02 1.6934617114831e+04 9.2453503669438e+01 3.6314034013689e-03
208 -5.9166373681144e+02 1.6348280474169e+04 -6.3725484540614e+01 1.9804431466052e-03
209 -6.9649878638070e+02 1.8051443728449e+04 8.8092154329102e+01 1.3804919910816e-03
210 -5.7154915106058e+02 1.7481718482320e+04 9.4422296485962e+01 1.7141690045036e-03
211 -7.1142242535305e-01 1.5770342535052e+04 8.2509603367368e+01 1.3935448895252e-03
212 -2.6646715448024e+01 1.9028528460404e+04 9.0652200202350e+01 1.0138326802075e-03
213 -9.3789976136555e+01 2.0145892965699e+04 8.9313580284140e+01 9.6900211458294e-04
214 -7.0607236625985e+02 1.9309407550282e+04 8.9575293661232e+01 2.2936173697361e-03
215 -7.4619509026696e+02 1.8225080982113e+04 7.1773833142145e+01 2.2775156448659e-03
216 -7.0154368119374e+02 2.0439693484871e+04 9.0902316053586e+01 1.6105598996433e-03
217 -6.1290980843703e+02 1.9393689407533e+04 6.5678542502571e+01 1.7781545779389e-03
218 -7.5067415022321e+02 2.4315154781054e+04 9.2777405485458e+01 1.3025029806289e-03
219 -6.1480069739330e+02 2.4482259634956e+04 8.7511970854471e+01 1.0981861317616e-03
220 -7.9036029629435e+02 2.2301934161719e+04 8.6989045600335e+01 2.8327966759998e-03
221 -9.1746480139014e+02 2.3606464870549e+04 9.9718253103208e+01 1.6796585082536e-03
222 -9.3180031049586e+02 2.1138913709969e+04 8.1296334529088e+01 1.9779818173230e-03
223 -8.9167598600720e+02 2.1183780784857e+04 7.6886721279495e+01 1.9539501037600e-03
224 -8.6741058218563e+02 1.9889506789210e+04 -8.9605933242543e+01 2.1753168034364e-03
225 -9.3249856606015e+02 1.9899934362012e+04 9.0496364745313e+01 2.3596096514907e-03
226 -1.4500731763810e+03 2.0245276966581e+04 1.2039090056943e+02 2.5692094492159e-03
227 -1.1957458733330e+03 2.2262644749426e+04 8.8411814308557e+01 2.3359449087732e-03
228 -4.1009940044636e+02 2.1697615045048e+04 8.8166102587446e+01 4.1243605505685e-03
229 -1.2928029389527e+03 2.2669720808725e+04 8.1915131583722e+01 2.3995372653667e-03
230 -1.0782152517139e+03 2.1156964708956e+04 9.5524977929467e+01 2.3311226900172e-03
231 -1.0375368795077e+03 2.2417682150397e+04 8.9840723317940e+01 1.6671276083217e-03
232 -1.1630644590787e+03 2.2642186298446e+04 7.4570094331318e+01 9.6453443324504e-04
233 -1.3694868273750e+03 2.3269570044264e+04 9.5288397239251e+01 1.8708736959044e-03
234 -8.5366179104753e+02 1.8156059269955e+04 -9.5102030541325e+01 1.2956251097177e-03
235 -7.6209124269999e+02 2.1707395186175e+04 8.9447819518893e+01 1.5987243735123e-03
236 -1.1884665493053e+03 2.0913814794375e+04 -5.3545709443888e+01 1.8901631319377e-03
237 -5.1779398352228e+02 2.0052323082172e+04 8.9418513787747e+01 1.4008060382450e-03
238 -4.5307880455936e+02 2.0045410331054e+04 8.4312088467522e+01 1.4200488021213e-03
239 -7.2521650658579e+02 2.0369100641920e+04 9.1574288912138e+01 4.5746969266181e-03
240 -7.0253277724746e+02 2.0881462928482e+04 8.8128588347412e+01 4.1391380260080e-03
241 -9.9615571327159e+02 2.2095811080251e+04 9.0994406962918e+01 1.9513632852122e-03
242 -5.3417474342213e+02 1.8375667258195e+04 8.3764411354157e+01 1.8791317214456e-03
243 -1.0821312571157e+03 1.8860457830175e+04 -7.2081535208525e+00 2.6987261964576e-03
244 -1.1940284274827e+03 1.9519379642793e+04 8.6110643127548e+01 2.5050066971830e-03
245 -1.0299841499050e+03 1.6730262012376e+04 -9.4837628135769e+01 2.5405017948517e-03
246 -9.8351426589252e+02 2.0584626692280e+04 9.0081964535576e+01 2.0076590762343e-03
247 -9.9429384131229e+02 2.0011420168623e+04 9.0871698138483e+01 3.0471867985328e-03
248 -1.0390412210440e+02 2.2514246771283e+04 -1.1491907756070e+02 7.2038153477562e-04
249 -3.8196969123584e+02 1.4069146856504e+04 8.4492628407194e+01 8.8164036183654e-04
250 -1.3033187935355e+02 1.8721444437403e+04 9.8017291174023e+01 1.1543413656815e-03
251 -6.9121805197963e+01 2.3360403574505e+04 8.8566911840459e+01 6.0661888540949e-04
252 -7.9065867406403e+02 1.9524827978086e+04 -1.0762174705802e+02 1.8181402862215e-03
253 -8.1490756446191e+02 2.0098841172442e+04 8.8721452762104e+01 1.9981193036714e-03
254 -7.5495827052946e+02 1.8699231491409e+04 9.0060092056258e+01 2.1974782781638e-03
255 -5.5225105511458e+02 1.9249654323503e+04 7.9083420501041e+01 1.6544444921028e-03
256 -1.1586102782248e+03 1.5603989020728e+04 -8.9724557239928e+01 1.8797051098630e-03
257 -1.0828792437035e+03 1.7863457627685e+04 9.0333244594193e+01 1.5533231408417e-03
258 -1.0010653952830e+03 1.6508661825389e+04 9.9989008593488e+01 1.4264501714194e-03
259 -6.3244953293996e+02 1.6976978009424e+04 6.2684218348653e+01 2.2849326146030e-03
260 -8.8915906319571e+02 1.7851264570871e+04 9.2447575255144e+01 2.4054429833280e-03
261 -8.1369376307341e+02 1.6924394405282e+04 -7.9476938605801e+01 2.5727612005174e-03
262 -1.6179065895213e+03 1.7853396553985e+04 -1.2479708056976e+02 3.2227886259244e-03
263 -1.4335891519377e+03 1.9022296632295e+04 8.7053173761258e+01 3.0890845251013e-03
264 -1.5339705152228e+03 1.8991297282195e+04 9.3037344972718e+01 3.1713858435539e-03
265 -9.8366417725755e+02 1.7569488721523e+04 8.7426615412840e+01 2.7584661161351e-03
266 -1.0995592670665e+03 1.7586135206712e+04 8.6021810301229e+01 2.5327008039654e-03
267 -1.1603793509317e+03 1.6310193471614e+04 -8.7803307515544e+01 2.9459797495620e-03
268 -1.2550810697093e+03 1.8922407323185e+04 8.6054966223463e+01 3.0236360220528e-03
269 -8.9881417798016e+02 1.6349767865868e+04 8.9286341458099e+01 2.7800843204925e-03
270 -7.7758763382463e+02 1.6562292543575e+04 7.6030201419548e+01 2.4270896894633e-03
271 -8.6834046732884e+02 1.5558307703055e+04 -8.6118079406476e+01 2.8407296836694e-03
272 -5.5382448719987e+02 2.1881022960268e+04 8.1906962107404e+01 1.3516260120406e-03
273 -5.5290209583743e+02 2.1610264866679e+04 9.4472586541795e+01 1.4045309599652e-03
274 -1.4434896578269e+03 2.0600828895688e+04 8.9742542686773e+01 3.1169006875940e-03
275 -1.5195785335031e+03 2.0899139961783e+04 9.3655926124729e+01 3.1533757291039e-03
276 -1.4608075908789e+03 2.1123676528983e+04 8.8494456135416e+01 4.4191667948086e-03
277 -1.8810835626597e+03 2.1814030901812e+04 8.9070344129070e+01 3.2105193331986e-03
278 -1.9004654420735e+03 2.2320685647337e+04 8.9924632768863e+01 3.2811038110374e-03
279 -1.7764786727606e+03 2.3503999052172e+04 9.2560164746823e+01 5.1601817082422e-03
280 -1.7385421533819e+03 2.1957465992329e+04 -8.3506552840560e+01 2.1542683940849e-03
281 -1.5751817551254e+03 2.1201372222573e+04 -8.5590843276481e+01 1.2040647539861e-03
282 -1.5193474682649e+03 2.1465946966144e+04 -6.8217183536141e+01 2.9760789433309e-03
283 -1.6950893976003e+03 2.2980147589744e+04 9.0041861861731e+01 3.0641190478054e-03
284 -1.8679479613600e+03 2.0859097435752e+04 -9.1712129079477e+01 3.1336355681205e-03
285 -1.5670757614764e+03 2.3198862964069e+04 8.5765324610082e+01 2.2086070658347e-03
286 -1.5259252945266e+03 2.1893926331806e+04 -4.9265705146806e+01 2.7647933041501e-03
287 -1.6491303715360e+03 2.3343306411391e+04 9.6782415724356e+01 2.8201320671116e-03
288 -1.6771092443403e+03 2.3187579520032e+04 1.0465201797652e+02 2.8985439265926e-03
289 -1.5790706736748e+03 2.3983428836339e+04 8.9349777471552e+01 2.6991788012102e-03
290 -1.6313680425390e+03 2.2552358257070e+04 -8.4553594088060e+01 2.9535582544973e-03
291 -1.7068022255759e+03 2.3089099435287e+04 1.0505717713213e+02 2.8657044969240e-03
292 -1.6349277764494e+03 1.8500697014411e+04 -8.1801269461584e+01 3.2131829013279e-03
293 -1.5864394425472e+03 2.0739625818275e+04 8.2992309125336e+01 3.0208952692530e-03
294 -1.7458268354929e+03 2.0378856762765e+04 8.9362725338867e+01 3.7132212560506e-03
295 -7.8383638825418e+02 2.0358778099072e+04 8.5375028193234e+01 1.3263967872462e-03
296 -1.2152102311719e+03 2.2995877011588e+04 8.6918737727353e+01 2.5231827892713e-03
297 -1.2246639575347e+03 2.2735812557965e+04 8.6640851354774e+01 1.7546630564874e-03
298 -8.4523437384544e+02 2.0555533587552e+04 -1.4745300370479e+02 1.9981340180737e-03
299 -3.9760955411001e+02 2.3489647239852e+04 8.3951076129550e+01 9.5009127108859e-04
300 -2.3396491156011e+02 1.9615903087313e+04 8.9602621800628e+01 1.4570185294839e-03
301 -1.6681425454385e+02 1.9606463900066e+04 8.3250194692243e+01 1.1186984029071e-03
302 8.9060744200520e+01 1.5233555571989e+04 9.0611018522735e+01 9.8769249451357e-04
303 1.8282891220033e+02 1.4980073301871e+04 8.1816490274462e+01 9.5186888332571e-04
304 -5.2755128045765e+01 1.5704893505772e+04 -8.4651169978495e+01 1.3671089925245e-03
305 2.7351572264105e+02 1.4125656911053e+04 8.1273174750252e+01 1.1776328326260e-03
306 -3.0268931003256e+02 1.7025139065818e+04 8.8694259255202e+01 3.4251621392769e-03
307 -4.1679418796286e+02 1.7546508691682e+04 9.2833604945882e+01 3.1242056900862e-03
308 -1.0092792367846e+01 1.7808610490452e+04 9.1669979311075e+01 1.0621379192414e-03
309 -7.3511917298390e+02 2.2272781885581e+04 9.1893670952493e+01 4.7420211624683e-03
310 -8.8950391135709e+02 2.1731035594220e+04 8.5103863447092e+01 1.6678226932141e-03
311 3.1509761763662e+02 1.5971360565101e+04 8.4834580201620e+01 5.1780185493732e-04
312 4.5208998781494e+02 1.9245458181376e+04 6.9956085987739e+01 5.2107186415742e-04
313 1.9545537969678e+02 1.4892313632735e+04 -8.4855947438481e+01 1.1546986881269e-03
314 -8.9598033896171e+00 2.2707989247459e+04 8.8810603681281e+01 2.2172569516387e-03
315 -7.6040957276136e+02 2.1934379438477e+04 -1.4163184516055e+02 1.5293211226341e-03
316 -8.8726223789826e+02 2.3999974596841e+04 8.7897646646120e+01 4.7564709290037e-03
317 -1.0792704966546e+03 1.9378747899414e+04 8.5438010423009e+01 1.5711413658222e-03
318 -9.5752892223840e+02 2.2436623257094e+04 9.0825580958204e+01 1.3161724259890e-03
319 -1.1599925843382e+03 2.2070001027389e+04 8.6767538315698e+01 1.2586233492057e-03
320 -9.7184298753812e+02 1.7596210374293e+04 8.7992693565989e+01 5.3542040050702e-03
321 -9.1553017060106e+02 1.7422083594027e+04 3.2663849687366e+01 2.0608063317452e-03
322 -3.7707666899766e+02 1.7457406617302e+04 8.6231139474138e+01 1.4018887079782e-03
323 -1.8356243124917e+02 1.4430164750460e+04 8.4479482960996e+01 1.9158393761286e-03
324 -6.8234378556905e+02 1.5557901648495e+04 9.1602341018040e+01 2.5082260232538e-03
325 -1.0001719845699e+02 1.6184634152669e+04 8.6017873669261e+01 1.4299976875770e-03
326 -1.3126234541986e+03 1.9995080825010e+04 -6.9986395804471e+01 2.7401742340780e-03
327 -1.3465725666802e+03 1.9419604946716e+04 -8.6144066874696e+01 2.9104131217308e-03
328 -1.4183310235418e+03 2.0751984332180e+04 9.1841308129391e+01 2.7672651580933e-03
329 -1.0865702695864e+03 1.7489295846396e+04 -8.7795579189800e+01 2.8978985561693e-03
330 -8.5973392934873e+02 1.9018405824940e+04 8.7286668712374e+01 3.9596383701429e-03
331 -1.0616859124551e+03 1.7531638824110e+04 8.9422858044126e+01 2.8791193292661e-03
332 -1.0628041953249e+03 1.7653824116548e+04 8.9606108961453e+01 3.0965135826784e-03
333 -8.0348441953650e+02 1.6252277822461e+04 9.5516560824942e+01 2.4491493963100e-03
334 -8.4536651991046e+02 2.0911515406521e+04 9.4828701610406e+01 1.9801700509726e-03
335 -6.6757648421143e+02 2.1060211273489e+04 7.4094469180521e+01 1.6687453197947e-03
336 -8.3800732779008e+02 2.1474282621758e+04 9.1455066260760e+01 1.8946995453099e-03
337 -1.1282612904742e+02 2.0459356170777e+04 8.9380670388991e+01 9.3154822249349e-04
338 -2.1735690381769e+02 1.5746794425518e+04 9.8630618309025e+01 1.6507656055989e-03
339 -1.0604331358741e+03 2.1381599081989e+04 9.9732232640436e+01 2.2430060832679e-03
340 -1.0964035197036e+03 2.1241183740770e+04 9.4987174997780e+01 2.2600435747134e-03
341 -1.0823169541531e+03 2.1046004426502e+04 9.5227038890245e+01 2.3393084336503e-03
342 -9.7284713244681e+02 2.1809341816170e+04 1.0061124950202e+02 2.0320193927722e-03
343 -5.0698967022699e+02 2.3046222046713e+04 8.3948061064561e+01 1.1016640249731e-03
344 -6.4614955203208e+02 2.2898860932384e+04 8.3488327458087e+01 1.2367432529437e-03
345 -6.3270742974726e+02 2.3301958114720e+04 8.5617574410802e+01 1.1717144738135e-03
346 -7.9861939513678e+02 2.0085906021008e+04 8.7132603555555e+01 3.5599873524069e-03
347 -4.7326767771537e+02 2.1310849793727e+04 9.4336023899307e+01 8.4690394470875e-04
348 -4.7546372796613e+02 2.0442821751087e+04 7.8214319344805e+01 4.7731431125159e-04
349 -5.8967356945495e+02 1.8213378289863e+04 1.0590160081555e+02 1.9119429421227e-03
350 -4.6395910799964e+02 2.1039001801729e+04 8.6631561842774e+01 1.6562062193840e-03
351 1.0728282637170e+02 1.6643969674941e+04 9.1837747480909e+01 3.7231668410879e-03
352 -1.6198378765172e+02 1.8789536475651e+04 9.0043263155708e+01 1.2645480023260e-03
353 -5.4497444309249e+02 1.8168148245715e+04 9.4355498175164e+01 1.9329194721123e-03
354 -1.5808221375525e+02 1.7984551781916e+04 -8.3579652132642e+01 8.6916103974581e-04
355 -3.8704971097481e+02 2.0918067423156e+04 8.3411955467502e+01 1.2196092365787e-03
356 -5.5357613345702e+02 1.8464157607093e+04 9.3739871358282e+01 1.8026289552543e-03
357 -5.4110678096502e+02 1.8598010812766e+04 9.0620989002329e+01 2.2059801318987e-03
358 -5.3058775890521e+02 1.7499537204079e+04 -8.9491036675528e+01 1.7784450626886e-03
359 -8.6198736765155e+02 1.8025330787903e+04 8.8736962826507e+01 2.1764149595059e-03
360 -3.1867149767714e+02 2.1094617864019e+04 8.6880906375938e+01 2.0535021579884e-03
361 -7.2976400506910e+02 1.9920059730437e+04 -7.2985839006276e+01 1.9197689750906e-03
362 -1.1358608417000e+03 1.8205150569587e+04 8.6390288695856e+01 2.6979866023363e-03
363 -1.2412633472343e+03 1.8354937277306e+04 9.6529968621829e+01 2.2952821893087e-03
364 3.4578308655342e+02 1.0806629171214e+04 8.9601978088276e+01 1.7043987640509e-03
365 1.6984744846735e+02 2.2888014508814e+04 -1.0019050918716e+02 5.1332052754963e-04
366 1.3980923244567e+02 2.4749839436089e+04 9.3609349725786e+01 4.3155714788256e-04
367 1.8608915837756e+02 2.1228668455014e+04 8.6783292958640e+01 5.7795416533697e-04
368 4.9168258751829e+02 1.7331847315604e+04 -2.7381025732102e+01 6.4650282080037e-04
369 -2.1378819080499e+02 2.3019895941305e+04 9.0332054446101e+01 8.2806565415764e-04
370 -9.1979135533877e+02 2.3308696180246e+04 8.5721263963994e+01 1.5917433451819e-03
371 -8.8885838661150e+02 2.2408957453209e+04 9.6303455858998e+01 1.8236485529692e-03
372 -8.0570208161381e+02 2.3004673236657e+04 9.2357111444615e+01 1.4603464792505e-03
373 -8.7354084982664e+02 1.8584670651397e+04 1.2958150099008e+02 2.3688496616722e-03
374 -7.8622661051047e+02 1.9232562324741e+04 9.2256112450617e+01 2.1001626188673e-03
375 -5.9180302036038e+02 1.8110435754490e+04 -1.6172856296918e+01 2.0051755889568e-03
376 -3.3984292408412e+02 1.9779045128711e+04 9.0021984496555e+01 1.3349101861158e-03
377 -5.8331580709846e+02 1.8017610034563e+04 -8.9250579124691e+01 2.0153412733603e-03
378 -6.4395254910276e+02 2.0195590180763e+04 9.1679096250573e+01 1.7683113587788e-03
379 -9.1556823927866e+02 2.0666780832626e+04 8.3901865749691e+01 1.7143388928488e-03
380 -1.0119008732013e+03 1.5099027350188e+04 7.8786366789860e+01 2.4384041336448e-03
381 -1.0773930854985e+03 1.6812670698474e+04 -9.1465456416017e+01 2.9239310568441e-03
382 -9.8506062633803e+02 1.8238672188522e+04 8.4696106817466e+01 2.6686658794218e-03
383 -8.0807769549775e+02 1.7808426549324e+04 -9.5786950456465e-01 1.8868077321628e-03
384 -9.3212825717268e+02 1.8234790095588e+04 9.3674112841035e+01 2.3139352368726e-03
385 -3.0336998005114e+02 1.6537347028831e+04 9.1599483671025e+01 4.5058583868851e-03
386 -5.0054571908486e+02 1.4999100498803e+04 8.3125148503516e+01 2.3851794562249e-03
387 -6.1849403405114e+02 1.4698541621895e+04 9.2597844608117e+01 4.8745765618174e-03
388 -4.1677505648811e+01 1.6500242611572e+04 8.9383855780584e+01 1.7630918081916e-03
389 -9.9290541296190e+00 1.6439251160478e+04 1.0598526686599e+02 1.2692233731054e-03
390 4.1489890400941e+02 1.6438988849757e+04 -7.7498854458057e+01 7.8196585518397e-04
391 5.4476039961626e+02 9.6471760087454e+03 8.5095091592128e+01 1.3881447030046e-03
392 4.5172939339261e+02 9.4379633189626e+03 9.4308468595238e+01 1.3064430906763e-03
393 7.7287729007284e+02 1.0668807213447e+04 9.1359204260031e+01 3.0408915828575e-03
394 -8.7241583872510e+02 1.6906252809641e+04 9.4693745203946e+01 1.9082607989064e-03
395 -6.6033581448931e+02 2.0677639491732e+04 8.8000684879176e+01 1.5276940256807e-03
396 -6.0060263505315e+02 1.8140220900079e+04 -1.0530938227009e+02 1.9963665364129e-03
397 -1.1777031801442e+03 2.0412077336844e+04 9.9333725885122e+01 1.9408536314935e-03
398 -4.9338161484098e+02 1.7326569627181e+04 8.0077286731438e+01 1.8125269244022e-03
399 -2.1518743670267e+02 2.3681023174542e+04 8.8039467523537e+01 7.3059604782500e-04
400 1.2733702897394e+02 1.4567250422235e+04 1.1197258368227e+02 9.7538939604022e-04
401 -9.3200348681456e+02 1.9712902205012e+04 8.9054010870164e+01 1.3629910569695e-03
402 -6.1478626957769e+02 1.9108654641905e+04 2.1291679816176e+01 1.7438696993054e-03
403 -7.8825930578397e+02 1.7232592960063e+04 -3.4249986271946e+01 2.5048719835954e-03
404 -9.2857111252713e+02 1.9310352858385e+04 8.9499493216360e+01 2.7055627234958e-03
405 -8.9474319742773e+02 1.8383038130643e+04 8.7198839398057e+01 2.4493224737928e-03
406 -7.0319820569670e+02 1.7125420489568e+04 8.2577520694637e+01 2.2027404622873e-03
407 -6.4233486508293e+02 1.6265882687860e+04 1.1827297006784e+02 2.2255568423521e-03
408 -5.7808410251170e+02 1.8965456946725e+04 9.3007388297846e+01 1.7540161399413e-03
409 3.8703477933347e+02 2.1428844571801e+04 8.8520739763174e+01 4.9073856243176e-04
410 -1.6464275850247e+03 2.8320484757674e+04 9.2812942153178e+01 2.0661809984289e-03
411 -2.0337074665698e+03 2.5189919877047e+04 9.7412296067827e+01 2.6639597394925e-03
412 -2.0186358637191e+03 2.5838900302257e+04 8.9521025660982e+01 2.7516972329583e-03
413 -1.6482783362814e+03 2.8036831797586e+04 8.8516979882201e+01 2.0588717633098e-03
414 -1.6858292121837e+03 2.5552966643014e+04 7.9103753750105e+01 1.8872676830619e-03
415 -1.7040967353926e+03 2.5140554135861e+04 -8.7546951534643e+01 2.2284048818467e-03
416 -1.0778027505346e+03 2.4018348224451e+04 8.2733071853164e+01 9.4392906113968e-04
417 -8.7416016008719e+02 2.2920501327211e+04 9.0908111254375e+01 2.5349411871094e-03
418 -9.0512513542583e+02 2.4513330587442e+04 9.3569408563263e+01 1.4175841312970e-03
419 -8.8857283930989e+02 2.1653562012092e+04 8.7816362214233e+01 1.5815922130006e-03
420 3.6785078736577e+02 1.6519111271552e+04 9.5506895042440e+01 8.1125741229471e-04
421 1.7745731300217e+02 1.9158840685768e+04 8.9966474987320e+01 6.8502977047853e-04
422 -3.5762426792409e+02 2.0200247250144e+04 9.0300731060587e+01 1.2514475180901e-03
423 -2.6047181667812e+02 1.9353152006291e+04 -7.8111787679376e+01 1.1854478875516e-03
424 -4.3709190595487e+02 2.1215763811769e+04 9.3307558525289e+01 1.1612272978556e-03
425 -5.4959351650602e+02 2.0330738530566e+04 8.5190815590759e+01 1.5800901499071e-03
426 -1.1471572110221e+02 1.6344137270702e+04 1.2633166580127e+02 1.4812869100762e-03
427 -2.2165534833316e+02 1.6936307217474e+04 8.4638215538170e+01 1.3842266063972e-03
428 1.9194662371881e+02 1.5430291639571e+04 9.3114908161517e+01 7.7810341584250e-04
429 5.7862969003898e+02 2.1394289247214e+04 8.8680999940064e+01 4.2136789088458e-04
430 -1.9851673684947e+02 2.0999385228908e+04 9.0914749290516e+01 8.8005126851395e-04
431 -4.4028154320275e+02 2.0452339087519e+04 -9.0650696703895e+01 1.0188862047082e-03
432 -3.7310501625675e+02 2.1788351576451e+04 8.5887039471523e+01 8.0399579123383e-04
433 -7.3514351808510e+02 1.6673232931454e+04 -4.6600916384192e+01 2.0756855213989e-03
434 -7.6579992512845e+02 1.7454022179555e+04 9.2531161639686e+01 2.4205623799352e-03
435 -9.9509975206498e+02 1.7360542925790e+04 8.4314866854561e+01 1.8075723375711e-03
436 -1.0918670785778e+03 1.7352574953764e+04 9.5840136639243e+01 2.3852142389377e-03
437 -9.7662285394647e+02 1.6793540753998e+04 8.5866779781063e+01 2.3564990152362e-03
438 -9.9127385135487e+02 1.5712704600001e+04 4.4716766732782e+01 2.2324238105231e-03
439 -7.5068814839680e+02 1.6232461232789e+04 6.5805176793067e+01 2.1527625985631e-03
440 -3.6505955550776e+02 1.5283374005963e+04 9.2247346949907e+01 1.6544310293105e-03
441 -5.5457237986855e+01 1.1244994842021e+04 -2.0208774429982e-01 1.6620304173781e-03
442 2.7106315827559e+02 1.7726014319467e+04 9.7370063517644e+01 7.9530914737067e-04
443 2.0287596400366e+02 1.6559782686035e+04 9.7303406748020e+01 9.5097922551857e-04
444 1.9279713395082e+02 1.4123467279157e+04 7.8199882701616e+01 1.2864442569847e-03
445 -1.1122301924669e+02 1.3484684561267e+04 8.8133366953316e+01 1.9256961249092e-03
446 -4.5444082040634e+02 1.4449706343751e+04 -8.4942566303415e+01 2.3009586513484e-03
447 6.5478866751712e+02 1.4404641331473e+04 8.1517318300813e+01 7.2235031594204e-04
448 -5.1897845984357e+02 2.3341243319143e+04 8.1772532359775e+01 1.0769061574288e-03
449 -6.2607492920928e+02 2.4239887536347e+04 9.0130011923926e+01 1.2416972816218e-03
450 -5.4588220172426e+02 2.1282433342536e+04 9.3040465968783e+01 1.4120638791495e-03
451 -4.2448458943089e+02 1.9688943220138e+04 -7.2043244479521e+01 1.4463746720790e-03
452 -1.1934723454731e+03 2.1478531019038e+04 -9.1679005855925e+01 1.9271169102639e-03
453 -4.2662358481267e+02 1.9871491978412e+04 9.2031043391441e+01 4.6688874530045e-03
454 -4.2593609895257e+02 2.1959652337135e+04 8.8653192252755e+01 3.2468208905652e-03
455 -4.1130445965241e+02 2.0888789318959e+04 8.4748878656438e+01 1.0875604812249e-03
456 -9.5073344877921e+02 2.5777453150302e+04 9.0787873829505e+01 1.3884402280436e-03
457 -9.5525904541042e+02 2.5750032726420e+04 9.1096580810770e+01 2.8370516244466e-03
458 -6.6709755906562e+02 2.0607631691170e+04 9.8635310663854e+01 1.6253352829990e-03
459 -6.5003561339738e+02 1.9150325790335e+04 8.4630570565238e+01 1.4558307034005e-03
460 -1.1621715810911e+03 2.2585385555183e+04 1.1257150540878e+02 1.8189188322735e-03
461 -1.0835674866724e+03 2.0880924129669e+04 9.2995103514930e+01 3.1486160721854e-03
462 -1.0268075326398e+03 2.1912949373478e+04 8.8412924630958e+01 3.7890795930286e-03
463 -8.7144777103545e+02 2.0790591298494e+04 8.4285758562335e+01 1.5298017755013e-03
464 -9.3543965121844e+02 2.1426543926763e+04 9.0365436187918e+01 1.4961362533348e-03
465 -9.7434692898832e+02 1.9966705225816e+04 -1.3009675859119e+02 2.0189743444626e-03
466 -9.3563496653946e+02 2.1027760233732e+04 9.0743616318961e+01 2.0026837842830e-03
467 -1.5442918311509e+03 1.6006271068873e+04 8.9414740296173e+01 1.7616704445467e-03
468 -1.5558677718292e+03 1.8196177632151e+04 -6.9241658140895e+01 1.8728274822153e-03
469 -1.4826844504423e+03 1.8457022318510e+04 8.9198837063681e+01 2.5655204135704e-03
470 -1.3856882933640e+03 1.6720969460730e+04 -7.8909722009150e+01 2.5180934537571e-03
471 -1.7202701722769e+03 1.6406510211520e+04 8.7688601025499e+01 1.8545152933817e-03
472 -1.7823971581480e+03 1.7742472658251e+04 9.1142275541795e+01 2.6502281977845e-03
473 -1.8603648650786e+03 2.0208519398964e+04 -8.4124030081786e+01 2.6402272090510e-03
474 -1.6991609022758e+03 2.1099565494359e+04 8.2942614082637e+01 2.2963682016856e-03
475 -1.1633934700774e+03 1.7859277562648e+04 8.8506086528226e+01 2.7783963398476e-03
476 -1.2599798627273e+03 1.7154332682544e+04 -1.0700632881796e+02 2.7461720894135e-03
477 -1.1603351608602e+03 2.0757988802732e+04 8.5704603984373e+01 2.1448632555399e-03
478 -1.4707925250693e+03 2.2043422732479e+04 9.3358610439826e+01 2.4858050260433e-03
479 -1.3730123437510e+03 2.2814804098064e+04 8.6966591001857e+01 1.9085331584000e-03
480 -1.4488142341890e+03 2.2848761915477e+04 9.0345270040462e+01 2.3044447025562e-03
481 -1.5933337827469e+03 1.6870547645653e+04 3.8444627433197e+01 3.0467001382317e-03
482 -1.7035816629573e+03 1.7293670045154e+04 8.8874625263275e+01 4.5176113185687e-03
483 -1.6945374695789e+03 1.7242232398112e+04 8.7642997476474e+01 2.7759199625885e-03
484 -1.9923673281156e+03 1.7488188526846e+04 9.8596260348888e+01 2.9275095175887e-03
485 -1.2088264058293e+03 1.7712533613520e+04 6.4206002147069e+01 1.2307683875140e-03
486 -1.0685734562767e+03 1.7219399206188e+04 7.9752210423865e+01 2.1485370066731e-03
487 -7.5246842382706e+02 1.3910437772544e+04 7.6196439454366e+01 2.4723757740747e-03
488 -7.5929003927544e+02 1.3359569393453e+04 -5.9417346083060e+01 2.5572723577389e-03
489 -6.8120855547157e+02 1.7555511277271e+04 -6.1128189963451e+01 2.2676023746432e-03
490 -7.7339120386894e+02 1.6717784094557e+04 9.3364757045632e+01 2.5673889668337e-03
491 -6.4433759703754e+02 1.7867447070878e+04 8.8840426104926e+01 2.1015252833695e-03
492 -5.8373823814560e+02 1.7031031321074e+04 7.8550137652158e+01 2.1604724998969e-03
493 -7.6235360783138e+02 1.6054425746391e+04 9.4895765379137e+01 2.5693147372878e-03
494 -4.9286423359751e+01 1.6598749893230e+04 -9.4104412467473e+01 1.3467534876329e-03
495 1.6483303400078e+02 1.8707707266204e+04 8.4086027984071e+01 8.2300969855399e-04
496 -1.1855425059550e+02 1.7059368568053e+04 9.0095972449314e+01 1.3662699839353e-03
497 -1.9022796968391e+02 1.7564802577010e+04 8.5510378463527e+01 1.1379232726860e-03
498 -9.5983199778689e+02 1.4750458998352e+04 1.1694747225166e+02 2.1134950999648e-03
499 -5.5447110581290e+02 1.7249568439505e+04 1.6803960829274e+01 1.1159045273348e-03
