0 -5.1362570097586e+02 2.2882215643630e+04 8.9819545647607e+01 3.4161971435113e-03
1 -8.4072962479562e+02 2.3811388352078e+04 8.7896546097236e+01 1.3954857799100e-03
2 -6.8076977868495e+02 2.2349727929920e+04 8.8397986483599e+01 1.3103659512403e-03
3 -1.7980460036563e+03 2.4476294798969e+04 9.0112261058573e+01 5.5052244480440e-03
4 -1.8682578597531e+03 2.3419661967747e+04 1.3041283054467e+02 2.7990683654390e-03
5 -1.1087017969408e+03 3.0963050313743e+04 9.3126899790146e+01 1.8069912072301e-03
6 -1.2036609247535e+03 3.1773665050172e+04 8.9590988433535e+01 4.8975546780781e-03
7 -1.1745315223116e+03 3.1215156778146e+04 8.7292802595249e+01 2.8386792669251e-03
8 -1.3072721227731e+03 3.1423446699092e+04 9.5183925693198e+01 2.8510684959409e-03
9 -6.9745650811565e+02 2.6316580370178e+04 8.9886329832977e+01 3.2959886794953e-03
10 -1.2222275335413e+03 2.5325439817180e+04 9.0794809113727e+01 2.9199731656985e-03
11 -4.5599685670422e+02 2.7266801584961e+04 8.0045569801611e+01 3.7754611826957e-04
12 -1.6608997529413e+03 2.8469003874660e+04 8.7553640269333e+01 1.8696131381426e-03
13 -1.4207993261131e+03 2.7630340896116e+04 8.0352326696816e+01 1.6053748370567e-03
14 -1.4282350865678e+02 2.6189628877381e+04 9.0935178219945e+01 1.6091269800318e-03
15 -6.9039559528482e+02 2.7700303476261e+04 8.9441426390835e+01 2.6238657076555e-03
16 -5.1718141155860e+02 3.3545956610839e+04 9.3284297018076e+01 3.3114817712623e-04
17 3.0445221544545e+02 2.6895578106218e+04 -8.6314863404025e+01 3.0928784232716e-04
18 -1.7935857993813e+03 2.3263353713375e+04 9.4046664644094e+01 2.7409302341536e-03
19 -1.8145417770039e+03 2.3823281706353e+04 9.3294505502419e+01 2.7293056520009e-03
20 -1.6928406387051e+03 2.4818894700934e+04 8.9588804707035e+01 4.9250560738831e-03
21 -1.7349108423742e+03 2.6281305079954e+04 9.0727555644562e+01 4.0302238303868e-03
22 -1.2694135269778e+03 2.7225471997241e+04 8.8690300238587e+01 1.9683222264653e-03
23 -1.2554225064072e+03 2.5004704792525e+04 -7.8757223569657e+01 1.6686239511381e-03
24 -6.6116405841156e+02 1.9357060404614e+04 -1.1026218378829e+02 1.7008253533049e-03
25 -7.3295025248907e+02 2.1743865598191e+04 7.8813513114461e+01 1.2780333962113e-03
26 -8.4768067028851e+02 2.1327604273550e+04 9.1140756432704e+01 2.5123570821664e-03
27 -1.2437152391055e+03 1.9975320423821e+04 1.0702595380096e+02 2.4612507883194e-03
28 -1.0168035196667e+03 2.0076447120107e+04 7.4356391089128e+01 2.1822592423651e-03
29 -1.4676136704599e+03 2.2726062686295e+04 9.1866285268738e+01 2.3017429840278e-03
30 -1.5636502160630e+03 2.2675081793013e+04 9.9578014521513e+01 1.7174759819128e-03
31 -1.4027221386177e+03 2.1661604417718e+04 8.8669148174989e+01 2.7378627657547e-03
32 -1.3667759708389e+03 2.1106547255071e+04 -6.6643183699962e+01 2.5292456747045e-03
33 -1.6866468778001e+03 2.4533460726713e+04 -1.0782502130485e+02 2.4746417671505e-03
34 -3.5746690890090e+02 2.6568372252678e+04 -5.0737629677236e+01 4.1314957343542e-04
35 -6.8411612090060e+02 2.7822466079191e+04 9.3545859724065e+01 5.3824778336619e-04
36 -6.3174230158986e+02 2.8513580935351e+04 8.9303278429320e+01 2.3830527410418e-03
37 -6.1748510634146e+02 3.1328380492772e+04 9.4611574577766e+01 1.5799188688475e-03
38 -8.5915954023919e+02 1.8488312129035e+04 8.9900632293947e+01 4.8612533696465e-03
39 -9.0051693693956e+02 1.8089599208513e+04 9.4105661855385e+01 2.2780030196029e-03
40 -1.3165560336696e+03 2.1474254785222e+04 7.9640814529693e+01 2.1362756046884e-03
41 -1.3953447027508e+03 2.1810266549602e+04 9.1305730420036e+01 2.4292360516662e-03
42 -1.0049857251600e+03 1.9509075737548e+04 9.2232578781757e+01 2.1599448676331e-03
43 8.0817418146224e+01 2.0604759318871e+04 8.5312812973249e+01 6.1846494908165e-04
44 6.7095201853295e+02 1.3958852703320e+04 8.9680324537352e+01 2.9557585873742e-03
45 -5.4516875105385e+02 2.0364897311452e+04 9.3638565988294e+01 9.9786233397896e-04
46 2.9831106840694e+02 1.9889182019632e+04 8.9445302277778e+01 2.6354636308815e-03
47 -9.7724108550359e+01 1.9103209691839e+04 8.3361331519247e+01 9.3810247696361e-04
48 -1.6162225276576e+02 2.0386591670722e+04 8.9802244862355e+01 3.5862738786812e-03
49 -1.0202236655125e+03 2.6032056426660e+04 9.1046699041143e+01 2.1662316382937e-03
50 2.4385933958733e+02 2.6338365193770e+04 8.8042653764421e+01 4.0298789997799e-04
51 -1.2455257415582e+02 3.0820567882861e+04 9.0141340501505e+01 5.2658497213138e-03
52 -8.4104263735910e+02 2.9052290226417e+04 8.9293288611538e+01 2.5166315674014e-03
53 -1.2119440500258e+03 2.6779081623594e+04 8.8520466498766e+01 1.7436619506721e-03
54 -1.5444287341859e+03 2.6790240003456e+04 8.1103460448691e+01 1.5793684516616e-03
55 -1.7006436636111e+03 2.7293258580607e+04 9.4408068712223e+01 1.8842808000361e-03
56 -7.5519336597756e+02 2.3412678114260e+04 8.2530170053645e+01 1.2002910447215e-03
57 -6.4759621928415e+02 2.3665122816530e+04 8.4274614485850e+01 6.1231414407976e-04
58 -6.2994315644059e+02 2.9130102461296e+04 9.0495419445910e+01 2.7517817579726e-03
59 -8.6109967984367e+02 2.4440628251056e+04 9.0734526082073e+01 2.4563907248161e-03
60 -4.8390328388048e+02 2.0059283420217e+04 8.7428369084534e+01 1.3631236697462e-03
61 -4.5353307844174e+02 1.9835593059425e+04 -7.2232191254522e+01 1.3451062061512e-03
62 -4.9176804646903e+02 2.1056800220250e+04 9.2768747506693e+01 9.6103179865674e-04
63 -4.3178394680808e+02 1.7949990308082e+04 7.9215540652510e+01 1.4475471610390e-03
64 -2.8206387553992e+02 2.1749704603192e+04 8.4797929229701e+01 7.1089728874886e-04
65 1.7248628443214e+02 2.5935768944514e+04 9.1643142756419e+01 5.1055648853647e-04
66 2.1618271545043e+02 2.5447243173957e+04 8.8817833526278e+01 1.0437361966677e-03
67 -7.3166563392618e+02 2.6380728205344e+04 1.0910089124263e+02 6.4838648575127e-04
68 -1.5202122577705e+03 2.8122921821636e+04 9.0557320192218e+01 3.5946623194050e-03
69 -1.6821365223553e+03 2.6095406598306e+04 1.2052343021668e+02 1.1682288144871e-03
70 -1.5270162177794e+03 3.0965627517737e+04 9.5748679219369e+01 2.3616606700324e-03
71 -1.5649439902941e+03 3.1143307862312e+04 9.8502557777207e+01 2.6461524138503e-03
72 -2.2783796991104e+03 3.0616697445455e+04 9.0896967950639e+01 2.3844508221056e-03
73 -1.9063501964964e+03 2.9054079489423e+04 9.4172125476095e+01 1.9843999478205e-03
74 -1.4946802900515e+03 2.6800945365082e+04 1.2123311354390e+02 1.7476262264920e-03
75 -1.4772445854166e+03 2.6778647488713e+04 1.1771854344211e+02 1.3142829708324e-03
76 -1.8527492622175e+03 2.9664721329711e+04 8.2013325406487e+01 2.0644300408979e-03
77 -1.9284906947916e+03 2.9085824863361e+04 -9.2938824826592e+01 2.2581315603709e-03
78 -1.1530890859427e+03 2.7338841424090e+04 9.0185790750695e+01 3.8271507145458e-03
79 -1.2643565111909e+03 3.1178067452175e+04 9.3743785871595e+01 1.6944703210123e-03
80 -1.1941541718516e+03 2.8269873546444e+04 9.4551056430647e+01 1.0932727321903e-03
81 -1.7724415972586e+03 3.1245852078634e+04 8.6619982469765e+01 2.0237954431512e-03
82 -1.8449504806707e+03 2.8726831537648e+04 9.0000899170061e+01 5.0375578213700e-03
83 -1.8514669556109e+03 2.9846890913891e+04 9.0245952691940e+01 4.7481415171007e-03
84 -1.7564346486187e+03 2.9685428967298e+04 8.6271025985481e+01 1.9090177042013e-03
85 -1.9014337380212e+03 3.0185410377264e+04 9.1741438721097e+01 2.2257457614888e-03
86 -1.8603781685226e+03 2.8440124133875e+04 -9.2544632227868e+01 1.7251652293364e-03
87 -1.8017690414604e+03 2.9124974861349e+04 8.4574203933421e+01 1.9071863160446e-03
88 -1.4313508065053e+03 3.2490576580209e+04 9.0616320959221e+01 3.3847553968453e-03
89 -1.3786915624026e+03 3.1147661526205e+04 8.3066096046620e+01 2.8280598394178e-03
90 -1.2232208780478e+03 3.1838820599964e+04 9.2668587888941e+01 2.4677132916926e-03
91 -1.2015099725511e+03 3.2191190259203e+04 9.0828208264951e+01 3.4183191965056e-03
92 -9.6390606407215e+02 2.7158199838232e+04 -8.5513744587533e+01 9.7122526706285e-04
93 -9.1179262522115e+02 2.2978101226572e+04 7.5181675338139e+01 1.1290930506817e-03
94 -8.5573211078941e+02 2.4351705482338e+04 6.5282245015654e+01 1.1952666240581e-03
95 -4.8797806031343e+02 2.4445453601809e+04 9.9024265670785e+01 3.3011532021485e-04
96 -1.2431061734781e+02 2.2570944269946e+04 9.2550003734664e+01 3.1428588867335e-04
97 -8.1123145180348e+02 2.3218545032713e+04 9.4426434151556e+01 1.2878932582784e-03
98 -1.6088582900432e+03 2.4712335720290e+04 8.5023681760696e+01 2.3741541038186e-03
99 -1.6265088034251e+03 2.4097874709470e+04 -8.9338491483666e+01 2.2840809728197e-03
100 -8.6217614015091e+02 3.1053985976180e+04 9.4309254716629e+01 1.5725760291816e-03
101 -1.8530437103960e+03 3.2072975545703e+04 9.1689650327064e+01 1.1047654443766e-03
102 -1.2092617635403e+03 2.7877730353868e+04 9.3441449014945e+01 3.5321267429091e-04
103 -5.8419868669570e+02 3.0572660856272e+04 -8.5622409511278e+01 1.0604710096108e-03
104 -1.9231809245371e+03 2.7985873688457e+04 1.0502761085505e+02 2.3973458952203e-03
105 -1.8734973378857e+03 2.8742673225168e+04 9.2898434239186e+01 1.8669933001259e-03
106 -1.5507691745441e+03 2.9906964819742e+04 8.2048554079327e+01 1.5602018801681e-03
107 -1.6668697928103e+03 2.8231509232901e+04 8.9032820386812e+01 2.0417347614233e-03
108 -1.3383111790227e+03 3.0534768947792e+04 9.3014784567717e+01 1.8806499818310e-03
109 -8.5455522420399e+02 2.5661799045080e+04 9.0929603503725e+01 2.3505755697948e-03
110 -1.2681196415039e+03 2.4095027574808e+04 -7.6368013087157e+01 1.8392199311350e-03
111 -1.4490933352406e+03 2.6865717342941e+04 8.9016805494414e+01 2.3144326940220e-03
112 -8.2973153691205e+02 2.1732414018841e+04 9.6160952058992e+01 7.9701407124970e-04
113 -1.4990954481302e+03 2.8495713552628e+04 9.6275960839875e+01 9.3247894924805e-04
114 -1.5322804994370e+03 2.8957075247567e+04 8.9693652113386e+01 4.0444361708810e-03
115 -1.3864433796991e+03 2.7923463501823e+04 1.3970887330352e+02 7.7089112378263e-04
116 -1.5701868525759e+03 2.9453573037877e+04 9.1764451165165e+01 1.2325265008881e-03
117 -1.3122256740845e+03 2.6351423934615e+04 8.6560927075110e+01 1.4451362331426e-03
118 -1.5890804698173e+03 2.7803985956498e+04 8.8224801883361e+01 1.9485967724120e-03
119 -1.5640985828269e+03 2.7164982597950e+04 8.4276169295691e+01 1.9232674518286e-03
120 -1.1936504413653e+03 2.7061125763997e+04 8.9214455388897e+01 2.8926682618530e-03
121 -1.5714261957927e+03 2.8683179664273e+04 8.6382249124376e+01 1.6222940574558e-03
122 -1.3047081875805e+03 2.4985893768786e+04 8.6156384653131e+01 1.5527444934413e-03
123 -1.3800531060996e+03 2.8652989552032e+04 8.8417654098891e+01 1.7110353726751e-03
124 -2.3398877189319e+03 2.7042948107385e+04 8.7382513434946e+01 2.8621566600513e-03
125 -2.3699315834597e+03 2.5997245990578e+04 8.3693295392845e+01 2.7821962434876e-03
126 -1.4702827093748e+03 2.6549943141700e+04 9.0950673806970e+01 3.0875758699062e-03
127 -1.5069841375082e+03 2.6846043452819e+04 9.2888397729155e+01 1.9435546011440e-03
128 -1.6176846572154e+03 2.7205776197430e+04 9.5573502190412e+01 1.5521975614034e-03
129 -8.8534185839247e+02 2.7701127727755e+04 9.0682382358865e+01 2.2193631122796e-03
130 -1.3153738309423e+03 2.9299203532111e+04 -8.6082638287608e+01 9.5551454752347e-04
131 -1.3934952744023e+03 2.6588923025352e+04 9.6841805453568e+01 1.3868142596365e-03
132 -1.3514628411079e+03 2.6986991395105e+04 9.2527874925483e+01 6.9366073601809e-04
133 -1.1686032639148e+03 2.4721075644708e+04 -9.2072935947609e+01 1.5188695062173e-03
134 -1.2162453433041e+03 2.6494983048942e+04 8.6855689007707e+01 1.4235630275091e-03
135 -2.0900388490897e+03 2.4040165072599e+04 -5.2627253766488e+01 2.8577218398821e-03
136 -2.1038553788785e+03 2.4604253837655e+04 8.1336998316708e+01 2.8501427893823e-03
137 -1.8757511826703e+03 2.4883538278838e+04 -1.1014625664131e+02 1.8538419603558e-03
138 -1.8520783196418e+03 2.5961295993890e+04 9.2478890817369e+01 2.1940938488881e-03
139 -1.0543153427789e+03 2.3833821736325e+04 -1.4499823497099e+01 1.5363888165196e-03
140 -1.1222920868538e+03 2.3193737318642e+04 -9.1167334558502e+01 1.1270640554306e-03
141 -5.6926075885469e+02 2.6383858912049e+04 8.9044478742895e+01 1.8778028085315e-03
142 -8.7049363778306e+02 2.6145727512535e+04 9.0998163366692e+01 1.9928505737341e-03
143 -2.2165223376239e+03 2.0920636292209e+04 -9.8546653791947e+01 2.6026962703241e-03
144 -2.2159379058672e+03 2.2327284029240e+04 9.1210990462563e+01 2.6222458800771e-03
145 -1.0856408803768e+03 2.4313993818894e+04 1.2311317718047e+02 1.1148437858033e-03
146 -2.2799183904541e+02 2.0841124131045e+04 -7.9150461775479e+01 8.9698005863990e-04
147 -8.5638344603712e+02 2.3274340811764e+04 8.9848280008512e+01 3.6923500722268e-03
148 -2.1478224864353e+03 2.5139944911311e+04 9.7045628770438e+01 2.6713542184077e-03
149 -2.1265947154546e+03 2.4772959594122e+04 1.0854834959716e+02 2.6938774663744e-03
150 -1.3558058217675e+03 3.0434349589449e+04 9.1183081607935e+01 1.9623445726803e-03
151 -9.3465126486286e+02 2.4847178342547e+04 8.8438618498133e+01 8.9159408050579e-04
152 -4.1109877800455e+02 2.2140076406934e+04 9.3917506890568e+01 9.9198598127876e-04
153 -1.3541974146932e+03 3.2353387274175e+04 8.4003984918410e+01 9.4767746272212e-04
154 -1.3640414683897e+03 3.0667907683209e+04 9.0533541257283e+01 3.5120266899078e-03
155 -1.1625239225751e+03 2.9438606001523e+04 -9.4590851305154e+01 1.0731647717749e-03
156 -1.0187934590544e+03 3.1320110123260e+04 8.5847584700349e+01 2.8578750228112e-03
157 -1.3719765155671e+03 2.8240590660908e+04 9.3962232458085e+01 1.2233792112180e-03
158 -1.8370750775770e+03 2.8481886600743e+04 8.8751421388326e+01 1.7034387154702e-03
159 -1.2918140338128e+03 2.6988673542168e+04 9.0116042351188e+01 3.2005548938390e-03
160 -9.1709819623018e+02 2.6559033007843e+04 1.0734572892357e+02 1.0887863067352e-03
161 -1.4906227738776e+03 2.8162777369947e+04 9.9009096276749e+01 1.5645299718993e-03
162 -2.0895321280654e+03 2.8865222937928e+04 9.3678316449087e+01 2.4704027539888e-03
163 -2.1750097977027e+03 2.8916401641251e+04 1.0214532108854e+02 2.5055136503712e-03
164 -1.6324108744081e+03 2.9546519116866e+04 8.9254401321351e+01 3.3775907226718e-03
165 -1.9224566412245e+03 2.8012735287689e+04 9.0769269198553e+01 3.9932245289481e-03
166 -1.2282848385103e+03 2.7299798776654e+04 8.5806314266490e+01 1.4317045092205e-03
167 -1.2542611853080e+03 2.5754866697615e+04 2.8327937739959e+01 1.6887186991196e-03
168 -1.4138024486883e+03 2.4742913184113e+04 7.8041436264666e+01 2.0984004050755e-03
169 -1.5313387992843e+03 2.4473412416745e+04 1.5639111201018e+02 4.5631970195141e-04
170 -2.1214589405272e+03 3.0289211846709e+04 9.6114195718959e+01 2.1962360971357e-03
171 -1.9407648557826e+03 2.9458250223994e+04 9.5106194319951e+01 2.1099017556599e-03
172 -1.9032660393551e+03 2.9791423987013e+04 9.2389935133194e+01 2.0253583162777e-03
173 -1.5648224589416e+03 3.1389866957480e+04 9.0269296623885e+01 5.5131797195684e-03
174 -1.5566279739071e+03 3.1137158732565e+04 8.9421189047786e+01 4.9511751663784e-03
175 -2.1744977167125e+03 3.2547882400525e+04 9.1010328574934e+01 2.1741959646388e-03
176 -2.1643520475040e+03 3.1177139275985e+04 9.2523061398411e+01 2.5019819722841e-03
177 -1.9578081056712e+03 3.0078564243940e+04 9.1841294868255e+01 2.1315714614254e-03
178 -2.3923205989248e+03 3.1053716080905e+04 8.8312190153888e+01 3.0536214580922e-03
179 -2.4667029961123e+03 3.0473284846924e+04 -1.3362057643154e+02 2.1568495938548e-03
180 -2.2261774339875e+03 3.3302128739908e+04 9.7994906181258e+01 5.3268823505922e-04
181 -1.8248672135024e+03 2.9891190584290e+04 9.5913704653404e+01 4.8766877489812e-04
182 -1.9312241856104e+03 2.8508451501240e+04 8.3871917505493e+01 2.3432949803115e-03
183 -2.0113424404977e+03 2.9148701980086e+04 9.2361579300952e+01 2.3049270686116e-03
184 -1.3611358134898e+03 3.1806817282426e+04 8.1909250576293e+01 1.5884880348876e-03
185 -1.4170347059013e+03 3.1705797805685e+04 9.0231196090448e+01 5.2430490728981e-03
186 -1.3493448316702e+03 3.1633492554771e+04 9.1860213028704e+01 2.5580425484488e-03
187 -1.1969937686673e+03 2.9344097073473e+04 -8.4567665026541e+01 1.0748425111866e-03
188 -2.0311412117889e+03 2.8140599971709e+04 1.3190076460595e+02 1.8448624638399e-03
189 -1.9244161061076e+03 2.8426939270051e+04 8.3556303088366e+01 1.2550353182394e-03
190 -1.2885808642469e+03 2.7623824297396e+04 -8.6032391549614e+01 1.4851013299261e-03
191 -2.2415767504615e+03 2.6738130664671e+04 -6.3477873689052e+01 2.6896218437617e-03
192 -2.2723633302118e+03 2.7888693247276e+04 8.9350330645817e+01 4.6735828430200e-03
193 -3.0171240913984e+03 3.1513775455918e+04 9.4813305190067e+01 2.6240420289213e-04
194 -1.5490369689098e+03 3.1496360286032e+04 3.3314803151497e+01 2.8043489681590e-03
195 -1.5402997114262e+03 3.1638550584420e+04 6.9012156428974e+01 2.6919097092396e-03
196 -1.5828375319153e+03 2.8953166504476e+04 -8.7068604362081e+01 1.6779081056526e-03
197 -1.6999556756256e+03 2.8661814968568e+04 7.7196991267946e+01 1.6704768454209e-03
198 -1.8461599536689e+03 2.8823917383470e+04 8.9999504051388e+01 3.9572243990581e-03
199 -1.9762339067773e+03 3.1413671882687e+04 9.1872541465967e+01 2.4436404796011e-03
200 -2.0803230047787e+03 3.2212495829069e+04 9.4631509955078e+01 8.9335101778024e-04
201 -2.1583512651367e+03 3.2311565520491e+04 9.0784308526356e+01 2.9449145842677e-03
202 -1.8465106836373e+03 2.9191989310735e+04 8.7230471451825e+01 1.6084004389250e-03
203 -2.1032861123597e+03 3.1088685953629e+04 -1.7227468946231e+02 1.9351703821766e-03
204 -2.0464799732293e+03 3.1418801070960e+04 8.7234455757913e+01 2.5555948661317e-03
205 -1.7506641446249e+03 3.0652754352375e+04 8.8899235814897e+01 2.9134747931823e-03
206 -2.1281302059135e+03 3.1732978961494e+04 9.4606963291479e+01 1.5907429966236e-03
207 -2.1445980819186e+03 3.1332818973231e+04 -1.4748191808269e+02 2.3175763638126e-03
208 -1.7937354058392e+03 3.0196366896758e+04 1.6514531954842e+02 2.0985654381592e-03
209 -1.8168458916746e+03 2.5504063338592e+04 -8.9883630026980e+01 2.0360741823101e-03
210 -1.8082313140478e+03 2.5923994150790e+04 8.6469558330125e+01 2.5074242065011e-03
211 -2.2107386876172e+03 3.0623781396152e+04 9.6765393644793e+01 2.0964981071406e-03
212 -7.5765704727186e+02 3.0638251748607e+04 9.0563218283434e+01 4.7285941612889e-03
213 -6.6446181192737e+02 2.8756585473986e+04 9.9101934517138e+01 6.3799138822465e-04
214 -1.2577199842073e+03 3.0151810612121e+04 9.7738943826418e+01 1.9874904537657e-03
215 -1.6827603785826e+03 3.0651169678608e+04 1.8854486304291e+01 2.6847783411647e-03
216 -1.7292940758293e+03 3.0630433094834e+04 9.8897341347759e+00 2.6819869770839e-03
217 -1.4311988634393e+03 3.0761045007296e+04 -3.3126004644749e+01 2.7128284428930e-03
218 -1.5493595984147e+03 3.1464660310076e+04 9.6734026065430e+01 2.8232753277092e-03
219 -1.7678226392167e+03 2.8326109749901e+04 8.3701679437586e+01 1.7546205846174e-03
220 -1.2924617808274e+03 3.0053575126129e+04 8.9595755756751e+01 3.3265724649148e-03
221 -1.4632038237776e+03 3.0497963448596e+04 1.0604298274818e+02 2.4608900638578e-03
222 -1.3956324423386e+03 2.9215975541028e+04 -8.7784946694653e+01 1.3935845653222e-03
223 -1.4688054340245e+03 3.0909359697369e+04 8.8702874894881e+01 3.3824307382386e-03
224 -1.6027276569086e+03 3.2165446816809e+04 9.4531434341861e+01 1.9736049508193e-03
225 -1.7350155344451e+03 3.1320019182380e+04 1.2673166948799e+02 1.8667098218055e-03
226 -1.6920789151084e+03 3.1701353734459e+04 9.5437087757607e+01 2.1672523057552e-03
227 -1.5456464526622e+03 3.2273814627906e+04 -1.0877633161572e+02 1.5818553742070e-03
228 -1.4517345900091e+03 3.1946297611753e+04 9.2542660770952e+01 2.3289819017626e-03
229 -1.3708692111990e+03 3.2678288266033e+04 8.8721274191641e+01 1.7656814842764e-03
230 -1.7898396928373e+03 3.1503762079793e+04 -1.1366506254849e+02 1.5533632536242e-03
231 -2.0676558990426e+03 3.4919104150645e+04 1.0960779607373e+02 2.6495730378129e-04
232 -1.5057588661724e+03 3.2595465013966e+04 2.8324402215165e+01 1.1816013716747e-03
233 -2.2689809908510e+03 3.4657209382226e+04 8.7199490143802e+01 2.6748328575819e-04
234 -1.7532015621953e+03 2.7897605868428e+04 -9.4968952446403e+01 4.6685456768771e-04
235 -1.5409765918308e+03 3.1174645826242e+04 9.4180333489257e+01 1.9757628500492e-03
236 -1.5786674116154e+03 3.0449555116223e+04 1.6748139461108e+02 1.2715429167355e-03
237 -1.5595272383526e+03 2.7346952694452e+04 -9.1942124328663e+01 1.8409432602937e-03
238 -1.9832835894565e+03 3.2042512656377e+04 9.0718535342677e+01 3.7601991650641e-03
239 -2.0259562841693e+03 3.1390098751916e+04 9.6560495705387e+01 2.8373496392518e-03
240 -1.2592434684097e+03 3.0072808036372e+04 9.6864646003385e+01 1.8356269007265e-03
241 -1.4891025130738e+03 3.0013637119509e+04 9.1676568619658e+01 1.7761202505788e-03
242 -9.7140769323350e+02 3.2699575289766e+04 8.9660866672881e+01 3.7542413866227e-03
243 -1.4832951674806e+03 2.9249735741476e+04 -1.3701462821824e+02 4.4731534150102e-04
244 -1.5441382323786e+03 2.5999801366690e+04 9.4147604918397e+01 1.3001165936119e-03
245 -1.1391042490913e+03 2.6140157738233e+04 -6.5778385832284e+01 1.2227293203547e-03
246 -8.9474690601890e+02 2.9420947031998e+04 9.3264194623485e+01 8.2448481642894e-04
247 -1.7569519880960e+03 2.7055796722811e+04 9.3601876860035e+01 2.0509042638193e-03
248 -9.4906108771382e+02 3.1017020576421e+04 7.7703562306079e+01 2.6520598491152e-03
249 -1.0349373796279e+03 3.0168178374107e+04 -9.4770148418044e+01 2.0003191159133e-03
250 -1.4141868837855e+03 3.0570124484059e+04 8.6137076697786e+01 2.5591727451519e-03
251 -1.7504151252358e+03 2.9939509436492e+04 1.7298757214206e+02 1.8256841029495e-03
252 -1.5459023600888e+03 3.0589660357290e+04 8.7641267831324e+01 1.9885377673165e-03
253 -2.1240242653774e+03 3.2390084909402e+04 9.8091683687779e+01 1.4685638432337e-03
254 -2.0636516547851e+03 3.2777072458723e+04 9.2210413353305e+01 8.0845248832876e-04
255 -1.5560036706808e+03 3.4070271992036e+04 9.3606493491746e+01 2.8604787676791e-04
256 -1.9143467391225e+03 3.3241810164112e+04 1.0424047733215e+02 5.8774543812755e-04
257 -1.5093157091026e+03 3.2761035650211e+04 9.1579278370029e+01 1.0656120461333e-03
258 -1.4225205253355e+03 3.0879904784111e+04 8.3934543092359e+01 2.5104273439565e-03
259 -1.4828692129664e+03 2.9573219604949e+04 -9.1786428241302e+01 1.1388957930729e-03
260 -1.8617825806465e+03 3.1244551328442e+04 9.4713914303793e+01 2.6883728639213e-03
261 -1.8649356913807e+03 3.0967581013873e+04 8.7864105602178e+01 1.8938382640089e-03
262 -1.3730105544174e+03 3.1254523521565e+04 9.2362820981411e+01 2.1606882428847e-03
263 -2.1023894934284e+03 3.1046189733548e+04 -9.7098193580832e+01 2.7104349760587e-03
264 -1.9994478594902e+03 3.2346326250609e+04 8.8605735231444e+01 2.0471404037230e-03
265 -1.1221046523480e+03 2.9827487315232e+04 8.9421423587546e+01 3.5296862525653e-03
266 -1.7454138868740e+03 2.9288363637657e+04 9.5140633585785e+01 1.9018081119887e-03
267 -1.6648017946655e+03 2.7500801040750e+04 -1.0637912907091e+02 1.8227748319610e-03
268 -1.7065063144694e+03 2.8231429315221e+04 1.0596572920498e+02 1.9090761146495e-03
269 -1.7398537779541e+03 2.9017466085434e+04 9.4815758334600e+01 1.7572416554325e-03
270 -1.8055279278761e+03 2.6312211945592e+04 9.2841620566667e+01 2.2550165847832e-03
271 -1.7863954875283e+03 2.6058503564227e+04 9.2022824803317e+01 2.3383168563074e-03
272 -2.5426027346444e+03 2.8816306516582e+04 8.8544099462541e+01 3.1825947682946e-03
273 -2.5842673664144e+03 2.8142120677737e+04 9.2513387877925e+01 2.7633106996168e-03
274 -1.3032088177695e+03 2.5860748714185e+04 9.2055598324052e+01 1.3932462060393e-03
275 -1.4188739859261e+03 2.6030765615123e+04 9.8047869151151e+01 1.8022633765189e-03
276 -1.7728107463780e+03 2.6231779911043e+04 9.4735117106427e+01 7.2744513924962e-04
277 -1.1675221909613e+03 2.8005009552041e+04 9.6061548214369e+01 1.0624086710224e-03
278 -1.3550861792082e+03 2.7853546713350e+04 8.7020612588792e+01 1.2275075509146e-03
279 -1.9868965194471e+03 2.8491859634943e+04 9.7165199092697e+01 2.4085167645782e-03
280 -1.9709439740295e+03 2.8341265117462e+04 -8.9583185123890e+01 2.3428333973401e-03
281 -1.2286801769755e+03 2.6314276200156e+04 9.6065021392674e+01 1.5030918091457e-03
282 -1.8011533289415e+03 2.6981985648358e+04 9.0334881080267e+01 4.2296691089674e-03
283 -1.2519024601183e+03 2.7234330211734e+04 8.8324233326185e+01 1.4110159811559e-03
284 -1.1785136813804e+03 2.6031691703301e+04 9.3756217208969e+01 1.1110034727303e-03
285 -1.4446757298464e+03 2.4516200068261e+04 8.2406569429279e+01 1.1102202102519e-03
286 -1.3129353761598e+03 2.7567883114011e+04 9.4997328103583e+01 1.4890046017305e-03
287 -2.1008404766573e+03 2.8438365736858e+04 8.2562014143574e+01 9.9311619100660e-04
288 -2.1786691676182e+03 2.9496526789973e+04 9.3032359287784e+01 7.6466125302692e-04
289 -1.3739581522843e+03 2.2922332865113e+04 1.1153783129171e+02 2.2538036473067e-03
290 -1.3698742490920e+03 2.1713941625860e+04 -9.4012621682597e+01 2.2981506861838e-03
291 -1.5622659601049e+03 2.8394380955212e+04 8.9559097888782e+01 3.7378267412023e-03
292 -2.3824361181224e+03 2.8553238751496e+04 9.6761553364978e+01 2.1474437600940e-03
293 -1.2207079426842e+03 2.9948778063971e+04 9.1567614609661e+01 1.7986612777865e-03
294 -1.6601241683156e+03 3.1192081606208e+04 9.5456123324428e+01 2.8523486025814e-03
295 -1.6468679869498e+03 3.1835656105276e+04 9.1724380456339e+01 2.6073071939548e-03
296 -1.4165598349484e+03 2.8773826863341e+04 -1.0725780669247e+02 1.3261900872855e-03
297 -1.6522534230816e+03 3.3572857750480e+04 9.8301956157440e+01 4.1423952050891e-04
298 -4.6745327594909e+02 2.6282533783065e+04 9.2843453989980e+01 6.2092150468384e-04
299 -3.8105065147487e+02 2.1782040151379e+04 9.0802242032046e+01 2.4135579127223e-03
300 -6.6452353870029e+02 1.9039194317446e+04 8.9024076528623e+01 2.8668351982275e-03
301 -1.2226474897934e+03 2.7571929316970e+04 9.4523889215026e+01 1.3713673695839e-03
302 -1.1503328930243e+03 2.6941461529631e+04 8.8184987996637e+01 1.3482144310224e-03
303 -1.1544604690639e+03 2.3903317004383e+04 1.0153077990868e+02 1.8281462087290e-03
304 -1.1318650660295e+03 2.5971873803510e+04 8.9918403984315e+01 4.3289452879179e-03
305 -1.5960631909319e+03 2.7289940457160e+04 -8.4561550840178e+01 1.3229386761448e-03
306 -3.5242174459894e+02 2.7201526699865e+04 8.3292210913530e+01 5.2577069848386e-04
307 -1.9573109027785e+03 2.5416466729540e+04 -6.6832044420873e+01 2.3107900224689e-03
308 -1.3689030833837e+03 2.8318914575762e+04 9.9140020310313e+01 1.4175463489592e-03
309 -8.7925372480485e+02 2.7643791964907e+04 8.8116993239719e+01 7.3579459586912e-04
310 -1.3349478504790e+03 2.5037936540399e+04 9.3143918617907e+01 1.7555372226185e-03
311 -1.2083062214118e+03 2.3587879906923e+04 8.8090206404441e+01 1.9285855270438e-03
312 -1.0673158268518e+03 3.0892117963616e+04 7.0967096907180e+01 2.7654128236104e-03
313 -1.1068542047567e+03 3.0258599317324e+04 -7.3927302429388e+01 2.1108665178961e-03
314 -1.1938143964474e+03 2.6825574184058e+04 9.1068790766870e+01 1.3254266358558e-03
315 4.7344846301084e+02 2.7630940886668e+04 9.4980046274739e+01 2.8860758310148e-04
316 -6.4013042986808e+02 2.1243698461266e+04 -7.8705986079374e+01 1.3973937706935e-03
317 -7.0085310842189e+02 2.5836129008202e+04 8.4894410838809e+01 9.2890842983256e-04
318 -8.8075962949466e+02 2.9332463614724e+04 1.0715576153672e+02 3.4846562649044e-04
319 -1.2128293245595e+03 2.8113035566677e+04 1.0360212714119e+02 1.2707970310661e-03
320 -1.5895753797481e+03 3.1209700563288e+04 9.0226407741606e+01 5.1211575697541e-03
321 -1.5562817949623e+03 3.1721650555064e+04 8.8689282968228e+01 2.6622596404314e-03
322 -1.9157257774400e+03 2.6855076123261e+04 9.2428760440810e+01 1.2629542044614e-03
323 -1.4766032760299e+03 2.8665505225258e+04 8.8813041644046e+01 2.1129775363848e-03
324 -8.1357044942058e+02 2.7251991537414e+04 8.5429724081136e+01 8.8285915902767e-04
325 -7.5216692379897e+02 2.4476847019720e+04 9.4338220397597e+01 8.4537898490934e-04
326 -1.4494323862981e+03 2.3417738654837e+04 9.2491316648710e+01 2.2256116151790e-03
327 -1.3589945045371e+03 2.3555667108319e+04 8.8958869290851e+01 3.1731891378332e-03
328 -4.7991016920514e+02 2.5447887763819e+04 9.2912022159828e+01 4.9742633009396e-04
329 -6.9966328190545e+02 2.7602097762898e+04 8.9885283842568e+01 3.5812181324062e-03
330 -9.2388644391018e+02 2.7364106785930e+04 9.2677677892505e+01 1.0196775441126e-03
331 -1.2035193199709e+03 2.1278692919390e+04 -9.0511079791597e+01 2.2460054401536e-03
332 -3.5219825058024e+02 2.1586100032464e+04 1.0096815311507e+02 9.9398800105747e-04
333 -9.0409485914150e+02 2.4221997258336e+04 9.3621265954628e+01 1.2146060803928e-03
334 -7.0837279177918e+02 2.2234546317343e+04 9.4996062280878e+01 1.3807877988521e-03
335 -8.1948940118161e+02 2.5027894051132e+04 1.0002284986370e+02 1.1115868606431e-03
336 -6.2154810971742e+02 2.2957852279938e+04 8.9326830943686e+01 2.9751922402930e-03
337 -1.4536413959129e+03 2.5707799644886e+04 9.1602228800998e+01 1.8775939216971e-03
338 -1.4810914022038e+03 2.6273744082071e+04 9.2197770000639e+01 1.5976206618963e-03
339 -1.7945454237717e+03 3.2416691358567e+04 8.6106803632817e+01 1.2076019025094e-03
340 -1.3675897910119e+03 3.1828021323564e+04 1.0777047099293e+02 8.2702746299198e-04
341 -1.2896477535333e+03 3.2121894041020e+04 -9.2536259028702e+01 1.8661265997764e-03
342 -1.8313938237524e+03 3.3304505626530e+04 -5.9227056859481e+01 5.5562397874953e-04
343 -1.4949702735726e+03 3.2173796997968e+04 8.4269601123708e+01 1.7636749550116e-03
344 -2.2234624206827e+03 3.3289315325618e+04 9.7937913911527e+01 5.2691835571802e-04
345 -1.2491671569143e+03 3.1898018978911e+04 1.0293340174972e+02 2.3357713557328e-03
346 -1.2513620950051e+03 3.3150957245587e+04 9.3158809616343e+01 7.0652107308041e-04
347 -2.3199260339347e+03 3.3769485117998e+04 -2.9610332546579e-01 3.5082825940448e-04
348 -2.4370986918968e+03 3.3741177940042e+04 -1.5879874528584e+02 3.6050247289040e-04
349 -1.2005473846639e+03 3.0160498883814e+04 -9.9972199091985e+01 1.6844928847767e-03
350 -1.1220125026593e+03 3.0286671788048e+04 -8.1781988619040e+01 1.9162407265719e-03
351 -7.7231144222211e+02 2.9836469453499e+04 9.2809118978704e+01 1.4530466777027e-03
352 -1.5795354089801e+03 3.1060599457475e+04 8.8446481975540e+01 3.0471051724753e-03
353 -1.2315475980019e+03 2.9857436792612e+04 -9.0604288642532e+01 1.5326993860097e-03
354 -1.6076595884681e+03 3.2266199629714e+04 8.2820253125541e+01 1.7157982372718e-03
355 -1.6801751144722e+03 3.2537586050343e+04 8.8424134882593e+01 1.4627215160887e-03
356 -1.7235174058453e+03 3.1607307023387e+04 6.4726835487871e+01 1.7285081682904e-03
357 -1.8357190192349e+03 3.1134699999209e+04 -9.2092178182368e+01 2.8266139573303e-03
358 -1.4885417588613e+03 3.4247763528523e+04 9.2535777318565e+01 2.6822200915168e-04
359 -1.8465289005182e+03 3.4311403199005e+04 9.4455612318756e+01 2.6304348920982e-04
360 -4.8461621971712e+02 2.3290771345337e+04 9.4996280284720e+01 8.6194565257711e-04
361 -7.6813461025386e+02 2.4002779578730e+04 9.4523702571277e+01 1.1513509642241e-03
362 -1.2498366199611e+03 2.4223660316702e+04 -6.6425141968034e+01 1.7702217776468e-03
363 -1.4747728020548e+03 2.4099338267799e+04 -1.0188107971327e+02 2.2755396557633e-03
364 -1.4677643930384e+03 2.4489061354965e+04 -1.8101630984832e+01 2.2279141704222e-03
365 -1.1627865002968e+03 2.5792812908914e+04 9.3064292654124e+01 1.3098930628377e-03
366 -1.6486246689396e+01 2.3153937004525e+04 8.7102147229009e+01 5.2174777064579e-04
367 -1.3948954247509e+03 2.5403444614501e+04 8.6316619354548e+01 1.3144641577847e-03
368 -1.4868951272905e+03 2.4169368633960e+04 -5.5019337166690e+00 1.8482886975871e-03
369 -1.4874781665482e+03 2.5087207143607e+04 8.8992253156301e+01 2.8211467118600e-03
370 -8.1401102408670e+01 2.6207686001135e+04 9.1580499552807e+01 6.8230569180540e-04
371 -2.0426101614191e+03 2.9676300614148e+04 1.0696076639666e+02 1.7783094094908e-03
372 -1.0230429903183e+03 2.1319623087888e+04 -9.8069480717861e+01 1.8684833420438e-03
373 -9.8156520111022e+02 2.2957207002282e+04 9.2149787930112e+01 1.7170650843867e-03
374 -1.8103898238394e+03 2.4692702392935e+04 9.2087526139296e+01 2.0540052540527e-03
375 -1.7078843671803e+03 2.3230333739864e+04 7.8815108269502e+01 1.9865962104185e-03
376 -1.4774756567684e+03 2.3537015287810e+04 8.7266456734080e+01 2.0855617174979e-03
377 -1.2653704333981e+03 2.6368376129294e+04 9.4236133506622e+01 1.2247403296213e-03
378 -1.3600099507437e+03 2.5676114239988e+04 9.4121804481634e+01 1.0419403168662e-03
379 -1.5946896845262e+03 2.3276542446143e+04 8.9944198059239e+01 5.4296879651476e-03
380 -1.6033325435157e+03 2.2774256752049e+04 9.2307706778152e+01 2.2849841104311e-03
381 -1.5409242705363e+03 2.2163105060035e+04 -1.0038767638964e+02 2.5338051432800e-03
382 7.5324904278730e+01 2.1822421466419e+04 8.5279883334887e+01 3.1753909441811e-04
383 -1.0058894419668e+03 2.3069346260909e+04 9.1954364841255e+01 1.7655316481276e-03
384 -1.9066157269500e+03 2.7095997309323e+04 -8.4878717898498e+01 1.4279026513093e-03
385 -1.9502568629997e+03 2.7926848169367e+04 9.2676159849325e+01 1.6295543952405e-03
386 -1.8356795326166e+03 2.7497777600262e+04 7.4383066044853e+01 1.5225328354243e-03
387 -1.1404030303775e+03 2.3749819243353e+04 1.2039156322482e+02 8.3425505522695e-04
388 -2.1566783442973e+03 2.0848431949005e+04 -3.8801390075526e+01 2.7530218827288e-03
389 -2.2654025921988e+03 2.1459990030109e+04 9.7857751870679e+01 2.8178347965824e-03
390 -2.1314680737004e+03 2.8005253540186e+04 -1.0717098671608e+02 1.8176889399081e-03
391 -1.6676777322285e+03 2.6009564382970e+04 8.9780294223285e+01 4.0572529803538e-03
392 -1.2326062855699e+03 2.6256701408353e+04 -1.0387375358540e+02 1.1118551880655e-03
393 -1.4957085929269e+03 2.5839909130247e+04 -9.4607591706687e+01 1.2107337105956e-03
394 -1.3399566149790e+03 2.3855680786949e+04 9.1411252108668e+01 1.8252181345366e-03
395 -1.1578203906511e+03 2.2457230241046e+04 5.2064998622346e+01 1.8795637316646e-03
396 -1.9032826937644e+03 2.5483893638642e+04 9.8382131333653e+01 8.8426883150953e-04
397 -6.4263032700504e+02 2.3490656442057e+04 8.6845926752855e+01 9.5002460561674e-04
398 -2.3321868043873e+03 2.4679989890438e+04 1.2044935014041e+02 2.8864404561790e-03
399 -2.3402446522468e+03 2.4672693516387e+04 1.2608842938500e+02 2.7363172585219e-03
400 -1.1341122373112e+03 2.1536917235512e+04 5.6478048749402e+01 1.9571614597999e-03
401 -2.1762647911729e+03 2.6280726799798e+04 9.8267353804282e+01 2.5329238987825e-03
402 -2.0810961923317e+03 2.7586399011878e+04 9.0504479765353e+01 4.4339791109527e-03
403 -1.3622535368946e+03 2.6985337360904e+04 9.7179047104386e+01 1.3747382516002e-03
404 -2.1048690594472e+03 2.7320053125595e+04 1.1029641660798e+02 1.3894271913466e-03
405 -1.4854538431164e+03 2.4249396265431e+04 -1.1942742160874e+02 1.9159393375330e-03
406 -1.4917616740553e+03 2.7479360224013e+04 8.7746523674374e+01 1.2197064427160e-03
407 -1.6576560813311e+03 2.8317094632479e+04 9.1381486958903e+01 2.3407878120921e-03
408 -1.6533859304889e+03 2.4733977824035e+04 1.0241990116976e+02 2.2524954662679e-03
409 -1.5949715284105e+03 2.5515758598615e+04 8.8164664623861e+01 2.1739776263898e-03
410 -1.6555453877945e+03 2.5713237706985e+04 9.1612240755905e+01 2.3591395734112e-03
411 -1.4404805211915e+03 2.1917103667066e+04 7.4911922377314e+01 2.1600148956738e-03
412 -9.8683205444998e+02 2.4262830443835e+04 -3.5037061519981e+01 7.7012471828186e-04
413 -2.0865505540530e+03 2.6370989938854e+04 9.1906293718692e+01 1.9992580717089e-03
414 -1.9664318543873e+03 2.6079071016704e+04 6.7035719416807e+01 2.3512643309453e-03
415 -1.1962780114511e+03 2.3749147215155e+04 9.5566187872286e+01 8.4190178408721e-04
416 -2.0371312511716e+03 2.6754289518108e+04 2.3569980879195e+01 2.6135757747536e-03
417 -2.2499545675227e+03 2.7319698239997e+04 9.4091301098440e+01 2.6240246353537e-03
418 -1.6809466523591e+03 2.6583509081747e+04 8.5244644650324e+01 6.2810792319231e-04
419 -2.2333009963326e+03 2.7907662347644e+04 9.6937341761563e+01 7.0162992184079e-04
420 -2.1947966722802e+03 2.7593815610092e+04 -8.7855717270427e+01 1.4823548923664e-03
421 -1.3856851463345e+03 2.7356131506356e+04 9.4906027337689e+01 1.4910341577433e-03
422 -7.7901444046129e+02 3.0490003554828e+04 9.9222154860219e+01 6.3824656993580e-04
423 -1.2081103828411e+03 3.1656361687452e+04 9.5580497318118e+01 1.3026483760231e-03
424 -1.3497264683080e+03 3.0892985905603e+04 7.9821524192119e+01 2.3695426654328e-03
425 -2.0296536157178e+03 3.5422884298877e+04 9.5111945534915e+01 2.6260735398420e-04
426 -1.7295496249932e+03 2.2457712405491e+04 1.0825578739517e+02 2.4055484824924e-03
427 -1.7595447808014e+03 2.2324476227802e+04 1.4959245467284e+02 2.5854318024243e-03
428 -9.3090986932360e+02 2.4716850854837e+04 9.0089632004520e+01 3.8774984782321e-03
429 -2.1865840802898e+03 2.7421658172992e+04 -8.5091396191776e+01 2.0858902753905e-03
430 -2.2097251268845e+03 2.9403038064107e+04 8.9304209293214e+01 4.0863689627851e-03
431 -1.5505336839028e+03 2.6765417531641e+04 8.8797101494211e+01 2.5496664029267e-03
432 -1.3785934488628e+03 2.8002336513179e+04 9.6774525013391e+01 1.5169358262316e-03
433 -1.7418192130460e+03 2.9020500188263e+04 5.0102993829127e+01 1.6664553823337e-03
434 -1.8150656871963e+03 2.9550583268205e+04 9.1278376951567e+01 1.8085027593944e-03
435 -1.6487272987324e+03 2.5890295863557e+04 1.0835206937174e+02 2.2068159640180e-03
436 -6.3707091817884e+02 2.7605525062708e+04 9.2206888551734e+01 3.9136883258237e-04
437 -1.6429380040626e+03 2.6650026473521e+04 8.5724201507312e+01 1.0015261487005e-03
438 -8.9643478950712e+02 2.5276759977160e+04 8.4278306677796e+01 8.0913267749840e-04
439 -9.1701429632097e+02 2.6292829730429e+04 8.9388273995871e+01 2.9400448991218e-03
440 -1.1648272088739e+03 2.2341775613912e+04 7.3439588929693e+01 1.5087452624138e-03
441 -2.1121607623821e+03 2.5581509159143e+04 8.0724248007713e+01 1.2662385647568e-03
442 -2.3358121102935e+03 2.3704157074436e+04 1.0480827390242e+02 2.8859679667234e-03
443 -2.2819232802255e+03 2.3621831343605e+04 9.7832818856874e+01 2.8864404561790e-03
444 -1.4300262552749e+03 2.7368831782094e+04 1.0561045852807e+02 5.8298541057176e-04
445 -1.3706261578428e+03 2.6339951842473e+04 5.6890224445734e+01 1.2078538506407e-03
446 -2.1077981096022e+03 2.6315197108604e+04 -1.2521124769984e+02 1.4571178409397e-03
447 -1.4857077063657e+03 2.8474634286856e+04 8.8697969648034e+01 2.0876200811775e-03
448 -1.6003668878050e+03 2.6299698084032e+04 9.5769737797805e+01 2.0307631310489e-03
449 -1.2506263861818e+03 2.3693879697842e+04 8.8271825161080e+01 1.6630091962445e-03
450 -1.0944951403745e+03 2.1575928030525e+04 8.8879288245549e+01 2.9011110863996e-03
451 -2.3355836568706e+03 2.4482324673052e+04 9.1168316255644e+01 2.7248819059676e-03
452 -2.3447935706221e+03 2.5756693418956e+04 9.0594061949019e+01 4.0320633358119e-03
453 -1.0694672630775e+03 2.8276197874096e+04 4.1529777584998e+01 1.0951142187556e-03
454 -1.5367018585450e+03 2.5600056545445e+04 5.0552421003389e+01 2.0092876818866e-03
455 -1.5913122227826e+03 2.6428743681949e+04 8.9409675401200e+01 3.8870685535381e-03
456 -1.9027408687211e+03 2.4357393098766e+04 8.9266599166901e+01 4.3581097170182e-03
457 -2.4416599534431e+03 2.4757994811983e+04 -6.3746679457467e+01 1.9227319034404e-03
458 -2.4940227828065e+03 2.5657555741512e+04 8.6688298502335e+01 2.5531821832659e-03
459 -1.9269229736554e+03 2.4686229734862e+04 9.2756209799698e+01 2.7448831173144e-03
460 -1.9978085224022e+03 2.4760864647890e+04 1.1008813916891e+02 2.7520199948416e-03
461 -1.8347755868263e+03 2.6261893622923e+04 8.9678199098813e+01 5.0237385817455e-03
462 -1.8030789506214e+03 2.5168870726993e+04 8.6008912619389e+01 2.5593190090837e-03
463 -1.8302000668081e+03 2.8379075884560e+04 8.9120146651830e+01 3.5087212109871e-03
464 -1.2376971657551e+03 2.7457715754611e+04 8.8341327424835e+01 1.3900086119595e-03
465 -1.3447356071878e+03 2.6953285584608e+04 9.2178944456684e+01 1.6928092429640e-03
466 -2.3234555955773e+03 2.6600201905018e+04 8.9801956756784e+01 5.5816420536198e-03
467 -2.2872699740043e+03 2.6343404213921e+04 8.5710629291134e+01 2.5222100309055e-03
468 -1.6066331560222e+03 2.7382656331186e+04 8.8844480595134e+01 2.3633861130538e-03
469 -1.5962295779346e+03 2.8249834369041e+04 8.6470687981767e+01 1.5091355910332e-03
470 -2.1769267251237e+03 2.7919967338199e+04 8.5066344431138e+01 1.6186644503769e-03
471 -2.3360137672792e+03 2.8454609562561e+04 9.5256740368674e+01 2.0812135482100e-03
472 -2.3358972488248e+03 2.8725501410085e+04 9.4089156520132e+01 2.4023544525453e-03
473 -1.0776265277428e+03 2.9018241592874e+04 9.1203941517334e+01 1.6665485161414e-03
474 -1.4030413464612e+03 2.5756937302849e+04 8.6583625020046e+01 1.3591884364021e-03
475 -2.5352529509525e+03 2.8685877661505e+04 8.7593021634174e+01 5.6464224322832e-04
476 -2.6035102714157e+03 2.9393027043735e+04 8.1849531419933e+01 8.4975499073177e-04
477 -1.7527216967421e+03 2.6746528940520e+04 -1.0296512679674e+02 2.0449428486244e-03
478 -1.9420665950517e+03 3.0126835080413e+04 -8.1192817670330e+01 1.4903831786988e-03
479 -1.3551707040277e+03 2.6864904099095e+04 8.2640759092864e+01 1.4712027781059e-03
480 -1.9636968711471e+03 2.7544799052345e+04 8.6303371153863e+01 2.3019067241547e-03
481 -1.8955064160767e+03 2.7531545296883e+04 8.2838422788407e+01 2.1371525000996e-03
482 -1.9202205702492e+03 2.6214300235164e+04 9.0724852354709e+01 4.1224996075166e-03
483 -1.9517645432579e+03 2.5943866210487e+04 9.3400231531110e+01 2.6670095392430e-03
484 -2.6664675785856e+03 2.8119480404982e+04 9.9515875278677e+01 1.9293593435665e-03
485 -2.9292163160684e+03 2.7376127188414e+04 9.2616487528045e+01 1.5615124600219e-03
486 -2.2127399331890e+03 2.6426143404474e+04 8.6362724951954e+01 1.4739714633452e-03
487 -2.2141510453825e+03 2.4795449232022e+04 -8.2940289175384e+01 2.5097523955386e-03
488 -2.2008071553709e+03 3.0111569401994e+04 8.6819845912203e+01 1.4666762390400e-03
489 -2.1355300376147e+03 3.0734784647435e+04 8.4892351775054e+01 1.9234303695904e-03
490 -2.1950524545871e+03 3.0848701678907e+04 8.8793752203821e+01 1.6584235964677e-03
491 -1.9020897456236e+03 2.8842110041228e+04 9.4527954449814e+01 2.2580269175316e-03
492 -1.8743982821584e+03 3.0946336921545e+04 9.0657302654814e+01 4.6436995559858e-03
493 -1.8551952576740e+03 3.0532840310700e+04 8.9860460397122e+01 5.2800528424746e-03
494 -1.6179319072516e+03 3.0248191953503e+04 9.0314834242264e+01 4.1732316235765e-03
495 -1.5893124252608e+03 2.4077587221647e+04 9.0598756206280e+01 3.8357847495526e-03
496 -1.1958714457513e+03 2.2068310450981e+04 8.6493127457574e+01 1.9752646970757e-03
497 -1.1825536770743e+03 2.1579029743960e+04 7.9041050910358e+01 1.6382643370128e-03
498 -1.3568842367466e+03 2.1706872720158e+04 1.0370685262120e+02 2.4370665588413e-03
499 -2.6360140371907e+02 2.5582424010889e+04 8.7799878408764e+01 5.6040181238008e-04
