0 3.7575667354025e+02 1.5399774797280e+04 9.0501820573249e+01 2.4388606407583e-03
1 4.7054353631750e+02 1.6595133219354e+04 9.1633949098527e+01 5.5659372473432e-04
2 -3.4866679771445e+01 2.8470238332709e+04 -8.9841269949751e+01 2.6874837215658e-04
3 -7.7391634635206e+02 2.3541600261387e+04 9.4563626597698e+01 8.8528983392878e-04
4 -5.4541903440976e+02 1.8780842958737e+04 9.6587031032661e+01 1.2798190361257e-03
5 -6.8511131204032e+02 1.9599801902519e+04 9.5566989003163e+01 1.4189190386672e-03
6 -6.3738499771424e+02 2.0436800263814e+04 8.9140488047726e+01 1.1601112958806e-03
7 -7.3343246051447e+02 1.8808084662504e+04 8.9333864530555e+01 3.7943470634360e-03
8 -5.0284490908408e+02 2.5527062423498e+04 -8.7549652360939e+01 6.2150630313084e-04
9 -7.9556557446226e+02 2.1314337792735e+04 -9.0674889837239e+01 1.3702525368158e-03
10 -9.9608650380104e+02 2.5785367823247e+04 8.8846277917753e+01 1.0776961443605e-03
11 -1.2380492369190e+03 2.3953115461220e+04 8.9670364248473e+01 2.8092463140953e-03
12 -1.1249740643667e+03 2.1732696827437e+04 -8.7978489381399e+01 1.3820850546238e-03
13 -1.2378778811480e+03 2.1882565897113e+04 -8.9236922293823e+01 1.5911349615386e-03
14 -1.2256590030825e+03 2.3322119341823e+04 8.8661698723894e+01 1.5921818036723e-03
15 -1.2089578326110e+03 2.3064489091026e+04 8.9496522080745e+01 3.5964747711657e-03
16 -1.3834859243520e+03 2.3804208457780e+04 9.0139921974191e+01 2.9965113296198e-03
17 -1.0597350294409e+03 2.3287899637275e+04 8.8305909149237e+01 2.8974377165704e-03
18 -7.0144160285579e+02 2.1205768786797e+04 9.1544999453918e+01 2.5588824576402e-03
19 -1.0248858087813e+03 2.2668880225805e+04 9.3196646684247e+01 8.8727233142279e-04
20 -2.5196293906666e+01 1.6217301970066e+04 8.9786437457011e+01 8.6246159309225e-04
21 -5.0834233626500e+02 2.2088849445951e+04 -8.8189264452282e+01 4.5582363645902e-04
22 -5.8560421965495e+02 2.5368458979326e+04 1.0299237963865e+02 7.2199869900408e-04
23 -5.6482912898690e+02 2.6206928097815e+04 9.1393426931731e+01 5.8690515258305e-04
24 -4.8963253146253e+02 2.6989711694726e+04 8.8690989745979e+01 4.8580254925788e-04
25 -5.2618370076088e+02 2.6173070390088e+04 8.9874965401979e+01 1.6628600686845e-03
26 -8.2157134294425e+02 2.9933496139710e+04 9.1748243562000e+01 2.0737133414627e-03
27 -8.2700673848223e+02 3.0692094087789e+04 9.0787464707754e+01 1.2563621440734e-03
28 -3.9903522231788e+02 2.4116706712049e+04 -8.9636008616595e+01 4.0485622147437e-04
29 -4.0498037143133e+02 2.4480388272051e+04 9.0437310867704e+01 8.3748953199785e-04
30 -1.3186751172282e+03 2.2819879757629e+04 9.0436424461723e+01 3.5692878956535e-03
31 -1.2972367006973e+03 2.2663554178166e+04 8.8746294859320e+01 4.1532813105372e-03
32 -9.6616787085703e+02 2.0418706515482e+04 -8.6879657709180e+01 1.6826488381556e-03
33 -1.1213022518460e+03 1.7758908386031e+04 -8.8711988428916e+01 2.1994248665622e-03
34 -1.1606796225679e+03 1.8508974304776e+04 1.6185412553674e+02 2.0727653104554e-03
35 -1.0457767485906e+03 1.7659088445291e+04 8.9418174973353e+01 4.0797311458837e-03
36 -1.0739377488589e+03 1.7822686398557e+04 9.0625523730816e+01 4.2496605860772e-03
37 -1.0215633883304e+03 2.0835590065089e+04 8.8489449884598e+01 3.6089793499518e-03
38 -8.5548598949880e+02 1.8462838527802e+04 8.8013605558152e+01 1.7375026691837e-03
39 -6.0382661224996e+02 1.9697397379763e+04 -9.6556140232497e+01 8.0835560775134e-04
40 -8.4929652274541e+02 2.5006592945661e+04 9.0126071981951e+01 1.6531427053715e-03
41 -8.5213472415777e+02 2.6314186160037e+04 9.0829487609513e+01 5.0770775066771e-04
42 -8.1942769258201e+02 2.6277775443331e+04 8.8539080753880e+01 4.5958683771208e-04
43 -8.6135527871524e+02 2.6170062631202e+04 8.9063070893142e+01 3.0987235334389e-03
44 -8.7998086655944e+02 2.5707669692662e+04 9.1183276324525e+01 2.9508424865279e-03
45 -7.1085536312644e+02 1.5685130740242e+04 -7.1801172765639e+01 1.8419252979803e-03
46 -7.9555531574644e+02 1.8218678586344e+04 8.9356374849775e+01 1.6012720778745e-03
47 -2.3514758075345e+02 1.4649346283798e+04 9.2242003355099e+01 1.4850418510697e-03
48 -3.7766091432273e+02 1.6969588378991e+04 8.9682393872137e+01 1.7340440012798e-03
49 -1.4033028290147e+02 1.5707184626731e+04 8.5516186242064e+01 1.0486584844407e-03
50 -2.8679451180170e+02 1.8232156136971e+04 9.0777727903125e+01 3.3685690774484e-03
51 -2.6228758866889e+02 1.5353796672312e+04 7.8987621508408e+01 1.0407406656524e-03
52 2.0518390096354e+02 1.3193944963753e+04 -8.8258306081482e+01 9.1207208499374e-04
53 -4.6046717049912e+02 1.6944042242142e+04 8.9610683487377e+01 3.1083054799168e-03
54 -4.2619629975488e+02 1.7403546231694e+04 8.6145552950957e+01 1.1236102562535e-03
55 -3.5254055667278e+02 1.6489653050714e+04 -8.5923413695769e+01 7.5718704600562e-04
56 -4.0653195584050e+02 1.8414722252269e+04 8.9952298651726e+01 1.9087964820618e-03
57 -3.2410926796929e+02 1.6007070510890e+04 -8.9063501880721e+01 1.3871868053847e-03
58 -3.0932368695704e+02 1.7969170168345e+04 8.9013104190209e+01 1.1920301730678e-03
59 -3.1643632633399e+02 1.7233782865606e+04 -8.4599582404533e+01 9.9559744926781e-04
60 -5.0346746343914e+02 1.8423331416919e+04 8.8214200682726e+01 1.0631658764786e-03
61 -3.4009068967937e+02 2.1206166370524e+04 9.1213015328112e+01 8.5166317898555e-04
62 -3.4986400837836e+02 2.0037660287190e+04 -6.9568972161569e+01 9.8625778813085e-04
63 -1.6090317155418e+02 2.1092162716974e+04 -8.3880833596650e+01 7.0588190768825e-04
64 -1.7736063452257e+02 1.9651177721304e+04 8.7718986294443e+01 7.4943537886189e-04
65 -4.6808925775211e+02 2.0978840920452e+04 8.7299548450036e+01 9.6359774100905e-04
66 -4.5636735227515e+02 1.8476240051707e+04 7.1493847445019e+01 1.2943536768785e-03
67 -6.0755722157209e+02 2.5418639975804e+04 8.8952172984360e+01 3.0612672446504e-03
68 -1.7506954652489e+02 2.2690541310156e+04 -8.7602277579301e+01 6.0024136469782e-04
69 -1.8116212055760e+02 2.4448688294273e+04 8.6888930267481e+01 5.2206874625829e-04
70 -3.0548086417405e+02 2.3770025069017e+04 8.5441208219662e+01 5.6629910542646e-04
71 -3.0209804296916e+02 2.4213458560128e+04 8.7037009511696e+01 6.3936127699015e-04
72 1.6193874439647e+01 2.5554488513824e+04 1.2318617712602e+02 3.3206046377117e-04
73 -1.1646753154852e+03 2.3510426878115e+04 8.8616391880676e+01 3.5793728001471e-03
74 -7.9223231833191e+02 2.5743197796990e+04 9.0022464012206e+01 1.7949236946085e-03
75 -7.7079187678948e+02 2.4540444094451e+04 8.2461681355375e+01 4.7656621324689e-04
76 -9.5705554103981e+02 2.1129708126197e+04 8.9739003658512e+01 2.1007194011234e-03
77 -9.6365643646573e+02 2.1884576760048e+04 -8.7343738005085e+01 1.3371038905821e-03
78 -9.0197109657410e+02 2.3122477645900e+04 9.2731503156505e+01 1.4208554300549e-03
79 -8.5010125338297e+02 2.2255126171896e+04 -8.6069234281019e+01 1.3013192174223e-03
80 -6.0064049589897e+02 2.4915466798015e+04 8.9545526406485e+01 9.8085395906209e-04
81 -7.4459614383705e+02 2.1113949101579e+04 9.1186577338143e+01 1.3348183965425e-03
82 -7.9317196462442e+02 1.9985688254448e+04 9.0218679684258e+01 2.5051126090993e-03
83 -4.8908235963801e+02 2.1771233440375e+04 8.6503638594117e+01 9.5870872268096e-04
84 -5.0121628120849e+02 1.8016906033194e+04 9.0669227336296e+01 3.5566712912317e-03
85 -4.9428738210468e+02 1.7824259222534e+04 8.9522392489313e+01 3.2651415435086e-03
86 -3.4929135475292e+02 1.4094064029289e+04 -8.7654367777960e+01 1.4426550202077e-03
87 -4.4130151475673e+02 2.0225844530731e+04 9.4957991759548e+01 4.1338322251217e-04
88 -6.5445875232044e+02 1.8868735112295e+04 9.1544969775532e+01 3.1211974085590e-03
89 -3.2885202393079e+02 1.7243498622190e+04 -8.4178903518103e+01 1.2020924813540e-03
90 -2.1885726481937e+02 2.3825088992969e+04 8.8675515105951e+01 4.1692131177453e-04
91 -7.9240542061201e+02 2.4416176006423e+04 6.0994156975567e+01 8.5881053415078e-04
92 -8.2760303878063e+02 2.4454104771175e+04 1.0807717247796e+02 9.6146390865785e-04
93 -9.8369691645616e+02 2.3337380746481e+04 8.8646288685411e+01 3.5005602423614e-03
94 -9.7362793183227e+02 2.2859087111317e+04 8.6278607693942e+01 1.3938193587275e-03
95 -1.0032712155388e+03 2.4014412816086e+04 9.2119116028173e+01 8.1064891145296e-04
96 -4.7859832676241e+02 2.4624356264234e+04 8.8077174056158e+01 4.5674218805358e-04
97 -4.8169529462625e+02 2.4530801107268e+04 8.8070239060964e+01 1.5081561558179e-03
98 -7.3795108964809e+02 2.1646512708106e+04 -8.8576416716620e+01 6.2546796069456e-04
99 -1.7287933867135e+03 2.8859973352464e+04 9.1258163227005e+01 1.6185100805893e-03
100 -1.6547665546770e+03 2.5663998610099e+04 -9.2164384518959e+01 1.9254155601445e-03
101 -1.5700130719661e+03 2.6498714799543e+04 9.0582323904459e+01 1.5550808178301e-03
102 -1.2980086639445e+03 2.4403502514857e+04 -8.7939878392584e+01 1.2058370571315e-03
103 -1.2968279671996e+03 2.5033452903043e+04 8.8087524133012e+01 2.2696094632211e-03
104 -1.4123864518901e+03 2.5279140869176e+04 9.0661522556379e+01 3.8527197752402e-03
105 -1.2775724774246e+03 2.4222981300255e+04 6.4399128696211e+01 9.1199802602611e-04
106 -1.0432755121783e+03 2.6407309002291e+04 8.9273518587998e+01 1.0294462995141e-03
107 -1.1735800727968e+03 2.6119913417804e+04 8.7760177963455e+01 1.8059194029480e-03
108 -1.0581403143379e+03 2.4262142694044e+04 8.4904174117156e+01 1.1266101483448e-03
109 -1.1893400688373e+03 2.6344696144978e+04 8.9781118261257e+01 2.5900898175550e-03
110 -1.4707061228116e+03 2.6631567091279e+04 9.0478563908606e+01 3.3645759667837e-03
111 -1.4486224305832e+03 2.7475971800582e+04 9.0298038411093e+01 1.7600498824858e-03
112 -1.3879370008594e+03 2.6972119868650e+04 9.1986478531495e+01 1.7869405849176e-03
113 -1.1381649023131e+03 2.5986615932453e+04 8.9097096553169e+01 3.4811267444843e-03
114 -1.1722111178739e+03 2.9270536798528e+04 8.8303165261191e+01 9.2360431608970e-04
115 -1.2017619310359e+03 2.8222277145324e+04 -9.1121195530408e+01 1.0061698346775e-03
116 -1.1597322044518e+03 2.3911441146344e+04 8.5564273733377e+01 1.4335405235018e-03
117 -1.0276989053681e+03 2.3186943334335e+04 9.0237000949668e+01 1.8158946521328e-03
118 -9.9139789196118e+02 2.2321056211456e+04 8.9632556494714e+01 1.8074763868408e-03
119 -9.2679989483358e+02 2.0542914913032e+04 8.8432975125852e+01 3.2006184753105e-03
120 -8.1182641212441e+02 2.0393431505915e+04 8.6977133907454e+01 1.2634416418325e-03
121 -3.3723345834989e+02 1.9268360087661e+04 8.0052219098699e+01 8.3851065819884e-04
122 -3.4174081558062e+02 1.9464144710685e+04 8.4965811336409e+01 8.0301464307425e-04
123 -9.7578709526161e+02 2.2596745642062e+04 9.3502430221576e+01 1.0176103511739e-03
124 -9.6780024072183e+02 2.7545713597586e+04 8.6797116952602e+01 8.6396492019269e-04
125 -4.0250054734865e+02 2.0303577667294e+04 8.8249510829507e+01 2.0803574254710e-03
126 -4.3253308585322e+02 1.8983026970758e+04 9.0045307685015e+01 2.0781463573303e-03
127 -3.6576389315564e+01 1.9883185438149e+04 8.9215689752033e+01 2.7438894162440e-03
128 -4.2422624310780e+02 2.3975271633545e+04 -7.7711163842949e+01 5.7894693109663e-04
129 -6.4795327803286e+02 2.3907548005155e+04 9.0922371829268e+01 9.5418613514814e-04
130 -1.2447195942388e+03 2.0805560183058e+04 -9.6885858293084e+01 1.9034670034693e-03
131 -1.2063044972474e+03 2.1697071613724e+04 8.7975371572984e+01 2.7252589904684e-03
132 -1.0189364570200e+03 2.7425726499346e+04 8.8509241503396e+01 9.3444768505152e-04
133 -5.8586941319914e+02 3.1993149824644e+04 8.7315853570379e+01 1.9011021775502e-03
134 -5.8606825128712e+02 3.2280228032453e+04 8.8178596749438e+01 1.1954010558065e-03
135 -1.2012397150034e+03 2.6928903453203e+04 8.8969048372304e+01 3.4009931964177e-03
136 -1.1602053271752e+03 2.5379877968124e+04 8.9670513391890e+01 1.6167034787401e-03
137 -9.1295233240310e+02 2.5243734717379e+04 9.0762395067759e+01 6.6538762929522e-04
138 -1.2837854858660e+03 2.5024364433159e+04 -8.9245720846232e+01 1.5417052598669e-03
139 -1.0911767293506e+03 2.7501698640961e+04 8.9586035956976e+01 2.7475752422286e-03
140 -1.2776588677065e+03 2.5701622313328e+04 -8.1988195334520e+01 1.3425179887264e-03
141 -1.5247424317754e+03 2.8896489591491e+04 8.9824378434121e+01 1.8464968172987e-03
142 -1.3325511127414e+03 2.5263282181820e+04 -5.8979214430958e+01 1.5251375512532e-03
143 -1.1610460244522e+03 2.3299461667525e+04 -9.1466460899515e+01 1.3313799789513e-03
144 -5.4856470335398e+02 2.1054532907987e+04 8.9040276450531e+01 9.2717202563750e-04
145 -9.4352370600285e+02 2.7018585485531e+04 7.8727606836715e+01 5.7919942477962e-04
146 -1.0027432556933e+03 2.5764525252780e+04 8.6744163731147e+01 1.1056805601609e-03
147 -1.1360497069495e+03 2.7315031282972e+04 8.9254732829923e+01 3.0515989034154e-03
148 -1.1428303106783e+03 2.6625571464445e+04 -8.9908542972043e+01 1.0045951974905e-03
149 -1.0633074367559e+03 2.1033427807015e+04 8.9084626029835e+01 4.1034442392014e-03
150 -1.0345575023982e+03 2.1166378322430e+04 9.4068769637688e+01 1.7040338140366e-03
151 -4.5444900186390e+02 1.8256301585571e+04 -2.9044968570721e+01 9.4977613636702e-04
152 -4.7358803819257e+02 2.5991232911683e+04 -8.3508077947544e+01 5.8584184685412e-04
153 -3.8973430541901e+02 2.6037107041097e+04 9.0564618767139e+01 6.9740353112996e-04
154 -3.6348022102931e+02 2.5686150709848e+04 8.3679379718474e+01 5.2667734019502e-04
155 -1.3669249977217e+03 2.4614695195380e+04 8.5450437841438e+01 1.3612891986894e-03
156 -1.5406757858058e+03 2.4613127083670e+04 9.1735660444208e+01 3.3464414792525e-03
157 -1.3876486355218e+03 2.6210649413388e+04 8.8924090782488e+01 3.9361832840405e-03
158 -1.3535771093728e+03 2.6077690591981e+04 8.4845250697765e+01 1.2292142099053e-03
159 -1.4623782984688e+03 2.2755937926279e+04 9.0744942140545e+01 2.1037793852432e-03
160 -1.4277817407479e+03 2.2161551307473e+04 7.9005532395425e+01 2.0208776275400e-03
161 -1.5247372152600e+03 2.3441259353940e+04 8.9013719918666e+01 4.4286805882367e-03
162 -1.5033035949173e+03 2.2885590201836e+04 8.6054102058217e+01 1.9486645854729e-03
163 -1.7310370086353e+03 2.2283713556934e+04 -9.0210260150064e+01 2.2417672678786e-03
164 -1.6341174631031e+03 2.3798795301982e+04 9.0800201538755e+01 4.2267843330145e-03
165 -1.2182057999046e+03 2.3820425913227e+04 8.8442727480604e+01 3.0499214478797e-03
166 -1.3728491305657e+03 2.6096117051673e+04 9.0558685389213e+01 2.9647460799250e-03
167 -1.5136285645514e+03 2.3493288862985e+04 9.4528939958756e+01 1.9414401169590e-03
168 -1.5139178288250e+03 2.3045075252510e+04 -9.5012407352563e+01 1.8969970653300e-03
169 -1.3813926597777e+03 2.3748932243845e+04 -9.2975835130050e+01 1.8356360884940e-03
170 -1.4581452816109e+03 2.4425436655456e+04 -4.9290908531530e+01 1.7923145621208e-03
171 -1.4479437895853e+03 2.4472818008165e+04 7.9622206488654e+01 1.8507472867834e-03
172 -1.6904000043909e+03 2.4133697264952e+04 9.0090736658778e+01 3.2027887628133e-03
173 -1.5251579487605e+03 2.0504111731077e+04 7.8874111383890e+01 2.2024315548750e-03
174 -1.3456728079265e+03 2.3302076502015e+04 8.9685053945083e+01 1.6979134896124e-03
175 -1.1387396931966e+03 2.2544964676809e+04 9.0419950262019e+01 1.5863479729245e-03
176 -9.4831345769715e+02 2.2871411829039e+04 9.0534320320158e+01 3.3484752477337e-03
177 -9.1878410044892e+02 2.2050186141810e+04 8.8671722471025e+01 3.6291958744821e-03
178 -1.2835088897748e+03 2.5347273479029e+04 9.1211662722713e+01 3.7361463599577e-03
179 -1.3279370033890e+03 1.9785728451424e+04 -9.0878816807376e+01 1.5182176485261e-03
180 -1.0088307558625e+03 2.0975170053456e+04 9.1351939022332e+01 3.7410664209426e-03
181 -9.9218142850503e+02 2.0143100139661e+04 -9.0173656681871e+01 1.7698205238557e-03
182 -1.1527270010011e+03 1.8664472520350e+04 9.7222107232348e+01 6.7450828472339e-04
183 -1.2358728382658e+03 1.8822404016498e+04 -8.8868538646444e+01 1.3089720514120e-03
184 -1.2764899003439e+03 2.0069635375629e+04 9.3121900535432e+01 1.6478098541966e-03
185 -1.0599936183015e+03 2.5390043801511e+04 9.0661496794740e+01 1.3529725920995e-03
186 -1.0599891286257e+03 2.6138250248663e+04 9.0390718403346e+01 2.6908447362595e-03
187 -9.0255147475984e+02 2.4716217026445e+04 9.0513459118864e+01 1.2057242900151e-03
188 -1.0489447533005e+03 2.2611979309512e+04 9.8763915856376e+01 1.4247895709843e-03
189 -5.0435438613763e+02 1.9367791415088e+04 8.8700576799817e+01 3.4155487265154e-03
190 -6.6520823700585e+02 2.2379679776533e+04 9.0341293524201e+01 2.6136688743911e-03
191 -4.4290374417512e+02 2.1023462850766e+04 -8.5200085995060e+01 8.4821859497788e-04
192 -4.0872534853515e+02 2.1406830452548e+04 -8.9798407203220e+01 8.7838542815620e-04
193 -8.5907061942097e+02 2.3700780334375e+04 -8.9517538046994e+01 1.1783431744311e-03
194 -6.1531983078414e+02 2.5504326322329e+04 -8.2740002724629e+01 6.5406771013213e-04
195 -6.3805010327888e+02 2.5252289296057e+04 -8.9448047418124e+01 6.8050231530823e-04
196 -1.0988753948709e+03 2.6320101465326e+04 9.0691937706687e+01 3.0621250665037e-03
197 -1.4196842121844e+03 2.4287709943976e+04 9.0654468986273e+01 1.6124923540652e-03
198 -1.4203495007552e+03 2.6827442769645e+04 8.4210790166270e+01 1.4387319111571e-03
199 -1.3912220228516e+03 2.6191071930002e+04 -8.3692084800388e+01 1.5621907977108e-03
200 -1.4565806914574e+03 2.6205359650369e+04 -4.6662880272138e+01 1.6478044650967e-03
201 -1.5399847460719e+03 2.7282078627717e+04 9.1332120758269e+01 1.4533497946999e-03
202 -1.5954583731913e+03 2.5682389102579e+04 9.0612724069426e+01 3.5534804990888e-03
203 -1.6716240934561e+03 2.3209836908735e+04 -9.1453731086327e+01 5.0221494735681e-04
204 -1.6535951174804e+03 2.4141478104312e+04 9.0289738792569e+01 2.4476497207336e-03
205 -1.7545630822799e+03 2.4313307428304e+04 8.9468576156718e+01 3.7231605084459e-03
206 -1.9159068351551e+03 2.4903050422639e+04 9.2506704762344e+01 2.4959456422401e-03
207 -1.8462970911827e+03 2.4656088978115e+04 7.6787667002796e+01 2.2591428541225e-03
208 -1.7083605836242e+03 2.5044481406055e+04 8.9147880038487e+01 2.1691904492128e-03
209 -1.7198796255781e+03 2.3903423664816e+04 -9.0039246749793e+01 2.1664231398561e-03
210 -1.8847353579572e+03 2.4282516373350e+04 9.4013879486753e+01 2.2109669904463e-03
211 -1.7700987177148e+03 2.4294564372629e+04 8.2161853134689e+01 1.5514373911848e-03
212 -1.6417040853100e+03 2.5763938535073e+04 8.8937831934846e+01 1.9356147697708e-03
213 -1.8132562537153e+03 2.4332665609952e+04 -7.1903168585430e+01 2.2444594308760e-03
214 -1.6483013254771e+03 2.5700706390166e+04 8.1185425515665e+01 1.7943985162177e-03
215 -1.6465115715360e+03 2.6288343198590e+04 8.8576331353757e+01 3.8498072955708e-03
216 -1.6547413499280e+03 2.6634118007685e+04 8.9510223968223e+01 2.1152235635733e-03
217 -1.6908818130871e+03 2.7758596941207e+04 8.9568561172300e+01 3.5091619074978e-03
218 -1.6939009992253e+03 2.5455763308581e+04 8.9772543643036e+01 2.5658859079503e-03
219 -1.7239551866250e+03 2.6098465349120e+04 9.1255558789070e+01 1.9993642757212e-03
220 -1.5514994079353e+03 2.7080009432419e+04 7.6681959148973e+01 1.6625063188932e-03
221 -1.7101505561626e+03 2.8280229839999e+04 8.5551292178831e+01 1.7150366674077e-03
222 -1.7616422802839e+03 2.6517736646392e+04 8.7538240976213e+01 1.8608659680106e-03
223 -1.6953914170522e+03 2.6702215410422e+04 8.7807003042986e+01 2.2082800963014e-03
224 -1.9486715187886e+03 2.5565632101721e+04 -1.0883758943692e+02 2.2404847256336e-03
225 -2.0607577338155e+03 2.4972164046271e+04 8.5763398380037e+01 2.3622420033548e-03
226 -2.0729115601424e+03 2.5546819541784e+04 8.9454308907308e+01 2.5174827113011e-03
227 -2.1214245853791e+03 2.6149679768190e+04 9.2444647832027e+01 2.3368393518741e-03
228 -1.7825235391573e+03 2.8689850435140e+04 8.9876343665068e+01 2.1913018976199e-03
229 -1.7287975430269e+03 2.7923830043573e+04 9.0092692381050e+01 2.4743357917825e-03
230 -1.6950490314955e+03 2.7550279611283e+04 9.0644066092796e+01 3.5029793694621e-03
231 -1.8032617998077e+03 2.9196764823659e+04 8.8658504692806e+01 3.6904853684845e-03
232 -1.7406364939339e+03 2.5369660811981e+04 -7.4760933289740e+01 2.0238725999790e-03
233 -1.7515551386539e+03 2.5912891356506e+04 9.0263998712011e+01 2.4645285960167e-03
234 -1.4230690145023e+03 2.8537902753718e+04 8.8064588099099e+01 7.3378367672068e-04
235 -1.4373056114062e+03 2.8331180544193e+04 8.9265311812010e+01 2.9964940083592e-03
236 -1.6695307174963e+03 2.4574004039572e+04 9.1920005950922e+01 2.7821143065708e-03
237 -1.7235811107313e+03 2.5947432577214e+04 8.4910484235340e+01 1.1942025563848e-03
238 -1.3562855008625e+03 2.3125139968368e+04 -8.4457500604776e+01 7.8639456780584e-04
239 -1.1575664494695e+03 2.6639936423575e+04 8.9726806970821e+01 2.5973988739139e-03
240 -1.1761380965042e+03 2.5891559428984e+04 9.0334455023626e+01 2.8579774854393e-03
241 -1.2329799194342e+03 2.6439497211975e+04 8.9617105079097e+01 2.9776831142363e-03
242 -1.2309179888818e+03 2.7314405888317e+04 8.9797433552574e+01 1.5793247767212e-03
243 -1.1233295556227e+03 2.6923410415048e+04 8.8057866086960e+01 2.1180478626548e-03
244 -1.5158287681181e+03 2.8209097540782e+04 8.9131337340055e+01 1.4559377436861e-03
245 -1.5632061608958e+03 2.5028295466467e+04 -8.4004112461474e+01 1.4177853091546e-03
246 -1.7798724591243e+03 2.8013099821295e+04 1.1063151843985e+02 1.2610566363381e-03
247 -1.7543003985858e+03 3.1142184534172e+04 9.0237779337905e+01 1.8881444687859e-03
248 -1.5359318871361e+03 3.0250071583245e+04 9.2168868206688e+01 2.4484144069648e-03
249 -1.4846130364666e+03 2.9725565336636e+04 8.8613639247958e+01 3.2679246879031e-03
250 -1.6675045732991e+03 2.8203211470696e+04 9.3294455790302e+01 1.4624776415492e-03
251 -1.4439933515811e+03 2.5219823933890e+04 1.4636369920919e+01 1.0730610950750e-03
252 -1.7914062244178e+03 2.9073856557825e+04 9.3941300011748e+01 1.7297918947190e-03
253 -1.5360239723937e+03 2.8274227095060e+04 8.9060306199845e+01 3.8502641444985e-03
254 -1.4731955281735e+03 2.8657424237802e+04 9.1805562687595e+01 2.6202703264205e-03
255 -1.5792274435648e+03 2.9778531506847e+04 7.5643777345963e+01 1.2283459072784e-03
256 -1.4646439567639e+03 3.0176905168809e+04 8.9670467395737e+01 1.9587723572146e-03
257 -1.4831787570630e+03 3.0041034117718e+04 9.1508262833249e+01 1.4815805466338e-03
258 -1.5330460677047e+03 2.9630585519627e+04 9.0607945438211e+01 2.9810035857803e-03
259 -1.3048355258715e+03 3.0450541970850e+04 8.8437514947976e+01 3.7722747336887e-03
260 -1.7742536970629e+03 2.9268895782411e+04 -8.6247582318177e+01 1.6705283451680e-03
261 -1.8820371969412e+03 2.8756832491033e+04 9.1271572135546e+01 1.5130892849956e-03
262 -1.5809057035438e+03 2.7390803856068e+04 1.1959872160171e+02 1.6617612079555e-03
263 -1.3425461650564e+03 2.6030996512211e+04 8.8424916447516e+01 3.2210108350991e-03
264 -1.7823245844818e+03 2.5765829307891e+04 -8.5967480059483e+01 2.0942923432287e-03
265 -1.8093336288296e+03 2.5778334808706e+04 -8.9033136129292e+01 1.9463490424760e-03
266 -1.7416210473100e+03 2.6615117239412e+04 8.0298688604457e+01 1.9508337593923e-03
267 -1.7459604026206e+03 2.7445740698483e+04 8.9622301483120e+01 3.5066143404597e-03
268 -1.7174657822028e+03 2.9057802336478e+04 1.2034140468784e+02 1.6175158359630e-03
269 -1.5997992317152e+03 2.7365836116755e+04 8.8019126705173e+01 2.2433164886812e-03
270 -1.5896931721670e+03 2.4177807655550e+04 8.9082766590544e+01 1.9748805366798e-03
271 -1.6244024373288e+03 2.3377798773761e+04 -1.2619754813721e+02 1.9644628184397e-03
272 -1.6769202572040e+03 2.4618577566265e+04 9.0480899654079e+01 3.9227922564389e-03
273 -1.7102119593092e+03 2.8472653541068e+04 1.1564040348949e+02 1.1796973743751e-03
274 -1.6446826273336e+03 2.4615628773799e+04 -8.8861037818306e+01 2.0598305227218e-03
275 -1.5571366852662e+03 2.8009085105587e+04 9.0775699646109e+01 1.5968434709972e-03
276 -1.5768531995235e+03 2.7503834799883e+04 9.3189219219376e+01 1.5638011493833e-03
277 -1.5437376821704e+03 2.6617154018937e+04 9.3007710851510e+01 1.6860271913129e-03
278 -1.5413296735760e+03 2.6707023107497e+04 9.1959333873103e+01 2.6400412886583e-03
279 -1.7035279332926e+03 3.0838561694620e+04 8.9558723544872e+01 4.0585886013443e-03
280 -1.7182753194009e+03 3.1297024775823e+04 9.0642995502482e+01 4.3597283076349e-03
281 -1.6322033128109e+03 2.8199090829114e+04 8.9486285300184e+01 3.5235968761723e-03
282 -1.6709055517024e+03 2.8806686369676e+04 8.4209655346269e+01 1.5815505883508e-03
283 -1.6702841897058e+03 2.8416103422230e+04 -6.8721582037181e+01 1.6207436470530e-03
284 -1.5694913524737e+03 2.4703448351316e+04 8.7360088738075e+01 1.9735080100884e-03
285 -1.7654233326005e+03 2.8217293807318e+04 8.9644610736348e+01 3.1712536132533e-03
286 -1.7776278886978e+03 2.6857986730048e+04 9.0002653119084e+01 2.8034268962364e-03
287 -1.7421463569581e+03 2.5370489349766e+04 -8.7521925759000e+01 2.0820798926598e-03
288 -1.7394504378328e+03 2.6077876936320e+04 8.9474316048613e+01 2.2489430135837e-03
289 -1.7440822210230e+03 2.4011115890288e+04 9.0131308575269e+01 2.8997481741936e-03
290 -1.7486318346910e+03 2.3557841495240e+04 9.1046555250103e+01 4.6784554977216e-03
291 -1.5474424374567e+03 2.2131673637411e+04 8.9045099157262e+01 4.5975112279498e-03
292 -1.1504175931768e+03 2.4574945774688e+04 8.9598984568100e+01 1.6907920043143e-03
293 -1.3526778919218e+03 2.5230566876239e+04 8.9223766281530e+01 3.9094437497014e-03
294 -1.2988447224361e+03 2.1701302659653e+04 8.8896625028289e+01 1.8377419685947e-03
295 -1.2862832406668e+03 2.1732471001011e+04 8.7673776027418e+01 2.1380250640027e-03
296 -1.3511450893559e+03 2.3364274623400e+04 9.0334998302093e+01 3.4191633610165e-03
297 -1.3876081998189e+03 2.3258156844848e+04 9.4352665136766e+01 1.8068557492397e-03
298 -1.5860875594243e+03 2.3449541323702e+04 6.5265030803093e+01 1.7873431625544e-03
299 -1.7018900894537e+03 2.4131594738857e+04 8.8966416039153e+01 4.5975948605862e-03
300 -1.7561348051886e+03 2.3446547119886e+04 8.8952889969122e+01 1.5121592777693e-03
301 -1.4691601460546e+03 2.4116717871112e+04 8.7982247645231e+01 2.5910158326456e-03
302 -1.4840580097729e+03 2.4442518005737e+04 8.9678438068831e+01 2.1730739449813e-03
303 -1.4643425167212e+03 2.3422199547168e+04 -7.9219561860143e+01 1.9610175175525e-03
304 -1.4972082032231e+03 2.3750194995879e+04 8.9318801087674e+01 1.8828836882110e-03
305 -1.6085396762860e+03 2.6258042113979e+04 8.9961266037264e+01 2.7157206990876e-03
306 -1.5994523462824e+03 2.6753980117777e+04 8.8368243825409e+01 1.6428475681864e-03
307 -1.1075510338033e+03 2.8146544704119e+04 9.1679206451681e+01 9.2161574247725e-04
308 -3.1949645376930e+02 2.3725492475545e+04 8.7292990572163e+01 5.1464712062878e-04
309 -1.1029914440374e+03 2.7874689653569e+04 9.4588227743962e+01 9.9827852979910e-04
310 -1.1433291326183e+03 2.7705956229594e+04 9.0110012679555e+01 2.0203986871383e-03
311 -8.5367180360473e+02 2.2951975481770e+04 8.9181190943026e+01 3.5805451728766e-03
312 -9.7059986297005e+02 2.4180756853828e+04 8.9062452627356e+01 1.0331501547124e-03
313 -6.7144411341279e+02 1.8149660194586e+04 8.1459964996983e+01 1.5697983597395e-03
314 -6.8504089669643e+02 1.5235412715019e+04 8.9390921619792e+01 1.8101306309609e-03
315 -4.3168233945149e+02 2.0120642351973e+04 8.0852281833950e+01 8.3068619667077e-04
316 -1.2940600336364e+03 2.2719765304485e+04 8.6317446895646e+01 1.8667447794197e-03
317 -1.3194494548045e+03 2.2330491675693e+04 8.6411495824807e+01 1.8965097034666e-03
318 -1.5617642162403e+03 2.2699213369984e+04 9.5601461689884e+01 2.1654457347492e-03
319 -1.3345593260260e+03 2.4789330824439e+04 8.9208526496010e+01 3.9879579656036e-03
320 -1.3276905169399e+03 2.3445863973774e+04 9.1383869051918e+01 3.9080233495124e-03
321 -1.3131272838737e+03 2.4365370989319e+04 9.6289550402328e+01 1.6358716093495e-03
322 -1.1166941482688e+03 2.6301591228335e+04 5.5393323318488e+01 1.1426602613579e-03
323 -1.0014886748450e+03 2.3369532090620e+04 9.2995692128791e+01 1.2795450709048e-03
324 -9.4056357632534e+02 2.2984167000403e+04 8.9336222289578e+01 1.4605985694862e-03
325 -1.1872649094411e+03 1.8724886244803e+04 -9.5413762104483e+01 1.9778237908879e-03
326 -7.2935062145095e+02 2.4824717896629e+04 -7.9668615617083e+01 8.1708443691139e-04
327 -7.1260115749303e+02 2.3567951552616e+04 8.9615361433534e+01 2.6046782230956e-03
328 -9.0302327834646e+02 2.2597511870574e+04 -7.5932550225156e+01 1.3609332152400e-03
329 -8.8127009478392e+02 2.7337883796428e+04 9.1391472732715e+01 6.5670648962548e-04
330 -4.2977004620305e+02 1.9810702163264e+04 9.5735025458070e+01 1.1032109661452e-03
331 -1.0194600411516e+03 2.1537987916166e+04 -8.8412330315783e+01 1.2931375216076e-03
332 -1.1439849711421e+03 2.5785754968558e+04 -8.7271094891749e+01 8.3683537250928e-04
333 -1.1252960132586e+03 2.4748755968778e+04 -8.8486366179786e+01 1.2194669977951e-03
334 -9.6303199489226e+02 2.3374587082456e+04 7.8826331270066e+01 1.2818653346269e-03
335 -2.1890263339633e+02 2.4309217021632e+04 8.8174238413839e+01 1.6354459428066e-03
336 -9.0327000096829e+02 2.1004640860471e+04 -1.0404021896128e+02 1.5305456110659e-03
337 -4.1049577667725e+02 2.5177115862343e+04 8.9484687045898e+01 2.4982470514516e-03
338 -1.0625011518722e+03 2.4840044841938e+04 8.9248883697042e+01 1.4056217615768e-03
339 -1.0701973469189e+03 2.4446796573358e+04 9.0078485280415e+01 2.0927867388050e-03
340 -7.9026989869637e+02 2.4869708708499e+04 8.9768872097255e+01 1.3232533851825e-03
341 -8.0721578898080e+02 2.4566816887362e+04 9.1073954794484e+01 7.6100043494201e-04
342 -9.0892225681411e+02 2.5588453448777e+04 9.0722422146286e+01 3.1341921431720e-03
343 -1.0828189335920e+03 2.5426668628661e+04 7.0678950663286e+01 1.2527162397963e-03
344 -8.8517003245255e+02 2.5840875930539e+04 8.9091218951324e+01 9.6558806269293e-04
345 -1.3593976714647e+03 2.3939371940498e+04 8.7803053157683e+01 2.2647781730310e-03
346 -1.4719048598052e+03 2.1887343961948e+04 8.7426661678355e+01 1.8368933882740e-03
347 -1.2133470513545e+03 2.4258978946198e+04 9.1086447345950e+01 1.6007253163133e-03
348 -1.1724767260293e+03 2.2443320978999e+04 8.8156603347176e+01 1.5333412365974e-03
349 -1.1802363041931e+03 2.2705000609976e+04 8.9210934948113e+01 3.8514662405585e-03
350 -1.0777433524857e+03 2.0774856180753e+04 8.0281017397326e+01 1.7696370234246e-03
351 -1.0502848432499e+03 2.0970556368446e+04 9.0993443791623e+01 1.7824537026719e-03
352 -1.1480645632624e+03 1.9595937037969e+04 7.5390794157437e+01 1.7179517091650e-03
353 -1.0682486744703e+03 2.2619434621446e+04 8.9479602152624e+01 3.3973386193521e-03
354 -1.0139978964081e+03 1.9506731654387e+04 -8.3693582936163e+01 1.5551992547189e-03
355 -7.1260292894397e+02 2.2933954046951e+04 8.9554348006048e+01 2.7657452642710e-03
356 -8.2801780463421e+02 2.1152933437787e+04 -9.2665223633249e+01 1.4447717246210e-03
357 -9.0649649379751e+02 2.4261274137339e+04 8.6767259123209e+01 1.1152468090568e-03
358 -5.3920669461996e+02 2.1826447642072e+04 8.5826015037967e+01 5.8599902764134e-04
359 -5.3483263724221e+02 1.8860913649876e+04 8.9655301876494e+01 2.6559478222618e-03
360 -5.6641838467353e+02 1.8634979901512e+04 9.1229781125137e+01 3.5268180954127e-03
361 -6.1835868886491e+02 1.9020772115600e+04 -1.2358410025017e+02 9.7805572186011e-04
362 -5.6522288827468e+02 1.9879776638527e+04 8.8066559870114e+01 1.0600432870549e-03
363 -4.5069229389461e+02 2.3295930001668e+04 8.9919197885060e+01 1.7933950929272e-03
364 -5.1784303415740e+02 1.9706024993304e+04 9.2578941837250e+01 1.3393421896662e-03
365 -6.7057772519281e+02 2.1325671427935e+04 -9.3682894969374e+01 1.2191769027279e-03
366 -8.4301758923027e+02 2.5118393222114e+04 9.0892979186491e+01 3.0881488390742e-03
367 -1.8711446929631e+03 3.1327124498783e+04 8.9592018274757e+01 4.1162148709823e-03
368 -1.8454493808972e+03 2.9988479244282e+04 8.8647886959629e+01 1.6386931794549e-03
369 -1.8394407486195e+03 3.1294464327470e+04 8.8248572683546e+01 3.7963371740091e-03
370 -1.8743760701838e+03 3.0186936537973e+04 8.8442590029281e+01 1.7779997688128e-03
371 -1.9183169529325e+03 3.0501132339507e+04 1.1820699176300e+02 2.1246581141033e-03
372 -1.8839423536374e+03 3.0747795451017e+04 8.8773493039993e+01 2.1473416915182e-03
373 -1.9721960688311e+03 3.1827004501372e+04 8.9678990110891e+01 3.3902694744031e-03
374 -1.9675097031587e+03 3.0477046588443e+04 9.0580071782406e+01 4.1463064101214e-03
375 -1.8263795450421e+03 2.9625208044750e+04 8.0549300599196e+01 1.7018051422363e-03
376 -1.8840862721588e+03 2.9808678464080e+04 8.8129968498608e+01 1.6572762775497e-03
377 -2.0442334276092e+03 3.0900833835036e+04 9.3294268670793e+01 2.2823052834941e-03
378 -1.7916628057881e+03 2.8113427522227e+04 9.0495542446829e+01 3.7272220169209e-03
379 -1.7355739986578e+03 2.8068541839344e+04 8.7505957920183e+01 2.0190277248713e-03
380 -1.7936071641483e+03 2.8067783908820e+04 9.0465242109770e+01 3.6705614159375e-03
381 -1.7787423544686e+03 2.7756261022780e+04 8.9593624371201e+01 3.5811935598438e-03
382 -1.9424160370896e+03 3.1089128817293e+04 8.8305269414203e+01 1.2703923720919e-03
383 -1.5671132375018e+03 3.3625296679953e+04 8.9976613165538e+01 1.2414203473274e-03
384 -1.8088618860461e+03 3.1239761110186e+04 9.0247220303540e+01 2.0200527305470e-03
385 -5.4751194377230e+01 2.2823519991554e+04 9.1659151210064e+01 4.4690470276430e-04
386 -7.8969918826295e+02 2.1336973782504e+04 -8.9088456210769e+01 9.8502701889389e-04
387 -9.1141889007366e+02 2.3262503040348e+04 8.9705120044470e+01 2.7704586238611e-03
388 -9.1288783672774e+02 2.1207102029435e+04 -8.9223560948054e+01 1.5014411062927e-03
389 -9.1311867187185e+02 2.2573533805419e+04 8.9584825464076e+01 3.0905025009182e-03
390 -9.3106411055753e+02 2.1450208785369e+04 8.8728972456390e+01 1.4482486306632e-03
391 -9.7060526329838e+02 2.2388074116650e+04 8.7396958971243e+01 1.5544584949232e-03
392 -9.9491980132077e+02 2.1536212110756e+04 9.7962912466959e+01 1.6235167051906e-03
393 -7.8348790146940e+02 2.1734741621504e+04 9.0945787554724e+01 1.1549662351653e-03
394 -8.5250339693420e+02 2.3570594712283e+04 9.4250410950290e+01 9.9059021185613e-04
395 -9.3809289657727e+02 2.4827842379410e+04 9.1675263891155e+01 8.6528998406215e-04
396 -1.0420956197592e+03 2.4025131089493e+04 8.9517706906213e+01 1.5703069714590e-03
397 -1.2707571885521e+03 2.3294350482494e+04 9.1620312641162e+01 1.5927042133806e-03
398 -5.2399957141212e+02 2.0178899407661e+04 8.9115687368624e+01 1.0717142644192e-03
399 -2.7332045317069e+02 1.9268321639348e+04 9.0973116196368e+01 1.0306866522318e-03
400 -2.5901884746182e+02 1.9253780920560e+04 8.9742000491488e+01 1.4659946001474e-03
401 -1.1785210605136e+03 2.7414215401019e+04 9.2127571626015e+01 6.2764447460446e-04
402 -3.7523752692344e+02 2.7864005074234e+04 -9.7612599409899e+01 4.0443008104420e-04
403 -7.2182467423389e+02 2.6278010106110e+04 8.9248016688956e+01 2.7748012480749e-03
404 -7.3900200776099e+02 2.6165181468425e+04 9.0301120457784e+01 1.9751655376009e-03
405 -9.0156884562975e+02 2.3572281669751e+04 -9.8966410162346e+01 8.5679308879871e-04
406 -6.3764884557189e+02 2.3187976742308e+04 8.6816342565580e+01 9.7262563161157e-04
407 -1.2105932054464e+03 1.9897115599864e+04 8.7099861062159e+01 1.1700842351454e-03
408 -1.2576952937385e+03 1.9402229987756e+04 -9.1306649430259e+01 1.9713645408837e-03
409 -1.2397316945005e+03 2.0078184094447e+04 -9.0838098802084e+01 1.6496674403749e-03
410 -1.3547948321858e+03 2.0722140261314e+04 9.0355786815067e+01 3.5024383891025e-03
411 -1.3486920983945e+03 2.0917792852318e+04 8.9548424674040e+01 3.6469125037160e-03
412 -1.2708325467573e+03 1.9738925721190e+04 8.9432520698010e+01 2.3200101631938e-03
413 -1.0315614856890e+03 1.8984312845289e+04 9.4322125063926e+01 1.7876731775974e-03
414 -1.0111261772839e+03 1.9412955054169e+04 9.1147757264175e+01 4.0071029246776e-03
415 -8.7368692940178e+02 1.7628046162721e+04 9.0535596636762e+01 1.9156038012258e-03
416 -7.1808761927500e+02 1.7660147303426e+04 8.9146540208385e+01 1.3148213787119e-03
417 -1.4648970184654e+03 2.2248510048728e+04 9.1901152871279e+01 1.2266375650948e-03
418 -1.4026581508312e+03 2.1708538691310e+04 8.8437905919438e+01 1.3474025782130e-03
419 -1.3747603205657e+03 1.9265366091079e+04 8.6630350559419e+01 2.0391319577405e-03
420 -1.5946539722919e+03 2.3480123959917e+04 8.9960367408786e+01 2.1149806348683e-03
421 -1.5747828497946e+03 2.3165672923042e+04 8.9059866471637e+01 3.8281476190193e-03
422 -1.5546435001752e+03 2.3277028752829e+04 8.7212111730628e+01 1.8547307445134e-03
423 -1.4573380398208e+03 2.0147195574067e+04 8.8821267356582e+01 4.5293363593384e-03
424 -1.4598391845186e+03 1.9420486006178e+04 8.1216595468158e+01 1.9091564035428e-03
425 -1.6097100204589e+03 2.0575755562675e+04 8.7326369998846e+01 2.4503499385632e-03
426 -1.6296338218611e+03 2.0498558136884e+04 8.9190030469222e+01 2.4632861207126e-03
427 -1.5591870315798e+03 2.1232451918492e+04 8.7887035730125e+01 2.6087839652878e-03
428 -1.9328613838972e+03 2.1393748100490e+04 -8.8887849053561e+01 2.3983525990532e-03
429 -1.7932531082663e+03 2.2877418826099e+04 9.4091178109292e+01 1.8659653188607e-03
430 -1.7910415728184e+03 2.3175437656306e+04 9.2241247586897e+01 2.1796408286689e-03
431 -1.7359716885280e+03 2.3030460535428e+04 8.7376627358127e+01 1.6462058366690e-03
432 -1.7418980899809e+03 2.4405357567394e+04 8.9263859415442e+01 2.1069558137866e-03
433 -1.6146545368099e+03 2.2478156282847e+04 8.9901797190679e+01 3.2756281220757e-03
434 -1.7813949246766e+03 2.1482376751336e+04 9.1093399601969e+01 4.8029829631016e-03
435 -1.7375322413070e+03 2.0758753024251e+04 8.8119824662656e+01 3.5117818130586e-03
436 -1.7507269198588e+03 2.1536335202140e+04 9.4517844030216e+01 2.1986946186367e-03
437 -1.6052355079118e+03 2.5631084582360e+04 9.0149278009634e+01 2.1675385423746e-03
438 -1.5774782668875e+03 2.3022202324110e+04 9.0617615667106e+01 3.3750480132230e-03
439 -1.7710452393404e+03 2.4156448626525e+04 8.9920953698599e+01 2.9295298127759e-03
440 -1.8365373586429e+03 2.5402589332435e+04 9.0155765777407e+01 2.0577325320326e-03
441 -1.8151439976041e+03 2.5105804460579e+04 8.7962709958545e+01 1.9058345094061e-03
442 -1.5989402011491e+03 2.6117539716308e+04 -9.5935067784970e+01 7.1369346642729e-04
443 -1.2548724887439e+03 2.3557337513651e+04 8.6520043576757e+01 1.7117081059168e-03
444 -1.4155720247093e+03 2.6998234780521e+04 8.9676569449133e+01 1.4466042064764e-03
445 -9.7225927146949e+02 2.5621423310824e+04 8.8583307328323e+01 2.8662423908341e-03
446 -1.2504272471324e+03 2.7398937115608e+04 -7.9113095552835e+01 1.0873886222668e-03
447 -1.3779254067203e+03 2.8950759615552e+04 9.1029368835214e+01 1.2392416121247e-03
448 -1.3440595002674e+03 2.7541511284541e+04 -8.8298461033195e+01 1.3010112771545e-03
449 -1.5983940398224e+03 3.1464021401448e+04 9.0589363924769e+01 1.7477638964701e-03
450 -1.6806357046058e+03 2.2883649263743e+04 8.8453390260771e+01 2.0534508727050e-03
451 -1.6378873184321e+03 2.2514377159255e+04 8.8511530533976e+01 3.2678836582858e-03
452 -1.5170382701134e+03 2.2646497949733e+04 8.9697229698235e+01 1.9849034702195e-03
453 -1.6048230781802e+03 2.1196455363361e+04 8.3683643270071e+01 1.7451271724216e-03
454 -1.4757268593427e+03 2.3474866072407e+04 8.8573714784846e+01 2.0021504574725e-03
455 -1.4976709933119e+03 2.4039197413675e+04 8.8031887543675e+01 2.8282262532428e-03
456 -1.5149790411986e+03 2.4031602710087e+04 8.9640911699852e+01 2.3056232506626e-03
457 -1.6351862653931e+03 2.1653252468098e+04 8.9061948539366e+01 4.5739064736573e-03
458 -1.4700950807367e+03 2.2568467396550e+04 -8.5977965837333e+01 7.8315732931496e-04
459 -1.4381310748019e+03 2.1463962675026e+04 8.8015395487751e+01 2.4343578880387e-03
460 -1.4497950385168e+03 2.2905895586449e+04 8.9960458987656e+01 2.3273321618715e-03
461 -1.1902724684565e+03 2.2275612068070e+04 9.2686087812165e+01 1.7121267230521e-03
462 -1.4998902968570e+03 2.1718407712221e+04 -8.3729697815083e+01 2.1718171320331e-03
463 -1.5097278032974e+03 2.1000395194275e+04 -1.0575184769185e+02 2.0699122529844e-03
464 -1.4520897023904e+03 2.1816367083629e+04 8.6929801080822e+01 2.0388205421540e-03
465 -1.4931345198587e+03 2.2785467719546e+04 7.6146738888362e+01 1.9700618864353e-03
466 -1.4976555719518e+03 2.3034617176783e+04 8.5096238851113e+01 1.8985734490468e-03
467 -1.4008856072002e+03 2.1829022884876e+04 1.0485126735755e+02 1.9894237669613e-03
468 -1.3232327278781e+03 2.0972900007384e+04 9.0052558904844e+01 3.0837841256084e-03
469 -1.4071181335323e+03 1.9083111124881e+04 -7.8760590440686e+01 2.2758682088742e-03
470 -1.4063835139364e+03 1.9915973165104e+04 8.6041786739457e+01 2.2171854364025e-03
471 -1.5587418973051e+03 2.0365334092104e+04 8.6023843878221e+01 1.6089894368990e-03
472 -1.5744406643175e+03 2.0734609587775e+04 8.8809890757031e+01 1.8599825048487e-03
473 -2.0754978741658e+03 2.4111174622521e+04 9.0231631945194e+01 2.9201052474199e-03
474 -2.0771063104427e+03 2.2817256387414e+04 9.1002332827438e+01 4.8533784716361e-03
475 -2.0852477373227e+03 2.2273833542169e+04 9.3160156039496e+01 2.4271231703747e-03
476 -1.9115548093757e+03 2.3565958939154e+04 8.0860855175111e+01 2.2490175485766e-03
477 -1.7677101685184e+03 2.1519378945416e+04 9.0074520290884e+01 3.1021265400546e-03
478 -1.7566149904160e+03 2.1510917398436e+04 8.9409029518298e+01 2.5164396902135e-03
479 -1.8628644622576e+03 2.4355602538450e+04 9.0259826788235e+01 2.5347893127837e-03
480 -1.8045499318604e+03 2.4293041021735e+04 9.0866695258940e+01 4.4155502511047e-03
481 -1.7723457516161e+03 2.3432394982846e+04 -4.8909109267158e+01 2.2039631598064e-03
482 -1.7551333388510e+03 2.3334852975762e+04 -7.2969606376852e+01 2.0700488247843e-03
483 -1.9556972545117e+03 2.3673778876350e+04 9.0752950827754e+01 2.4845348774736e-03
484 -2.1290136783940e+03 2.4246835556920e+04 8.7154711657645e+01 1.9619967815596e-03
485 -2.1143595220077e+03 2.4865175727247e+04 8.8131182744730e+01 3.3810647314691e-03
486 -2.1419681788478e+03 2.4931779102032e+04 8.9822739887126e+01 2.9323655640357e-03
487 -2.0357688160671e+03 2.3689397825157e+04 8.8761591847168e+01 4.6450883499554e-03
488 -2.1567237158032e+03 2.2846577897194e+04 9.0104394675448e+01 3.0697962011036e-03
489 -2.3246997009579e+03 2.2892904890092e+04 8.8740958389459e+01 4.2637732208738e-03
490 -2.0762565250756e+03 2.5509694916692e+04 9.0888108741952e+01 4.6637440609923e-03
491 -2.0367455960974e+03 2.5258058478464e+04 8.4078648438106e+01 2.0611426678104e-03
492 -1.9678935881496e+03 2.1860778528367e+04 -8.9867280716007e+01 2.3169595168964e-03
493 -5.1112585157430e+02 1.9696836129912e+04 8.6956234005069e+01 6.6556290588306e-04
494 -8.0772972296612e+02 1.8438898656415e+04 9.4209172326807e+01 1.3378091640585e-03
495 -8.8243559631505e+02 2.1528358711561e+04 -8.9788612082960e+01 1.4542683030372e-03
496 -8.8218611357416e+02 2.1748130128763e+04 -8.9122004113074e+01 1.3861256760376e-03
497 -6.5383121925408e+02 2.0876739420886e+04 9.1510659976512e+01 1.2033347531285e-03
498 -6.2511917573065e+02 2.1970946860816e+04 9.6094646555970e+01 5.2419333948702e-04
499 -5.6259231771126e+02 2.3291058591156e+04 8.8550292684869e+01 2.3831978203095e-03
