0 -5.7366076253942e+02 2.7188241966647e+04 -2.4840143164622e+00 8.6334126130283e-04
1 1.4110069369208e+03 2.7013267637765e+04 4.8278903403527e+00 3.4973115707356e-04
2 -1.5487530607877e+03 2.7110216075113e+04 9.6970291793457e+00 1.1873915028721e-03
3 -1.9374527692256e+03 2.6705630559531e+04 1.7001492186349e+02 5.4870514744659e-04
4 5.1831132975544e+02 2.5845504093172e+04 1.5734131070326e+01 3.9741369834519e-04
5 -2.8322390101075e+03 2.5886480869917e+04 -1.7653361288628e+02 8.6902036315559e-04
6 1.7920417436092e+02 2.5460856827216e+04 -5.0299771013672e+00 4.9666144905153e-04
7 -4.8198368686959e+01 3.0381991320147e+04 -5.2065392418883e+00 2.5555999792853e-03
8 -1.3335942026613e+03 3.0896860208208e+04 1.5960033355817e+02 2.1161952448508e-03
9 -1.7741128609562e+03 3.0526976131212e+04 -1.6937277030071e+02 1.6309859088485e-03
10 1.6194686198184e+03 3.0471090645149e+04 8.1429606272075e+00 2.5799302723744e-03
11 2.4516153331414e+03 3.1084848870165e+04 1.4703879791273e+02 3.5957195164624e-03
12 2.2866229646878e+03 3.1090090321439e+04 -3.3689130834879e+01 3.7353918737079e-03
13 3.6099612519192e+03 3.1025933028778e+04 -1.0486637780072e+00 3.3435755037480e-03
14 2.6238872028708e+03 3.1248433047041e+04 7.8639743272031e+00 2.8537662688377e-03
15 3.3846100051078e+03 3.1371972411844e+04 1.7333786173621e+00 3.3643853536821e-03
16 1.5967060624410e+03 3.1347244511696e+04 -7.2876078155396e-01 3.2085644955231e-03
17 9.4360634337439e+02 2.5491572172550e+04 -3.0161388364975e+00 3.6458713283025e-04
18 6.9056051144126e+02 2.5466168895411e+04 -1.1572693718048e+00 3.8186502333969e-04
19 1.3145884401636e+03 2.6257292073000e+04 1.9888179187065e+01 3.5134662799641e-04
20 1.1522933456439e+03 2.6545817710996e+04 4.7994979698936e+00 3.5201993259170e-04
21 4.1223804372096e+02 2.9461801731767e+04 -6.5970791982984e+01 7.1785783678203e-04
22 -1.2569118495660e+03 2.2354372322314e+04 -1.7393864871964e+02 5.1741148118636e-04
23 -1.9458347089053e+03 2.2434629197948e+04 1.7589554455545e+02 3.0415394479853e-03
24 1.9098395153702e+02 2.2643590087128e+04 6.0564206392439e+00 6.3153444882460e-04
25 3.5688995138263e+02 2.2581742534992e+04 1.8201995328258e+00 5.3870633478968e-04
26 2.7952988598822e+02 2.3782598865426e+04 -2.8479105681578e+01 4.9725274170850e-04
27 6.3334073041428e+02 2.4954987448836e+04 -1.4739565752868e-01 3.9340896514985e-04
28 -1.3862695345487e+03 2.5999502363916e+04 7.0471589760570e+01 2.4612124081696e-03
29 -1.5740842374869e+03 2.5990401839487e+04 -1.6110401163091e+02 1.9438803712742e-03
30 -7.1961179620492e+02 2.5825420984823e+04 1.4378008139852e+02 9.0505621406251e-04
31 -1.8485026163810e+03 2.6730188656927e+04 -1.1938225531332e+02 6.7799526417955e-04
32 -9.8321477189893e+02 2.6901558417443e+04 -1.0546456702328e+01 5.8453858497803e-04
33 2.1191907213945e+03 2.5628383277942e+04 -2.9258734116541e+00 3.4884824760213e-04
34 -2.5846406021388e+02 2.0767914571091e+04 -1.4604991612489e+01 5.0927151897681e-04
35 7.0008699492019e+02 2.0784731721626e+04 -1.7393653405781e+02 3.9146044738957e-04
36 -1.0921858344849e+03 2.3554303753994e+04 -9.2831513155982e+00 8.3331514494632e-04
37 -4.0649153993416e+02 2.6439553549420e+04 1.7921882436569e+02 7.1569841172843e-04
38 2.0032426915935e+03 3.0006288610290e+04 2.7922749798295e+00 1.5122972384248e-03
39 2.9541520021358e+02 3.1135434999372e+04 -1.0549683525079e+01 3.8323540912742e-03
40 9.4336823066156e+02 3.1374719619421e+04 -2.5480943386535e+00 3.7898918791585e-03
41 -6.0210886097704e+02 3.1053743274737e+04 -1.7798742980048e+02 2.1188413735242e-03
42 -9.0446781487011e+02 3.0863924282387e+04 -1.7761247855102e+02 1.7758005662236e-03
43 5.3993802074522e+02 3.0825561143120e+04 2.8182935444821e+00 3.4531585232590e-03
44 -5.4947829287550e+02 3.0804750224796e+04 -1.6994497071112e+02 1.8053411777322e-03
45 -4.7641848340354e+02 3.0993325874530e+04 -1.7217712580726e+02 9.6266345466491e-04
46 -1.2949153202153e+03 3.1505785076117e+04 1.7976357484553e+02 3.7195814372144e-03
47 -3.2055958237106e+01 3.1669065107596e+04 7.6429054072499e+00 2.4298413053187e-03
48 6.0903633642967e+01 3.1790203733459e+04 -3.9241916403372e+00 1.0754324641212e-03
49 -3.3614172246868e+02 3.0663343543266e+04 2.4606674132515e+01 3.3965252006796e-03
50 2.2204828723642e+02 3.1753260330062e+04 -2.7335950096369e+00 3.5123007987760e-03
51 4.8280496251361e+02 3.2124662044203e+04 -1.7508531825986e+00 2.9339171350632e-03
52 3.2165669381407e+03 3.1788428305136e+04 3.9159556311123e+00 1.7990472468457e-03
53 -5.3756045518432e+02 3.1398453053133e+04 -1.6570788000371e+02 1.1704332328096e-03
54 1.0756582142772e+02 3.2889419782705e+04 -1.7096422310507e+02 1.3076069519980e-03
55 2.1517322445718e+03 3.2413422831842e+04 2.7306214064049e+00 2.5637656726937e-03
56 2.6495335522516e+03 3.1320171623037e+04 8.4769885481481e+00 2.3317373168847e-03
57 2.9126577850911e+02 3.0238265260022e+04 3.9478900192750e+00 2.5380082239040e-03
58 -6.7459390901639e+01 3.0019296529987e+04 1.7419997478340e+02 1.8872626014332e-03
59 1.8649471505143e+03 3.2348867400512e+04 -1.7563693209188e+02 2.4826821164708e-03
60 1.6294660490163e+03 2.6843510423007e+04 -1.1371226452083e+00 3.4942413595087e-04
61 -1.2636093536681e+03 3.2895754762960e+04 1.7722007342000e+02 9.5902300709485e-04
62 -5.6789400780668e+02 3.0363951765914e+04 1.3650177985524e+01 1.5125817247643e-03
63 1.7628663488021e+03 3.0049540365525e+04 -4.1547611405769e+00 1.7093800400815e-03
64 -1.8312730785162e+03 3.2041464028954e+04 1.7113337538440e+02 2.8537053207555e-03
65 5.6579818957979e+02 3.1922123114370e+04 -5.6192743641646e+00 3.3502713880937e-03
66 1.4350517915061e+03 3.1486936159875e+04 -9.0994164898077e-01 3.1311817185662e-03
67 -1.4950285779080e+02 3.1488726047980e+04 -1.7995961031320e+02 3.7572047870156e-03
68 1.5003846821798e+03 3.1725565864410e+04 5.9276334268120e+00 2.6540527428270e-03
69 1.8118192534665e+02 3.1486667927638e+04 1.5900247086216e+01 3.5755801741791e-03
70 -1.2564680122102e+03 3.1456492617112e+04 -1.2619533777204e+02 3.0120610515874e-03
71 -9.2506736232975e+02 3.1506804328805e+04 -5.7512455936413e+00 1.0982618331989e-03
72 1.2249955433486e+03 3.1779744962646e+04 1.7101307805088e+02 2.6074119974226e-03
73 -3.9078549246551e+02 3.1615827750792e+04 -1.7792146879983e+02 1.7467590754201e-03
74 2.1485901766727e+03 3.1310852369523e+04 -1.7382955896111e+02 3.7265389922518e-03
75 2.1956815296335e+03 3.1339811947186e+04 -8.3825731095585e+00 1.7267563608986e-03
76 1.6148082527871e+03 3.1701117759529e+04 -8.6707075711747e+00 3.2947491641687e-03
77 1.8293012014029e+03 3.0233745470712e+04 -2.1201274872410e+00 1.9627235145681e-03
78 6.6773045646896e+02 3.1027654716095e+04 1.7563507194829e-02 2.1189116950839e-03
79 -1.7210940067545e+03 3.1330230314866e+04 1.6471931080441e+02 8.6867013439210e-04
80 7.8190608955575e+02 3.0063001416969e+04 3.9255015171438e+00 2.2048578930412e-03
81 3.5646378752888e+02 3.2185917583602e+04 -8.6627913584648e+00 2.5940475086898e-03
82 1.2819885653547e+03 3.1165552765498e+04 -1.3446380283025e+01 2.8387599040076e-03
83 -6.2212350239794e+02 3.1395590664853e+04 1.5038407572710e+02 3.6009366503554e-04
84 1.1925654422749e+02 2.9729776760007e+04 1.6756364933124e+02 1.0271437258308e-03
85 -9.6267615935125e+02 2.7926800794431e+04 -7.6566202918479e+00 7.9279883496763e-04
86 -5.8720811508228e+02 2.6179483965214e+04 -1.1416830133047e+00 6.7511196272973e-04
87 1.0799905978724e+03 3.1066029112193e+04 5.2703215892955e+00 3.7392518813128e-03
88 -9.1658474495798e+02 3.0624048473328e+04 -1.6572937840971e+02 2.4817341616670e-03
89 -4.4089702160311e+01 3.0872788501489e+04 2.6816417044232e+00 2.9845125854190e-03
90 -1.4850626205408e+03 2.8299295047309e+04 -1.0572950947197e+01 7.3612877456247e-04
91 -5.9095904858392e+02 2.8476867726327e+04 1.3888277821394e+02 5.0355673709834e-04
92 -1.1151675632330e+03 2.7454727312262e+04 -1.7950313852065e+02 1.0326360527660e-03
93 3.8733781008402e+02 2.9017254341931e+04 -2.7144860857689e+00 6.9596935297336e-04
94 -1.8779533618706e+03 2.7269068939474e+04 -1.7904631527453e+02 2.1628160209722e-03
95 -1.3575875591124e+03 3.0180654583073e+04 -1.7068665260074e+02 9.7352633008401e-04
96 -1.1096309619255e+03 3.0209178314793e+04 1.6835214769028e+02 1.7550569038525e-03
97 5.4798037782839e+02 3.0072032214976e+04 1.1760992613014e+00 2.2326744970237e-03
98 -5.2744627568108e+02 2.6749815712272e+04 -3.8838562713844e+00 5.4254599956466e-04
99 -4.7667283855826e+02 2.9638140877818e+04 -1.2191373061461e+01 1.5212567288080e-03
100 -7.1245121632041e+01 2.4589502650362e+04 -2.2449106407071e+01 6.4496673717243e-04
101 -9.8530271352380e+02 2.4825804141821e+04 -1.7821906686798e+02 1.5833605016091e-03
102 3.6028140254732e+02 2.5041303369951e+04 -2.5604365512419e+01 3.9176741202996e-04
103 2.4071224706797e+02 2.7906317957166e+04 8.1343843674515e-01 4.0123119675225e-04
104 2.1111853469545e+03 2.8959439811244e+04 -4.4529807590257e+00 5.7030275381867e-04
105 -1.3239426682997e+03 2.6801509353269e+04 -3.1386073674132e+00 9.0164678374286e-04
106 -1.2304983717327e+03 2.6596362136030e+04 9.2702977112541e-01 1.6228697660390e-03
107 -1.0695100243884e+03 2.6691270802269e+04 1.7757589780121e+02 1.1512858000702e-03
108 1.9388704594585e+01 2.6282716554590e+04 5.4526297165388e+00 5.3967233320828e-04
109 -4.2897031274593e+02 2.6182227463165e+04 1.6541295919240e+02 7.8209980002710e-04
110 -2.4218682907527e+03 2.6333801198158e+04 -1.7653214096578e+02 3.8354101187985e-03
111 -2.9998509887979e+02 2.6616113369960e+04 -1.7511399684271e+02 6.2792020180091e-04
112 -6.8624310938560e+02 2.7140125123588e+04 2.5425534071039e+00 9.2380313664646e-04
113 -5.6256410958573e+02 2.6609068952152e+04 -1.3209123673879e+02 5.1546380095327e-04
114 -1.7473834680313e+02 3.0859689566617e+04 -1.9834728275450e+00 3.2166202384573e-03
115 7.6503350582225e+02 3.1060634678578e+04 -3.2473190742220e-01 3.4317450390359e-03
116 -1.2680190149466e+03 3.1063006107118e+04 2.9115207727400e+01 3.0346261269683e-03
117 -6.6663457218323e+02 3.0950405446748e+04 1.7561653488731e+00 3.5051661561760e-03
118 -4.0799072635598e+02 3.1034602769761e+04 -5.0473864615791e+00 1.7477244280583e-03
119 1.5305765597645e+03 3.0385584139779e+04 5.0943837416981e+00 1.9143453540897e-03
120 -7.4587093046019e+00 3.0198254462633e+04 -1.6017051379329e+02 1.9966913937906e-03
121 4.0065014207319e+03 3.0531772687696e+04 -4.7422628626394e+00 2.7650444350976e-03
122 6.2423043392143e+02 3.0600454919846e+04 -1.4530318445800e+02 2.0915990522114e-03
123 -2.2847316611271e+03 3.0249275169357e+04 7.6537836367243e+01 3.8246246375989e-04
124 -6.1755326620382e+02 2.9892334331657e+04 -1.7443396461997e+02 1.8317836436312e-03
125 5.3776403655697e+02 3.0401332202868e+04 4.5036952216902e+00 2.9345224305078e-03
126 -7.3570397402250e+02 3.0850728019448e+04 -1.5454839133511e+02 8.7565687678295e-04
127 9.5446835721815e+02 3.0552416243341e+04 -7.9320413259603e+00 1.9869934782045e-03
128 -2.1679241113470e+02 3.0606951066934e+04 -4.5705559457528e+00 3.3725858254938e-03
129 -9.8758586488991e+02 3.1755982238629e+04 1.6948009864258e+02 2.3490646950099e-03
130 4.3837136543394e+02 3.1715274613464e+04 5.9448680415740e+01 3.4994727057796e-03
131 3.6951171481809e+02 3.1353191190641e+04 4.7075490813835e+00 3.5593820398749e-03
132 -6.9169670658505e+02 3.1202623758856e+04 1.6908581986552e+02 6.8130107495015e-04
133 -7.4646556496706e+02 3.1060228284678e+04 -4.2126598371829e+00 2.2852495219553e-03
134 -2.2421301652023e+02 3.1212073024707e+04 2.4227080784602e+01 3.8122273240352e-03
135 7.0180962556558e+02 3.0744809172721e+04 1.1151067698867e+00 2.1360271014563e-03
136 -9.6634864113469e+02 3.0535100973108e+04 1.7975972301316e+02 5.8112565279124e-04
137 -1.8346441999745e+02 3.0769230969189e+04 -1.1724788620310e+01 7.9755180798895e-04
138 4.1509387199917e+02 3.1897485630407e+04 -1.6065282323745e+02 2.9835483599539e-03
139 -4.1717553573702e+02 3.2972648714442e+04 -2.6697743930453e+01 8.0852680904910e-04
140 2.1400266660311e+03 3.2270994235824e+04 -2.9821079254639e+00 1.6239397033338e-03
141 1.4155523751191e+02 2.9314836737671e+04 -1.7652876481667e+02 9.7937137244797e-04
142 9.1180058195591e+02 2.9362285729725e+04 4.7821593080346e+01 9.9553980090684e-04
143 5.6864646585429e+02 2.9699752803146e+04 3.1675674721281e+00 1.3793411759458e-03
144 -4.2650319528789e+02 3.1447669494588e+04 -1.3427697533628e+01 5.9288023043098e-04
145 -6.5901201883605e+02 3.1175535350423e+04 -8.8418682389731e+00 3.8347704597689e-03
146 -4.8160778165225e+02 3.1594622309788e+04 3.1981172726632e+00 3.2201118534608e-03
147 -6.1699013311226e+02 3.1431761002520e+04 1.8657603102566e+00 3.7934005085982e-03
148 1.4604080328964e+03 3.1104503921403e+04 -8.1792307130372e-01 3.6684845356524e-03
149 6.4594680681839e+02 3.1783972903649e+04 7.8842601616066e+00 3.4374231639979e-03
150 -1.1291785303074e+03 3.1681048791292e+04 -1.7858521926785e+02 1.6154092290418e-03
151 7.6699717317219e+02 3.1859135717433e+04 2.1242946068738e+00 3.4669574129445e-03
152 3.1155403640212e+03 3.1744770979430e+04 6.5373680127519e-02 1.3695113320594e-03
153 1.7896906863542e+03 3.1929045511085e+04 -1.7113019794178e+00 3.4490195671089e-03
154 1.8329265362268e+03 3.1369872866560e+04 -8.6374126579839e+00 3.0778020209264e-03
155 1.2117800686835e+03 3.1584223338294e+04 3.2273449265203e-01 3.6758584895888e-03
156 -1.3330235125012e+03 3.1597558602388e+04 -1.7433605911839e+02 1.4633330763624e-03
157 1.7867678065358e+03 3.0286153708593e+04 -6.6440116919034e+00 1.6090624676117e-03
158 1.1825414394755e+03 3.0394874947510e+04 -2.8684035958281e+01 7.0215597833872e-04
159 3.1014846512491e+03 3.0225126864974e+04 2.0402185098997e+00 2.1249592264935e-03
160 -1.5861939510002e+03 3.0600399402712e+04 -1.7435614037559e+02 8.4856251538184e-04
161 -1.4177159438369e+02 3.0701933317650e+04 -2.2901364656348e-01 3.5108064945367e-03
162 -2.1618958828846e+03 3.0551501690009e+04 -2.2060663973340e+00 8.0967525853948e-04
163 6.4395454686196e+02 3.1097167577480e+04 4.0809631579948e+00 2.1224292542104e-03
164 -4.0759146517762e+02 3.1491888191027e+04 -1.9573411781508e+01 7.8433835100641e-04
165 1.2785083154636e+03 3.0404596467534e+04 -9.6618562340401e+00 2.8190784307449e-03
166 2.4809141929903e+03 3.0447877445631e+04 -2.9985468397809e+00 1.0068196573860e-03
167 1.4123740832671e+03 3.0152226155572e+04 -7.3842365829056e-01 2.2971195085550e-03
168 -4.4028142058439e+02 3.0120499859047e+04 -1.7835816377685e+00 2.3684204587686e-03
169 2.8742896235129e+02 3.0252208746536e+04 -4.9221880411065e+00 2.4614020734503e-03
170 -1.7541347915946e+03 3.0340961821059e+04 1.7456387607566e+02 3.0882611400881e-03
171 1.4852183424710e+02 3.0336166002639e+04 -8.4924287827269e-01 7.7076226003219e-04
172 -4.4866518471606e+02 2.7388875557367e+04 9.6068593208966e+01 7.0569298433210e-04
173 -6.6757605479515e+01 2.7056635673712e+04 -1.7498770845052e+02 5.4476942658633e-04
174 -5.5610897106336e+02 2.8331688307302e+04 -2.0820636646184e+00 6.8067926462974e-04
175 -1.1105927240682e+01 2.9974121899469e+04 -2.0774268690878e+00 2.1196314249333e-03
176 1.7783208818831e+03 2.9719897270629e+04 -7.9628439122153e+00 1.0983971418569e-03
177 -6.7277683328205e+02 3.1489172184507e+04 -1.5946051670963e+02 1.3792063361729e-03
178 -1.5185440657272e+03 3.1661754341773e+04 1.7635621694833e+02 2.1863855574222e-03
179 3.0074191374042e+03 3.1368783829257e+04 -2.5757116110166e+00 1.1742925540222e-03
180 5.9991602269362e+02 3.0563889265897e+04 4.2248442674901e+00 3.0041997052925e-03
181 2.2336113075713e+02 3.0462036209668e+04 8.3212021388384e+00 2.1694758565878e-03
182 -1.0590548939328e+03 3.1774852698912e+04 1.7863630783604e+02 3.4250988067312e-03
183 -1.1909218577440e+03 3.2002730441910e+04 3.5250078221954e+01 2.3180235435320e-03
184 6.5164516787090e+02 3.1916569528744e+04 1.4786129958472e+02 1.6442868728574e-03
185 2.0976871386729e+03 3.0642292112469e+04 -3.5772895091902e+00 2.6540381177160e-03
186 1.9767722245137e+03 3.0757445573890e+04 1.1006811462518e+01 1.8647743221753e-03
187 -7.7848854060017e+02 3.0975798787561e+04 6.5338108924426e+01 9.3040106852457e-04
188 4.3795593875155e+02 3.0802383217245e+04 1.6559306110405e+02 2.7208444193197e-03
189 4.5995144271532e+02 3.0647602907051e+04 -1.6940486469817e+02 2.3070635236073e-03
190 -2.2273187843614e+03 3.1537315944402e+04 -3.8995961238997e+01 7.4873446100796e-04
191 -1.4141173816975e+03 3.1378729520005e+04 -6.9794865644615e+00 1.9294944647402e-03
192 -1.4030976216241e+03 3.1320622861847e+04 -2.9147902142788e+01 3.0792265975577e-03
193 -2.2035491550869e+03 3.1080113149134e+04 -1.7536372114340e+02 3.0457935730733e-03
194 -3.0758151498957e+02 3.1178544887734e+04 -1.5085487982092e+00 3.8344324069276e-03
195 2.3128927484704e+03 3.0447673934663e+04 -1.7261822546346e+00 2.7989510985208e-03
196 1.0141083528099e+03 3.0052705589617e+04 6.4099287279157e+00 1.5144497832018e-03
197 2.6816996788797e+03 3.1823826254841e+04 1.3176062414429e+01 1.8987795450948e-03
198 6.6419711010039e+02 3.2153420558235e+04 -4.8217177427339e+00 2.6173890195354e-03
199 1.7975393925827e+03 3.2061886947842e+04 -4.1668191906268e-01 3.2430583085600e-03
200 -1.8487157775017e+03 2.7751175137545e+04 1.7661792456890e+02 1.7856183589209e-03
201 -6.6118210200543e+02 2.9870604514880e+04 -1.2308684325108e+02 1.2535654316637e-03
202 5.9350615577052e+02 2.9961606665037e+04 -4.9788874346046e+00 1.7608323971328e-03
203 -6.3106740878955e+02 3.0682912609784e+04 1.3116673310927e+00 2.9405605666971e-03
204 -4.1131905374711e+02 3.2230737230949e+04 -1.4420096220488e+01 2.5374797536749e-03
205 -8.8662273778282e+02 3.0015209565776e+04 1.7961348688701e+02 2.3031161168981e-03
206 -2.2480802186530e+02 3.0027984215684e+04 -1.2084381572633e+01 2.1265630795784e-03
207 -1.1614530629170e+03 3.0344259623480e+04 1.5363918765233e+02 2.9738768228006e-03
208 1.2639647822265e+03 3.0876424796927e+04 -7.3615853150643e+00 3.5060921347673e-03
209 4.6175515546058e+02 3.1580504972153e+04 -1.8132830012557e+00 3.3025739706860e-03
210 -2.4597745728160e+03 3.1852456244105e+04 -1.6815067719118e+02 1.0200014445071e-03
211 8.6615656412067e+02 3.0506346105461e+04 -4.1297571165653e+00 9.1091532734738e-04
212 2.3921910442227e+03 3.0686607489016e+04 4.5113987132686e+00 2.4486817146076e-03
213 2.0169020388156e+03 3.0367373495065e+04 1.7874276190707e+02 2.1070229570966e-03
214 -5.3372027037888e+02 3.1060750224859e+04 1.6546507974598e+02 3.3791648637038e-03
215 8.0005680213810e+02 3.0520940669336e+04 1.6068715328018e+02 3.1337052315897e-03
216 1.9287627014035e+03 3.0798096173804e+04 7.2630560970909e-01 3.3736533140228e-03
217 1.7224583013510e+03 3.0847764876885e+04 1.4935151950073e+02 3.5438006789453e-03
218 -1.3887760998334e+03 3.0515446397221e+04 -1.7924702541431e+02 2.0468745308934e-03
219 -1.3329797280823e+03 2.9719921889534e+04 -1.0020931001041e+01 7.9689282176215e-04
220 7.0159136122894e+02 3.2518491090214e+04 -6.2168801141865e+00 2.0998478524856e-03
221 -1.4486951477374e+03 3.2037583856293e+04 -1.7441856967401e+02 1.5083041757251e-03
222 1.0172340642949e+03 3.2230849641242e+04 -6.6230538470506e+00 1.9000380045322e-03
223 2.4721149970375e+03 3.1005194716821e+04 1.7794191673344e+02 3.4769245419401e-03
224 1.9091361234390e+03 3.1033433560093e+04 -1.1129811015204e+01 3.7364223355040e-03
225 1.5516908755200e+03 3.1109845353250e+04 -1.3446195636890e+01 3.1025586337180e-03
226 -1.7763330106973e+03 3.0795144128611e+04 -1.6280467405959e+01 2.0344148934185e-03
227 -3.8975104705240e+01 3.0822328829094e+04 -8.5458600181072e+00 2.9536700053251e-03
228 -8.3425507469770e+01 3.0876746290660e+04 -1.6588132518379e+01 1.1235803405076e-03
229 1.5052741630629e+03 3.2599385415605e+04 1.0322163266553e+01 1.9169114060814e-03
230 -1.0795301483799e+03 3.1114891927415e+04 -8.7477417496602e+01 1.1574812519435e-03
231 6.4715359647538e+02 3.1152510204157e+04 -1.7541197844828e+02 3.3226829185006e-03
232 9.2329786916690e+02 3.0708402507158e+04 -1.7868132132192e+00 3.2673949498223e-03
233 7.9045544478079e+02 3.0749624804375e+04 -3.5311715308064e-01 3.3316291782680e-03
234 2.4632376624419e+03 3.0564661086710e+04 1.0204146570598e+00 1.8594865617822e-03
235 -2.1952755565076e+03 3.1240286823297e+04 1.7743754189947e+02 6.5617938908571e-04
236 -8.7182880059319e+02 3.1109495950774e+04 1.7261090587566e+02 3.3078914610648e-03
237 1.3358103315830e+02 3.0878667462090e+04 1.7677716161192e+02 2.7009077624516e-03
238 1.0457459791597e+03 3.0758244324752e+04 1.5794906280668e+02 1.0132016134303e-03
239 6.6222966443330e+02 3.0603798931295e+04 -4.1548444714814e+00 2.3615225555326e-03
240 -1.6793657841856e+03 3.0454823316956e+04 1.3117733981273e+02 4.6375376948310e-04
241 -1.3556519834757e+03 3.2093187568473e+04 1.7507188408601e+02 1.3331268514391e-03
242 5.2455704086694e+02 3.1143420281627e+04 -1.4800676012151e+02 2.3474476818136e-03
243 2.5612220334456e+02 3.1019530158183e+04 -7.7348640373264e+01 3.8006156306839e-03
244 2.4486681277881e+03 3.1520306365743e+04 -1.3429362811797e+01 3.6652520906874e-03
245 1.1899386837880e+03 3.1474010431086e+04 1.7090822744617e+01 2.7448292339677e-03
246 7.1046243247077e+02 3.1823634572287e+04 4.4244903684572e+00 1.8564383143548e-03
247 1.2421319443497e+03 3.2354991242977e+04 1.7780442733127e+02 2.5694405881829e-03
248 1.0716813725647e+03 3.1323089386182e+04 -2.0292544824580e+00 3.7911558052384e-03
249 2.1219367958624e+03 3.1616904126592e+04 6.9804097668982e+00 2.3174755727591e-03
250 -3.9997158195760e+01 3.1976248930063e+04 -2.6386687368934e+00 2.2064729519143e-03
251 8.6713134230194e+02 3.1718567583895e+04 -1.6508109744027e+02 3.5869867469533e-03
252 -9.3590350837859e+02 3.1756834844655e+04 -1.1809727496185e+02 5.5698724633323e-04
253 -4.3015604455698e+02 3.0916178364811e+04 2.9656214790001e+00 2.0082265372708e-03
254 -4.3862768452662e+02 3.1015154600290e+04 1.5783401711961e+02 2.9201458742174e-03
255 2.5067768037458e+03 3.0818090008133e+04 -2.2947078642708e+00 3.3856451564755e-03
256 3.3910075972396e+03 3.1670561642635e+04 5.9535943275153e+00 4.3873133296389e-04
257 1.9883003763655e+03 3.1410810703442e+04 -1.0599152722156e+00 2.6820856092870e-03
258 2.3146802010752e+03 3.0705397023802e+04 -1.9477609162371e+01 3.2342838628146e-03
259 1.0847666803594e+03 3.0935014031979e+04 1.3786409461733e+01 2.1732843416692e-03
260 1.7158115235858e+03 3.0794392581684e+04 -5.1330345726039e+01 3.4260647120338e-03
261 2.6229911955244e+03 3.0656231781910e+04 -4.8155692456370e+00 3.0108091015922e-03
262 1.8759189976009e+02 3.0890185473019e+04 -1.6533576164807e+02 2.8406985918565e-03
263 1.4298739836376e+02 3.1192810726472e+04 -9.2416441075076e+00 2.6333329455829e-03
264 -1.4730178317079e+03 3.1141873426284e+04 2.2061719727239e+00 3.4186252806789e-03
265 -3.7022225092163e+02 3.1228503400555e+04 -4.2227963597890e+00 3.8354101187985e-03
266 -3.3253663987950e+02 3.1631017171252e+04 1.7870571266937e+02 1.3806682385693e-03
267 1.4139107094985e+03 3.1649973790553e+04 -9.4377264334032e+00 3.5979302695518e-03
268 -2.9357714153920e+02 3.1490363702583e+04 -1.0103712916955e+01 1.3664319773935e-03
269 5.1081804824870e+02 3.1293423796526e+04 1.7891932533240e+00 3.8354101187985e-03
270 1.4955427109198e+03 3.1182467971572e+04 -4.8305173298780e+00 3.8311640532683e-03
271 1.0100605150463e+03 3.1284402841060e+04 -2.5425628951624e+00 2.7797897512096e-03
272 2.6935611374853e+01 3.0160157041681e+04 -8.5965423586482e+00 5.4823630145950e-04
273 5.2238351229910e+02 3.2066322475989e+04 4.6646541949494e+00 4.5507133148266e-04
274 1.5435887289277e+03 3.2000817168543e+04 2.2352612296691e+00 2.6576742517165e-03
275 -1.4953168183093e+03 2.9888552126815e+04 -5.5676142669620e+00 2.1209075678883e-03
276 -3.7961978288803e+03 3.0011530617703e+04 1.7772871304930e+02 1.5098555367542e-03
277 -3.5731151385179e+01 3.0156296767021e+04 1.1220885808585e+01 1.7525997265275e-03
278 -1.1062263331937e+03 2.7866086751500e+04 1.5281216190791e+00 1.0506203230331e-03
279 6.8999577056399e+02 2.9474459445502e+04 1.5617019226443e+01 1.1469508708970e-03
280 -7.3889646125406e+02 2.8863153845310e+04 7.2550017734503e+00 7.7011597033912e-04
281 -3.0432436653034e+03 2.9196503012690e+04 1.6206924412395e+02 1.0061179564905e-03
282 -5.3521346129011e+01 2.9242836646978e+04 3.3127326575834e+00 6.8464534693470e-04
283 1.0961508908535e+03 2.6034442625038e+04 2.5073860884215e+00 3.5722256924419e-04
284 1.7293626919483e+03 3.1063615571696e+04 -7.6408906235972e+00 3.5758193308431e-03
285 1.3010713424828e+02 3.1655358361444e+04 2.3683753631805e+00 2.6285142897860e-03
286 -3.1584630568636e+02 3.1392160323203e+04 9.9926489672718e+01 3.5219851126923e-03
287 5.7076167914812e+02 3.0776165316997e+04 -1.4651425461980e+02 2.0670490386356e-03
288 5.2327110373008e+02 3.0907475325541e+04 1.1085455980461e+00 2.1708036684177e-03
289 7.3686897531281e+02 3.1505002776929e+04 -1.9522030345179e+01 1.3059692660645e-03
290 2.1751675837052e+02 3.1349996560964e+04 9.8200767838284e+00 2.2941262189891e-03
291 7.9997039764198e+02 3.0447341425543e+04 1.1324411090332e+00 1.7700837842725e-03
292 -1.4608687835162e+03 3.0621580509861e+04 1.7631666182647e+02 1.3546010678507e-03
293 -1.8279632621206e+03 3.0652545733560e+04 -2.3922352010122e+00 2.8417378953237e-03
294 -4.9325273837337e+02 3.0501150661495e+04 -8.1351771212977e+01 2.7851190614162e-03
295 3.4551654121569e+02 3.0727970285007e+04 -1.1161230552450e+02 3.1154472657006e-03
296 1.0931592857755e+03 3.0416927033221e+04 9.3855451278874e+00 2.5527769820698e-03
297 1.8262544007304e+03 3.1415303332620e+04 -5.6069273193963e+01 3.7593867536306e-03
298 2.5118487029888e+03 3.1524911524649e+04 -7.0963829139345e-02 2.0209046155953e-03
299 1.5983257956279e+03 3.1329279087410e+04 1.7875778754739e+02 3.6612086823175e-03
300 -8.6806804658147e+02 3.0760843459594e+04 -1.7917503889990e+02 3.6553340933303e-03
301 -2.2914089008659e+03 3.0793818632410e+04 1.7867092947958e+02 2.5244763452958e-03
302 -1.3986402483974e+03 3.0882087715062e+04 -4.6642502820330e+00 2.5670758156026e-03
303 -1.3690208029225e+02 2.4241041743628e+04 -1.3834115161692e+01 7.5125598651615e-04
304 3.0947221033501e+01 2.5171984165668e+04 -1.1933245234661e+01 5.2173286992171e-04
305 -5.6223555582492e+02 2.4895142850788e+04 -6.1903583801152e+00 1.1429678697071e-03
306 1.1740488007264e+03 3.0489269412934e+04 1.7589415876945e+02 2.3028073621172e-03
307 9.6435666253086e+02 3.0644358563494e+04 -9.5447400722178e-01 3.2973544846953e-03
308 -6.4883166992880e+02 3.0325268258230e+04 -3.6458109596490e+00 2.2707581113850e-03
309 -2.0014863263588e+03 3.1270434110199e+04 -9.9759943965049e+00 2.7555522798575e-03
310 9.6662165389373e+02 2.5802938442497e+04 -3.1600528217169e+00 3.6256481059365e-04
311 1.7376887660288e+02 2.8389070129804e+04 -1.7817578083018e+02 4.2240875606094e-04
312 -6.5844035902959e+02 2.8117817703467e+04 -1.5295107007435e+01 6.9307348064117e-04
313 -1.2745860771041e+03 2.8381043540934e+04 1.0254297946788e+00 1.4464668151920e-03
314 6.9991079898855e+01 3.0010384733244e+04 -3.0069327513626e+00 2.1857329856932e-03
315 8.2071395770006e+02 3.1071911893656e+04 -6.5001912290277e+01 1.0697302616111e-03
316 6.4049632301434e+02 3.1307901734933e+04 3.2872889208923e+01 3.8275726157613e-03
317 4.3102815984282e+02 3.1548008195909e+04 1.7998961503437e+02 2.1648770890105e-03
318 -5.4506637668897e+02 3.1811344035214e+04 -7.3921631707078e+00 2.6963087711313e-03
319 1.0753465930493e+02 3.1829425802948e+04 -2.6468776472603e+00 2.0570980379052e-03
320 1.2109756747748e+03 3.2305585320086e+04 1.9867084295186e+01 1.9444337763703e-03
321 -8.2773614344115e+02 3.2196380389863e+04 -1.7195298457038e+02 7.4738380986795e-04
322 2.2321886932924e+03 3.1211808296414e+04 1.2744363886365e+01 2.0525974855303e-03
323 1.5951854201309e+03 3.1402886336365e+04 -1.4340885119793e+00 3.3279276593125e-03
324 -2.8324294724516e+02 3.0521684194917e+04 -3.7114000088300e+00 1.5050712628123e-03
325 7.1557721533167e+02 3.1213796032040e+04 1.7029353460652e+02 1.8651354329289e-03
326 3.4164919142500e+03 3.0962417375063e+04 -3.8995068626763e+00 3.5425870447496e-03
327 2.4297222576523e+03 3.1499028738864e+04 4.5659987838301e+01 3.8352367381991e-03
328 3.1015827599966e+03 3.1280368113785e+04 3.5819671205418e+00 3.6566068941298e-03
329 1.9756872723765e+03 3.1617153235594e+04 6.8436473640109e-01 3.6699899590199e-03
330 1.0861477185798e+03 3.1629392312325e+04 -1.7411080253907e+02 3.6213915118699e-03
331 3.4633081859595e+03 3.1670506831598e+04 -1.1795344155648e+00 8.6132072883924e-04
332 -5.8396180898901e+02 2.9394165794074e+04 -1.7424838979833e+02 5.2676645278015e-04
333 7.4139331489098e+02 3.1384607047872e+04 2.1875996342684e+01 3.8113460619619e-03
334 3.9245168005865e+02 3.1463118040950e+04 1.5547656398018e+02 3.8137088609829e-03
335 1.2355206099569e+03 3.0051482404045e+04 -6.1706565600917e+00 2.1236749645181e-03
336 4.0227738464368e+03 3.0163995948890e+04 -2.8537054144890e+00 1.9122296237606e-03
337 4.7103511065503e+03 3.0886120548694e+04 6.5509759817728e+00 8.1679674875707e-04
338 1.0867332164117e+03 3.1331348564023e+04 -1.3407230292897e+02 2.2534571401424e-03
339 2.8400873546607e+02 3.1368162219205e+04 -1.6634694758390e+02 3.4303778552313e-03
340 3.8619822025774e+02 3.1052331700275e+04 1.7745617999942e+02 5.1174693796031e-04
341 2.2879282745778e+03 3.2060138085081e+04 6.8910894032007e+00 2.7696497514098e-03
342 9.6239048537396e+02 3.1773308915843e+04 -9.4909969074819e+00 3.1788502968378e-03
343 1.6894748261629e+03 3.1582724170774e+04 -1.9370397901436e+00 3.7902553375546e-03
344 1.2808889855579e+03 3.1741436641422e+04 -1.7958444955807e+02 3.6496907229916e-03
345 1.8298625524782e+03 3.1760154555885e+04 -1.4828077203684e+01 3.5939760061459e-03
346 9.5200062849340e+02 3.2109413750172e+04 2.2405917697349e+00 1.4714162884596e-03
347 -8.8215221509493e+01 2.7167014921171e+04 7.9305867295529e+00 3.7659777015313e-04
348 2.5499192733824e+03 2.5717497003606e+04 4.3149957123814e+00 3.4869303955487e-04
349 3.8714352424489e+03 3.0001165326137e+04 3.8472381751073e-01 1.1816515943128e-03
350 1.2559875304958e+03 2.7179483921115e+04 -5.7972948531636e+00 3.5204081372182e-04
351 2.5382433823446e+02 2.5310049162175e+04 -7.6590445416117e+00 4.7790676319757e-04
352 -4.5623258448731e+01 2.7633837307311e+04 -2.1733356855962e+00 3.8887006221189e-04
353 1.9726837508943e+03 2.2411021967260e+04 1.8799178823015e+01 3.4958294956786e-04
354 -2.0282043856948e+02 2.2499179903654e+04 4.3904754187075e+00 7.9905986914769e-04
355 -1.8270734316278e+02 2.3666402637105e+04 -5.6407953735454e+00 4.8185349955474e-04
356 1.1904705644168e+03 2.1639205480801e+04 -1.3323597967169e+01 3.5741702387061e-04
357 -1.1819681479251e+03 2.5605832846242e+04 -1.9467053020416e+01 2.0397509785191e-03
358 -1.6760755878070e+03 2.5477004625543e+04 -6.0152065402872e+01 3.1770463063626e-03
359 -4.9113971991198e+02 2.5314839638746e+04 1.6050706019932e+02 9.4423742156129e-04
360 1.5672356731038e+03 2.4497810749038e+04 -6.6982069423659e-02 3.5105318479684e-04
361 -3.5783938588470e+01 2.5353741389671e+04 -1.2537125775150e+01 6.1242016497403e-04
362 5.4828891884704e+02 2.5192089432841e+04 8.7471100696306e+01 3.4817951606480e-03
363 -6.4837671079959e+02 2.7252913079867e+04 1.9484763719939e+00 6.5783291760147e-04
364 -9.4661215800776e+02 2.5787700675546e+04 1.4813670367435e+02 1.1399988935327e-03
365 -2.0827122991961e+03 2.6350911214238e+04 2.6595390916162e+01 2.7444006935987e-03
366 -1.0619856755356e+03 2.6134048566952e+04 -3.5825710426134e+00 1.7784627039856e-03
367 -9.4206134308767e+02 2.5996324708632e+04 1.3222329321997e+01 1.4462190503509e-03
368 -6.8671856533262e+01 2.4596839822294e+04 -1.1750143586022e+02 6.1961078913980e-04
369 4.2522078971648e+02 2.3324885635522e+04 1.3478057606312e+00 4.7619081381765e-04
370 -7.2787449760075e+02 2.3346625018788e+04 -2.2312851144519e+00 1.3557176790468e-03
371 -1.4827401843022e+03 2.9792461810189e+04 -1.7793348443968e+02 8.4642647952260e-04
372 -1.0984818048745e+03 2.9641188770393e+04 -6.8386373359252e-01 8.5730263393301e-04
373 -2.4617809507670e+02 3.0106920769176e+04 -1.7949689273761e+01 2.3533450087533e-03
374 -2.6889198426942e+02 3.1592699721373e+04 -1.5898322809464e+00 3.6323508278942e-03
375 -9.3129836010648e+02 3.1605457341240e+04 2.0981052616266e+00 2.2356797550135e-03
376 -2.8259868018433e+02 2.8346092463232e+04 1.4866729652592e+01 5.8936456510371e-04
377 -3.8764214138150e+02 2.8012931637065e+04 1.7110697886529e+01 6.1034522019884e-04
378 -3.3998451862071e+02 2.8298318575270e+04 -2.0351724908157e+00 6.0027756895979e-04
379 -2.7183320635502e+03 3.0870022825268e+04 2.1832089326881e+00 3.5331256891731e-03
380 -1.1257026255672e+03 3.0847170686626e+04 -9.2053509580979e+00 3.1381065279753e-03
381 -6.8011999262277e+02 2.5891185993144e+04 -1.6368077189704e+01 1.0231454982247e-03
382 2.8784613447589e+02 2.5921531672783e+04 -1.1478306778887e+00 3.7535365296022e-04
383 -2.2922267350123e+03 2.6638684068274e+04 1.8482203710128e+00 3.0217079308878e-03
384 -1.5309198865632e+03 2.6870140201605e+04 -2.0046794102813e+01 2.6256326451578e-03
385 -1.1506041217561e+03 2.7105739185805e+04 1.4680096563495e+01 1.5328142534331e-03
386 1.9760231794352e+02 3.0390636749920e+04 -1.5154167290854e+01 1.3849903755542e-03
387 1.1398875790028e+03 3.0748095062932e+04 -4.3096550660185e+00 3.4708999750754e-03
388 1.8486782755761e+03 3.0805878284110e+04 6.3383469874057e+00 2.4164860300977e-03
389 9.0175829721562e+02 3.0909826998985e+04 -1.0765488161861e+00 3.2659555386947e-03
390 -7.0272020288915e+02 2.8092032582770e+04 -1.7207445679775e+02 7.8433886430860e-04
391 9.3218948072974e+02 2.9779499374368e+04 -1.0634747971476e+01 1.6192833860741e-03
392 -2.8625138782603e+03 3.0106407002666e+04 -1.7589266502666e+02 7.5808448394736e-04
393 -1.7359484299818e+03 3.0018416113425e+04 -1.0878859640988e+00 1.9448657427169e-03
394 -1.2095693283050e+03 3.0011469067857e+04 2.6391470412189e+00 1.6697416731977e-03
395 1.9516180093411e+03 2.7085620808429e+04 -1.2916185935586e+02 3.4876860846980e-04
396 -1.2186078545495e+03 2.6889137918842e+04 1.7216364644558e+01 1.2865644934221e-03
397 -1.4106911313075e+03 2.7776979472223e+04 -5.1300942665780e+00 1.3658714007298e-03
398 -5.4414467241698e+02 2.7892879830058e+04 -3.5363568193404e+00 7.9124181482072e-04
399 1.1719821651379e+03 3.1289209971232e+04 -4.2670558986560e+00 3.3646604961829e-03
400 3.5731807843341e+02 3.1616979791950e+04 1.6365019673300e+01 3.6338728313257e-03
401 1.1103806512952e+03 3.1524491203191e+04 1.0298479040340e+01 3.1540273932094e-03
402 1.5123668442065e+03 3.0167282152832e+04 -3.7045147059207e-01 1.6491702078189e-03
403 1.8529682114696e+03 3.0387474170361e+04 -2.6405655400162e+01 2.2184967788893e-03
404 -2.6258915847163e+02 3.1971376081610e+04 -1.8413640343535e+00 7.5988950353362e-04
405 -1.6421419229377e+03 2.7814073908870e+04 -1.7957785182284e+02 7.4273589885978e-04
406 -1.4620866081731e+03 2.4079135408400e+04 4.2834339587071e+00 4.1158581688677e-04
407 3.6697779434717e+02 2.4048659400042e+04 -3.7684300609018e+00 4.5345404813764e-04
408 6.6367714783101e+02 2.4916057522317e+04 1.2642477530705e+00 3.9248957500710e-04
409 -1.0241491604730e+03 2.4822778658540e+04 -2.2050877501488e+01 1.4965278079081e-03
410 6.0488983411958e+02 2.4565822074095e+04 -2.0926498445538e+01 4.0059296106885e-04
411 -3.1851810905150e+02 2.4651226761774e+04 -4.9795529501126e+00 9.0157757587113e-04
412 3.6057712591595e+02 2.5674439208324e+04 -1.9345112641568e+00 4.0822348725096e-04
413 -1.1184997045395e+03 2.6731704685316e+04 -1.3014651099593e+01 1.3631213340215e-03
414 -1.1051286359249e+03 2.6525862248578e+04 -1.7435092693958e+02 1.8076940911281e-03
415 -1.8151093719614e+03 2.5776798454930e+04 -1.7665977685299e+02 9.4718821854027e-04
416 3.9935033191869e+02 2.5818505173412e+04 2.6411669564199e+00 4.1283157524182e-04
417 -7.9994356030865e+02 2.5990724232619e+04 -3.4314317855271e+00 1.0284715740746e-03
418 6.4195549148700e+02 3.1413074860983e+04 1.0605985037130e+01 2.3064039117974e-03
419 -1.2913305773122e+03 3.1882840421894e+04 -3.3344507470778e+00 3.1959338998329e-03
420 -1.7174741450727e+03 3.1774533137595e+04 1.2260475139632e+02 3.3560803143553e-03
421 -2.7101300127775e+03 2.6208592463905e+04 1.0464950494305e+01 3.0168969776566e-03
422 -2.8581671989345e+03 2.5745207356057e+04 -5.4930601932364e+00 2.3366436677739e-03
423 -2.3646045435559e+03 2.5926857210590e+04 2.2611975145543e+00 2.2965063291395e-03
424 -2.0137677266718e+01 2.5017846544386e+04 -6.6788192703866e+00 5.1243136884816e-04
425 -1.3772823282768e+03 2.4553927375401e+04 -3.2663787623237e+00 2.3922682923314e-03
426 -2.6174416861121e+02 2.5873437973413e+04 -1.3450153051215e+01 7.4002938322062e-04
427 -9.5550822397447e+02 2.8102020568106e+04 -4.3502510658923e+01 4.3552766867676e-04
428 -1.2779298702581e+03 2.8494200443832e+04 -1.4598814939254e+01 8.3125665699971e-04
429 -2.7105819893536e+03 2.8725082392928e+04 9.0412125626077e+00 2.7078536385749e-03
430 -1.7630791422211e+03 2.7902532349406e+04 1.5721638659949e+02 2.2800794801644e-03
431 -1.8200113366881e+02 2.6254354570164e+04 -9.1772581463371e-01 5.4742582535173e-04
432 5.1656901152210e+02 2.6358272476578e+04 -6.0190329695108e+00 3.9194310008652e-04
433 -4.4826523314730e+02 2.9275773998545e+04 -2.5290854974350e+01 7.9290798451900e-04
434 -1.6085328668954e+03 2.6469403808927e+04 -1.7928706230996e+02 7.7914441470549e-04
435 -1.0618992898519e+03 2.6916193559504e+04 -1.7087949174399e+02 1.6266949689175e-03
436 -1.8284840836831e+03 2.7186496819846e+04 -1.6282812170052e+02 2.6021498361244e-03
437 -2.5206516801928e+03 2.7318376833756e+04 1.7301334454523e+02 1.1332758618711e-03
438 -4.7307591395040e+02 3.2413852145558e+04 7.6120956571498e+00 2.1085093470258e-03
439 2.3811390275177e+02 3.2100564321224e+04 1.3191705400953e+00 2.6072837358157e-03
440 3.2300661147660e+02 3.0980262497669e+04 1.2713618767646e+02 3.6269991867386e-03
441 1.5071760539470e+03 3.0932282185646e+04 -1.5268676088933e+02 2.4544888504076e-03
442 1.9421988359589e+03 3.0955110907983e+04 -8.4450343513798e+00 3.2492353561858e-03
443 1.5564842390201e+03 3.0798389135238e+04 1.5688018855791e+02 3.3099465563410e-03
444 -9.9605698126254e+02 3.1234282530268e+04 4.3889413287627e+01 3.4132356334428e-03
445 -1.3034009182816e+02 3.1192271247667e+04 -1.6866018986552e+02 3.2842145048116e-03
446 5.6241507637234e+02 3.0977688199462e+04 3.7408136965521e+01 3.7365125949945e-03
447 -6.2484265310994e+02 3.0709596661408e+04 -1.6654689174977e+02 3.1520049373411e-03
448 1.5663972095843e+03 3.0593520130792e+04 -4.3363885621110e+00 3.1858671959643e-03
449 6.7372178642619e+02 3.0518867934764e+04 -5.6477187290289e+00 3.1067931787035e-03
450 -2.1603434470675e+02 3.0318948081413e+04 -1.6063832000175e+02 1.0568665263753e-03
451 -3.1109517367430e+02 2.7706162552075e+04 -1.3729922823603e+01 6.4405637771236e-04
452 -2.6672487388202e+03 2.7559126194081e+04 -3.3506397142568e+01 1.1127833930234e-03
453 7.5835442163396e+02 3.0621553998780e+04 -2.1487897951037e+00 1.4647018879458e-03
454 -1.6048610851748e+02 3.0636959263983e+04 -4.5163824588191e+00 2.8510956357351e-03
455 5.2678616897339e+02 3.1064570502375e+04 1.3571817277596e+02 3.3434243888140e-03
456 2.0844918232076e+03 3.0737301348199e+04 -4.2829192684949e+01 1.1636342951586e-03
457 -2.3878002005214e+03 2.9307222235450e+04 1.7951442872189e+02 5.9293011654834e-04
458 1.5352237395040e+03 2.9914080073227e+04 -1.7093686381278e+01 1.1120943759772e-03
459 -2.8097431324750e+03 2.8285945608257e+04 2.4605803385678e+01 2.5228438256234e-03
460 6.5177782328147e+02 3.1133647518992e+04 8.2172105538548e+00 2.4563850639216e-03
461 7.2001167951342e+02 3.1647814579387e+04 -3.4712485881093e+00 3.5385314741959e-03
462 -8.1640493300078e+01 3.1611547456592e+04 1.7887717244702e+02 3.4732896010589e-03
463 4.0438641929976e+02 3.1646449695985e+04 -7.4016997870361e+00 3.4462743165208e-03
464 -1.1792548776870e+02 3.0998775389229e+04 -7.3435831546360e+00 3.1554270387897e-03
465 -8.2877905166226e+02 3.1055468494555e+04 8.2124455038646e+00 2.6992756703502e-03
466 -9.7605702335291e+02 3.1460092307129e+04 2.8166572723772e+01 2.1780279849444e-03
467 -7.1923695367138e+02 3.1474836871862e+04 1.6392478701425e+02 2.5603965670333e-03
468 1.5365010534258e+03 3.2074606984092e+04 1.7871385733279e+02 3.0319334715661e-03
469 1.1647917507287e+03 3.1969320319757e+04 -1.0668282613571e+01 3.0457793906438e-03
470 8.6944387254446e+02 3.1145251157645e+04 1.7450699627206e+02 3.8307704664347e-03
471 3.7380428830762e+03 3.0975950467944e+04 -2.4271033545954e+00 1.1048364812082e-03
472 1.3050502963041e+02 3.1163089467768e+04 1.7045884506277e+02 2.2553621546288e-03
473 2.0114174740017e+03 3.1458927591684e+04 1.5069813797305e+02 3.7064241586515e-03
474 1.4988253325299e+03 3.1482900766526e+04 1.0493239578417e+01 3.7856708039979e-03
475 3.2422394482861e+03 3.1382725108146e+04 2.9863721599717e+00 3.7326950291847e-03
476 4.4738214195267e+03 3.1203258129169e+04 2.9950222576744e+00 1.4687415534396e-03
477 -4.8134965240420e+02 2.9495982928855e+04 7.1169392620471e+00 1.0565882567585e-03
478 -3.5640140255437e+02 2.9282560516721e+04 -2.4130892180140e+00 7.8591641335877e-04
479 -4.7272904098088e+01 3.2400087036345e+04 -3.0351403980229e+00 2.3347696276082e-03
480 -1.0731938178939e+03 3.2143121415655e+04 -7.8442745398580e+00 2.0914873007406e-03
481 9.1983768059278e+02 2.9896758874731e+04 -6.9263543793621e+00 1.4196990806200e-03
482 1.3501066832752e+03 3.0296687047828e+04 5.9030141144680e+00 2.5346653225404e-03
483 -1.9207817563979e+02 3.0357906821904e+04 1.2570225657642e+00 2.8841454243117e-03
484 -4.5667717992463e+02 2.9440339526257e+04 5.9787252162644e+01 5.0191796567331e-04
485 4.7479452787172e+02 2.9038698214096e+04 2.8888187467724e-01 6.8131379184009e-04
486 -5.0477111603995e+01 2.9288324756056e+04 1.4380057089870e+00 5.2124849833849e-04
487 1.4468341964869e+01 2.9829668097566e+04 6.2978345856280e+00 7.4572984337118e-04
488 3.9272914375589e+02 2.7457071807239e+04 6.9836867451188e+00 3.9831207832056e-04
489 -1.1728043058574e+03 2.7459254653943e+04 1.7679440320009e+02 1.6763823120819e-03
490 1.7465173025117e+02 2.7007948166899e+04 2.4869317219775e+00 4.4751604123702e-04
491 -5.5206236829376e+01 3.1334234939414e+04 -1.6243720334099e+02 3.6772361105043e-03
492 -1.3161504742640e+03 3.1826575066877e+04 -1.4749344775881e+00 3.2353653938411e-03
493 -1.6019421337048e+03 3.1627273670924e+04 -8.8000431702996e+00 2.8321083877082e-03
494 -8.2866245765576e+02 3.2042642476553e+04 7.3041697486149e+00 2.8213635823335e-03
495 8.2706692362296e+02 3.0724775169107e+04 2.3799237870900e+00 3.0399531125787e-03
496 1.0526906966474e+03 3.0770883961175e+04 -7.7726582137107e+00 2.5816241339063e-03
497 4.6520009722978e+02 3.1080366922292e+04 -3.8763762900256e+00 2.6018472760014e-03
498 6.8608068228518e+02 3.1027906618466e+04 -1.7819884500960e+00 2.9582705322283e-03
499 2.3189795640816e+03 2.5558262649100e+04 -2.7376375287498e+00 3.4873861534798e-04
