0 4.1522959657374e+02 9.9438761516990e+03 8.3116650299470e+01 1.3771039733872e-03
1 3.8150912050911e+02 1.4743001195158e+04 9.3175345223070e+01 6.6574215938055e-04
2 4.8677946787100e+02 1.6025961167544e+04 9.0342402750306e+01 3.2193493802039e-03
3 -6.3814292542637e+02 2.7043525524662e+04 8.7522901500489e+01 6.2815056551861e-04
4 -3.5092266418120e+01 2.8551666705486e+04 9.3429691042000e+01 3.0450007809054e-04
5 -7.5748468916486e+02 2.3704629040670e+04 -9.5189729389993e+01 1.1246785234459e-03
6 -7.4097012364529e+02 2.3128839519201e+04 8.7897131900394e+01 1.0819536071965e-03
7 -5.3437805299041e+02 1.8685228996244e+04 9.0797952279513e+01 3.0780757974275e-03
8 -6.5463319925062e+02 1.9287107095696e+04 8.9581182113882e+01 4.0855329182280e-03
9 -7.4534653358838e+02 1.7783375157975e+04 -9.4703993272659e+01 2.0205256635424e-03
10 -5.1966764738631e+02 2.5920183865452e+04 8.7476411602291e+01 7.3147835938964e-04
11 -8.3989341214461e+02 2.2832096262398e+04 8.8487167728885e+01 1.5429814761436e-03
12 -7.8949778433862e+02 2.1829448062542e+04 1.0668573713627e+02 1.4965434671415e-03
13 -1.0260904531628e+03 2.4295522616689e+04 -8.9444634732310e+01 1.3839302902492e-03
14 -1.2462856894794e+03 2.2521508722732e+04 9.1306746922298e+01 2.1440182778297e-03
15 -1.1534174664657e+03 2.2538535095861e+04 9.1205439884210e+01 2.4826529135775e-03
16 -1.2456526485926e+03 2.2466300711349e+04 9.0944573800993e+01 3.2882278865684e-03
17 -1.2188871068986e+03 2.1934566913060e+04 9.1476978839930e+01 2.5121181854079e-03
18 -1.3796814210852e+03 2.2246329159285e+04 9.5505952848254e+01 2.3561544202972e-03
19 -1.0840322123228e+03 2.2466385060763e+04 7.6894053386373e+01 1.8004071155991e-03
20 -6.8145674409051e+02 2.0464816734968e+04 9.4567006070953e+01 9.0436953650109e-04
21 -1.2414192388705e+03 2.3377903189836e+04 9.3112584788892e+01 1.5476127761239e-03
22 -9.8564234245555e+02 2.1966221551824e+04 8.6504010595206e+01 9.2098764983543e-04
23 -5.9896291434733e+02 2.4597929418484e+04 -9.3477740643573e+01 9.2587806856009e-04
24 -2.8365752881949e+01 1.5366985341080e+04 8.1764538868582e+01 4.3605218406306e-04
25 -1.7762625106586e+02 2.2712797536455e+04 8.8073716487474e+01 7.5072938765445e-04
26 -7.8371893270683e+02 2.4493045846315e+04 8.3129502678907e+01 8.2852151362643e-04
27 -5.4820538798505e+02 2.3349786849959e+04 9.5634474784373e+01 4.7148409895049e-04
28 -7.1251047634127e+02 2.4361637572037e+04 -8.9424406015887e+01 6.7739316640500e-04
29 -7.2245870599221e+02 2.4469852049819e+04 9.5404369356984e+01 1.0060464475123e-03
30 -5.3958167118251e+02 2.5168992389617e+04 9.0144436557034e+01 3.6084640667369e-03
31 -5.2807267919848e+02 2.5307467413233e+04 8.9767272614276e+01 3.4226938514216e-03
32 -8.1249092671016e+02 2.9635992938541e+04 8.9645699065590e+01 3.2619245485170e-03
33 -4.0108069931300e+02 2.4438680329032e+04 9.0809654232979e+01 2.1271236337339e-03
34 -3.8558359008194e+02 2.4348223403917e+04 8.7864180791725e+01 6.5596419809958e-04
35 -3.9519337329798e+02 2.3198136127046e+04 9.1376659663438e+01 1.1086956426427e-03
36 -4.6934271666257e+02 2.5437205829510e+04 8.1075056765840e+01 7.3709690849982e-04
37 -5.9420963384580e+02 2.4871118434529e+04 9.2032643676685e+01 9.3731137189929e-04
38 -1.3122565596535e+03 2.1977238752161e+04 9.7663628810926e+01 2.3153137215452e-03
39 -9.9398952659065e+02 2.0929063084858e+04 8.8328625241314e+01 2.1850323622619e-03
40 -1.1379994817098e+03 1.8501541187767e+04 8.9880886736701e+01 5.2782827460420e-03
41 -1.0584868368866e+03 1.6407493289659e+04 -9.2944445270172e+01 2.6680896346252e-03
42 -1.0238529557152e+03 2.0748765965790e+04 9.1178870228089e+01 2.6732972210813e-03
43 -8.8166869898056e+02 1.7707924180427e+04 8.6103150752539e+01 2.2494232013303e-03
44 -5.9338349021115e+02 1.9788263812899e+04 -8.6256768999979e+01 1.2042589571045e-03
45 -4.5584262224177e+02 1.9338747943934e+04 1.2934567283644e+01 1.3985859800045e-03
46 -8.4744745912617e+02 2.4166252619335e+04 -7.6357100796465e+01 8.5656904079264e-04
47 -8.5250532501669e+02 2.4170220534939e+04 8.7565921165896e+01 1.1092017895679e-03
48 -8.3995447650283e+02 2.5472910149495e+04 9.0151046777627e+01 3.3524893030654e-03
49 -8.7380616141085e+02 2.5408724941814e+04 8.9499712581281e+01 3.0910127459095e-03
50 -7.3985023253911e+02 1.5773325220657e+04 -9.0032569458704e+01 2.1606163167726e-03
51 -7.9973178482423e+02 1.7846903204589e+04 7.6562906335437e+01 1.9502736796213e-03
52 -3.5205153318373e+01 1.7084521233621e+04 -9.1670373948117e+01 9.6965949643485e-04
53 -2.0660985133101e+02 1.3920419263164e+04 -8.6645904912369e+01 1.8200282895271e-03
54 -3.8465952295825e+02 1.5707060376865e+04 9.1027977579498e+01 2.8252347327561e-03
55 -1.6117263295720e+02 1.5441397517233e+04 9.8701415890784e+00 1.3948169826657e-03
56 -2.7120602833365e+02 1.7083811770545e+04 8.7735478792936e+01 1.4462307192075e-03
57 -2.8233885088997e+02 1.5250760722782e+04 -8.2727766622526e+01 1.5421682991638e-03
58 -1.2088003204969e+02 1.5959726117988e+04 9.2221030892794e+01 1.4136896144855e-03
59 1.7653550215615e+02 1.4136089103399e+04 8.6590922476582e+01 1.1603744837807e-03
60 -4.6828493321904e+02 1.5793518437035e+04 7.3912612465325e+01 1.9265768139034e-03
61 -4.6185164776575e+02 1.6874334596843e+04 8.7169822691597e+01 1.4392005632400e-03
62 -4.0882490404370e+02 1.7279385377921e+04 9.0829728372429e+01 2.5801371829627e-03
63 -4.0735555941328e+02 1.7425463048567e+04 9.1993781512098e+01 1.4757894076722e-03
64 -3.3032172569431e+02 1.6387120296411e+04 8.8788488195938e+01 2.3080540160184e-03
65 -3.2113540742874e+02 1.7283490084229e+04 8.9546348030956e+01 3.6706248676984e-03
66 1.9847248362462e+01 1.8539200333284e+04 8.8614377346760e+01 1.2007961363137e-03
67 -5.2403296864806e+02 1.7763719187421e+04 9.8081544621887e+01 1.5006580165182e-03
68 -3.0518482996516e+02 1.9557663188247e+04 8.8087088327038e+01 1.2405604573049e-03
69 -1.9474057450659e+02 2.0822220984950e+04 8.3862219155244e+01 7.6057530743357e-04
70 -2.1056534753953e+02 2.0657775740647e+04 9.4298237159849e+01 9.3202184207884e-04
71 -3.8850622000215e+02 2.0141394084582e+04 8.7134312801783e+01 1.1982850341607e-03
72 -1.7469542148449e+02 2.1220812740097e+04 9.1252079927647e+01 1.4213355382552e-03
73 -4.6577846996634e+02 1.7628023974213e+04 3.9627694045407e+01 1.5254603848392e-03
74 -1.9313124398569e+02 1.9255252026443e+04 -8.8437130864219e+01 1.0239731257072e-03
75 -5.0556020151254e+02 2.0184404535977e+04 8.7853874854328e+01 1.0434334321500e-03
76 -5.8515377857291e+02 2.0558076738343e+04 8.3332295262170e+01 1.0819447062111e-03
77 -4.6515288975876e+02 1.8449992215122e+04 8.4479970663967e+01 1.5059358472084e-03
78 -6.1617557538869e+02 2.4947436006872e+04 9.0283044047157e+01 3.2906661643639e-03
79 -2.1930358377698e+02 2.3746937148960e+04 9.0080693515852e+01 3.5045259902254e-03
80 -3.6125898361783e+02 2.3070474813393e+04 8.9436255809526e+01 2.9153394950627e-03
81 -5.9621647944501e+02 2.0055748722369e+04 -9.1191377917261e+01 1.2830325019467e-03
82 4.2558221333197e+01 2.5514178346860e+04 8.8528623375044e+01 6.9268396653166e-04
83 -8.5328393095105e+02 2.4805038268035e+04 8.1720206060223e+01 1.1823248104515e-03
84 -1.1767718778674e+03 2.3009600645303e+04 -8.2607025457991e+01 1.9336022135813e-03
85 -7.9174789933937e+02 2.4507658833070e+04 8.6961113934460e+01 1.1892930300900e-03
86 -8.1804722647524e+02 2.4347889570617e+04 8.6785327251109e+01 6.8781640455284e-04
87 -8.1029510044558e+02 2.4241930172541e+04 9.3641641155051e+01 8.7649502186386e-04
88 -9.4919953858364e+02 2.3025173520702e+04 8.6730199579931e+01 1.6261995223208e-03
89 -9.6024343324673e+02 2.0429884118733e+04 -9.1532470155973e+01 2.0325732532175e-03
90 -9.8737479571182e+02 2.2395817044456e+04 8.3435033545666e+01 1.7813751452812e-03
91 -8.8441579833725e+02 2.2754518210531e+04 9.0970642171912e+01 2.6669424216808e-03
92 -8.8778949716530e+02 2.2728437447680e+04 7.7826937135098e+01 1.4556420065567e-03
93 -6.1050267490838e+02 2.3672161595484e+04 8.5577826398546e+01 9.5326977808394e-04
94 -7.3065516182956e+02 2.0440882788235e+04 1.1522540927087e+02 1.6578882671655e-03
95 -5.5298178598663e+02 1.8589450660035e+04 8.0008307382981e+01 1.4308309408584e-03
96 -7.9009923898186e+02 1.9180614126720e+04 9.1864755234077e+01 1.7731310512557e-03
97 -5.0795416141639e+02 2.1462360305777e+04 8.5466103626406e+01 1.1811913552189e-03
98 -4.9476156268805e+02 1.7464311584779e+04 -9.5941488914747e+01 1.7126607586250e-03
99 -5.0688798562894e+02 1.6312673531424e+04 9.5822711348949e+01 1.9262004988517e-03
100 -8.9398507268966e+02 1.8917651902073e+04 9.3721828032794e+01 1.2256349520112e-03
101 -3.6899248336961e+02 1.4575026398965e+04 8.7825775523854e+01 1.7011650160489e-03
102 -4.0295375213392e+02 1.9783794969403e+04 8.8698984248920e+01 1.0944302362720e-03
103 -6.3046139730116e+02 1.7978999969315e+04 -9.4999713016060e+01 1.7153434261829e-03
104 -3.6058556287612e+02 1.7531334549956e+04 9.1194514221451e+01 1.6305408516556e-03
105 -3.3778289209022e+02 1.7331100545145e+04 9.6732528356806e+01 1.4649549577159e-03
106 -1.3387772885825e+02 2.2071631689053e+04 -9.3724107404672e+01 4.6777059989780e-04
107 -2.3380510884751e+02 2.3178576663341e+04 8.8230840098187e+01 7.0311271826912e-04
108 -1.4831455356860e+02 1.7260522342030e+04 8.6006123276304e+01 9.1654056062413e-04
109 -8.0676752252114e+02 2.4390272319038e+04 8.9942907924179e+01 3.9750218107660e-03
110 -1.0071952189090e+03 2.2343001065154e+04 8.9501979334656e+01 4.0363101948258e-03
111 -9.8928862006837e+02 2.3636529604401e+04 8.3939067421664e+01 1.1681328309165e-03
112 -8.7249399493146e+02 2.4392167655548e+04 8.6491732008706e+01 1.2339109555349e-03
113 -4.9389887186271e+02 2.4168606473067e+04 8.9799069125182e+01 3.4017664093414e-03
114 -7.4413595097222e+02 2.1895387172292e+04 8.8300813021959e+01 1.1212556450997e-03
115 -1.7137442480862e+03 2.8174757386400e+04 9.4314566861221e+01 2.0572912374682e-03
116 -1.6502828413158e+03 2.5782635405287e+04 -8.4818235701542e+01 2.2869665865106e-03
117 -1.5608980859820e+03 2.5601907642995e+04 9.0783729180201e+01 3.0618973351296e-03
118 -1.3083050261268e+03 2.4689739911729e+04 9.0913670412006e+01 2.4507828374060e-03
119 -1.3860569188673e+03 2.7136093491396e+04 8.8708922080507e+01 1.1520392047820e-03
120 -1.4013810949801e+03 2.4325987453850e+04 6.3757432262440e+00 2.1178099753812e-03
121 -1.2994698166097e+03 2.4177279811307e+04 -1.4317842499069e+02 9.6848711861689e-04
122 -1.2110524855878e+03 2.6628220426672e+04 9.1678230408387e+01 1.6740361500489e-03
123 -1.0500073223149e+03 2.5876416356061e+04 9.3000900134785e+01 1.3481429109635e-03
124 -1.1888119636352e+03 2.5730472456520e+04 8.7051333376800e+01 1.5982392251291e-03
125 -1.0770901784379e+03 2.4049638784579e+04 8.9119386320727e+01 2.7122611728979e-03
126 -1.1914280192517e+03 2.5798144544545e+04 8.6036832949559e+01 1.4262081582146e-03
127 -1.4683741594801e+03 2.6352380660085e+04 8.8696967717456e+01 2.4177796164845e-03
128 -1.4398600480244e+03 2.5791480834886e+04 8.3152041689373e+01 1.8244129972170e-03
129 -1.3623038513084e+03 2.6233082047494e+04 -1.1765410186553e+02 8.2281938351617e-04
130 -1.3160400527146e+03 2.5291026281777e+04 1.0240306454270e+02 1.0551791028265e-03
131 -1.1612836667338e+03 2.4519683911062e+04 8.4112878533679e+01 1.7176762544172e-03
132 -1.1988361991310e+03 2.8371769975096e+04 8.9779328267084e+01 3.9326283367966e-03
133 -1.1727083921904e+03 2.3744164179782e+04 -7.7109720244010e+01 1.6016376172236e-03
134 -1.0236612380805e+03 2.2210829206726e+04 9.1062772126314e+01 2.5787441064174e-03
135 -9.9782953975134e+02 2.1318177628981e+04 8.0233783812297e+01 1.8704309173495e-03
136 -9.3824160701388e+02 2.0124671166088e+04 -9.9537078250892e+01 1.5491821259818e-03
137 -8.3404739951312e+02 1.9972643007940e+04 -8.8145752343229e+01 1.7259455919849e-03
138 -1.0823553368840e+03 2.1348308466916e+04 9.2512606603510e+01 4.6932597491779e-04
139 -3.8093898978719e+02 1.9019165838408e+04 9.0408250997576e+01 3.4798346502524e-03
140 -2.0111550241093e+02 2.9210195256732e+04 9.4689847237044e+01 6.3704246902446e-04
141 -9.4087733090174e+02 2.2026373065688e+04 -9.0231599957161e+01 1.2960948346795e-03
142 -1.2795849704233e+03 2.8818175120104e+04 8.5238817629510e+01 1.0971402195404e-03
143 -9.8227661296804e+02 2.7287018268612e+04 -8.5156128377348e+01 1.0712129152763e-03
144 -4.6267701063004e+01 1.6947620762196e+04 -8.9753722693107e+01 1.0710830453205e-03
145 4.3646349677707e+01 1.8280395051644e+04 -7.3413123112026e+01 6.8304828230633e-04
146 -4.3009424716346e+02 1.9400681135619e+04 8.7028500258658e+01 9.1592633502856e-04
147 -4.3179741527473e+02 1.8052703330078e+04 9.1460566323656e+01 1.6467254032057e-03
148 -4.1620854805112e+02 1.7850757194474e+04 8.8146516457609e+01 1.0891747523488e-03
149 -3.6629209901041e+01 1.9879327006371e+04 8.7982809599746e+01 5.5324160067689e-04
150 -4.4085725966680e+01 1.3805456543905e+04 -4.7573291037284e+01 1.4966008337355e-03
151 -4.2529043415447e+02 2.3980157027556e+04 9.2969766996900e+01 6.1124739376587e-04
152 -7.2641241821275e+02 1.9089739218016e+04 -9.1030410641248e+01 1.4003005987496e-03
153 -6.4208202067637e+02 2.3542869471466e+04 8.8068655314782e+01 1.1788080849676e-03
154 -3.4104326384545e+02 2.1997017559837e+04 8.7116838060077e+01 9.0004656979938e-04
155 -1.2349649547871e+03 2.0886335337028e+04 8.7707744488172e+01 2.2777272692533e-03
156 -1.1894034400393e+02 1.8902897278181e+04 9.2268712359526e+01 5.4525119939106e-04
157 -2.8915600172308e+02 1.9505544122918e+04 -8.9969646970621e+01 1.0400352812015e-03
158 -1.0423799336587e+03 2.6524903761691e+04 9.4595047610817e+01 1.2604484865909e-03
159 -4.8822689797601e+02 2.7372529216411e+04 -7.3428898737831e+01 5.6605019759356e-04
160 -6.1486623589575e+02 3.1374636630113e+04 9.1072440382397e+01 3.4244296930650e-03
161 -1.2207959980546e+03 2.5842168127045e+04 1.1671373169902e+02 1.3416347941557e-03
162 -1.0430800171309e+03 2.6539588037044e+04 7.8051336984295e+01 1.0598531873349e-03
163 -1.1642730038312e+03 2.4672540765379e+04 -8.2994718601294e+01 1.3396962444895e-03
164 -7.2962798627310e+02 2.4868374373347e+04 8.8610075853722e+01 1.2040002964553e-03
165 -9.0671723960754e+02 2.4775180508918e+04 8.4241980630844e+01 8.4643996136176e-04
166 -1.4235286082713e+03 2.6264308792289e+04 4.5527215489785e+01 8.9503576279942e-04
167 -1.2925774333063e+03 2.5692170746437e+04 9.6867072343569e+01 1.7678309305349e-03
168 -1.0918874670987e+03 2.7403328829838e+04 -4.5868424963128e+01 1.2249201894483e-03
169 -1.3916630950094e+03 2.8692134180241e+04 8.6374418257354e+01 1.4097077717518e-03
170 -1.3120607736041e+03 2.5946039194451e+04 -9.3768129584632e+01 1.4980755063155e-03
171 -1.5286912739731e+03 2.7608200865722e+04 8.8521188411285e+01 1.0917620070741e-03
172 -9.2740251352391e+02 2.4223038067149e+04 8.3695702686723e+01 1.2931173542691e-03
173 -1.3598914808516e+03 2.5308746827247e+04 8.8358356894350e+01 2.0155856753860e-03
174 -1.1412326925196e+03 2.4073415067777e+04 6.6624762233176e+01 1.3869213705693e-03
175 -5.6263811448860e+02 2.0214424683980e+04 1.7283311994001e+01 1.2131418849951e-03
176 -4.5792921026252e+02 2.1999984852365e+04 1.1176586090947e+02 9.2997560755653e-04
177 -9.6879729885560e+02 2.6891785575615e+04 8.9215351993958e+01 2.3865523002151e-03
178 -1.0382243943307e+03 2.5140805047318e+04 9.2321658275601e+01 1.4284901732786e-03
179 -1.1430694507160e+03 2.6775387214467e+04 9.0102746379171e+01 3.8311856770950e-03
180 -1.0726260566428e+03 2.0450199333191e+04 7.9238998406166e+01 2.1490393351151e-03
181 -1.0106775708677e+03 2.0830670306079e+04 1.0023164143972e+02 2.0491756318023e-03
182 -4.7100284638742e+02 1.8265494523090e+04 7.9674641739274e+01 1.1806271755494e-03
183 -4.9012208757649e+02 2.6136532529156e+04 9.0166450979282e+01 3.4901731705914e-03
184 -3.8441329666952e+02 2.5497164883556e+04 9.0476608228304e+01 2.9281189082695e-03
185 -7.9497150751097e+02 2.0551123688367e+04 9.7026780814138e+01 7.5704260930550e-04
186 -1.3718202906925e+03 2.4553175013366e+04 9.5433014835289e+01 1.6848722671432e-03
187 -1.5016535505471e+03 2.3325360547917e+04 -8.2299808130402e+01 2.3958677475256e-03
188 -1.3997601786459e+03 2.5565744875325e+04 8.9308429418835e+01 3.5303920937253e-03
189 -1.4529644481106e+03 2.2031930688464e+04 8.8713136015041e+01 2.9064242002744e-03
190 -1.5446134827991e+03 2.2286705208918e+04 9.0364388819410e+01 5.0080742101721e-03
191 -1.7283414794926e+03 2.3018240523146e+04 9.4438503934952e+01 2.4412089230855e-03
192 -1.6236263984054e+03 2.3047666219660e+04 9.3271995611786e+01 2.3681384224397e-03
193 -1.2299946712113e+03 2.3386791960609e+04 8.7551171741272e+01 1.5847781426194e-03
194 -1.3601326782112e+03 2.4792027178422e+04 -1.7288785541105e+02 1.4337734883821e-03
195 -1.4951107029118e+03 2.3259506858405e+04 8.9010926016432e+01 3.4192581527650e-03
196 -1.3521519776766e+03 2.4311416675059e+04 8.7993685930885e+01 2.1184739385894e-03
197 -1.5115575575077e+03 2.4487514227804e+04 9.7413239947518e+01 2.2796653854895e-03
198 -1.4699865490484e+03 2.4352453736074e+04 8.2214567850894e+01 2.2008694010195e-03
199 -1.6892379483641e+03 2.3399916110472e+04 8.2760528286783e+01 2.5937274103671e-03
200 -1.5462457153603e+03 2.0396882968643e+04 -9.1490106412642e+01 2.4557992665322e-03
201 -1.3526920272845e+03 2.2025135299474e+04 9.2867194276691e+01 1.8689987750631e-03
202 -1.1326699033851e+03 2.1716849677274e+04 9.8497572434069e+01 1.2297338870294e-03
203 -9.3438144197980e+02 2.1377509145707e+04 9.0914357653598e+01 3.0412288425106e-03
204 -1.1195969940953e+03 2.4058388065008e+04 -8.0198523750985e+01 1.1364935116933e-03
205 -1.2728420948061e+03 2.4842948957785e+04 9.0995140402698e+01 2.5726886226911e-03
206 -1.3228803330970e+03 2.0115379799525e+04 8.6814857354841e+01 1.6525369043636e-03
207 -9.9184140165046e+02 2.0255287265560e+04 9.0989549737733e+01 3.0882158982719e-03
208 -1.1411909844356e+03 1.8573438041329e+04 8.9480263289092e+01 3.2575959595186e-03
209 -1.2514322682603e+03 1.9610211553153e+04 8.9069423561808e+01 3.0932180466134e-03
210 -1.0475184330793e+03 2.4309549218802e+04 8.9824568342572e+01 4.3645282480684e-03
211 -8.8943398792367e+02 2.3252504558889e+04 8.5280970397557e+01 1.1585951670481e-03
212 -9.8935094964669e+02 2.2225416620140e+04 9.6873208840761e+01 1.7909162227946e-03
213 -7.1980164650841e+02 1.8135722747260e+04 -7.7549108421881e+01 1.6786583744192e-03
214 -5.4174583604704e+02 1.7719363905552e+04 -8.7290710470503e+01 1.3946434981341e-03
215 -6.6130447836289e+02 2.1724331130309e+04 9.1407314213657e+01 1.7506476691642e-03
216 -4.7161285371159e+02 2.1365356671908e+04 9.1099403398663e+01 1.9543816827049e-03
217 -4.1029134956741e+02 2.1851910242310e+04 9.2364183253177e+01 1.0241719421969e-03
218 -8.6729893147700e+02 2.4677927667074e+04 8.9610700789611e+01 3.7415678098726e-03
219 -6.4253630166484e+02 2.5717967491367e+04 8.9558348532067e+01 3.1377474553421e-03
220 -1.0878832767243e+03 2.5409945314419e+04 8.5040826316557e+01 1.3378367919548e-03
221 -1.4062946125545e+03 2.3115562450145e+04 -9.6677166544299e+01 2.1079157330646e-03
222 -1.4589627748490e+03 2.6446588788467e+04 9.1257359600661e+01 2.4772731371345e-03
223 -1.4192460647385e+03 2.6444589424626e+04 7.8299253268840e+01 1.8510961382817e-03
224 -1.5164213845662e+03 2.6268778682683e+04 9.0015963769039e+01 4.8910488920101e-03
225 -1.5816940229891e+03 2.4395334864300e+04 8.7931270072362e+01 2.0394066299589e-03
226 -1.6590789682990e+03 2.3704170753766e+04 8.9033072195489e+01 2.0864704697504e-03
227 -1.6486078802706e+03 2.3155261501134e+04 7.8173269014867e+01 1.4884802863444e-03
228 -1.7627871829224e+03 2.3426646525208e+04 8.7080375011105e+01 1.9956094698977e-03
229 -1.8958544201702e+03 2.4445004613318e+04 9.1532630281522e+01 2.9334590509748e-03
230 -1.7196163976252e+03 2.4287706400868e+04 9.0776127504048e+01 4.1412089765286e-03
231 -1.8552465532671e+03 2.3862269794548e+04 -8.8432192573884e+01 2.5689247487738e-03
232 -1.7764806979577e+03 2.4248204356750e+04 9.4906048012207e+01 1.9759294097688e-03
233 -1.6569906796078e+03 2.4939439072493e+04 8.7721508855556e+01 2.4217548012154e-03
234 -1.8254980797561e+03 2.4370126539112e+04 9.2293396385100e+01 2.6886384791524e-03
235 -1.6635617958359e+03 2.5602295334538e+04 9.0286883865530e+01 4.9834896665552e-03
236 -1.6996243763923e+03 2.6597592228920e+04 8.8786063201549e+01 2.8969961078083e-03
237 -1.6963497576485e+03 2.4838929435399e+04 7.9917806148089e+01 2.4594525892299e-03
238 -1.5871534971591e+03 2.6929393867915e+04 4.8634241683727e+01 2.0433859035750e-03
239 -1.7599507810040e+03 2.7640132413086e+04 9.1307238213171e+01 2.6129805367151e-03
240 -1.7791038872190e+03 2.6111579646873e+04 -7.2035338607974e+01 2.2246304507840e-03
241 -1.7037929406171e+03 2.6482818501991e+04 8.6778782513886e+01 2.1821185961789e-03
242 -1.9211642649416e+03 2.5646260698235e+04 8.5496285207936e+01 2.6097514218378e-03
243 -2.0809855581528e+03 2.4699101797338e+04 9.4398564327045e+01 2.8208623122564e-03
244 -2.1085385508191e+03 2.5847850073153e+04 9.3400339816402e+01 2.7880126777040e-03
245 -1.7843252944962e+03 2.7855013979692e+04 8.7830274590374e+01 1.9820011597959e-03
246 -1.7277067289016e+03 2.7249567602827e+04 9.7612434927324e+01 2.2122372609769e-03
247 -1.6841995284056e+03 2.6585154199240e+04 9.6564528752201e+01 1.8374916919136e-03
248 -1.8110628400028e+03 2.8863640287911e+04 9.6133189988618e+01 2.0415757641570e-03
249 -1.7491968927057e+03 2.5401083618291e+04 -9.0719317964748e+01 2.3914008258259e-03
250 -1.6867069870332e+03 2.6953367630096e+04 9.2510258152448e+01 1.9676782037990e-03
251 -1.4417399648871e+03 2.7985379674640e+04 9.0413681620547e+01 3.5628443452952e-03
252 -1.6422027847654e+03 2.3758803925930e+04 9.6230779292955e+01 2.0855049445458e-03
253 -1.7468881434406e+03 2.5685741586552e+04 8.6182856254150e+01 1.7324955959383e-03
254 -1.3714158185911e+03 2.3281061971029e+04 8.2438820905682e+01 1.2466578620575e-03
255 -1.1611385161281e+03 2.5890785563906e+04 8.7685019692691e+01 1.4257488389165e-03
256 -1.1730528864540e+03 2.5363035428712e+04 8.9331686425396e+01 3.4617606027559e-03
257 -1.2351696286778e+03 2.6111837523917e+04 8.8983607099157e+01 2.6218306063269e-03
258 -1.1669214259395e+03 2.5637879317970e+04 8.8947277980511e+01 2.3672719998109e-03
259 -1.5341613216603e+03 2.7000000483794e+04 8.3576040649137e+01 1.7345876423197e-03
260 -1.5906831913790e+03 2.5289902573062e+04 -7.8837356983184e+01 1.9869821123685e-03
261 -1.6801388079726e+03 2.8193465516591e+04 9.2325650847205e+01 1.5187016882592e-03
262 -1.7650426703175e+03 2.7973711610836e+04 9.2994815253305e+01 1.6017773137730e-03
263 -1.7489910269877e+03 2.9862835198341e+04 1.0128133614386e+02 1.6169661706804e-03
264 -1.4968766983576e+03 2.9218829313920e+04 8.9651251900578e+01 4.0704113221564e-03
265 -1.6598086161725e+03 2.8069514180558e+04 8.8623857205484e+01 2.3559499942276e-03
266 -1.4682086234250e+03 2.5213499911128e+04 -7.1393320512925e+01 1.5250413280326e-03
267 -1.7362319767666e+03 2.8273038623597e+04 9.1137264179583e+01 2.8630623617628e-03
268 -1.5448847722946e+03 2.7734007593151e+04 7.8517171594758e+01 1.8307839565003e-03
269 -1.4593460976138e+03 2.8218086830047e+04 8.5586382320449e+01 1.5888870134394e-03
270 -1.6201105793401e+03 2.9618795624622e+04 9.2497305767482e+01 1.4857281662684e-03
271 -1.4686081704706e+03 2.9487655585895e+04 9.0169776024235e+01 4.1775023015478e-03
272 -1.5236378056102e+03 2.8743937727582e+04 9.0963307818368e+01 2.4324099130884e-03
273 -1.3309667763562e+03 2.9492555718732e+04 9.1937939400715e+01 1.2827839971360e-03
274 -1.7961921717497e+03 2.9603395949638e+04 9.5983063047599e+01 1.9742938892547e-03
275 -1.8637360557142e+03 2.7932336606023e+04 9.5773656319394e+01 2.3136374087106e-03
276 -1.5673818873884e+03 2.7366996397559e+04 9.2067849698672e+01 1.9335721642985e-03
277 -1.3588764012209e+03 2.5437111889774e+04 -8.9824855495496e+01 1.8942055052217e-03
278 -1.8175569812042e+03 2.6265599535883e+04 9.0263159944794e+01 5.0854550715300e-03
279 -1.7518296702451e+03 2.6555402564936e+04 -8.5530697615424e+01 2.3401648613100e-03
280 -1.7023029425219e+03 2.9031897239538e+04 8.7844309816611e+01 1.9289441292190e-03
281 -1.5509867123911e+03 2.7794273012185e+04 8.4923250655301e+01 1.6270363536476e-03
282 -1.6307265362591e+03 2.6471635584464e+04 8.7917454744380e+01 1.8478038320910e-03
283 -1.6020115575156e+03 2.3408394778521e+04 -1.0973493724751e+02 2.5353342231472e-03
284 -1.6698418206111e+03 2.3775251905267e+04 2.2730047605611e+01 2.4821406954685e-03
285 -1.7052569700203e+03 2.8462330368532e+04 9.1446261043261e+01 1.8771024568619e-03
286 -1.6550988452733e+03 2.5139550219738e+04 -3.7574744442063e+01 2.3922318850274e-03
287 -1.5417714428429e+03 2.6874226068149e+04 9.0779381902340e+01 3.5404519649389e-03
288 -1.5280245181480e+03 2.6318099056676e+04 9.0433570121780e+01 4.3831599349284e-03
289 -1.7074357474798e+03 3.0331177195848e+04 8.9123408483236e+01 3.5502908098233e-03
290 -1.6328421655701e+03 2.8127840023957e+04 8.1646064567481e+01 1.9384591130993e-03
291 -1.7022021376702e+03 2.8498059928697e+04 9.0246195259296e+01 4.6281668725652e-03
292 -1.6011657431554e+03 2.4016484164906e+04 9.1187687736032e+01 3.1142715159361e-03
293 -1.7775999304406e+03 2.6254210537430e+04 9.1727612246572e+01 2.4545912582338e-03
294 -1.7452770998245e+03 2.5442830398741e+04 9.0366408463195e+01 4.9481380625463e-03
295 -1.7422417617909e+03 2.3208042964261e+04 8.4662913167616e+01 2.6536784539364e-03
296 -1.5585886241109e+03 2.1462944179345e+04 9.5601184955632e+00 2.6315204521400e-03
297 -1.1591268738996e+03 2.3330612414640e+04 7.9515692048593e+01 1.6535730665427e-03
298 -1.3728717143405e+03 2.3740100821455e+04 8.9128709828640e+01 3.4698048840496e-03
299 -1.3090282397752e+03 2.1172560890154e+04 8.3728686311164e+01 2.2885320687374e-03
300 -1.3474389616364e+03 2.2730411539228e+04 8.9668037056954e+01 4.8354826771430e-03
301 -1.6137597239553e+03 2.3389474317877e+04 -7.9514998543771e+01 2.2375089708142e-03
302 -1.7218383443412e+03 2.3025901467633e+04 1.0433360081952e+02 2.5688182333877e-03
303 -1.7673897573052e+03 2.2830767076808e+04 -9.5272557745608e+01 1.5786230235301e-03
304 -1.4890559700337e+03 2.3551992745324e+04 8.9769983497595e+01 4.9943614996554e-03
305 -1.5040468391688e+03 2.3175023033217e+04 8.0793862191801e+01 2.0382386616384e-03
306 -1.6090626962691e+03 2.5484384296651e+04 -9.1225866981473e+01 2.1338603354441e-03
307 -1.6213354429713e+03 2.5985807701404e+04 1.0011729773970e+02 1.9544213681323e-03
308 -1.0899598361915e+03 2.7546491752601e+04 9.1104892171383e+01 2.0168503277780e-03
309 -9.3246706059128e+02 2.7103177056868e+04 7.1138704719674e+01 9.1895539118663e-04
310 -3.6153046617883e+02 2.2836474793592e+04 -9.3462345793223e+01 7.3901047431036e-04
311 -3.3907804914354e+02 2.1894463504665e+04 8.7912878118312e+01 9.7676381251154e-04
312 -1.0709657655572e+03 2.7475622234745e+04 9.1058496261898e+01 2.1256353300213e-03
313 -1.1413874235435e+03 2.6694694629924e+04 8.3104883633386e+01 1.3300297046700e-03
314 -1.1909608174851e+03 2.4422633255213e+04 9.2332812484896e+01 1.1794596615586e-03
315 -8.6190980797467e+02 2.2375564235298e+04 8.6555359131817e+01 1.5190272706965e-03
316 -9.9315273984957e+02 2.2802619208596e+04 9.2009367662829e+01 1.0969123266110e-03
317 -3.3595430909260e+02 2.2672729593202e+04 -9.4948026364231e+01 8.5325735677911e-04
318 -7.1150773343890e+02 1.7882863627496e+04 9.1389800468502e+01 2.2289816749044e-03
319 -6.9669715886809e+02 1.4138953717828e+04 9.3721768594076e+01 2.1583906316902e-03
320 -4.8264706827110e+02 1.9804147009643e+04 -4.0098917079326e+01 1.0608485062327e-03
321 -1.0622270637331e+03 2.6590446012532e+04 8.6159051577184e+01 1.1828499308214e-03
322 -1.3322065692156e+03 2.2127071866688e+04 8.5538485925303e+01 2.3295082712973e-03
323 -1.5552550109141e+03 2.2632844792741e+04 9.6811294257651e+01 2.5679371623103e-03
324 -1.3481356078671e+03 2.3806588927581e+04 6.9497908656852e+01 2.1346230478399e-03
325 -1.2994307094079e+03 2.2276061940461e+04 8.6654449784581e+01 2.2689762438130e-03
326 -1.2856137237358e+03 2.4115738874985e+04 8.4666925795476e+01 1.9418893764802e-03
327 -1.1368293212978e+03 2.6272410908909e+04 8.8115507907211e+01 1.4738080250866e-03
328 -9.6838106909420e+02 2.2736891235865e+04 1.9190421524293e+01 1.6029152621228e-03
329 -1.2487831154278e+03 2.4237274418235e+04 8.8012920560218e+01 1.5313680118308e-03
330 -9.4974092011317e+02 2.2192035036158e+04 -1.6420252464944e+02 1.6532647938435e-03
331 -1.1666805521706e+03 1.8942089144775e+04 3.8247542733912e+00 2.3472908158377e-03
332 -7.4450994007839e+02 2.4907875287794e+04 9.0845309191198e+01 2.3497656640563e-03
333 -7.2132304552612e+02 2.2268758205601e+04 8.4603102511429e+01 1.2550611032517e-03
334 -9.2321040260284e+02 2.2678073859355e+04 1.0732263444478e+02 1.6045278653291e-03
335 -6.5325934092621e+02 2.3710287222534e+04 6.5181951239329e+01 1.1027388200886e-03
336 -8.6311587286962e+02 2.6590506022990e+04 8.7997499658374e+01 1.0107577423844e-03
337 -7.5887692767013e+02 2.6825278417945e+04 9.4775122018586e+01 7.3499479689766e-04
338 -4.1655976010244e+02 1.9679165838515e+04 9.9929163131306e+01 1.3085941078346e-03
339 -1.0348313685452e+03 2.2092565965238e+04 8.3356080173872e+01 1.7314792765016e-03
340 -1.1367833691426e+03 2.6053143099443e+04 -8.7304717386693e+01 8.5506720072691e-04
341 -1.1610023993340e+03 2.6142780732666e+04 9.3760891808818e+01 1.0691109494837e-03
342 -1.1309897831676e+03 2.4964232846426e+04 8.8679715831796e+01 1.9146738585018e-03
343 -9.9167062589841e+02 2.3229601756725e+04 8.7688915557597e+01 1.4972381577335e-03
344 -7.3095080078809e+02 2.5739931387055e+04 7.3797367312602e+01 8.2563245259906e-04
345 -3.5561069525647e+02 2.5898593584522e+04 8.8504228065955e+01 8.8331615280445e-04
346 -2.4077411464488e+02 2.3623081769844e+04 -8.1655770508090e+01 4.3848595114497e-04
347 -8.5958858973452e+02 2.3833075401277e+04 8.6949449233519e+01 1.1562950479102e-03
348 -8.9453603750392e+02 2.1039566415017e+04 -9.4681285895466e+01 1.7985645533154e-03
349 -6.4749557052827e+01 2.8300475384314e+04 1.3946107605391e+02 3.6309515566063e-04
350 -4.2288223918063e+02 2.3799947128204e+04 8.7363719910534e+01 8.0291000021185e-04
351 -8.1909329028326e+02 2.5206551134461e+04 6.7213132939185e+01 1.1051150647509e-03
352 -1.0699570004117e+03 2.4271339063422e+04 9.0982124223742e+01 2.6944228822596e-03
353 -4.3373932834915e+02 2.0784549737662e+04 5.3910914774245e+01 1.1773056045119e-03
354 -7.9427619731892e+02 2.3876567012001e+04 8.9596973233508e+01 3.3509068971386e-03
355 -8.9520235236159e+02 2.4500376391718e+04 8.9155792117663e+01 2.5433052365640e-03
356 -1.1041442659819e+03 2.5365844681780e+04 9.1762193144624e+01 1.5851370059164e-03
357 -9.8857068381197e+02 2.5538173294730e+04 -5.3749908285000e+01 8.6413202323694e-04
358 -8.9509559263103e+02 2.5215153137022e+04 9.4647871983230e+01 1.1105794341565e-03
359 -1.3743508191537e+03 2.3549589032326e+04 9.2544177658655e+01 2.0484979451427e-03
360 -1.4778693902427e+03 2.1754632067947e+04 1.1723870232104e+02 2.4781177318083e-03
361 -1.1843949979339e+03 2.2732322680750e+04 9.1780559180230e+01 2.1409357704964e-03
362 -1.1923406914316e+03 2.1826129527429e+04 9.1110130580608e+01 2.8301057982754e-03
363 -1.1087564454315e+03 2.0593783351195e+04 8.0073347301169e+01 2.2258141647169e-03
364 -1.0271327327061e+03 1.9635417635541e+04 9.1069978017174e+01 3.1612143083119e-03
365 -1.1763889898742e+03 1.9487269469860e+04 7.7569365055813e+01 1.9978776614594e-03
366 -1.0746194889135e+03 2.1918027526808e+04 8.6454642735190e+01 1.8788319181152e-03
367 -1.0212981221695e+03 1.9572788441655e+04 8.7160230636560e+01 2.2372919263258e-03
368 -7.1928726844135e+02 2.2074591306881e+04 7.9624001007732e+01 1.3700169385077e-03
369 -8.0133332927891e+02 2.1726170473301e+04 8.8064228815884e+01 1.6567330809687e-03
370 -6.5458994312307e+02 2.2688497263745e+04 8.1237435956206e+01 9.5541357739477e-04
371 -9.4892698394459e+02 2.3510051625880e+04 7.9295334991727e+01 1.4751078474021e-03
372 -5.6089923765920e+02 2.1529203717128e+04 9.1270064697760e+01 1.3716274156302e-03
373 -1.5000007247766e+02 1.7332739214777e+04 -8.7228198929454e+01 1.1750958494883e-03
374 -5.4280860068363e+02 1.7535163672727e+04 9.0910446382061e+01 2.8555036109708e-03
375 -1.7017729410467e+02 2.3504208078438e+04 -7.2131572749013e+01 6.0337523852827e-04
376 -5.9292801802924e+02 1.9059071406026e+04 9.0011847960991e+01 4.0549180902951e-03
377 -4.5210964782630e+02 2.2290902539386e+04 -3.9419460868228e+01 1.0201215938722e-03
378 -4.9640799474081e+02 2.1446148711995e+04 7.7970016873364e+01 1.1623045909067e-03
379 -5.0505111605688e+02 1.9422021734235e+04 9.7731013157425e+01 1.2943441949401e-03
380 -1.0084032451083e+03 2.4214048666093e+04 -8.7116239526580e+01 1.1292504216467e-03
381 -6.4871035904865e+02 2.1665399212545e+04 -6.4787836591773e+01 1.3540638311276e-03
382 -8.2123080557989e+02 2.3720611843407e+04 8.8676824624130e+01 1.6308888528130e-03
383 -1.8781842173869e+03 3.0338530653822e+04 8.1028026677010e+01 2.2437200841978e-03
384 -1.8744772154645e+03 2.8758653330872e+04 8.4559721131334e+01 2.1360540242413e-03
385 -1.8829574508716e+03 2.9871312645713e+04 9.1188510535080e+01 2.7631406972802e-03
386 -1.8903401399466e+03 3.0448971088826e+04 8.9829552593099e+01 5.0859755727549e-03
387 -1.9784130860310e+03 3.0717365416542e+04 8.6039588322667e+01 2.2747406872504e-03
388 -1.9577929511092e+03 2.9517320777870e+04 9.1446101132150e+01 2.5859722625947e-03
389 -1.9056188774698e+03 2.9149176580222e+04 8.6038723985637e+01 2.1999937586666e-03
390 -2.0323122193618e+03 3.0693721978298e+04 8.5813254218112e+01 2.5607776326965e-03
391 -1.7838894672411e+03 2.7214678304905e+04 -1.0212870433461e+02 2.2704838288743e-03
392 -1.7844933905926e+03 2.6945423588056e+04 9.0251488111100e+01 5.0290404943103e-03
393 -1.7521782733250e+03 2.9425176373658e+04 7.8580628115586e+01 7.9613605061614e-04
394 -1.9643282697335e+03 3.0348531874050e+04 6.7332935884972e+01 1.6390237015824e-03
395 -1.3452427309591e+03 3.3403239292796e+04 2.8307808204183e+01 4.0963485141035e-04
396 -1.5675666818810e+03 3.2514396110169e+04 9.3289442195447e+01 1.2019368959984e-03
397 -1.8258237010684e+03 2.9478243099744e+04 8.5413735624818e+01 8.9267620478036e-04
398 -1.8023211914061e+03 2.9723899075736e+04 8.8648398218726e+01 1.1720690371154e-03
399 -3.8999300990517e+01 2.2279708961187e+04 8.9753785832235e+01 3.2171963276027e-03
400 -7.9470206042861e+02 2.1651406593497e+04 8.6778928352359e+01 1.0629666759179e-03
401 -7.6942186309694e+02 2.1595469952722e+04 9.1434755781545e+01 1.5155207737722e-03
402 -9.1949006693512e+02 2.1694270686308e+04 8.9835191798528e+01 4.5111024741727e-03
403 -9.5517755323181e+02 2.0363393743338e+04 8.8602416158807e+01 2.3112483630019e-03
404 -1.0101555427746e+03 2.1518128243541e+04 9.1453346983066e+01 2.0746048878321e-03
405 -9.5824562781501e+02 2.1274030518039e+04 9.3960022923224e+01 1.9030335789847e-03
406 -7.6114443667643e+02 2.0381298190335e+04 8.6489244297921e+01 1.3354583340303e-03
407 -8.3912239560946e+02 2.2068053152950e+04 8.8011404616840e+01 1.6468704324982e-03
408 -8.1812820633331e+02 2.3108065540670e+04 9.5193063651173e+01 9.8718184763871e-04
409 -8.0635535459011e+02 2.3364786415341e+04 8.6243426161417e+01 8.2030845550342e-04
410 -9.2010666287629e+02 2.4212869659634e+04 8.7466147296919e+01 1.3033227497080e-03
411 -1.0524232493404e+03 2.2798251378656e+04 9.1346370920363e+01 2.1973210983149e-03
412 -1.2440482439286e+03 2.2350148858544e+04 -1.2897543185967e+02 1.8255719502544e-03
413 -5.4121865347743e+02 1.9063341001921e+04 8.3415708306982e+01 1.2718415821483e-03
414 3.5539428614225e+01 1.5798029069129e+04 -8.5713536248828e+01 4.2855666246948e-04
415 -2.6196400453929e+02 1.8599733434209e+04 8.9655681315586e+01 3.7874526442578e-03
416 -1.1700722530332e+03 2.7186792507541e+04 9.0016728531258e+01 3.5803288788667e-03
417 -3.6509791534725e+02 2.7939870665832e+04 9.1860734729787e+01 5.8198744746052e-04
418 -3.4734283065488e+02 2.6647218033786e+04 8.2962887433286e+01 5.3779884281868e-04
419 -2.4208746946259e+02 2.3540578913478e+04 9.6982095366263e+01 4.8028999409387e-04
420 -7.3451398821391e+02 2.5311230153391e+04 8.9781890233307e+01 3.4215768108178e-03
421 -8.8738696938049e+02 2.3662163520454e+04 9.1297472655733e+01 1.5691110527675e-03
422 -6.5378482992659e+02 2.3840565484556e+04 8.4652021578294e+01 1.0972070907064e-03
423 -6.8775094747629e+02 2.2287225306025e+04 -8.6416050413016e+01 1.3297961343220e-03
424 -1.2373534470376e+03 1.9368885995479e+04 8.2303569705965e+01 1.8955299041030e-03
425 -1.2351797226544e+03 2.0389352864654e+04 8.9738027690318e+01 4.9539506741064e-03
426 -1.3527850533498e+03 2.0398490367322e+04 7.9131171868387e+01 2.2911382480438e-03
427 -1.2735950353219e+03 1.9460019055229e+04 8.7832067481759e+01 2.5437627925256e-03
428 -1.0636445686426e+03 2.2733967587212e+04 -1.6370468019025e+02 1.3260272747156e-03
429 -9.9206971008772e+02 1.8461787830983e+04 6.7259336592574e+01 2.1644845559495e-03
430 -8.6065588689374e+02 1.6234082983317e+04 7.7743125417617e+01 2.1073752330379e-03
431 -7.3641190885761e+02 1.6430063808682e+04 -8.2577135459616e+01 1.8163505998942e-03
432 -1.5206195110667e+03 2.3364787944393e+04 1.0878881018347e+02 1.1405650952759e-03
433 -1.4191868070182e+03 2.3140307222043e+04 7.7693158584304e+01 7.3059822772659e-04
434 -1.4434493217240e+03 2.1602369754113e+04 -8.5692500630519e+01 1.1820615101625e-03
435 -1.4215953977974e+03 2.1014114782409e+04 8.2455622803788e+01 1.7926637153371e-03
436 -1.3759317327361e+03 1.9245470972731e+04 -8.8587807152211e+01 2.3688440876635e-03
437 -1.5950386979012e+03 2.2923936501881e+04 9.2758273324724e+01 1.9309406041583e-03
438 -1.5822627913699e+03 2.2709854034007e+04 8.9961095513518e+01 4.6083493602100e-03
439 -1.4742033975690e+03 1.9327520736546e+04 -8.1119459589883e+01 2.3615466220028e-03
440 -1.6367194949083e+03 1.9997363831913e+04 9.0932383338935e+01 4.0368512009957e-03
441 -1.6052181100267e+03 1.9984825143625e+04 2.7850802766116e+01 2.6300827098958e-03
442 -1.9476915064124e+03 2.2157670222858e+04 8.7063785851518e+01 2.8660827360568e-03
443 -1.7626120263657e+03 2.2449028788178e+04 9.0489664105181e+01 4.6798371731441e-03
444 -1.7638624485706e+03 2.2695907190254e+04 8.7482047179249e+01 2.5577257854160e-03
445 -1.6161526339091e+03 2.1604102295722e+04 8.6591778093809e+01 2.6473225791496e-03
446 -1.7565354851389e+03 2.0179862962487e+04 8.2193274341228e+01 2.8640111744059e-03
447 -1.7016298432042e+03 2.0914971833688e+04 8.4528446795667e+01 2.5097492598708e-03
448 -1.6025762036338e+03 2.4610394614789e+04 8.7306457395714e+01 1.8890521826108e-03
449 -1.5679875452445e+03 2.2141788724124e+04 -8.5322214402120e+01 1.2923299152092e-03
450 -1.7721218137645e+03 2.3376106844484e+04 9.1769134359528e+01 2.4100539678793e-03
451 -1.9356265478110e+03 2.5628189863902e+04 8.7158867999323e+01 1.4301462664468e-03
452 -1.8342688844100e+03 2.4568171904970e+04 8.9182301511753e+01 2.9435544107219e-03
453 -1.5781831515184e+03 2.6317206270208e+04 8.8575261943001e+01 1.4105446750481e-03
454 -1.3186625692230e+03 2.2508356839679e+04 -9.8938315014203e+01 2.2519336713428e-03
455 -1.4227798420921e+03 2.5721382213935e+04 9.4871566402725e+01 1.4341299207716e-03
456 -1.1558116386384e+03 2.7737454757452e+04 7.2019892191610e+01 9.7411993959653e-04
457 -9.9664479425103e+02 2.4635392382009e+04 7.8022750648578e+01 1.2762315301749e-03
458 -1.0823049953379e+03 2.4518666621227e+04 8.2273907978506e+01 1.2388221205161e-03
459 -1.2767731420477e+03 2.7535918012079e+04 -8.9541076186693e+01 1.1652081532843e-03
460 -1.3656837342153e+03 2.8269448233989e+04 9.0137946801275e+01 4.3179415113940e-03
461 -1.5869084327388e+03 3.0347472571249e+04 9.3268498701124e+01 1.1305348439543e-03
462 -1.6954854213824e+03 2.2333659556268e+04 8.8564929120986e+01 2.9572805884979e-03
463 -1.6490083628214e+03 2.2086390176180e+04 7.3464514835364e+01 2.1140817174664e-03
464 -1.5179568906649e+03 2.2472661247940e+04 8.2358770021081e+01 2.1244227937219e-03
465 -1.6147097233995e+03 2.1107137036108e+04 3.0957759166137e+01 2.2519448979806e-03
466 -1.4871111107281e+03 2.3017639977657e+04 8.5710899011680e+01 2.4385493125652e-03
467 -1.5187816909791e+03 2.3424863558000e+04 8.8591742588033e+01 2.6237947371075e-03
468 -1.6502953481744e+03 2.0730478651414e+04 8.6376778517446e+01 2.5933771291220e-03
469 -1.4836238693551e+03 2.2760874723528e+04 9.2391436240001e+01 1.2889923985577e-03
470 -1.4510473867479e+03 2.1091216283178e+04 8.9190689321997e+01 3.7202264159987e-03
471 -1.1664487334606e+03 2.1767810610465e+04 8.6457958074670e+01 2.1523716081892e-03
472 -1.5066154728723e+03 2.1779614441426e+04 -8.9329480904457e+01 2.5858971600198e-03
473 -1.4925982065375e+03 2.1061124666504e+04 9.0780953112893e+01 4.2040679186373e-03
474 -1.5328482487021e+03 2.2624428760409e+04 9.1344166423014e+01 2.8903281295545e-03
475 -1.3810334636977e+03 2.1754156843945e+04 8.8904983658299e+01 3.1895421377437e-03
476 -1.3225409357150e+03 2.0218760242771e+04 8.1541351772141e+01 2.5463555796689e-03
477 -1.4493184724126e+03 1.9295471690058e+04 -8.4480302323435e+01 2.6528877763297e-03
478 -1.6100564302608e+03 1.9969840465356e+04 9.5349054918145e+01 1.4774268790545e-03
479 -1.5920742885711e+03 1.9885790920819e+04 9.2445293221482e+01 2.2456991112594e-03
480 -2.0725527438335e+03 2.3382680032898e+04 8.8941088704990e+01 3.7310932560045e-03
481 -2.0594114706403e+03 2.1805879542610e+04 1.1424805493162e+02 2.8691646930110e-03
482 -1.9482033336216e+03 2.3338151286121e+04 8.8271726502193e+01 2.9017641555663e-03
483 -1.7664580187612e+03 2.0556649800048e+04 9.4491541595769e+01 2.7769244896865e-03
484 -1.8585778325688e+03 2.3410341629966e+04 8.7934359686701e+01 2.7539758059716e-03
485 -1.7918688830074e+03 2.3454781952478e+04 8.9693202974220e+01 5.1757830527982e-03
486 -1.9421347118316e+03 2.2641796849602e+04 8.7240581447918e+01 2.8374284299132e-03
487 -2.1450878375344e+03 2.3923415161106e+04 8.9706483596371e+01 5.2159103032819e-03
488 -2.0536317878806e+03 2.2863084217766e+04 8.6409401627670e+01 2.6491217071783e-03
489 -2.1558376289310e+03 2.2360260164411e+04 8.6669688318776e+01 2.3448225554865e-03
490 -2.3383240002639e+03 2.2272997500250e+04 -8.5649312204834e+01 2.3809607394971e-03
491 -2.0677254402951e+03 2.4959361401887e+04 7.8235859043575e+01 2.5835348339170e-03
492 -1.9692058713155e+03 2.2427298706862e+04 -8.1052520112260e+01 2.5109598266268e-03
493 -4.5629523480537e+02 2.1046410918180e+04 8.5219535492689e+01 6.6206658645061e-04
494 -5.2829005960721e+02 1.9374041481023e+04 8.0751424721731e+01 7.6895458709027e-04
495 -8.2381161552917e+02 2.0182269933607e+04 8.5794197685428e+01 1.3149613842672e-03
496 -7.8438916826959e+02 1.8121755878835e+04 1.2815077909550e+02 1.8937067287539e-03
497 -8.8358263142318e+02 2.1839256199833e+04 8.9480361980435e+01 3.8816849042217e-03
498 -6.3655508867992e+02 2.0221648266505e+04 -1.0426047571120e+02 1.4859168353457e-03
499 -6.0158028484013e+02 2.1750492973398e+04 9.0396873270657e+01 3.1331799712545e-03
