0 1.0649408088202e+03 1.5959781040582e+04 -4.8914327998200e+01 4.2639225403398e-04
1 -5.1648647184286e+02 2.1973899758251e+04 9.7310017369159e+01 1.1041473565206e-03
2 -5.0189562567792e+02 2.7724790455171e+04 7.3474803273994e+01 6.5741953548865e-04
3 -8.6726754966071e+02 2.3088849141262e+04 1.1664348313675e+02 2.0992223755417e-03
4 -6.9967116108993e+02 2.1673898920543e+04 9.9207614730697e+01 1.7506619739492e-03
5 -1.7958089975146e+03 2.3334573455196e+04 1.1085694130667e+02 3.8203588382131e-03
6 -1.0053446230595e+03 2.9071064708813e+04 9.5652291594234e+01 7.5670938409725e-04
7 -1.2135366916318e+03 3.0390256373530e+04 9.0603983478562e+01 6.7750662114979e-03
8 -1.0969621932531e+03 2.6760302367001e+04 1.0923847121358e+02 8.8522067196990e-04
9 -6.9997994788870e+02 2.5044634854935e+04 8.2278571929689e+01 8.8494288169649e-04
10 -1.2115278364974e+03 2.4554175185213e+04 8.5360814953205e+01 2.1633213936121e-03
11 -5.1423371852198e+02 2.5065104408288e+04 -6.2178389276289e+01 9.3370780942592e-04
12 -5.6695939070746e+02 2.6634561738940e+04 4.5212972498445e+01 5.6908871748355e-04
13 -1.6904679503075e+03 2.7776912976585e+04 8.4936145487214e+01 2.6666827959378e-03
14 -1.4618065495568e+03 2.7389112455133e+04 6.1527557524444e+01 2.5133037678282e-03
15 -1.2781351069880e+02 2.5270089538979e+04 -2.8734614993422e+00 6.8100526837829e-04
16 1.1412322407712e+02 2.3058284243289e+04 7.8853749103330e+01 6.6943220379577e-04
17 -8.5707988213287e+02 2.5747137699326e+04 1.6320811324855e+01 6.2876632523106e-04
18 -7.0279648534154e+02 2.6428320444929e+04 9.2371920419006e+01 7.2460535634652e-04
19 2.8867393638615e+02 2.9308723163756e+04 -5.3422668144386e+01 8.6178680430130e-04
20 -4.3841342868946e+02 3.2173325307903e+04 -6.3870444696047e+01 2.1021309644624e-03
21 -5.3533287313555e+02 3.3895562047628e+04 8.1529160933224e+01 4.2992264946042e-04
22 2.5133081168175e+02 2.7720360053825e+04 3.0446251396417e+01 4.2102690471699e-04
23 -1.2150925704252e+03 2.6600926106947e+04 1.0707000355935e+02 1.8496061645382e-03
24 -1.7330723090874e+03 2.2407982453779e+04 -1.1876527851151e+02 3.8192162575228e-03
25 -1.7013258306989e+03 2.3636591909035e+04 1.0334567859249e+02 3.7065329410323e-03
26 -1.3135055943091e+03 2.5296900717254e+04 1.7172325288577e+02 2.5794770377033e-03
27 -5.9413942957301e+02 1.9538619706442e+04 7.1005122562952e+01 2.0812362161908e-03
28 -7.5267014224463e+02 2.1644149452434e+04 7.6173813217925e+01 2.0410924967721e-03
29 -4.4907277885585e+00 2.1369963755272e+04 -6.1579844726173e+01 8.1389212461440e-04
30 -8.2896336724459e+02 2.0387630823673e+04 8.2190669705595e+01 2.2389670398284e-03
31 -1.1399806965864e+03 1.9636568917306e+04 1.2225256652638e+02 3.2700513000613e-03
32 -5.7867575611170e+02 1.7578965432271e+04 -8.5555947944396e+01 1.1846783331168e-03
33 -1.4425722339578e+03 2.1957551468759e+04 1.5433948569940e+02 2.8117838411063e-03
34 -1.4131238092089e+03 2.1213872650361e+04 -1.1394600420585e+02 3.5856742685409e-03
35 -1.5000402758319e+03 2.5113801383075e+04 1.0190215318603e+02 2.9856871778904e-03
36 -2.5319553332407e+02 2.4393140977784e+04 9.2663734360956e+01 6.7478285260360e-04
37 -4.3920369263738e+02 2.6668369007759e+04 4.6096154451783e+01 6.2415625959032e-04
38 -6.4736002418099e+02 2.7229301071140e+04 8.9308145470064e+01 4.7126933924939e-03
39 -5.6790781263684e+02 3.0713745929157e+04 5.6920779352762e+01 2.3501595193388e-03
40 -2.4399762546161e+02 2.7925281338913e+04 -4.3451921167437e+01 4.6549565010591e-04
41 -8.6081038373595e+02 1.7536430738922e+04 9.2771748711642e+01 3.4207826082867e-03
42 -1.3797999687587e+03 2.1128277797666e+04 6.8877470307594e+01 3.0361957975617e-03
43 -9.4974338208468e+02 1.8092081610064e+04 9.9113846470505e+01 3.0844936452405e-03
44 2.0384453961979e+02 1.7866351085291e+04 9.1945073074258e+01 5.1465759613221e-04
45 5.4237336669132e+01 2.0280571775635e+04 4.3951097026354e+01 9.9746501367032e-04
46 2.0259071284198e+02 2.2261301584117e+04 7.9251217565648e+01 6.3721268977676e-04
47 6.6261270691759e+02 1.2464204356977e+04 -9.7077862862765e+01 6.6422832403512e-04
48 -5.0386273626645e+02 1.9715334274137e+04 9.0529171138064e+01 1.8600606479196e-03
49 6.5120526628841e+02 2.0643283167749e+04 3.6542903914971e+01 5.0723232643352e-04
50 -2.8779691451794e+02 2.1499369891952e+04 7.4324265737714e+01 1.2340625072514e-03
51 2.9340044255684e+02 1.9381970011520e+04 -3.2538925346654e+01 8.1322766828243e-04
52 -1.6814002414680e+02 1.8498199219764e+04 8.9779242362287e+01 3.6933687305351e-03
53 -1.0096287608354e+03 2.5452161187469e+04 1.0202211595617e+02 1.7451419753434e-03
54 2.2855672397433e+02 2.5890598637702e+04 8.9695945042909e+01 2.9995063861284e-03
55 -2.4407841823999e+02 2.1767545407177e+04 -1.3542502920554e+01 7.4616583614504e-04
56 -1.2144905348746e+02 2.9562483516825e+04 7.8490333745815e+01 1.3739668173043e-03
57 -8.5851229440959e+02 2.7636030528325e+04 9.2279239452241e+01 2.0748905956391e-03
58 6.2641787697365e+02 2.8249171736384e+04 6.0281108617121e+01 3.9673039591419e-04
59 -1.2271101135529e+03 2.6191897703939e+04 9.2756155890244e+01 2.0617487003712e-03
60 -1.6231163496840e+03 2.6287552769434e+04 1.7420544217941e+02 2.7566446604657e-03
61 -6.4185870636596e+02 2.9384947304607e+04 8.5439274615523e+01 1.2187103803824e-03
62 -7.7526544820816e+02 2.3259592652163e+04 8.5623811531418e+01 1.8804961211607e-03
63 -7.1462211782919e+02 2.2996607080600e+04 -4.3593553975847e+01 9.7603693277649e-04
64 -6.9037648781424e+02 2.5561583654582e+04 1.0830005299688e+02 1.2397834466644e-03
65 -6.1743261261180e+02 2.7683280979732e+04 6.3528728653985e+01 8.2716188176122e-04
66 -8.4397425579410e+02 2.3104854355979e+04 9.9047975446237e+01 1.4715796555959e-03
67 -5.8827537690345e+02 2.6735659351183e+04 8.8992265541164e+01 1.0634465445684e-03
68 -5.3485672473429e+02 1.8924806298432e+04 -7.8086134885211e+01 2.1983953647294e-03
69 -5.2802984976933e+02 2.0068072013466e+04 6.8555825671495e+01 1.9993380934784e-03
70 -4.1501077114090e+02 1.9469640647200e+04 7.7382105317609e+01 1.7222534135353e-03
71 -4.7628062654574e+02 1.7716386321358e+04 6.3980168546645e+01 2.3699062248344e-03
72 -3.5315325987830e+02 2.0968876435288e+04 -6.9597175945580e+01 9.4898624465064e-04
73 -6.4213754287046e+02 2.1723174290053e+04 1.0108048691512e+02 6.8536957575445e-04
74 2.0376390301418e+02 2.4845428977857e+04 8.8793947213957e+01 4.3680452725891e-03
75 -6.7236315656312e+02 2.6209481483564e+04 6.7145225186264e+01 7.9655251746733e-04
76 -1.5124748628790e+03 2.7327497402965e+04 9.7066234661279e+01 2.3692312262863e-03
77 -1.5828896592895e+03 2.5927076305065e+04 1.4018165710450e+02 2.1323991757093e-03
78 -2.4256425064192e+02 2.8927257746767e+04 -8.5742597513586e+00 4.9925022498547e-04
79 -8.3683314410558e+02 2.4181219798416e+04 8.5800392736470e+01 5.6123145163289e-04
80 -1.5035827020084e+03 3.0732855238576e+04 -6.8234774836546e+01 3.4606443469921e-03
81 -2.2672145926897e+03 2.9903560243623e+04 1.0855561798908e+02 1.3606247799668e-03
82 -1.8409084874325e+03 2.8156957798944e+04 1.0183682871173e+02 2.6342550585115e-03
83 -1.4518514181867e+03 2.6730318643192e+04 9.1664256325279e+01 4.6271189045309e-03
84 -1.9253285917674e+03 2.9147419635663e+04 1.0967761764076e+02 3.1600230078547e-03
85 -1.1483194174951e+03 2.5867934434029e+04 4.0515759762817e+01 1.8325098025704e-03
86 -1.1837304759765e+03 2.9945904218543e+04 9.9992386329809e+01 1.3721252378186e-03
87 -1.0800422685700e+03 2.8571296462915e+04 3.2434903835226e+01 1.4206012213019e-03
88 -1.1460673320461e+03 2.7665755316617e+04 8.5522481994517e+01 1.6926677361177e-03
89 -1.8405109235262e+03 3.0093325564703e+04 1.0496666621880e+02 2.0220410781844e-03
90 -1.8449442121691e+03 2.8327397992124e+04 8.9194977579436e+01 7.0610450684255e-03
91 -1.4328132489252e+03 2.9161964385548e+04 3.3175232026375e+01 1.1586970411703e-03
92 -1.8547158442236e+03 2.8567535061094e+04 1.1267385047696e+02 2.5412405868038e-03
93 -7.3730998237303e+02 2.7519911543846e+04 -5.3730398911824e+01 6.7472411804907e-04
94 -1.4137993127880e+03 3.0858979095170e+04 1.2617623432231e+02 3.9693176371183e-03
95 -1.1843648741212e+03 3.1005168093975e+04 1.0867590928555e+02 3.9873893348002e-03
96 -9.9974169877603e+02 2.7614935508474e+04 9.1411543031603e+01 1.4489122895848e-03
97 -9.7638107584555e+01 2.4916441332219e+04 -3.4876706393144e+01 6.4047837753512e-04
98 -9.6456097701347e+02 2.2778639354773e+04 9.7229193395094e+01 1.5613647366132e-03
99 -7.9260465221470e+02 2.3001260331538e+04 -8.0562171096912e+01 7.2545697817669e-04
100 2.8252735798320e+02 2.2516620999468e+04 -2.7166477150558e+01 5.0933592630453e-04
101 -9.0962731157789e+02 2.4234624494435e+04 6.8168405328756e+01 1.4109251703882e-03
102 -3.9891918033291e+02 2.3884695134848e+04 8.8019701003649e+01 2.0477690818335e-03
103 1.0532313401619e+02 2.4774462950819e+04 8.0597580691463e+01 5.2470975315930e-04
104 -9.2423239066870e+01 2.1854943070548e+04 7.4691072005602e+01 4.6669330735147e-04
105 -2.6333211466086e+02 2.3842054054359e+04 9.4831274575841e+01 4.4994476679337e-04
106 -6.1052541137346e+02 2.6302213726813e+04 8.7003744018105e+01 9.0194481092152e-04
107 -7.7632259180795e+02 2.2767583953009e+04 -5.6959761641817e+01 1.9840034080379e-03
108 -1.6307062755986e+03 2.4461417654336e+04 8.5414436911883e+01 3.4044816318961e-03
109 -1.1017008352293e+02 3.3358241497353e+04 -5.0482652538438e+01 6.0546813688626e-04
110 -7.8300799748576e+02 3.6574753172417e+04 1.0019144698215e+02 3.6877450257311e-04
111 -8.2945330604765e+02 3.0619724393041e+04 1.9242125222442e+01 1.9528133691863e-03
112 -1.8118352950086e+03 3.0676009697727e+04 1.0622305695161e+02 2.1514378223816e-03
113 -1.1793420097971e+03 2.7380203426642e+04 -9.8682753213853e+01 6.4343601388934e-04
114 -6.2117518101506e+02 3.1055682977033e+04 -4.9786118693316e+01 1.8196229929425e-03
115 -8.1586324988072e+02 2.8993272567220e+04 -6.1677283212434e+01 1.0462415093393e-03
116 -1.8147266926333e+03 2.7581895793643e+04 1.3803365820204e+02 3.1577625438750e-03
117 -1.6531981273928e+03 2.9173636347502e+04 1.1291998993637e+02 2.3483494168158e-03
118 -1.6753358094142e+03 2.7730029528528e+04 1.0162913174978e+02 1.3684112307097e-03
119 -4.3275753651958e+02 3.4025591407427e+04 8.0282400427475e+01 4.3982936680830e-04
120 -1.2934128804207e+03 2.9702670324777e+04 7.9090514430661e+01 6.3222388560947e-04
121 -1.3124040707946e+03 3.0042860561449e+04 -7.7513948365413e+01 1.3330565460744e-03
122 -8.2566091115886e+02 2.3881064662918e+04 -6.6382161401577e+01 1.8226792977961e-03
123 -1.3068035207667e+03 2.4254537878003e+04 8.9278111826347e+01 2.9875442964263e-03
124 -1.4836834451757e+03 2.4850172334364e+04 1.0929119324904e+02 2.2525375512955e-03
125 -7.5314951968548e+02 2.1022961661454e+04 9.4904593125734e+01 1.1486183049742e-03
126 -7.4570101410416e+02 2.8593069516524e+04 1.1311589011340e+02 9.8795394463916e-04
127 -1.3939182072414e+03 2.7539351383530e+04 4.1004186373293e+01 1.4973049808765e-03
128 -1.5370152920215e+03 2.8071542627127e+04 7.2917363379139e+01 2.3806213516412e-03
129 -1.2914682436659e+03 2.7842944012986e+04 6.9677948292837e+01 1.1997175602848e-03
130 -1.5371586842070e+03 2.8381411657873e+04 -9.6564057584029e+01 2.2678055761596e-03
131 -1.3547809530655e+03 2.5643294421814e+04 8.2991664146871e+01 2.1753402850165e-03
132 -1.6289321482404e+03 2.6518156344653e+04 8.3349097503560e+01 3.0491037536607e-03
133 -1.2045571809031e+03 2.6265663636267e+04 1.0319013568336e+02 1.5719164437516e-03
134 -1.6241410692793e+03 2.7849422751665e+04 -6.8529898952356e+01 2.2190039627286e-03
135 -1.4249921803531e+03 2.3195541917180e+04 -9.3563851755159e+01 3.0144745327815e-03
136 -1.4257926778823e+03 2.6997208655493e+04 9.0875404936102e+01 2.6355959741254e-03
137 -2.4002219842438e+03 2.5723173015539e+04 8.2812909793787e+01 4.0403579897937e-03
138 -1.4596181197112e+03 2.5907262236612e+04 -3.1488393792502e+01 2.7969272785838e-03
139 -1.5471185298097e+03 2.6482643740863e+04 1.0111994888121e+02 1.6615628764134e-03
140 -7.5635624703245e+02 2.5846610639309e+04 8.1102558840658e+01 1.1823594464668e-03
141 -8.8132932031818e+02 2.7364233574982e+04 -4.5987392427792e+01 6.6077408736774e-04
142 -1.3670279273892e+03 3.0053524663585e+04 9.3316450524083e+01 1.7148278677098e-03
143 -1.6068392163719e+03 2.6028281828339e+04 3.4600297969121e+01 1.6137077799630e-03
144 -1.3082307697127e+03 2.5878283999246e+04 6.1216251179353e+01 2.0161492494130e-03
145 -1.3177105642574e+03 2.6222472532972e+04 4.1191864960851e+01 1.4848169133202e-03
146 -1.1366009002775e+03 2.5605232372467e+04 -1.8007786833542e+00 1.8283074444272e-03
147 -1.2739218188238e+03 2.5445054938973e+04 -3.1621523203704e+01 2.2116846105555e-03
148 -2.1732097362161e+03 2.4149055384758e+04 -8.2075153761987e+01 4.0551199736469e-03
149 -1.8128436403804e+03 2.5055012135713e+04 1.4986993791354e+02 3.3772286394424e-03
150 -6.3541307615290e+02 2.5580937691300e+04 1.9177062033548e+01 1.1823029526340e-03
151 -1.1089613424079e+03 2.3847953973145e+04 9.6301885179963e+01 2.2721718786942e-03
152 -8.4942983129030e+02 2.5981798007742e+04 9.2343084445127e+01 1.5182204754308e-03
153 -5.9397178697452e+02 2.4902252566637e+04 5.9269314019548e+01 1.1602211758182e-03
154 -8.4797539094841e+02 2.4853283789399e+04 7.4779440753089e+01 1.6587742365133e-03
155 -7.7246041418992e+02 2.6305485780532e+04 5.0112596271356e+01 6.4148313990962e-04
156 -7.5528542344204e+02 2.7150411799636e+04 -7.2543552167360e+01 8.9185088335881e-04
157 -2.1899417283827e+03 2.1097506008546e+04 1.7441820242936e+02 3.2794419092834e-03
158 -1.0190017268266e+03 2.4211820936027e+04 9.7026703007667e+01 1.7718408419451e-03
159 -7.3373144738459e+02 2.4527353029148e+04 5.0896275505206e+01 8.3786555926702e-04
160 -3.3777106273991e+02 2.1413915926403e+04 5.5017012978243e+01 1.3654123907032e-03
161 -8.6021526181810e+02 2.1827291172390e+04 4.4598194920328e+01 1.3884878028368e-03
162 -2.0883948426459e+03 2.4659111572292e+04 9.8505873320111e+01 3.6280602411392e-03
163 -7.7027821702617e+02 2.8392786815616e+04 6.9582013360419e+01 6.4101307495995e-04
164 -1.3234873466816e+03 2.8869411860030e+04 1.1407489029887e+02 1.2151292491899e-03
165 -6.2400990484245e+02 2.5407581567935e+04 6.9231665788921e+01 1.0300674346313e-03
166 -9.7391416606049e+02 2.3406760593079e+04 1.0206361431916e+02 1.2709382033091e-03
167 -2.1575729273285e+02 2.3663285675476e+04 4.9472833247003e+01 6.5994464097939e-04
168 -3.3494617287245e+02 2.1028037134513e+04 1.2418697223821e+02 1.2570292558979e-03
169 5.4552195685563e+02 2.3225716176399e+04 -3.6933009639845e+01 4.7631230113734e-04
170 -7.4956817291184e+01 2.8073882813627e+04 4.4419725091979e+01 5.2912724073764e-04
171 -1.4811265665493e+03 3.1144928570062e+04 1.0079344054664e+02 1.9951549494933e-03
172 -1.3523981389908e+03 2.9417593219131e+04 -1.7850447002846e+02 1.0800272046590e-03
173 -1.0070769471640e+03 2.9594658976832e+04 8.0834134408048e+01 9.2591781605763e-04
174 -1.0881160021507e+03 3.0365260364124e+04 6.9054919269489e+01 3.1909158568182e-03
175 -1.3223168618215e+03 2.7523633363908e+04 -1.1852521601903e+02 1.9504500709048e-03
176 -1.8663822080552e+03 2.7137230318697e+04 -4.3853653424825e+01 2.4824113852676e-03
177 -1.5740841338900e+03 2.9596267779367e+04 7.6940781897291e+01 8.7665442164106e-04
178 -1.2915391340673e+03 2.6852942289639e+04 8.1181398641153e+01 5.4335438081182e-04
179 -1.5517906141638e+03 2.9588137394206e+04 -9.8822978061280e+00 1.0373715255106e-03
180 -8.7718169684668e+02 2.6431235219134e+04 -6.0750784247516e+01 1.5091377025890e-03
181 -1.4452269570094e+03 2.7876453672065e+04 8.3464703584460e+01 1.9224136130184e-03
182 -2.0578134305844e+03 2.8371831431969e+04 1.0438346283320e+02 3.4289485988342e-03
183 -1.6401766193995e+03 2.8949791534994e+04 7.5434008839124e+01 2.5671438426681e-03
184 -1.9121184804712e+03 2.7242787150582e+04 6.7550398630844e+01 3.1369663431350e-03
185 -1.3451593479249e+03 2.5705865892217e+04 2.1206799620860e+01 2.6086311518762e-03
186 -1.4744567753365e+03 2.4456538791426e+04 3.2233436091508e+01 3.1524378905934e-03
187 -1.3569917557754e+03 2.4397209856398e+04 -7.8598772178057e+01 7.1281213633383e-04
188 -2.0206565888946e+03 2.9348187116656e+04 8.3463459101947e+01 3.0141003626299e-03
189 -1.8443075010506e+03 2.8378784809604e+04 1.0640112550896e+02 2.9367395304201e-03
190 -1.8006301390800e+03 2.8457912789244e+04 -3.2934783281812e+01 8.4671399837511e-04
191 -1.5614099145654e+03 3.0663816450240e+04 7.1020293389475e+01 3.5677415679084e-03
192 -2.1409636017134e+03 3.0646358323876e+04 9.1818648334890e+01 3.7577453992413e-03
193 -1.9075602933651e+03 2.8515535719494e+04 9.7875685016317e+01 3.1116443475808e-03
194 -2.4075961848663e+03 3.0535308496100e+04 1.1580317366424e+02 3.6590363964368e-03
195 -2.0686812972337e+03 3.2180762136261e+04 8.9196959327261e+01 2.3885971776206e-03
196 -1.7174234770000e+03 2.8853905644128e+04 2.7382375223840e+01 1.2248014718190e-03
197 -1.9700315143503e+03 2.8146998929558e+04 5.9890784529861e+01 3.4355842842159e-03
198 -1.4158881714598e+03 3.1421661391859e+04 1.0799530165417e+02 3.9255111001963e-03
199 -1.7164753138546e+03 3.3336750825087e+04 8.2790977388239e+01 7.3664657114554e-04
200 -9.0035461349211e+02 2.9381797432723e+04 5.4250815154408e+01 8.0949013976793e-04
201 -1.3154427578053e+03 3.0589653401257e+04 8.9645693160876e+01 4.1344625078946e-03
202 -1.9650715758102e+03 2.8066966135949e+04 9.6588894966152e+01 2.2533662332313e-03
203 -1.3225861849948e+03 2.8114106059571e+04 1.5179154661217e+01 1.9441117979009e-03
204 -2.2844361489511e+03 2.6824010249672e+04 -1.2356865484507e+02 3.9674120777867e-03
205 -2.9218951098202e+03 3.0382873301233e+04 1.0117467050464e+02 3.4126755219580e-03
206 -1.6102910515321e+03 3.1456101216047e+04 9.3773334788297e+01 3.9541386975203e-03
207 -1.5994891539356e+03 2.9278347810507e+04 7.9233060354331e+01 2.3759556674388e-03
208 -1.8461669260017e+03 2.8018420134566e+04 1.2980852164811e+02 2.3066339324293e-03
209 -1.5726090983940e+03 3.0026989633166e+04 -5.6065956934455e+01 1.7001653042619e-03
210 -1.9495913361923e+03 3.0598756248258e+04 7.3790813059787e+01 2.6751534855209e-03
211 -2.1517413401160e+03 3.1828723452130e+04 1.0332160052650e+02 2.6266648955807e-03
212 -1.8751745254748e+03 2.8599456018207e+04 9.7933762903767e+01 2.7055513859320e-03
213 -2.0621567916214e+03 3.1094265358182e+04 7.3280056480919e+01 3.5829939237822e-03
214 -1.7779190895450e+03 2.9234284162775e+04 -7.4437376217565e+00 2.5451918483192e-03
215 -2.0982653170411e+03 3.1362356760589e+04 1.0078227308952e+02 2.5537212059368e-03
216 -1.7161811498116e+03 3.0175796977486e+04 9.0402954694775e+01 2.7467491878912e-03
217 -1.8173970509563e+03 2.5775431084401e+04 -6.8496517878797e+01 3.1372451707924e-03
218 -2.1123496666070e+03 2.9794405854657e+04 1.1818179744050e+02 2.0724623523669e-03
219 -7.4925422363707e+02 2.9783466247010e+04 8.6022583407983e+01 1.9096749701755e-03
220 -7.6151521789483e+02 2.8406631425398e+04 -5.2116049389950e+01 1.0383156906411e-03
221 -5.5773603259961e+02 2.8090418197273e+04 1.2485796189148e+01 8.6005052491039e-04
222 -1.2368688124555e+03 2.9998377524341e+04 9.4864758539069e+01 2.3621017869957e-03
223 -1.7582856491240e+03 3.0625378607870e+04 1.0093951539825e+02 3.6668539070008e-03
224 -1.4692087553978e+03 3.0785847934050e+04 1.0150035362601e+02 3.8930911394970e-03
225 -1.8317142744675e+03 2.7747230991246e+04 1.0301521959887e+02 2.8401051898231e-03
226 -1.3011091427264e+03 2.8827956881888e+04 4.6603959160255e+01 1.2524637837421e-03
227 -2.7179398539969e+03 3.6158401573461e+04 1.0303655149699e+02 3.6877310528279e-04
228 -1.3364789673159e+03 3.3071873702592e+04 4.7988431300113e+01 9.4746456326653e-04
229 -1.4424236306987e+03 3.0425698952437e+04 -8.8468303925492e+01 3.4032759400682e-03
230 -1.4764435364332e+03 3.0572031970827e+04 -8.9374246459887e+01 3.5694564072099e-03
231 -9.1372257358340e+02 2.8145341390852e+04 5.5856120993589e+01 9.6506801041133e-04
232 -1.6441997706287e+03 3.1198320931138e+04 7.6199263812543e+01 2.7212083191853e-03
233 -1.4956485600894e+03 3.2420881584132e+04 -5.0368389169701e+01 1.9679787321325e-03
234 -1.4087933800835e+03 3.0979304773840e+04 1.0185806534239e+02 3.7418869625603e-03
235 -1.7784734368138e+03 3.1529698092384e+04 1.1291797201140e+02 3.0614736368053e-03
236 -1.8492530526507e+03 3.4505347677395e+04 9.1483960406141e+01 3.8861257800844e-04
237 -1.8792671964228e+03 3.3659072294738e+04 9.6239673633558e+01 5.3549274513668e-04
238 -1.9280669925848e+03 3.4527261683516e+04 1.0013481637880e+02 3.8424623442768e-04
239 -1.5519777341473e+03 3.2570553320228e+04 9.7449803631283e+01 1.9043165343644e-03
240 -1.5890597476191e+03 3.3539951997011e+04 1.6131144438419e+02 6.1904274497021e-04
241 -1.9489984357178e+03 3.2967732867584e+04 1.0713522291059e+02 1.0096508260521e-03
242 -2.2876479587351e+03 3.4275605081217e+04 1.0017347985782e+02 3.8685549299266e-04
243 -1.7179400952014e+03 2.9288164916952e+04 -9.2073080652053e+01 8.9920902360637e-04
244 -1.7350476027424e+03 2.8106409688482e+04 9.8673683132589e+01 9.2972601866362e-04
245 -9.8730372562106e+02 2.5452065833471e+04 5.6228168430414e+01 1.8222104293389e-03
246 -1.4864834585531e+03 3.0429087017890e+04 9.6905110223666e+01 2.2508255865226e-03
247 -1.5533873437348e+03 2.7528020044591e+04 8.8065506287381e+01 2.6571627680273e-03
248 -1.9688767743670e+03 3.0893778031874e+04 1.1721931445798e+02 3.9478157797126e-03
249 -1.1615414930029e+03 2.9261243985226e+04 -1.4676388631208e+01 1.5220839678208e-03
250 -1.4613019467900e+03 2.9063839749186e+04 4.8385361575746e+01 1.8329839376357e-03
251 -9.7687123832029e+02 3.1776532952421e+04 8.8354847640084e+01 3.6103398655009e-03
252 -1.4727043753182e+03 2.9259606760898e+04 8.6425711679969e+01 1.0777398701407e-03
253 -6.5213850253176e+02 2.7529251154577e+04 7.5158014510024e+01 9.8154659877966e-04
254 -1.4991868360041e+03 2.5379919531069e+04 1.0437418063409e+02 1.1911768202757e-03
255 -1.2989462633316e+03 2.6495463809623e+04 5.1317948167534e+01 2.1069516108090e-03
256 -8.5252404878795e+02 2.8680619350413e+04 7.3883367268806e+01 1.1336362102363e-03
257 -1.7369843611394e+03 2.6738586194836e+04 9.7511341111598e+01 3.0323156220584e-03
258 -9.7343462747902e+02 3.0905200027511e+04 8.4639937318925e+01 3.9396301587857e-03
259 -1.4697013609858e+03 2.9747968795600e+04 6.6582366195681e+01 2.0339411327270e-03
260 -1.6524263820203e+03 2.9927456356227e+04 -9.3095460172597e+01 2.3398071631798e-03
261 -1.5942925284190e+03 2.9414882656341e+04 8.3152733262648e+01 1.7569368164445e-03
262 -2.0206498198350e+03 3.1662981651040e+04 7.1462416104138e+01 3.4950643212843e-03
263 -1.7498539831904e+03 3.3193008233807e+04 1.4721915184336e+01 9.0075289347679e-04
264 -1.5096439074182e+03 3.3334734887004e+04 7.3126547877205e+01 6.2786321431665e-04
265 -1.7694670309590e+03 3.2670947284389e+04 9.9754599094805e+01 1.6417218468256e-03
266 -1.4238667830615e+03 3.0391358790598e+04 7.9731382349305e+01 1.8059305720071e-03
267 -1.4502555553434e+03 3.0618892381635e+04 9.1912725205940e+01 5.0910746959271e-03
268 -1.7827949544611e+03 3.0286654881683e+04 7.1463198122386e+01 2.9573531834821e-03
269 -1.9037511655762e+03 2.9926830796847e+04 1.0028604296661e+02 1.8995357928535e-03
270 -1.3668443541360e+03 3.1105084798598e+04 4.4598475153283e+01 1.8196619916494e-03
271 -2.0137711293516e+03 3.1757843392992e+04 1.0583697641889e+02 3.5297054603234e-03
272 -1.1337495271318e+03 2.8674347496263e+04 -1.6906428984705e+01 1.4605663028844e-03
273 -1.6810892050160e+03 2.8573347077522e+04 9.6784326106733e+01 2.6149473704872e-03
274 -1.6105725542235e+03 2.7685304301506e+04 6.8055548245148e+01 2.5825098006882e-03
275 -1.6599088198655e+03 2.8068556923090e+04 -6.2477014909148e+01 2.3598896107743e-03
276 -1.0729856066186e+03 2.7877168078964e+04 6.1228543070669e+01 1.5652700790486e-03
277 -1.7702629317892e+03 2.5601744637929e+04 1.1266594479907e+02 3.4323122392896e-03
278 -2.5687325131320e+03 2.7788211703427e+04 1.2949701062780e+02 4.0564752465587e-03
279 -1.2535308025232e+03 2.4476665432054e+04 9.6785768628161e+01 2.2273365063018e-03
280 -1.3134329574989e+03 2.5285034959659e+04 1.6753522359224e+02 2.4911152593998e-03
281 -1.7100314250382e+03 2.5473868907089e+04 8.2733205533448e+01 1.1931212518832e-03
282 -1.0588146035509e+03 2.6981305504748e+04 6.8974528870749e+01 1.7104690914002e-03
283 -1.4070315898047e+03 2.6855499366730e+04 -9.4657923605563e+01 2.0044308607264e-03
284 -1.9711269593371e+03 2.8366418012642e+04 1.0969516014290e+02 3.3832963414558e-03
285 -1.1810935532936e+03 2.5866409456583e+04 8.6904584046228e+01 2.1297911913070e-03
286 -5.1763407643976e+02 2.4081655526241e+04 2.6716162271246e+01 6.0477433851221e-04
287 -1.7969585203792e+03 2.6264291804771e+04 1.4653028599658e+02 2.7014144405634e-03
288 -1.2691636648068e+03 2.6644324351163e+04 -5.7380398229783e+01 2.2467400250669e-03
289 -1.1424015064269e+03 2.5481640940970e+04 -2.9439100512109e-01 1.5970839698969e-03
290 -1.5485273608678e+03 2.3737186965216e+04 -5.8947042233599e+01 2.2404182502965e-03
291 -1.2327322741648e+03 2.6650664825619e+04 -2.8266482537978e+01 2.1268649644595e-03
292 -2.1163291484848e+03 2.8319725455538e+04 9.0203092221168e+01 2.1598967523769e-03
293 -8.6511548910092e+02 2.7172359290275e+04 5.0427966642302e+01 1.3044548461900e-03
294 -1.2985165805936e+03 2.2731183498937e+04 1.0064725848793e+02 3.0369742573629e-03
295 -1.5738611249092e+03 2.6887604562848e+04 -1.7033155254027e+02 2.1891619017982e-03
296 -2.3282626523555e+03 2.8096318821116e+04 1.1001158919764e+02 3.0228972762860e-03
297 -1.2150871437234e+03 2.9743391042651e+04 8.2399930246556e+01 1.9109751489181e-03
298 -1.6124746727812e+03 3.0693218698011e+04 2.6569374763764e+01 3.8381134392657e-03
299 -1.3799188188938e+03 2.8891773471641e+04 1.5591642511494e+01 1.6712245443406e-03
300 -1.5410505050881e+03 3.2810771603907e+04 1.0790389736123e+02 1.2545204987754e-03
301 -7.0524274566292e+02 2.9912414119553e+04 1.1242087746664e+01 1.3445765488329e-03
302 -4.3264667524903e+02 2.5581754440130e+04 8.6437443109567e+01 8.5756082704742e-04
303 -6.7707628723347e+02 2.5503861112002e+04 4.9612809872840e+01 1.2976837712283e-03
304 -3.6513729515336e+02 2.0645589387095e+04 1.0004083321020e+02 1.3964592470236e-03
305 -6.7378219209445e+02 1.8495677867759e+04 3.1431096793938e+01 2.6399709999983e-03
306 -1.1567475957743e+03 2.6739031768319e+04 8.7638902062837e+01 2.5445190855722e-03
307 -1.0896973714560e+03 2.3585869214352e+04 -4.7307599707727e+01 2.4927171471686e-03
308 -1.1330894959352e+03 2.5112093851126e+04 3.5867929768110e+01 2.0128423458392e-03
309 -1.6218126461496e+03 2.7560403907673e+04 1.1663811163520e+02 2.3571158129180e-03
310 -4.3811310977980e+02 2.6472925694793e+04 2.5464078923342e+01 8.4288947163034e-04
311 -2.0563781777143e+03 2.5647965488782e+04 1.0622592164299e+02 3.2802964700522e-03
312 -1.3162204793690e+03 2.7991470802400e+04 8.6007943188623e+01 1.8479126927001e-03
313 -8.9823596183119e+02 2.7066411950137e+04 9.4223060953666e+01 9.9123112734802e-04
314 -3.7140226558922e+02 2.8478408288966e+04 1.1391563923481e+01 4.1833800993071e-04
315 -9.1769075309905e+02 2.6320958104229e+04 8.0343121947605e+01 1.0929100825140e-03
316 -1.2260584227197e+03 2.3055492795047e+04 -1.4099842593891e+02 2.7309883698960e-03
317 -2.1754234955771e+02 2.6825581075604e+04 4.8549503486499e+01 6.7800646077898e-04
318 -1.5655358297937e+02 2.3538113151349e+04 -7.7260284517828e+01 8.8239578947135e-04
319 -1.1883201594857e+03 3.0541350361313e+04 1.1523115142442e+02 3.3796812709614e-03
320 -1.1665738660823e+03 2.5365432093499e+04 9.2611016506962e+01 6.9883854569497e-04
321 -8.7048187803875e+02 2.9714435604141e+04 5.8641985411376e+01 1.6142676827728e-03
322 5.0786236051466e+02 2.7236004164409e+04 9.3309818474130e+01 4.1018314223115e-04
323 -7.8844877727449e+02 2.1986363082684e+04 7.4137464253324e+01 2.1470240418801e-03
324 -7.2243587437666e+02 2.8084909587046e+04 1.2715573228047e+02 9.6380211855657e-04
325 -7.8170124671430e+02 2.4931240328162e+04 -4.6572548214093e+01 1.5922130551301e-03
326 -6.9926241383914e+02 2.8439320445090e+04 7.4603087544953e+01 8.2599704033026e-04
327 -7.8716182266696e+02 2.9029269438029e+04 8.2890499083221e+01 5.7530276739060e-04
328 -9.0349243370682e+02 2.6797070276214e+04 -5.7638406587975e+01 4.9454101626246e-04
329 -1.0226053197899e+03 3.0750222863892e+04 1.1429646590174e+02 1.2191774411946e-03
330 -1.1478999145933e+03 2.7844693143529e+04 1.0196645578178e+02 1.5750992455874e-03
331 -1.5863972544060e+03 3.0405433801960e+04 8.6620794867209e+01 3.0760448934410e-03
332 -1.8801402069680e+03 2.6016096047831e+04 1.0554104703376e+02 1.9500420232909e-03
333 -1.5014653521007e+03 2.7465557278939e+04 8.2015443920972e+01 2.2272738989788e-03
334 -8.5697916313766e+02 2.6708947977012e+04 4.4278878209205e+01 1.3505301019371e-03
335 -1.1855637874771e+03 2.7040111981592e+04 8.0851456147992e+01 1.4340294689891e-03
336 -6.6165486619639e+02 2.3283720724839e+04 -9.2100487438894e+00 1.4117738058667e-03
337 -1.3874078880810e+03 2.1992186403652e+04 -1.1634970153054e+02 3.3879696721638e-03
338 -4.6203095374465e+02 2.1903976094948e+04 -6.2881367017519e+01 1.5374803507756e-03
339 -3.9936109058825e+02 2.3864401268690e+04 6.1527322038206e+01 8.0544519999485e-04
340 -1.6515839738377e+03 2.5525126828256e+04 1.2196194816024e+02 1.0319345552230e-03
341 -7.0105696465347e+02 2.6906014189941e+04 5.0072702090478e+01 1.1574778456656e-03
342 -8.7510859790924e+02 2.6321139764222e+04 8.1283296714225e+01 1.5224750838622e-03
343 -1.2013925823604e+03 2.1517109423772e+04 -4.6138083584784e+01 3.1658688550054e-03
344 -3.2524686921615e+02 2.1447034555198e+04 9.6467592435475e+01 1.3666027571357e-03
345 -8.2900416955204e+02 2.3035492502843e+04 9.3927963601305e+01 1.6546147027912e-03
346 -5.9872227860987e+02 2.0980242370437e+04 9.6532779876595e+01 1.7294376312817e-03
347 -9.9694301630840e+02 2.3529380332999e+04 1.0618178893616e+02 1.5114993101733e-03
348 -6.8450312893599e+02 2.4264130126346e+04 9.8170115758739e+01 1.4738759913338e-03
349 -6.2458509193214e+02 2.2699375965435e+04 9.7558831789244e+01 1.2776742897407e-03
350 -1.4382368100008e+03 2.5157074506316e+04 9.0172259587519e+01 3.7991178387384e-03
351 -1.3791286957632e+03 2.8910369175144e+04 1.0355055940284e+02 6.3920126422731e-04
352 -1.8131520415395e+03 3.2143281199649e+04 4.0236588121401e+01 2.4765514697234e-03
353 -2.0806028212829e+03 3.6185986556858e+04 8.6380288062616e+01 3.6878568709230e-04
354 -1.2518393278342e+03 3.1466861448250e+04 3.8525697924432e+01 1.0018825039877e-03
355 -1.9745682231052e+03 3.4234081608184e+04 9.5742236915381e+01 3.9489486482042e-04
356 -1.2822532793448e+03 3.2288831012106e+04 -3.4697082259441e+01 2.3212666631326e-03
357 -1.8616449214422e+03 3.3355306844004e+04 7.6414720122719e+01 7.3717248509840e-04
358 -1.6542482969268e+03 3.3325853339470e+04 6.8839913647858e+01 6.8023252413115e-04
359 -1.5361196256225e+03 3.1763735184463e+04 7.2322278250402e+01 2.1090792385317e-03
360 -1.3978501023143e+03 3.6196790467182e+04 7.8921057573433e+01 3.6877536194996e-04
361 -2.1415405035688e+03 3.2701791864198e+04 6.6451854513679e+01 1.5767350190089e-03
362 -1.1610360335540e+03 3.1514246513097e+04 -2.9752272030440e+01 3.9195393091278e-03
363 -2.3635420695962e+03 3.3769710526716e+04 9.0778346753232e+01 4.3629665559545e-03
364 -1.1474248107522e+03 3.0462629150944e+04 5.4900424400786e+00 2.9457939067765e-03
365 -1.7768399848866e+03 3.3587415838088e+04 5.9633243189123e+01 5.2628111307442e-04
366 -1.9964613354697e+03 3.3416199678059e+04 1.0004701622281e+02 6.9756622077479e-04
367 -7.0555620848461e+02 2.8475997349778e+04 -1.6667841240137e+01 9.7948744447429e-04
368 -1.6030724480506e+03 3.0192735366371e+04 8.2016952551287e+01 2.1888870165024e-03
369 -1.2277364671145e+03 3.0218776726980e+04 2.3161064508287e+01 2.4668464261587e-03
370 -1.7099892598472e+03 3.1453867705518e+04 1.1775298069542e+02 3.8621088590060e-03
371 -1.8264158930308e+03 3.1389359445410e+04 8.5023661038704e+01 3.3461878013692e-03
372 -1.0720758813769e+03 2.7962029816364e+04 1.5170320218079e+01 1.2845977765035e-03
373 -1.4312096624061e+03 3.2953193178867e+04 -2.6531001153129e+01 4.3816899120867e-04
374 -1.8113136337056e+03 3.3859474907567e+04 8.8149255103704e+01 2.3464926697323e-03
375 -3.0923311845402e+02 2.6269856465533e+04 1.0791099941544e+02 7.4161948523482e-04
376 -4.7213457047088e+02 2.3147998686336e+04 5.2847394044199e+01 1.3022001049076e-03
377 -7.1616100583408e+02 2.3345866819528e+04 9.5953623358641e+01 1.7031475279026e-03
378 -6.3646464379664e+02 2.4027016874229e+04 -4.0211069905787e+01 1.4860551299083e-03
379 -1.3839540527204e+03 2.4531010544907e+04 1.1592456143824e+02 2.8027692544606e-03
380 -1.5292061246267e+03 2.4509145544253e+04 1.1616315915268e+02 3.2321802074031e-03
381 -1.1384209517044e+03 2.5337663235479e+04 1.3482572659156e+02 2.0558970098027e-03
382 -4.6525723605221e+01 2.2560508851374e+04 -3.0879505742818e+01 7.6921073763796e-04
383 -6.2008984397065e+02 2.6969992910314e+04 3.3287543926947e+00 7.0061186620767e-04
384 -1.4842408028403e+03 2.4015573122529e+04 -8.6949191573024e+01 2.7495566287895e-03
385 -1.5035949390865e+03 2.4170977211784e+04 1.1201707512629e+02 2.2669560711403e-03
386 -4.1814594007301e+02 2.1573563031374e+04 8.1072808616287e+01 1.5146297685151e-03
387 -4.5946289711201e+01 2.4922715152015e+04 1.2809602474844e+01 6.8461247167766e-04
388 -1.9669990123045e+03 2.9428380638909e+04 1.0879506636019e+02 2.2420281429990e-03
389 -6.7734635386560e+02 2.9365367563851e+04 -2.2875456552924e+01 5.0099821661439e-04
390 -3.4163813651529e+02 2.4372774255892e+04 1.0569540211819e+02 7.7109583144163e-04
391 -9.4164462388191e+02 2.1893749950915e+04 -5.5793931269850e+00 2.4829843151196e-03
392 -1.5296264720908e+03 2.2673464705993e+04 1.1102022125902e+02 9.5306572332769e-04
393 -1.7494277719822e+03 2.3020233463369e+04 9.3558217975752e+01 3.3939380441093e-03
394 -1.5382533712698e+03 2.2264065247949e+04 4.9729354446048e+01 3.0506499279947e-03
395 -1.1496431898844e+03 2.4805961623140e+04 8.9225279279979e+01 1.4889844029229e-03
396 -1.2605633526878e+03 2.4296126972742e+04 1.3198614031561e+02 1.4995170430488e-03
397 -1.5953712793848e+03 2.2576701260361e+04 -8.7083265162810e+01 3.4458493441149e-03
398 -1.4806019266240e+03 2.2492174281563e+04 1.0210776745794e+02 3.3831385189744e-03
399 4.4031845563350e+00 2.0963476934048e+04 1.2103692836757e+00 4.3629822687144e-04
400 -9.9760032092702e+02 2.2826429773171e+04 8.2725096575870e+01 2.4286547234554e-03
401 -1.2866358010327e+03 2.2778916040260e+04 1.0199552025133e+02 1.0131220446480e-03
402 -1.9166598477327e+03 2.7208069308759e+04 8.9329011843719e+01 6.1300642490422e-03
403 -1.0967244495134e+03 2.3675345781637e+04 3.2083045834539e+00 1.3775351047928e-03
404 -2.1840374740127e+03 2.0870430346946e+04 1.0621196814832e+02 4.0393203910849e-03
405 -2.0293349873990e+03 2.8335784646927e+04 1.0293571934979e+02 1.9692190572335e-03
406 -1.6705655068241e+03 2.5256482292823e+04 1.0927528055529e+02 1.8784286457381e-03
407 -1.4382358965722e+03 2.5342710499263e+04 6.5918637595998e+01 9.6045002844203e-04
408 -1.1543734026113e+03 2.6573447969600e+04 6.4009907783497e+01 1.5854726334903e-03
409 -1.4847470165159e+03 2.5975923267471e+04 1.0450869297507e+02 1.7451319672839e-03
410 -1.3010496873438e+03 2.2276408092347e+04 1.0799250896580e+02 2.5335932272542e-03
411 -1.1727131812406e+03 2.2438123700334e+04 4.4233760083735e+01 2.0953245896282e-03
412 -1.8357431437580e+03 2.5025527587320e+04 1.0576558445202e+02 1.2196194616928e-03
413 -7.4533606392581e+02 2.1626825331476e+04 -1.6452167061591e+01 2.0220145803662e-03
414 -2.2764380940490e+03 2.4585155756732e+04 9.8622151143874e+01 3.7949303483289e-03
415 -1.1621946069206e+03 2.1494524700374e+04 2.0334865211561e+01 2.6189429804994e-03
416 -2.0627189998706e+03 2.5499281886766e+04 8.6814204883352e+01 3.6260734567605e-03
417 -1.2747145618966e+03 2.6290351169919e+04 1.1635527869068e+02 1.8883786511728e-03
418 -1.9506244241198e+03 2.6902995534718e+04 8.1786036399004e+01 2.0321390698834e-03
419 -1.3795342782210e+03 2.4437163033297e+04 9.6914290387916e+01 2.4672736738613e-03
420 -1.5257352025306e+03 2.6616011462001e+04 -5.5550520302479e+01 1.6368952706295e-03
421 -1.6280186878433e+03 2.7088151812676e+04 7.7505011228577e+01 2.8789608308283e-03
422 -1.6242604149508e+03 2.4601726429303e+04 8.9944974394416e+01 4.8268675320925e-03
423 -1.4754248770735e+03 2.1787486895217e+04 2.6362769947945e+01 3.0381010901492e-03
424 -1.0380535854789e+03 2.4298745545295e+04 2.8066008918158e+01 1.1857522929954e-03
425 -2.0687942600094e+03 2.5837501696108e+04 8.6257777662722e+01 3.4799112972096e-03
426 -1.1565067721620e+03 2.3341049072268e+04 3.2312575225393e+01 1.8030626638819e-03
427 -2.2042954371763e+03 2.6681361557001e+04 6.8786058568122e+01 3.8662812838411e-03
428 -8.9132398939879e+02 2.7426939429424e+04 4.5640680318982e+01 7.7052086017223e-04
429 -1.7417076069065e+03 2.5853101226189e+04 -4.7370947863113e+01 1.2809791060309e-03
430 -1.2712660915318e+03 2.6810247779924e+04 7.8190574909142e+01 9.8928452533856e-04
431 -2.1116111122049e+03 2.6907536978464e+04 8.4946355131251e+01 1.0185907577063e-03
432 -2.1981179497787e+03 2.7682519552394e+04 -1.1030797960486e+02 1.8416870121084e-03
433 -1.0952195353600e+03 2.6554578271189e+04 4.4124486489232e+01 5.9480970717808e-04
434 -1.3372983476874e+03 2.6792420724194e+04 1.0770781130099e+02 2.3613521181232e-03
435 -1.8445873000526e+03 3.3182335911563e+04 1.1087006406806e+02 8.4788446923196e-04
436 -6.8615414035021e+02 2.9918068095238e+04 7.5514534466954e+01 9.0951704506927e-04
437 -1.0548883671523e+03 3.0088186572509e+04 4.7381358991154e+01 1.3734598185656e-03
438 -1.4606761500739e+03 3.0275021586932e+04 8.7751467712956e+01 3.7484209756592e-03
439 -1.9527992040249e+03 3.4563770477036e+04 8.6254576259053e+01 3.7756917578366e-04
440 -1.1513243950266e+03 2.6237714192090e+04 -1.4068795331960e+01 8.8131014014241e-04
441 -1.6678487945087e+03 2.2270662278857e+04 -6.9825346729223e+01 3.3964424212395e-03
442 -1.7995075385619e+03 2.7168759331594e+04 4.3389037682212e+01 1.0852527508279e-03
443 -9.2786782095888e+02 2.2772273232997e+04 -4.3896039178169e+01 1.8160876534747e-03
444 -2.2279397899196e+03 2.7903201971934e+04 7.8693090597922e+01 3.4913427743923e-03
445 -1.5664578405552e+03 2.6007038575299e+04 -1.0988234345910e+02 2.8875650992287e-03
446 -1.3285337760739e+03 2.7580929922475e+04 8.4295050410288e+01 2.0240122483385e-03
447 -1.8016398394998e+03 2.8948947924485e+04 9.6842162321545e+01 2.7193335729624e-03
448 -1.4763453474054e+03 2.5370645601601e+04 8.1906884736234e+01 2.9590530509228e-03
449 -5.9171894909268e+02 2.6428668504778e+04 5.0216678347078e+01 8.5068494764319e-04
450 -1.7301647114097e+03 2.5483357590558e+04 6.1849314556276e+01 1.9462378354057e-03
451 -1.8254526117661e+03 2.6627795443361e+04 9.4225354948258e+01 1.4729334440265e-03
452 -9.6869167219468e+02 2.4555602282179e+04 5.3195836393629e+01 1.4272806083676e-03
453 -9.2479805094624e+02 2.5563811607986e+04 1.0717309817656e+02 1.2683836800992e-03
454 -1.1949955750814e+03 2.2240321849995e+04 5.6052036854116e+01 2.4743590969958e-03
455 -2.2125674023947e+03 2.4966731043774e+04 1.1150164947579e+02 2.8949376253460e-03
456 -2.2470706830775e+03 2.3368480534831e+04 -1.6569252957415e+02 4.0514288342518e-03
457 -1.3200995702343e+03 2.6975395919808e+04 9.4593952830993e+01 1.2254304566402e-03
458 -1.4572427996958e+03 2.6207131722509e+04 9.4363188949346e+01 1.9588890928228e-03
459 -2.0643949215666e+03 2.6376699414135e+04 1.0794215154199e+02 1.9646982095908e-03
460 -1.5471187135695e+03 2.5772711232278e+04 2.8846308833251e+01 2.9901256575910e-03
461 -1.2766876608549e+03 2.2830108183045e+04 7.2477939196381e+01 2.3198082775311e-03
462 -1.1030992441585e+03 2.1136104000067e+04 -4.1213257460197e+01 2.8697911989376e-03
463 -2.3274391371662e+03 2.4082961978847e+04 1.1478648036152e+02 3.0628122038440e-03
464 -1.3387388829803e+03 2.3760868269657e+04 9.4771666378395e+01 1.3637158573669e-03
465 -1.1357658750414e+03 2.8217480361868e+04 7.2586691289478e+01 1.6693775931810e-03
466 -1.6006513817698e+03 2.5522334799478e+04 3.9283758279723e+01 2.7852538320464e-03
467 -1.9165290036948e+03 2.3280275704237e+04 -5.6878897540470e+00 3.6102184937572e-03
468 -2.5351116631568e+03 2.4947468450195e+04 9.1569026491416e+01 3.3728825292737e-03
469 -1.9203148802805e+03 2.4548967409534e+04 7.7791692613061e+01 3.8743064927137e-03
470 -1.8442270300792e+03 2.4579107426412e+04 -5.5601768746103e+01 3.7762559531235e-03
471 -1.8379048816347e+03 2.7877380151840e+04 9.6927086969715e+01 3.1945261470713e-03
472 -1.2922497348180e+03 2.5573824497663e+04 7.8159053937885e+01 2.3308955811233e-03
473 -2.3261342672374e+03 2.5825239997114e+04 1.0163910827092e+02 3.9457059893651e-03
474 -1.6246244909133e+03 2.6490687064553e+04 9.8913441267061e+01 2.3188296634084e-03
475 -1.6600607324190e+03 2.7214893577463e+04 8.4913506768872e+01 2.4869370216653e-03
476 -2.1956222372799e+03 2.7703388546399e+04 9.3676039469587e+01 2.1855833258162e-03
477 -1.0502814103352e+03 2.7359219021307e+04 -1.7552306665413e+01 6.4020668926143e-04
478 -2.2486377032426e+03 2.7504928862507e+04 8.3235469907321e+01 3.7341105382259e-03
479 -1.0544636462697e+03 2.7916078407062e+04 -4.5123313424647e+01 1.4310569906380e-03
480 -1.4561809754868e+03 2.4866792835412e+04 4.4656547841779e+01 2.8438277509687e-03
481 -2.5910110187614e+03 2.7359391960129e+04 9.3026846389308e+01 6.8765465435862e-04
482 -2.6378584776091e+03 2.9153198551926e+04 1.1904714132872e+02 1.7822465755044e-03
483 -1.6722495873142e+03 2.7096062417623e+04 -4.7614995174577e+01 2.8022353228335e-03
484 -1.9605737545675e+03 3.0246285013798e+04 5.9999622964990e+01 2.0315933147270e-03
485 -1.3702243138874e+03 2.6748348602192e+04 8.8713111205636e+01 2.2243009440727e-03
486 -2.0376358276043e+03 2.6400375163836e+04 9.3021041314368e+01 3.6070496279782e-03
487 -1.9073392627121e+03 2.5196154709716e+04 -5.1455648310446e+01 3.6468674354749e-03
488 -2.5105821637539e+03 2.7189528848388e+04 1.0198119595594e+02 3.1200331618597e-03
489 -2.8801773463372e+03 2.6303019616060e+04 9.9654848980463e+01 2.0216827058997e-03
490 -2.2817178816030e+03 2.5341035797316e+04 8.2409641926951e+01 2.9690592824227e-03
491 -2.2165333753037e+03 2.9828526339547e+04 9.1421621665902e+01 5.9413248536935e-03
492 -1.8648350457103e+03 2.8371678728432e+04 9.5609014912598e+01 3.1535014579204e-03
493 -1.8577271934934e+03 2.9493214665794e+04 7.7711732670470e+01 2.9407347772115e-03
494 -1.6073586159436e+03 2.8324008402361e+04 8.1671174121671e+01 2.1545105295177e-03
495 -1.5764239682978e+03 2.2844318490978e+04 -6.4943591680906e+01 2.9979740423520e-03
496 -1.2459060825483e+03 2.1251858549054e+04 8.9737780937269e+01 5.4371631320617e-03
497 -2.8778605464506e+02 2.4952914578568e+04 4.2895189170010e+01 8.5679331063679e-04
498 -1.4773959159408e+02 2.2825820745911e+04 5.7513885549787e+01 8.8433909888135e-04
499 -5.2876971077208e+01 2.5090734466701e+04 -3.5064838807365e+01 4.1700584380782e-04
