0 -1.7084011442689e+03 2.6100661195292e+04 -1.0492910689443e+01 2.1423404473118e-03
1 -1.8518435679246e+03 2.6998597243740e+04 -9.5831430106914e+01 1.8268349334049e-03
2 -1.5900466710266e+03 2.5772070770322e+04 3.9472532988477e+01 2.0667970585970e-03
3 -1.6452273348020e+03 2.5708575212252e+04 2.7819291016090e+01 2.1893562368372e-03
4 -1.6815355045690e+03 2.7448248165809e+04 5.3429744089026e+01 1.4894353877181e-03
5 -2.0285818425289e+03 2.8351348804061e+04 -9.5179107445985e+01 9.6255584944206e-04
6 -1.6951214967064e+03 2.7140716699106e+04 8.0113868642066e+01 2.2360765447510e-03
7 -2.1734193727005e+03 2.6419171045839e+04 -1.1092180278601e+01 1.9086693223156e-03
8 -2.2503020252853e+03 2.6664779483182e+04 9.7586010310914e+01 2.0719561346726e-03
9 -2.2233637339784e+03 2.6711928144807e+04 9.0938878880104e+01 4.9139599577439e-03
10 -2.1239871187362e+03 2.6408644831529e+04 1.0153679193641e+02 2.8362372517062e-03
11 -7.9508053661142e+02 3.1373333135754e+04 5.2829980819230e+01 1.4482620437247e-03
12 -1.6030770595421e+03 3.0708293933695e+04 -7.3476774896471e+01 2.6181907379408e-03
13 -1.4075464401885e+03 3.0546748971274e+04 -4.4882196599962e+01 2.3530957152307e-03
14 -1.4404175627048e+03 3.1865266599966e+04 -3.4081782799623e+01 2.4021889247323e-03
15 -1.9728665461533e+03 2.5346880472638e+04 -6.2650299329857e+01 2.8081609652373e-03
16 -2.0431452299068e+03 2.5461939634815e+04 1.4209945356582e+02 2.7815908379150e-03
17 -1.7045484149248e+03 2.6465718874260e+04 -2.2470738349669e+01 1.8781324650508e-03
18 -1.7192583135162e+03 2.6630440214692e+04 6.1400392895183e+01 2.1821266482688e-03
19 -1.5631054340328e+03 2.7538202853941e+04 -8.4365066711225e+01 1.9817264823406e-03
20 -1.5023871836685e+03 2.7901380765260e+04 3.8679310725726e+01 1.7846220543727e-03
21 -1.6018961862744e+03 2.7306081113599e+04 6.3232469841949e+01 2.0771161695837e-03
22 -1.7083789124075e+03 2.7156728806634e+04 5.9854424654508e+00 2.2725319388544e-03
23 -1.6931803225509e+03 3.0084000693861e+04 9.5951497373884e+01 1.1385432474984e-03
24 -1.6595865537117e+03 2.9950341885658e+04 -5.0939612921508e+01 1.0644268774342e-03
25 -1.4535717393874e+03 2.9145841285888e+04 7.9822570509897e+01 1.1980668422007e-03
26 -1.5990340689373e+03 2.8972796853527e+04 8.5911192167083e+01 1.6969245182569e-03
27 -1.3280864389767e+03 2.7906178286781e+04 1.4478456341773e+02 1.1508858788381e-03
28 -1.0130661080244e+03 2.4110073593825e+04 1.0262502437288e+02 7.4205891962884e-04
29 -1.4308903521326e+03 2.2662230896232e+04 9.4089029573069e+01 2.4793512643657e-03
30 -1.2244435062084e+03 2.2400215965682e+04 1.1686955164891e+02 2.2012928798775e-03
31 -1.3639317958105e+03 2.2741084176532e+04 7.3989743073766e+01 1.4967934414245e-03
32 -1.3803528009319e+03 2.3323331063698e+04 9.7760114530371e+01 2.2643248458710e-03
33 -1.3801809126337e+03 2.3238280785064e+04 9.9656631874481e+01 2.3141165586207e-03
34 -8.0444189575554e+02 2.2688473798400e+04 5.2375675341926e+01 1.5086102413346e-03
35 -1.4355667222630e+03 2.3287318557360e+04 1.2836418496860e+02 1.8422779363068e-03
36 -1.4829935687367e+03 2.5835971957622e+04 -1.8005778892711e+01 1.3604989226695e-03
37 -1.2747218072460e+03 2.6458306809906e+04 9.6289017181534e+01 1.6820367785256e-03
38 -1.7034792459207e+03 2.5299060221702e+04 1.3582530821390e+02 2.4317617331714e-03
39 -1.3696559596054e+03 2.5586480094683e+04 8.0744997499231e+01 1.0798143023234e-03
40 -1.4590436023056e+03 2.5845260241360e+04 9.6512633807426e+01 1.0589766848312e-03
41 -1.3193127239764e+03 2.4642893118705e+04 9.6284461554552e+01 2.0182414596594e-03
42 -1.6356817307506e+03 2.6854505950273e+04 8.6883404720216e+01 1.9614262701035e-03
43 -1.7046663864767e+03 2.6236655190079e+04 -7.1071750546237e+01 2.1394890034863e-03
44 -1.8201659314299e+03 2.4968767481118e+04 8.3256384824574e+01 1.6673811589251e-03
45 -1.4319641108993e+03 2.5391337699274e+04 -2.6387015532543e+01 1.1460174077483e-03
46 -9.1856495317422e+02 2.2055919877877e+04 9.4637517878088e+01 1.2605573079188e-03
47 -8.2247705069889e+02 2.1161787035678e+04 9.9945424228160e+01 1.6705914847630e-03
48 -7.7298216075424e+02 2.0825782019205e+04 -8.4176439433303e+01 1.6619351876850e-03
49 -1.1202346976592e+03 2.6122278200112e+04 8.6353209136778e+01 1.2051175153332e-03
50 -1.1180461267233e+03 2.6011020606905e+04 7.7827551311580e+01 1.2657641471321e-03
51 -1.2952952569923e+03 2.6053265641717e+04 8.7166171059197e+01 1.2099573284045e-03
52 -1.5491192489983e+03 2.4544055666736e+04 1.0088388105576e+02 2.3981604589857e-03
53 -1.2807162552782e+03 2.4292047310378e+04 1.7251893913209e+02 1.7544894519512e-03
54 -4.2412123633795e+01 2.1630981239904e+04 -2.3573004180416e+01 7.0688031586196e-04
55 -1.1088735155041e+03 2.9461482176777e+04 -4.9499751146213e+01 7.7965675615590e-04
56 -8.4156857775094e+02 2.6747786162056e+04 -1.0430657868247e+02 6.3345025501087e-04
57 -1.5255205260177e+03 3.0228983221103e+04 6.0631568436222e+01 2.1169644024163e-03
58 -1.9563089418073e+03 3.4345009994289e+04 5.6044226918683e+01 2.7276045377894e-04
59 -1.4754384123087e+03 3.2092034322908e+04 6.8732733690979e+01 1.5628461524672e-03
60 -1.7899221184371e+03 3.3448734937541e+04 8.8985614699218e+01 3.4560023667488e-03
61 -1.8460668276019e+03 3.1918608325100e+04 9.2989716926541e+01 2.4414430829472e-03
62 -1.8378312269499e+03 3.1639426547747e+04 9.5528345764639e+01 2.7470895190013e-03
63 -1.4798780311950e+03 3.4457788422132e+04 7.7917982679959e+01 2.8449670560525e-04
64 -1.1745989930838e+03 3.1663201258592e+04 8.6857164593422e+01 1.4286480616729e-03
65 -1.4804611736176e+03 3.2460737937320e+04 2.0670523291843e+01 1.2806912198106e-03
66 -1.5859898413069e+03 3.0592406487828e+04 1.1604264413760e+02 2.5931364058313e-03
67 -2.0726568518074e+03 3.2098610802402e+04 1.1508591457170e+02 2.0908354465785e-03
68 -1.8956522843491e+03 3.1933712280005e+04 7.0755652969314e+01 2.1291423432580e-03
69 -1.9173372600725e+03 3.1915821543691e+04 8.2183503615042e+01 2.3513373751410e-03
70 -1.6852678977225e+03 3.1765349434528e+04 -5.6324400804173e+01 2.0473267925361e-03
71 -1.5518053154962e+03 3.1521789339485e+04 -1.0116321426838e+01 2.3318586352833e-03
72 -1.6851060991914e+03 3.3239747240280e+04 -1.7831352246392e+01 6.3594715927355e-04
73 -1.5781233824761e+03 3.3279089607970e+04 2.9875584240052e+00 6.0476571885120e-04
74 -1.7697330783461e+03 3.2880421263136e+04 -6.7693942043344e+01 9.6739626313019e-04
75 -1.8078782950535e+03 3.2333470081866e+04 1.4822020304519e+02 1.5938568614938e-03
76 -1.5307540742199e+03 3.1540017571991e+04 7.6625849726960e+01 2.4772931615896e-03
77 -1.8079315435263e+03 3.0344210878540e+04 1.0172353609583e+02 2.4005680517572e-03
78 -1.7856928219447e+03 3.3157495281916e+04 7.4474631969995e+01 5.3005979329041e-04
79 -1.5943878504271e+03 3.3889115164338e+04 1.0550156848279e+02 3.4269456757350e-04
80 -1.2464898784778e+03 3.3471514590695e+04 4.1597388452792e+01 4.6215057074199e-04
81 -1.5580093544551e+03 2.7249356541743e+04 8.7389540373312e+01 1.9726395980961e-03
82 -1.3485970545357e+03 2.6983634774884e+04 -1.7670025591180e+02 1.7215098932752e-03
83 -4.5092770145506e+02 3.3187883439275e+04 1.3286711591015e+02 5.6339127539207e-04
84 -2.4370612170724e+02 3.3381145152433e+04 8.3387745457056e+01 4.7849119248981e-04
85 -1.9942321978717e+03 3.0729939602574e+04 1.0189262672014e+02 2.7369007183931e-03
86 -1.7851138080149e+03 3.2204540268234e+04 -4.9888923853735e+01 1.3473652181632e-03
87 -1.5442675531184e+03 3.2725433384341e+04 9.6937527562294e+01 1.1182042980136e-03
88 -1.7983556455065e+03 3.2203343734985e+04 8.9185688404022e+01 3.3801492213888e-03
89 -1.6580926021924e+03 3.1957006691282e+04 1.0004173807876e+02 1.9475914770517e-03
90 -1.5466814819288e+03 3.1775897079226e+04 8.4712941443688e+01 2.2499758508271e-03
91 -9.6841219894990e+02 2.7801195668725e+04 1.4825361593417e+01 9.6649989506891e-04
92 -1.4431372607621e+03 3.2036786479373e+04 4.9847949188966e+01 2.1744111929072e-03
93 -1.4923189079933e+03 3.1932981439563e+04 3.6017010182467e+01 2.2743872000310e-03
94 -1.4917585797150e+03 3.1191110675023e+04 1.2959994071119e+02 2.3618080378156e-03
95 -1.5015201654520e+03 3.2889811341622e+04 -5.2253753941436e+00 4.3818804022051e-04
96 -1.3878441750517e+03 3.1807894199218e+04 5.2980784861813e+01 1.9675877305190e-03
97 -1.3172689999644e+03 2.7034783700762e+04 1.0038502509386e+02 1.1431201631423e-03
98 -1.4540916188275e+03 3.1009550930654e+04 1.0089341678590e+02 1.7708021266483e-03
99 -1.2773193515036e+03 3.0316492683767e+04 6.2700747118719e+01 2.2658519037165e-03
100 -1.4866358850092e+03 3.2627002525672e+04 1.2203253935333e+02 1.1727373884216e-03
101 -1.4930335143262e+03 2.8391094223207e+04 7.9905551129302e+01 1.0335733487874e-03
102 -1.5056880887890e+03 3.2230254527082e+04 8.2796343206106e+01 1.9338878483096e-03
103 -1.6003102782880e+03 3.1940805679109e+04 1.2927696035294e+02 2.3821152545952e-03
104 -2.2768797501161e+03 3.0733743607862e+04 9.8597620764818e+01 2.8792921680380e-03
105 -2.0213062728965e+03 2.8469721742259e+04 -5.2564470341930e+01 2.4157626201144e-03
106 -2.0145173629261e+03 2.7691783095789e+04 6.5149526000230e+01 2.6297007401278e-03
107 -2.3873628174928e+03 2.6504100387726e+04 1.0494104721341e+02 2.8332935032831e-03
108 -2.3363443361228e+03 2.6357678197811e+04 9.6415451206005e+01 2.6440576882889e-03
109 -1.4258675774755e+03 2.8226006934100e+04 9.6039979677167e+01 1.4426883369383e-03
110 -1.9636550765458e+03 3.1109535624566e+04 1.2222683370117e+02 1.3677498974605e-03
111 -1.1680824378994e+03 2.8494464241485e+04 1.0436278177716e+02 1.0213245208441e-03
112 -1.0109597204196e+03 2.8289518847529e+04 -1.2242895935066e+01 9.1771814247307e-04
113 -1.2852945910960e+03 2.7187249155356e+04 -1.0722508699378e+02 1.0846285478336e-03
114 -2.2320263205302e+03 2.8159365300900e+04 -6.1329542643045e+01 2.6851916777244e-03
115 -2.3132643531600e+03 2.8847740551929e+04 8.5518532507144e+01 2.6982314657118e-03
116 -2.0813155587223e+03 2.8211750367407e+04 8.3423839610794e+01 2.5045915965685e-03
117 -1.8306497375105e+03 2.7264986692582e+04 -7.1399173063030e+01 1.7216453317587e-03
118 -1.8617747977290e+03 2.7638084504054e+04 2.1976059628625e+01 2.0425496815148e-03
119 -2.0040930493227e+03 2.7057630024595e+04 9.4508718666067e+01 2.6707572458602e-03
120 -2.0038515226061e+03 2.7160971710385e+04 9.2434428826524e+01 2.6556351949299e-03
121 -1.9638646446132e+03 2.9402551177299e+04 -8.1276599868451e+01 1.9974110838503e-03
122 -2.0081856063285e+03 2.7731077382209e+04 3.1861795690260e+01 2.4880234556209e-03
123 -2.0933444371906e+03 2.8056257132058e+04 9.9480832819179e+01 2.4774456893075e-03
124 -2.1690824204744e+03 2.8947431658011e+04 9.8433776142956e+01 2.2517532913270e-03
125 -2.0410724237608e+03 3.0112845238674e+04 9.7628864955678e+01 2.1525346398067e-03
126 -1.9968735514539e+03 2.9891368119516e+04 9.1806994689829e+01 2.1344211070378e-03
127 -1.9521461935061e+03 2.9669593688596e+04 4.2934497301272e+01 2.2145551553273e-03
128 -2.1288367285976e+03 2.7082371003669e+04 -2.7603414334512e+01 2.7165973903686e-03
129 -2.2581507188591e+03 2.7267284413945e+04 9.7695477215637e+01 2.8023280874961e-03
130 -1.8982155120637e+03 2.9933616187254e+04 -8.5337855836622e+01 1.7771490141207e-03
131 -1.6158863145286e+03 2.9142985478331e+04 -3.8522251428607e+01 1.5421536958988e-03
132 -6.0806092069162e+02 3.2029969500263e+04 1.1420886368991e+02 1.4663010961672e-03
133 -2.1873729502251e+03 2.5234275500048e+04 9.8197517845748e+01 1.1579998150322e-03
134 -2.2968465920696e+03 2.6063354551533e+04 8.2226882883119e+01 1.4213248061435e-03
135 -2.5551113969067e+03 2.9034516078798e+04 9.9898674218264e+01 2.6360524632289e-03
136 -2.3943413198016e+03 2.8618063460171e+04 -1.5507529002033e+01 2.7547255336720e-03
137 -2.4268682476224e+03 2.9315567101017e+04 8.1712919261601e+01 1.7458446684212e-03
138 -2.4589058749748e+03 2.9371918551865e+04 9.4624131253347e+01 2.3032209569151e-03
139 -2.0752268027613e+03 2.7709439069472e+04 7.7306231400218e+01 1.3923645249234e-03
140 -2.0327243796590e+03 2.7649165672178e+04 6.1671054102430e+01 1.7221280400786e-03
141 -2.2489688199966e+03 2.7905738740972e+04 1.0540372209031e+02 1.7811264872027e-03
142 -2.1794871532256e+03 2.6574175318349e+04 6.9428765434710e+00 2.0567900561518e-03
143 -2.1338959859233e+03 2.6798904829179e+04 8.6907892057656e+01 2.7918464690306e-03
144 -2.2006136110467e+03 2.6677423098885e+04 9.6323053397510e+01 2.5945327502403e-03
145 -2.1258553398679e+03 2.8432260980075e+04 8.7253030222429e+01 1.6510190270910e-03
146 -2.1031105988595e+03 2.6297466422503e+04 -8.1278470622832e+01 2.2882360524591e-03
147 -2.3726594639686e+03 2.6826057769012e+04 1.3220965692659e+02 2.6958589499183e-03
148 -2.2619090379225e+03 2.6795649432888e+04 8.1468830084152e+01 2.8960477443171e-03
149 -1.8609872152804e+03 2.8092160985416e+04 6.6015441316592e+01 2.3606335552976e-03
150 -1.4217243369132e+03 3.0898417512027e+04 1.1240674794428e+02 2.8787226711613e-03
151 -1.2954662003974e+03 3.0999485930802e+04 4.9789632608058e+01 2.6998023000741e-03
152 -1.5476042110356e+03 3.0678207477433e+04 1.0770809034297e+02 2.0297731682721e-03
153 -1.5493778289352e+03 2.9383299809811e+04 7.2297887688477e+01 1.3127949228631e-03
154 -2.3827212750202e+03 3.0768550440831e+04 1.1609269622401e+02 2.8775184505236e-03
155 -2.2624610401625e+03 3.0840840314849e+04 8.7279887214234e+01 2.9324420066217e-03
156 -2.2502011460757e+03 3.0560764927603e+04 2.0376575453051e+01 2.7170632708020e-03
157 -2.0295516700429e+03 3.0217486531490e+04 9.3431432815137e+01 2.0042852565822e-03
158 -1.7983542481859e+03 3.1568317167540e+04 1.2272123837123e+02 2.7000685428320e-03
159 -1.6548293273121e+03 3.1651977498639e+04 9.3914716632873e+01 2.5180777749596e-03
160 -1.5422314043618e+03 3.0247235603369e+04 -5.6546644114446e+01 2.2151339864185e-03
161 -1.7204480272197e+03 3.0549688666269e+04 1.1372880357119e+02 2.6301144498967e-03
162 -1.7477023798240e+03 3.1696894403116e+04 1.1791273878715e+02 2.2919473886371e-03
163 -1.8213668642936e+03 3.2698704768221e+04 -1.6766046410293e+02 1.1894507934374e-03
164 -1.1673965472322e+03 3.2310671345825e+04 -6.8901984761195e+00 1.5975233859425e-03
165 -1.4292589349495e+03 3.2580259241680e+04 1.0053252728385e+02 1.3209078803583e-03
166 -1.7670343966966e+03 2.9591726490848e+04 1.1130806798832e+02 1.3620313670067e-03
167 -2.0488526050132e+03 2.9846737048692e+04 1.0045595848887e+02 2.1511265757530e-03
168 -1.7722498225244e+03 2.9490118755365e+04 2.8415951483698e+01 1.8874454866876e-03
169 -1.5917136497765e+03 2.9159727832398e+04 4.3750619530066e+01 1.7763451371410e-03
170 -2.0768396691353e+03 3.2261957137850e+04 7.7547823523340e+01 1.3889963825876e-03
171 -2.1652017687240e+03 3.2188637164686e+04 -7.7749210099145e+01 1.1359625963968e-03
172 -1.9526376177453e+03 3.1825855569311e+04 -1.5230337462382e+02 2.3861077815980e-03
173 -1.8184421735576e+03 3.1786527354907e+04 -4.1162325192026e+01 2.4873875536562e-03
174 -1.9265091616368e+03 3.2128159094915e+04 9.6190047206347e+01 1.9312317588563e-03
175 -1.8646427294519e+03 3.1403738816330e+04 3.4143525247413e+00 2.1510202802661e-03
176 -1.8907728471920e+03 3.1489829623471e+04 5.2579593820920e+01 2.2337584820529e-03
177 -1.9382575137414e+03 3.2282781124168e+04 1.0149011203353e+02 1.7425121399716e-03
178 -1.9932329068004e+03 3.1196785859383e+04 1.0982560844408e+02 2.8488521630701e-03
179 -1.7960682561287e+03 3.1039964034122e+04 -8.2202392433012e+00 2.9243789227116e-03
180 -2.1480889664192e+03 3.3923441336808e+04 -3.9811786048159e+01 3.0346889481207e-04
181 -2.2413092190392e+03 3.0846438880129e+04 9.7657107446458e+01 2.9147628365971e-03
182 -1.8347642785223e+03 3.3572448379367e+04 3.4926767398053e+01 3.2231030772896e-04
183 -2.0209942833679e+03 3.0904997098272e+04 7.9346418429349e+01 2.6222547264849e-03
184 -2.0676820874416e+03 3.1750935703598e+04 8.8149078299971e+01 4.0394318449111e-03
185 -1.9233365156752e+03 3.1502402376807e+04 -3.0913308295412e+01 2.8547593395913e-03
186 -2.5191443736893e+03 3.3426607475588e+04 1.0058733437045e+02 4.1170468814202e-04
187 -1.5536627988991e+03 3.2951486936020e+04 5.1420459686207e+01 4.8676513439621e-04
188 -1.7464605392447e+03 3.2745170184731e+04 1.6881095462881e+02 5.1593283926672e-04
189 -2.0907853139009e+03 3.0816896565773e+04 7.0269587127507e+01 2.5826875874479e-03
190 -2.4043986778584e+03 3.0131916534164e+04 1.4500856302445e+02 2.5192681550633e-03
191 -2.3436579554514e+03 3.0281289333005e+04 9.2584058755405e+01 2.4655227090067e-03
192 -2.1224458138919e+03 2.8112567359845e+04 8.6455345415147e+01 2.6895504055587e-03
193 -2.0529766955438e+03 2.7996830989152e+04 -1.7454019886145e+01 2.6363768881768e-03
194 -2.2390010303404e+03 2.8612321470179e+04 1.2880866819644e+02 2.7305400714925e-03
195 -2.2922298864339e+03 2.9336841704247e+04 1.1869256613810e+02 2.7131478674068e-03
196 -2.2577766616340e+03 2.9512746732653e+04 9.3820855979864e+01 2.6831979070386e-03
197 -2.2687218903541e+03 2.9241964263978e+04 8.3767986650992e+01 2.7477561174225e-03
198 -2.4161754299234e+03 3.0224151595975e+04 1.0034547097154e+02 2.5135902926116e-03
199 -2.4162262665542e+03 3.1366988099184e+04 1.0152080461598e+02 2.9090103234344e-03
200 -2.4884780488108e+03 3.1231029958005e+04 1.3661985071306e+02 2.9701918273166e-03
201 -1.7447695111509e+03 3.1796808577485e+04 1.2033827591624e+02 2.4950780211450e-03
202 -1.7168837304078e+03 3.1123037372505e+04 6.4748448931388e+01 2.9394646365904e-03
203 -1.9739493383385e+03 3.1306528731233e+04 1.0859359979903e+02 2.9510637919138e-03
204 -1.8724657748109e+03 3.1088984099860e+04 1.0131817766944e+02 2.9725628035235e-03
205 -1.4052375767425e+03 3.1459529057925e+04 4.5743516891883e+01 2.6388365767491e-03
206 -1.7206076265420e+03 3.1461423029231e+04 4.1516826717234e+01 2.4098061596197e-03
207 -1.8709129113965e+03 3.4984504256655e+04 5.9567231906338e+01 2.7237360342663e-04
208 -1.7541452729926e+03 3.1090392218647e+04 8.7840016709921e+01 2.8151449510149e-03
209 -1.5721096208867e+03 3.2294120519261e+04 5.6803353253672e+01 1.5449422061327e-03
210 -1.6361340619244e+03 3.2483488690126e+04 1.0166471044634e+02 1.4326748371650e-03
211 -1.6747471515614e+03 2.7772303894015e+04 7.8463380733029e+01 2.1251085480305e-03
212 -1.6419162200119e+03 2.7874552064057e+04 -9.8186186260297e+01 2.0383682801159e-03
213 -1.7137147067407e+03 2.8355325518663e+04 1.0823574032842e+01 1.7955090576965e-03
214 -1.9994494714320e+03 3.0020264174866e+04 1.2024619668329e+02 2.2035553973087e-03
215 -1.8217513125284e+03 3.0185146483853e+04 8.5727489893779e+01 1.9118224366263e-03
216 -1.5561982210520e+03 2.7970170316987e+04 -9.2990143472542e+00 1.8748953372483e-03
217 -2.0462458390321e+03 3.2482840777554e+04 9.8149615799625e+01 1.0879588810639e-03
218 -9.3538041390870e+02 3.4303204326641e+04 7.0896169507692e+01 2.9682973061537e-04
219 -1.0274312154485e+03 3.4442522687500e+04 1.0344241421173e+02 2.8747390676211e-04
220 -4.6765338473200e+02 3.3788526192505e+04 7.0317174975863e+01 3.9570477054677e-04
221 -1.1614483373375e+03 3.0145761315936e+04 -8.9381972877079e+01 2.0189714650599e-03
222 -1.6415043577839e+03 3.4259736886064e+04 1.3481767084474e+02 2.8882299731485e-04
223 -1.6271998834115e+03 3.4198306451927e+04 8.7320225998557e+01 2.7841079915593e-04
224 -1.5113987470032e+03 3.1418849755538e+04 9.3481841808822e+01 2.9011660868572e-03
225 -1.2433885834109e+03 3.0699067734133e+04 5.4070833071910e+01 2.7798572458601e-03
226 -1.4135083323160e+03 3.0741223036136e+04 1.0319023657584e+02 2.7438436145282e-03
227 -1.3524991692119e+03 3.0639899993064e+04 8.3671042540757e+01 2.7065160874549e-03
228 -1.3592811187438e+03 3.2892771697754e+04 1.0950446666269e+02 8.2858204151434e-04
229 -1.4126451616540e+03 3.4053882204769e+04 9.0698200370993e+01 3.0387302211154e-03
230 -1.2664749212439e+03 3.0083908340701e+04 3.3574707688318e+01 1.9470562905449e-03
231 -2.0803916646426e+03 3.2779095183384e+04 -8.0730932304484e+01 1.0196145462903e-03
232 -2.0003919653688e+03 3.2882145563976e+04 -8.3166866179191e+00 8.9426343070087e-04
233 -1.7986818125112e+03 3.2415883018085e+04 3.5556636288276e+01 1.4765644608567e-03
234 -1.2356939505416e+03 3.4025277540257e+04 8.5713336690927e+01 2.9457301716916e-04
235 -1.2717970195237e+03 3.1214441817372e+04 6.3147135158158e+01 2.9449292946193e-03
236 -1.2860652471737e+03 3.0955890492665e+04 -7.9560542261581e+01 2.9425342361336e-03
237 -1.4527871777109e+03 3.1910327198959e+04 9.5456955726472e+01 1.5317341460902e-03
238 -1.8531375885937e+03 2.8379793160120e+04 9.3103007170950e+01 2.1836920600931e-03
239 -1.0355631432131e+03 3.4665866652784e+04 9.1669445424365e+01 2.1781189305558e-03
240 -1.3503443000744e+03 3.2806053881114e+04 9.4103724905024e+01 1.0368845502388e-03
241 -1.2824224907417e+03 3.2907135088064e+04 7.7299975358130e+01 9.4747235758524e-04
242 -1.3807930246745e+03 3.1310117885981e+04 9.3712783566389e+01 2.6821999722670e-03
243 -1.4494364192584e+03 3.3713450566301e+04 1.1201980266847e+02 3.8931457616164e-04
244 -1.3449066825274e+03 3.4259782183415e+04 9.3175256763893e+01 3.0012056781096e-04
245 -1.9509150117273e+03 3.0887427477375e+04 -6.1199558013958e+01 2.8075331591044e-03
246 -1.8037309593335e+03 3.0956524400342e+04 3.3957201031340e+00 2.8450349636380e-03
247 -1.4066421212412e+03 3.0703648529411e+04 2.5048887603201e+01 2.2120921065120e-03
248 -1.3114132789264e+03 3.2044434912217e+04 2.0576403812845e+00 2.2226402414594e-03
249 -1.1839873636512e+03 3.2212983709562e+04 1.4161920110219e+01 1.9667696584261e-03
250 -1.7687927287547e+03 3.4510798743944e+04 1.0369062975490e+02 2.7498755124973e-04
251 -2.1251689611290e+03 3.1551161119969e+04 8.5403694220838e+01 2.7160433700823e-03
252 -2.2201108003528e+03 3.2398572249400e+04 2.8497297113382e+01 1.3058927377986e-03
253 -1.3588548888593e+03 3.2514905586390e+04 8.2300425602048e+01 1.1658772817047e-03
254 -1.0462328088445e+03 3.2675578341140e+04 8.7969817931349e+01 2.2146385914035e-03
255 -1.8572167897709e+03 3.1799106435614e+04 1.0449034038873e+02 2.2780169264456e-03
256 -1.8288453601278e+03 3.2710606565009e+04 1.6323385924364e+02 1.1412219367225e-03
257 -1.5598194798125e+03 3.2369982229090e+04 8.9480984195996e+01 1.9794137552448e-03
258 -1.5430878613678e+03 3.1133126839297e+04 1.0934506045507e+02 2.9051770668201e-03
259 -1.4288772184733e+03 3.1006260856460e+04 7.0012098766935e+01 2.9677692608465e-03
260 -1.3953873890199e+03 3.1038148176020e+04 6.1943884402125e+01 2.9008433694856e-03
261 -1.9391625482525e+03 3.1478774463833e+04 1.0444443009402e+02 2.6380271543829e-03
262 -1.8935097472635e+03 3.1667218831938e+04 8.5310203937999e+01 2.3341437818086e-03
263 -1.9581465282352e+03 3.1898480202544e+04 6.4056017742831e+01 1.9722809921780e-03
264 -1.8714401903265e+03 3.1583071953205e+04 -1.0193071587588e+02 2.7860200031046e-03
265 -1.8094201233528e+03 3.0252697851237e+04 9.1944481282488e+01 3.0659574160247e-03
266 -1.7608371933784e+03 3.0326038715944e+04 8.4361135570451e+01 2.1534455130807e-03
267 -2.5147809788379e+03 3.2091005328009e+04 5.5725032952114e+01 2.0526214435928e-03
268 -2.6448901560631e+03 3.2983168357285e+04 1.1117847338449e+02 5.9847091891933e-04
269 -2.6954906176016e+03 3.2470435577908e+04 9.5400466165048e+01 1.4225525764354e-03
270 -2.3748932106968e+03 2.9327100053696e+04 -6.0310438951910e+01 2.8404186491043e-03
271 -2.3795821509289e+03 2.9647197827993e+04 7.4342428763969e+01 2.8202511819738e-03
272 -2.1760192520841e+03 2.8920802776329e+04 5.4386066521646e+01 2.6850384930948e-03
273 -2.2016502252217e+03 2.9066511081897e+04 6.9732497002722e+01 2.6983680976510e-03
274 -2.3404144128020e+03 2.8717745269807e+04 9.7906604916227e+01 2.3793228468718e-03
275 -2.5256736626211e+03 2.9723707240922e+04 6.5789494937015e+01 2.7238209966597e-03
276 -2.4430343785416e+03 2.9490498741855e+04 -2.4696499014837e+01 2.6986269260418e-03
277 -1.5904981693737e+03 2.6771528708957e+04 9.8290207344890e+01 2.0796135775721e-03
278 -1.3300109759649e+03 3.0067339743569e+04 6.0177725960817e+01 1.4038307556093e-03
279 -2.0985960021950e+03 3.1689684993954e+04 -1.5648198984082e+01 2.1807814528433e-03
280 -1.9022006664757e+03 3.2095651510501e+04 5.1042868574953e+01 2.0270299948301e-03
281 -2.0312536251768e+03 3.0821501572439e+04 1.0535781251822e+02 2.7479247909414e-03
282 -1.9290491050760e+03 3.0256463303259e+04 -1.3750690088688e+02 2.0757567868562e-03
283 -1.2358501851983e+03 3.2064552321058e+04 7.8991247938535e+01 1.7209288240573e-03
284 -1.1638719811634e+03 3.0792863676017e+04 1.0512285197637e+02 2.2299685774445e-03
285 -1.1286770117444e+03 2.8640447248436e+04 -8.4255335926870e+01 1.0347604050506e-03
286 -1.3188314858814e+03 3.1118709314779e+04 1.5549564870266e+02 2.2862370708315e-03
287 -1.4537883532223e+03 2.4951014058351e+04 9.8736771898163e+01 2.2039842373337e-03
288 -1.1816045017436e+03 2.5985325385138e+04 7.8697368170958e+01 1.4626713640977e-03
289 -1.2144934017712e+03 2.5576792464553e+04 -8.6466530318088e+01 1.4604036631351e-03
290 -1.3454111595735e+03 2.5040434418735e+04 1.1702524009400e+02 1.1506868667801e-03
291 -1.6182117368144e+03 3.1131121286381e+04 -1.3775939657628e+02 2.1725519913211e-03
292 -2.3495405077466e+03 3.1948719605435e+04 9.4081330004693e+01 5.3858745220786e-04
293 -9.3185350329467e+02 2.5989823782869e+04 1.0227634104371e+02 6.6333480004691e-04
294 -1.8533966837627e+03 2.8158404007896e+04 -5.3389243889173e+01 7.7755960463298e-04
295 -1.4853772367449e+03 3.0690659206966e+04 -7.1376307447774e+01 1.3444096304720e-03
296 -1.1148695534459e+03 2.5926788537792e+04 1.9442982162410e+01 8.3289933553993e-04
297 -1.0908784103672e+03 3.1391717584138e+04 1.0765406929630e+02 2.6676833265246e-03
298 -1.0113272511367e+03 3.1294009418296e+04 8.2494076438227e+01 2.8297955069325e-03
299 -1.2554432468646e+03 3.1760751654024e+04 9.5268291440406e+01 2.5829958979375e-03
300 -1.2870097852982e+03 3.3310929866587e+04 9.1465337349897e+01 5.2055238820417e-04
301 -1.7934120608295e+03 3.1591511342466e+04 1.2986679935816e+02 2.7834084421869e-03
302 -1.5752651151486e+03 3.1534347256094e+04 7.4714491574937e+01 2.8227894061592e-03
303 -1.3984765297203e+03 3.1683271756901e+04 1.9807675713811e+01 2.6906175368306e-03
304 -1.3941664476373e+03 3.1620588710128e+04 -2.9115354852257e+01 2.7887890640270e-03
305 -1.9855657543347e+03 2.9822711597420e+04 -1.5455990525516e+02 2.0816930763835e-03
306 -1.8872649842835e+03 2.5842156598584e+04 1.0324718221676e+02 2.6196665979348e-03
307 -1.2616519801485e+03 2.5835082632427e+04 -2.9176484481100e+01 1.7261745054883e-03
308 -1.2344841681268e+03 2.6723662190180e+04 8.9885137606663e+01 2.1891333094059e-03
309 -1.1675658338432e+03 2.6433524720832e+04 5.6510845367069e+01 9.0702128915785e-04
310 -9.2217582517712e+02 3.1226075973645e+04 7.2296997765856e+01 1.4437361764407e-03
311 -7.4869564248931e+02 3.0906888089434e+04 -4.3533234908308e+01 2.3419667292753e-03
312 -1.1799549561528e+03 2.3881501659125e+04 8.7973017313374e+01 2.6114288120454e-03
313 -7.6913175158826e+02 2.3031551022069e+04 1.1484932226892e+02 1.3359266691957e-03
314 -1.0971221391124e+03 3.1918151238719e+04 7.7139669954323e+01 1.3577796334589e-03
315 -6.3165074091761e+02 3.1270140206006e+04 -5.8183261561059e+01 2.8188956269251e-03
316 -1.5671958491297e+03 3.2346322621848e+04 1.8074379129860e+01 1.1378747103290e-03
317 -1.7116627663685e+03 3.4849643164634e+04 9.0227241853325e+01 1.9104911984298e-03
318 -1.7871203688576e+03 3.4954664216933e+04 1.0457612433103e+02 2.7292540121983e-04
319 -1.6781763979723e+03 3.2675049734533e+04 1.0593125728965e+02 1.1584657709354e-03
320 -1.3831132223957e+03 2.7840370582848e+04 8.7065955909748e+01 1.6031730182716e-03
321 -1.3215295201010e+03 2.7495923946309e+04 -8.0082065339265e+00 1.5171786835691e-03
322 -1.3837851880174e+03 2.7082077278534e+04 8.0033932833636e+01 1.7620278242893e-03
323 -1.7311995824116e+03 2.6282721492696e+04 1.2085662353259e+02 1.7427849124549e-03
324 -1.2796898357130e+03 2.4939355017337e+04 -1.1956002547154e+02 1.8096549221492e-03
325 -1.2263901164369e+03 2.6863105475989e+04 2.8872499181324e+01 1.5432362588768e-03
326 -1.7383834533543e+03 2.8416597669523e+04 -7.4922154539230e+01 1.8566260880569e-03
327 -1.9086174503584e+03 3.0211991032091e+04 -1.6394972712126e+02 1.6781755157896e-03
328 -1.8249855868217e+03 2.7378332723902e+04 8.2398210816883e+01 1.8112625397612e-03
329 -1.5372583710251e+03 2.7084002358891e+04 4.0792610456582e+01 1.9972798254645e-03
330 -1.7972509352286e+03 2.6339488522410e+04 7.8791508485124e+01 2.5119203231243e-03
331 -1.2555934745365e+03 2.6578901836177e+04 1.0729500991963e+02 6.0125822635910e-04
332 -1.6266938864247e+03 2.6233648703668e+04 -3.6303366505752e+01 2.2664027427751e-03
333 -1.4304783922454e+03 2.7133257073339e+04 8.2170640265081e+01 1.3593399708657e-03
334 -1.7185328063433e+03 2.4499820739962e+04 1.1358403908323e+02 2.5809022055210e-03
335 -1.6379629836008e+03 2.4592415448129e+04 8.9316784527650e+01 2.6422982740751e-03
336 -1.5772540882611e+03 2.5038949045703e+04 9.6061917997840e+01 2.3772445841231e-03
337 -1.9036943578988e+03 2.4808356391391e+04 1.0411321450766e+02 2.7746984418310e-03
338 -1.6853377679875e+03 2.4489401658701e+04 2.7652743864128e+01 2.6023540804937e-03
339 -1.4336047889556e+03 2.3156483245114e+04 1.0855450350699e+02 1.9520307900949e-03
340 -1.1412551503344e+03 2.6507720318616e+04 4.9087131169860e+01 1.2852890484396e-03
341 -1.0769821195779e+03 2.3305533347156e+04 2.6973891079040e+01 1.5897325875475e-03
342 -1.6819004392337e+03 2.9676612670592e+04 -5.6294852423258e+00 4.4656204016068e-04
343 -2.1791370660955e+03 2.2774837985282e+04 1.0999875708204e+02 2.7214819882290e-03
344 -2.1071460757489e+03 2.3525537259655e+04 1.3029138158656e+02 9.0478834735150e-04
345 -2.0136843508195e+03 2.3236146830072e+04 5.0170182295731e+01 1.9066784136811e-03
346 -2.2051381677395e+03 2.2441914631558e+04 6.8968629157369e+01 2.9729578535749e-03
347 -2.1983529565064e+03 2.3269919148077e+04 9.6333514445141e+01 2.0409961745725e-03
348 -2.1987919819087e+03 2.1942083863037e+04 5.2749223231606e+01 2.8596662191071e-03
349 -1.6819845849877e+03 2.7181871583721e+04 4.2495133546995e+01 1.4529938550097e-03
350 -1.4202330854392e+03 2.7392562768639e+04 8.7237053592825e+01 1.7242742926829e-03
351 -1.2293356842720e+03 2.6122223960690e+04 -5.2162330644717e+01 9.0661081413223e-04
352 -1.3050821235669e+03 2.5498276460637e+04 9.0700952173810e+01 1.1900176956117e-03
353 -2.0316861261940e+03 2.5016124415947e+04 4.5573561957909e+01 2.5612947318294e-03
354 -2.0296688084261e+03 2.4598268899216e+04 -7.5799659917833e+01 2.8141710503925e-03
355 -2.0809252913157e+03 2.5357810060650e+04 8.5541816565769e+01 2.6690970885525e-03
356 -2.5086706141340e+03 2.8069213615272e+04 9.8949507186587e+01 2.9607129434800e-03
357 -2.2323904109947e+03 2.7452507190685e+04 1.1751177085682e+02 1.3807884299895e-03
358 -2.5988919658558e+03 2.7259691753488e+04 1.3697676042440e+02 2.9595140933674e-03
359 -2.4112646996135e+03 2.7263337042108e+04 9.1623092801209e+01 4.8764978277903e-03
360 -2.4233250226251e+03 2.5545388408907e+04 9.9187399006228e+01 2.7797102636599e-03
361 -2.4623911329063e+03 2.5784594705626e+04 9.9242738839295e+01 2.6864356094176e-03
362 -2.3283929503059e+03 2.7554793436753e+04 8.7404456383222e+01 3.1531839092591e-03
363 -2.2295114046139e+03 2.4727857319924e+04 5.0358259545980e+01 2.5051404394155e-03
364 -1.2620190381709e+03 2.3172669995344e+04 8.1910154259467e+01 2.0538184533154e-03
365 -1.1818345119012e+03 2.3653368494322e+04 8.0223398393957e+01 1.8777961073057e-03
366 -1.1113466616512e+03 2.2164327989181e+04 -7.1053049219766e+01 1.1234160824756e-03
367 -2.4680062233757e+03 3.0184063323467e+04 1.0325315766573e+02 2.7686029612622e-03
368 -2.1803037364694e+03 3.0234904525095e+04 -7.1008707194482e+01 1.7029792304457e-03
369 -1.8425743631108e+03 3.1347405647465e+04 8.3273011737709e+01 2.5734899162145e-03
370 -1.8667012207511e+03 2.8569797061854e+04 5.2527587177910e+01 1.8902821924675e-03
371 -2.1047239039674e+03 2.8887354616858e+04 8.9784486107078e+01 2.3381282803958e-03
372 -1.6111418887215e+03 2.7744303906813e+04 9.4866015873546e+01 1.9922556677056e-03
373 -1.6784332374795e+03 3.0844487733804e+04 8.1177990800088e+01 6.0434030750281e-04
374 -1.5339470364713e+03 2.7059641583193e+04 -4.4068257889316e+01 1.8377165159297e-03
375 -1.9590793462630e+03 2.7280603231848e+04 -1.1944852548997e+02 2.2327194597302e-03
376 -1.5951331464727e+03 2.2505884200347e+04 1.0071912004113e+02 1.5299856713907e-03
377 -1.9943917179313e+03 2.6880188186199e+04 4.8802505018092e+01 1.5251758620724e-03
378 -2.0098175781281e+03 2.6808546177702e+04 1.1205274036944e+02 2.7117194012549e-03
379 -1.9545330323080e+03 2.7605735777598e+04 1.2299638451056e+02 7.8423072278316e-04
380 -2.1342268690828e+03 2.7953180075009e+04 8.8917919591390e+01 5.4371481461466e-03
381 -1.8902890786721e+03 3.0220331126162e+04 7.9882722571114e+01 2.0482622986400e-03
382 -1.8234305054785e+03 3.0538839179392e+04 8.5563545424099e+01 2.6287120467178e-03
383 -2.0286898857269e+03 2.9861502961713e+04 1.0310688247484e+02 1.1434991500769e-03
384 -1.9702254428293e+03 2.9815615438916e+04 9.4541207093765e+01 1.1784301606265e-03
385 -1.9076915900304e+03 2.8486299444085e+04 1.3457044276304e+02 2.3804438158368e-03
386 -2.1008484081559e+03 2.8971333422253e+04 9.2698472916055e+01 2.4444928689987e-03
387 -2.3393850458787e+03 3.0063334716900e+04 -6.4509038461601e+01 2.1260508869832e-03
388 -2.2230113861290e+03 3.0146050242260e+04 -8.7819248228636e+00 1.9198858588286e-03
389 -9.7026918407934e+02 2.9639903231882e+04 4.7225341611789e+01 1.2318247600879e-03
390 -1.1162730255319e+03 3.4771184326404e+04 5.0661461027923e+01 2.7225166098449e-04
391 -1.8702773273950e+03 2.7021482022935e+04 -5.1226381733666e+01 1.9726937022165e-03
392 -1.7758069175752e+03 2.7155334041550e+04 2.7213651014794e+01 1.7554759735674e-03
393 -1.8850278784168e+03 2.7403027634874e+04 8.2817258082311e+01 2.0997423232600e-03
394 -2.0795603879709e+03 3.2372882678148e+04 3.0567838087775e+01 8.6883112360271e-04
395 -2.1236863498687e+03 3.2199458553669e+04 -4.9122799212754e+01 9.2390165067087e-04
396 -1.3377291050309e+03 3.0074579379269e+04 -3.4454984682035e+01 1.3668306134432e-03
397 -1.3782759689900e+03 3.0890932977467e+04 -3.0038738308232e+01 2.5096363646208e-03
398 -1.1251255225365e+03 2.9122770458205e+04 -6.2499243784978e+01 9.4519122732098e-04
399 -1.4824508654393e+03 3.2462444425118e+04 1.7279547272740e+01 6.0012218058125e-04
400 -1.7344630374444e+03 2.6971887025478e+04 1.4739402822051e+02 2.3413567766617e-03
401 -1.6068879515274e+03 2.7152951665809e+04 9.1382948672388e+01 4.6828724609349e-03
402 -1.6134239283905e+03 2.7606796575249e+04 -1.5312601556938e+01 2.0557167298359e-03
403 -2.0695389981371e+03 2.6391232418289e+04 4.7302858478140e+01 6.1109294295187e-04
404 -2.1529606949651e+03 2.6753570431387e+04 9.5789010028831e+01 1.9637305153967e-03
405 -2.0724101216650e+03 2.4236412959649e+04 1.0845001656888e+02 2.9474179276801e-03
406 -2.2007522645882e+03 2.4512705699481e+04 9.2556462367385e+01 2.3047709340003e-03
407 -2.2611555828698e+03 2.4836590433025e+04 8.4888404219901e+01 2.9071847344299e-03
408 -2.2834029589889e+03 2.4616984248796e+04 1.0703588208180e+02 2.8142134717828e-03
409 -2.2965615517293e+03 2.4725844468206e+04 9.4641400369876e+01 2.7586478269304e-03
410 -2.3559342043427e+03 2.5011896736977e+04 9.9228506475599e+01 2.1342925099658e-03
411 -2.4209637593009e+03 2.6484276701264e+04 -8.9983273609741e+01 2.9729578535749e-03
412 -2.4776221921634e+03 2.6673510567541e+04 1.2350003739375e+02 2.9728825385405e-03
413 -2.2813722762771e+03 2.6679811622653e+04 9.0162346832724e+01 3.9654056008164e-03
414 -1.3901696179235e+03 3.1663255169735e+04 -3.9078958888761e+01 1.7535548094114e-03
415 -1.2530420665010e+03 2.9928279711857e+04 -2.1843629250865e+01 1.6516286732284e-03
416 -1.0359521479468e+03 2.5910010550259e+04 3.8783279248174e+00 1.2656381885451e-03
417 -2.2193912226823e+03 2.9558474493376e+04 7.5655997118643e+01 6.8452868790975e-04
418 -1.7599434786337e+03 2.7013646453643e+04 1.0707098319481e+02 1.1428271785113e-03
419 -1.5622582188627e+03 2.7095223586375e+04 6.3714423138998e+01 2.0523844107389e-03
420 -1.8746003216208e+03 2.6168515947022e+04 3.9668175273654e+01 1.4599753050442e-03
421 -1.7994432131932e+03 2.7164805838256e+04 -1.6577448229904e+02 2.4093125914224e-03
422 -1.5792807441611e+03 2.8233771088839e+04 8.8072030324235e+01 3.1299083814368e-03
423 -1.6737523528511e+03 2.4921797132751e+04 -1.0035601590942e+02 2.3812667611970e-03
424 -1.6647266678224e+03 2.5271231280452e+04 9.4989036836042e+01 2.4740497096951e-03
425 -1.6409182576403e+03 2.6046505325178e+04 8.8755924411556e+01 1.8453926362213e-03
426 -2.6110485358117e+03 2.8720417490991e+04 3.4966729168749e+01 2.5107731909446e-03
427 -2.6483683802808e+03 2.8946193545502e+04 9.6353086466315e+01 2.4874926546291e-03
428 -2.2064336742574e+03 2.8405499507170e+04 9.8669793815016e+01 2.1174676706702e-03
429 -2.5536237991779e+03 2.8693439017313e+04 1.0941758230477e+02 2.9469384390975e-03
430 -1.8442544873017e+03 2.6575539381723e+04 1.0920437392140e+02 1.7801411365092e-03
431 -2.1292656550652e+03 2.6574868525144e+04 9.1182092007519e+01 5.6475508393980e-03
432 -1.9359821227192e+03 2.7956310648800e+04 8.0354829007720e+01 2.2942985975033e-03
433 -1.8336634185482e+03 2.7898636145668e+04 4.4111268998614e+01 2.2727038547319e-03
434 -1.9367763924419e+03 2.7952278833170e+04 8.5413547549329e+01 2.0307127375421e-03
435 -2.0514536749853e+03 2.6248272581520e+04 9.7506478289021e+01 2.6607019768065e-03
436 -2.0267517493956e+03 2.5800754404578e+04 -1.3387172497155e+02 2.5358252467795e-03
437 -1.6414319969919e+03 2.6155617602871e+04 9.0081705903269e+01 3.5356995570640e-03
438 -1.6577376066067e+03 2.7245115502144e+04 -1.6052939998096e+02 2.1420743498422e-03
439 -1.7028642705627e+03 2.7553588547075e+04 -6.4733259080471e+01 2.2058068318141e-03
440 -1.8955675471864e+03 2.9208325329220e+04 8.5098526581473e+01 1.5258051105934e-03
441 -1.9418647725205e+03 2.8647247680842e+04 -9.4360645937151e+01 2.0398371190579e-03
442 -1.8986987552455e+03 2.8699183150478e+04 3.5397256339561e+01 2.1930374423630e-03
443 -1.7693438256480e+03 2.6792796010439e+04 9.0712028224659e+01 5.1444080930978e-03
444 -1.8112658840439e+03 2.6803075463705e+04 6.5742027061784e+01 2.2602331968731e-03
445 -1.9660272682862e+03 2.6766225786554e+04 1.0645898347494e+02 2.5141317334058e-03
446 -2.1811938293245e+03 3.2628590120263e+04 9.7508289885827e+01 1.0885024891249e-03
447 -2.0132195009189e+03 3.2287226295213e+04 -3.3828923042532e+01 1.7771146026234e-03
448 -1.7602549492743e+03 3.0806082414874e+04 1.0786027249239e+02 1.7600330024849e-03
449 -1.2320650164455e+03 3.1609968260766e+04 5.8890806378478e+01 2.6589223821967e-03
450 -1.2089583135325e+03 3.1620864132298e+04 4.9598839744809e+01 2.6636205412888e-03
451 -1.4335817419147e+03 3.2086234652788e+04 1.0750289022452e+02 2.0137774496336e-03
452 -2.5905405682130e+03 3.0686026013429e+04 9.1155061767525e+01 2.7224937699271e-03
453 -2.4970356069557e+03 3.0543227986839e+04 6.3397599447503e+01 2.7836433207523e-03
454 -2.6421916427027e+03 3.0869732958746e+04 9.6614970842493e+01 2.9031983423464e-03
455 -2.5102630817471e+03 3.0262145166694e+04 8.4022768401408e+01 2.4343725281680e-03
456 -2.3632542324864e+03 2.9021918171217e+04 7.9847818616391e+01 2.3530654444377e-03
457 -2.2549079320867e+03 2.8120046523361e+04 9.1420490693004e+01 5.3290008062352e-03
458 -2.2345382729495e+03 2.7864560309514e+04 -5.7656644983352e+01 2.8405467536585e-03
459 -2.0299453601656e+03 3.0543534223925e+04 7.9558206341088e+01 1.5820078915123e-03
460 -2.1747876290307e+03 3.0957163290301e+04 1.0196477392773e+02 1.7398675174871e-03
461 -2.2239494546384e+03 2.9987594594049e+04 -7.7009284633727e+00 2.4403868759460e-03
462 -2.3835958299927e+03 3.0005513383984e+04 1.7570228773555e+02 2.6206697130276e-03
463 -2.0304734205209e+03 2.9812928704716e+04 1.8558545180633e+01 1.3506934313563e-03
464 -2.5961549934357e+03 2.8136031822339e+04 9.4742575309955e+01 2.9729578535749e-03
465 -2.6374060561875e+03 2.8160289530905e+04 1.0264480901651e+02 2.9123989534364e-03
466 -1.7674404562489e+03 3.1512040232421e+04 1.0936594627652e+02 1.8054407332761e-03
467 -1.9410644423705e+03 3.2478907348006e+04 -5.4430342113431e+01 1.3586756669671e-03
468 -2.3343246698399e+03 3.2155819229732e+04 3.6433504672281e+01 1.3652899330085e-03
469 -2.2449479073834e+03 3.2010551340611e+04 9.2939409491988e+01 2.1842140184259e-03
470 -1.2018391806953e+03 3.2568276137251e+04 7.1618991341542e+01 1.2764352581817e-03
471 -1.3038458702581e+03 3.2667541359846e+04 5.8080282298594e+01 8.2974195177742e-04
472 -1.0535783464292e+03 3.1694707560019e+04 4.3889892286494e+01 2.7461789794282e-03
473 -1.2177544752384e+03 3.1913189147620e+04 1.0233977342426e+02 2.4519287264672e-03
474 -1.7057819646108e+03 2.9249535347588e+04 2.9782157331816e+01 1.9410140838101e-03
475 -1.6037665669823e+03 2.8417634923969e+04 8.4443136338342e+01 1.9140678777608e-03
476 -1.8020114858094e+03 2.8343066480900e+04 6.4458519885111e+01 1.8129654792133e-03
477 -2.1806003612297e+03 3.2004065430319e+04 8.9751351866903e+01 2.7517326624122e-03
478 -1.8533077987452e+03 3.0595524596315e+04 1.1418091602860e+02 1.2890455033104e-03
479 -1.6130057960116e+03 3.1589962539526e+04 4.5380131254708e+01 9.1613720339370e-04
480 -1.9555435422437e+03 3.0256506779617e+04 9.5857199805797e+01 2.1010004567093e-03
481 -2.2037017786162e+03 2.8963144429040e+04 -1.0711248097367e+02 2.6981214247264e-03
482 -2.1505424474452e+03 2.9220460738693e+04 7.8999018407431e+01 2.5929633180636e-03
483 -2.1301813322586e+03 2.9737350490031e+04 8.5390645012181e+01 2.5105285630832e-03
484 -2.3374506308940e+03 2.9592843198229e+04 7.2484940259502e+01 2.3090715140339e-03
485 -2.5404881389229e+03 3.0565632552067e+04 4.2403416895589e+01 2.8758840093333e-03
486 -2.9130719884926e+03 2.8322183941505e+04 8.5603278047128e+01 2.1094022852072e-03
487 -2.0965998307987e+03 2.7515836437074e+04 1.0076697142260e+02 2.7398869106750e-03
488 -1.9261014449027e+03 2.7585913292404e+04 6.5848112661579e+01 2.5314973557390e-03
489 -1.9137476166036e+03 3.1798999900553e+04 -2.3260119745051e+01 1.9866173677748e-03
490 -2.0102415244100e+03 3.4144009274383e+04 1.1488973833756e+02 3.0703029098216e-04
491 -1.7135589599761e+03 3.2084270032073e+04 9.7395889998074e+01 1.2088175113112e-03
492 -1.7559287301923e+03 3.2209406959665e+04 1.0130919051303e+02 1.7732287235846e-03
493 -1.2896295993362e+03 3.1796859913843e+04 7.3565326113499e+00 1.6682795941768e-03
494 -1.4407573039063e+03 2.7163087514657e+04 9.7032637290698e+01 1.8385278923384e-03
495 -8.8228289465375e+02 2.5691394715026e+04 5.8215676909871e+01 9.6439688029904e-04
496 -1.0885007619006e+03 2.5659062729285e+04 8.7072523329295e+01 1.1822253518872e-03
497 -8.2356606974784e+02 2.2944752976530e+04 2.4117632413495e+01 1.1707471611057e-03
498 -1.2705064757822e+03 2.5248537012980e+04 8.0419028010865e+01 1.7591222620180e-03
499 -1.1593115495378e+03 2.3837205724297e+04 1.3427003158235e+02 1.7925336188028e-03
