0 -1.4570886997186e+03 2.5779988065633e+04 -4.4144378931725e+01 2.3867786261744e-03
1 -1.2337618677729e+03 2.6965992802212e+04 -7.0426232255393e+00 1.0259919621546e-03
2 -1.2833161071644e+03 2.6127004560803e+04 4.6831098158227e+01 1.9338200653845e-03
3 -1.5940771906927e+03 2.5820711726501e+04 1.5484206059902e+02 2.1649851463461e-03
4 -1.9739607320280e+03 2.7323116180522e+04 -1.4381838758828e+02 2.9119915626417e-03
5 -1.9000223475093e+03 2.8828400372606e+04 9.8825996385424e+01 5.3361631114528e-04
6 -1.8630073408422e+03 2.6675141135315e+04 -8.6039977919210e+01 1.6405874329538e-03
7 -2.3874918398376e+03 2.6503725374113e+04 1.5626926024089e+02 1.9732442671846e-03
8 -2.3118228297078e+03 2.6510047278132e+04 -1.3770557554583e+02 3.4198358333178e-03
9 -1.7924458635916e+03 2.6022334867728e+04 -5.0742056287092e+01 2.8334281204724e-03
10 -1.7949780748965e+03 2.6195853911535e+04 -1.1645650161425e+02 2.6563873286425e-03
11 -3.9415498702442e+02 3.1047637200439e+04 -4.3524547602055e+01 1.5160589226924e-03
12 -1.8926735731809e+03 3.0939995011442e+04 1.2520335588766e+02 3.2296670447827e-03
13 -5.6868659307522e+02 3.0247972336352e+04 -2.3870068929502e+01 2.1062102558685e-03
14 -1.0120892167051e+03 3.1515578240880e+04 -6.3961667765421e+01 3.3023512170711e-03
15 -2.0640203445914e+03 2.5511550702233e+04 1.2273226998041e+02 3.2186927412502e-03
16 -1.9184280494645e+03 2.5399922597793e+04 -1.5590787768189e+02 2.3927922721879e-03
17 -1.5661236451757e+03 2.6283027429068e+04 -1.3417695090833e+02 2.3464172521164e-03
18 -1.4982211766695e+03 2.5947085798960e+04 -8.1454923975371e+01 2.2794241350268e-03
19 -1.6081146644187e+03 2.7589620147835e+04 1.7317852229009e+02 2.3505898499151e-03
20 -1.7601664317626e+03 2.7711314166266e+04 -8.1586178586442e+01 1.5869224511697e-03
21 -1.0557182270288e+03 2.6675335955317e+04 -4.3987307878289e+01 1.3957607426319e-03
22 -1.3218742869679e+03 2.6634819975701e+04 -5.4199118053389e+01 1.6927778267448e-03
23 -2.5644201504931e+03 3.0412858773285e+04 1.5588353261785e+02 9.9455055188316e-04
24 -1.0403764364504e+03 2.9630240396947e+04 -3.7601402158437e+01 6.7545161132066e-04
25 -1.3328077011496e+03 2.9343570619258e+04 9.7760147324382e+01 1.3257789338235e-03
26 -1.6938398728932e+03 2.8917142293144e+04 -1.5777246537423e+02 1.3750945482162e-03
27 -9.6653230553879e+02 2.7767778841214e+04 -1.5984566761649e+01 8.9130429490885e-04
28 -1.4708183543549e+03 2.4489343189941e+04 1.4039341578575e+02 8.6209249812400e-04
29 -2.2704549670585e+03 2.2681451191361e+04 1.7924117613544e+02 2.4128601767840e-03
30 -1.0691166365136e+03 2.2673727980850e+04 7.8576800273160e+01 1.8798532809922e-03
31 -1.0329215285726e+03 2.2595138969174e+04 -4.4060183408048e+01 1.7020441788483e-03
32 -1.4649230413512e+03 2.3659419197738e+04 9.0545596117689e+01 2.1348334234943e-03
33 -5.4530555616697e+02 2.3035879630618e+04 -2.2603424088808e+01 1.1628733145413e-03
34 -1.0645205534796e+03 2.2439159034195e+04 -1.3949259457871e+02 1.5174317024642e-03
35 -9.6671934563545e+02 2.2902691272681e+04 -5.2339223041045e+01 1.9763551995125e-03
36 -1.0775985174701e+03 2.5802293818145e+04 -8.4471276420160e+00 7.2272399655849e-04
37 -1.1967662311013e+03 2.6203069914131e+04 -1.1945514298781e+02 1.3855283834243e-03
38 -1.3799170117834e+03 2.5229769646952e+04 -1.3418968013346e+02 2.3414620769094e-03
39 -1.5984793246752e+03 2.6016967922104e+04 1.1442698852203e+02 6.8863849942059e-04
40 -2.1291902617765e+03 2.5931923260676e+04 1.7032348790333e+02 2.6714135083978e-03
41 -1.1024636167070e+03 2.4268666027869e+04 -7.3955853238592e+01 1.8163657452432e-03
42 -1.9129596055185e+03 2.6885456485503e+04 1.1176231758817e+02 2.6623105952016e-03
43 -1.5750911030867e+03 2.6191332759215e+04 -4.2618518474960e+01 2.1931464750260e-03
44 -1.5126634672282e+03 2.5020909652564e+04 1.9904947444860e+01 8.7093124923169e-04
45 -7.9682087366633e+02 2.4841422153649e+04 -4.0087998163201e+01 1.0916118974818e-03
46 -5.4548951474278e+02 2.1785386679778e+04 -3.9902688274482e+01 1.2720272571855e-03
47 -9.2409285281875e+02 2.1089755457215e+04 -6.0288031410424e+01 1.5958564568083e-03
48 -5.4964623662262e+02 2.0932174891302e+04 1.9318996511416e+01 1.5741187667337e-03
49 -6.2931238861183e+02 2.5881759482704e+04 -3.8007187128254e+01 7.7062569174404e-04
50 -1.2429371645610e+03 2.6009560827851e+04 1.7970156255233e+02 1.2024367780847e-03
51 -1.0204805208537e+03 2.5573560695541e+04 -4.2419979490111e+01 8.0156666881728e-04
52 -1.6455243781526e+03 2.4440336575741e+04 -9.5881334973750e+01 2.8623649159089e-03
53 -1.3934652236311e+03 2.3822801141581e+04 -7.7223833821585e+01 2.5441564833934e-03
54 -5.3480792891493e+02 2.1897496966456e+04 1.4395440579152e+02 1.3775279801895e-03
55 -1.0586696347904e+03 2.9487283582509e+04 1.6735796319988e+02 1.0968565740151e-03
56 -6.7959383329644e+02 2.6480360873317e+04 -5.6361519023115e+01 7.8067153796899e-04
57 -1.6984367099917e+03 3.0068014363283e+04 -1.3128125697861e+02 2.1663110319436e-03
58 -2.6250220479249e+03 3.3722480607107e+04 -1.1461704225341e+02 4.2876668089830e-04
59 -1.1244007784859e+03 3.1885445756602e+04 -1.9246421694556e+01 2.0165794074873e-03
60 -2.5753813534694e+03 3.4063568453026e+04 1.2731915434853e+02 3.5977108118872e-04
61 -1.5617099414465e+03 3.1518020723720e+04 -4.7841141470828e+01 3.3229157091311e-03
62 -1.3394235860737e+03 3.1241939535826e+04 -5.8523134265884e+01 3.4244463142832e-03
63 -6.9037419035137e+02 3.4239761903246e+04 -1.8674483405968e+01 3.5352496496414e-04
64 -7.6250271368480e+02 3.1413102061997e+04 -3.6986225431109e+01 1.6058249169872e-03
65 -1.0129595592487e+03 3.2235763618985e+04 -3.9396535390904e+01 2.0823958526295e-03
66 -9.0440033376050e+02 3.0583953143921e+04 1.8497667338333e+00 2.0487297136324e-03
67 -2.9067026212270e+03 3.2313363388070e+04 1.6151210671721e+02 1.7414841691733e-03
68 -1.4756534001258e+03 3.2017237891385e+04 1.4686672465828e+01 2.6292004791265e-03
69 -2.1871229724928e+03 3.2168974356432e+04 1.4338433339904e+02 2.0041319055657e-03
70 -1.3164157775502e+03 3.2176842417383e+04 6.6802080125099e+01 9.9647863914544e-04
71 -8.4864223606203e+02 3.1231844764650e+04 -2.8079117438827e+01 2.9476081207487e-03
72 -2.2718542231886e+03 3.3360816430052e+04 1.6858136164278e+02 5.1892487277531e-04
73 -1.1021635822713e+03 3.2969119080152e+04 -6.9337917823797e+01 1.0575958106169e-03
74 -1.7041578478990e+03 3.2746916615827e+04 -1.4480646836935e+02 1.2813029512542e-03
75 -2.1923272229953e+03 3.2477555409560e+04 1.6364562802914e+02 1.7021222371616e-03
76 -1.5090335076649e+03 3.1880023100620e+04 9.7217012608351e+01 2.1801344211644e-03
77 -1.3453126882128e+03 2.9960876585964e+04 -6.2459844595753e+01 1.8959034978252e-03
78 -2.0590214250835e+03 3.2926326280786e+04 -1.3090615379044e+02 1.0364889865357e-03
79 -1.7899389186027e+03 3.3899158193054e+04 1.7628307975354e+02 3.5634336237796e-04
80 -8.3737445058007e+02 3.2973853497121e+04 -6.4966341746194e+01 7.5438628210403e-04
81 -1.3071477944260e+03 2.7190707718245e+04 -1.4362162834671e+01 1.8751075406368e-03
82 -1.1301699613920e+03 2.6788398288283e+04 -7.2524919230787e+01 1.6225060081118e-03
83 -5.3086332176629e+02 3.3192337610276e+04 -1.7800270272504e+02 6.2009214970210e-04
84 2.8260234705563e+01 3.3007913829133e+04 -6.5986491302846e+01 9.8027748939839e-04
85 -1.9443115965107e+03 3.0754767963452e+04 1.7489712488582e+02 3.3238797019231e-03
86 -1.7900947210376e+03 3.2348004451295e+04 1.1902905092059e+02 1.1662270435612e-03
87 -1.8074324327823e+03 3.3240510012697e+04 1.0213580843200e+02 7.1679157085876e-04
88 -1.9162526283898e+03 3.1976875998808e+04 -1.4654007925513e+02 1.1357475769165e-03
89 -1.4483567112371e+03 3.2037801386067e+04 1.2600928350009e+01 1.6016122380302e-03
90 -1.7322495081877e+03 3.1972099360392e+04 1.3987502457579e+02 2.3221686270547e-03
91 -6.7906395377667e+02 2.7967290982994e+04 4.8763438013279e+01 7.1639393766674e-04
92 -9.8584649900989e+02 3.1843928750455e+04 -3.2737364668934e+01 2.9468623514871e-03
93 -1.0867684735341e+03 3.1797730177076e+04 -5.2436820868022e+01 2.5999661278078e-03
94 -4.6887338770833e+02 3.0551305917339e+04 -3.8499772729669e+01 2.4025884989537e-03
95 -7.9064238876588e+02 3.2566062175326e+04 -2.8078884420261e+01 7.0457300829931e-04
96 -1.6325169874065e+03 3.1534257061474e+04 -1.3166533029138e+02 3.2840727392975e-03
97 -1.3070893663879e+03 2.6913106843291e+04 -1.0297049792009e+02 1.1076997597408e-03
98 -1.8020017074267e+03 3.1182614626889e+04 1.5478389763409e+02 1.5179041474275e-03
99 -1.4726680193919e+03 3.0240777411095e+04 -1.5408155137789e+02 2.5504032585753e-03
100 -1.7127343972808e+03 3.3066306947986e+04 1.3446577640662e+02 8.3261885236523e-04
101 -1.4361750921340e+03 2.8339873304557e+04 -1.5360378579623e+02 1.3379273662602e-03
102 -9.6780086053881e+02 3.1705358926351e+04 -5.2041846052867e+01 3.0946623085740e-03
103 -1.1861886577859e+03 3.1724749605035e+04 -3.6903282806648e+01 3.1277470224941e-03
104 -2.0076623446976e+03 3.0469873245112e+04 -3.9876409162539e+01 2.9279391458934e-03
105 -2.2059332079214e+03 2.8726022359923e+04 1.5184018506542e+02 2.3903606806449e-03
106 -2.4487472143361e+03 2.8083809727639e+04 1.3317304840060e+02 3.3630032846099e-03
107 -2.7553398607838e+03 2.6606699027568e+04 1.5854461240688e+02 2.8091035579819e-03
108 -2.6163165097772e+03 2.6576090226896e+04 1.2063360694453e+02 2.4856464808892e-03
109 -1.1628192938420e+03 2.7871584449259e+04 -5.2344862463983e+01 8.5969619010837e-04
110 -1.9063295666351e+03 3.1044532812912e+04 -6.9955251932267e+01 2.1481397667211e-03
111 -9.7862909902319e+02 2.8804873135598e+04 1.0964966362291e+02 5.8879580206728e-04
112 -6.1500464273873e+02 2.7986300330329e+04 -8.4472569616895e+01 7.4802991138471e-04
113 -2.1449926549902e+02 2.6689915169554e+04 -3.5405306091067e+01 4.3282839798636e-04
114 -1.9103786972653e+03 2.8057180148882e+04 -6.6676279488278e+01 2.8155449318434e-03
115 -2.3687557953444e+03 2.8440785138253e+04 -1.0215487045559e+02 2.4815391406230e-03
116 -2.4046087890158e+03 2.8311113071183e+04 1.5820311203117e+02 3.3830665196831e-03
117 -1.7024564491817e+03 2.7621195549755e+04 1.0107499711283e+02 2.5375204012087e-03
118 -2.6416453347859e+03 2.7643934481635e+04 1.7999914080068e+02 1.1223378224644e-03
119 -1.8501216450267e+03 2.7119139180239e+04 3.5525861227589e+01 2.8719544772112e-03
120 -1.7477689811672e+03 2.7244439933052e+04 1.4755226738690e+01 2.5978648769123e-03
121 -1.6839391793333e+03 2.8957622250323e+04 -8.1477012551598e+01 2.2351727476511e-03
122 -1.9496006320827e+03 2.7221499161362e+04 -6.9031702176444e+01 1.4257626295269e-03
123 -2.2896663642065e+03 2.8067154053170e+04 -1.7564121418751e+02 1.6500639613295e-03
124 -2.0231664707024e+03 2.9085453820832e+04 9.2781181625110e+01 2.3705516693767e-03
125 -2.2041820284873e+03 3.0254729477538e+04 1.2273229211467e+02 2.7430487443234e-03
126 -1.9338628751473e+03 3.0223053236682e+04 1.1292925939956e+02 2.5302103719796e-03
127 -1.5242682889875e+03 2.9322287287395e+04 -3.4772846603952e+01 1.7047012734275e-03
128 -1.3552524206536e+03 2.6742882494358e+04 -3.3898752823568e+01 1.8015876533285e-03
129 -1.9486352238592e+03 2.7134732782630e+04 -1.8959690247600e+01 2.9051294366855e-03
130 -2.0310678937459e+03 3.0373800464819e+04 9.2063579867338e+01 2.0501612857400e-03
131 -6.2908460335985e+02 2.9167292578776e+04 1.8632444767782e+00 4.7586194998087e-04
132 -7.0481140399684e+02 3.1864686717118e+04 -1.4568095300190e+02 9.3054460061300e-04
133 -2.2411279905086e+03 2.4797763158998e+04 -8.3863887949810e+01 3.1394300013429e-03
134 -2.1118693674645e+03 2.5649655597281e+04 -7.1982070166338e+01 2.6126621661262e-03
135 -2.0726970557075e+03 2.9193904725566e+04 2.0448833419148e+01 2.9156984630218e-03
136 -2.0883544216004e+03 2.8223723294654e+04 -6.4247640170747e+01 2.7621276819686e-03
137 -2.5453594922795e+03 2.9632147813354e+04 9.5038339250930e+01 2.5862634164623e-03
138 -2.3691084311574e+03 2.9485918169768e+04 1.3630145074088e+02 2.3273069971417e-03
139 -1.4524157119432e+03 2.7670093032139e+04 -2.8548191365372e+00 1.3410828971953e-03
140 -2.4234165370479e+03 2.7429956564710e+04 -9.8465303920550e+01 7.0770449637983e-04
141 -2.0553505585405e+03 2.7723881436282e+04 -3.2075622877104e+01 1.7699279172399e-03
142 -1.5880404475911e+03 2.6403091771209e+04 -2.3942171560657e+01 2.0848355967635e-03
143 -2.4116809358555e+03 2.6967724082837e+04 1.5621823414240e+02 3.3689752773765e-03
144 -1.6750353297979e+03 2.6839890283830e+04 1.9687122593055e+01 2.6051723663236e-03
145 -1.9463832720873e+03 2.8629253583162e+04 1.0710591969503e+02 1.0057355359412e-03
146 -2.3169251348238e+03 2.6264947079760e+04 -1.7576857299420e+02 2.5829994330110e-03
147 -2.4718640999488e+03 2.6799018227397e+04 -1.6564058960168e+02 3.4390523129343e-03
148 -2.2761420904651e+03 2.6881907298609e+04 1.5156370705687e+02 3.2712575037975e-03
149 -2.0755624935340e+03 2.8402998369778e+04 1.3802136901799e+02 3.0151147849221e-03
150 -1.5230842126135e+03 3.1022592914036e+04 1.5155176874703e+02 3.4326295691381e-03
151 -7.8652130403191e+02 3.0366879153126e+04 -5.4543715814652e+01 2.6971530463439e-03
152 -1.7637297190064e+03 3.0757824196813e+04 1.5884355934562e+02 2.4868771238877e-03
153 -1.1481185021353e+03 2.9057418758415e+04 -4.6614822090954e+01 7.5107492439847e-04
154 -1.7892491309092e+03 3.0079254243001e+04 -4.2123683791914e+01 1.7724451395866e-03
155 -2.6188375888555e+03 3.0795705933446e+04 -1.6913464595062e+02 3.2594426970718e-03
156 -2.8531100273326e+03 3.0870826764969e+04 1.3266380755126e+02 3.3888146561214e-03
157 -1.5881517851427e+03 2.9594601247353e+04 -4.6919004052368e+01 1.2987556502713e-03
158 -1.7814087001365e+03 3.1664771978151e+04 3.2666523393244e+01 2.8798672190964e-03
159 -1.2479169807766e+03 3.1073664678066e+04 -4.4307139057706e+01 3.3799850659961e-03
160 -1.0579376598072e+03 2.9487009948476e+04 -4.4359461953990e+01 9.2892770121095e-04
161 -2.2186217953501e+03 3.0884564766832e+04 1.4502883015940e+02 3.1439961243901e-03
162 -1.9028135052652e+03 3.1900317003412e+04 8.4534661120281e+01 2.4266941893577e-03
163 -1.5671597430168e+03 3.2596315174709e+04 -4.1542366862674e+01 1.5486613158811e-03
164 -1.3480258466449e+03 3.2419164859106e+04 1.6278816224159e+02 1.6929268067365e-03
165 -1.2546319212911e+03 3.2562347109731e+04 -1.9771157456724e+00 1.6270337291933e-03
166 -1.3491959927734e+03 2.9146719790226e+04 -8.7423005865594e+01 1.3611400065053e-03
167 -1.5854678203281e+03 2.9543822824674e+04 -5.0935180800525e+01 1.9204613125332e-03
168 -1.2252286143073e+03 2.9238091803240e+04 -3.5989790425982e+01 1.3132006451466e-03
169 -1.1642344944439e+03 2.9266029287482e+04 2.5552610061184e+01 1.0206534257012e-03
170 -2.3388304718282e+03 3.2365722866905e+04 1.5098409566038e+02 1.6454469120934e-03
171 -2.3674390330056e+03 3.1783179329094e+04 -8.2262088933113e+01 6.8071612482359e-04
172 -1.3641132151059e+03 3.1770599434006e+04 -4.7064113746625e+00 2.6494460087517e-03
173 -1.6854340329451e+03 3.1829823701598e+04 7.4638577382545e+01 2.8980024543714e-03
174 -2.0789110887507e+03 3.2225991910837e+04 1.6763638592726e+02 2.1742709346254e-03
175 -1.4391331804249e+03 3.0927871179650e+04 -3.9335593392739e+01 1.6480757044683e-03
176 -1.8997932797463e+03 3.1652867042071e+04 1.3922904119206e+02 2.3252749431764e-03
177 -1.6453964646482e+03 3.2376968613484e+04 1.6577089055159e+01 1.6627716505699e-03
178 -1.3100554636218e+03 3.0669112069038e+04 -4.0964471961033e+01 2.9877663559325e-03
179 -1.9823509864211e+03 3.1134330262941e+04 1.4694236582438e+02 3.1938637581894e-03
180 -2.2652817895237e+03 3.3887037321083e+04 -1.6815274787260e+02 3.7193443630026e-04
181 -2.3221556793491e+03 3.0826602633674e+04 -1.4042159345595e+01 3.1957008255746e-03
182 -1.9996672449850e+03 3.3614666874526e+04 1.4176604150328e+02 3.8725216755598e-04
183 -2.0426519064415e+03 3.1179743424469e+04 9.1031707318952e+01 5.5897363425019e-03
184 -2.4623527973897e+03 3.1780703628111e+04 1.7096269201992e+02 2.4274114282557e-03
185 -8.7505567447759e+02 3.0610519252044e+04 -4.7163655292861e+01 2.7764311700640e-03
186 -2.7208219218972e+03 3.3328461631484e+04 -1.7037094644644e+02 6.1375035432739e-04
187 -2.2521083636500e+03 3.3435205987700e+04 1.4469403185232e+02 4.0745996387470e-04
188 -1.6834132451178e+03 3.2763124720068e+04 1.4808014531522e+02 4.8513827324982e-04
189 -1.6867116968604e+03 3.0632875133681e+04 -7.4974647199167e+01 2.8464866187625e-03
190 -1.8514842180776e+03 3.0022244495731e+04 -2.6123708069803e+01 1.3229271206897e-03
191 -1.9307104851737e+03 3.0479784272995e+04 2.5131326388773e+01 1.1549539386692e-03
192 -2.3367950154503e+03 2.8405968805424e+04 1.4052159228210e+02 3.2737158750575e-03
193 -1.6698544551309e+03 2.7547338084913e+04 -5.0815027521580e+01 2.4938387673949e-03
194 -2.2243641159801e+03 2.8512449355113e+04 -2.2247728920590e+01 3.2114710058917e-03
195 -1.8993997983516e+03 2.8840135073191e+04 -4.8642593702148e+01 1.8915889378582e-03
196 -1.9004923183276e+03 2.9029503549002e+04 -6.4156198498685e+01 2.1635224849225e-03
197 -2.5232664110170e+03 2.9298007649685e+04 1.6644325578136e+02 3.2888186262051e-03
198 -2.0576939493251e+03 3.0109863626515e+04 -1.9032716814146e+01 2.3018870303658e-03
199 -2.4131571103354e+03 3.1317471830940e+04 -3.4080397032013e+01 3.2627019736960e-03
200 -2.9147805185288e+03 3.1100530415292e+04 -1.6227357522853e+02 2.6585279434532e-03
201 -1.9031407620909e+03 3.1935023084781e+04 1.5997179744814e+02 2.7173793636791e-03
202 -1.2386239049046e+03 3.0850435223000e+04 -3.7555540146384e+01 3.3628564503051e-03
203 -1.9866417308223e+03 3.1096002997986e+04 -1.1897881945069e+02 2.2777480995646e-03
204 -1.3850773548323e+03 3.1095482980746e+04 5.2448337885609e-01 3.2058698272861e-03
205 -1.8670954729957e+03 3.1553164794272e+04 1.5599171192296e+02 3.2505061523292e-03
206 -1.9903323895444e+03 3.1711764064911e+04 1.1028931689115e+02 2.5583294145239e-03
207 -2.0225336961817e+03 3.5260319636785e+04 1.5104798329399e+02 3.1347503704825e-04
208 -1.6735680486547e+03 3.0741754416917e+04 -8.1985404382091e+01 3.0998976727939e-03
209 -1.0091731460933e+03 3.2019770307977e+04 -3.0301020920290e+01 2.0304031856425e-03
210 -1.6221537006547e+03 3.2338909237896e+04 -1.3475581693534e+02 1.9681368787179e-03
211 -1.3565242338834e+03 2.7608206733646e+04 -4.7934333727933e+01 1.8883172518285e-03
212 -1.2119703763208e+03 2.7267127650172e+04 -5.2085165965145e+01 1.6852681316401e-03
213 -9.8671048045994e+02 2.8180814107042e+04 -2.3190646831348e+01 7.9127609820658e-04
214 -1.8488951145075e+03 2.9989034608068e+04 -2.1059315018446e+01 2.3930896923247e-03
215 -2.2426586081312e+03 3.0988094850936e+04 1.2615258619175e+02 1.7564874436159e-03
216 -1.8169734241980e+03 2.8008418183557e+04 1.7043135331205e+02 1.6312135957726e-03
217 -1.9870767596532e+03 3.2386846680900e+04 -1.3647639438068e+02 1.6211924002376e-03
218 -1.3892309073972e+03 3.4333092786804e+04 -1.5234988346549e+02 3.3086993381244e-04
219 -8.1798076908358e+02 3.4668923373759e+04 1.0354685537297e+02 3.2305355896950e-04
220 -7.5702455501097e+02 3.3581627124857e+04 -1.4439126569049e+02 4.8312345705640e-04
221 -6.3955821667174e+02 3.0060060908496e+04 -1.2741318421580e+01 2.0059238491652e-03
222 -1.0995127329498e+03 3.3656355048625e+04 -4.6738705934479e+01 3.5968460640647e-04
223 -2.0699153964279e+03 3.4623943694601e+04 1.3561890457223e+02 3.1593803517591e-04
224 -2.2672155941837e+03 3.1876200566796e+04 1.4820144041630e+02 2.7402337403267e-03
225 -9.0360490418213e+02 3.0695279562272e+04 -5.5136196121712e-01 3.2116669230728e-03
226 -1.2312030660876e+03 3.0957556795340e+04 1.0556853157266e+02 3.4182003133683e-03
227 -1.6047137130830e+03 3.0544796691222e+04 -1.4467477474974e+02 2.1695046221819e-03
228 -9.1383344585372e+02 3.3247972022834e+04 5.6684420566488e+01 4.8511979209030e-04
229 -9.4595041689333e+02 3.4006950210451e+04 -6.4185017225185e+00 3.8070884372142e-04
230 -9.5987278910846e+02 2.9832537552436e+04 -3.0962994595749e+01 1.7275823020777e-03
231 -2.1166288317451e+03 3.2946117974733e+04 1.5656543334791e+02 8.9362563103319e-04
232 -1.9297345374573e+03 3.2968854450205e+04 1.3771484621367e+02 9.5741150092268e-04
233 -2.1465156488257e+03 3.2737219338493e+04 1.4378837667089e+02 1.2328699512377e-03
234 -1.0242185695735e+03 3.4019607999056e+04 -2.1984078837588e+00 3.3721059881747e-04
235 -1.7297419009548e+03 3.1376921426665e+04 1.6435119523563e+02 3.2586337118621e-03
236 -1.6981110490533e+03 3.1036813594008e+04 1.7097775476882e+02 3.2346809064358e-03
237 -1.0470139878648e+03 3.1382529930988e+04 -5.9919221866923e+01 9.0095496732146e-04
238 -1.9711092680810e+03 2.8501500957640e+04 1.4870582242268e+02 2.7803766027436e-03
239 -1.0217681980705e+03 3.4647525074911e+04 -1.3729398614803e+02 3.2302861737867e-04
240 -1.4302362171710e+03 3.2873558460136e+04 1.3910941782152e+02 1.1554031784096e-03
241 -8.9843019261589e+02 3.2311233197932e+04 -5.0574511470592e+01 2.1512012316698e-03
242 -9.4010235180798e+02 3.0891669587528e+04 -5.8284605287208e+01 3.3756167994918e-03
243 -1.7658716972858e+03 3.3515952471463e+04 -1.3662125193421e+02 5.2275660136016e-04
244 -1.2848651328275e+03 3.4351662579652e+04 1.3163304256556e+02 3.3945397179518e-04
245 -2.3221363059892e+03 3.1454433941179e+04 1.3083594052147e+02 3.3371759453638e-03
246 -1.5779630268001e+03 3.0916603138546e+04 -2.5364871401950e+01 2.8945499369452e-03
247 -1.4259225523411e+03 3.0760035259561e+04 3.8220998063813e+01 2.5253802154039e-03
248 -1.5445104925219e+03 3.2431147174327e+04 1.3124617455730e+02 1.8621818760094e-03
249 -1.6403103988471e+03 3.2623850007892e+04 1.4106375083165e+02 1.5004500841650e-03
250 -1.4867314791891e+03 3.4162196010483e+04 -3.3322555378835e+01 3.4101873311488e-04
251 -1.5803850689365e+03 3.1352550655592e+04 -5.8676350221329e+01 3.4183798368949e-03
252 -1.7397977408803e+03 3.2256842473948e+04 -3.3194710885894e+01 1.9395745439377e-03
253 -9.9993193881013e+02 3.2260221933470e+04 -3.3473839304933e+01 1.8324224792332e-03
254 -9.5211390312530e+02 3.2858381840618e+04 9.8725242581877e+01 1.2181267654293e-03
255 -1.4810890459833e+03 3.1753808976179e+04 -5.1403690075705e+00 2.4147487469664e-03
256 -1.3504316892737e+03 3.2393250908613e+04 -2.4126605497821e+01 1.9532222059905e-03
257 -1.3834156506814e+03 3.1983659035656e+04 -7.5315286158163e+01 2.5579938401569e-03
258 -2.1851149595437e+03 3.1395994049307e+04 1.4352739315125e+02 3.2838699376145e-03
259 -1.7122492637540e+03 3.1589807047403e+04 1.2089158929927e+02 3.0902521354619e-03
260 -1.2686114515210e+03 3.1065806112564e+04 8.9955656862817e+00 3.4143283600952e-03
261 -1.5232572707491e+03 3.1314548834794e+04 -1.8544570967577e+01 3.3793819534454e-03
262 -1.7328100905000e+03 3.1589531348863e+04 -1.4071560554905e+02 2.1629158689373e-03
263 -1.4210520626529e+03 3.1965871326623e+04 3.0200215052738e+01 2.7007372775098e-03
264 -1.9571473940448e+03 3.1221965359181e+04 -7.0181871460746e+01 2.7024245977876e-03
265 -2.0014273175814e+03 3.0259314363996e+04 -1.7830090172596e+02 1.4947134915927e-03
266 -2.1761785740803e+03 2.9790721390136e+04 -1.0528721266232e+02 6.2367801821213e-04
267 -2.4769662252509e+03 3.2392478937218e+04 9.9982048445301e+01 1.8291501451150e-03
268 -2.8051690354622e+03 3.2462046656299e+04 -7.0828370094466e+01 5.9570021619835e-04
269 -1.2833842567158e+03 3.1978910974041e+04 -2.3484838644221e+01 2.5334501191354e-03
270 -2.9184490029677e+03 3.0164306039698e+04 1.1970208115394e+02 2.6077513650070e-03
271 -1.2827282532070e+03 2.9362896136752e+04 -1.8825533142023e+01 1.1387142397181e-03
272 -1.8690041534261e+03 2.8758250814769e+04 -8.6756572999808e+01 2.6364368847934e-03
273 -2.3209475833492e+03 2.8926043666828e+04 -1.1160557883782e+02 2.8049619647155e-03
274 -1.7679064510930e+03 2.8176432066214e+04 -5.2021814031698e+01 2.4361381242694e-03
275 -2.3643626821518e+03 2.9515031008554e+04 -3.8836884698430e+01 3.1970533635724e-03
276 -2.6437918285942e+03 2.8984338527378e+04 -1.0583954081997e+02 3.1556389368945e-03
277 -1.7061988719823e+03 2.6602302770191e+04 -9.1051942545000e+01 2.2351805857858e-03
278 -5.7336421565508e+02 2.9476224825289e+04 -3.6944920665057e+01 1.0136351895411e-03
279 -2.0027754976134e+03 3.1600995363685e+04 -6.1527297344530e+01 2.7473751997653e-03
280 -2.0020112627116e+03 3.1754942551889e+04 -1.3030481866939e+02 2.8709775894633e-03
281 -2.3756690288982e+03 3.1007657231038e+04 1.3971355432906e+02 3.3994127891560e-03
282 -2.0744240023552e+03 3.0751927068340e+04 8.8458642782819e+01 5.6152795973664e-03
283 -4.6034839321302e+02 3.1585406098368e+04 -4.3384990120887e+01 2.7043798051130e-03
284 -7.6100068451338e+02 3.0578595087438e+04 -3.5914518785120e+01 2.1189152701554e-03
285 -8.3195512574171e+02 2.8231887310872e+04 -5.2606054198479e+01 9.8704905996212e-04
286 -1.9364903702149e+03 3.1010022665673e+04 -1.5343915085502e+02 8.3212349890348e-04
287 -1.0922556782845e+03 2.4830381303177e+04 -1.3461040188155e+01 1.8885927316832e-03
288 -2.0929968083850e+03 2.6351643620916e+04 1.5374722328577e+02 1.6052925128129e-03
289 -1.0817348226425e+03 2.5617113001239e+04 2.8331399809330e+01 1.3563300949447e-03
290 -1.8280487415213e+03 2.5592894045560e+04 1.0917205625752e+02 2.3878945833327e-03
291 -1.4843136964646e+03 3.0908139598296e+04 -1.0564492790788e+02 3.2214129689091e-03
292 -2.4231625923652e+03 3.1772490870507e+04 -8.7620712810028e+01 1.1472844872700e-03
293 -1.4193287457722e+03 2.6223573580415e+04 1.6214900627008e+02 1.6144772838034e-03
294 -2.3183199733491e+03 2.8133072354479e+04 -1.7915363708740e+02 2.4301030994214e-03
295 -1.4326379700561e+03 3.0512798040231e+04 -1.0321865997912e+02 2.3974451115781e-03
296 -4.7002167939761e+02 2.5175294371794e+04 -5.5119506160034e+01 4.0354792638037e-04
297 -1.1621980370894e+03 3.1510594155778e+04 1.5294266323953e+02 2.8513829101083e-03
298 -6.7331402849304e+02 3.0855019486139e+04 -6.6668804402236e+01 1.9752023315515e-03
299 -1.4815921231340e+03 3.1808504643400e+04 1.6215349084398e+02 2.9763487589092e-03
300 -5.1192079232858e+02 3.2678340321076e+04 -5.6525318439457e+01 1.3160226520200e-03
301 -9.2164175177011e+02 3.1266192431840e+04 -2.3109292543098e+01 2.8951840287200e-03
302 -1.4808343242740e+03 3.1217088398133e+04 -6.0842830928934e+01 3.3471188854185e-03
303 -8.2223859143531e+02 3.1299858451048e+04 -3.8791867625471e+01 3.1692748289933e-03
304 -1.1574153002262e+03 3.1727937475991e+04 2.4701237310264e+01 3.0721130459718e-03
305 -1.6540071295783e+03 2.9529477630523e+04 -3.9631494530450e+01 1.9736559610890e-03
306 -1.6852465146549e+03 2.6032628919711e+04 2.3003703347325e+01 2.7624411916880e-03
307 -8.1521026012176e+02 2.5565151999522e+04 -4.2817585591626e+01 1.2565497190415e-03
308 -1.2713111152052e+03 2.7051018509947e+04 1.3214865387057e+02 5.9329568870673e-04
309 -8.9397175588065e+02 2.6146362604082e+04 -9.0391887356253e+01 1.1223012666061e-03
310 -8.4408530193111e+02 3.1094942638875e+04 -1.0420437113274e+02 2.2640970915851e-03
311 -6.4210769637933e+02 3.0864236996724e+04 -8.7208268925260e+00 2.7252661714813e-03
312 -9.0689568021749e+02 2.3591021889751e+04 -4.2031113682731e+01 1.4671497608821e-03
313 -9.5468960693731e+02 2.2926339010926e+04 -8.2176967194204e+01 1.4356301905944e-03
314 -1.2347019805607e+03 3.1456808871928e+04 -7.1914042296730e+01 2.9596767145871e-03
315 -1.1938228969433e+03 3.1156833423506e+04 -1.6082371099625e+02 2.1338491973857e-03
316 -1.1304167521929e+03 3.2244462541434e+04 -2.3613207221962e+01 1.6154929220978e-03
317 -1.4239758538947e+03 3.4984212991436e+04 1.0620560763197e+02 3.1564737762331e-04
318 -1.7093794959225e+03 3.4850762194176e+04 -1.5583989316372e+02 3.1701094402055e-04
319 -1.3114404497054e+03 3.2183253516126e+04 -5.1404507075250e+01 1.5456071177274e-03
320 -1.2376773726608e+03 2.7628113684199e+04 -9.4002966349491e+01 1.6758074331694e-03
321 -1.1308996061762e+03 2.7113850726849e+04 -4.5863110208009e+01 1.5459903117501e-03
322 -1.9717104822653e+03 2.7119007362230e+04 1.7769024034936e+02 2.7177129726332e-03
323 -1.4786653344592e+03 2.5769094196156e+04 -5.1076774740666e+01 2.4212261520778e-03
324 -1.0195753011661e+03 2.5013944743053e+04 1.3333612803978e+02 1.7083254362873e-03
325 -1.1482265066560e+03 2.6380062974691e+04 -8.5130064651541e+01 1.1849129722772e-03
326 -1.2436733261761e+03 2.7969383236852e+04 -3.7529126861394e+01 1.0786330881825e-03
327 -1.7042175530246e+03 3.0291218614160e+04 1.5782343519011e+02 1.9754853267469e-03
328 -1.8064555573137e+03 2.7151514006085e+04 -4.1460678524685e+01 2.2664006653160e-03
329 -1.3467105196042e+03 2.6568538612103e+04 -7.8685591701905e+01 1.8584999804028e-03
330 -1.6376623461761e+03 2.6173196740340e+04 -3.9074869347648e+01 2.6614462465216e-03
331 -1.3947824663018e+03 2.6691789401293e+04 1.6110207153944e+02 1.1442578104996e-03
332 -1.2281414712652e+03 2.5787750249242e+04 -5.6929773280702e+01 1.8647270004036e-03
333 -1.9280674865535e+03 2.7413441755432e+04 1.3902767745760e+02 1.8412044726807e-03
334 -2.1682084703548e+03 2.4870192069407e+04 1.4226836331728e+02 3.4101283467938e-03
335 -1.7365986901462e+03 2.4846319963581e+04 1.1039004789436e+02 2.6873177077130e-03
336 -1.8057815257358e+03 2.5059051777131e+04 1.7599569833148e+02 2.8802475755899e-03
337 -1.2334300683344e+03 2.4421257830797e+04 -3.7841257765716e+01 2.0450415205278e-03
338 -1.5909057198690e+03 2.4282490649530e+04 -4.7156823659283e+01 2.7985042754763e-03
339 -5.1465950525916e+02 2.2689513855200e+04 -4.5048091103895e+01 1.2135785605175e-03
340 -8.0683586646594e+02 2.6435320485556e+04 -1.5828303883835e+01 1.0932132510632e-03
341 -2.9085515519222e+02 2.3243281111625e+04 -7.9225685851796e+00 9.1324663243846e-04
342 -1.8452836451922e+03 2.9700360608843e+04 -1.7654092774687e+02 6.4925084037958e-04
343 -2.3148061148383e+03 2.2784093433223e+04 1.7862199295206e+02 3.3942259673095e-03
344 -1.4618967060432e+03 2.3401614970382e+04 -4.3547334516147e+01 6.5977781874519e-04
345 -2.3538073660512e+03 2.3557139736697e+04 8.6563792812113e+01 2.1948811752200e-03
346 -1.6932516201002e+03 2.2081996306798e+04 -3.9130955377854e+01 3.2723472710995e-03
347 -2.4795084234099e+03 2.3385311967270e+04 1.5027358238501e+02 1.5986512029302e-03
348 -2.4540307063422e+03 2.1802947849927e+04 -1.4792199553131e+02 1.6940626545181e-03
349 -1.7557829220122e+03 2.7524376106813e+04 1.3309555415268e+02 1.1913043426558e-03
350 -8.6140786985400e+02 2.7397068130458e+04 -9.5340012364915e-01 8.8005739585718e-04
351 -1.3344341283473e+03 2.5647511418329e+04 -5.2336637410860e+01 1.9981873839305e-03
352 -1.2534260704283e+03 2.5469256672151e+04 -1.6804720728016e+02 1.2369311153338e-03
353 -1.7008755082769e+03 2.4889469392698e+04 -2.2553039382780e+01 2.7208556434129e-03
354 -1.7051064326813e+03 2.4494533798462e+04 -6.0015657538448e+01 3.0084670426628e-03
355 -2.4736258874609e+03 2.5489723990770e+04 1.5592885610403e+02 3.2929310842011e-03
356 -2.2210327572142e+03 2.7427756990480e+04 -7.7622772516701e+01 2.8234424921780e-03
357 -1.9998455067961e+03 2.7270587354212e+04 -1.0216893261132e+02 1.4432581882512e-03
358 -2.8437203775478e+03 2.6865513982032e+04 -1.2575290062654e+02 1.1036518956006e-03
359 -2.0438061863419e+03 2.7133123904160e+04 -1.9166626601627e+01 2.8356270776851e-03
360 -1.5187283907370e+03 2.5673639838746e+04 1.1562855830819e+01 2.1921034906975e-03
361 -2.3967059193005e+03 2.6061573386184e+04 8.1836549435029e+01 3.4360309598859e-03
362 -1.8848481960573e+03 2.7173884184694e+04 -2.7517580732392e+01 2.4998225142482e-03
363 -1.5628625361534e+03 2.4499968297675e+04 -2.0693251989535e+01 2.4109927013361e-03
364 -1.4809571717661e+03 2.2486302015528e+04 -9.3617327525305e+01 1.0013464180246e-03
365 -1.6022721807869e+03 2.3612185402783e+04 -1.6729098462248e+02 2.1285387869398e-03
366 -1.2462605481606e+03 2.2202230387520e+04 1.7670769695134e+02 1.0974941897876e-03
367 -2.0144379284338e+03 2.9742950734674e+04 -7.3115506194982e+01 2.7297921351305e-03
368 -1.6958102759527e+03 2.9820835320038e+04 -6.1797319885395e+01 1.6456266313234e-03
369 -1.8112345621832e+03 3.1716900527107e+04 1.0879925353036e+02 3.0555084022844e-03
370 -1.7191522619092e+03 2.8506378593633e+04 -1.0338607474852e+01 2.3384808221919e-03
371 -1.8236009776304e+03 2.8659491696011e+04 -8.7531788003733e+01 2.4245124784723e-03
372 -1.0646864507974e+03 2.7345735884362e+04 -9.0714395192283e+01 1.2801812594812e-03
373 -1.6441344559770e+03 3.0846688905778e+04 1.3980746343980e+01 6.4926520609988e-04
374 -1.2006995323361e+03 2.6954598823584e+04 -1.6338286339466e+01 1.5706683952969e-03
375 -1.4061044263022e+03 2.7113129189128e+04 -1.9873995509898e+01 1.9699485848342e-03
376 -2.2170054343807e+03 2.3095938599951e+04 1.3858705009015e+02 2.4000033688296e-03
377 -1.7868505960357e+03 2.6907146735089e+04 2.3025440745748e+00 1.2750611955565e-03
378 -2.3157743991883e+03 2.6481121893309e+04 -8.4271510191203e+01 2.6834636696353e-03
379 -2.1190950426299e+03 2.7460236036671e+04 -1.1050780678292e+02 1.5146490622904e-03
380 -2.1719381704300e+03 2.8154029374356e+04 9.6515064830941e+01 2.9137274621541e-03
381 -1.8476679191827e+03 3.0808773478228e+04 1.0125785239874e+02 1.3994298807583e-03
382 -1.5832028455609e+03 3.0575137979246e+04 1.3128972596513e+01 3.0988793382782e-03
383 -2.1215364903017e+03 2.9832575330060e+04 -9.4415226738902e+00 1.2679743898981e-03
384 -1.4824720550145e+03 2.9266491324695e+04 -4.9107876198880e+01 4.9589570620715e-04
385 -1.3476059607994e+03 2.8281968821425e+04 -2.7800263410825e+01 1.7641547090420e-03
386 -1.8871234144400e+03 2.8807200479076e+04 -1.0005946830913e+02 2.0763728289818e-03
387 -2.1422840609479e+03 2.9988535479350e+04 -1.3737907596119e+02 2.1019026251117e-03
388 -1.3482616472630e+03 2.9998041845425e+04 -1.3039834601895e+01 1.4817656503382e-03
389 -1.0692875433640e+03 2.9842031531832e+04 1.5426791431710e+02 1.7748076270338e-03
390 -1.7795967047447e+03 3.5102429275648e+04 1.4413515432110e+02 3.1375606135729e-04
391 -2.1732332693153e+03 2.7339411878125e+04 1.2555066554019e+02 2.9513971167279e-03
392 -1.5146481496979e+03 2.7026583093399e+04 -1.9986582341129e+01 1.9751330616248e-03
393 -2.1304172102078e+03 2.7636755519127e+04 1.2475243357227e+02 2.2290583988081e-03
394 -1.3433179857001e+03 3.1750269533139e+04 -4.9090649907328e+01 2.2706108036074e-03
395 -1.6639339243683e+03 3.2004640681839e+04 -3.9716801198462e+01 1.0088280138440e-03
396 -1.1651962232373e+03 2.9939666248662e+04 -1.3700321097716e+02 1.4373773097991e-03
397 -1.9444641356099e+03 3.1077609741611e+04 1.4764404022518e+02 3.3849452316884e-03
398 -1.5965666432500e+03 2.9391369448587e+04 1.5123093986505e+02 1.9775263893553e-03
399 -7.6439217076878e+02 3.2055255749272e+04 -4.9450195565801e+01 8.0734946417835e-04
400 -1.6074602133480e+03 2.6686914161728e+04 -7.4173505767876e+01 2.2230885735839e-03
401 -1.3296547278024e+03 2.6957572684611e+04 -5.0897980171773e+01 1.9107343371585e-03
402 -1.7349310865574e+03 2.7571540651779e+04 -1.6349367370533e+02 2.1655400232994e-03
403 -2.4358199505773e+03 2.6616754753297e+04 1.5559655805974e+02 9.6624287485351e-04
404 -2.2097070742194e+03 2.6738691474994e+04 -1.7552699109512e+02 2.0366833810240e-03
405 -1.3184604485407e+03 2.3959545906518e+04 -3.5343919755434e+01 2.3681010670041e-03
406 -1.7363939856958e+03 2.3999344452992e+04 -5.5515028868331e+01 1.2643084174960e-03
407 -1.7833386737696e+03 2.4435294340386e+04 -7.7279605448290e+01 2.6254673232846e-03
408 -1.8385583193103e+03 2.4600261283463e+04 -3.7641235130071e+00 3.1851647856607e-03
409 -2.9450753718088e+03 2.4923106006709e+04 1.6570904380202e+02 3.0304445750462e-03
410 -2.7722908269701e+03 2.5175809861899e+04 1.6210052182975e+02 3.1651662828737e-03
411 -2.6572196267106e+03 2.6256565285177e+04 -1.3031691197064e+02 2.8126621268306e-03
412 -2.2575089870080e+03 2.6765045280501e+04 8.5636334886786e+01 3.3834894726002e-03
413 -2.0271873800109e+03 2.6314744313143e+04 -4.9692629489825e+01 3.0180351026319e-03
414 -1.3831238129198e+03 3.1601985914576e+04 -1.2681240247850e+02 2.3915387013246e-03
415 -5.3205934090595e+02 2.9521996421416e+04 -4.1336771125018e+01 1.1386342526895e-03
416 -1.5499531676083e+03 2.5911542129965e+04 -1.7866459165524e+02 1.0123737842397e-03
417 -2.2879011085557e+03 2.9557575095200e+04 2.7411218880565e-01 9.2812755567562e-04
418 -1.4119565663431e+03 2.6360538559456e+04 -7.4895077262261e+01 4.4019808530517e-04
419 -1.3298005186074e+03 2.7290454097302e+04 1.0265000336417e+02 1.8326194401782e-03
420 -2.6162028759377e+03 2.6376041791312e+04 1.5954264196774e+02 3.2992405353557e-03
421 -1.2878008463391e+03 2.7341035387050e+04 3.2318082985524e+01 1.3847662843350e-03
422 -2.3857667551518e+03 2.8635075334265e+04 1.4922782761697e+02 3.2055874067399e-03
423 -7.5383015638865e+02 2.4520753504161e+04 -4.8371776143036e+01 1.3185547480767e-03
424 -1.3915124835014e+03 2.5104967927384e+04 -9.6910427128602e+01 2.2423735890069e-03
425 -1.1328625306020e+03 2.6092004435787e+04 1.6392616977881e+01 1.1569524394367e-03
426 -2.8213808862704e+03 2.8428622931895e+04 -1.0282514551026e+02 1.1571714287611e-03
427 -3.0693408341484e+03 2.9044295948338e+04 1.7255994131130e+02 2.2317776440106e-03
428 -1.3806777094848e+03 2.8153198786815e+04 -2.6692310773138e+01 1.4795449314616e-03
429 -3.1947195461361e+03 2.8668458240081e+04 -1.7827224218245e+02 2.7264396757798e-03
430 -1.5376211218743e+03 2.6348821941956e+04 -7.5570669441553e+01 2.1596254319933e-03
431 -2.0360800466644e+03 2.6326738274691e+04 -4.9842375401298e+01 2.5493843768265e-03
432 -1.0684635122205e+03 2.7698788288683e+04 -2.4534830023732e+01 1.3646783768692e-03
433 -1.6215053017224e+03 2.7980001617925e+04 5.7563775839342e+01 2.1179218111568e-03
434 -2.1257459321866e+03 2.8362687320965e+04 1.2923917168167e+02 2.5297710924559e-03
435 -1.6734394919302e+03 2.6014248434742e+04 -2.6510503117386e+01 2.5509297696717e-03
436 -1.6491488703373e+03 2.5676778301131e+04 -7.3832341788999e+01 2.5956115891992e-03
437 -1.4768649994304e+03 2.6277901157393e+04 1.0341622553013e+02 2.2576447255564e-03
438 -1.4186124503442e+03 2.7278237406503e+04 8.3656195702612e+00 1.9171645334356e-03
439 -1.6341050469915e+03 2.7521325846952e+04 -4.9561191256204e+00 2.4254449573854e-03
440 -2.3743734227827e+03 2.9593678886226e+04 1.4970332657299e+02 1.7125746430505e-03
441 -1.9526936298294e+03 2.8486259491698e+04 -8.8489669791702e+01 1.8099267562904e-03
442 -1.2545745389531e+03 2.8541149484998e+04 -1.7903486132655e+01 1.3640690644055e-03
443 -2.0501005445825e+03 2.6664641728619e+04 -1.3843796203306e+02 2.7902618799628e-03
444 -2.0559531366842e+03 2.7097476087185e+04 1.1543900212915e+02 2.6346651130900e-03
445 -1.6723779871572e+03 2.6701769548398e+04 -2.4735206892729e+01 2.1744062264860e-03
446 -2.3749698489497e+03 3.2542721031453e+04 -1.4223770868782e+02 1.5524981052946e-03
447 -2.0282141409473e+03 3.2721315868528e+04 1.0986274790744e+02 1.3134992464954e-03
448 -1.1973618512795e+03 3.0516358157003e+04 -4.9801913719825e+01 2.1867025259295e-03
449 -1.2481520045295e+03 3.1315116413275e+04 -7.0090821538405e+01 2.6917882720019e-03
450 -1.3647787592959e+03 3.1447283249518e+04 -5.9963552087512e+01 1.7886477944201e-03
451 -7.6377749255434e+02 3.1683062492674e+04 -2.6734364376939e+01 2.5105509516520e-03
452 -2.9745824234257e+03 3.1091103448260e+04 1.2519437632355e+02 3.1264174463977e-04
453 -2.4769249650102e+03 3.0207216704563e+04 -1.1556760097726e+02 1.8788792923744e-03
454 -2.8255664250311e+03 3.0624806843788e+04 -1.3136391713412e+02 2.2431437973979e-03
455 -1.9823845993458e+03 2.9946343301690e+04 -5.2877772341613e+01 1.9287464067450e-03
456 -2.4937182522698e+03 2.9627185620620e+04 1.2479106653801e+02 2.3581088173740e-03
457 -2.2789941891216e+03 2.7953466434179e+04 -8.7127320724907e+01 2.8783967041431e-03
458 -2.4227912157984e+03 2.8062337396426e+04 1.4066151899845e+02 3.3718160892977e-03
459 -2.0272206817048e+03 3.0786511576048e+04 1.3228754260406e+02 1.7435443554876e-03
460 -2.4559712529654e+03 3.1161292001885e+04 1.3264015941126e+02 1.4149827587387e-03
461 -2.4325754141400e+03 2.9794792147114e+04 -1.5456625815965e+02 3.2476361342101e-03
462 -1.9060451511289e+03 2.9508938047757e+04 -4.0508677342182e+01 2.5761840997558e-03
463 -2.2619854538388e+03 3.0273547553756e+04 1.2996128143846e+02 1.1879372131081e-03
464 -2.0536985445253e+03 2.7581350348122e+04 -3.7996693793645e+01 2.9133605725030e-03
465 -3.0489868799455e+03 2.8521715671226e+04 1.4634579595437e+02 3.3514552706410e-03
466 -1.2179335090872e+03 3.1009106615556e+04 -5.9337888940329e+01 3.1533802244049e-03
467 -1.0407418393549e+03 3.2305435098580e+04 -1.4687620379834e+01 1.1457124293752e-03
468 -2.2769636363500e+03 3.2176950520852e+04 1.7041788117496e+02 1.5738730828484e-03
469 -2.1350425405161e+03 3.1399233752260e+04 -8.8581196990572e+01 2.9463612217215e-03
470 -1.3636478130996e+03 3.2313808965474e+04 -1.3692064577536e+02 2.0821174848366e-03
471 -1.0806158348666e+03 3.2590871442469e+04 -1.0078828592268e+02 7.1124795594243e-04
472 -5.0675958176213e+02 3.1340491587483e+04 -2.7168676402035e+01 3.4132259346104e-03
473 -1.0957537677522e+03 3.1503689073899e+04 -7.3346230699635e+01 3.3274671681468e-03
474 -2.0793263542394e+03 2.9121607262775e+04 -1.4863893162156e+02 2.3104526260769e-03
475 -1.6768632434058e+03 2.8620610393468e+04 1.4026179613350e+02 2.3118629617173e-03
476 -2.2786250045788e+03 2.8495991888419e+04 1.3839081136929e+02 1.5441113780922e-03
477 -1.6088282261112e+03 3.1840176646000e+04 -4.0918952526142e+01 2.6154391186704e-03
478 -1.3879343215241e+03 3.0402608539772e+04 -1.9052906028113e+01 1.2552028205193e-03
479 -1.3253011442275e+03 3.1977452590746e+04 7.0104866468562e+01 4.3285914381208e-04
480 -1.4208923628717e+03 3.0214673203170e+04 -1.4531762131179e+01 2.5050908592334e-03
481 -2.3712834926673e+03 2.9024924339866e+04 1.7212787853168e+02 2.7823401015908e-03
482 -2.0281209658737e+03 2.9365693116096e+04 5.2749144624670e+01 2.6525538660481e-03
483 -1.3548263513790e+03 2.9401283720699e+04 -3.3928552262684e+01 1.5894879032059e-03
484 -2.2140727326211e+03 2.9338404380656e+04 -1.0935076459045e+02 3.0738673146696e-03
485 -2.7583147362884e+03 3.0276811775578e+04 -9.3242866484156e+01 3.0068678316786e-03
486 -2.9649354209722e+03 2.8596295131580e+04 1.2099930724700e+02 1.9896816781844e-03
487 -1.8189394585378e+03 2.7745294792912e+04 9.6561203529126e+01 2.0815714935672e-03
488 -1.6770714795735e+03 2.7393257666360e+04 -9.4719346151320e+01 2.5343934627175e-03
489 -1.2059955739121e+03 3.1528299544269e+04 -3.5492564953399e+01 2.3647223058139e-03
490 -1.4260594611472e+03 3.3888083029088e+04 -3.9654792897588e+01 4.1063783028050e-04
491 -1.9770232242953e+03 3.2245566254046e+04 1.2813576885526e+02 1.4033891193768e-03
492 -1.8038322377652e+03 3.2109193772096e+04 -1.1211678143752e+02 2.3114800850251e-03
493 -8.9859378489860e+02 3.1454766921922e+04 -4.2055341013412e+01 2.2165691561042e-03
494 -1.0852189112538e+03 2.6667786067321e+04 -5.3293184231360e+01 1.5732435795578e-03
495 1.1750601405448e+02 2.5071147843227e+04 -4.0329322981929e+01 4.6130072515849e-04
496 -1.1819439496551e+03 2.5524542994012e+04 -6.3507211086688e+01 1.6723102271618e-03
497 -2.0992761853387e+02 2.2511720296029e+04 -5.2601192970458e+01 8.5471754960382e-04
498 -1.0983357342361e+03 2.5732304613702e+04 8.8642205282143e+01 4.7556976505133e-03
499 -1.0092712560163e+03 2.3806262223942e+04 -3.9457420861994e+01 1.9235600017414e-03
