0 -1.2171466681660e+03 2.5643796355460e+04 -2.9579354871298e+01 2.0195262523567e-03
1 -1.2987446048284e+03 2.6846934476011e+04 -1.1862597251420e+02 1.3734087830409e-03
2 -1.0438617189865e+03 2.5801636889103e+04 -5.3648784225419e+01 1.6670404671128e-03
3 -1.5803328601999e+03 2.6037450710257e+04 8.6371492296075e+01 2.2935351351025e-03
4 -1.9107121598839e+03 2.7299149756418e+04 -2.0752918072214e+01 2.9334639583699e-03
5 -1.7347326703452e+03 2.8937481136200e+04 3.3422294301458e+01 4.5747833847669e-04
6 -1.6445934498694e+03 2.6671255950369e+04 -1.0190799893771e+00 1.5667584280934e-03
7 -2.4092201007042e+03 2.6449604820100e+04 -1.1187441973502e+02 1.9535121050815e-03
8 -2.3079507442749e+03 2.6421560908375e+04 -8.7494385748619e+01 3.5178733188128e-03
9 -1.7790605036794e+03 2.5912321492359e+04 -8.3062902945868e+01 3.0136598328418e-03
10 -1.4683240822562e+03 2.6152055640700e+04 -7.6367595904579e+00 2.3528432279332e-03
11 -2.5503135336358e+02 3.0911140671080e+04 -4.4453895429677e+01 1.5237550870628e-03
12 -1.7965875623074e+03 3.0921357190377e+04 -1.0977355272144e+01 3.2710158054464e-03
13 -5.3213835153510e+02 3.0202088076506e+04 -5.1461586838104e+01 2.2424570479425e-03
14 -7.6345881618578e+02 3.1488458024561e+04 -6.2251230609170e+00 3.4616795392522e-03
15 -2.1329509757511e+03 2.5637808649489e+04 1.1863236999545e+02 3.4319255031079e-03
16 -1.9429355882729e+03 2.5324313857305e+04 -1.0795939249715e+02 2.1590233008746e-03
17 -1.7244226312145e+03 2.6234348062479e+04 -1.6290653403856e+02 2.8648742200827e-03
18 -1.5482192173665e+03 2.6048558368497e+04 1.1623060619080e+02 2.4137593930846e-03
19 -1.6225639319236e+03 2.7668982034469e+04 1.0031870661526e+02 2.4602143304408e-03
20 -1.8217110293605e+03 2.7818004242450e+04 1.1997866997722e+02 1.5706123736585e-03
21 -1.0585451448926e+03 2.6676564401128e+04 1.5651249641666e+02 1.4917976430557e-03
22 -1.4185348010441e+03 2.6651328882756e+04 1.7030781963294e+02 1.8145810334017e-03
23 -2.5316522400001e+03 3.0247226623228e+04 -7.8809366757914e+01 8.6889048963387e-04
24 -1.2962227223211e+03 2.9675162539240e+04 1.7004137207484e+02 6.2384928660527e-04
25 -1.2849974807039e+03 2.9364178836141e+04 2.3318075491236e+01 1.3021452424850e-03
26 -1.5446251489080e+03 2.8960176163626e+04 1.6087683230431e+01 1.2535579160131e-03
27 -6.3264067524363e+02 2.7597050365380e+04 -2.7081978019575e+01 6.5444297068567e-04
28 -1.2909872053157e+03 2.4377942475040e+04 -3.1777136824688e+01 7.7348320214136e-04
29 -2.1181162969590e+03 2.2675429602318e+04 -2.2635888846527e+00 2.5838547044517e-03
30 -1.2094136845454e+03 2.2594766213802e+04 -1.5062838802111e+02 2.4965310630170e-03
31 -1.1611708439354e+03 2.2634667331793e+04 1.6286991713875e+02 1.7521167425107e-03
32 -1.1861618273541e+03 2.3620533195986e+04 -7.9412718458511e+00 1.4230598355482e-03
33 -3.8225015878285e+02 2.2994849719823e+04 -1.4124201077381e+01 9.7770035049737e-04
34 -9.0176806357929e+02 2.2334993173158e+04 -3.2620308850918e+01 1.3756714288708e-03
35 -8.6468915766683e+02 2.2875068845410e+04 -1.5148444413771e+01 1.8809470613000e-03
36 -1.0616672190995e+03 2.5750666798842e+04 -7.2850584547135e+01 7.5307362857494e-04
37 -1.4947191086644e+03 2.6299087370129e+04 1.6213809108158e+02 1.5051491126707e-03
38 -1.1120095014687e+03 2.5075102014964e+04 -2.9998581867179e+01 1.9435057428664e-03
39 -1.5762991991169e+03 2.6038838456784e+04 4.4597328199600e+01 7.2478775831217e-04
40 -2.0379729779397e+03 2.5835659412002e+04 -4.6541899483766e+01 2.7760088420771e-03
41 -1.0965566213571e+03 2.4182684565240e+04 -8.6069909373772e+01 1.8281073241865e-03
42 -1.9144482383011e+03 2.6917246723651e+04 9.2681015341292e+01 2.6541004065918e-03
43 -1.8471932290493e+03 2.5996188083788e+04 -1.4435287823034e+02 2.0076759744389e-03
44 -1.5539928806719e+03 2.5058718552222e+04 1.3754715664221e+02 1.0304654602187e-03
45 -9.4918146157588e+02 2.4846363807447e+04 1.7814232348184e+02 1.4694840066728e-03
46 -2.1959653207608e+02 2.1627078832948e+04 -2.5908921897309e+01 9.0128286430291e-04
47 -7.7730433465891e+02 2.0986090274155e+04 -3.5230553959010e+01 1.5541895548683e-03
48 -8.2966541368028e+02 2.0993493771242e+04 1.6764828231168e+02 2.1582529510982e-03
49 -3.3394570693912e+02 2.5790563342695e+04 -1.7158369612694e+01 5.9256070503770e-04
50 -1.0595162303447e+03 2.6006330173586e+04 -1.0090653904270e+00 1.2050107963292e-03
51 -1.1981139528200e+03 2.5487668729458e+04 -1.5419461175817e+02 7.3181533167137e-04
52 -1.6604146000240e+03 2.4526472163048e+04 9.9807765272511e+01 2.9854091477881e-03
53 -1.3762634867011e+03 2.3727943136957e+04 -7.9721567844442e+01 2.4096915203910e-03
54 -4.8277263995619e+02 2.1877462305472e+04 -2.1057736204107e+01 1.3524938689833e-03
55 -8.4901825661954e+02 2.9249006118404e+04 -4.8656666660960e+01 8.8980987650687e-04
56 -7.0602095854493e+02 2.6385690411093e+04 -1.0559700029829e+02 9.6541960431289e-04
57 -1.6359396089645e+03 3.0102632125638e+04 2.8982502207471e+01 2.2582087406638e-03
58 -2.5979274025662e+03 3.3688301740665e+04 -5.1595048473853e+01 4.4984803995233e-04
59 -1.2647928680882e+03 3.1870491324062e+04 -1.7391983442649e+02 1.6118310895845e-03
60 -2.5226306395597e+03 3.4080552274121e+04 1.7846680051374e+01 3.6798859612650e-04
61 -1.6755784062560e+03 3.1481877278175e+04 -1.6238983271819e+02 3.2388309170693e-03
62 -8.7047450317860e+02 3.1067715924234e+04 -2.0381000710581e+01 3.5526262971360e-03
63 -5.6905454690867e+02 3.4066106273582e+04 -5.5061003065255e+01 3.9283623144447e-04
64 -7.0592447454257e+02 3.1409748629430e+04 -3.3919933663917e+00 1.7377260832093e-03
65 -8.3610441717787e+02 3.2183924491566e+04 -1.6336721739662e+01 2.3655255139560e-03
66 -8.2995949940904e+02 3.0540306451083e+04 -3.0384259686208e+01 2.1722486504174e-03
67 -2.5517040436982e+03 3.2138763710640e+04 -2.6189438003726e+01 2.1413107161382e-03
68 -1.6267048282724e+03 3.2058881341295e+04 1.6458697191679e+02 2.5951268528310e-03
69 -2.4349040875969e+03 3.2229880233043e+04 1.6619018744421e+02 1.7980658655979e-03
70 -1.5087402653150e+03 3.2330288463383e+04 1.4141539240840e+02 1.0317552937929e-03
71 -7.5159247685153e+02 3.1264068431453e+04 1.8367839711467e+01 3.2099640631692e-03
72 -1.7643755546492e+03 3.3202968865890e+04 -1.7277927515306e+01 7.1785470965292e-04
73 -8.7778572300919e+02 3.2820374431027e+04 -3.3541207940728e+01 1.3234903856180e-03
74 -1.7536845988657e+03 3.2735165120217e+04 -1.6665194620504e+02 1.3204334209313e-03
75 -2.2603249484000e+03 3.2534397114066e+04 1.4010655603456e+02 1.6493352864219e-03
76 -1.4831191937099e+03 3.1911326740857e+04 5.0380781939885e+01 2.2967282441935e-03
77 -1.4415893662310e+03 2.9931658603852e+04 -1.6311804039703e+02 1.7570894121285e-03
78 -1.7782543058050e+03 3.2834475924597e+04 -1.8115027999399e+01 1.2205523024141e-03
79 -1.8812224010841e+03 3.4091361832235e+04 1.1540449626864e+02 3.4765819931265e-04
80 -6.9332164650802e+02 3.2800540221644e+04 -5.0267655782152e+01 8.8380428876441e-04
81 -1.3773576241079e+03 2.7307803289593e+04 1.2094665895369e+02 2.0477662267466e-03
82 -1.1991803395458e+03 2.6827571113438e+04 1.5041916434201e+02 1.7254699203795e-03
83 -6.7253757432761e+02 3.3293030392944e+04 1.4459727752909e+02 5.9199655369717e-04
84 9.5257947564033e+01 3.2956644292234e+04 -3.7424773789488e+01 1.1021010753487e-03
85 -1.9702154749946e+03 3.0762397437274e+04 1.6358870792645e+02 3.4338625957755e-03
86 -1.6324506218684e+03 3.2409282296780e+04 2.1241604280508e+01 9.7205054451720e-04
87 -1.8363970516984e+03 3.3088331599087e+04 -1.0077639700714e+02 8.9726472901719e-04
88 -2.0816670128327e+03 3.2053010233963e+04 1.5528510123619e+02 1.1987873958790e-03
89 -1.3214083424076e+03 3.1910155510338e+04 -4.5156971739929e+01 1.9624888159760e-03
90 -1.4238603019766e+03 3.1849883056944e+04 -2.1618689576516e+01 2.5454192073699e-03
91 -5.1034023142997e+02 2.7860129571736e+04 -3.2420834177767e+01 6.3353789583144e-04
92 -8.3322273107919e+02 3.1870724272182e+04 9.9576999799207e+00 3.0509202279136e-03
93 -1.0159095150635e+03 3.1907829436583e+04 5.7235007782988e+01 2.6556560302516e-03
94 -5.0648170143361e+02 3.0585201674531e+04 1.3797218022906e+02 2.2437546936016e-03
95 -8.9179700586207e+02 3.2580605418756e+04 1.7181851192600e+02 6.8720459352567e-04
96 -1.4950992985551e+03 3.1481117333282e+04 -2.1141597926224e+01 3.4418348901509e-03
97 -1.2434182495470e+03 2.6866749763098e+04 -3.6057268979201e+01 1.1789535772156e-03
98 -1.8197886071968e+03 3.1183838870453e+04 1.7606263381704e+02 1.4664291521120e-03
99 -1.1969286359067e+03 3.0068679495649e+04 -3.1969627705922e+01 2.2810931066753e-03
100 -1.9100676205383e+03 3.3119370670886e+04 1.6494896230935e+02 8.4189105580217e-04
101 -1.1749884922829e+03 2.8277393697178e+04 -1.3453168005838e+01 9.8036604272637e-04
102 -1.1271472385649e+03 3.1858671574422e+04 1.3610556333297e+02 2.8963694510189e-03
103 -1.4647180688205e+03 3.1744318170450e+04 1.7598118954494e+02 3.0672949158029e-03
104 -2.0082613095868e+03 3.0501452378512e+04 9.1086605048468e+01 3.0904072976354e-03
105 -1.7971956186761e+03 2.8702839238426e+04 -3.2462719574299e+00 2.3703727833683e-03
106 -2.4949178728539e+03 2.8201114597406e+04 1.1148437127083e+02 3.5365640794419e-03
107 -2.8023973802503e+03 2.6561831570952e+04 -1.3636478278672e+02 2.7526808647668e-03
108 -2.6770427609062e+03 2.6490295640419e+04 -1.2529123502988e+02 2.0548102099499e-03
109 -1.1158591836453e+03 2.7820255199513e+04 -4.7545225328061e+01 8.8857100409465e-04
110 -1.8596201946817e+03 3.1009277493133e+04 -3.7044790753160e+01 2.2004456408359e-03
111 -7.1436155906082e+02 2.8683679526706e+04 -2.4636282221289e+01 4.8215855805329e-04
112 -5.5579299460118e+02 2.7956651887461e+04 -2.6598033528343e+01 7.3301375578237e-04
113 -1.2026088983775e+02 2.6688874846604e+04 -6.3247793542184e-01 4.5064854688657e-04
114 -1.7104560207829e+03 2.7951523840572e+04 -2.7855818634118e+01 2.5818531332525e-03
115 -2.3641327600620e+03 2.8497331618109e+04 8.5326099809387e+01 2.4745497931000e-03
116 -2.1066217406337e+03 2.8254373603443e+04 -1.0780592493414e+01 3.2016454708694e-03
117 -1.7402082208572e+03 2.7641984738956e+04 1.5115925152608e+02 2.6329201654099e-03
118 -2.5029374449107e+03 2.7627255797389e+04 -6.8565110519944e+00 1.3429786864953e-03
119 -1.6993338121864e+03 2.7152515998148e+04 1.2481151064586e+01 2.7039473749764e-03
120 -1.6010859222610e+03 2.7212411595774e+04 -1.2317247801110e+01 2.4072861485450e-03
121 -1.5360186855367e+03 2.8832416425720e+04 -4.0245911940232e+01 2.0618384370708e-03
122 -1.8536298201600e+03 2.7339213901092e+04 5.0810228327010e+01 1.6419318443515e-03
123 -2.4760186468009e+03 2.8098387398930e+04 1.7048544462081e+02 1.4570377271874e-03
124 -1.9458351772258e+03 2.9108378012335e+04 1.6512000254771e+01 2.3055303427465e-03
125 -2.1529323915733e+03 3.0039387970158e+04 -7.6613079780970e+01 2.5691754369396e-03
126 -1.7155320616286e+03 3.0180125989172e+04 -1.1123358925623e+01 2.5492648048291e-03
127 -1.6037518144020e+03 2.9333802633221e+04 1.7175650730581e+02 1.7658987691628e-03
128 -1.0926379466665e+03 2.6593434768995e+04 -2.9643187163954e+01 1.4617595283358e-03
129 -1.8212990759972e+03 2.7028054016041e+04 -3.9955360846365e+01 2.7642147078363e-03
130 -1.9239225263804e+03 3.0378758483254e+04 2.6494008995223e+00 2.1703469768030e-03
131 -7.3634694300825e+02 2.9252861325275e+04 1.4141881488574e+02 5.5724403091009e-04
132 -5.4198973762106e+02 3.1723637737962e+04 -4.0901694214646e+01 1.0503466145210e-03
133 -1.9277096607112e+03 2.4809029556343e+04 2.0587155628160e+00 2.5958575875362e-03
134 -1.7950179524651e+03 2.5456230168296e+04 -3.1402437072646e+01 2.3071747498342e-03
135 -1.7453845960035e+03 2.9078645558203e+04 -1.9399105278148e+01 2.4427717163306e-03
136 -2.0005672156258e+03 2.8180253893449e+04 -2.6343133471222e+01 2.6988720124505e-03
137 -2.4789476988629e+03 2.9673100398082e+04 3.1659904437988e+01 2.6827004705938e-03
138 -2.2364724496264e+03 2.9404913512655e+04 -3.1413627844605e+01 2.4057790595146e-03
139 -1.4712341636517e+03 2.7648412750429e+04 -1.3095793120998e+02 1.4015026402191e-03
140 -2.5080023319053e+03 2.7450640931799e+04 1.6625872100783e+02 6.1365648077399e-04
141 -2.0924160229518e+03 2.7915706234769e+04 1.0093623578859e+02 2.1666666419829e-03
142 -1.8088157221973e+03 2.6412288053236e+04 1.7761475228774e+02 2.1846887382696e-03
143 -2.2717790954258e+03 2.6853069534943e+04 -3.9335841081229e+01 3.4559482171817e-03
144 -1.7785306026092e+03 2.6896805265577e+04 1.5119235938706e+02 2.8789439142150e-03
145 -1.6748564767316e+03 2.8482474461855e+04 -2.8394306301678e+01 8.4316526587296e-04
146 -2.2454586907708e+03 2.6189304036448e+04 -4.6626252996656e+01 2.8165970520638e-03
147 -2.4769691450651e+03 2.6807771495915e+04 1.2025141545478e+02 3.5465000254744e-03
148 -1.8878146442940e+03 2.6905344969160e+04 3.4539216014157e+00 3.0521581720385e-03
149 -2.3322459557242e+03 2.8661732720820e+04 1.3477201669738e+02 3.4176776137120e-03
150 -1.3266970898152e+03 3.0946119526747e+04 -2.1275999820905e+01 3.5335613784768e-03
151 -7.2002200396279e+02 3.0469902084378e+04 5.7158543286310e+01 2.9716200142174e-03
152 -1.7764078771287e+03 3.0714995842584e+04 -1.0648994101022e+02 2.4823471926925e-03
153 -1.3083269382820e+03 2.9257125045009e+04 1.2873729351240e+02 8.9120208843484e-04
154 -1.7015325389725e+03 3.0057167089216e+04 -1.4133339286870e+01 1.7874486129436e-03
155 -2.7007525649300e+03 3.0757761625271e+04 -1.5514568419832e+02 3.3408061120334e-03
156 -2.6629632278900e+03 3.0836050626937e+04 -1.0364336117174e+01 3.4115177025529e-03
157 -1.7075976602811e+03 2.9651051911458e+04 1.5470436880154e+02 1.2994865433825e-03
158 -1.6162969563298e+03 3.1580473993907e+04 -2.7046634596630e+01 3.0162590095324e-03
159 -1.2976195553457e+03 3.0996606831317e+04 -1.2282215439338e+02 3.3366815264641e-03
160 -9.0135023916192e+02 2.9428521970646e+04 -2.0481487451427e+01 8.5570871447369e-04
161 -2.1406602009954e+03 3.0859070558610e+04 -1.8108253887496e+01 3.2712915909044e-03
162 -1.7443971162631e+03 3.1887221803782e+04 -4.7255064067471e+00 2.4896671311517e-03
163 -1.6604726475485e+03 3.2659786961436e+04 1.4577631620604e+02 1.4218179822493e-03
164 -1.2710693774111e+03 3.2360777825807e+04 -3.7187666237768e+01 1.8596539057257e-03
165 -1.3111194260272e+03 3.2605720315134e+04 1.4248160632772e+02 1.5834409666162e-03
166 -1.3299139772465e+03 2.9275175876931e+04 8.1463300803347e+01 1.2404788545635e-03
167 -1.5554688589459e+03 2.9590778909394e+04 5.7426600906635e+01 1.9471548766682e-03
168 -9.4824121890584e+02 2.9135435257859e+04 -2.0335618095090e+01 1.0164862020612e-03
169 -1.3502355161427e+03 2.9422896712808e+04 1.3985676706046e+02 1.3457026990047e-03
170 -2.5803265938250e+03 3.2522810585830e+04 1.4695691625192e+02 1.3701046755527e-03
171 -1.9860004081410e+03 3.1699527628814e+04 -1.2369474141282e+01 6.8667379466186e-04
172 -1.4343289412885e+03 3.1720571653062e+04 -1.4453062791600e+02 2.9181618443942e-03
173 -1.8416616248648e+03 3.1939652648663e+04 1.4489254852825e+02 2.8136709051324e-03
174 -1.6943718379088e+03 3.2142247759752e+04 -1.2285922847706e+01 2.4569990512061e-03
175 -1.4464314075028e+03 3.0858352888223e+04 -9.5993119993898e+01 1.6303548913256e-03
176 -1.8260861948367e+03 3.1519646017867e+04 -6.1045597207017e+01 2.3126509766749e-03
177 -1.6087449142964e+03 3.2586087975033e+04 8.0058957703247e+01 1.3739521601547e-03
178 -1.3267899305853e+03 3.0650638921931e+04 -1.3217282260319e+02 2.9377134273499e-03
179 -2.0128574061696e+03 3.1066232827113e+04 -1.1413151662773e+02 3.0039005111421e-03
180 -2.2426835433363e+03 3.3877595414663e+04 -2.2675947381032e+01 3.9521739203356e-04
181 -2.2988090898163e+03 3.0851548723852e+04 4.6896998624828e+01 3.1738123372685e-03
182 -1.9635490542726e+03 3.3661157487585e+04 5.2156647793436e+01 3.8581670319878e-04
183 -2.1570489237328e+03 3.1258649231234e+04 1.4540387199028e+02 2.2850754747035e-03
184 -2.3364157866411e+03 3.1768983537908e+04 -5.3168096918380e+00 2.5578571554107e-03
185 -7.5995010792044e+02 3.0594324621848e+04 -8.0085897574526e+00 2.9102804804018e-03
186 -2.5176982419944e+03 3.3277228805248e+04 -1.4156152963632e+01 6.7327847244893e-04
187 -2.4688247639525e+03 3.3545683614226e+04 1.5298843512577e+02 4.0557705183688e-04
188 -1.5988085974490e+03 3.2668809451242e+04 -4.8106598140921e+01 5.2974074039129e-04
189 -1.6143342431150e+03 3.0533835731424e+04 -5.3840869524106e+01 2.8896977737091e-03
190 -1.9268187441329e+03 3.0049684577680e+04 1.5998619556256e+02 1.4528037278148e-03
191 -1.7899779987452e+03 3.0402753492506e+04 -2.8694359794068e+01 1.1073395657017e-03
192 -1.9674971878502e+03 2.8316949510592e+04 -1.3552611601584e+01 2.6656010041823e-03
193 -1.3651325383968e+03 2.7495607389239e+04 -9.6348816405145e+00 1.9970876804972e-03
194 -2.0104642649633e+03 2.8518953463854e+04 1.7416711084773e+00 3.0063996680090e-03
195 -1.7013278377613e+03 2.8857647155619e+04 5.0525386026791e+00 1.8273354444154e-03
196 -2.0379853349734e+03 2.9240219524607e+04 1.2312460881132e+02 2.3913618529287e-03
197 -2.3428509003942e+03 2.9359808952177e+04 1.8908887292337e+01 3.3129054486839e-03
198 -2.0545822927384e+03 3.0030168152302e+04 -8.7764060277649e+01 2.5082020379422e-03
199 -2.2509689763215e+03 3.1312731828921e+04 -1.6740116694256e+00 3.4493459102987e-03
200 -2.6947582657070e+03 3.0946439222897e+04 -3.5005233459193e+01 2.5610623778082e-03
201 -1.8757653065182e+03 3.1755787892084e+04 -8.1316050382674e+01 3.1313648413860e-03
202 -1.2160013622860e+03 3.0827363131228e+04 -4.5563664390114e+01 3.4627896608592e-03
203 -1.8475307689476e+03 3.1097479645429e+04 6.0816550855002e-01 2.2803999757507e-03
204 -1.5211802503655e+03 3.1072870049763e+04 -1.7056671445206e+02 3.4295979168969e-03
205 -1.6249691835866e+03 3.1388372830271e+04 -3.4239334369280e+01 3.4854404107668e-03
206 -2.1208368309030e+03 3.1664517352507e+04 -1.6009815073745e+02 2.8706476778452e-03
207 -2.0956486594655e+03 3.5150021080160e+04 -1.2353969422475e+02 3.2454990771212e-04
208 -1.2184891215724e+03 3.0418450391784e+04 -3.5391321231962e+01 2.7033685284960e-03
209 -9.0545635370170e+02 3.1876855954389e+04 -5.4030597964439e+01 2.4380282038417e-03
210 -1.6317699783388e+03 3.2342874167126e+04 1.5759294359019e+02 1.9644688631805e-03
211 -1.1542431971613e+03 2.7686785395473e+04 2.1229297406239e+01 1.5733824580531e-03
212 -1.1526256481344e+03 2.7277119391080e+04 9.5571290712246e+00 1.6091521415630e-03
213 -8.3689221801204e+02 2.8194630528609e+04 5.2689827581438e+00 6.7562761857788e-04
214 -1.7648390419004e+03 2.9931558391529e+04 -3.4363704620710e+01 2.3194711366180e-03
215 -2.1837499571220e+03 3.1015749979497e+04 2.5148076514600e+01 1.9166197949067e-03
216 -1.8702971096847e+03 2.8073124004114e+04 1.2949173391812e+02 1.6244030455804e-03
217 -1.8346892504672e+03 3.2450136032431e+04 2.2554015799549e+01 1.5039119786829e-03
218 -1.3442055110376e+03 3.4299865413977e+04 -3.6426197193083e+01 3.4222618023706e-04
219 -5.3253811813487e+02 3.4522628251953e+04 -2.7136055796928e+01 3.4171670419934e-04
220 -5.9419665700607e+02 3.3522403160252e+04 -1.9987401401008e+01 5.1036658557923e-04
221 -7.8320264559334e+02 3.0152195492885e+04 1.4732359144410e+02 2.3331048584506e-03
222 -8.4151694681526e+02 3.3523991456090e+04 -2.7159890106998e+01 3.9847308988112e-04
223 -2.1904823922525e+03 3.4661543847779e+04 1.6267933211131e+02 3.2643689617590e-04
224 -2.3489720814583e+03 3.1854494988811e+04 -1.6513151184791e+02 2.8287367179658e-03
225 -8.9530088483067e+02 3.0662871729700e+04 -7.5628030498746e+01 3.2343766021149e-03
226 -1.1079828284005e+03 3.0979038196942e+04 9.8891822409928e+00 3.5405495956676e-03
227 -1.4781132742209e+03 3.0481337780909e+04 -2.6622477570180e+01 2.1614565222861e-03
228 -8.1292969576418e+02 3.3252902878211e+04 2.7976427283341e+00 4.9683728130016e-04
229 -4.3355421887373e+02 3.3785051563666e+04 -2.3415539384550e+01 4.4967142828993e-04
230 -7.7369727704092e+02 2.9778021232696e+04 -1.6321201346250e+01 1.6781858841657e-03
231 -1.9899968341609e+03 3.2896847203458e+04 -2.1260328181634e+01 9.8921029016383e-04
232 -1.9048449103153e+03 3.2824734091304e+04 -8.0201652791311e+01 1.2152152307746e-03
233 -1.8197400818454e+03 3.2638893335611e+04 -1.6746417917117e+01 1.3316911701544e-03
234 -9.4168831721283e+02 3.3892036121395e+04 -5.7099903905385e+01 3.6295107645626e-04
235 -1.8069359695263e+03 3.1462250387799e+04 1.3213452089205e+02 3.1866167860560e-03
236 -1.4098761529331e+03 3.1015231030610e+04 -4.2822241911477e+00 3.4096702131278e-03
237 -1.0849617987778e+03 3.1399989709422e+04 1.5529285268756e+02 8.7287011241736e-04
238 -1.9986254237942e+03 2.8571028365453e+04 1.1159166984509e+02 2.8917277840357e-03
239 -8.8927822366176e+02 3.4723778488478e+04 2.9922191864931e+01 3.3147919276855e-04
240 -1.4187253168307e+03 3.2934830106095e+04 7.9360050705683e+01 1.1128297048815e-03
241 -8.3410498815893e+02 3.2296086845201e+04 -1.3249812363650e+01 2.2711925043830e-03
242 -1.0768253092797e+03 3.0927868823641e+04 1.6517043994345e+02 3.5205454732944e-03
243 -2.0330380484267e+03 3.3611731047237e+04 1.6027734989578e+02 4.7360819160328e-04
244 -1.2127964053190e+03 3.4291550890461e+04 -3.9831093164141e+01 3.5621914292711e-04
245 -1.9729306956008e+03 3.1263647845562e+04 -2.8649684220809e+01 3.5492704662729e-03
246 -1.6396981324711e+03 3.0908315855560e+04 -1.7235435620238e+02 2.7851789079691e-03
247 -1.2288795299058e+03 3.0784285219960e+04 7.0160753752770e+00 2.7950893807478e-03
248 -1.7895905573927e+03 3.2436090071022e+04 1.7884458685443e+02 1.8635967293113e-03
249 -1.7460059694328e+03 3.2632539524030e+04 1.7530013007622e+02 1.5092644461487e-03
250 -1.2668506044874e+03 3.4126049692118e+04 -9.3353833679447e+00 3.5734385351112e-04
251 -1.5711736996169e+03 3.1391433450604e+04 7.6672278756335e+01 3.4791203127218e-03
252 -1.7286496404744e+03 3.2123335207553e+04 -8.5226771155263e+01 2.0238505331469e-03
253 -1.1273738257042e+03 3.2310691256551e+04 1.5839552646571e+02 1.9226966035611e-03
254 -8.7342116489399e+02 3.2757446115182e+04 -5.2058874761120e+01 1.4227023818871e-03
255 -1.3934637576368e+03 3.1782028167472e+04 1.7850838515317e+01 2.5009155868784e-03
256 -1.3062757182301e+03 3.2316309945410e+04 -6.0148736716493e+01 2.1764634021518e-03
257 -1.0330907941552e+03 3.1974660649001e+04 -1.4713664433701e+00 2.8403645352001e-03
258 -2.0343901152949e+03 3.1333734385821e+04 -2.2443970962401e+01 3.4377935149805e-03
259 -1.7873708254702e+03 3.1537670442638e+04 -1.4523819843912e+02 3.3567024158199e-03
260 -1.3810301844512e+03 3.1115204421536e+04 1.5627866502714e+02 3.5549145547036e-03
261 -1.1908716513586e+03 3.1231484835705e+04 -1.4030985915313e+01 3.5442605058479e-03
262 -1.5684965882709e+03 3.1584659689793e+04 -1.6982399863274e+00 2.1335821204601e-03
263 -1.2856454425656e+03 3.1861163363442e+04 -3.7714257932141e+01 2.9767396253528e-03
264 -1.5099070867552e+03 3.1084414730439e+04 -1.7095499344507e+01 2.8824485116318e-03
265 -2.2161870750943e+03 3.0372836228877e+04 1.5213909959083e+02 1.3887583373069e-03
266 -2.0305502690267e+03 2.9847329725526e+04 2.1241997282796e+01 6.7811413733501e-04
267 -2.7093123054296e+03 3.2416796528763e+04 1.7402511468953e+02 1.7843870043834e-03
268 -2.7949089548083e+03 3.2498547692082e+04 7.4299851301245e+01 5.6754324954683e-04
269 -1.4081054834446e+03 3.1857070782731e+04 -1.3566946264071e+02 2.9869813387807e-03
270 -2.7279284576664e+03 3.0135945387200e+04 -8.4668056626893e+00 2.5405284350630e-03
271 -1.3892317964109e+03 2.9280026763013e+04 -1.4211386114402e+02 1.5480621289306e-03
272 -1.9765932627837e+03 2.8755328683167e+04 -1.7844422303754e+02 2.9248205050126e-03
273 -2.0189835207301e+03 2.8940571045021e+04 2.7543548301676e+00 2.6466615877183e-03
274 -1.7452724697210e+03 2.8034116695033e+04 -8.0963305257537e+01 2.6137134409504e-03
275 -2.0504017877473e+03 2.9422078297138e+04 -1.6492157589263e+01 2.7500150016296e-03
276 -2.4219544928074e+03 2.9132316062433e+04 3.3705438313234e+01 3.1789315599425e-03
277 -1.6155240246822e+03 2.6605998255679e+04 2.3338181841314e+00 2.0447135771414e-03
278 -5.4473915743357e+02 2.9564517093836e+04 7.2036891953953e+01 1.1187202549935e-03
279 -2.2149724102049e+03 3.1613967704396e+04 1.7650166204344e+02 2.8920113956153e-03
280 -1.7863910841717e+03 3.1625062401428e+04 -3.1062918111386e+01 3.1727417178811e-03
281 -2.4332211091098e+03 3.0975154693068e+04 -1.5054441022967e+02 3.5524789238281e-03
282 -1.9167655944787e+03 3.0554242049862e+04 -5.1426823526269e+01 2.9501313942520e-03
283 -5.6176960880679e+02 3.1636241588452e+04 1.5337853693167e+02 2.8427016712717e-03
284 -9.2182324937411e+02 3.0646820490639e+04 1.5701199320716e+02 2.4105653286651e-03
285 -7.9432042124070e+02 2.8397827487047e+04 7.7221664734073e+01 9.4834710606723e-04
286 -2.0727803497538e+03 3.1100879299630e+04 1.4631090817992e+02 7.3874495967825e-04
287 -8.5555540555091e+02 2.4800523625547e+04 -7.1893923347450e+00 1.5342150470035e-03
288 -2.0180844368329e+03 2.6385948864478e+04 2.4604857162972e+01 1.3722259184693e-03
289 -1.2963198398585e+03 2.5520436646093e+04 -1.5574714708845e+02 1.2846644407029e-03
290 -1.4939451814561e+03 2.5345577635199e+04 -3.6510280158494e+01 1.9169669176456e-03
291 -1.8092787693901e+03 3.0984077761085e+04 1.6684708791135e+02 3.4950312024001e-03
292 -2.5422343492982e+03 3.1778444910946e+04 1.7713737753557e+02 1.2788167398518e-03
293 -1.1495276250967e+03 2.6103503028160e+04 -2.3990668830921e+01 1.1744140867167e-03
294 -2.3698408085785e+03 2.8261534360834e+04 1.1185369417738e+02 2.5513806873620e-03
295 -1.3129884385131e+03 3.0438843173436e+04 -3.1720034889528e+01 2.4387068582418e-03
296 -1.4037301370376e+02 2.5023103278353e+04 -2.4781667686753e+01 3.7413773339412e-04
297 -1.0067260145280e+03 3.1460170499616e+04 -1.7969238940217e+01 2.9459230102139e-03
298 -4.1642459126519e+02 3.0815293637549e+04 -8.7906908447582e+00 2.1487964728718e-03
299 -1.4881764677114e+03 3.1969557314014e+04 9.2341129635060e+01 3.4055597053233e-03
300 -4.2446024495055e+02 3.2596664838689e+04 -4.3041040443287e+01 1.5380751069448e-03
301 -5.5397533164914e+02 3.1186485172393e+04 -1.2231999567713e+01 2.6941309930827e-03
302 -1.4285622892146e+03 3.1193237672887e+04 -2.4526302862100e+01 3.3371356379070e-03
303 -9.6707893468942e+02 3.1298612901124e+04 -1.7950729891190e+02 3.0625644536307e-03
304 -9.9319288366403e+02 3.1686210007484e+04 -1.4256649185373e+01 3.2679219293268e-03
305 -1.5386905661885e+03 2.9508901235365e+04 -1.0117040476894e+01 1.8509091648508e-03
306 -1.6324455711003e+03 2.6064424073798e+04 3.1055097377603e+01 2.7530852853272e-03
307 -8.5755100860775e+02 2.5450650051583e+04 -1.1029348172780e+02 1.3933137316521e-03
308 -1.0416891179515e+03 2.6943614001624e+04 -2.5067600791324e+01 5.2574884932957e-04
309 -7.4038166035761e+02 2.6020333216629e+04 -3.9370820978504e+01 9.9979638079704e-04
310 -8.5183439270218e+02 3.1153190236742e+04 9.7577965565666e+01 2.2748998378023e-03
311 -7.5591229668577e+02 3.0733491975467e+04 -1.3103734186044e+02 3.1163621829200e-03
312 -8.8855063040358e+02 2.3573669376624e+04 -4.3407355824249e+01 1.4885931448802e-03
313 -9.6545364503424e+02 2.2968223334476e+04 1.0441279634716e+02 1.4443362281604e-03
314 -1.1528168908765e+03 3.1464153217490e+04 5.1251949784572e+00 3.0169424443161e-03
315 -1.2409809648015e+03 3.1059228927601e+04 -1.1578772772005e+02 1.9145355065524e-03
316 -1.0221551461398e+03 3.2069526172123e+04 -5.8248177379218e+01 1.8714103295798e-03
317 -1.4098810355165e+03 3.5039602404056e+04 7.5723086369916e+01 3.2572072340301e-04
318 -1.6962168299085e+03 3.4921581627518e+04 7.9471015512097e+01 3.2666629035504e-04
319 -8.7201820693642e+02 3.1962127501796e+04 -2.6712450067204e+01 1.8534628417981e-03
320 -1.0691434241247e+03 2.7508521630071e+04 -3.5359594100949e+01 1.4645358445348e-03
321 -1.0687578349801e+03 2.7184153540405e+04 4.8526024382262e+01 1.4827941078038e-03
322 -1.6283562242352e+03 2.7020305928782e+04 -1.6037952572724e+01 2.4635478729472e-03
323 -1.4842332970462e+03 2.5721998784313e+04 -9.6742625148190e+01 2.5519355953931e-03
324 -9.5183773982510e+02 2.5013801456035e+04 -1.2119906536563e-01 1.6417014366131e-03
325 -1.2448031603114e+03 2.6304066937463e+04 -1.4180084093955e+02 1.1868463828047e-03
326 -6.3576926547050e+02 2.7753754946919e+04 -1.9529991033727e+01 6.7814286431487e-04
327 -1.6797072011060e+03 3.0417149633115e+04 7.8986040934678e+01 1.9947398216065e-03
328 -1.7684728303074e+03 2.7123735006756e+04 -3.6180197388926e+01 2.3655937255377e-03
329 -1.3805504397655e+03 2.6734659501579e+04 1.0151399004715e+02 2.0604779935894e-03
330 -1.4879073848321e+03 2.6062479727918e+04 -3.6476300883141e+01 2.4961769269455e-03
331 -1.3520271857330e+03 2.6555398695509e+04 -7.2595018109527e+01 1.4201467746923e-03
332 -1.0313586466545e+03 2.5946449734896e+04 3.8885142022844e+01 1.6299897096412e-03
333 -1.9057339632406e+03 2.7415448220676e+04 5.1337255036723e+00 1.8122534893724e-03
334 -2.3531167646843e+03 2.5050588178577e+04 1.3570767288046e+02 3.5451511894356e-03
335 -1.5946928641357e+03 2.4841642964551e+04 -1.8876979657663e+00 2.5436581783808e-03
336 -1.3834514894058e+03 2.4850279115685e+04 -2.6304814341734e+01 2.3828307693359e-03
337 -9.9771441661496e+02 2.4245952192655e+04 -3.6638793236593e+01 1.7584791248610e-03
338 -1.3966662692854e+03 2.4192165896969e+04 -2.4939254212744e+01 2.5900198760595e-03
339 -4.3672903596682e+02 2.2698622778470e+04 6.6667811035503e+00 1.1490620849968e-03
340 -6.3581382874637e+02 2.6344357870117e+04 -2.8007465311552e+01 8.9241698609267e-04
341 -4.7862797347078e+01 2.3188184108828e+04 -1.2775444198142e+01 7.1839899352690e-04
342 -1.6270113613518e+03 2.9643243996828e+04 -1.4664125208981e+01 4.9861129611676e-04
343 -2.3118539186997e+03 2.2741209594241e+04 -8.6061874772663e+01 3.5226510700037e-03
344 -1.3676011438419e+03 2.3420278548857e+04 1.1195646511131e+01 6.3577950424754e-04
345 -2.1655126168721e+03 2.3456484160443e+04 -2.8127351500597e+01 2.1144712248505e-03
346 -1.5642164162609e+03 2.2025409654587e+04 -2.3679207018443e+01 3.2376644828320e-03
347 -2.3044844399940e+03 2.3429756804066e+04 1.4248280203005e+01 1.4972620186355e-03
348 -2.6106899769063e+03 2.1820759367871e+04 1.7351355820769e+02 1.6587599919408e-03
349 -1.6750167534510e+03 2.7549156831465e+04 1.7057092437363e+01 1.1237269283119e-03
350 -9.0170114131542e+02 2.7365657328003e+04 -1.4206164132035e+02 1.0349245403794e-03
351 -1.1267039880259e+03 2.5568760768821e+04 -2.0761754928851e+01 1.7446808462952e-03
352 -1.3584581584912e+03 2.5375717946767e+04 -1.3831260801657e+02 1.7423743576729e-03
353 -1.9513788911728e+03 2.4890760843162e+04 1.7970461873749e+02 3.2407820870593e-03
354 -1.7896134362966e+03 2.4380449739965e+04 -1.2652895058362e+02 3.2705086589710e-03
355 -2.1613355052444e+03 2.5398550980132e+04 -1.6275136502511e+01 3.2827458761997e-03
356 -1.9759010475053e+03 2.7431840923259e+04 9.5446838330943e-01 2.8085205323916e-03
357 -1.7916294353057e+03 2.7075346849331e+04 -4.3157945406131e+01 1.2342247689687e-03
358 -2.5668349993671e+03 2.6740404364741e+04 -2.4315652756005e+01 1.1888190068784e-03
359 -1.9723786040673e+03 2.7134255045750e+04 9.0727167461836e-01 2.9449235848432e-03
360 -1.5875029848496e+03 2.5740630440955e+04 1.3575283892394e+02 2.2617444067984e-03
361 -2.1084932116605e+03 2.6103660784191e+04 8.3081190639435e+00 3.4275311328895e-03
362 -1.6399483022639e+03 2.7047935949813e+04 -2.7216059395071e+01 2.2764354179885e-03
363 -1.4586528179525e+03 2.4566910105342e+04 3.2715710234249e+01 2.3798540460710e-03
364 -1.6541638864944e+03 2.2476994068119e+04 -1.7692394364045e+02 9.0142749941331e-04
365 -1.4973920914858e+03 2.3603839354353e+04 -4.5498414818876e+00 2.0573724326242e-03
366 -1.1249821450050e+03 2.2139640790876e+04 -2.7297442698296e+01 1.1029672398085e-03
367 -1.9503340006510e+03 2.9732799315593e+04 -8.9985651204381e+00 2.7136277248266e-03
368 -1.5223773369260e+03 2.9785526898636e+04 -1.1507325055524e+01 1.4542353218614e-03
369 -1.6637025659336e+03 3.1632812311099e+04 -2.9681668124997e+01 3.2991597419977e-03
370 -1.6095919722173e+03 2.8345888524595e+04 -5.5680175951398e+01 2.3002341009251e-03
371 -1.5350589995249e+03 2.8491602859268e+04 -3.0193086819470e+01 2.0375429938440e-03
372 -1.1025167438301e+03 2.7536231732853e+04 1.0123215129484e+02 1.3967084551644e-03
373 -1.8427522646154e+03 3.0869467977670e+04 1.7345744927011e+02 8.9947058086445e-04
374 -1.1529964155210e+03 2.7009994443219e+04 4.9267101484935e+01 1.5097511856330e-03
375 -1.3059126062444e+03 2.6963054009535e+04 -5.6272496037735e+01 1.7968201547685e-03
376 -1.9624693238534e+03 2.2912293168905e+04 -3.5810097225855e+01 2.4354266877561e-03
377 -1.5977739313649e+03 2.6852279774869e+04 -1.6181865614931e+01 1.1747385890212e-03
378 -2.1895323508099e+03 2.6496224268196e+04 6.8218912882479e+00 2.7598690542368e-03
379 -2.1717306944162e+03 2.7515278885154e+04 1.3371934284446e+02 1.6174652940704e-03
380 -1.9643955592198e+03 2.8184640324209e+04 8.3901986817242e+00 2.7050999082179e-03
381 -1.8334675969732e+03 3.0748750915890e+04 -7.6689522743622e+01 1.4806600958114e-03
382 -1.6033399482488e+03 3.0679041768235e+04 1.0096824924593e+02 3.3480828605049e-03
383 -1.8981968049528e+03 2.9772957336905e+04 -1.4945964874810e+01 1.2140227615330e-03
384 -1.5168351684701e+03 2.9191129839364e+04 -1.1451190079630e+02 4.4113758556394e-04
385 -1.3876369091853e+03 2.8360835304810e+04 1.1691137981673e+02 1.8799673241674e-03
386 -1.7214948349292e+03 2.8825965681998e+04 6.4638705102017e+00 2.0692408704293e-03
387 -2.0940681077323e+03 3.0087979384513e+04 6.4133304309996e+01 1.9472213068986e-03
388 -1.2227778163027e+03 3.0052900338918e+04 2.3613784543947e+01 1.4665612650856e-03
389 -9.0878440245402e+02 2.9799463555670e+04 -1.4853781968211e+01 1.7387287835426e-03
390 -1.5083970948794e+03 3.4913691869992e+04 -3.4835422815119e+01 3.2560553446454e-04
391 -1.8129720208571e+03 2.7202185863745e+04 -2.0852185031343e+01 2.5789008848967e-03
392 -1.5102103294209e+03 2.7057449468241e+04 8.1818353571546e+01 2.1342269986058e-03
393 -2.1073284814307e+03 2.7617972284251e+04 -3.9129181585487e+01 2.3430214372563e-03
394 -1.1827720910656e+03 3.1613008582924e+04 -4.0529248853514e+01 2.6117818380754e-03
395 -1.6541497774480e+03 3.2006065373502e+04 8.2847413150353e+00 9.6450418576092e-04
396 -1.2022489332754e+03 2.9886992205525e+04 -1.2512385468904e+02 1.5510009748607e-03
397 -1.7599447331966e+03 3.0991396675446e+04 -2.5043409046111e+01 3.4159940184979e-03
398 -1.0832605874493e+03 2.9239205975841e+04 -1.6511830215959e+01 1.1402090359242e-03
399 -7.0644716406918e+02 3.1992774708937e+04 -4.7157114539018e+01 8.3557468425528e-04
400 -1.7463655266469e+03 2.6772914183277e+04 1.4823723440393e+02 2.5690322392466e-03
401 -1.0500324529995e+03 2.6837114461297e+04 -2.3305849943763e+01 1.5126782430961e-03
402 -1.5671041783081e+03 2.7653909703106e+04 2.6141695621113e+01 2.1020218288887e-03
403 -2.2603795888364e+03 2.6632936381321e+04 5.2697293236930e+00 9.6370302576948e-04
404 -2.3668701647693e+03 2.6941675636520e+04 1.2774928709668e+02 2.1589519142882e-03
405 -1.4804498418059e+03 2.4105317222446e+04 1.3801652757474e+02 2.7532857887029e-03
406 -1.6197920310623e+03 2.3942072630609e+04 -2.6159060308734e+01 1.1516453527130e-03
407 -1.7795467218415e+03 2.4388160234389e+04 -8.5400444697166e+01 2.6714780857963e-03
408 -1.9346117753723e+03 2.4712432662365e+04 1.3057376947773e+02 3.2942683198092e-03
409 -2.8712413228975e+03 2.4915125857848e+04 -6.1687096707686e+00 3.1939728188088e-03
410 -2.4085407350531e+03 2.4976486757924e+04 -2.8721294121728e+01 3.3972177404047e-03
411 -2.6645706362008e+03 2.6200053096213e+04 -9.7411323806576e+01 2.7006105742404e-03
412 -2.2739018042965e+03 2.6825998315697e+04 1.0505304782703e+02 3.5029829824160e-03
413 -2.0664776747356e+03 2.6189737248785e+04 -1.0744817295056e+02 3.2868352533348e-03
414 -1.6105679112883e+03 3.1652823601289e+04 1.6740050207804e+02 2.7488144254152e-03
415 -4.2932662994863e+02 2.9438827332126e+04 -3.8992514793512e+01 1.0853324431303e-03
416 -1.6801335753032e+03 2.5776082495345e+04 -1.3386147582829e+02 7.7935976847325e-04
417 -2.3172403003613e+03 2.9597972279719e+04 1.2598971242571e+02 1.1604566688758e-03
418 -1.1627604342452e+03 2.6187353248763e+04 -3.4798370109784e+01 4.1517701267630e-04
419 -1.2107133692066e+03 2.7436671567439e+04 5.0838828419601e+01 1.5812309105029e-03
420 -2.3394383394088e+03 2.6205176320685e+04 -3.1689839896534e+01 3.3184310262325e-03
421 -1.0308390267855e+03 2.7156159408689e+04 -3.5733832802040e+01 1.1417657525682e-03
422 -2.2484430072625e+03 2.8537854707932e+04 -3.5297218876647e+01 3.1592721752223e-03
423 -9.6650805091458e+02 2.4543950054739e+04 1.7377541538733e+02 1.5998176966439e-03
424 -1.4352249598110e+03 2.5085824953027e+04 -1.5634997988173e+02 2.2723243087554e-03
425 -1.4477863025340e+03 2.6170683023254e+04 1.6597272189089e+02 1.8426157875114e-03
426 -2.7133633218356e+03 2.8295663063000e+04 -5.0909341498118e+01 1.1545110958164e-03
427 -3.1031042473487e+03 2.9033719929331e+04 -1.6260740706257e+02 1.9321381469172e-03
428 -1.0989895420429e+03 2.8122527187654e+04 -6.2141664278869e+00 1.0653734207966e-03
429 -3.2499216252987e+03 2.8619948929182e+04 -1.3869232722851e+02 2.5460078924782e-03
430 -1.4440976636053e+03 2.6201299815524e+04 -5.7626845715521e+01 2.0821264866953e-03
431 -2.0478145654794e+03 2.6270004653613e+04 -1.0168600690540e+02 2.3237792472383e-03
432 -1.1221220418792e+03 2.7586553376465e+04 -1.1555205537362e+02 1.4334869200937e-03
433 -1.4971113439457e+03 2.7942324258729e+04 -1.6850897982817e+01 1.9966383733044e-03
434 -1.9829216031728e+03 2.8260497654194e+04 -3.5583417596247e+01 2.3026187150585e-03
435 -1.6185135414395e+03 2.5941932736951e+04 -5.2782235198987e+01 2.4318147029872e-03
436 -1.7243934272617e+03 2.5691837127559e+04 1.6868280817426e+02 2.7889057252671e-03
437 -1.3764787134648e+03 2.6335278107474e+04 2.9750628423882e+01 2.1519937796219e-03
438 -1.4421320671581e+03 2.7335888098426e+04 1.1219387008634e+02 1.9800722097600e-03
439 -1.2532806234331e+03 2.7456243119394e+04 -9.6981313201447e+00 1.7666833256528e-03
440 -2.1710472383972e+03 2.9558391626503e+04 -9.8456156306054e+00 1.5640669319335e-03
441 -1.9981382348155e+03 2.8560222295993e+04 1.2156761061706e+02 1.7636219158890e-03
442 -1.2318625370006e+03 2.8348568019102e+04 -8.3273918504539e+01 1.4975643567647e-03
443 -1.6574848819805e+03 2.6662524963110e+04 -3.0890401567001e-01 2.6400318392483e-03
444 -2.1365996185274e+03 2.7102875013511e+04 1.7617001503141e+02 2.9087865511637e-03
445 -1.7372497889122e+03 2.6662239247536e+04 -1.4864352877724e+02 2.4676679563889e-03
446 -2.0651786540268e+03 3.2436512057156e+04 -1.8923792163258e+01 1.8431522425105e-03
447 -1.9550369822890e+03 3.2688666434737e+04 -2.4044982698720e+01 1.4245298967175e-03
448 -1.2321850585845e+03 3.0479861572647e+04 -1.3365591510823e+02 2.0766337269701e-03
449 -1.2297147684859e+03 3.1424614761966e+04 8.0442239598739e+01 3.0203521204161e-03
450 -1.4475344895910e+03 3.1482859983185e+04 1.5673710444035e+02 1.7149904548099e-03
451 -5.4695646970353e+02 3.1413064163191e+04 -5.1233940501973e+01 2.5986294100261e-03
452 -2.7852462236285e+03 3.1125706166686e+04 1.0356966197887e+01 3.5134213370152e-03
453 -2.6251779969881e+03 3.0236185318437e+04 1.6894372452732e+02 1.7095847752610e-03
454 -2.5915070003988e+03 3.0406651582025e+04 -4.2985766468406e+01 1.9275283690477e-03
455 -2.0089476066936e+03 2.9912583747651e+04 -1.2819670657594e+02 2.0021434503416e-03
456 -2.6332833290686e+03 2.9636071011768e+04 1.7635718857901e+02 2.8571140986892e-03
457 -2.1948130337416e+03 2.8039466623973e+04 4.5612399824000e+01 2.9315255041786e-03
458 -2.4014664946305e+03 2.7974777072159e+04 -7.6312468034882e+01 3.3640927863782e-03
459 -2.2151258266086e+03 3.0754672630592e+04 -1.7038305373175e+02 2.1616067010229e-03
460 -2.0828835911620e+03 3.1124886816937e+04 -5.5731696728574e+00 1.1362809520009e-03
461 -2.4707471938695e+03 2.9604853134998e+04 -1.0136328541442e+02 3.2265345839414e-03
462 -1.7427133115130e+03 2.9424358833383e+04 -2.7376777375705e+01 2.3403228735610e-03
463 -2.3643796946786e+03 3.0258746410053e+04 -1.7177483575871e+02 1.3834721983945e-03
464 -1.7823169426436e+03 2.7560101220389e+04 -4.4771140125131e+00 2.4760086874054e-03
465 -2.9780378049266e+03 2.8435120907899e+04 -5.0671451309243e+01 3.5040506568530e-03
466 -1.1306505003824e+03 3.0982922373649e+04 -1.6698846333333e+01 3.2745770582915e-03
467 -1.0679311450689e+03 3.2432400358641e+04 1.0208719090845e+02 1.0204480991485e-03
468 -2.1593921004482e+03 3.2172364315947e+04 -2.2338487535014e+00 1.6333408997498e-03
469 -2.1303606921799e+03 3.1407785591941e+04 6.1300758421469e+01 2.9317898210803e-03
470 -1.5391866305132e+03 3.2470560850125e+04 1.3823592332429e+02 1.7755867256143e-03
471 -8.2253240199002e+02 3.2411569860576e+04 -3.4789358816818e+01 8.7598488501819e-04
472 -5.7096346223531e+02 3.1368207835863e+04 1.5665056888835e+02 3.5130841215876e-03
473 -8.7853227851332e+02 3.1535835895363e+04 8.4181572485596e+00 3.4540650341684e-03
474 -2.0385304748325e+03 2.9175733642349e+04 5.2994108371786e+01 2.4296870222084e-03
475 -2.0794265050871e+03 2.8791280733490e+04 1.5702504401590e+02 3.0297210812405e-03
476 -2.3206060855655e+03 2.8405384769436e+04 -1.1485974855304e+02 1.5648049342368e-03
477 -1.3224507129289e+03 3.1861964492510e+04 4.3507304626476e+00 2.5281673619141e-03
478 -1.3446457435462e+03 3.0339209784904e+04 -5.5674795270826e+01 1.3649253165506e-03
479 -1.6927732738774e+03 3.2216249196415e+04 1.4698274001292e+02 4.7049608783023e-04
480 -1.2132236582897e+03 3.0251997289616e+04 1.0188932569513e+01 2.6462888892115e-03
481 -2.0328797946003e+03 2.8966914087972e+04 -9.7272807416533e+00 2.6645300454633e-03
482 -1.7946561650988e+03 2.9230806412746e+04 -3.0017618490567e+01 2.3891778166126e-03
483 -1.3976120946698e+03 2.9210430833241e+04 -1.0263575502803e+02 1.7284207231698e-03
484 -2.0981413656327e+03 2.9384819013158e+04 2.1819337985224e+01 2.9418630832376e-03
485 -2.6104923483891e+03 3.0281323565878e+04 1.7482217550354e+00 3.1353269523068e-03
486 -2.9588860304026e+03 2.8594660350725e+04 -1.5122334050352e+01 2.0206027157211e-03
487 -1.6611343041980e+03 2.7547468072126e+04 -5.1420851869567e+01 2.1975600270937e-03
488 -1.2604900008062e+03 2.7360017619395e+04 -4.5621036029896e+00 1.8046855928439e-03
489 -1.0694280223253e+03 3.1521191211430e+04 -2.9795530841132e+00 2.2217139302718e-03
490 -9.4434925282558e+02 3.3829368578790e+04 -6.9493597631782e+00 4.4691498615057e-04
491 -1.8036444896009e+03 3.2232777284981e+04 -4.2186794204006e+00 1.3044751556635e-03
492 -1.6771799787569e+03 3.1973825783405e+04 -4.6905159897346e+01 2.6516281799432e-03
493 -7.8158394651715e+02 3.1375878809654e+04 -3.3987875671797e+01 2.0766555394369e-03
494 -1.0129497470996e+03 2.6705904276634e+04 2.7809305594101e+01 1.4966279036723e-03
495 3.7639136929149e+01 2.5129372179787e+04 1.4390730312265e+02 5.0690537578448e-04
496 -1.0284058943133e+03 2.5516338708653e+04 -3.0586833561481e+00 1.4208687125292e-03
497 -6.6947338182101e+01 2.2331922798989e+04 -5.1507243052397e+01 7.9238520207187e-04
498 -1.1539125897837e+03 2.5776324091284e+04 1.4161912386779e+02 1.8993364568569e-03
499 -8.4592205481706e+02 2.3724044066239e+04 -2.6717372983480e+01 1.6952335261909e-03
